
;DT9804(00).A/D0.Channel 0;DT9804(00).A/D0.Channel 1;DT9804(00).A/D0.Channel 2;DT9804(00).A/D0.Channel 3;DT9804(00).A/D0.Channel 4;DT9804(00).A/D0.Channel 5;DT9804(00).A/D0.Channel 6;DT9804(00).A/D0.Channel 7;DT9804(00).A/D0.Channel 8;DT9804(00).A/D0.Channel 9;DT9804(00).A/D0.Channel 10;DT9804(00).A/D0.Channel 11;DT9804(00).A/D0.Channel 12;DT9804(00).A/D0.Channel 13;DT9804(00).A/D0.Channel 14;DT9804(00).A/D0.Channel 15
0;-0.1483154296875
0,001;-0.1483154296875
0,002;-0.1483154296875
0,003;-0.1483154296875
0,004;-0.147705078125
0,005;-0.1483154296875
0,006;-0.1483154296875
0,007;-0.1483154296875
0,008;-0.14801025390625
0,009;-0.14862060546875
0,01;-0.14801025390625
0,011;-0.14862060546875
0,012;-0.147705078125
0,013;-0.14801025390625
0,014;-0.14862060546875
0,015;-0.14801025390625
0,016;-0.1483154296875
0,017;-0.1483154296875
0,018;-0.147705078125
0,019;-0.14862060546875
0,02;-0.14862060546875
0,021;-0.1483154296875
0,022;-0.1483154296875
0,023;-0.14862060546875
0,024;-0.1483154296875
0,025;-0.1483154296875
0,026;-0.147705078125
0,027;-0.14801025390625
0,028;-0.14801025390625
0,029;-0.14801025390625
0,03;-0.1483154296875
0,031;-0.14801025390625
0,032;-0.1483154296875
0,033;-0.147705078125
0,034;-0.14801025390625
0,035;-0.147705078125
0,036;-0.14862060546875
0,037;-0.147705078125
0,038;-0.1483154296875
0,039;-0.14801025390625
0,04;-0.14862060546875
0,041;-0.14801025390625
0,042;-0.1483154296875
0,043;-0.14801025390625
0,044;-0.14801025390625
0,045;-0.14862060546875
0,046;-0.1483154296875
0,047;-0.14801025390625
0,048;-0.14801025390625
0,049;-0.14801025390625
0,05;-0.14862060546875
0,051;-0.14801025390625
0,052;-0.1483154296875
0,053;-0.14862060546875
0,054;-0.1483154296875
0,055;-0.14862060546875
0,056;-0.14801025390625
0,057;-0.14801025390625
0,058;-0.14801025390625
0,059;-0.14801025390625
0,06;-0.1483154296875
0,061;-0.14801025390625
0,062;-0.14801025390625
0,063;-0.1483154296875
0,064;-0.14801025390625
0,065;-0.1483154296875
0,066;-0.14801025390625
0,067;-0.14801025390625
0,068;-0.1483154296875
0,069;-0.14801025390625
0,07;-0.14862060546875
0,071;-0.14923095703125
0,072;-0.14862060546875
0,073;-0.14801025390625
0,074;-0.14862060546875
0,075;-0.14801025390625
0,076;-0.14801025390625
0,077;-0.14801025390625
0,078;-0.1483154296875
0,079;-0.14862060546875
0,08;-0.147705078125
0,081;-0.147705078125
0,082;-0.1483154296875
0,083;-0.1483154296875
0,084;-0.14862060546875
0,085;-0.1483154296875
0,086;-0.147705078125
0,087;-0.1483154296875
0,088;-0.147705078125
0,089;-0.1483154296875
0,09;-0.14739990234375
0,091;-0.1483154296875
0,092;-0.14892578125
0,093;-0.14862060546875
0,094;-0.1483154296875
0,095;-0.1483154296875
0,096;-0.147705078125
0,097;-0.147705078125
0,098;-0.14862060546875
0,099;-0.14801025390625
0,1;-0.14862060546875
0,101;-0.1483154296875
0,102;-0.14862060546875
0,103;-0.1483154296875
0,104;-0.14862060546875
0,105;-0.1483154296875
0,106;-0.14862060546875
0,107;-0.1483154296875
0,108;-0.14862060546875
0,109;-0.1483154296875
0,11;-0.1483154296875
0,111;-0.14801025390625
0,112;-0.1483154296875
0,113;-0.1483154296875
0,114;-0.1483154296875
0,115;-0.1483154296875
0,116;-0.1483154296875
0,117;-0.1483154296875
0,118;-0.14862060546875
0,119;-0.14801025390625
0,12;-0.1483154296875
0,121;-0.14862060546875
0,122;-0.1483154296875
0,123;-0.14862060546875
0,124;-0.14801025390625
0,125;-0.1483154296875
0,126;-0.14862060546875
0,127;-0.1483154296875
0,128;-0.14862060546875
0,129;-0.14862060546875
0,13;-0.1483154296875
0,131;-0.1483154296875
0,132;-0.14801025390625
0,133;-0.1483154296875
0,134;-0.14892578125
0,135;-0.1483154296875
0,136;-0.14892578125
0,137;-0.1483154296875
0,138;-0.1483154296875
0,139;-0.1483154296875
0,14;-0.1483154296875
0,141;-0.14892578125
0,142;-0.14801025390625
0,143;-0.14862060546875
0,144;-0.14892578125
0,145;-0.14801025390625
0,146;-0.1483154296875
0,147;-0.14862060546875
0,148;-0.14801025390625
0,149;-0.14862060546875
0,15;-0.14801025390625
0,151;-0.1483154296875
0,152;-0.147705078125
0,153;-0.14862060546875
0,154;-0.14801025390625
0,155;-0.147705078125
0,156;-0.14862060546875
0,157;-0.1483154296875
0,158;-0.1483154296875
0,159;-0.147705078125
0,16;-0.14862060546875
0,161;-0.14862060546875
0,162;-0.14862060546875
0,163;-0.14862060546875
0,164;-0.14801025390625
0,165;-0.14862060546875
0,166;-0.1483154296875
0,167;-0.1483154296875
0,168;-0.14862060546875
0,169;-0.147705078125
0,17;-0.14801025390625
0,171;-0.1483154296875
0,172;-0.1483154296875
0,173;-0.14801025390625
0,174;-0.14862060546875
0,175;-0.1483154296875
0,176;-0.14801025390625
0,177;-0.14862060546875
0,178;-0.14923095703125
0,179;-0.14892578125
0,18;-0.14892578125
0,181;-0.1483154296875
0,182;-0.1483154296875
0,183;-0.1483154296875
0,184;-0.1483154296875
0,185;-0.14862060546875
0,186;-0.1483154296875
0,187;-0.1483154296875
0,188;-0.1483154296875
0,189;-0.1483154296875
0,19;-0.14892578125
0,191;-0.14801025390625
0,192;-0.14892578125
0,193;-0.1483154296875
0,194;-0.14892578125
0,195;-0.14862060546875
0,196;-0.14801025390625
0,197;-0.14801025390625
0,198;-0.1483154296875
0,199;-0.1483154296875
0,2;-0.1483154296875
0,201;-0.1483154296875
0,202;-0.14801025390625
0,203;-0.14801025390625
0,204;-0.1483154296875
0,205;-0.14862060546875
0,206;-0.14862060546875
0,207;-0.14801025390625
0,208;-0.1483154296875
0,209;-0.14862060546875
0,21;-0.14862060546875
0,211;-0.1483154296875
0,212;-0.14862060546875
0,213;-0.14862060546875
0,214;-0.14801025390625
0,215;-0.147705078125
0,216;-0.1483154296875
0,217;-0.14801025390625
0,218;-0.14862060546875
0,219;-0.1483154296875
0,22;-0.1483154296875
0,221;-0.14801025390625
0,222;-0.14801025390625
0,223;-0.14801025390625
0,224;-0.147705078125
0,225;-0.14892578125
0,226;-0.1483154296875
0,227;-0.14801025390625
0,228;-0.1483154296875
0,229;-0.14801025390625
0,23;-0.1483154296875
0,231;-0.1483154296875
0,232;-0.1483154296875
0,233;-0.14801025390625
0,234;-0.1483154296875
0,235;-0.14801025390625
0,236;-0.14862060546875
0,237;-0.14862060546875
0,238;-0.14801025390625
0,239;-0.14862060546875
0,24;-0.14801025390625
0,241;-0.147705078125
0,242;-0.14801025390625
0,243;-0.14892578125
0,244;-0.147705078125
0,245;-0.1483154296875
0,246;-0.14801025390625
0,247;-0.14801025390625
0,248;-0.1483154296875
0,249;-0.147705078125
0,25;-0.14862060546875
0,251;-0.14862060546875
0,252;-0.1483154296875
0,253;-0.1483154296875
0,254;-0.14862060546875
0,255;-0.1483154296875
0,256;-0.1483154296875
0,257;-0.14801025390625
0,258;-0.1483154296875
0,259;-0.1483154296875
0,26;-0.1483154296875
0,261;-0.1483154296875
0,262;-0.1483154296875
0,263;-0.14801025390625
0,264;-0.14862060546875
0,265;-0.14801025390625
0,266;-0.1483154296875
0,267;-0.1483154296875
0,268;-0.14862060546875
0,269;-0.14801025390625
0,27;-0.14862060546875
0,271;-0.14801025390625
0,272;-0.1483154296875
0,273;-0.1483154296875
0,274;-0.1483154296875
0,275;-0.1483154296875
0,276;-0.1483154296875
0,277;-0.14892578125
0,278;-0.14892578125
0,279;-0.14862060546875
0,28;-0.14862060546875
0,281;-0.14862060546875
0,282;-0.14862060546875
0,283;-0.147705078125
0,284;-0.1483154296875
0,285;-0.1483154296875
0,286;-0.14801025390625
0,287;-0.1483154296875
0,288;-0.14862060546875
0,289;-0.1483154296875
0,29;-0.1483154296875
0,291;-0.1483154296875
0,292;-0.1483154296875
0,293;-0.1483154296875
0,294;-0.1483154296875
0,295;-0.1483154296875
0,296;-0.1483154296875
0,297;-0.14862060546875
0,298;-0.14862060546875
0,299;-0.1483154296875
0,3;-0.14862060546875
0,301;-0.1483154296875
0,302;-0.14862060546875
0,303;-0.1483154296875
0,304;-0.1483154296875
0,305;-0.1483154296875
0,306;-0.14862060546875
0,307;-0.1483154296875
0,308;-0.14801025390625
0,309;-0.1483154296875
0,31;-0.14862060546875
0,311;-0.14801025390625
0,312;-0.1483154296875
0,313;-0.1483154296875
0,314;-0.1483154296875
0,315;-0.1483154296875
0,316;-0.1483154296875
0,317;-0.14892578125
0,318;-0.14862060546875
0,319;-0.147705078125
0,32;-0.1483154296875
0,321;-0.1483154296875
0,322;-0.14801025390625
0,323;-0.14862060546875
0,324;-0.1483154296875
0,325;-0.14862060546875
0,326;-0.14862060546875
0,327;-0.14862060546875
0,328;-0.1483154296875
0,329;-0.1483154296875
0,33;-0.1483154296875
0,331;-0.14862060546875
0,332;-0.1483154296875
0,333;-0.14862060546875
0,334;-0.1483154296875
0,335;-0.14862060546875
0,336;-0.147705078125
0,337;-0.14892578125
0,338;-0.14801025390625
0,339;-0.14801025390625
0,34;-0.1483154296875
0,341;-0.1483154296875
0,342;-0.1483154296875
0,343;-0.1483154296875
0,344;-0.14862060546875
0,345;-0.14862060546875
0,346;-0.1483154296875
0,347;-0.14892578125
0,348;-0.1483154296875
0,349;-0.14862060546875
0,35;-0.14801025390625
0,351;-0.14923095703125
0,352;-0.14892578125
0,353;-0.1483154296875
0,354;-0.14801025390625
0,355;-0.14801025390625
0,356;-0.14862060546875
0,357;-0.14801025390625
0,358;-0.1483154296875
0,359;-0.1483154296875
0,36;-0.14862060546875
0,361;-0.14862060546875
0,362;-0.14801025390625
0,363;-0.1483154296875
0,364;-0.1483154296875
0,365;-0.1483154296875
0,366;-0.1483154296875
0,367;-0.1483154296875
0,368;-0.1483154296875
0,369;-0.14862060546875
0,37;-0.14801025390625
0,371;-0.1483154296875
0,372;-0.14801025390625
0,373;-0.14892578125
0,374;-0.14862060546875
0,375;-0.1483154296875
0,376;-0.1483154296875
0,377;-0.14862060546875
0,378;-0.14801025390625
0,379;-0.1483154296875
0,38;-0.1483154296875
0,381;-0.14862060546875
0,382;-0.14862060546875
0,383;-0.1483154296875
0,384;-0.14862060546875
0,385;-0.14801025390625
0,386;-0.1483154296875
0,387;-0.14862060546875
0,388;-0.14862060546875
0,389;-0.1483154296875
0,39;-0.14862060546875
0,391;-0.1483154296875
0,392;-0.1483154296875
0,393;-0.1483154296875
0,394;-0.14801025390625
0,395;-0.14862060546875
0,396;-0.14862060546875
0,397;-0.14801025390625
0,398;-0.1483154296875
0,399;-0.1483154296875
0,4;-0.1483154296875
0,401;-0.1483154296875
0,402;-0.1483154296875
0,403;-0.1483154296875
0,404;-0.1483154296875
0,405;-0.1483154296875
0,406;-0.14892578125
0,407;-0.14862060546875
0,408;-0.14862060546875
0,409;-0.14801025390625
0,41;-0.1483154296875
0,411;-0.1483154296875
0,412;-0.1483154296875
0,413;-0.14862060546875
0,414;-0.1483154296875
0,415;-0.14892578125
0,416;-0.14801025390625
0,417;-0.14862060546875
0,418;-0.14862060546875
0,419;-0.1483154296875
0,42;-0.1483154296875
0,421;-0.14862060546875
0,422;-0.14862060546875
0,423;-0.14862060546875
0,424;-0.1483154296875
0,425;-0.1483154296875
0,426;-0.1483154296875
0,427;-0.14862060546875
0,428;-0.1483154296875
0,429;-0.1483154296875
0,43;-0.1483154296875
0,431;-0.14862060546875
0,432;-0.14892578125
0,433;-0.14801025390625
0,434;-0.1483154296875
0,435;-0.14801025390625
0,436;-0.1483154296875
0,437;-0.14862060546875
0,438;-0.1483154296875
0,439;-0.147705078125
0,44;-0.14892578125
0,441;-0.14801025390625
0,442;-0.1483154296875
0,443;-0.1483154296875
0,444;-0.1483154296875
0,445;-0.14862060546875
0,446;-0.1483154296875
0,447;-0.14862060546875
0,448;-0.1483154296875
0,449;-0.14862060546875
0,45;-0.1483154296875
0,451;-0.1483154296875
0,452;-0.1483154296875
0,453;-0.1483154296875
0,454;-0.14801025390625
0,455;-0.14862060546875
0,456;-0.14801025390625
0,457;-0.1483154296875
0,458;-0.1483154296875
0,459;-0.1483154296875
0,46;-0.1483154296875
0,461;-0.1483154296875
0,462;-0.14862060546875
0,463;-0.14801025390625
0,464;-0.1483154296875
0,465;-0.1483154296875
0,466;-0.14862060546875
0,467;-0.14862060546875
0,468;-0.14862060546875
0,469;-0.14862060546875
0,47;-0.14862060546875
0,471;-0.14862060546875
0,472;-0.14801025390625
0,473;-0.14862060546875
0,474;-0.1483154296875
0,475;-0.14862060546875
0,476;-0.14801025390625
0,477;-0.14892578125
0,478;-0.14862060546875
0,479;-0.1483154296875
0,48;-0.14862060546875
0,481;-0.14862060546875
0,482;-0.14862060546875
0,483;-0.14862060546875
0,484;-0.147705078125
0,485;-0.14801025390625
0,486;-0.14801025390625
0,487;-0.1483154296875
0,488;-0.14892578125
0,489;-0.1483154296875
0,49;-0.14892578125
0,491;-0.14892578125
0,492;-0.1483154296875
0,493;-0.1483154296875
0,494;-0.14862060546875
0,495;-0.14862060546875
0,496;-0.1483154296875
0,497;-0.14801025390625
0,498;-0.1483154296875
0,499;-0.14892578125
0,5;-0.1483154296875
0,501;-0.14862060546875
0,502;-0.14862060546875
0,503;-0.14892578125
0,504;-0.14892578125
0,505;-0.1483154296875
0,506;-0.14801025390625
0,507;-0.14801025390625
0,508;-0.14862060546875
0,509;-0.14801025390625
0,51;-0.14862060546875
0,511;-0.1483154296875
0,512;-0.14862060546875
0,513;-0.14862060546875
0,514;-0.14862060546875
0,515;-0.14862060546875
0,516;-0.14801025390625
0,517;-0.1483154296875
0,518;-0.14862060546875
0,519;-0.14862060546875
0,52;-0.14801025390625
0,521;-0.14892578125
0,522;-0.14862060546875
0,523;-0.1483154296875
0,524;-0.14892578125
0,525;-0.14801025390625
0,526;-0.14801025390625
0,527;-0.14801025390625
0,528;-0.1483154296875
0,529;-0.1483154296875
0,53;-0.14862060546875
0,531;-0.1483154296875
0,532;-0.1483154296875
0,533;-0.1483154296875
0,534;-0.1483154296875
0,535;-0.1483154296875
0,536;-0.14862060546875
0,537;-0.1483154296875
0,538;-0.14892578125
0,539;-0.14862060546875
0,54;-0.14862060546875
0,541;-0.1483154296875
0,542;-0.14862060546875
0,543;-0.1483154296875
0,544;-0.1483154296875
0,545;-0.14862060546875
0,546;-0.14862060546875
0,547;-0.14801025390625
0,548;-0.1483154296875
0,549;-0.14862060546875
0,55;-0.1483154296875
0,551;-0.14862060546875
0,552;-0.14862060546875
0,553;-0.14801025390625
0,554;-0.1483154296875
0,555;-0.1483154296875
0,556;-0.14862060546875
0,557;-0.14862060546875
0,558;-0.1483154296875
0,559;-0.14801025390625
0,56;-0.1483154296875
0,561;-0.1483154296875
0,562;-0.1483154296875
0,563;-0.1483154296875
0,564;-0.1483154296875
0,565;-0.1483154296875
0,566;-0.147705078125
0,567;-0.1483154296875
0,568;-0.1483154296875
0,569;-0.1483154296875
0,57;-0.14862060546875
0,571;-0.14892578125
0,572;-0.14862060546875
0,573;-0.14862060546875
0,574;-0.14801025390625
0,575;-0.14862060546875
0,576;-0.1483154296875
0,577;-0.1483154296875
0,578;-0.14862060546875
0,579;-0.1483154296875
0,58;-0.14801025390625
0,581;-0.14862060546875
0,582;-0.14862060546875
0,583;-0.14801025390625
0,584;-0.1483154296875
0,585;-0.14862060546875
0,586;-0.14892578125
0,587;-0.14892578125
0,588;-0.14862060546875
0,589;-0.1483154296875
0,59;-0.14862060546875
0,591;-0.14892578125
0,592;-0.14862060546875
0,593;-0.14892578125
0,594;-0.14862060546875
0,595;-0.14862060546875
0,596;-0.1483154296875
0,597;-0.14862060546875
0,598;-0.14862060546875
0,599;-0.1483154296875
0,6;-0.1483154296875
0,601;-0.14862060546875
0,602;-0.14862060546875
0,603;-0.14862060546875
0,604;-0.1483154296875
0,605;-0.14862060546875
0,606;-0.1483154296875
0,607;-0.14862060546875
0,608;-0.147705078125
0,609;-0.14862060546875
0,61;-0.14801025390625
0,611;-0.14862060546875
0,612;-0.14892578125
0,613;-0.1483154296875
0,614;-0.14862060546875
0,615;-0.14801025390625
0,616;-0.14862060546875
0,617;-0.14862060546875
0,618;-0.1483154296875
0,619;-0.14862060546875
0,62;-0.1483154296875
0,621;-0.14801025390625
0,622;-0.14862060546875
0,623;-0.14862060546875
0,624;-0.1483154296875
0,625;-0.1483154296875
0,626;-0.1483154296875
0,627;-0.1483154296875
0,628;-0.14801025390625
0,629;-0.1483154296875
0,63;-0.14862060546875
0,631;-0.14862060546875
0,632;-0.14862060546875
0,633;-0.14892578125
0,634;-0.147705078125
0,635;-0.1483154296875
0,636;-0.14801025390625
0,637;-0.14862060546875
0,638;-0.14862060546875
0,639;-0.14892578125
0,64;-0.1483154296875
0,641;-0.1483154296875
0,642;-0.1483154296875
0,643;-0.1483154296875
0,644;-0.14892578125
0,645;-0.14801025390625
0,646;-0.1483154296875
0,647;-0.14862060546875
0,648;-0.14862060546875
0,649;-0.14862060546875
0,65;-0.14892578125
0,651;-0.14862060546875
0,652;-0.1483154296875
0,653;-0.1483154296875
0,654;-0.1483154296875
0,655;-0.14862060546875
0,656;-0.14892578125
0,657;-0.1483154296875
0,658;-0.14862060546875
0,659;-0.1483154296875
0,66;-0.14892578125
0,661;-0.1483154296875
0,662;-0.14892578125
0,663;-0.1483154296875
0,664;-0.14801025390625
0,665;-0.1483154296875
0,666;-0.1483154296875
0,667;-0.1483154296875
0,668;-0.14862060546875
0,669;-0.14862060546875
0,67;-0.14862060546875
0,671;-0.1483154296875
0,672;-0.1483154296875
0,673;-0.14862060546875
0,674;-0.14862060546875
0,675;-0.14862060546875
0,676;-0.14801025390625
0,677;-0.1483154296875
0,678;-0.14801025390625
0,679;-0.1483154296875
0,68;-0.1483154296875
0,681;-0.14862060546875
0,682;-0.14892578125
0,683;-0.14923095703125
0,684;-0.1483154296875
0,685;-0.14862060546875
0,686;-0.14892578125
0,687;-0.14862060546875
0,688;-0.14862060546875
0,689;-0.1483154296875
0,69;-0.147705078125
0,691;-0.1483154296875
0,692;-0.14862060546875
0,693;-0.1483154296875
0,694;-0.14862060546875
0,695;-0.1483154296875
0,696;-0.1483154296875
0,697;-0.14892578125
0,698;-0.14862060546875
0,699;-0.14801025390625
0,7;-0.14801025390625
0,701;-0.1483154296875
0,702;-0.1483154296875
0,703;-0.1483154296875
0,704;-0.1483154296875
0,705;-0.14801025390625
0,706;-0.14862060546875
0,707;-0.1483154296875
0,708;-0.14862060546875
0,709;-0.1483154296875
0,71;-0.147705078125
0,711;-0.1483154296875
0,712;-0.14862060546875
0,713;-0.14862060546875
0,714;-0.14892578125
0,715;-0.1483154296875
0,716;-0.14801025390625
0,717;-0.1483154296875
0,718;-0.1483154296875
0,719;-0.1483154296875
0,72;-0.14862060546875
0,721;-0.14862060546875
0,722;-0.14862060546875
0,723;-0.147705078125
0,724;-0.14862060546875
0,725;-0.14801025390625
0,726;-0.1483154296875
0,727;-0.1483154296875
0,728;-0.14862060546875
0,729;-0.14862060546875
0,73;-0.1483154296875
0,731;-0.1483154296875
0,732;-0.14801025390625
0,733;-0.1483154296875
0,734;-0.14801025390625
0,735;-0.14862060546875
0,736;-0.14862060546875
0,737;-0.1483154296875
0,738;-0.1483154296875
0,739;-0.14862060546875
0,74;-0.1483154296875
0,741;-0.14892578125
0,742;-0.14892578125
0,743;-0.14862060546875
0,744;-0.14862060546875
0,745;-0.14801025390625
0,746;-0.1483154296875
0,747;-0.147705078125
0,748;-0.1483154296875
0,749;-0.14892578125
0,75;-0.1483154296875
0,751;-0.14862060546875
0,752;-0.14862060546875
0,753;-0.14923095703125
0,754;-0.1483154296875
0,755;-0.14892578125
0,756;-0.1483154296875
0,757;-0.14862060546875
0,758;-0.14801025390625
0,759;-0.1483154296875
0,76;-0.1483154296875
0,761;-0.1483154296875
0,762;-0.14801025390625
0,763;-0.14862060546875
0,764;-0.1483154296875
0,765;-0.14862060546875
0,766;-0.14892578125
0,767;-0.1483154296875
0,768;-0.14862060546875
0,769;-0.14892578125
0,77;-0.14892578125
0,771;-0.14862060546875
0,772;-0.1483154296875
0,773;-0.1483154296875
0,774;-0.14862060546875
0,775;-0.14862060546875
0,776;-0.1483154296875
0,777;-0.14801025390625
0,778;-0.14801025390625
0,779;-0.1483154296875
0,78;-0.14801025390625
0,781;-0.14801025390625
0,782;-0.14801025390625
0,783;-0.1483154296875
0,784;-0.1483154296875
0,785;-0.147705078125
0,786;-0.14801025390625
0,787;-0.14801025390625
0,788;-0.14862060546875
0,789;-0.14862060546875
0,79;-0.14801025390625
0,791;-0.1483154296875
0,792;-0.147705078125
0,793;-0.14892578125
0,794;-0.14801025390625
0,795;-0.14801025390625
0,796;-0.14801025390625
0,797;-0.1483154296875
0,798;-0.14801025390625
0,799;-0.14862060546875
0,8;-0.1483154296875
0,801;-0.1483154296875
0,802;-0.14801025390625
0,803;-0.14801025390625
0,804;-0.1483154296875
0,805;-0.14862060546875
0,806;-0.1483154296875
0,807;-0.1483154296875
0,808;-0.14801025390625
0,809;-0.14862060546875
0,81;-0.14801025390625
0,811;-0.1483154296875
0,812;-0.14862060546875
0,813;-0.1483154296875
0,814;-0.14862060546875
0,815;-0.147705078125
0,816;-0.1483154296875
0,817;-0.14862060546875
0,818;-0.14801025390625
0,819;-0.1483154296875
0,82;-0.1483154296875
0,821;-0.1483154296875
0,822;-0.1483154296875
0,823;-0.14801025390625
0,824;-0.1483154296875
0,825;-0.1483154296875
0,826;-0.1483154296875
0,827;-0.14862060546875
0,828;-0.14892578125
0,829;-0.1483154296875
0,83;-0.14862060546875
0,831;-0.14892578125
0,832;-0.1483154296875
0,833;-0.1483154296875
0,834;-0.14862060546875
0,835;-0.14862060546875
0,836;-0.14862060546875
0,837;-0.14862060546875
0,838;-0.14862060546875
0,839;-0.14801025390625
0,84;-0.1483154296875
0,841;-0.14862060546875
0,842;-0.1483154296875
0,843;-0.1483154296875
0,844;-0.14862060546875
0,845;-0.14862060546875
0,846;-0.14862060546875
0,847;-0.1483154296875
0,848;-0.147705078125
0,849;-0.14862060546875
0,85;-0.14801025390625
0,851;-0.14862060546875
0,852;-0.1483154296875
0,853;-0.14801025390625
0,854;-0.1483154296875
0,855;-0.14862060546875
0,856;-0.14862060546875
0,857;-0.14862060546875
0,858;-0.1483154296875
0,859;-0.14892578125
0,86;-0.14862060546875
0,861;-0.1483154296875
0,862;-0.1483154296875
0,863;-0.14801025390625
0,864;-0.14801025390625
0,865;-0.1483154296875
0,866;-0.14801025390625
0,867;-0.14862060546875
0,868;-0.1483154296875
0,869;-0.14801025390625
0,87;-0.1483154296875
0,871;-0.14862060546875
0,872;-0.14862060546875
0,873;-0.14801025390625
0,874;-0.1483154296875
0,875;-0.1483154296875
0,876;-0.147705078125
0,877;-0.14862060546875
0,878;-0.14892578125
0,879;-0.14862060546875
0,88;-0.1483154296875
0,881;-0.14862060546875
0,882;-0.14862060546875
0,883;-0.14862060546875
0,884;-0.14862060546875
0,885;-0.1483154296875
0,886;-0.14801025390625
0,887;-0.1483154296875
0,888;-0.14862060546875
0,889;-0.1483154296875
0,89;-0.1483154296875
0,891;-0.14892578125
0,892;-0.1483154296875
0,893;-0.14862060546875
0,894;-0.1483154296875
0,895;-0.1483154296875
0,896;-0.14862060546875
0,897;-0.147705078125
0,898;-0.1483154296875
0,899;-0.14892578125
0,9;-0.1483154296875
0,901;-0.1483154296875
0,902;-0.1483154296875
0,903;-0.1483154296875
0,904;-0.14892578125
0,905;-0.14892578125
0,906;-0.1483154296875
0,907;-0.14801025390625
0,908;-0.14801025390625
0,909;-0.14862060546875
0,91;-0.1483154296875
0,911;-0.1483154296875
0,912;-0.1483154296875
0,913;-0.147705078125
0,914;-0.1483154296875
0,915;-0.14892578125
0,916;-0.1483154296875
0,917;-0.14862060546875
0,918;-0.1483154296875
0,919;-0.1483154296875
0,92;-0.1483154296875
0,921;-0.1483154296875
0,922;-0.14862060546875
0,923;-0.14862060546875
0,924;-0.14801025390625
0,925;-0.14862060546875
0,926;-0.14862060546875
0,927;-0.1483154296875
0,928;-0.1483154296875
0,929;-0.14862060546875
0,93;-0.147705078125
0,931;-0.1483154296875
0,932;-0.14862060546875
0,933;-0.14892578125
0,934;-0.14862060546875
0,935;-0.1483154296875
0,936;-0.14801025390625
0,937;-0.14862060546875
0,938;-0.14801025390625
0,939;-0.1483154296875
0,94;-0.14801025390625
0,941;-0.1483154296875
0,942;-0.1483154296875
0,943;-0.14862060546875
0,944;-0.14862060546875
0,945;-0.1483154296875
0,946;-0.147705078125
0,947;-0.1483154296875
0,948;-0.14862060546875
0,949;-0.14862060546875
0,95;-0.14862060546875
0,951;-0.14801025390625
0,952;-0.1483154296875
0,953;-0.1483154296875
0,954;-0.14862060546875
0,955;-0.14862060546875
0,956;-0.14892578125
0,957;-0.14801025390625
0,958;-0.14923095703125
0,959;-0.14862060546875
0,96;-0.14862060546875
0,961;-0.14862060546875
0,962;-0.1483154296875
0,963;-0.1483154296875
0,964;-0.14862060546875
0,965;-0.1483154296875
0,966;-0.14862060546875
0,967;-0.1483154296875
0,968;-0.1483154296875
0,969;-0.14892578125
0,97;-0.1483154296875
0,971;-0.1483154296875
0,972;-0.1483154296875
0,973;-0.14862060546875
0,974;-0.147705078125
0,975;-0.1483154296875
0,976;-0.1483154296875
0,977;-0.14862060546875
0,978;-0.14801025390625
0,979;-0.14801025390625
0,98;-0.1483154296875
0,981;-0.1483154296875
0,982;-0.1483154296875
0,983;-0.14862060546875
0,984;-0.14862060546875
0,985;-0.1483154296875
0,986;-0.14862060546875
0,987;-0.1483154296875
0,988;-0.14862060546875
0,989;-0.14801025390625
0,99;-0.1483154296875
0,991;-0.14862060546875
0,992;-0.14801025390625
0,993;-0.14801025390625
0,994;-0.14892578125
0,995;-0.14862060546875
0,996;-0.14801025390625
0,997;-0.14862060546875
0,998;-0.14801025390625
0,999;-0.14801025390625
1;-0.14801025390625
1,001;-0.14801025390625
1,002;-0.1483154296875
1,003;-0.1483154296875
1,004;-0.1483154296875
1,005;-0.1483154296875
1,006;-0.1483154296875
1,007;-0.1483154296875
1,008;-0.1483154296875
1,009;-0.1483154296875
1,01;-0.14862060546875
1,011;-0.14801025390625
1,012;-0.1483154296875
1,013;-0.1483154296875
1,014;-0.1483154296875
1,015;-0.1483154296875
1,016;-0.1483154296875
1,017;-0.1483154296875
1,018;-0.14892578125
1,019;-0.1483154296875
1,02;-0.14892578125
1,021;-0.14862060546875
1,022;-0.1483154296875
1,023;-0.14801025390625
1,024;-0.14892578125
1,025;-0.14892578125
1,026;-0.1483154296875
1,027;-0.1483154296875
1,028;-0.14862060546875
1,029;-0.14862060546875
1,03;-0.14862060546875
1,031;-0.1483154296875
1,032;-0.1483154296875
1,033;-0.14862060546875
1,034;-0.14862060546875
1,035;-0.1483154296875
1,036;-0.14862060546875
1,037;-0.14862060546875
1,038;-0.14862060546875
1,039;-0.14892578125
1,04;-0.14801025390625
1,041;-0.14862060546875
1,042;-0.14862060546875
1,043;-0.14923095703125
1,044;-0.14862060546875
1,045;-0.1483154296875
1,046;-0.1483154296875
1,047;-0.1483154296875
1,048;-0.14892578125
1,049;-0.14862060546875
1,05;-0.1483154296875
1,051;-0.14862060546875
1,052;-0.1483154296875
1,053;-0.14862060546875
1,054;-0.14862060546875
1,055;-0.14892578125
1,056;-0.1483154296875
1,057;-0.14892578125
1,058;-0.14862060546875
1,059;-0.14892578125
1,06;-0.14862060546875
1,061;-0.1483154296875
1,062;-0.14862060546875
1,063;-0.14892578125
1,064;-0.14862060546875
1,065;-0.14892578125
1,066;-0.14862060546875
1,067;-0.1483154296875
1,068;-0.14892578125
1,069;-0.14862060546875
1,07;-0.1483154296875
1,071;-0.14801025390625
1,072;-0.1483154296875
1,073;-0.1483154296875
1,074;-0.14862060546875
1,075;-0.1483154296875
1,076;-0.1483154296875
1,077;-0.1483154296875
1,078;-0.14862060546875
1,079;-0.1483154296875
1,08;-0.14892578125
1,081;-0.14862060546875
1,082;-0.14862060546875
1,083;-0.1483154296875
1,084;-0.1483154296875
1,085;-0.14892578125
1,086;-0.14862060546875
1,087;-0.1483154296875
1,088;-0.14862060546875
1,089;-0.14801025390625
1,09;-0.14892578125
1,091;-0.1483154296875
1,092;-0.14862060546875
1,093;-0.14862060546875
1,094;-0.14801025390625
1,095;-0.1483154296875
1,096;-0.1483154296875
1,097;-0.14862060546875
1,098;-0.147705078125
1,099;-0.14862060546875
1,1;-0.14801025390625
1,101;-0.14862060546875
1,102;-0.14801025390625
1,103;-0.14892578125
1,104;-0.1483154296875
1,105;-0.14862060546875
1,106;-0.1483154296875
1,107;-0.1483154296875
1,108;-0.14801025390625
1,109;-0.1483154296875
1,11;-0.1483154296875
1,111;-0.14862060546875
1,112;-0.1483154296875
1,113;-0.14801025390625
1,114;-0.1483154296875
1,115;-0.1483154296875
1,116;-0.1483154296875
1,117;-0.1483154296875
1,118;-0.14892578125
1,119;-0.1483154296875
1,12;-0.14801025390625
1,121;-0.1483154296875
1,122;-0.14862060546875
1,123;-0.14862060546875
1,124;-0.1483154296875
1,125;-0.14862060546875
1,126;-0.14801025390625
1,127;-0.14862060546875
1,128;-0.147705078125
1,129;-0.1483154296875
1,13;-0.1483154296875
1,131;-0.1483154296875
1,132;-0.1483154296875
1,133;-0.14862060546875
1,134;-0.14862060546875
1,135;-0.14862060546875
1,136;-0.14801025390625
1,137;-0.14862060546875
1,138;-0.1483154296875
1,139;-0.14892578125
1,14;-0.14892578125
1,141;-0.14801025390625
1,142;-0.14892578125
1,143;-0.147705078125
1,144;-0.1483154296875
1,145;-0.1483154296875
1,146;-0.1483154296875
1,147;-0.14801025390625
1,148;-0.14862060546875
1,149;-0.1483154296875
1,15;-0.14862060546875
1,151;-0.14862060546875
1,152;-0.14862060546875
1,153;-0.14862060546875
1,154;-0.1483154296875
1,155;-0.14862060546875
1,156;-0.1483154296875
1,157;-0.14892578125
1,158;-0.14862060546875
1,159;-0.14892578125
1,16;-0.1483154296875
1,161;-0.14801025390625
1,162;-0.1483154296875
1,163;-0.147705078125
1,164;-0.14862060546875
1,165;-0.14862060546875
1,166;-0.14923095703125
1,167;-0.14892578125
1,168;-0.1483154296875
1,169;-0.1483154296875
1,17;-0.14862060546875
1,171;-0.14892578125
1,172;-0.14892578125
1,173;-0.1483154296875
1,174;-0.14862060546875
1,175;-0.14862060546875
1,176;-0.1483154296875
1,177;-0.14862060546875
1,178;-0.1483154296875
1,179;-0.14801025390625
1,18;-0.1483154296875
1,181;-0.14801025390625
1,182;-0.1483154296875
1,183;-0.14801025390625
1,184;-0.14862060546875
1,185;-0.14862060546875
1,186;-0.14862060546875
1,187;-0.14801025390625
1,188;-0.14892578125
1,189;-0.1483154296875
1,19;-0.14862060546875
1,191;-0.14801025390625
1,192;-0.14862060546875
1,193;-0.14892578125
1,194;-0.14892578125
1,195;-0.14801025390625
1,196;-0.1483154296875
1,197;-0.14892578125
1,198;-0.14892578125
1,199;-0.1483154296875
1,2;-0.14862060546875
1,201;-0.1483154296875
1,202;-0.14892578125
1,203;-0.1483154296875
1,204;-0.14862060546875
1,205;-0.14892578125
1,206;-0.14862060546875
1,207;-0.14862060546875
1,208;-0.14862060546875
1,209;-0.14892578125
1,21;-0.1483154296875
1,211;-0.1483154296875
1,212;-0.14862060546875
1,213;-0.14862060546875
1,214;-0.14862060546875
1,215;-0.14892578125
1,216;-0.14862060546875
1,217;-0.1483154296875
1,218;-0.1483154296875
1,219;-0.1483154296875
1,22;-0.14892578125
1,221;-0.1483154296875
1,222;-0.14862060546875
1,223;-0.14862060546875
1,224;-0.14862060546875
1,225;-0.14862060546875
1,226;-0.14892578125
1,227;-0.1483154296875
1,228;-0.14862060546875
1,229;-0.14862060546875
1,23;-0.14862060546875
1,231;-0.14862060546875
1,232;-0.1483154296875
1,233;-0.14862060546875
1,234;-0.14862060546875
1,235;-0.14862060546875
1,236;-0.1483154296875
1,237;-0.1483154296875
1,238;-0.14862060546875
1,239;-0.14892578125
1,24;-0.1483154296875
1,241;-0.14801025390625
1,242;-0.14862060546875
1,243;-0.1483154296875
1,244;-0.14801025390625
1,245;-0.1483154296875
1,246;-0.1483154296875
1,247;-0.14892578125
1,248;-0.1483154296875
1,249;-0.1483154296875
1,25;-0.14892578125
1,251;-0.14862060546875
1,252;-0.14862060546875
1,253;-0.1483154296875
1,254;-0.14801025390625
1,255;-0.14801025390625
1,256;-0.14801025390625
1,257;-0.14801025390625
1,258;-0.14862060546875
1,259;-0.14801025390625
1,26;-0.14892578125
1,261;-0.14862060546875
1,262;-0.14862060546875
1,263;-0.14862060546875
1,264;-0.1483154296875
1,265;-0.1483154296875
1,266;-0.1483154296875
1,267;-0.1483154296875
1,268;-0.14923095703125
1,269;-0.14862060546875
1,27;-0.14862060546875
1,271;-0.1483154296875
1,272;-0.14862060546875
1,273;-0.1483154296875
1,274;-0.14892578125
1,275;-0.147705078125
1,276;-0.1483154296875
1,277;-0.14862060546875
1,278;-0.14862060546875
1,279;-0.1483154296875
1,28;-0.14801025390625
1,281;-0.14862060546875
1,282;-0.14801025390625
1,283;-0.14801025390625
1,284;-0.14923095703125
1,285;-0.14801025390625
1,286;-0.14801025390625
1,287;-0.14801025390625
1,288;-0.14862060546875
1,289;-0.14862060546875
1,29;-0.14862060546875
1,291;-0.14801025390625
1,292;-0.14801025390625
1,293;-0.1483154296875
1,294;-0.14862060546875
1,295;-0.14862060546875
1,296;-0.14862060546875
1,297;-0.1483154296875
1,298;-0.14892578125
1,299;-0.14862060546875
1,3;-0.14862060546875
1,301;-0.14862060546875
1,302;-0.1483154296875
1,303;-0.14862060546875
1,304;-0.1483154296875
1,305;-0.1483154296875
1,306;-0.1483154296875
1,307;-0.1483154296875
1,308;-0.14862060546875
1,309;-0.14801025390625
1,31;-0.14801025390625
1,311;-0.1483154296875
1,312;-0.14862060546875
1,313;-0.14892578125
1,314;-0.14892578125
1,315;-0.14862060546875
1,316;-0.14862060546875
1,317;-0.14923095703125
1,318;-0.1483154296875
1,319;-0.1483154296875
1,32;-0.1483154296875
1,321;-0.1483154296875
1,322;-0.14862060546875
1,323;-0.14801025390625
1,324;-0.14862060546875
1,325;-0.14801025390625
1,326;-0.1483154296875
1,327;-0.1483154296875
1,328;-0.1483154296875
1,329;-0.14801025390625
1,33;-0.1483154296875
1,331;-0.1483154296875
1,332;-0.1483154296875
1,333;-0.14892578125
1,334;-0.1483154296875
1,335;-0.1483154296875
1,336;-0.1483154296875
1,337;-0.1483154296875
1,338;-0.14862060546875
1,339;-0.1483154296875
1,34;-0.14801025390625
1,341;-0.1483154296875
1,342;-0.1483154296875
1,343;-0.14862060546875
1,344;-0.14892578125
1,345;-0.14892578125
1,346;-0.14892578125
1,347;-0.1483154296875
1,348;-0.1483154296875
1,349;-0.1483154296875
1,35;-0.14801025390625
1,351;-0.14862060546875
1,352;-0.14862060546875
1,353;-0.14892578125
1,354;-0.14862060546875
1,355;-0.14862060546875
1,356;-0.14862060546875
1,357;-0.14892578125
1,358;-0.14892578125
1,359;-0.14862060546875
1,36;-0.14862060546875
1,361;-0.14892578125
1,362;-0.14862060546875
1,363;-0.14862060546875
1,364;-0.1483154296875
1,365;-0.1483154296875
1,366;-0.1483154296875
1,367;-0.14892578125
1,368;-0.14892578125
1,369;-0.1483154296875
1,37;-0.1483154296875
1,371;-0.14862060546875
1,372;-0.14862060546875
1,373;-0.14862060546875
1,374;-0.14862060546875
1,375;-0.1483154296875
1,376;-0.14862060546875
1,377;-0.1483154296875
1,378;-0.1483154296875
1,379;-0.14862060546875
1,38;-0.1483154296875
1,381;-0.14801025390625
1,382;-0.14923095703125
1,383;-0.1483154296875
1,384;-0.14801025390625
1,385;-0.1483154296875
1,386;-0.1483154296875
1,387;-0.1483154296875
1,388;-0.14892578125
1,389;-0.14892578125
1,39;-0.1483154296875
1,391;-0.1483154296875
1,392;-0.14801025390625
1,393;-0.14862060546875
1,394;-0.14862060546875
1,395;-0.14892578125
1,396;-0.14862060546875
1,397;-0.1483154296875
1,398;-0.14862060546875
1,399;-0.14801025390625
1,4;-0.14801025390625
1,401;-0.14801025390625
1,402;-0.14862060546875
1,403;-0.1483154296875
1,404;-0.1483154296875
1,405;-0.1483154296875
1,406;-0.14801025390625
1,407;-0.14862060546875
1,408;-0.14862060546875
1,409;-0.1483154296875
1,41;-0.14892578125
1,411;-0.14892578125
1,412;-0.1483154296875
1,413;-0.1483154296875
1,414;-0.14892578125
1,415;-0.14892578125
1,416;-0.14862060546875
1,417;-0.14862060546875
1,418;-0.14862060546875
1,419;-0.1483154296875
1,42;-0.14862060546875
1,421;-0.1483154296875
1,422;-0.14862060546875
1,423;-0.1483154296875
1,424;-0.14892578125
1,425;-0.14801025390625
1,426;-0.14862060546875
1,427;-0.14892578125
1,428;-0.1483154296875
1,429;-0.1483154296875
1,43;-0.14892578125
1,431;-0.14862060546875
1,432;-0.14862060546875
1,433;-0.14801025390625
1,434;-0.1483154296875
1,435;-0.14801025390625
1,436;-0.1483154296875
1,437;-0.1483154296875
1,438;-0.1483154296875
1,439;-0.14862060546875
1,44;-0.14862060546875
1,441;-0.1483154296875
1,442;-0.14923095703125
1,443;-0.1483154296875
1,444;-0.14862060546875
1,445;-0.14862060546875
1,446;-0.1483154296875
1,447;-0.1483154296875
1,448;-0.1483154296875
1,449;-0.1483154296875
1,45;-0.14892578125
1,451;-0.14862060546875
1,452;-0.14862060546875
1,453;-0.1483154296875
1,454;-0.14862060546875
1,455;-0.1483154296875
1,456;-0.14892578125
1,457;-0.14862060546875
1,458;-0.14862060546875
1,459;-0.1483154296875
1,46;-0.1483154296875
1,461;-0.14892578125
1,462;-0.14862060546875
1,463;-0.1483154296875
1,464;-0.14862060546875
1,465;-0.14862060546875
1,466;-0.14923095703125
1,467;-0.14862060546875
1,468;-0.14801025390625
1,469;-0.14862060546875
1,47;-0.1483154296875
1,471;-0.14892578125
1,472;-0.14862060546875
1,473;-0.14862060546875
1,474;-0.14862060546875
1,475;-0.14801025390625
1,476;-0.1483154296875
1,477;-0.14862060546875
1,478;-0.14892578125
1,479;-0.14862060546875
1,48;-0.1483154296875
1,481;-0.14892578125
1,482;-0.14801025390625
1,483;-0.14892578125
1,484;-0.1483154296875
1,485;-0.14801025390625
1,486;-0.1483154296875
1,487;-0.1483154296875
1,488;-0.14862060546875
1,489;-0.14862060546875
1,49;-0.1483154296875
1,491;-0.14862060546875
1,492;-0.14862060546875
1,493;-0.14923095703125
1,494;-0.14892578125
1,495;-0.14801025390625
1,496;-0.1483154296875
1,497;-0.14892578125
1,498;-0.14801025390625
1,499;-0.1483154296875
1,5;-0.14892578125
1,501;-0.1483154296875
1,502;-0.14862060546875
1,503;-0.14862060546875
1,504;-0.14892578125
1,505;-0.14862060546875
1,506;-0.1483154296875
1,507;-0.14862060546875
1,508;-0.1483154296875
1,509;-0.14862060546875
1,51;-0.14801025390625
1,511;-0.14862060546875
1,512;-0.14862060546875
1,513;-0.14862060546875
1,514;-0.14862060546875
1,515;-0.14862060546875
1,516;-0.1483154296875
1,517;-0.14892578125
1,518;-0.14862060546875
1,519;-0.14862060546875
1,52;-0.1483154296875
1,521;-0.1483154296875
1,522;-0.14892578125
1,523;-0.1483154296875
1,524;-0.14862060546875
1,525;-0.14862060546875
1,526;-0.1483154296875
1,527;-0.14801025390625
1,528;-0.14892578125
1,529;-0.14862060546875
1,53;-0.14862060546875
1,531;-0.1483154296875
1,532;-0.14862060546875
1,533;-0.14862060546875
1,534;-0.1483154296875
1,535;-0.1483154296875
1,536;-0.1483154296875
1,537;-0.1483154296875
1,538;-0.14862060546875
1,539;-0.14862060546875
1,54;-0.14801025390625
1,541;-0.1483154296875
1,542;-0.14892578125
1,543;-0.1483154296875
1,544;-0.1483154296875
1,545;-0.1483154296875
1,546;-0.1483154296875
1,547;-0.14862060546875
1,548;-0.14892578125
1,549;-0.1483154296875
1,55;-0.1483154296875
1,551;-0.14892578125
1,552;-0.1483154296875
1,553;-0.1483154296875
1,554;-0.14862060546875
1,555;-0.14862060546875
1,556;-0.14862060546875
1,557;-0.1483154296875
1,558;-0.14862060546875
1,559;-0.14892578125
1,56;-0.1483154296875
1,561;-0.1483154296875
1,562;-0.1483154296875
1,563;-0.14862060546875
1,564;-0.14801025390625
1,565;-0.14862060546875
1,566;-0.14862060546875
1,567;-0.1483154296875
1,568;-0.1483154296875
1,569;-0.14892578125
1,57;-0.1483154296875
1,571;-0.14892578125
1,572;-0.14862060546875
1,573;-0.147705078125
1,574;-0.14862060546875
1,575;-0.14862060546875
1,576;-0.14801025390625
1,577;-0.14801025390625
1,578;-0.14862060546875
1,579;-0.14862060546875
1,58;-0.14801025390625
1,581;-0.14892578125
1,582;-0.14801025390625
1,583;-0.1483154296875
1,584;-0.14801025390625
1,585;-0.1483154296875
1,586;-0.14862060546875
1,587;-0.1483154296875
1,588;-0.1483154296875
1,589;-0.14862060546875
1,59;-0.1483154296875
1,591;-0.1483154296875
1,592;-0.1483154296875
1,593;-0.1483154296875
1,594;-0.14862060546875
1,595;-0.14892578125
1,596;-0.1483154296875
1,597;-0.14801025390625
1,598;-0.14801025390625
1,599;-0.1483154296875
1,6;-0.1483154296875
1,601;-0.14862060546875
1,602;-0.14862060546875
1,603;-0.14862060546875
1,604;-0.1483154296875
1,605;-0.14862060546875
1,606;-0.14892578125
1,607;-0.1483154296875
1,608;-0.14801025390625
1,609;-0.1483154296875
1,61;-0.1483154296875
1,611;-0.1483154296875
1,612;-0.14862060546875
1,613;-0.1483154296875
1,614;-0.14862060546875
1,615;-0.1483154296875
1,616;-0.1483154296875
1,617;-0.14862060546875
1,618;-0.1483154296875
1,619;-0.1483154296875
1,62;-0.1483154296875
1,621;-0.1483154296875
1,622;-0.14862060546875
1,623;-0.14862060546875
1,624;-0.14892578125
1,625;-0.14862060546875
1,626;-0.1483154296875
1,627;-0.14862060546875
1,628;-0.14892578125
1,629;-0.14892578125
1,63;-0.14892578125
1,631;-0.14862060546875
1,632;-0.14892578125
1,633;-0.1483154296875
1,634;-0.14862060546875
1,635;-0.14862060546875
1,636;-0.1483154296875
1,637;-0.14862060546875
1,638;-0.14862060546875
1,639;-0.14801025390625
1,64;-0.14862060546875
1,641;-0.14892578125
1,642;-0.14862060546875
1,643;-0.14862060546875
1,644;-0.1483154296875
1,645;-0.1483154296875
1,646;-0.14892578125
1,647;-0.14892578125
1,648;-0.1483154296875
1,649;-0.14801025390625
1,65;-0.1483154296875
1,651;-0.14801025390625
1,652;-0.1483154296875
1,653;-0.1483154296875
1,654;-0.1483154296875
1,655;-0.14862060546875
1,656;-0.14862060546875
1,657;-0.14892578125
1,658;-0.1483154296875
1,659;-0.14862060546875
1,66;-0.14892578125
1,661;-0.14862060546875
1,662;-0.14862060546875
1,663;-0.14862060546875
1,664;-0.1483154296875
1,665;-0.14862060546875
1,666;-0.14892578125
1,667;-0.1483154296875
1,668;-0.14862060546875
1,669;-0.14801025390625
1,67;-0.1483154296875
1,671;-0.14892578125
1,672;-0.14862060546875
1,673;-0.14862060546875
1,674;-0.1483154296875
1,675;-0.1483154296875
1,676;-0.147705078125
1,677;-0.1483154296875
1,678;-0.1483154296875
1,679;-0.1483154296875
1,68;-0.14892578125
1,681;-0.14892578125
1,682;-0.1483154296875
1,683;-0.1483154296875
1,684;-0.1483154296875
1,685;-0.14923095703125
1,686;-0.14862060546875
1,687;-0.14862060546875
1,688;-0.1483154296875
1,689;-0.1483154296875
1,69;-0.1483154296875
1,691;-0.14862060546875
1,692;-0.1483154296875
1,693;-0.14862060546875
1,694;-0.1483154296875
1,695;-0.14892578125
1,696;-0.14862060546875
1,697;-0.1483154296875
1,698;-0.1483154296875
1,699;-0.1483154296875
1,7;-0.14862060546875
1,701;-0.147705078125
1,702;-0.14862060546875
1,703;-0.14862060546875
1,704;-0.14862060546875
1,705;-0.1483154296875
1,706;-0.14892578125
1,707;-0.14892578125
1,708;-0.1483154296875
1,709;-0.1483154296875
1,71;-0.1483154296875
1,711;-0.1483154296875
1,712;-0.1495361328125
1,713;-0.1483154296875
1,714;-0.14862060546875
1,715;-0.14862060546875
1,716;-0.14862060546875
1,717;-0.14862060546875
1,718;-0.14892578125
1,719;-0.14862060546875
1,72;-0.14892578125
1,721;-0.14892578125
1,722;-0.14923095703125
1,723;-0.1483154296875
1,724;-0.14862060546875
1,725;-0.1483154296875
1,726;-0.1483154296875
1,727;-0.1483154296875
1,728;-0.14862060546875
1,729;-0.1483154296875
1,73;-0.14862060546875
1,731;-0.1483154296875
1,732;-0.14862060546875
1,733;-0.1483154296875
1,734;-0.1483154296875
1,735;-0.14862060546875
1,736;-0.14801025390625
1,737;-0.1483154296875
1,738;-0.14862060546875
1,739;-0.14801025390625
1,74;-0.14862060546875
1,741;-0.14892578125
1,742;-0.14862060546875
1,743;-0.14801025390625
1,744;-0.14862060546875
1,745;-0.14862060546875
1,746;-0.1483154296875
1,747;-0.1483154296875
1,748;-0.14892578125
1,749;-0.1483154296875
1,75;-0.14862060546875
1,751;-0.14862060546875
1,752;-0.14892578125
1,753;-0.14862060546875
1,754;-0.14892578125
1,755;-0.1483154296875
1,756;-0.1483154296875
1,757;-0.14862060546875
1,758;-0.14862060546875
1,759;-0.14801025390625
1,76;-0.1483154296875
1,761;-0.14862060546875
1,762;-0.1483154296875
1,763;-0.1483154296875
1,764;-0.14892578125
1,765;-0.1483154296875
1,766;-0.1483154296875
1,767;-0.14801025390625
1,768;-0.14892578125
1,769;-0.14862060546875
1,77;-0.1483154296875
1,771;-0.14892578125
1,772;-0.14801025390625
1,773;-0.14892578125
1,774;-0.14862060546875
1,775;-0.14801025390625
1,776;-0.14862060546875
1,777;-0.1483154296875
1,778;-0.14862060546875
1,779;-0.14892578125
1,78;-0.14862060546875
1,781;-0.1483154296875
1,782;-0.14862060546875
1,783;-0.14862060546875
1,784;-0.1483154296875
1,785;-0.14862060546875
1,786;-0.1483154296875
1,787;-0.1483154296875
1,788;-0.14862060546875
1,789;-0.14892578125
1,79;-0.1483154296875
1,791;-0.1483154296875
1,792;-0.14892578125
1,793;-0.1483154296875
1,794;-0.1483154296875
1,795;-0.14862060546875
1,796;-0.1483154296875
1,797;-0.1483154296875
1,798;-0.1483154296875
1,799;-0.14892578125
1,8;-0.14862060546875
1,801;-0.14862060546875
1,802;-0.14862060546875
1,803;-0.14862060546875
1,804;-0.14862060546875
1,805;-0.14862060546875
1,806;-0.14862060546875
1,807;-0.14862060546875
1,808;-0.14801025390625
1,809;-0.1483154296875
1,81;-0.14862060546875
1,811;-0.14892578125
1,812;-0.14862060546875
1,813;-0.14892578125
1,814;-0.14862060546875
1,815;-0.14801025390625
1,816;-0.147705078125
1,817;-0.1483154296875
1,818;-0.1483154296875
1,819;-0.14801025390625
1,82;-0.1483154296875
1,821;-0.14892578125
1,822;-0.14862060546875
1,823;-0.14801025390625
1,824;-0.1483154296875
1,825;-0.1483154296875
1,826;-0.14892578125
1,827;-0.1483154296875
1,828;-0.1483154296875
1,829;-0.14892578125
1,83;-0.14862060546875
1,831;-0.14892578125
1,832;-0.14862060546875
1,833;-0.14862060546875
1,834;-0.1483154296875
1,835;-0.14862060546875
1,836;-0.14862060546875
1,837;-0.14862060546875
1,838;-0.14892578125
1,839;-0.14892578125
1,84;-0.14892578125
1,841;-0.14801025390625
1,842;-0.14892578125
1,843;-0.14862060546875
1,844;-0.14923095703125
1,845;-0.14862060546875
1,846;-0.14862060546875
1,847;-0.14801025390625
1,848;-0.1483154296875
1,849;-0.1483154296875
1,85;-0.14892578125
1,851;-0.1483154296875
1,852;-0.14862060546875
1,853;-0.14862060546875
1,854;-0.1483154296875
1,855;-0.1483154296875
1,856;-0.1483154296875
1,857;-0.1483154296875
1,858;-0.1483154296875
1,859;-0.14862060546875
1,86;-0.14862060546875
1,861;-0.1483154296875
1,862;-0.14892578125
1,863;-0.1483154296875
1,864;-0.14862060546875
1,865;-0.14892578125
1,866;-0.14923095703125
1,867;-0.1483154296875
1,868;-0.14862060546875
1,869;-0.14862060546875
1,87;-0.14892578125
1,871;-0.14862060546875
1,872;-0.1483154296875
1,873;-0.14892578125
1,874;-0.14862060546875
1,875;-0.14892578125
1,876;-0.14862060546875
1,877;-0.1483154296875
1,878;-0.1483154296875
1,879;-0.14862060546875
1,88;-0.14862060546875
1,881;-0.14862060546875
1,882;-0.1483154296875
1,883;-0.1483154296875
1,884;-0.1483154296875
1,885;-0.14862060546875
1,886;-0.14862060546875
1,887;-0.14862060546875
1,888;-0.14862060546875
1,889;-0.14801025390625
1,89;-0.1483154296875
1,891;-0.14892578125
1,892;-0.14862060546875
1,893;-0.14862060546875
1,894;-0.1483154296875
1,895;-0.1483154296875
1,896;-0.1483154296875
1,897;-0.14862060546875
1,898;-0.14862060546875
1,899;-0.14862060546875
1,9;-0.14862060546875
1,901;-0.14862060546875
1,902;-0.1483154296875
1,903;-0.14862060546875
1,904;-0.14892578125
1,905;-0.1483154296875
1,906;-0.14801025390625
1,907;-0.1483154296875
1,908;-0.1483154296875
1,909;-0.1483154296875
1,91;-0.14801025390625
1,911;-0.14862060546875
1,912;-0.1483154296875
1,913;-0.14923095703125
1,914;-0.14892578125
1,915;-0.14862060546875
1,916;-0.14862060546875
1,917;-0.14862060546875
1,918;-0.1483154296875
1,919;-0.14862060546875
1,92;-0.14862060546875
1,921;-0.14923095703125
1,922;-0.14862060546875
1,923;-0.1483154296875
1,924;-0.14862060546875
1,925;-0.14862060546875
1,926;-0.1483154296875
1,927;-0.14862060546875
1,928;-0.1483154296875
1,929;-0.14862060546875
1,93;-0.14801025390625
1,931;-0.1483154296875
1,932;-0.14862060546875
1,933;-0.14862060546875
1,934;-0.14862060546875
1,935;-0.14862060546875
1,936;-0.14862060546875
1,937;-0.14862060546875
1,938;-0.14862060546875
1,939;-0.14862060546875
1,94;-0.14862060546875
1,941;-0.14801025390625
1,942;-0.14862060546875
1,943;-0.1483154296875
1,944;-0.14862060546875
1,945;-0.14862060546875
1,946;-0.14862060546875
1,947;-0.1483154296875
1,948;-0.1483154296875
1,949;-0.1483154296875
1,95;-0.14862060546875
1,951;-0.1483154296875
1,952;-0.14862060546875
1,953;-0.14862060546875
1,954;-0.1483154296875
1,955;-0.14862060546875
1,956;-0.1483154296875
1,957;-0.14892578125
1,958;-0.1483154296875
1,959;-0.14892578125
1,96;-0.1483154296875
1,961;-0.1483154296875
1,962;-0.14862060546875
1,963;-0.1483154296875
1,964;-0.14892578125
1,965;-0.1483154296875
1,966;-0.14862060546875
1,967;-0.14801025390625
1,968;-0.14892578125
1,969;-0.1483154296875
1,97;-0.14862060546875
1,971;-0.14862060546875
1,972;-0.14862060546875
1,973;-0.14862060546875
1,974;-0.14862060546875
1,975;-0.1483154296875
1,976;-0.14862060546875
1,977;-0.14892578125
1,978;-0.14892578125
1,979;-0.1483154296875
1,98;-0.14862060546875
1,981;-0.14892578125
1,982;-0.1483154296875
1,983;-0.14892578125
1,984;-0.14862060546875
1,985;-0.14862060546875
1,986;-0.14862060546875
1,987;-0.14892578125
1,988;-0.14892578125
1,989;-0.14862060546875
1,99;-0.14862060546875
1,991;-0.14892578125
1,992;-0.14862060546875
1,993;-0.14862060546875
1,994;-0.14892578125
1,995;-0.1483154296875
1,996;-0.1483154296875
1,997;-0.14862060546875
1,998;-0.14862060546875
1,999;-0.1483154296875
2;-0.1483154296875
2,001;-0.14892578125
2,002;-0.1483154296875
2,003;-0.14862060546875
2,004;-0.1483154296875
2,005;-0.14862060546875
2,006;-0.14862060546875
2,007;-0.14862060546875
2,008;-0.14862060546875
2,009;-0.1483154296875
2,01;-0.14862060546875
2,011;-0.14801025390625
2,012;-0.14862060546875
2,013;-0.14892578125
2,014;-0.1483154296875
2,015;-0.14923095703125
2,016;-0.14862060546875
2,017;-0.1483154296875
2,018;-0.14862060546875
2,019;-0.14862060546875
2,02;-0.14862060546875
2,021;-0.14923095703125
2,022;-0.14862060546875
2,023;-0.14862060546875
2,024;-0.1483154296875
2,025;-0.14923095703125
2,026;-0.14892578125
2,027;-0.14923095703125
2,028;-0.14862060546875
2,029;-0.14801025390625
2,03;-0.1483154296875
2,031;-0.14892578125
2,032;-0.1483154296875
2,033;-0.14801025390625
2,034;-0.14862060546875
2,035;-0.14801025390625
2,036;-0.14862060546875
2,037;-0.1483154296875
2,038;-0.14892578125
2,039;-0.14892578125
2,04;-0.14892578125
2,041;-0.14862060546875
2,042;-0.14862060546875
2,043;-0.14892578125
2,044;-0.14801025390625
2,045;-0.14862060546875
2,046;-0.14862060546875
2,047;-0.14892578125
2,048;-0.14801025390625
2,049;-0.1483154296875
2,05;-0.1483154296875
2,051;-0.14801025390625
2,052;-0.1483154296875
2,053;-0.14862060546875
2,054;-0.14892578125
2,055;-0.1483154296875
2,056;-0.14892578125
2,057;-0.14892578125
2,058;-0.1483154296875
2,059;-0.14892578125
2,06;-0.1483154296875
2,061;-0.1483154296875
2,062;-0.14862060546875
2,063;-0.14892578125
2,064;-0.14862060546875
2,065;-0.1483154296875
2,066;-0.14862060546875
2,067;-0.14862060546875
2,068;-0.1483154296875
2,069;-0.14801025390625
2,07;-0.14862060546875
2,071;-0.14801025390625
2,072;-0.1483154296875
2,073;-0.14892578125
2,074;-0.14892578125
2,075;-0.1483154296875
2,076;-0.14892578125
2,077;-0.1483154296875
2,078;-0.14862060546875
2,079;-0.14862060546875
2,08;-0.14862060546875
2,081;-0.14862060546875
2,082;-0.1483154296875
2,083;-0.14862060546875
2,084;-0.14923095703125
2,085;-0.14862060546875
2,086;-0.1495361328125
2,087;-0.14862060546875
2,088;-0.14862060546875
2,089;-0.14862060546875
2,09;-0.14923095703125
2,091;-0.14862060546875
2,092;-0.14862060546875
2,093;-0.14892578125
2,094;-0.14801025390625
2,095;-0.14862060546875
2,096;-0.1483154296875
2,097;-0.14862060546875
2,098;-0.1483154296875
2,099;-0.14892578125
2,1;-0.14862060546875
2,101;-0.14862060546875
2,102;-0.14862060546875
2,103;-0.14892578125
2,104;-0.14892578125
2,105;-0.14862060546875
2,106;-0.1483154296875
2,107;-0.14862060546875
2,108;-0.14801025390625
2,109;-0.14892578125
2,11;-0.14862060546875
2,111;-0.14862060546875
2,112;-0.1483154296875
2,113;-0.14862060546875
2,114;-0.14862060546875
2,115;-0.1483154296875
2,116;-0.1483154296875
2,117;-0.14862060546875
2,118;-0.14862060546875
2,119;-0.147705078125
2,12;-0.14923095703125
2,121;-0.14862060546875
2,122;-0.1483154296875
2,123;-0.14862060546875
2,124;-0.147705078125
2,125;-0.14862060546875
2,126;-0.1483154296875
2,127;-0.14892578125
2,128;-0.14862060546875
2,129;-0.14862060546875
2,13;-0.1483154296875
2,131;-0.14862060546875
2,132;-0.1483154296875
2,133;-0.14862060546875
2,134;-0.14923095703125
2,135;-0.14892578125
2,136;-0.1483154296875
2,137;-0.14862060546875
2,138;-0.147705078125
2,139;-0.14892578125
2,14;-0.14862060546875
2,141;-0.14862060546875
2,142;-0.14892578125
2,143;-0.14862060546875
2,144;-0.147705078125
2,145;-0.14892578125
2,146;-0.14892578125
2,147;-0.1483154296875
2,148;-0.14862060546875
2,149;-0.1483154296875
2,15;-0.14892578125
2,151;-0.1483154296875
2,152;-0.14892578125
2,153;-0.1483154296875
2,154;-0.14801025390625
2,155;-0.14862060546875
2,156;-0.14862060546875
2,157;-0.1483154296875
2,158;-0.14862060546875
2,159;-0.14862060546875
2,16;-0.14862060546875
2,161;-0.1483154296875
2,162;-0.14862060546875
2,163;-0.14862060546875
2,164;-0.14862060546875
2,165;-0.14862060546875
2,166;-0.14862060546875
2,167;-0.1483154296875
2,168;-0.14862060546875
2,169;-0.14862060546875
2,17;-0.1483154296875
2,171;-0.14862060546875
2,172;-0.14862060546875
2,173;-0.14923095703125
2,174;-0.14892578125
2,175;-0.14862060546875
2,176;-0.14892578125
2,177;-0.14892578125
2,178;-0.1483154296875
2,179;-0.14892578125
2,18;-0.14923095703125
2,181;-0.14862060546875
2,182;-0.14892578125
2,183;-0.14892578125
2,184;-0.1483154296875
2,185;-0.14892578125
2,186;-0.14923095703125
2,187;-0.1483154296875
2,188;-0.14892578125
2,189;-0.14862060546875
2,19;-0.14862060546875
2,191;-0.14862060546875
2,192;-0.14892578125
2,193;-0.14862060546875
2,194;-0.14801025390625
2,195;-0.14801025390625
2,196;-0.1483154296875
2,197;-0.14862060546875
2,198;-0.1483154296875
2,199;-0.14862060546875
2,2;-0.14862060546875
2,201;-0.14862060546875
2,202;-0.1483154296875
2,203;-0.14801025390625
2,204;-0.1483154296875
2,205;-0.14862060546875
2,206;-0.14862060546875
2,207;-0.14892578125
2,208;-0.147705078125
2,209;-0.1483154296875
2,21;-0.147705078125
2,211;-0.14862060546875
2,212;-0.1483154296875
2,213;-0.1483154296875
2,214;-0.1483154296875
2,215;-0.14892578125
2,216;-0.14862060546875
2,217;-0.1483154296875
2,218;-0.14862060546875
2,219;-0.1483154296875
2,22;-0.14862060546875
2,221;-0.14862060546875
2,222;-0.14801025390625
2,223;-0.1483154296875
2,224;-0.14862060546875
2,225;-0.14862060546875
2,226;-0.14862060546875
2,227;-0.14892578125
2,228;-0.14862060546875
2,229;-0.14862060546875
2,23;-0.14862060546875
2,231;-0.1483154296875
2,232;-0.14862060546875
2,233;-0.14801025390625
2,234;-0.14862060546875
2,235;-0.14892578125
2,236;-0.14892578125
2,237;-0.1483154296875
2,238;-0.14801025390625
2,239;-0.14862060546875
2,24;-0.1483154296875
2,241;-0.1483154296875
2,242;-0.1483154296875
2,243;-0.1483154296875
2,244;-0.14862060546875
2,245;-0.14862060546875
2,246;-0.14892578125
2,247;-0.14862060546875
2,248;-0.1483154296875
2,249;-0.14801025390625
2,25;-0.14862060546875
2,251;-0.14862060546875
2,252;-0.1483154296875
2,253;-0.14923095703125
2,254;-0.1483154296875
2,255;-0.14862060546875
2,256;-0.1483154296875
2,257;-0.1483154296875
2,258;-0.14862060546875
2,259;-0.14862060546875
2,26;-0.14862060546875
2,261;-0.14862060546875
2,262;-0.14892578125
2,263;-0.1483154296875
2,264;-0.1483154296875
2,265;-0.14862060546875
2,266;-0.14801025390625
2,267;-0.14892578125
2,268;-0.14862060546875
2,269;-0.14862060546875
2,27;-0.1483154296875
2,271;-0.1483154296875
2,272;-0.14923095703125
2,273;-0.14862060546875
2,274;-0.14862060546875
2,275;-0.14892578125
2,276;-0.1483154296875
2,277;-0.14862060546875
2,278;-0.14801025390625
2,279;-0.14862060546875
2,28;-0.14862060546875
2,281;-0.1483154296875
2,282;-0.1483154296875
2,283;-0.1483154296875
2,284;-0.1483154296875
2,285;-0.1483154296875
2,286;-0.14892578125
2,287;-0.14862060546875
2,288;-0.14862060546875
2,289;-0.14862060546875
2,29;-0.14923095703125
2,291;-0.14862060546875
2,292;-0.14862060546875
2,293;-0.14862060546875
2,294;-0.14862060546875
2,295;-0.1483154296875
2,296;-0.14862060546875
2,297;-0.14801025390625
2,298;-0.14862060546875
2,299;-0.1483154296875
2,3;-0.1483154296875
2,301;-0.14862060546875
2,302;-0.14892578125
2,303;-0.1483154296875
2,304;-0.14862060546875
2,305;-0.14892578125
2,306;-0.1483154296875
2,307;-0.14862060546875
2,308;-0.1483154296875
2,309;-0.14892578125
2,31;-0.1483154296875
2,311;-0.14892578125
2,312;-0.14862060546875
2,313;-0.14892578125
2,314;-0.14892578125
2,315;-0.14862060546875
2,316;-0.14862060546875
2,317;-0.1483154296875
2,318;-0.14862060546875
2,319;-0.14862060546875
2,32;-0.14801025390625
2,321;-0.1483154296875
2,322;-0.14862060546875
2,323;-0.1483154296875
2,324;-0.1483154296875
2,325;-0.14923095703125
2,326;-0.1483154296875
2,327;-0.1483154296875
2,328;-0.14862060546875
2,329;-0.14892578125
2,33;-0.14892578125
2,331;-0.14862060546875
2,332;-0.14862060546875
2,333;-0.14862060546875
2,334;-0.14862060546875
2,335;-0.14862060546875
2,336;-0.1483154296875
2,337;-0.14862060546875
2,338;-0.14862060546875
2,339;-0.14862060546875
2,34;-0.14892578125
2,341;-0.1483154296875
2,342;-0.14862060546875
2,343;-0.14862060546875
2,344;-0.14862060546875
2,345;-0.14923095703125
2,346;-0.14892578125
2,347;-0.14862060546875
2,348;-0.1483154296875
2,349;-0.14862060546875
2,35;-0.1483154296875
2,351;-0.14862060546875
2,352;-0.14862060546875
2,353;-0.14862060546875
2,354;-0.1483154296875
2,355;-0.1483154296875
2,356;-0.14892578125
2,357;-0.14862060546875
2,358;-0.14923095703125
2,359;-0.14892578125
2,36;-0.14862060546875
2,361;-0.14801025390625
2,362;-0.14862060546875
2,363;-0.1483154296875
2,364;-0.14862060546875
2,365;-0.1495361328125
2,366;-0.14862060546875
2,367;-0.14801025390625
2,368;-0.14892578125
2,369;-0.1483154296875
2,37;-0.14862060546875
2,371;-0.1495361328125
2,372;-0.14862060546875
2,373;-0.14862060546875
2,374;-0.14862060546875
2,375;-0.14801025390625
2,376;-0.14892578125
2,377;-0.14862060546875
2,378;-0.14892578125
2,379;-0.14862060546875
2,38;-0.14892578125
2,381;-0.14862060546875
2,382;-0.14862060546875
2,383;-0.14862060546875
2,384;-0.14862060546875
2,385;-0.14892578125
2,386;-0.1483154296875
2,387;-0.14862060546875
2,388;-0.14862060546875
2,389;-0.14862060546875
2,39;-0.14862060546875
2,391;-0.14862060546875
2,392;-0.1483154296875
2,393;-0.14923095703125
2,394;-0.1483154296875
2,395;-0.1483154296875
2,396;-0.1483154296875
2,397;-0.14862060546875
2,398;-0.14923095703125
2,399;-0.1483154296875
2,4;-0.14862060546875
2,401;-0.14862060546875
2,402;-0.14892578125
2,403;-0.14862060546875
2,404;-0.1483154296875
2,405;-0.1483154296875
2,406;-0.14862060546875
2,407;-0.1483154296875
2,408;-0.1483154296875
2,409;-0.14892578125
2,41;-0.14862060546875
2,411;-0.14862060546875
2,412;-0.14923095703125
2,413;-0.14862060546875
2,414;-0.14923095703125
2,415;-0.14862060546875
2,416;-0.14862060546875
2,417;-0.14862060546875
2,418;-0.14862060546875
2,419;-0.14862060546875
2,42;-0.1483154296875
2,421;-0.14862060546875
2,422;-0.14923095703125
2,423;-0.14801025390625
2,424;-0.14892578125
2,425;-0.1483154296875
2,426;-0.14862060546875
2,427;-0.1483154296875
2,428;-0.14862060546875
2,429;-0.14892578125
2,43;-0.14862060546875
2,431;-0.14892578125
2,432;-0.14862060546875
2,433;-0.14862060546875
2,434;-0.1483154296875
2,435;-0.14862060546875
2,436;-0.14892578125
2,437;-0.14892578125
2,438;-0.14862060546875
2,439;-0.1483154296875
2,44;-0.14892578125
2,441;-0.1483154296875
2,442;-0.14923095703125
2,443;-0.14892578125
2,444;-0.14862060546875
2,445;-0.1483154296875
2,446;-0.14892578125
2,447;-0.1483154296875
2,448;-0.14862060546875
2,449;-0.1483154296875
2,45;-0.14892578125
2,451;-0.1483154296875
2,452;-0.1483154296875
2,453;-0.1483154296875
2,454;-0.14862060546875
2,455;-0.14862060546875
2,456;-0.14892578125
2,457;-0.14892578125
2,458;-0.14862060546875
2,459;-0.14892578125
2,46;-0.14862060546875
2,461;-0.14892578125
2,462;-0.14862060546875
2,463;-0.14862060546875
2,464;-0.1483154296875
2,465;-0.14862060546875
2,466;-0.14862060546875
2,467;-0.1483154296875
2,468;-0.14862060546875
2,469;-0.14862060546875
2,47;-0.14862060546875
2,471;-0.1483154296875
2,472;-0.14892578125
2,473;-0.14892578125
2,474;-0.14923095703125
2,475;-0.14862060546875
2,476;-0.14862060546875
2,477;-0.1483154296875
2,478;-0.14862060546875
2,479;-0.14862060546875
2,48;-0.1483154296875
2,481;-0.14862060546875
2,482;-0.14892578125
2,483;-0.14862060546875
2,484;-0.1483154296875
2,485;-0.1483154296875
2,486;-0.14862060546875
2,487;-0.14892578125
2,488;-0.14892578125
2,489;-0.14923095703125
2,49;-0.14862060546875
2,491;-0.14801025390625
2,492;-0.1483154296875
2,493;-0.14862060546875
2,494;-0.14862060546875
2,495;-0.1483154296875
2,496;-0.1483154296875
2,497;-0.14862060546875
2,498;-0.14892578125
2,499;-0.14862060546875
2,5;-0.1483154296875
2,501;-0.14862060546875
2,502;-0.14862060546875
2,503;-0.14862060546875
2,504;-0.14892578125
2,505;-0.14892578125
2,506;-0.14892578125
2,507;-0.14862060546875
2,508;-0.14862060546875
2,509;-0.1483154296875
2,51;-0.14862060546875
2,511;-0.14892578125
2,512;-0.14862060546875
2,513;-0.147705078125
2,514;-0.14892578125
2,515;-0.14892578125
2,516;-0.14892578125
2,517;-0.14892578125
2,518;-0.14892578125
2,519;-0.14862060546875
2,52;-0.14862060546875
2,521;-0.14862060546875
2,522;-0.14892578125
2,523;-0.14862060546875
2,524;-0.14892578125
2,525;-0.14862060546875
2,526;-0.147705078125
2,527;-0.1483154296875
2,528;-0.14892578125
2,529;-0.14892578125
2,53;-0.14892578125
2,531;-0.1483154296875
2,532;-0.14862060546875
2,533;-0.14862060546875
2,534;-0.1483154296875
2,535;-0.14892578125
2,536;-0.14862060546875
2,537;-0.1483154296875
2,538;-0.14862060546875
2,539;-0.14862060546875
2,54;-0.14862060546875
2,541;-0.14892578125
2,542;-0.14862060546875
2,543;-0.14862060546875
2,544;-0.14862060546875
2,545;-0.14801025390625
2,546;-0.1483154296875
2,547;-0.14892578125
2,548;-0.14862060546875
2,549;-0.14862060546875
2,55;-0.14862060546875
2,551;-0.1483154296875
2,552;-0.1483154296875
2,553;-0.14892578125
2,554;-0.1483154296875
2,555;-0.14892578125
2,556;-0.1483154296875
2,557;-0.14862060546875
2,558;-0.14862060546875
2,559;-0.1483154296875
2,56;-0.14862060546875
2,561;-0.147705078125
2,562;-0.14862060546875
2,563;-0.14862060546875
2,564;-0.14892578125
2,565;-0.1483154296875
2,566;-0.14862060546875
2,567;-0.14862060546875
2,568;-0.1483154296875
2,569;-0.1483154296875
2,57;-0.14862060546875
2,571;-0.1483154296875
2,572;-0.14862060546875
2,573;-0.14801025390625
2,574;-0.14892578125
2,575;-0.14862060546875
2,576;-0.14862060546875
2,577;-0.14862060546875
2,578;-0.14892578125
2,579;-0.14862060546875
2,58;-0.14801025390625
2,581;-0.1483154296875
2,582;-0.1483154296875
2,583;-0.14862060546875
2,584;-0.14892578125
2,585;-0.1483154296875
2,586;-0.14892578125
2,587;-0.14892578125
2,588;-0.14801025390625
2,589;-0.14801025390625
2,59;-0.14862060546875
2,591;-0.14862060546875
2,592;-0.1483154296875
2,593;-0.14862060546875
2,594;-0.1483154296875
2,595;-0.14892578125
2,596;-0.14862060546875
2,597;-0.14862060546875
2,598;-0.14862060546875
2,599;-0.14801025390625
2,6;-0.1483154296875
2,601;-0.1483154296875
2,602;-0.14862060546875
2,603;-0.1483154296875
2,604;-0.14862060546875
2,605;-0.14862060546875
2,606;-0.1483154296875
2,607;-0.14862060546875
2,608;-0.1483154296875
2,609;-0.14862060546875
2,61;-0.1483154296875
2,611;-0.14862060546875
2,612;-0.1483154296875
2,613;-0.14892578125
2,614;-0.14862060546875
2,615;-0.14862060546875
2,616;-0.14862060546875
2,617;-0.14892578125
2,618;-0.14862060546875
2,619;-0.14862060546875
2,62;-0.14862060546875
2,621;-0.14862060546875
2,622;-0.14923095703125
2,623;-0.14862060546875
2,624;-0.14892578125
2,625;-0.1483154296875
2,626;-0.14862060546875
2,627;-0.1483154296875
2,628;-0.14892578125
2,629;-0.1483154296875
2,63;-0.14892578125
2,631;-0.14862060546875
2,632;-0.14862060546875
2,633;-0.14862060546875
2,634;-0.1483154296875
2,635;-0.1483154296875
2,636;-0.14862060546875
2,637;-0.1483154296875
2,638;-0.14801025390625
2,639;-0.14862060546875
2,64;-0.1483154296875
2,641;-0.14862060546875
2,642;-0.1483154296875
2,643;-0.1483154296875
2,644;-0.14862060546875
2,645;-0.14862060546875
2,646;-0.14892578125
2,647;-0.14862060546875
2,648;-0.14862060546875
2,649;-0.1483154296875
2,65;-0.1483154296875
2,651;-0.14862060546875
2,652;-0.1483154296875
2,653;-0.14892578125
2,654;-0.14892578125
2,655;-0.1483154296875
2,656;-0.14862060546875
2,657;-0.14862060546875
2,658;-0.1483154296875
2,659;-0.14892578125
2,66;-0.14892578125
2,661;-0.1483154296875
2,662;-0.14862060546875
2,663;-0.14862060546875
2,664;-0.14862060546875
2,665;-0.14862060546875
2,666;-0.14892578125
2,667;-0.14862060546875
2,668;-0.14862060546875
2,669;-0.14862060546875
2,67;-0.14892578125
2,671;-0.14892578125
2,672;-0.1483154296875
2,673;-0.14862060546875
2,674;-0.14892578125
2,675;-0.14892578125
2,676;-0.14892578125
2,677;-0.1483154296875
2,678;-0.14923095703125
2,679;-0.14862060546875
2,68;-0.14862060546875
2,681;-0.14862060546875
2,682;-0.14862060546875
2,683;-0.14862060546875
2,684;-0.14923095703125
2,685;-0.14892578125
2,686;-0.1483154296875
2,687;-0.1483154296875
2,688;-0.1483154296875
2,689;-0.14862060546875
2,69;-0.14862060546875
2,691;-0.14862060546875
2,692;-0.1483154296875
2,693;-0.14892578125
2,694;-0.14862060546875
2,695;-0.1483154296875
2,696;-0.14892578125
2,697;-0.14892578125
2,698;-0.14923095703125
2,699;-0.14892578125
2,7;-0.1483154296875
2,701;-0.14892578125
2,702;-0.14892578125
2,703;-0.14892578125
2,704;-0.1483154296875
2,705;-0.14892578125
2,706;-0.14862060546875
2,707;-0.14862060546875
2,708;-0.14892578125
2,709;-0.14862060546875
2,71;-0.14862060546875
2,711;-0.1483154296875
2,712;-0.14892578125
2,713;-0.1483154296875
2,714;-0.14862060546875
2,715;-0.14892578125
2,716;-0.14892578125
2,717;-0.1483154296875
2,718;-0.14862060546875
2,719;-0.14892578125
2,72;-0.1483154296875
2,721;-0.14862060546875
2,722;-0.1483154296875
2,723;-0.14892578125
2,724;-0.14862060546875
2,725;-0.14862060546875
2,726;-0.1483154296875
2,727;-0.14892578125
2,728;-0.1483154296875
2,729;-0.14892578125
2,73;-0.14923095703125
2,731;-0.14923095703125
2,732;-0.1483154296875
2,733;-0.14862060546875
2,734;-0.14862060546875
2,735;-0.14862060546875
2,736;-0.1483154296875
2,737;-0.14892578125
2,738;-0.14801025390625
2,739;-0.14892578125
2,74;-0.14862060546875
2,741;-0.14862060546875
2,742;-0.14862060546875
2,743;-0.1483154296875
2,744;-0.14801025390625
2,745;-0.14862060546875
2,746;-0.14892578125
2,747;-0.14862060546875
2,748;-0.1483154296875
2,749;-0.14862060546875
2,75;-0.14892578125
2,751;-0.1483154296875
2,752;-0.14862060546875
2,753;-0.1483154296875
2,754;-0.14862060546875
2,755;-0.14892578125
2,756;-0.14892578125
2,757;-0.14892578125
2,758;-0.14862060546875
2,759;-0.14892578125
2,76;-0.14892578125
2,761;-0.14892578125
2,762;-0.1483154296875
2,763;-0.14862060546875
2,764;-0.14862060546875
2,765;-0.14862060546875
2,766;-0.14862060546875
2,767;-0.14892578125
2,768;-0.14892578125
2,769;-0.14862060546875
2,77;-0.14923095703125
2,771;-0.14862060546875
2,772;-0.14862060546875
2,773;-0.14862060546875
2,774;-0.14862060546875
2,775;-0.14862060546875
2,776;-0.14862060546875
2,777;-0.14892578125
2,778;-0.1483154296875
2,779;-0.14923095703125
2,78;-0.14862060546875
2,781;-0.14892578125
2,782;-0.14862060546875
2,783;-0.14892578125
2,784;-0.14862060546875
2,785;-0.14862060546875
2,786;-0.14892578125
2,787;-0.14862060546875
2,788;-0.14862060546875
2,789;-0.14892578125
2,79;-0.1483154296875
2,791;-0.14892578125
2,792;-0.14801025390625
2,793;-0.14892578125
2,794;-0.14923095703125
2,795;-0.14862060546875
2,796;-0.14923095703125
2,797;-0.1483154296875
2,798;-0.14923095703125
2,799;-0.14892578125
2,8;-0.14892578125
2,801;-0.14862060546875
2,802;-0.1483154296875
2,803;-0.14892578125
2,804;-0.14862060546875
2,805;-0.14862060546875
2,806;-0.1483154296875
2,807;-0.14923095703125
2,808;-0.14801025390625
2,809;-0.14862060546875
2,81;-0.14923095703125
2,811;-0.14892578125
2,812;-0.1483154296875
2,813;-0.14923095703125
2,814;-0.1483154296875
2,815;-0.14862060546875
2,816;-0.1483154296875
2,817;-0.14892578125
2,818;-0.14862060546875
2,819;-0.14892578125
2,82;-0.14892578125
2,821;-0.14801025390625
2,822;-0.14862060546875
2,823;-0.1483154296875
2,824;-0.14862060546875
2,825;-0.14801025390625
2,826;-0.14862060546875
2,827;-0.1483154296875
2,828;-0.14892578125
2,829;-0.14801025390625
2,83;-0.14862060546875
2,831;-0.14862060546875
2,832;-0.1483154296875
2,833;-0.14892578125
2,834;-0.14862060546875
2,835;-0.1483154296875
2,836;-0.14862060546875
2,837;-0.14862060546875
2,838;-0.14923095703125
2,839;-0.14862060546875
2,84;-0.1483154296875
2,841;-0.14801025390625
2,842;-0.1483154296875
2,843;-0.14862060546875
2,844;-0.14862060546875
2,845;-0.1483154296875
2,846;-0.14862060546875
2,847;-0.14862060546875
2,848;-0.14862060546875
2,849;-0.14862060546875
2,85;-0.14892578125
2,851;-0.1483154296875
2,852;-0.14862060546875
2,853;-0.14862060546875
2,854;-0.14862060546875
2,855;-0.1483154296875
2,856;-0.14892578125
2,857;-0.14862060546875
2,858;-0.14892578125
2,859;-0.1483154296875
2,86;-0.14862060546875
2,861;-0.14862060546875
2,862;-0.14862060546875
2,863;-0.14892578125
2,864;-0.14862060546875
2,865;-0.14892578125
2,866;-0.14862060546875
2,867;-0.14892578125
2,868;-0.1483154296875
2,869;-0.14862060546875
2,87;-0.1483154296875
2,871;-0.14892578125
2,872;-0.1483154296875
2,873;-0.14862060546875
2,874;-0.14862060546875
2,875;-0.14923095703125
2,876;-0.1483154296875
2,877;-0.14862060546875
2,878;-0.1483154296875
2,879;-0.14862060546875
2,88;-0.1483154296875
2,881;-0.14862060546875
2,882;-0.14923095703125
2,883;-0.14801025390625
2,884;-0.14862060546875
2,885;-0.1483154296875
2,886;-0.14862060546875
2,887;-0.14892578125
2,888;-0.14923095703125
2,889;-0.14801025390625
2,89;-0.14862060546875
2,891;-0.1483154296875
2,892;-0.1483154296875
2,893;-0.14862060546875
2,894;-0.14923095703125
2,895;-0.14862060546875
2,896;-0.14862060546875
2,897;-0.14862060546875
2,898;-0.1483154296875
2,899;-0.14862060546875
2,9;-0.14862060546875
2,901;-0.14923095703125
2,902;-0.14892578125
2,903;-0.14892578125
2,904;-0.14892578125
2,905;-0.14923095703125
2,906;-0.14892578125
2,907;-0.14862060546875
2,908;-0.14862060546875
2,909;-0.14862060546875
2,91;-0.1483154296875
2,911;-0.14892578125
2,912;-0.14862060546875
2,913;-0.14862060546875
2,914;-0.1483154296875
2,915;-0.14892578125
2,916;-0.14862060546875
2,917;-0.14862060546875
2,918;-0.14862060546875
2,919;-0.14862060546875
2,92;-0.14862060546875
2,921;-0.1483154296875
2,922;-0.14892578125
2,923;-0.1483154296875
2,924;-0.14923095703125
2,925;-0.14862060546875
2,926;-0.14862060546875
2,927;-0.14862060546875
2,928;-0.14892578125
2,929;-0.14892578125
2,93;-0.1483154296875
2,931;-0.14862060546875
2,932;-0.14862060546875
2,933;-0.1483154296875
2,934;-0.14862060546875
2,935;-0.1483154296875
2,936;-0.14862060546875
2,937;-0.14862060546875
2,938;-0.1483154296875
2,939;-0.1483154296875
2,94;-0.14892578125
2,941;-0.14923095703125
2,942;-0.1483154296875
2,943;-0.14892578125
2,944;-0.14862060546875
2,945;-0.14862060546875
2,946;-0.14892578125
2,947;-0.14923095703125
2,948;-0.14862060546875
2,949;-0.14862060546875
2,95;-0.14892578125
2,951;-0.1483154296875
2,952;-0.14862060546875
2,953;-0.1483154296875
2,954;-0.14892578125
2,955;-0.14892578125
2,956;-0.1483154296875
2,957;-0.1483154296875
2,958;-0.14862060546875
2,959;-0.14862060546875
2,96;-0.14892578125
2,961;-0.14862060546875
2,962;-0.14892578125
2,963;-0.1483154296875
2,964;-0.14801025390625
2,965;-0.14892578125
2,966;-0.1483154296875
2,967;-0.14923095703125
2,968;-0.14862060546875
2,969;-0.14862060546875
2,97;-0.1483154296875
2,971;-0.1483154296875
2,972;-0.14892578125
2,973;-0.14923095703125
2,974;-0.14892578125
2,975;-0.14862060546875
2,976;-0.1483154296875
2,977;-0.14892578125
2,978;-0.14862060546875
2,979;-0.14862060546875
2,98;-0.14892578125
2,981;-0.147705078125
2,982;-0.14923095703125
2,983;-0.14862060546875
2,984;-0.14892578125
2,985;-0.14892578125
2,986;-0.14892578125
2,987;-0.14862060546875
2,988;-0.14862060546875
2,989;-0.1483154296875
2,99;-0.14862060546875
2,991;-0.1483154296875
2,992;-0.14892578125
2,993;-0.14862060546875
2,994;-0.14892578125
2,995;-0.1483154296875
2,996;-0.1483154296875
2,997;-0.14862060546875
2,998;-0.1483154296875
2,999;-0.14862060546875
3;-0.14923095703125
3,001;-0.14862060546875
3,002;-0.1483154296875
3,003;-0.14862060546875
3,004;-0.1483154296875
3,005;-0.14892578125
3,006;-0.14862060546875
3,007;-0.14892578125
3,008;-0.14892578125
3,009;-0.1483154296875
3,01;-0.14862060546875
3,011;-0.14862060546875
3,012;-0.14892578125
3,013;-0.1483154296875
3,014;-0.1483154296875
3,015;-0.14862060546875
3,016;-0.14862060546875
3,017;-0.14892578125
3,018;-0.14862060546875
3,019;-0.14862060546875
3,02;-0.14801025390625
3,021;-0.1483154296875
3,022;-0.14862060546875
3,023;-0.14892578125
3,024;-0.1483154296875
3,025;-0.14801025390625
3,026;-0.14923095703125
3,027;-0.14862060546875
3,028;-0.1483154296875
3,029;-0.14892578125
3,03;-0.14892578125
3,031;-0.14892578125
3,032;-0.14923095703125
3,033;-0.14892578125
3,034;-0.14892578125
3,035;-0.14892578125
3,036;-0.14862060546875
3,037;-0.14892578125
3,038;-0.14862060546875
3,039;-0.14862060546875
3,04;-0.14862060546875
3,041;-0.14801025390625
3,042;-0.14892578125
3,043;-0.14862060546875
3,044;-0.14892578125
3,045;-0.14892578125
3,046;-0.1483154296875
3,047;-0.1483154296875
3,048;-0.14892578125
3,049;-0.14862060546875
3,05;-0.1483154296875
3,051;-0.14862060546875
3,052;-0.1495361328125
3,053;-0.14892578125
3,054;-0.1483154296875
3,055;-0.14862060546875
3,056;-0.14862060546875
3,057;-0.1483154296875
3,058;-0.14892578125
3,059;-0.14862060546875
3,06;-0.14862060546875
3,061;-0.14862060546875
3,062;-0.14892578125
3,063;-0.14801025390625
3,064;-0.14892578125
3,065;-0.14862060546875
3,066;-0.1483154296875
3,067;-0.14862060546875
3,068;-0.14892578125
3,069;-0.14862060546875
3,07;-0.1483154296875
3,071;-0.14862060546875
3,072;-0.14862060546875
3,073;-0.14862060546875
3,074;-0.14862060546875
3,075;-0.14862060546875
3,076;-0.1483154296875
3,077;-0.14892578125
3,078;-0.1483154296875
3,079;-0.1483154296875
3,08;-0.14892578125
3,081;-0.14892578125
3,082;-0.14923095703125
3,083;-0.1483154296875
3,084;-0.14862060546875
3,085;-0.14862060546875
3,086;-0.1483154296875
3,087;-0.1483154296875
3,088;-0.14862060546875
3,089;-0.14892578125
3,09;-0.14862060546875
3,091;-0.1483154296875
3,092;-0.14892578125
3,093;-0.1483154296875
3,094;-0.1483154296875
3,095;-0.14862060546875
3,096;-0.14923095703125
3,097;-0.14862060546875
3,098;-0.1483154296875
3,099;-0.14892578125
3,1;-0.14892578125
3,101;-0.14862060546875
3,102;-0.14892578125
3,103;-0.1483154296875
3,104;-0.1483154296875
3,105;-0.14862060546875
3,106;-0.14892578125
3,107;-0.14862060546875
3,108;-0.14862060546875
3,109;-0.14862060546875
3,11;-0.14923095703125
3,111;-0.14892578125
3,112;-0.14923095703125
3,113;-0.14862060546875
3,114;-0.14862060546875
3,115;-0.1483154296875
3,116;-0.14892578125
3,117;-0.14892578125
3,118;-0.14862060546875
3,119;-0.14892578125
3,12;-0.14892578125
3,121;-0.14862060546875
3,122;-0.14862060546875
3,123;-0.14862060546875
3,124;-0.14892578125
3,125;-0.14892578125
3,126;-0.1483154296875
3,127;-0.14892578125
3,128;-0.14862060546875
3,129;-0.14892578125
3,13;-0.14801025390625
3,131;-0.14892578125
3,132;-0.14892578125
3,133;-0.14923095703125
3,134;-0.14892578125
3,135;-0.14892578125
3,136;-0.14862060546875
3,137;-0.14892578125
3,138;-0.14862060546875
3,139;-0.14892578125
3,14;-0.14862060546875
3,141;-0.14862060546875
3,142;-0.14801025390625
3,143;-0.14923095703125
3,144;-0.14862060546875
3,145;-0.1483154296875
3,146;-0.1483154296875
3,147;-0.14862060546875
3,148;-0.14862060546875
3,149;-0.14892578125
3,15;-0.1483154296875
3,151;-0.14892578125
3,152;-0.14892578125
3,153;-0.14862060546875
3,154;-0.1483154296875
3,155;-0.14892578125
3,156;-0.14862060546875
3,157;-0.14862060546875
3,158;-0.14862060546875
3,159;-0.1483154296875
3,16;-0.14801025390625
3,161;-0.14862060546875
3,162;-0.14892578125
3,163;-0.14892578125
3,164;-0.14862060546875
3,165;-0.14892578125
3,166;-0.14862060546875
3,167;-0.14892578125
3,168;-0.14862060546875
3,169;-0.1483154296875
3,17;-0.1483154296875
3,171;-0.14892578125
3,172;-0.14862060546875
3,173;-0.1483154296875
3,174;-0.14892578125
3,175;-0.14862060546875
3,176;-0.14892578125
3,177;-0.14892578125
3,178;-0.14862060546875
3,179;-0.1483154296875
3,18;-0.14862060546875
3,181;-0.1483154296875
3,182;-0.14892578125
3,183;-0.14923095703125
3,184;-0.14862060546875
3,185;-0.14892578125
3,186;-0.14862060546875
3,187;-0.1483154296875
3,188;-0.14892578125
3,189;-0.14892578125
3,19;-0.14892578125
3,191;-0.1483154296875
3,192;-0.14862060546875
3,193;-0.14892578125
3,194;-0.14862060546875
3,195;-0.14862060546875
3,196;-0.14892578125
3,197;-0.1483154296875
3,198;-0.14862060546875
3,199;-0.14892578125
3,2;-0.14892578125
3,201;-0.14923095703125
3,202;-0.14892578125
3,203;-0.1483154296875
3,204;-0.14892578125
3,205;-0.14862060546875
3,206;-0.14923095703125
3,207;-0.14892578125
3,208;-0.14862060546875
3,209;-0.14862060546875
3,21;-0.14862060546875
3,211;-0.14862060546875
3,212;-0.14862060546875
3,213;-0.14892578125
3,214;-0.14862060546875
3,215;-0.14892578125
3,216;-0.14892578125
3,217;-0.14862060546875
3,218;-0.14862060546875
3,219;-0.1483154296875
3,22;-0.1483154296875
3,221;-0.14862060546875
3,222;-0.1483154296875
3,223;-0.14862060546875
3,224;-0.14892578125
3,225;-0.14862060546875
3,226;-0.1483154296875
3,227;-0.14923095703125
3,228;-0.14892578125
3,229;-0.14862060546875
3,23;-0.1483154296875
3,231;-0.14892578125
3,232;-0.14862060546875
3,233;-0.14862060546875
3,234;-0.14892578125
3,235;-0.14892578125
3,236;-0.14862060546875
3,237;-0.14892578125
3,238;-0.14892578125
3,239;-0.1483154296875
3,24;-0.14862060546875
3,241;-0.1483154296875
3,242;-0.14923095703125
3,243;-0.14892578125
3,244;-0.14862060546875
3,245;-0.14892578125
3,246;-0.14862060546875
3,247;-0.1483154296875
3,248;-0.14892578125
3,249;-0.1483154296875
3,25;-0.14892578125
3,251;-0.14892578125
3,252;-0.1483154296875
3,253;-0.1483154296875
3,254;-0.14923095703125
3,255;-0.14892578125
3,256;-0.14862060546875
3,257;-0.14892578125
3,258;-0.1483154296875
3,259;-0.14892578125
3,26;-0.14923095703125
3,261;-0.14862060546875
3,262;-0.14862060546875
3,263;-0.14862060546875
3,264;-0.14892578125
3,265;-0.14862060546875
3,266;-0.1483154296875
3,267;-0.14892578125
3,268;-0.1483154296875
3,269;-0.14862060546875
3,27;-0.14862060546875
3,271;-0.14892578125
3,272;-0.1483154296875
3,273;-0.14923095703125
3,274;-0.14862060546875
3,275;-0.14801025390625
3,276;-0.14862060546875
3,277;-0.14923095703125
3,278;-0.14892578125
3,279;-0.14892578125
3,28;-0.14862060546875
3,281;-0.14862060546875
3,282;-0.1483154296875
3,283;-0.1483154296875
3,284;-0.14892578125
3,285;-0.14862060546875
3,286;-0.14892578125
3,287;-0.14862060546875
3,288;-0.14892578125
3,289;-0.14862060546875
3,29;-0.14892578125
3,291;-0.14862060546875
3,292;-0.14862060546875
3,293;-0.14923095703125
3,294;-0.14892578125
3,295;-0.14923095703125
3,296;-0.14892578125
3,297;-0.14892578125
3,298;-0.14892578125
3,299;-0.1483154296875
3,3;-0.14862060546875
3,301;-0.14862060546875
3,302;-0.14862060546875
3,303;-0.14862060546875
3,304;-0.1483154296875
3,305;-0.14892578125
3,306;-0.14923095703125
3,307;-0.14862060546875
3,308;-0.14801025390625
3,309;-0.14892578125
3,31;-0.14892578125
3,311;-0.1483154296875
3,312;-0.14862060546875
3,313;-0.14862060546875
3,314;-0.14862060546875
3,315;-0.1483154296875
3,316;-0.14892578125
3,317;-0.14892578125
3,318;-0.14862060546875
3,319;-0.14862060546875
3,32;-0.14862060546875
3,321;-0.14892578125
3,322;-0.1483154296875
3,323;-0.14862060546875
3,324;-0.14862060546875
3,325;-0.14892578125
3,326;-0.14892578125
3,327;-0.1483154296875
3,328;-0.14862060546875
3,329;-0.14892578125
3,33;-0.14862060546875
3,331;-0.14892578125
3,332;-0.1483154296875
3,333;-0.14862060546875
3,334;-0.1483154296875
3,335;-0.1483154296875
3,336;-0.14862060546875
3,337;-0.14892578125
3,338;-0.14862060546875
3,339;-0.1483154296875
3,34;-0.14862060546875
3,341;-0.14862060546875
3,342;-0.14892578125
3,343;-0.14923095703125
3,344;-0.14892578125
3,345;-0.1483154296875
3,346;-0.14892578125
3,347;-0.14892578125
3,348;-0.14862060546875
3,349;-0.14862060546875
3,35;-0.14801025390625
3,351;-0.14892578125
3,352;-0.1483154296875
3,353;-0.14862060546875
3,354;-0.14892578125
3,355;-0.14862060546875
3,356;-0.14862060546875
3,357;-0.14892578125
3,358;-0.1483154296875
3,359;-0.14892578125
3,36;-0.14892578125
3,361;-0.14892578125
3,362;-0.1483154296875
3,363;-0.14862060546875
3,364;-0.14892578125
3,365;-0.14923095703125
3,366;-0.14923095703125
3,367;-0.14862060546875
3,368;-0.1483154296875
3,369;-0.14892578125
3,37;-0.14862060546875
3,371;-0.14923095703125
3,372;-0.14862060546875
3,373;-0.1483154296875
3,374;-0.1483154296875
3,375;-0.14892578125
3,376;-0.14892578125
3,377;-0.14923095703125
3,378;-0.14862060546875
3,379;-0.14862060546875
3,38;-0.14862060546875
3,381;-0.1483154296875
3,382;-0.14923095703125
3,383;-0.14862060546875
3,384;-0.14892578125
3,385;-0.14862060546875
3,386;-0.14923095703125
3,387;-0.14862060546875
3,388;-0.14862060546875
3,389;-0.14862060546875
3,39;-0.14862060546875
3,391;-0.1483154296875
3,392;-0.14892578125
3,393;-0.14862060546875
3,394;-0.1483154296875
3,395;-0.14892578125
3,396;-0.1483154296875
3,397;-0.14892578125
3,398;-0.14892578125
3,399;-0.14862060546875
3,4;-0.14862060546875
3,401;-0.14862060546875
3,402;-0.14892578125
3,403;-0.14892578125
3,404;-0.14923095703125
3,405;-0.1483154296875
3,406;-0.14892578125
3,407;-0.14892578125
3,408;-0.14923095703125
3,409;-0.1483154296875
3,41;-0.14862060546875
3,411;-0.14892578125
3,412;-0.1483154296875
3,413;-0.14923095703125
3,414;-0.14862060546875
3,415;-0.14892578125
3,416;-0.14862060546875
3,417;-0.14892578125
3,418;-0.14892578125
3,419;-0.14862060546875
3,42;-0.1483154296875
3,421;-0.1483154296875
3,422;-0.14862060546875
3,423;-0.14862060546875
3,424;-0.14923095703125
3,425;-0.1483154296875
3,426;-0.14862060546875
3,427;-0.14892578125
3,428;-0.14862060546875
3,429;-0.14892578125
3,43;-0.14862060546875
3,431;-0.14892578125
3,432;-0.14892578125
3,433;-0.1483154296875
3,434;-0.14892578125
3,435;-0.14892578125
3,436;-0.14862060546875
3,437;-0.1483154296875
3,438;-0.14862060546875
3,439;-0.14862060546875
3,44;-0.14862060546875
3,441;-0.14892578125
3,442;-0.1483154296875
3,443;-0.14862060546875
3,444;-0.14862060546875
3,445;-0.14862060546875
3,446;-0.14892578125
3,447;-0.14892578125
3,448;-0.14862060546875
3,449;-0.1495361328125
3,45;-0.14892578125
3,451;-0.14892578125
3,452;-0.14862060546875
3,453;-0.1483154296875
3,454;-0.1483154296875
3,455;-0.1495361328125
3,456;-0.14892578125
3,457;-0.14892578125
3,458;-0.1483154296875
3,459;-0.14892578125
3,46;-0.14862060546875
3,461;-0.14862060546875
3,462;-0.1483154296875
3,463;-0.14923095703125
3,464;-0.14862060546875
3,465;-0.14862060546875
3,466;-0.1483154296875
3,467;-0.1483154296875
3,468;-0.14923095703125
3,469;-0.14923095703125
3,47;-0.14862060546875
3,471;-0.14892578125
3,472;-0.14923095703125
3,473;-0.14892578125
3,474;-0.14862060546875
3,475;-0.14862060546875
3,476;-0.14892578125
3,477;-0.14892578125
3,478;-0.14923095703125
3,479;-0.14892578125
3,48;-0.14892578125
3,481;-0.14862060546875
3,482;-0.14862060546875
3,483;-0.14892578125
3,484;-0.14862060546875
3,485;-0.14862060546875
3,486;-0.1483154296875
3,487;-0.14862060546875
3,488;-0.14892578125
3,489;-0.14892578125
3,49;-0.14892578125
3,491;-0.14862060546875
3,492;-0.14892578125
3,493;-0.14923095703125
3,494;-0.1483154296875
3,495;-0.14892578125
3,496;-0.1483154296875
3,497;-0.14892578125
3,498;-0.14862060546875
3,499;-0.14862060546875
3,5;-0.14923095703125
3,501;-0.14923095703125
3,502;-0.14892578125
3,503;-0.14862060546875
3,504;-0.1483154296875
3,505;-0.14862060546875
3,506;-0.1483154296875
3,507;-0.14862060546875
3,508;-0.14923095703125
3,509;-0.14862060546875
3,51;-0.14892578125
3,511;-0.14862060546875
3,512;-0.14862060546875
3,513;-0.14862060546875
3,514;-0.1483154296875
3,515;-0.1483154296875
3,516;-0.14862060546875
3,517;-0.14862060546875
3,518;-0.14892578125
3,519;-0.14862060546875
3,52;-0.14862060546875
3,521;-0.14892578125
3,522;-0.14923095703125
3,523;-0.14801025390625
3,524;-0.14892578125
3,525;-0.1483154296875
3,526;-0.1483154296875
3,527;-0.14862060546875
3,528;-0.14892578125
3,529;-0.14892578125
3,53;-0.14862060546875
3,531;-0.14892578125
3,532;-0.14862060546875
3,533;-0.14862060546875
3,534;-0.1483154296875
3,535;-0.14862060546875
3,536;-0.14862060546875
3,537;-0.14923095703125
3,538;-0.14892578125
3,539;-0.14862060546875
3,54;-0.14892578125
3,541;-0.1483154296875
3,542;-0.1483154296875
3,543;-0.14862060546875
3,544;-0.14923095703125
3,545;-0.14801025390625
3,546;-0.14862060546875
3,547;-0.14923095703125
3,548;-0.14862060546875
3,549;-0.1483154296875
3,55;-0.14892578125
3,551;-0.14862060546875
3,552;-0.14923095703125
3,553;-0.14862060546875
3,554;-0.1483154296875
3,555;-0.14862060546875
3,556;-0.14892578125
3,557;-0.14862060546875
3,558;-0.14892578125
3,559;-0.14892578125
3,56;-0.14892578125
3,561;-0.14892578125
3,562;-0.14862060546875
3,563;-0.14923095703125
3,564;-0.14892578125
3,565;-0.14862060546875
3,566;-0.14862060546875
3,567;-0.1483154296875
3,568;-0.14862060546875
3,569;-0.14892578125
3,57;-0.14862060546875
3,571;-0.14862060546875
3,572;-0.14923095703125
3,573;-0.14892578125
3,574;-0.14892578125
3,575;-0.14862060546875
3,576;-0.14892578125
3,577;-0.14862060546875
3,578;-0.1495361328125
3,579;-0.14923095703125
3,58;-0.1483154296875
3,581;-0.14862060546875
3,582;-0.14862060546875
3,583;-0.14862060546875
3,584;-0.14923095703125
3,585;-0.14862060546875
3,586;-0.14892578125
3,587;-0.1483154296875
3,588;-0.14862060546875
3,589;-0.14892578125
3,59;-0.14892578125
3,591;-0.14923095703125
3,592;-0.14892578125
3,593;-0.1483154296875
3,594;-0.1483154296875
3,595;-0.14862060546875
3,596;-0.1483154296875
3,597;-0.14862060546875
3,598;-0.14862060546875
3,599;-0.14923095703125
3,6;-0.1483154296875
3,601;-0.14862060546875
3,602;-0.14923095703125
3,603;-0.1483154296875
3,604;-0.14892578125
3,605;-0.14923095703125
3,606;-0.14923095703125
3,607;-0.14892578125
3,608;-0.1483154296875
3,609;-0.1495361328125
3,61;-0.1483154296875
3,611;-0.14923095703125
3,612;-0.1483154296875
3,613;-0.14862060546875
3,614;-0.14862060546875
3,615;-0.14892578125
3,616;-0.14892578125
3,617;-0.1483154296875
3,618;-0.14892578125
3,619;-0.14862060546875
3,62;-0.14862060546875
3,621;-0.14862060546875
3,622;-0.14892578125
3,623;-0.14892578125
3,624;-0.1483154296875
3,625;-0.14862060546875
3,626;-0.1483154296875
3,627;-0.1483154296875
3,628;-0.14892578125
3,629;-0.14892578125
3,63;-0.14862060546875
3,631;-0.1483154296875
3,632;-0.14892578125
3,633;-0.14862060546875
3,634;-0.14923095703125
3,635;-0.14892578125
3,636;-0.14862060546875
3,637;-0.1483154296875
3,638;-0.1483154296875
3,639;-0.1483154296875
3,64;-0.1483154296875
3,641;-0.14862060546875
3,642;-0.14862060546875
3,643;-0.1483154296875
3,644;-0.14862060546875
3,645;-0.14892578125
3,646;-0.14862060546875
3,647;-0.14892578125
3,648;-0.14801025390625
3,649;-0.14923095703125
3,65;-0.14892578125
3,651;-0.14862060546875
3,652;-0.14862060546875
3,653;-0.14862060546875
3,654;-0.14862060546875
3,655;-0.14892578125
3,656;-0.14862060546875
3,657;-0.14862060546875
3,658;-0.14862060546875
3,659;-0.14862060546875
3,66;-0.14862060546875
3,661;-0.1483154296875
3,662;-0.14892578125
3,663;-0.14892578125
3,664;-0.14862060546875
3,665;-0.14862060546875
3,666;-0.14862060546875
3,667;-0.14892578125
3,668;-0.1483154296875
3,669;-0.14892578125
3,67;-0.14892578125
3,671;-0.14862060546875
3,672;-0.14862060546875
3,673;-0.14862060546875
3,674;-0.14892578125
3,675;-0.1483154296875
3,676;-0.14862060546875
3,677;-0.14923095703125
3,678;-0.14862060546875
3,679;-0.1483154296875
3,68;-0.1483154296875
3,681;-0.14892578125
3,682;-0.1483154296875
3,683;-0.14892578125
3,684;-0.1483154296875
3,685;-0.14923095703125
3,686;-0.1483154296875
3,687;-0.14892578125
3,688;-0.14862060546875
3,689;-0.14892578125
3,69;-0.14862060546875
3,691;-0.1495361328125
3,692;-0.14892578125
3,693;-0.14892578125
3,694;-0.14862060546875
3,695;-0.14862060546875
3,696;-0.14892578125
3,697;-0.14862060546875
3,698;-0.14862060546875
3,699;-0.1483154296875
3,7;-0.14892578125
3,701;-0.1483154296875
3,702;-0.14892578125
3,703;-0.14892578125
3,704;-0.14892578125
3,705;-0.1483154296875
3,706;-0.14862060546875
3,707;-0.1483154296875
3,708;-0.14862060546875
3,709;-0.1483154296875
3,71;-0.1483154296875
3,711;-0.14862060546875
3,712;-0.1483154296875
3,713;-0.1483154296875
3,714;-0.14862060546875
3,715;-0.14892578125
3,716;-0.14862060546875
3,717;-0.1483154296875
3,718;-0.14862060546875
3,719;-0.14862060546875
3,72;-0.14892578125
3,721;-0.1483154296875
3,722;-0.14862060546875
3,723;-0.14862060546875
3,724;-0.14862060546875
3,725;-0.14862060546875
3,726;-0.14892578125
3,727;-0.14862060546875
3,728;-0.14862060546875
3,729;-0.14862060546875
3,73;-0.14862060546875
3,731;-0.14892578125
3,732;-0.14892578125
3,733;-0.14892578125
3,734;-0.14892578125
3,735;-0.14862060546875
3,736;-0.14892578125
3,737;-0.14862060546875
3,738;-0.14892578125
3,739;-0.1483154296875
3,74;-0.14892578125
3,741;-0.14923095703125
3,742;-0.14801025390625
3,743;-0.14923095703125
3,744;-0.14892578125
3,745;-0.14923095703125
3,746;-0.14862060546875
3,747;-0.14892578125
3,748;-0.14892578125
3,749;-0.14862060546875
3,75;-0.14862060546875
3,751;-0.14862060546875
3,752;-0.14862060546875
3,753;-0.14892578125
3,754;-0.14923095703125
3,755;-0.14862060546875
3,756;-0.14862060546875
3,757;-0.1483154296875
3,758;-0.14892578125
3,759;-0.1483154296875
3,76;-0.14862060546875
3,761;-0.14892578125
3,762;-0.14862060546875
3,763;-0.14892578125
3,764;-0.14892578125
3,765;-0.14923095703125
3,766;-0.14892578125
3,767;-0.1495361328125
3,768;-0.14892578125
3,769;-0.1483154296875
3,77;-0.14892578125
3,771;-0.1483154296875
3,772;-0.14892578125
3,773;-0.14923095703125
3,774;-0.14862060546875
3,775;-0.14892578125
3,776;-0.14862060546875
3,777;-0.1483154296875
3,778;-0.14862060546875
3,779;-0.14892578125
3,78;-0.14892578125
3,781;-0.14862060546875
3,782;-0.14862060546875
3,783;-0.14862060546875
3,784;-0.14862060546875
3,785;-0.14862060546875
3,786;-0.14862060546875
3,787;-0.1483154296875
3,788;-0.14892578125
3,789;-0.14923095703125
3,79;-0.14892578125
3,791;-0.14923095703125
3,792;-0.14862060546875
3,793;-0.1495361328125
3,794;-0.14862060546875
3,795;-0.14892578125
3,796;-0.14923095703125
3,797;-0.14923095703125
3,798;-0.14892578125
3,799;-0.14892578125
3,8;-0.14862060546875
3,801;-0.14862060546875
3,802;-0.14862060546875
3,803;-0.14892578125
3,804;-0.14862060546875
3,805;-0.14862060546875
3,806;-0.14892578125
3,807;-0.14892578125
3,808;-0.14923095703125
3,809;-0.14862060546875
3,81;-0.14892578125
3,811;-0.14862060546875
3,812;-0.14862060546875
3,813;-0.14892578125
3,814;-0.14923095703125
3,815;-0.14923095703125
3,816;-0.1483154296875
3,817;-0.1483154296875
3,818;-0.1483154296875
3,819;-0.1483154296875
3,82;-0.14892578125
3,821;-0.14923095703125
3,822;-0.14892578125
3,823;-0.14892578125
3,824;-0.14892578125
3,825;-0.14892578125
3,826;-0.14923095703125
3,827;-0.14892578125
3,828;-0.14892578125
3,829;-0.14892578125
3,83;-0.14892578125
3,831;-0.14892578125
3,832;-0.14923095703125
3,833;-0.14892578125
3,834;-0.14862060546875
3,835;-0.14862060546875
3,836;-0.14892578125
3,837;-0.1483154296875
3,838;-0.1483154296875
3,839;-0.1483154296875
3,84;-0.14862060546875
3,841;-0.14892578125
3,842;-0.14892578125
3,843;-0.14892578125
3,844;-0.14923095703125
3,845;-0.1483154296875
3,846;-0.1483154296875
3,847;-0.14862060546875
3,848;-0.14923095703125
3,849;-0.14923095703125
3,85;-0.1483154296875
3,851;-0.14862060546875
3,852;-0.1483154296875
3,853;-0.1483154296875
3,854;-0.1483154296875
3,855;-0.14892578125
3,856;-0.14862060546875
3,857;-0.14892578125
3,858;-0.1483154296875
3,859;-0.1483154296875
3,86;-0.1483154296875
3,861;-0.14892578125
3,862;-0.14892578125
3,863;-0.1483154296875
3,864;-0.14892578125
3,865;-0.14892578125
3,866;-0.14862060546875
3,867;-0.14892578125
3,868;-0.14923095703125
3,869;-0.1483154296875
3,87;-0.1483154296875
3,871;-0.14862060546875
3,872;-0.14862060546875
3,873;-0.14862060546875
3,874;-0.14892578125
3,875;-0.14892578125
3,876;-0.14892578125
3,877;-0.14892578125
3,878;-0.14862060546875
3,879;-0.14892578125
3,88;-0.14862060546875
3,881;-0.14892578125
3,882;-0.14892578125
3,883;-0.14892578125
3,884;-0.14862060546875
3,885;-0.14892578125
3,886;-0.14862060546875
3,887;-0.14862060546875
3,888;-0.14892578125
3,889;-0.14923095703125
3,89;-0.14892578125
3,891;-0.14892578125
3,892;-0.14862060546875
3,893;-0.14923095703125
3,894;-0.14862060546875
3,895;-0.14862060546875
3,896;-0.1483154296875
3,897;-0.14923095703125
3,898;-0.1483154296875
3,899;-0.14892578125
3,9;-0.14862060546875
3,901;-0.1495361328125
3,902;-0.14862060546875
3,903;-0.14892578125
3,904;-0.14892578125
3,905;-0.1483154296875
3,906;-0.14892578125
3,907;-0.14862060546875
3,908;-0.1483154296875
3,909;-0.14862060546875
3,91;-0.14862060546875
3,911;-0.14862060546875
3,912;-0.14862060546875
3,913;-0.14923095703125
3,914;-0.1483154296875
3,915;-0.14923095703125
3,916;-0.14862060546875
3,917;-0.14862060546875
3,918;-0.1483154296875
3,919;-0.14923095703125
3,92;-0.14892578125
3,921;-0.14892578125
3,922;-0.14923095703125
3,923;-0.14892578125
3,924;-0.14862060546875
3,925;-0.14862060546875
3,926;-0.14862060546875
3,927;-0.14892578125
3,928;-0.1483154296875
3,929;-0.1495361328125
3,93;-0.1483154296875
3,931;-0.14892578125
3,932;-0.14892578125
3,933;-0.14892578125
3,934;-0.14892578125
3,935;-0.14892578125
3,936;-0.14892578125
3,937;-0.14923095703125
3,938;-0.14892578125
3,939;-0.14923095703125
3,94;-0.1483154296875
3,941;-0.14862060546875
3,942;-0.14862060546875
3,943;-0.1483154296875
3,944;-0.14892578125
3,945;-0.14862060546875
3,946;-0.14862060546875
3,947;-0.14862060546875
3,948;-0.1495361328125
3,949;-0.14923095703125
3,95;-0.1483154296875
3,951;-0.14892578125
3,952;-0.14862060546875
3,953;-0.14923095703125
3,954;-0.14892578125
3,955;-0.14892578125
3,956;-0.1483154296875
3,957;-0.1483154296875
3,958;-0.14892578125
3,959;-0.14923095703125
3,96;-0.1483154296875
3,961;-0.14892578125
3,962;-0.14923095703125
3,963;-0.14862060546875
3,964;-0.14862060546875
3,965;-0.14892578125
3,966;-0.14862060546875
3,967;-0.14892578125
3,968;-0.14862060546875
3,969;-0.14892578125
3,97;-0.14862060546875
3,971;-0.14892578125
3,972;-0.14862060546875
3,973;-0.14892578125
3,974;-0.14862060546875
3,975;-0.14892578125
3,976;-0.14892578125
3,977;-0.14892578125
3,978;-0.14862060546875
3,979;-0.14923095703125
3,98;-0.14862060546875
3,981;-0.14923095703125
3,982;-0.1483154296875
3,983;-0.14862060546875
3,984;-0.14862060546875
3,985;-0.14862060546875
3,986;-0.14923095703125
3,987;-0.14892578125
3,988;-0.14923095703125
3,989;-0.14892578125
3,99;-0.14923095703125
3,991;-0.14892578125
3,992;-0.14862060546875
3,993;-0.14892578125
3,994;-0.1483154296875
3,995;-0.14892578125
3,996;-0.14862060546875
3,997;-0.14923095703125
3,998;-0.14862060546875
3,999;-0.14892578125
4;-0.14862060546875
4,001;-0.1483154296875
4,002;-0.14862060546875
4,003;-0.14862060546875
4,004;-0.1495361328125
4,005;-0.14923095703125
4,006;-0.14862060546875
4,007;-0.14862060546875
4,008;-0.14862060546875
4,009;-0.14892578125
4,01;-0.14892578125
4,011;-0.14862060546875
4,012;-0.14892578125
4,013;-0.14862060546875
4,014;-0.14892578125
4,015;-0.14892578125
4,016;-0.14892578125
4,017;-0.14923095703125
4,018;-0.14892578125
4,019;-0.14923095703125
4,02;-0.14862060546875
4,021;-0.14892578125
4,022;-0.14862060546875
4,023;-0.14862060546875
4,024;-0.14892578125
4,025;-0.14862060546875
4,026;-0.14892578125
4,027;-0.14923095703125
4,028;-0.1495361328125
4,029;-0.14862060546875
4,03;-0.14862060546875
4,031;-0.14923095703125
4,032;-0.14892578125
4,033;-0.1483154296875
4,034;-0.1483154296875
4,035;-0.1483154296875
4,036;-0.14862060546875
4,037;-0.14862060546875
4,038;-0.14862060546875
4,039;-0.14862060546875
4,04;-0.14892578125
4,041;-0.14923095703125
4,042;-0.14892578125
4,043;-0.1483154296875
4,044;-0.14801025390625
4,045;-0.1483154296875
4,046;-0.14892578125
4,047;-0.14892578125
4,048;-0.14923095703125
4,049;-0.14862060546875
4,05;-0.1483154296875
4,051;-0.14892578125
4,052;-0.14892578125
4,053;-0.14862060546875
4,054;-0.14862060546875
4,055;-0.14892578125
4,056;-0.14892578125
4,057;-0.14923095703125
4,058;-0.14892578125
4,059;-0.1483154296875
4,06;-0.14862060546875
4,061;-0.14923095703125
4,062;-0.14892578125
4,063;-0.1483154296875
4,064;-0.1483154296875
4,065;-0.14892578125
4,066;-0.14862060546875
4,067;-0.1483154296875
4,068;-0.14862060546875
4,069;-0.1483154296875
4,07;-0.14892578125
4,071;-0.14862060546875
4,072;-0.14892578125
4,073;-0.14892578125
4,074;-0.14862060546875
4,075;-0.14892578125
4,076;-0.14892578125
4,077;-0.14862060546875
4,078;-0.1483154296875
4,079;-0.14862060546875
4,08;-0.14892578125
4,081;-0.14892578125
4,082;-0.14862060546875
4,083;-0.14892578125
4,084;-0.1483154296875
4,085;-0.1483154296875
4,086;-0.14892578125
4,087;-0.14892578125
4,088;-0.14862060546875
4,089;-0.14892578125
4,09;-0.14862060546875
4,091;-0.1483154296875
4,092;-0.14892578125
4,093;-0.1483154296875
4,094;-0.14862060546875
4,095;-0.14862060546875
4,096;-0.14862060546875
4,097;-0.14923095703125
4,098;-0.1483154296875
4,099;-0.14862060546875
4,1;-0.14892578125
4,101;-0.14923095703125
4,102;-0.1483154296875
4,103;-0.1483154296875
4,104;-0.14892578125
4,105;-0.14923095703125
4,106;-0.14862060546875
4,107;-0.14862060546875
4,108;-0.14892578125
4,109;-0.14862060546875
4,11;-0.14862060546875
4,111;-0.1483154296875
4,112;-0.14862060546875
4,113;-0.14892578125
4,114;-0.14892578125
4,115;-0.14862060546875
4,116;-0.14892578125
4,117;-0.14892578125
4,118;-0.14862060546875
4,119;-0.1483154296875
4,12;-0.14862060546875
4,121;-0.14892578125
4,122;-0.14862060546875
4,123;-0.14923095703125
4,124;-0.14923095703125
4,125;-0.14862060546875
4,126;-0.14892578125
4,127;-0.14862060546875
4,128;-0.14892578125
4,129;-0.14862060546875
4,13;-0.14892578125
4,131;-0.14862060546875
4,132;-0.14862060546875
4,133;-0.14923095703125
4,134;-0.14862060546875
4,135;-0.1495361328125
4,136;-0.14892578125
4,137;-0.14923095703125
4,138;-0.14892578125
4,139;-0.14892578125
4,14;-0.14892578125
4,141;-0.14862060546875
4,142;-0.14892578125
4,143;-0.14892578125
4,144;-0.14892578125
4,145;-0.1483154296875
4,146;-0.14923095703125
4,147;-0.14892578125
4,148;-0.14892578125
4,149;-0.1483154296875
4,15;-0.14862060546875
4,151;-0.1483154296875
4,152;-0.14892578125
4,153;-0.1483154296875
4,154;-0.14892578125
4,155;-0.14892578125
4,156;-0.14862060546875
4,157;-0.14923095703125
4,158;-0.14923095703125
4,159;-0.14801025390625
4,16;-0.14892578125
4,161;-0.14862060546875
4,162;-0.14892578125
4,163;-0.14923095703125
4,164;-0.14892578125
4,165;-0.14862060546875
4,166;-0.14862060546875
4,167;-0.14862060546875
4,168;-0.14923095703125
4,169;-0.14892578125
4,17;-0.14892578125
4,171;-0.14892578125
4,172;-0.14892578125
4,173;-0.14923095703125
4,174;-0.14923095703125
4,175;-0.1483154296875
4,176;-0.1483154296875
4,177;-0.14862060546875
4,178;-0.14862060546875
4,179;-0.14892578125
4,18;-0.14862060546875
4,181;-0.14892578125
4,182;-0.14892578125
4,183;-0.14862060546875
4,184;-0.14923095703125
4,185;-0.14892578125
4,186;-0.14892578125
4,187;-0.14862060546875
4,188;-0.14892578125
4,189;-0.14892578125
4,19;-0.14923095703125
4,191;-0.14892578125
4,192;-0.14923095703125
4,193;-0.14923095703125
4,194;-0.14923095703125
4,195;-0.14862060546875
4,196;-0.14862060546875
4,197;-0.14892578125
4,198;-0.14862060546875
4,199;-0.14892578125
4,2;-0.14892578125
4,201;-0.1483154296875
4,202;-0.14923095703125
4,203;-0.14923095703125
4,204;-0.14862060546875
4,205;-0.14862060546875
4,206;-0.14862060546875
4,207;-0.14892578125
4,208;-0.14892578125
4,209;-0.14892578125
4,21;-0.14892578125
4,211;-0.14862060546875
4,212;-0.14892578125
4,213;-0.14892578125
4,214;-0.14923095703125
4,215;-0.14892578125
4,216;-0.14862060546875
4,217;-0.14892578125
4,218;-0.14923095703125
4,219;-0.14862060546875
4,22;-0.14862060546875
4,221;-0.1483154296875
4,222;-0.14862060546875
4,223;-0.14862060546875
4,224;-0.14923095703125
4,225;-0.14892578125
4,226;-0.14862060546875
4,227;-0.14923095703125
4,228;-0.1483154296875
4,229;-0.14892578125
4,23;-0.14923095703125
4,231;-0.1483154296875
4,232;-0.14892578125
4,233;-0.14892578125
4,234;-0.14862060546875
4,235;-0.14892578125
4,236;-0.1483154296875
4,237;-0.1483154296875
4,238;-0.14892578125
4,239;-0.14923095703125
4,24;-0.1483154296875
4,241;-0.1483154296875
4,242;-0.14862060546875
4,243;-0.14923095703125
4,244;-0.14892578125
4,245;-0.14892578125
4,246;-0.14923095703125
4,247;-0.14862060546875
4,248;-0.14862060546875
4,249;-0.14862060546875
4,25;-0.14892578125
4,251;-0.14923095703125
4,252;-0.14892578125
4,253;-0.14892578125
4,254;-0.14892578125
4,255;-0.14862060546875
4,256;-0.14892578125
4,257;-0.14862060546875
4,258;-0.14892578125
4,259;-0.14862060546875
4,26;-0.14862060546875
4,261;-0.1483154296875
4,262;-0.14862060546875
4,263;-0.14892578125
4,264;-0.14892578125
4,265;-0.14923095703125
4,266;-0.14801025390625
4,267;-0.14892578125
4,268;-0.14862060546875
4,269;-0.14892578125
4,27;-0.14862060546875
4,271;-0.14862060546875
4,272;-0.14862060546875
4,273;-0.14892578125
4,274;-0.14862060546875
4,275;-0.14862060546875
4,276;-0.14862060546875
4,277;-0.1483154296875
4,278;-0.14892578125
4,279;-0.14923095703125
4,28;-0.14923095703125
4,281;-0.14892578125
4,282;-0.14862060546875
4,283;-0.1483154296875
4,284;-0.14892578125
4,285;-0.14892578125
4,286;-0.14862060546875
4,287;-0.14862060546875
4,288;-0.14923095703125
4,289;-0.14862060546875
4,29;-0.14862060546875
4,291;-0.1483154296875
4,292;-0.14923095703125
4,293;-0.14862060546875
4,294;-0.14862060546875
4,295;-0.14923095703125
4,296;-0.14801025390625
4,297;-0.14862060546875
4,298;-0.14862060546875
4,299;-0.14892578125
4,3;-0.14892578125
4,301;-0.14892578125
4,302;-0.14862060546875
4,303;-0.14892578125
4,304;-0.14923095703125
4,305;-0.14892578125
4,306;-0.1483154296875
4,307;-0.14923095703125
4,308;-0.14892578125
4,309;-0.14892578125
4,31;-0.1483154296875
4,311;-0.14862060546875
4,312;-0.14892578125
4,313;-0.14892578125
4,314;-0.14862060546875
4,315;-0.14862060546875
4,316;-0.14923095703125
4,317;-0.14862060546875
4,318;-0.14892578125
4,319;-0.14923095703125
4,32;-0.14923095703125
4,321;-0.14892578125
4,322;-0.14923095703125
4,323;-0.14862060546875
4,324;-0.14892578125
4,325;-0.14923095703125
4,326;-0.1483154296875
4,327;-0.14892578125
4,328;-0.14862060546875
4,329;-0.14892578125
4,33;-0.14892578125
4,331;-0.14892578125
4,332;-0.14862060546875
4,333;-0.14862060546875
4,334;-0.1483154296875
4,335;-0.14862060546875
4,336;-0.14892578125
