
;DT9804(00).A/D0.Channel 0;DT9804(00).A/D0.Channel 1;DT9804(00).A/D0.Channel 2;DT9804(00).A/D0.Channel 3;DT9804(00).A/D0.Channel 4;DT9804(00).A/D0.Channel 5;DT9804(00).A/D0.Channel 6;DT9804(00).A/D0.Channel 7;DT9804(00).A/D0.Channel 8;DT9804(00).A/D0.Channel 9;DT9804(00).A/D0.Channel 10;DT9804(00).A/D0.Channel 11;DT9804(00).A/D0.Channel 12;DT9804(00).A/D0.Channel 13;DT9804(00).A/D0.Channel 14;DT9804(00).A/D0.Channel 15
0;-1.30828857421875
0,001;-1.30889892578125
0,002;-1.30859375
0,003;-1.30859375
0,004;-1.30859375
0,005;-1.30828857421875
0,006;-1.30889892578125
0,007;-1.30828857421875
0,008;-1.30828857421875
0,009;-1.30889892578125
0,01;-1.30859375
0,011;-1.3092041015625
0,012;-1.3092041015625
0,013;-1.30889892578125
0,014;-1.30859375
0,015;-1.30859375
0,016;-1.30889892578125
0,017;-1.30859375
0,018;-1.30859375
0,019;-1.3092041015625
0,02;-1.30859375
0,021;-1.3092041015625
0,022;-1.30859375
0,023;-1.30889892578125
0,024;-1.30859375
0,025;-1.30889892578125
0,026;-1.30859375
0,027;-1.30859375
0,028;-1.30859375
0,029;-1.30828857421875
0,03;-1.30889892578125
0,031;-1.3092041015625
0,032;-1.30859375
0,033;-1.30889892578125
0,034;-1.30859375
0,035;-1.30859375
0,036;-1.30859375
0,037;-1.3079833984375
0,038;-1.30859375
0,039;-1.30828857421875
0,04;-1.30889892578125
0,041;-1.30859375
0,042;-1.30828857421875
0,043;-1.30859375
0,044;-1.30828857421875
0,045;-1.30828857421875
0,046;-1.30828857421875
0,047;-1.30950927734375
0,048;-1.30859375
0,049;-1.3079833984375
0,05;-1.30859375
0,051;-1.30859375
0,052;-1.30859375
0,053;-1.3092041015625
0,054;-1.3079833984375
0,055;-1.30889892578125
0,056;-1.30859375
0,057;-1.30950927734375
0,058;-1.3092041015625
0,059;-1.30859375
0,06;-1.30859375
0,061;-1.30889892578125
0,062;-1.30859375
0,063;-1.30889892578125
0,064;-1.30859375
0,065;-1.30859375
0,066;-1.30828857421875
0,067;-1.30889892578125
0,068;-1.30859375
0,069;-1.30889892578125
0,07;-1.30859375
0,071;-1.30828857421875
0,072;-1.30859375
0,073;-1.3079833984375
0,074;-1.30889892578125
0,075;-1.30889892578125
0,076;-1.30859375
0,077;-1.3092041015625
0,078;-1.30859375
0,079;-1.30889892578125
0,08;-1.30859375
0,081;-1.30859375
0,082;-1.3092041015625
0,083;-1.30828857421875
0,084;-1.30889892578125
0,085;-1.30859375
0,086;-1.30859375
0,087;-1.30859375
0,088;-1.30889892578125
0,089;-1.30950927734375
0,09;-1.3092041015625
0,091;-1.30859375
0,092;-1.30889892578125
0,093;-1.3092041015625
0,094;-1.30889892578125
0,095;-1.30859375
0,096;-1.30859375
0,097;-1.30828857421875
0,098;-1.30889892578125
0,099;-1.30889892578125
0,1;-1.30889892578125
0,101;-1.30889892578125
0,102;-1.30859375
0,103;-1.3092041015625
0,104;-1.30889892578125
0,105;-1.30828857421875
0,106;-1.30859375
0,107;-1.30859375
0,108;-1.30889892578125
0,109;-1.30889892578125
0,11;-1.30828857421875
0,111;-1.3092041015625
0,112;-1.30859375
0,113;-1.30828857421875
0,114;-1.30859375
0,115;-1.30859375
0,116;-1.30859375
0,117;-1.30828857421875
0,118;-1.3092041015625
0,119;-1.30859375
0,12;-1.30889892578125
0,121;-1.30950927734375
0,122;-1.3079833984375
0,123;-1.3092041015625
0,124;-1.30828857421875
0,125;-1.30950927734375
0,126;-1.30889892578125
0,127;-1.30859375
0,128;-1.30889892578125
0,129;-1.30859375
0,13;-1.30859375
0,131;-1.30828857421875
0,132;-1.30828857421875
0,133;-1.30889892578125
0,134;-1.30859375
0,135;-1.30889892578125
0,136;-1.3092041015625
0,137;-1.30828857421875
0,138;-1.30828857421875
0,139;-1.30859375
0,14;-1.3092041015625
0,141;-1.30859375
0,142;-1.30859375
0,143;-1.30859375
0,144;-1.3092041015625
0,145;-1.30889892578125
0,146;-1.30859375
0,147;-1.30859375
0,148;-1.30859375
0,149;-1.30889892578125
0,15;-1.30889892578125
0,151;-1.30859375
0,152;-1.30859375
0,153;-1.30859375
0,154;-1.30859375
0,155;-1.30859375
0,156;-1.30828857421875
0,157;-1.30859375
0,158;-1.3079833984375
0,159;-1.30828857421875
0,16;-1.30828857421875
0,161;-1.30828857421875
0,162;-1.30859375
0,163;-1.30859375
0,164;-1.30889892578125
0,165;-1.30859375
0,166;-1.30859375
0,167;-1.30859375
0,168;-1.30828857421875
0,169;-1.30828857421875
0,17;-1.3092041015625
0,171;-1.30828857421875
0,172;-1.30859375
0,173;-1.30859375
0,174;-1.30828857421875
0,175;-1.30859375
0,176;-1.30859375
0,177;-1.30859375
0,178;-1.3092041015625
0,179;-1.30889892578125
0,18;-1.30859375
0,181;-1.30828857421875
0,182;-1.30859375
0,183;-1.30828857421875
0,184;-1.30859375
0,185;-1.3092041015625
0,186;-1.30859375
0,187;-1.30828857421875
0,188;-1.3079833984375
0,189;-1.30859375
0,19;-1.30859375
0,191;-1.30828857421875
0,192;-1.30859375
0,193;-1.30859375
0,194;-1.30828857421875
0,195;-1.30859375
0,196;-1.30889892578125
0,197;-1.30859375
0,198;-1.30859375
0,199;-1.30828857421875
0,2;-1.30828857421875
0,201;-1.30828857421875
0,202;-1.30767822265625
0,203;-1.30828857421875
0,204;-1.30859375
0,205;-1.3092041015625
0,206;-1.30859375
0,207;-1.30889892578125
0,208;-1.30859375
0,209;-1.30828857421875
0,21;-1.3092041015625
0,211;-1.3092041015625
0,212;-1.30828857421875
0,213;-1.30889892578125
0,214;-1.30828857421875
0,215;-1.30859375
0,216;-1.30828857421875
0,217;-1.30889892578125
0,218;-1.3092041015625
0,219;-1.30859375
0,22;-1.30828857421875
0,221;-1.3092041015625
0,222;-1.30859375
0,223;-1.30859375
0,224;-1.30889892578125
0,225;-1.3092041015625
0,226;-1.3092041015625
0,227;-1.30859375
0,228;-1.30828857421875
0,229;-1.30889892578125
0,23;-1.30889892578125
0,231;-1.30889892578125
0,232;-1.30859375
0,233;-1.30889892578125
0,234;-1.30859375
0,235;-1.30828857421875
0,236;-1.30889892578125
0,237;-1.30859375
0,238;-1.30859375
0,239;-1.30828857421875
0,24;-1.30889892578125
0,241;-1.30950927734375
0,242;-1.3079833984375
0,243;-1.30859375
0,244;-1.30828857421875
0,245;-1.3092041015625
0,246;-1.30859375
0,247;-1.30889892578125
0,248;-1.30828857421875
0,249;-1.30859375
0,25;-1.30859375
0,251;-1.30889892578125
0,252;-1.30828857421875
0,253;-1.30828857421875
0,254;-1.30859375
0,255;-1.30828857421875
0,256;-1.30889892578125
0,257;-1.30859375
0,258;-1.30859375
0,259;-1.30859375
0,26;-1.30859375
0,261;-1.30889892578125
0,262;-1.30859375
0,263;-1.30859375
0,264;-1.30828857421875
0,265;-1.30859375
0,266;-1.30828857421875
0,267;-1.30859375
0,268;-1.30889892578125
0,269;-1.30828857421875
0,27;-1.30859375
0,271;-1.3092041015625
0,272;-1.30889892578125
0,273;-1.30859375
0,274;-1.30859375
0,275;-1.30889892578125
0,276;-1.30828857421875
0,277;-1.30889892578125
0,278;-1.30828857421875
0,279;-1.30828857421875
0,28;-1.30889892578125
0,281;-1.30889892578125
0,282;-1.30859375
0,283;-1.30859375
0,284;-1.3092041015625
0,285;-1.30889892578125
0,286;-1.30889892578125
0,287;-1.30828857421875
0,288;-1.3092041015625
0,289;-1.30828857421875
0,29;-1.30859375
0,291;-1.3092041015625
0,292;-1.30859375
0,293;-1.30889892578125
0,294;-1.30828857421875
0,295;-1.30889892578125
0,296;-1.30859375
0,297;-1.30889892578125
0,298;-1.30828857421875
0,299;-1.30889892578125
0,3;-1.30828857421875
0,301;-1.30889892578125
0,302;-1.3092041015625
0,303;-1.30889892578125
0,304;-1.30828857421875
0,305;-1.30859375
0,306;-1.30859375
0,307;-1.30828857421875
0,308;-1.30859375
0,309;-1.30828857421875
0,31;-1.30828857421875
0,311;-1.30889892578125
0,312;-1.30889892578125
0,313;-1.3092041015625
0,314;-1.30889892578125
0,315;-1.30859375
0,316;-1.30859375
0,317;-1.30859375
0,318;-1.30828857421875
0,319;-1.30859375
0,32;-1.30889892578125
0,321;-1.3092041015625
0,322;-1.30859375
0,323;-1.30889892578125
0,324;-1.30859375
0,325;-1.30828857421875
0,326;-1.30889892578125
0,327;-1.30828857421875
0,328;-1.30859375
0,329;-1.30828857421875
0,33;-1.30859375
0,331;-1.3092041015625
0,332;-1.30859375
0,333;-1.3092041015625
0,334;-1.30859375
0,335;-1.30828857421875
0,336;-1.30859375
0,337;-1.30828857421875
0,338;-1.30828857421875
0,339;-1.30828857421875
0,34;-1.3092041015625
0,341;-1.30828857421875
0,342;-1.3092041015625
0,343;-1.30889892578125
0,344;-1.30828857421875
0,345;-1.30859375
0,346;-1.30859375
0,347;-1.30889892578125
0,348;-1.3079833984375
0,349;-1.30889892578125
0,35;-1.30859375
0,351;-1.30828857421875
0,352;-1.30828857421875
0,353;-1.3092041015625
0,354;-1.30889892578125
0,355;-1.30859375
0,356;-1.30859375
0,357;-1.30859375
0,358;-1.30889892578125
0,359;-1.30859375
0,36;-1.3079833984375
0,361;-1.30828857421875
0,362;-1.30889892578125
0,363;-1.3092041015625
0,364;-1.30828857421875
0,365;-1.30859375
0,366;-1.30859375
0,367;-1.3079833984375
0,368;-1.30859375
0,369;-1.30859375
0,37;-1.3092041015625
0,371;-1.30828857421875
0,372;-1.30889892578125
0,373;-1.30859375
0,374;-1.30828857421875
0,375;-1.30889892578125
0,376;-1.30889892578125
0,377;-1.3092041015625
0,378;-1.30828857421875
0,379;-1.30859375
0,38;-1.30828857421875
0,381;-1.30859375
0,382;-1.30859375
0,383;-1.30828857421875
0,384;-1.30859375
0,385;-1.30859375
0,386;-1.3092041015625
0,387;-1.30889892578125
0,388;-1.30859375
0,389;-1.30828857421875
0,39;-1.3092041015625
0,391;-1.30859375
0,392;-1.30859375
0,393;-1.30889892578125
0,394;-1.3092041015625
0,395;-1.30859375
0,396;-1.30859375
0,397;-1.30859375
0,398;-1.30828857421875
0,399;-1.30859375
0,4;-1.3092041015625
0,401;-1.30859375
0,402;-1.30889892578125
0,403;-1.3092041015625
0,404;-1.30859375
0,405;-1.30828857421875
0,406;-1.3092041015625
0,407;-1.30859375
0,408;-1.30889892578125
0,409;-1.30828857421875
0,41;-1.30859375
0,411;-1.30859375
0,412;-1.30859375
0,413;-1.30859375
0,414;-1.30889892578125
0,415;-1.3092041015625
0,416;-1.30859375
0,417;-1.30889892578125
0,418;-1.3092041015625
0,419;-1.30950927734375
0,42;-1.30889892578125
0,421;-1.30828857421875
0,422;-1.30859375
0,423;-1.3092041015625
0,424;-1.30859375
0,425;-1.30859375
0,426;-1.30889892578125
0,427;-1.30889892578125
0,428;-1.30828857421875
0,429;-1.30889892578125
0,43;-1.30828857421875
0,431;-1.30828857421875
0,432;-1.3079833984375
0,433;-1.30889892578125
0,434;-1.30889892578125
0,435;-1.30859375
0,436;-1.30889892578125
0,437;-1.30859375
0,438;-1.3092041015625
0,439;-1.30889892578125
0,44;-1.30828857421875
0,441;-1.30859375
0,442;-1.30859375
0,443;-1.30859375
0,444;-1.30889892578125
0,445;-1.30859375
0,446;-1.30859375
0,447;-1.3092041015625
0,448;-1.30859375
0,449;-1.30828857421875
0,45;-1.30828857421875
0,451;-1.30859375
0,452;-1.30889892578125
0,453;-1.30859375
0,454;-1.30828857421875
0,455;-1.30859375
0,456;-1.30859375
0,457;-1.30859375
0,458;-1.30859375
0,459;-1.30889892578125
0,46;-1.30859375
0,461;-1.30859375
0,462;-1.30859375
0,463;-1.30889892578125
0,464;-1.30859375
0,465;-1.30859375
0,466;-1.30859375
0,467;-1.30859375
0,468;-1.30950927734375
0,469;-1.30859375
0,47;-1.3079833984375
0,471;-1.30859375
0,472;-1.3092041015625
0,473;-1.3092041015625
0,474;-1.30859375
0,475;-1.30859375
0,476;-1.30828857421875
0,477;-1.30859375
0,478;-1.30889892578125
0,479;-1.30859375
0,48;-1.30859375
0,481;-1.3079833984375
0,482;-1.3092041015625
0,483;-1.30859375
0,484;-1.30859375
0,485;-1.30859375
0,486;-1.30828857421875
0,487;-1.30889892578125
0,488;-1.30828857421875
0,489;-1.30889892578125
0,49;-1.30859375
0,491;-1.30859375
0,492;-1.3092041015625
0,493;-1.3092041015625
0,494;-1.30859375
0,495;-1.30859375
0,496;-1.30889892578125
0,497;-1.30889892578125
0,498;-1.30889892578125
0,499;-1.30889892578125
0,5;-1.30859375
0,501;-1.30889892578125
0,502;-1.3092041015625
0,503;-1.30859375
0,504;-1.3092041015625
0,505;-1.30859375
0,506;-1.30889892578125
0,507;-1.30889892578125
0,508;-1.30889892578125
0,509;-1.30889892578125
0,51;-1.30889892578125
0,511;-1.30859375
0,512;-1.30859375
0,513;-1.30828857421875
0,514;-1.30889892578125
0,515;-1.30859375
0,516;-1.30859375
0,517;-1.3092041015625
0,518;-1.30889892578125
0,519;-1.30859375
0,52;-1.30859375
0,521;-1.30859375
0,522;-1.30859375
0,523;-1.30859375
0,524;-1.30889892578125
0,525;-1.30859375
0,526;-1.30889892578125
0,527;-1.30889892578125
0,528;-1.30889892578125
0,529;-1.30859375
0,53;-1.30889892578125
0,531;-1.30828857421875
0,532;-1.30859375
0,533;-1.30828857421875
0,534;-1.30828857421875
0,535;-1.30889892578125
0,536;-1.30950927734375
0,537;-1.30859375
0,538;-1.30859375
0,539;-1.30859375
0,54;-1.3092041015625
0,541;-1.30828857421875
0,542;-1.30828857421875
0,543;-1.30889892578125
0,544;-1.30889892578125
0,545;-1.30859375
0,546;-1.30859375
0,547;-1.30859375
0,548;-1.30859375
0,549;-1.30889892578125
0,55;-1.30859375
0,551;-1.30889892578125
0,552;-1.30889892578125
0,553;-1.30828857421875
0,554;-1.30828857421875
0,555;-1.3092041015625
0,556;-1.30828857421875
0,557;-1.30859375
0,558;-1.30859375
0,559;-1.30859375
0,56;-1.30828857421875
0,561;-1.3092041015625
0,562;-1.30828857421875
0,563;-1.30828857421875
0,564;-1.30828857421875
0,565;-1.30859375
0,566;-1.30859375
0,567;-1.30859375
0,568;-1.30828857421875
0,569;-1.3079833984375
0,57;-1.30889892578125
0,571;-1.30889892578125
0,572;-1.30859375
0,573;-1.30828857421875
0,574;-1.30889892578125
0,575;-1.30889892578125
0,576;-1.30859375
0,577;-1.30859375
0,578;-1.30889892578125
0,579;-1.30828857421875
0,58;-1.30889892578125
0,581;-1.30859375
0,582;-1.30859375
0,583;-1.30859375
0,584;-1.30889892578125
0,585;-1.30828857421875
0,586;-1.3092041015625
0,587;-1.30889892578125
0,588;-1.30828857421875
0,589;-1.30859375
0,59;-1.30859375
0,591;-1.30859375
0,592;-1.3079833984375
0,593;-1.30859375
0,594;-1.30859375
0,595;-1.30859375
0,596;-1.30828857421875
0,597;-1.30859375
0,598;-1.30828857421875
0,599;-1.30859375
0,6;-1.30889892578125
0,601;-1.30889892578125
0,602;-1.30859375
0,603;-1.3092041015625
0,604;-1.3079833984375
0,605;-1.30859375
0,606;-1.30859375
0,607;-1.3092041015625
0,608;-1.30828857421875
0,609;-1.30859375
0,61;-1.3092041015625
0,611;-1.3092041015625
0,612;-1.30889892578125
0,613;-1.30859375
0,614;-1.30889892578125
0,615;-1.30859375
0,616;-1.30828857421875
0,617;-1.30859375
0,618;-1.30859375
0,619;-1.3079833984375
0,62;-1.30859375
0,621;-1.30889892578125
0,622;-1.30859375
0,623;-1.30859375
0,624;-1.30889892578125
0,625;-1.30889892578125
0,626;-1.30828857421875
0,627;-1.30859375
0,628;-1.30859375
0,629;-1.3079833984375
0,63;-1.30859375
0,631;-1.3079833984375
0,632;-1.30859375
0,633;-1.30859375
0,634;-1.30859375
0,635;-1.30859375
0,636;-1.30828857421875
0,637;-1.30889892578125
0,638;-1.30859375
0,639;-1.30828857421875
0,64;-1.30859375
0,641;-1.30889892578125
0,642;-1.30859375
0,643;-1.30828857421875
0,644;-1.3079833984375
0,645;-1.30889892578125
0,646;-1.30889892578125
0,647;-1.30859375
0,648;-1.30859375
0,649;-1.30828857421875
0,65;-1.30828857421875
0,651;-1.30859375
0,652;-1.30828857421875
0,653;-1.30859375
0,654;-1.30859375
0,655;-1.30828857421875
0,656;-1.3079833984375
0,657;-1.30889892578125
0,658;-1.30889892578125
0,659;-1.30828857421875
0,66;-1.30859375
0,661;-1.30828857421875
0,662;-1.30828857421875
0,663;-1.30859375
0,664;-1.30859375
0,665;-1.30859375
0,666;-1.30828857421875
0,667;-1.30859375
0,668;-1.30828857421875
0,669;-1.30828857421875
0,67;-1.30859375
0,671;-1.30859375
0,672;-1.30859375
0,673;-1.30859375
0,674;-1.30889892578125
0,675;-1.30859375
0,676;-1.30889892578125
0,677;-1.3079833984375
0,678;-1.30859375
0,679;-1.3079833984375
0,68;-1.30859375
0,681;-1.3092041015625
0,682;-1.30828857421875
0,683;-1.30859375
0,684;-1.30889892578125
0,685;-1.30828857421875
0,686;-1.30828857421875
0,687;-1.30828857421875
0,688;-1.3092041015625
0,689;-1.30859375
0,69;-1.30889892578125
0,691;-1.3092041015625
0,692;-1.30889892578125
0,693;-1.30859375
0,694;-1.30859375
0,695;-1.30828857421875
0,696;-1.30859375
0,697;-1.3079833984375
0,698;-1.3092041015625
0,699;-1.30889892578125
0,7;-1.30828857421875
0,701;-1.30889892578125
0,702;-1.30889892578125
0,703;-1.30889892578125
0,704;-1.30859375
0,705;-1.3079833984375
0,706;-1.30859375
0,707;-1.30828857421875
0,708;-1.30859375
0,709;-1.30828857421875
0,71;-1.30950927734375
0,711;-1.30889892578125
0,712;-1.30859375
0,713;-1.30859375
0,714;-1.30889892578125
0,715;-1.30859375
0,716;-1.30889892578125
0,717;-1.30889892578125
0,718;-1.30859375
0,719;-1.30859375
0,72;-1.30889892578125
0,721;-1.30859375
0,722;-1.30859375
0,723;-1.30828857421875
0,724;-1.30859375
0,725;-1.30859375
0,726;-1.30889892578125
0,727;-1.3092041015625
0,728;-1.30828857421875
0,729;-1.30859375
0,73;-1.30889892578125
0,731;-1.30859375
0,732;-1.30859375
0,733;-1.30859375
0,734;-1.30828857421875
0,735;-1.3079833984375
0,736;-1.30859375
0,737;-1.30889892578125
0,738;-1.30859375
0,739;-1.30859375
0,74;-1.30828857421875
0,741;-1.30859375
0,742;-1.30859375
0,743;-1.30859375
0,744;-1.30828857421875
0,745;-1.30859375
0,746;-1.30828857421875
0,747;-1.30889892578125
0,748;-1.3079833984375
0,749;-1.30859375
0,75;-1.30889892578125
0,751;-1.30828857421875
0,752;-1.3079833984375
0,753;-1.30828857421875
0,754;-1.30889892578125
0,755;-1.30889892578125
0,756;-1.30889892578125
0,757;-1.30828857421875
0,758;-1.30828857421875
0,759;-1.30859375
0,76;-1.30889892578125
0,761;-1.30828857421875
0,762;-1.3079833984375
0,763;-1.30859375
0,764;-1.3079833984375
0,765;-1.30859375
0,766;-1.30828857421875
0,767;-1.30859375
0,768;-1.30889892578125
0,769;-1.30859375
0,77;-1.30859375
0,771;-1.30889892578125
0,772;-1.30828857421875
0,773;-1.3092041015625
0,774;-1.30859375
0,775;-1.30889892578125
0,776;-1.30859375
0,777;-1.30828857421875
0,778;-1.3079833984375
0,779;-1.30859375
0,78;-1.3079833984375
0,781;-1.30828857421875
0,782;-1.30859375
0,783;-1.30828857421875
0,784;-1.30828857421875
0,785;-1.30889892578125
0,786;-1.30828857421875
0,787;-1.3092041015625
0,788;-1.30828857421875
0,789;-1.30859375
0,79;-1.30859375
0,791;-1.30859375
0,792;-1.30828857421875
0,793;-1.30859375
0,794;-1.30889892578125
0,795;-1.30859375
0,796;-1.30859375
0,797;-1.30859375
0,798;-1.30889892578125
0,799;-1.30859375
0,8;-1.30889892578125
0,801;-1.30828857421875
0,802;-1.30859375
0,803;-1.3079833984375
0,804;-1.30828857421875
0,805;-1.30889892578125
0,806;-1.30889892578125
0,807;-1.30859375
0,808;-1.30859375
0,809;-1.30859375
0,81;-1.30889892578125
0,811;-1.30859375
0,812;-1.30859375
0,813;-1.30828857421875
0,814;-1.3079833984375
0,815;-1.30859375
0,816;-1.30859375
0,817;-1.30859375
0,818;-1.30859375
0,819;-1.30859375
0,82;-1.30859375
0,821;-1.30889892578125
0,822;-1.30828857421875
0,823;-1.30828857421875
0,824;-1.3092041015625
0,825;-1.30828857421875
0,826;-1.30889892578125
0,827;-1.30889892578125
0,828;-1.30859375
0,829;-1.30828857421875
0,83;-1.3079833984375
0,831;-1.30889892578125
0,832;-1.30859375
0,833;-1.30889892578125
0,834;-1.30889892578125
0,835;-1.30859375
0,836;-1.30828857421875
0,837;-1.3092041015625
0,838;-1.30859375
0,839;-1.30889892578125
0,84;-1.30859375
0,841;-1.30889892578125
0,842;-1.3079833984375
0,843;-1.30859375
0,844;-1.30950927734375
0,845;-1.30828857421875
0,846;-1.30828857421875
0,847;-1.30889892578125
0,848;-1.30859375
0,849;-1.3079833984375
0,85;-1.30828857421875
0,851;-1.3079833984375
0,852;-1.30859375
0,853;-1.30859375
0,854;-1.30889892578125
0,855;-1.3092041015625
0,856;-1.30889892578125
0,857;-1.30859375
0,858;-1.3092041015625
0,859;-1.30859375
0,86;-1.30889892578125
0,861;-1.3079833984375
0,862;-1.30859375
0,863;-1.30859375
0,864;-1.30859375
0,865;-1.30859375
0,866;-1.30828857421875
0,867;-1.30859375
0,868;-1.30859375
0,869;-1.30889892578125
0,87;-1.30859375
0,871;-1.30889892578125
0,872;-1.30859375
0,873;-1.30859375
0,874;-1.3092041015625
0,875;-1.30859375
0,876;-1.30889892578125
0,877;-1.3079833984375
0,878;-1.30828857421875
0,879;-1.30828857421875
0,88;-1.30859375
0,881;-1.30889892578125
0,882;-1.3079833984375
0,883;-1.30859375
0,884;-1.30828857421875
0,885;-1.30828857421875
0,886;-1.30859375
0,887;-1.30889892578125
0,888;-1.30859375
0,889;-1.30859375
0,89;-1.30828857421875
0,891;-1.30859375
0,892;-1.30859375
0,893;-1.3079833984375
0,894;-1.30828857421875
0,895;-1.30828857421875
0,896;-1.30859375
0,897;-1.30889892578125
0,898;-1.30859375
0,899;-1.30859375
0,9;-1.30859375
0,901;-1.30889892578125
0,902;-1.30828857421875
0,903;-1.30889892578125
0,904;-1.30828857421875
0,905;-1.30828857421875
0,906;-1.30828857421875
0,907;-1.3079833984375
0,908;-1.30828857421875
0,909;-1.30828857421875
0,91;-1.3079833984375
0,911;-1.3092041015625
0,912;-1.30859375
0,913;-1.30828857421875
0,914;-1.30859375
0,915;-1.30859375
0,916;-1.30859375
0,917;-1.30859375
0,918;-1.30828857421875
0,919;-1.30828857421875
0,92;-1.30859375
0,921;-1.30889892578125
0,922;-1.30828857421875
0,923;-1.3079833984375
0,924;-1.30828857421875
0,925;-1.30828857421875
0,926;-1.30828857421875
0,927;-1.30828857421875
0,928;-1.30859375
0,929;-1.30828857421875
0,93;-1.30859375
0,931;-1.30859375
0,932;-1.3079833984375
0,933;-1.30859375
0,934;-1.30889892578125
0,935;-1.30889892578125
0,936;-1.30828857421875
0,937;-1.30828857421875
0,938;-1.30859375
0,939;-1.30828857421875
0,94;-1.30859375
0,941;-1.30859375
0,942;-1.3092041015625
0,943;-1.30859375
0,944;-1.30859375
0,945;-1.30828857421875
0,946;-1.30859375
0,947;-1.3092041015625
0,948;-1.30889892578125
0,949;-1.30828857421875
0,95;-1.3079833984375
0,951;-1.30828857421875
0,952;-1.30828857421875
0,953;-1.30859375
0,954;-1.30859375
0,955;-1.30889892578125
0,956;-1.30859375
0,957;-1.30859375
0,958;-1.3079833984375
0,959;-1.30859375
0,96;-1.30859375
0,961;-1.30889892578125
0,962;-1.30889892578125
0,963;-1.30859375
0,964;-1.30828857421875
0,965;-1.30859375
0,966;-1.3092041015625
0,967;-1.30859375
0,968;-1.30889892578125
0,969;-1.30859375
0,97;-1.30859375
0,971;-1.30828857421875
0,972;-1.30889892578125
0,973;-1.30859375
0,974;-1.30828857421875
0,975;-1.30828857421875
0,976;-1.30828857421875
0,977;-1.30859375
0,978;-1.30859375
0,979;-1.30859375
0,98;-1.30859375
0,981;-1.30859375
0,982;-1.30828857421875
0,983;-1.30828857421875
0,984;-1.30889892578125
0,985;-1.30859375
0,986;-1.30889892578125
0,987;-1.30889892578125
0,988;-1.3079833984375
0,989;-1.30859375
0,99;-1.3092041015625
0,991;-1.30889892578125
0,992;-1.3079833984375
0,993;-1.30889892578125
0,994;-1.30859375
0,995;-1.30859375
0,996;-1.30828857421875
0,997;-1.30859375
0,998;-1.30828857421875
0,999;-1.30828857421875
1;-1.30828857421875
1,001;-1.3079833984375
1,002;-1.30828857421875
1,003;-1.30828857421875
1,004;-1.30859375
1,005;-1.30828857421875
1,006;-1.30859375
1,007;-1.30859375
1,008;-1.30828857421875
1,009;-1.30828857421875
1,01;-1.30889892578125
1,011;-1.30828857421875
1,012;-1.30889892578125
1,013;-1.30859375
1,014;-1.30889892578125
1,015;-1.30889892578125
1,016;-1.30889892578125
1,017;-1.30859375
1,018;-1.30889892578125
1,019;-1.30889892578125
1,02;-1.30859375
1,021;-1.30828857421875
1,022;-1.30828857421875
1,023;-1.3092041015625
1,024;-1.3092041015625
1,025;-1.30889892578125
1,026;-1.30828857421875
1,027;-1.30859375
1,028;-1.30859375
1,029;-1.30859375
1,03;-1.30859375
1,031;-1.30828857421875
1,032;-1.30859375
1,033;-1.30859375
1,034;-1.30828857421875
1,035;-1.30889892578125
1,036;-1.30828857421875
1,037;-1.30859375
1,038;-1.30859375
1,039;-1.30828857421875
1,04;-1.30889892578125
1,041;-1.30859375
1,042;-1.30889892578125
1,043;-1.30889892578125
1,044;-1.30950927734375
1,045;-1.30859375
1,046;-1.30859375
1,047;-1.30859375
1,048;-1.30889892578125
1,049;-1.3092041015625
1,05;-1.30889892578125
1,051;-1.30859375
1,052;-1.30859375
1,053;-1.30828857421875
1,054;-1.30889892578125
1,055;-1.30889892578125
1,056;-1.3092041015625
1,057;-1.30828857421875
1,058;-1.30859375
1,059;-1.30859375
1,06;-1.30859375
1,061;-1.30859375
1,062;-1.30859375
1,063;-1.30859375
1,064;-1.30859375
1,065;-1.30828857421875
1,066;-1.3092041015625
1,067;-1.30828857421875
1,068;-1.30828857421875
1,069;-1.30859375
1,07;-1.30889892578125
1,071;-1.3079833984375
1,072;-1.30889892578125
1,073;-1.30767822265625
1,074;-1.30859375
1,075;-1.30859375
1,076;-1.30889892578125
1,077;-1.3092041015625
1,078;-1.30859375
1,079;-1.30859375
1,08;-1.30828857421875
1,081;-1.30828857421875
1,082;-1.30950927734375
1,083;-1.30889892578125
1,084;-1.3092041015625
1,085;-1.30859375
1,086;-1.30859375
1,087;-1.30859375
1,088;-1.30859375
1,089;-1.30859375
1,09;-1.30828857421875
1,091;-1.30828857421875
1,092;-1.30859375
1,093;-1.3079833984375
1,094;-1.3079833984375
1,095;-1.30828857421875
1,096;-1.30889892578125
1,097;-1.30859375
1,098;-1.3092041015625
1,099;-1.30859375
1,1;-1.30859375
1,101;-1.30859375
1,102;-1.30889892578125
1,103;-1.30859375
1,104;-1.30828857421875
1,105;-1.30859375
1,106;-1.30828857421875
1,107;-1.30828857421875
1,108;-1.3092041015625
1,109;-1.30828857421875
1,11;-1.30828857421875
1,111;-1.30859375
1,112;-1.30828857421875
1,113;-1.3079833984375
1,114;-1.30859375
1,115;-1.30828857421875
1,116;-1.30828857421875
1,117;-1.30859375
1,118;-1.30889892578125
1,119;-1.3092041015625
1,12;-1.30828857421875
1,121;-1.30889892578125
1,122;-1.30859375
1,123;-1.30859375
1,124;-1.30889892578125
1,125;-1.30828857421875
1,126;-1.30828857421875
1,127;-1.30859375
1,128;-1.3092041015625
1,129;-1.30859375
1,13;-1.30889892578125
1,131;-1.30859375
1,132;-1.30828857421875
1,133;-1.30828857421875
1,134;-1.30859375
1,135;-1.30889892578125
1,136;-1.30828857421875
1,137;-1.30828857421875
1,138;-1.30859375
1,139;-1.30828857421875
1,14;-1.3079833984375
1,141;-1.30859375
1,142;-1.30889892578125
1,143;-1.30859375
1,144;-1.3079833984375
1,145;-1.30859375
1,146;-1.30859375
1,147;-1.30889892578125
1,148;-1.30889892578125
1,149;-1.30828857421875
1,15;-1.30859375
1,151;-1.30859375
1,152;-1.30859375
1,153;-1.30859375
1,154;-1.30828857421875
1,155;-1.30828857421875
1,156;-1.30828857421875
1,157;-1.30859375
1,158;-1.30889892578125
1,159;-1.30889892578125
1,16;-1.30889892578125
1,161;-1.30859375
1,162;-1.30828857421875
1,163;-1.30859375
1,164;-1.30889892578125
1,165;-1.30828857421875
1,166;-1.30828857421875
1,167;-1.30828857421875
1,168;-1.30889892578125
1,169;-1.3092041015625
1,17;-1.30859375
1,171;-1.30859375
1,172;-1.30859375
1,173;-1.30889892578125
1,174;-1.30859375
1,175;-1.30859375
1,176;-1.3092041015625
1,177;-1.30889892578125
1,178;-1.30859375
1,179;-1.30889892578125
1,18;-1.30859375
1,181;-1.30859375
1,182;-1.3092041015625
1,183;-1.30859375
1,184;-1.30828857421875
1,185;-1.30859375
1,186;-1.30828857421875
1,187;-1.3079833984375
1,188;-1.30828857421875
1,189;-1.30859375
1,19;-1.30859375
1,191;-1.30889892578125
1,192;-1.30859375
1,193;-1.3092041015625
1,194;-1.30828857421875
1,195;-1.30828857421875
1,196;-1.30828857421875
1,197;-1.30859375
1,198;-1.30889892578125
1,199;-1.30859375
1,2;-1.30828857421875
1,201;-1.30828857421875
1,202;-1.3092041015625
1,203;-1.30859375
1,204;-1.30889892578125
1,205;-1.30828857421875
1,206;-1.30828857421875
1,207;-1.30889892578125
1,208;-1.30859375
1,209;-1.30859375
1,21;-1.30889892578125
1,211;-1.30859375
1,212;-1.3092041015625
1,213;-1.30828857421875
1,214;-1.30889892578125
1,215;-1.30828857421875
1,216;-1.30828857421875
1,217;-1.30859375
1,218;-1.30859375
1,219;-1.30859375
1,22;-1.30828857421875
1,221;-1.30859375
1,222;-1.30828857421875
1,223;-1.30828857421875
1,224;-1.30889892578125
1,225;-1.30889892578125
1,226;-1.3092041015625
1,227;-1.30859375
1,228;-1.30889892578125
1,229;-1.3079833984375
1,23;-1.30859375
1,231;-1.30828857421875
1,232;-1.3079833984375
1,233;-1.30859375
1,234;-1.30889892578125
1,235;-1.30859375
1,236;-1.3079833984375
1,237;-1.30889892578125
1,238;-1.3092041015625
1,239;-1.30859375
1,24;-1.30859375
1,241;-1.30859375
1,242;-1.3079833984375
1,243;-1.30889892578125
1,244;-1.30828857421875
1,245;-1.30859375
1,246;-1.30889892578125
1,247;-1.3092041015625
1,248;-1.30859375
1,249;-1.30859375
1,25;-1.30859375
1,251;-1.30859375
1,252;-1.30859375
1,253;-1.30859375
1,254;-1.30828857421875
1,255;-1.30859375
1,256;-1.30828857421875
1,257;-1.3092041015625
1,258;-1.30889892578125
1,259;-1.30859375
1,26;-1.30859375
1,261;-1.30889892578125
1,262;-1.30859375
1,263;-1.30859375
1,264;-1.30828857421875
1,265;-1.30859375
1,266;-1.30859375
1,267;-1.30828857421875
1,268;-1.30889892578125
1,269;-1.30859375
1,27;-1.30859375
1,271;-1.3092041015625
1,272;-1.30859375
1,273;-1.30859375
1,274;-1.30950927734375
1,275;-1.30859375
1,276;-1.30889892578125
1,277;-1.30859375
1,278;-1.30828857421875
1,279;-1.30859375
1,28;-1.30859375
1,281;-1.3079833984375
1,282;-1.30859375
1,283;-1.30859375
1,284;-1.30828857421875
1,285;-1.30889892578125
1,286;-1.30859375
1,287;-1.30889892578125
1,288;-1.30859375
1,289;-1.30859375
1,29;-1.30859375
1,291;-1.30859375
1,292;-1.30828857421875
1,293;-1.3092041015625
1,294;-1.30828857421875
1,295;-1.30828857421875
1,296;-1.30859375
1,297;-1.30859375
1,298;-1.3092041015625
1,299;-1.30828857421875
1,3;-1.3092041015625
1,301;-1.3092041015625
1,302;-1.30859375
1,303;-1.30889892578125
1,304;-1.30859375
1,305;-1.30859375
1,306;-1.30889892578125
1,307;-1.30828857421875
1,308;-1.30859375
1,309;-1.30889892578125
1,31;-1.3092041015625
1,311;-1.30859375
1,312;-1.30859375
1,313;-1.3079833984375
1,314;-1.30828857421875
1,315;-1.30889892578125
1,316;-1.30889892578125
1,317;-1.3079833984375
1,318;-1.30889892578125
1,319;-1.30828857421875
1,32;-1.30859375
1,321;-1.30889892578125
1,322;-1.30828857421875
1,323;-1.30859375
1,324;-1.30828857421875
1,325;-1.30828857421875
1,326;-1.30859375
1,327;-1.30859375
1,328;-1.30859375
1,329;-1.30859375
1,33;-1.3079833984375
1,331;-1.3092041015625
1,332;-1.30889892578125
1,333;-1.30859375
1,334;-1.30859375
1,335;-1.30828857421875
1,336;-1.30859375
1,337;-1.30828857421875
1,338;-1.30828857421875
1,339;-1.30859375
1,34;-1.3079833984375
1,341;-1.30859375
1,342;-1.30859375
1,343;-1.30859375
1,344;-1.30859375
1,345;-1.30859375
1,346;-1.30859375
1,347;-1.30889892578125
1,348;-1.30859375
1,349;-1.30889892578125
1,35;-1.30889892578125
1,351;-1.30889892578125
1,352;-1.30889892578125
1,353;-1.30828857421875
1,354;-1.30828857421875
1,355;-1.30889892578125
1,356;-1.30859375
1,357;-1.30859375
1,358;-1.30859375
1,359;-1.30828857421875
1,36;-1.30859375
1,361;-1.30828857421875
1,362;-1.30828857421875
1,363;-1.30889892578125
1,364;-1.30859375
1,365;-1.3079833984375
1,366;-1.30828857421875
1,367;-1.3092041015625
1,368;-1.3079833984375
1,369;-1.30828857421875
1,37;-1.30889892578125
1,371;-1.30889892578125
1,372;-1.30859375
1,373;-1.30859375
1,374;-1.30889892578125
1,375;-1.30889892578125
1,376;-1.30859375
1,377;-1.30828857421875
1,378;-1.30950927734375
1,379;-1.30859375
1,38;-1.30828857421875
1,381;-1.30889892578125
1,382;-1.30828857421875
1,383;-1.30859375
1,384;-1.30889892578125
1,385;-1.30828857421875
1,386;-1.30859375
1,387;-1.30828857421875
1,388;-1.30828857421875
1,389;-1.30828857421875
1,39;-1.30859375
1,391;-1.30859375
1,392;-1.30828857421875
1,393;-1.3079833984375
1,394;-1.30859375
1,395;-1.30889892578125
1,396;-1.30859375
1,397;-1.30828857421875
1,398;-1.3092041015625
1,399;-1.3092041015625
1,4;-1.3079833984375
1,401;-1.30859375
1,402;-1.30828857421875
1,403;-1.30828857421875
1,404;-1.3092041015625
1,405;-1.30828857421875
1,406;-1.30889892578125
1,407;-1.30859375
1,408;-1.30859375
1,409;-1.30828857421875
1,41;-1.30828857421875
1,411;-1.30859375
1,412;-1.30828857421875
1,413;-1.30889892578125
1,414;-1.30828857421875
1,415;-1.30889892578125
1,416;-1.30859375
1,417;-1.30859375
1,418;-1.30859375
1,419;-1.30828857421875
1,42;-1.30859375
1,421;-1.30889892578125
1,422;-1.30859375
1,423;-1.30859375
1,424;-1.30889892578125
1,425;-1.30859375
1,426;-1.30859375
1,427;-1.30889892578125
1,428;-1.30859375
1,429;-1.30828857421875
1,43;-1.3079833984375
1,431;-1.30859375
1,432;-1.30859375
1,433;-1.3092041015625
1,434;-1.30859375
1,435;-1.30889892578125
1,436;-1.3092041015625
1,437;-1.30859375
1,438;-1.30889892578125
1,439;-1.30889892578125
1,44;-1.30859375
1,441;-1.30859375
1,442;-1.30889892578125
1,443;-1.30828857421875
1,444;-1.30828857421875
1,445;-1.3079833984375
1,446;-1.3079833984375
1,447;-1.30859375
1,448;-1.30859375
1,449;-1.30828857421875
1,45;-1.30889892578125
1,451;-1.30859375
1,452;-1.3092041015625
1,453;-1.30828857421875
1,454;-1.30859375
1,455;-1.3079833984375
1,456;-1.30859375
1,457;-1.30889892578125
1,458;-1.30889892578125
1,459;-1.30828857421875
1,46;-1.30859375
1,461;-1.30828857421875
1,462;-1.30859375
1,463;-1.30859375
1,464;-1.30859375
1,465;-1.30859375
1,466;-1.3079833984375
1,467;-1.30828857421875
1,468;-1.30828857421875
1,469;-1.30859375
1,47;-1.30889892578125
1,471;-1.30859375
1,472;-1.30828857421875
1,473;-1.30889892578125
1,474;-1.30828857421875
1,475;-1.30859375
1,476;-1.3079833984375
1,477;-1.3092041015625
1,478;-1.30859375
1,479;-1.30828857421875
1,48;-1.30859375
1,481;-1.30859375
1,482;-1.30828857421875
1,483;-1.30828857421875
1,484;-1.30828857421875
1,485;-1.3079833984375
1,486;-1.3079833984375
1,487;-1.30828857421875
1,488;-1.30828857421875
1,489;-1.30828857421875
1,49;-1.30828857421875
1,491;-1.30828857421875
1,492;-1.30828857421875
1,493;-1.30859375
1,494;-1.3079833984375
1,495;-1.30859375
1,496;-1.30859375
1,497;-1.3079833984375
1,498;-1.30828857421875
1,499;-1.30828857421875
1,5;-1.30889892578125
1,501;-1.30859375
1,502;-1.30889892578125
1,503;-1.30859375
1,504;-1.30828857421875
1,505;-1.30828857421875
1,506;-1.30859375
1,507;-1.30889892578125
1,508;-1.30889892578125
1,509;-1.30859375
1,51;-1.30828857421875
1,511;-1.30859375
1,512;-1.30859375
1,513;-1.3079833984375
1,514;-1.30859375
1,515;-1.3079833984375
1,516;-1.30859375
1,517;-1.30859375
1,518;-1.30859375
1,519;-1.3079833984375
1,52;-1.30859375
1,521;-1.30828857421875
1,522;-1.30828857421875
1,523;-1.30859375
1,524;-1.30859375
1,525;-1.3079833984375
1,526;-1.30828857421875
1,527;-1.30828857421875
1,528;-1.30950927734375
1,529;-1.30859375
1,53;-1.30859375
1,531;-1.3079833984375
1,532;-1.30859375
1,533;-1.30859375
1,534;-1.30889892578125
1,535;-1.30828857421875
1,536;-1.30859375
1,537;-1.30859375
1,538;-1.30828857421875
1,539;-1.3079833984375
1,54;-1.30767822265625
1,541;-1.30889892578125
1,542;-1.30859375
1,543;-1.30859375
1,544;-1.30828857421875
1,545;-1.30859375
1,546;-1.30828857421875
1,547;-1.30889892578125
1,548;-1.30889892578125
1,549;-1.30889892578125
1,55;-1.3079833984375
1,551;-1.30859375
1,552;-1.30828857421875
1,553;-1.30859375
1,554;-1.30859375
1,555;-1.30828857421875
1,556;-1.30828857421875
1,557;-1.30889892578125
1,558;-1.30828857421875
1,559;-1.30828857421875
1,56;-1.30889892578125
1,561;-1.30828857421875
1,562;-1.30828857421875
1,563;-1.30828857421875
1,564;-1.30859375
1,565;-1.30828857421875
1,566;-1.30828857421875
1,567;-1.30859375
1,568;-1.3079833984375
1,569;-1.30828857421875
1,57;-1.30859375
1,571;-1.30828857421875
1,572;-1.30859375
1,573;-1.30859375
1,574;-1.30828857421875
1,575;-1.30828857421875
1,576;-1.30859375
1,577;-1.30889892578125
1,578;-1.30889892578125
1,579;-1.30859375
1,58;-1.3092041015625
1,581;-1.30859375
1,582;-1.3079833984375
1,583;-1.3079833984375
1,584;-1.30828857421875
1,585;-1.30828857421875
1,586;-1.30859375
1,587;-1.30828857421875
1,588;-1.30859375
1,589;-1.30889892578125
1,59;-1.3079833984375
1,591;-1.30859375
1,592;-1.30828857421875
1,593;-1.30828857421875
1,594;-1.30859375
1,595;-1.30859375
1,596;-1.30859375
1,597;-1.30859375
1,598;-1.30828857421875
1,599;-1.3079833984375
1,6;-1.30828857421875
1,601;-1.3079833984375
1,602;-1.30828857421875
1,603;-1.30828857421875
1,604;-1.30859375
1,605;-1.30859375
1,606;-1.30828857421875
1,607;-1.30828857421875
1,608;-1.30889892578125
1,609;-1.30828857421875
1,61;-1.30828857421875
1,611;-1.3079833984375
1,612;-1.30859375
1,613;-1.30859375
1,614;-1.30859375
1,615;-1.30889892578125
1,616;-1.30859375
1,617;-1.30828857421875
1,618;-1.30889892578125
1,619;-1.30859375
1,62;-1.3079833984375
1,621;-1.30859375
1,622;-1.30859375
1,623;-1.30859375
1,624;-1.30889892578125
1,625;-1.30859375
1,626;-1.30859375
1,627;-1.30859375
1,628;-1.3079833984375
1,629;-1.30859375
1,63;-1.30828857421875
1,631;-1.30828857421875
1,632;-1.30859375
1,633;-1.30889892578125
1,634;-1.30889892578125
1,635;-1.30859375
1,636;-1.3079833984375
1,637;-1.30828857421875
1,638;-1.30859375
1,639;-1.30828857421875
1,64;-1.30828857421875
1,641;-1.30859375
1,642;-1.30828857421875
1,643;-1.30889892578125
1,644;-1.3079833984375
1,645;-1.3092041015625
1,646;-1.3092041015625
1,647;-1.3092041015625
1,648;-1.30859375
1,649;-1.30889892578125
1,65;-1.30859375
1,651;-1.30828857421875
1,652;-1.3092041015625
1,653;-1.30859375
1,654;-1.30828857421875
1,655;-1.30889892578125
1,656;-1.30828857421875
1,657;-1.30828857421875
1,658;-1.30828857421875
1,659;-1.30889892578125
1,66;-1.3092041015625
1,661;-1.30767822265625
1,662;-1.3079833984375
1,663;-1.30859375
1,664;-1.30828857421875
1,665;-1.30859375
1,666;-1.30828857421875
1,667;-1.30828857421875
1,668;-1.30889892578125
1,669;-1.30828857421875
1,67;-1.30859375
1,671;-1.30828857421875
1,672;-1.30828857421875
1,673;-1.30859375
1,674;-1.30859375
1,675;-1.30859375
1,676;-1.30859375
1,677;-1.30859375
1,678;-1.30828857421875
1,679;-1.30859375
1,68;-1.30859375
1,681;-1.30828857421875
1,682;-1.30828857421875
1,683;-1.30889892578125
1,684;-1.3092041015625
1,685;-1.30859375
1,686;-1.30828857421875
1,687;-1.30828857421875
1,688;-1.30828857421875
1,689;-1.30859375
1,69;-1.30889892578125
1,691;-1.30828857421875
1,692;-1.30767822265625
1,693;-1.30859375
1,694;-1.30767822265625
1,695;-1.30828857421875
1,696;-1.30828857421875
1,697;-1.30828857421875
1,698;-1.30859375
1,699;-1.30828857421875
1,7;-1.30859375
1,701;-1.30889892578125
1,702;-1.30889892578125
1,703;-1.30828857421875
1,704;-1.30828857421875
1,705;-1.30828857421875
1,706;-1.30859375
1,707;-1.30859375
1,708;-1.30889892578125
1,709;-1.30828857421875
1,71;-1.30828857421875
1,711;-1.3079833984375
1,712;-1.30828857421875
1,713;-1.30859375
1,714;-1.30859375
1,715;-1.3079833984375
1,716;-1.30828857421875
1,717;-1.30889892578125
1,718;-1.30828857421875
1,719;-1.30828857421875
1,72;-1.30859375
1,721;-1.30828857421875
1,722;-1.30828857421875
1,723;-1.3092041015625
1,724;-1.30828857421875
1,725;-1.30859375
1,726;-1.30828857421875
1,727;-1.30859375
1,728;-1.30859375
1,729;-1.30859375
1,73;-1.30828857421875
1,731;-1.30859375
1,732;-1.30859375
1,733;-1.3079833984375
1,734;-1.30889892578125
1,735;-1.30828857421875
1,736;-1.30828857421875
1,737;-1.30828857421875
1,738;-1.30859375
1,739;-1.3079833984375
1,74;-1.30889892578125
1,741;-1.30859375
1,742;-1.30859375
1,743;-1.30859375
1,744;-1.30859375
1,745;-1.30889892578125
1,746;-1.30828857421875
1,747;-1.30828857421875
1,748;-1.30828857421875
1,749;-1.30859375
1,75;-1.3079833984375
1,751;-1.30859375
1,752;-1.30889892578125
1,753;-1.3092041015625
1,754;-1.30859375
1,755;-1.3079833984375
1,756;-1.30859375
1,757;-1.30859375
1,758;-1.30859375
1,759;-1.30828857421875
1,76;-1.30828857421875
1,761;-1.30828857421875
1,762;-1.30828857421875
1,763;-1.30828857421875
1,764;-1.30828857421875
1,765;-1.30767822265625
1,766;-1.30859375
1,767;-1.3092041015625
1,768;-1.30859375
1,769;-1.30859375
1,77;-1.30859375
1,771;-1.3079833984375
1,772;-1.30828857421875
1,773;-1.30828857421875
1,774;-1.30828857421875
1,775;-1.30859375
1,776;-1.30859375
1,777;-1.30889892578125
1,778;-1.30859375
1,779;-1.30859375
1,78;-1.3079833984375
1,781;-1.30859375
1,782;-1.30889892578125
1,783;-1.30889892578125
1,784;-1.30828857421875
1,785;-1.30828857421875
1,786;-1.30889892578125
1,787;-1.30828857421875
1,788;-1.30859375
1,789;-1.3092041015625
1,79;-1.30859375
1,791;-1.30859375
1,792;-1.30859375
1,793;-1.30859375
1,794;-1.30828857421875
1,795;-1.30889892578125
1,796;-1.30828857421875
1,797;-1.30828857421875
1,798;-1.30859375
1,799;-1.30889892578125
1,8;-1.30859375
1,801;-1.30859375
1,802;-1.30859375
1,803;-1.30828857421875
1,804;-1.30828857421875
1,805;-1.30859375
1,806;-1.30859375
1,807;-1.30828857421875
1,808;-1.3079833984375
1,809;-1.3092041015625
1,81;-1.3079833984375
1,811;-1.30859375
1,812;-1.3079833984375
1,813;-1.30828857421875
1,814;-1.30859375
1,815;-1.30828857421875
1,816;-1.30828857421875
1,817;-1.30828857421875
1,818;-1.30859375
1,819;-1.30828857421875
1,82;-1.30828857421875
1,821;-1.30889892578125
1,822;-1.30859375
1,823;-1.30889892578125
1,824;-1.3079833984375
1,825;-1.30859375
1,826;-1.30828857421875
1,827;-1.30859375
1,828;-1.3079833984375
1,829;-1.30859375
1,83;-1.30828857421875
1,831;-1.30889892578125
1,832;-1.30859375
1,833;-1.3079833984375
1,834;-1.30828857421875
1,835;-1.30889892578125
1,836;-1.30828857421875
1,837;-1.30889892578125
1,838;-1.30828857421875
1,839;-1.3079833984375
1,84;-1.30859375
1,841;-1.30889892578125
1,842;-1.30889892578125
1,843;-1.30859375
1,844;-1.30859375
1,845;-1.30859375
1,846;-1.30859375
1,847;-1.30828857421875
1,848;-1.30859375
1,849;-1.30859375
1,85;-1.3079833984375
1,851;-1.30859375
1,852;-1.30828857421875
1,853;-1.30828857421875
1,854;-1.3079833984375
1,855;-1.30859375
1,856;-1.3079833984375
1,857;-1.30859375
1,858;-1.30828857421875
1,859;-1.30828857421875
1,86;-1.30859375
1,861;-1.30889892578125
1,862;-1.30828857421875
1,863;-1.30889892578125
1,864;-1.30828857421875
1,865;-1.3079833984375
1,866;-1.30859375
1,867;-1.30859375
1,868;-1.3079833984375
1,869;-1.30859375
1,87;-1.30889892578125
1,871;-1.30859375
1,872;-1.30828857421875
1,873;-1.30859375
1,874;-1.3079833984375
1,875;-1.30828857421875
1,876;-1.30828857421875
1,877;-1.30828857421875
1,878;-1.30828857421875
1,879;-1.30859375
1,88;-1.30859375
1,881;-1.30828857421875
1,882;-1.30828857421875
1,883;-1.30889892578125
1,884;-1.30828857421875
1,885;-1.30859375
1,886;-1.30859375
1,887;-1.30859375
1,888;-1.30828857421875
1,889;-1.30889892578125
1,89;-1.30859375
1,891;-1.30828857421875
1,892;-1.30859375
1,893;-1.30889892578125
1,894;-1.30859375
1,895;-1.30828857421875
1,896;-1.30889892578125
1,897;-1.30828857421875
1,898;-1.30859375
1,899;-1.3092041015625
1,9;-1.30889892578125
1,901;-1.30859375
1,902;-1.30889892578125
1,903;-1.3079833984375
1,904;-1.30859375
1,905;-1.30859375
1,906;-1.3079833984375
1,907;-1.30828857421875
1,908;-1.30859375
1,909;-1.30828857421875
1,91;-1.30828857421875
1,911;-1.30828857421875
1,912;-1.30859375
1,913;-1.30859375
1,914;-1.30889892578125
1,915;-1.30859375
1,916;-1.30859375
1,917;-1.30889892578125
1,918;-1.30828857421875
1,919;-1.30828857421875
1,92;-1.30859375
1,921;-1.30889892578125
1,922;-1.30889892578125
1,923;-1.30828857421875
1,924;-1.3092041015625
1,925;-1.30828857421875
1,926;-1.30828857421875
1,927;-1.30828857421875
1,928;-1.30828857421875
1,929;-1.30859375
1,93;-1.30828857421875
1,931;-1.3079833984375
1,932;-1.30859375
1,933;-1.30859375
1,934;-1.30889892578125
1,935;-1.30828857421875
1,936;-1.30828857421875
1,937;-1.30889892578125
1,938;-1.30828857421875
1,939;-1.3079833984375
1,94;-1.30859375
1,941;-1.30828857421875
1,942;-1.30828857421875
1,943;-1.3079833984375
1,944;-1.30859375
1,945;-1.3079833984375
1,946;-1.30828857421875
1,947;-1.30889892578125
1,948;-1.30859375
1,949;-1.30828857421875
1,95;-1.30859375
1,951;-1.30828857421875
1,952;-1.30828857421875
1,953;-1.30859375
1,954;-1.30859375
1,955;-1.30828857421875
1,956;-1.30859375
1,957;-1.30859375
1,958;-1.30859375
1,959;-1.30859375
1,96;-1.30859375
1,961;-1.30859375
1,962;-1.30859375
1,963;-1.30859375
1,964;-1.30859375
1,965;-1.30859375
1,966;-1.30859375
1,967;-1.30859375
1,968;-1.30828857421875
1,969;-1.30859375
1,97;-1.3079833984375
1,971;-1.30889892578125
1,972;-1.30859375
1,973;-1.30889892578125
1,974;-1.30859375
1,975;-1.30828857421875
1,976;-1.30828857421875
1,977;-1.30859375
1,978;-1.30828857421875
1,979;-1.30859375
1,98;-1.30859375
1,981;-1.30889892578125
1,982;-1.30859375
1,983;-1.30828857421875
1,984;-1.3079833984375
1,985;-1.30859375
1,986;-1.30828857421875
1,987;-1.3092041015625
1,988;-1.30828857421875
1,989;-1.30889892578125
1,99;-1.30828857421875
1,991;-1.30828857421875
1,992;-1.30859375
1,993;-1.30859375
1,994;-1.30859375
1,995;-1.3079833984375
1,996;-1.30859375
1,997;-1.30859375
1,998;-1.30859375
1,999;-1.30828857421875
2;-1.30828857421875
2,001;-1.30859375
2,002;-1.30828857421875
2,003;-1.30828857421875
2,004;-1.3079833984375
2,005;-1.30889892578125
2,006;-1.30828857421875
2,007;-1.30889892578125
2,008;-1.30859375
2,009;-1.3079833984375
2,01;-1.30828857421875
2,011;-1.30828857421875
2,012;-1.30859375
2,013;-1.30859375
2,014;-1.30889892578125
2,015;-1.3092041015625
2,016;-1.30828857421875
2,017;-1.30828857421875
2,018;-1.30859375
2,019;-1.30859375
2,02;-1.3092041015625
2,021;-1.30828857421875
2,022;-1.30889892578125
2,023;-1.30828857421875
2,024;-1.30889892578125
2,025;-1.30828857421875
2,026;-1.30859375
2,027;-1.30859375
2,028;-1.30828857421875
2,029;-1.30828857421875
2,03;-1.3079833984375
2,031;-1.30859375
2,032;-1.30889892578125
2,033;-1.30859375
2,034;-1.3092041015625
2,035;-1.3092041015625
2,036;-1.30828857421875
2,037;-1.30889892578125
2,038;-1.30828857421875
2,039;-1.30889892578125
2,04;-1.30859375
2,041;-1.30859375
2,042;-1.30859375
2,043;-1.30828857421875
2,044;-1.30859375
2,045;-1.30859375
2,046;-1.30859375
2,047;-1.3092041015625
2,048;-1.30828857421875
2,049;-1.30859375
2,05;-1.30889892578125
2,051;-1.30859375
2,052;-1.30889892578125
2,053;-1.30859375
2,054;-1.30828857421875
2,055;-1.3092041015625
2,056;-1.30859375
2,057;-1.30859375
2,058;-1.30859375
2,059;-1.30828857421875
2,06;-1.3079833984375
2,061;-1.30828857421875
2,062;-1.30859375
2,063;-1.30828857421875
2,064;-1.30859375
2,065;-1.30889892578125
2,066;-1.30828857421875
2,067;-1.30828857421875
2,068;-1.30828857421875
2,069;-1.30828857421875
2,07;-1.30859375
2,071;-1.30859375
2,072;-1.30859375
2,073;-1.30828857421875
2,074;-1.3079833984375
2,075;-1.30828857421875
2,076;-1.30889892578125
2,077;-1.30859375
2,078;-1.30859375
2,079;-1.3079833984375
2,08;-1.30859375
2,081;-1.30859375
2,082;-1.30859375
2,083;-1.30828857421875
2,084;-1.30828857421875
2,085;-1.30859375
2,086;-1.30859375
2,087;-1.30828857421875
2,088;-1.30859375
2,089;-1.30889892578125
2,09;-1.30859375
2,091;-1.3079833984375
2,092;-1.3079833984375
2,093;-1.30889892578125
2,094;-1.30889892578125
2,095;-1.30828857421875
2,096;-1.30828857421875
2,097;-1.30889892578125
2,098;-1.3079833984375
2,099;-1.30828857421875
2,1;-1.3079833984375
2,101;-1.30828857421875
2,102;-1.30889892578125
2,103;-1.30828857421875
2,104;-1.30859375
2,105;-1.3079833984375
2,106;-1.3079833984375
2,107;-1.3092041015625
2,108;-1.30828857421875
2,109;-1.30828857421875
2,11;-1.30859375
2,111;-1.30828857421875
2,112;-1.3079833984375
2,113;-1.30859375
2,114;-1.30859375
2,115;-1.30859375
2,116;-1.30859375
2,117;-1.3079833984375
2,118;-1.30859375
2,119;-1.30828857421875
2,12;-1.30828857421875
2,121;-1.30859375
2,122;-1.30859375
2,123;-1.30859375
2,124;-1.3092041015625
2,125;-1.30828857421875
2,126;-1.30828857421875
2,127;-1.30859375
2,128;-1.30859375
2,129;-1.30859375
2,13;-1.30828857421875
2,131;-1.30889892578125
2,132;-1.3092041015625
2,133;-1.30859375
2,134;-1.30889892578125
2,135;-1.3079833984375
2,136;-1.30889892578125
2,137;-1.30828857421875
2,138;-1.30859375
2,139;-1.30859375
2,14;-1.30889892578125
2,141;-1.30828857421875
2,142;-1.30828857421875
2,143;-1.30859375
2,144;-1.30889892578125
2,145;-1.30828857421875
2,146;-1.30828857421875
2,147;-1.30859375
2,148;-1.30828857421875
2,149;-1.30828857421875
2,15;-1.30859375
2,151;-1.30828857421875
2,152;-1.30828857421875
2,153;-1.30828857421875
2,154;-1.30828857421875
2,155;-1.30859375
2,156;-1.30828857421875
2,157;-1.30828857421875
2,158;-1.30859375
2,159;-1.30859375
2,16;-1.30828857421875
2,161;-1.30889892578125
2,162;-1.30859375
2,163;-1.30828857421875
2,164;-1.30859375
2,165;-1.30859375
2,166;-1.30859375
2,167;-1.30859375
2,168;-1.30828857421875
2,169;-1.30859375
2,17;-1.3092041015625
2,171;-1.30859375
2,172;-1.30828857421875
2,173;-1.30828857421875
2,174;-1.30859375
2,175;-1.30828857421875
2,176;-1.30828857421875
2,177;-1.30859375
2,178;-1.30859375
2,179;-1.30828857421875
2,18;-1.30828857421875
2,181;-1.3079833984375
2,182;-1.30889892578125
2,183;-1.30828857421875
2,184;-1.30859375
2,185;-1.30859375
2,186;-1.30889892578125
2,187;-1.30828857421875
2,188;-1.30859375
2,189;-1.30889892578125
2,19;-1.30859375
2,191;-1.30859375
2,192;-1.30859375
2,193;-1.30828857421875
2,194;-1.30859375
2,195;-1.3079833984375
2,196;-1.30859375
2,197;-1.30828857421875
2,198;-1.30889892578125
2,199;-1.30889892578125
2,2;-1.30828857421875
2,201;-1.30859375
2,202;-1.30828857421875
2,203;-1.30828857421875
2,204;-1.30828857421875
2,205;-1.3079833984375
2,206;-1.30859375
2,207;-1.30859375
2,208;-1.30889892578125
2,209;-1.30859375
2,21;-1.30828857421875
2,211;-1.30859375
2,212;-1.30859375
2,213;-1.30889892578125
2,214;-1.30889892578125
2,215;-1.30889892578125
2,216;-1.30828857421875
2,217;-1.30828857421875
2,218;-1.30859375
2,219;-1.30859375
2,22;-1.3079833984375
2,221;-1.30828857421875
2,222;-1.30828857421875
2,223;-1.30828857421875
2,224;-1.30859375
2,225;-1.30828857421875
2,226;-1.30859375
2,227;-1.30889892578125
2,228;-1.3079833984375
2,229;-1.30828857421875
2,23;-1.30828857421875
2,231;-1.30828857421875
2,232;-1.30828857421875
2,233;-1.30828857421875
2,234;-1.30889892578125
2,235;-1.30859375
2,236;-1.30828857421875
2,237;-1.30828857421875
2,238;-1.3079833984375
2,239;-1.30828857421875
2,24;-1.30859375
2,241;-1.30859375
2,242;-1.30828857421875
2,243;-1.30828857421875
2,244;-1.30859375
2,245;-1.30859375
2,246;-1.30828857421875
2,247;-1.30828857421875
2,248;-1.30889892578125
2,249;-1.3079833984375
2,25;-1.30828857421875
2,251;-1.30859375
2,252;-1.30828857421875
2,253;-1.30828857421875
2,254;-1.30859375
2,255;-1.3079833984375
2,256;-1.30828857421875
2,257;-1.3079833984375
2,258;-1.30859375
2,259;-1.30828857421875
2,26;-1.30828857421875
2,261;-1.30828857421875
2,262;-1.30828857421875
2,263;-1.30859375
2,264;-1.30828857421875
2,265;-1.30859375
2,266;-1.3079833984375
2,267;-1.30859375
2,268;-1.30828857421875
2,269;-1.30889892578125
2,27;-1.30859375
2,271;-1.30828857421875
2,272;-1.30828857421875
2,273;-1.30859375
2,274;-1.3079833984375
2,275;-1.30828857421875
2,276;-1.30859375
2,277;-1.30828857421875
2,278;-1.30859375
2,279;-1.3079833984375
2,28;-1.3079833984375
2,281;-1.30828857421875
2,282;-1.30828857421875
2,283;-1.30828857421875
2,284;-1.30889892578125
2,285;-1.30828857421875
2,286;-1.30828857421875
2,287;-1.30889892578125
2,288;-1.30828857421875
2,289;-1.30767822265625
2,29;-1.3079833984375
2,291;-1.30889892578125
2,292;-1.30828857421875
2,293;-1.30889892578125
2,294;-1.3079833984375
2,295;-1.3079833984375
2,296;-1.30889892578125
2,297;-1.30828857421875
2,298;-1.30859375
2,299;-1.30828857421875
2,3;-1.30859375
2,301;-1.30828857421875
2,302;-1.30828857421875
2,303;-1.3079833984375
2,304;-1.30859375
2,305;-1.30889892578125
2,306;-1.30859375
2,307;-1.30889892578125
2,308;-1.30828857421875
2,309;-1.3092041015625
2,31;-1.30828857421875
2,311;-1.3079833984375
2,312;-1.30828857421875
2,313;-1.30828857421875
2,314;-1.30828857421875
2,315;-1.30859375
2,316;-1.30828857421875
2,317;-1.3079833984375
2,318;-1.30828857421875
2,319;-1.30859375
2,32;-1.30859375
2,321;-1.30859375
2,322;-1.30859375
2,323;-1.30828857421875
2,324;-1.30828857421875
2,325;-1.30828857421875
2,326;-1.30859375
2,327;-1.30859375
2,328;-1.30889892578125
2,329;-1.30889892578125
2,33;-1.30828857421875
2,331;-1.30828857421875
2,332;-1.30859375
2,333;-1.30859375
2,334;-1.30859375
2,335;-1.30889892578125
2,336;-1.30828857421875
2,337;-1.30859375
2,338;-1.30859375
2,339;-1.30828857421875
2,34;-1.30889892578125
2,341;-1.30859375
2,342;-1.30889892578125
2,343;-1.30859375
2,344;-1.30828857421875
2,345;-1.3079833984375
2,346;-1.30889892578125
2,347;-1.30828857421875
2,348;-1.30859375
2,349;-1.30889892578125
2,35;-1.30828857421875
2,351;-1.30828857421875
2,352;-1.30828857421875
2,353;-1.30859375
2,354;-1.30859375
2,355;-1.30828857421875
2,356;-1.3079833984375
2,357;-1.3079833984375
2,358;-1.30889892578125
2,359;-1.30828857421875
2,36;-1.30859375
2,361;-1.30859375
2,362;-1.30859375
2,363;-1.30859375
2,364;-1.30828857421875
2,365;-1.30859375
2,366;-1.3079833984375
2,367;-1.3079833984375
2,368;-1.30859375
2,369;-1.30828857421875
2,37;-1.30828857421875
2,371;-1.30828857421875
2,372;-1.30859375
2,373;-1.30889892578125
2,374;-1.30767822265625
2,375;-1.3079833984375
2,376;-1.30859375
2,377;-1.30859375
2,378;-1.30889892578125
2,379;-1.30828857421875
2,38;-1.30859375
2,381;-1.30859375
2,382;-1.30859375
2,383;-1.30828857421875
2,384;-1.30859375
2,385;-1.3092041015625
2,386;-1.3092041015625
2,387;-1.3079833984375
2,388;-1.30828857421875
2,389;-1.30889892578125
2,39;-1.30859375
2,391;-1.30828857421875
2,392;-1.3079833984375
2,393;-1.3079833984375
2,394;-1.30828857421875
2,395;-1.3079833984375
2,396;-1.30828857421875
2,397;-1.30859375
2,398;-1.30859375
2,399;-1.3079833984375
2,4;-1.30889892578125
2,401;-1.30828857421875
2,402;-1.30828857421875
2,403;-1.30859375
2,404;-1.30859375
2,405;-1.30859375
2,406;-1.30828857421875
2,407;-1.30889892578125
2,408;-1.30828857421875
2,409;-1.30859375
2,41;-1.30859375
2,411;-1.30828857421875
2,412;-1.30859375
2,413;-1.30889892578125
2,414;-1.30828857421875
2,415;-1.3079833984375
2,416;-1.30828857421875
2,417;-1.30828857421875
2,418;-1.30889892578125
2,419;-1.30828857421875
2,42;-1.30767822265625
2,421;-1.30828857421875
2,422;-1.30828857421875
2,423;-1.30889892578125
2,424;-1.3092041015625
2,425;-1.30859375
2,426;-1.30859375
2,427;-1.30828857421875
2,428;-1.30828857421875
2,429;-1.30828857421875
2,43;-1.30828857421875
2,431;-1.3079833984375
2,432;-1.30828857421875
2,433;-1.30828857421875
2,434;-1.30859375
2,435;-1.30889892578125
2,436;-1.30859375
2,437;-1.30828857421875
2,438;-1.30859375
2,439;-1.30889892578125
2,44;-1.3079833984375
2,441;-1.30828857421875
2,442;-1.30859375
2,443;-1.30889892578125
2,444;-1.30828857421875
2,445;-1.30828857421875
2,446;-1.30828857421875
2,447;-1.30859375
2,448;-1.30828857421875
2,449;-1.30828857421875
2,45;-1.30889892578125
2,451;-1.30828857421875
2,452;-1.30828857421875
2,453;-1.30828857421875
2,454;-1.30859375
2,455;-1.30859375
2,456;-1.30859375
2,457;-1.30889892578125
2,458;-1.30889892578125
2,459;-1.30859375
2,46;-1.30828857421875
2,461;-1.30859375
2,462;-1.30828857421875
2,463;-1.3079833984375
2,464;-1.30859375
2,465;-1.30889892578125
2,466;-1.30828857421875
2,467;-1.30828857421875
2,468;-1.30828857421875
2,469;-1.30889892578125
2,47;-1.30889892578125
2,471;-1.30859375
2,472;-1.30767822265625
2,473;-1.3079833984375
2,474;-1.30828857421875
2,475;-1.30859375
2,476;-1.30828857421875
2,477;-1.30859375
2,478;-1.30828857421875
2,479;-1.30828857421875
2,48;-1.30859375
2,481;-1.30828857421875
2,482;-1.30859375
2,483;-1.30828857421875
2,484;-1.30828857421875
2,485;-1.3092041015625
2,486;-1.30859375
2,487;-1.30859375
2,488;-1.3079833984375
2,489;-1.30828857421875
2,49;-1.30859375
2,491;-1.30889892578125
2,492;-1.30828857421875
2,493;-1.30889892578125
2,494;-1.3079833984375
2,495;-1.30828857421875
2,496;-1.30859375
2,497;-1.30859375
2,498;-1.30828857421875
2,499;-1.30859375
2,5;-1.30889892578125
2,501;-1.30859375
2,502;-1.30828857421875
2,503;-1.30859375
2,504;-1.30828857421875
2,505;-1.3079833984375
2,506;-1.30828857421875
2,507;-1.30859375
2,508;-1.30828857421875
2,509;-1.30859375
2,51;-1.30828857421875
2,511;-1.30828857421875
2,512;-1.30859375
2,513;-1.3079833984375
2,514;-1.30859375
2,515;-1.30889892578125
2,516;-1.3079833984375
2,517;-1.30828857421875
2,518;-1.30889892578125
2,519;-1.30828857421875
2,52;-1.30828857421875
2,521;-1.30889892578125
2,522;-1.30828857421875
2,523;-1.30828857421875
2,524;-1.30828857421875
2,525;-1.30828857421875
2,526;-1.30859375
2,527;-1.30828857421875
2,528;-1.3092041015625
2,529;-1.30828857421875
2,53;-1.30859375
2,531;-1.3079833984375
2,532;-1.30859375
2,533;-1.30828857421875
2,534;-1.30889892578125
2,535;-1.30828857421875
2,536;-1.30828857421875
2,537;-1.3092041015625
2,538;-1.30767822265625
2,539;-1.30828857421875
2,54;-1.30859375
2,541;-1.3079833984375
2,542;-1.30859375
2,543;-1.30859375
2,544;-1.30828857421875
2,545;-1.3079833984375
2,546;-1.30859375
2,547;-1.30828857421875
2,548;-1.30859375
2,549;-1.30828857421875
2,55;-1.30859375
2,551;-1.30859375
2,552;-1.30889892578125
2,553;-1.30859375
2,554;-1.30828857421875
2,555;-1.30859375
2,556;-1.30859375
2,557;-1.30859375
2,558;-1.30889892578125
2,559;-1.30889892578125
2,56;-1.30859375
2,561;-1.30859375
2,562;-1.30828857421875
2,563;-1.30828857421875
2,564;-1.30828857421875
2,565;-1.30828857421875
2,566;-1.30859375
2,567;-1.30859375
2,568;-1.30889892578125
2,569;-1.3079833984375
2,57;-1.30859375
2,571;-1.30828857421875
2,572;-1.30828857421875
2,573;-1.30859375
2,574;-1.30828857421875
2,575;-1.30889892578125
2,576;-1.30859375
2,577;-1.30859375
2,578;-1.30859375
2,579;-1.30889892578125
2,58;-1.30828857421875
2,581;-1.30828857421875
2,582;-1.30889892578125
2,583;-1.30859375
2,584;-1.30828857421875
2,585;-1.30889892578125
2,586;-1.30859375
2,587;-1.30828857421875
2,588;-1.30828857421875
2,589;-1.30828857421875
2,59;-1.30859375
2,591;-1.3092041015625
2,592;-1.30859375
2,593;-1.3079833984375
2,594;-1.30859375
2,595;-1.30828857421875
2,596;-1.30859375
2,597;-1.30828857421875
2,598;-1.30859375
2,599;-1.30767822265625
2,6;-1.30828857421875
2,601;-1.30859375
2,602;-1.30859375
2,603;-1.3079833984375
2,604;-1.30859375
2,605;-1.30828857421875
2,606;-1.3079833984375
2,607;-1.30859375
2,608;-1.30859375
2,609;-1.30859375
2,61;-1.3092041015625
2,611;-1.30859375
2,612;-1.30859375
2,613;-1.30859375
2,614;-1.3079833984375
2,615;-1.30828857421875
2,616;-1.30889892578125
2,617;-1.30828857421875
2,618;-1.3092041015625
2,619;-1.30859375
2,62;-1.30828857421875
2,621;-1.30828857421875
2,622;-1.30828857421875
2,623;-1.30828857421875
2,624;-1.30859375
2,625;-1.30859375
2,626;-1.30828857421875
2,627;-1.30828857421875
2,628;-1.30828857421875
2,629;-1.30859375
2,63;-1.30889892578125
2,631;-1.30889892578125
2,632;-1.30859375
2,633;-1.30828857421875
2,634;-1.30859375
2,635;-1.30889892578125
2,636;-1.30950927734375
2,637;-1.30828857421875
2,638;-1.30828857421875
2,639;-1.30859375
2,64;-1.30859375
2,641;-1.30859375
2,642;-1.30828857421875
2,643;-1.3092041015625
2,644;-1.30889892578125
2,645;-1.30828857421875
2,646;-1.30859375
2,647;-1.30889892578125
2,648;-1.30859375
2,649;-1.30859375
2,65;-1.30889892578125
2,651;-1.3079833984375
2,652;-1.30828857421875
2,653;-1.30859375
2,654;-1.30828857421875
2,655;-1.3092041015625
2,656;-1.30828857421875
2,657;-1.3092041015625
2,658;-1.30859375
2,659;-1.30859375
2,66;-1.3079833984375
2,661;-1.30889892578125
2,662;-1.30859375
2,663;-1.30828857421875
2,664;-1.3079833984375
2,665;-1.3092041015625
2,666;-1.30767822265625
2,667;-1.30828857421875
2,668;-1.3079833984375
2,669;-1.30828857421875
2,67;-1.30889892578125
2,671;-1.30889892578125
2,672;-1.30859375
2,673;-1.30859375
2,674;-1.30859375
2,675;-1.30828857421875
2,676;-1.3092041015625
2,677;-1.3092041015625
2,678;-1.30828857421875
2,679;-1.30889892578125
2,68;-1.30889892578125
2,681;-1.3092041015625
2,682;-1.30859375
2,683;-1.30828857421875
2,684;-1.3092041015625
2,685;-1.30859375
2,686;-1.30859375
2,687;-1.3092041015625
2,688;-1.30828857421875
2,689;-1.30859375
2,69;-1.30859375
2,691;-1.30889892578125
2,692;-1.30859375
2,693;-1.30889892578125
2,694;-1.30889892578125
2,695;-1.30859375
2,696;-1.30859375
2,697;-1.30859375
2,698;-1.30828857421875
2,699;-1.3079833984375
2,7;-1.30859375
2,701;-1.30828857421875
2,702;-1.30828857421875
2,703;-1.30889892578125
2,704;-1.30859375
2,705;-1.30828857421875
2,706;-1.30828857421875
2,707;-1.30859375
2,708;-1.30889892578125
2,709;-1.30828857421875
2,71;-1.30889892578125
2,711;-1.30889892578125
2,712;-1.3092041015625
2,713;-1.30828857421875
2,714;-1.3079833984375
2,715;-1.30859375
2,716;-1.30828857421875
2,717;-1.3092041015625
2,718;-1.30889892578125
2,719;-1.30859375
2,72;-1.3092041015625
2,721;-1.30859375
2,722;-1.30828857421875
2,723;-1.30828857421875
2,724;-1.3092041015625
2,725;-1.30889892578125
2,726;-1.30859375
2,727;-1.30889892578125
2,728;-1.3079833984375
2,729;-1.30859375
2,73;-1.3092041015625
2,731;-1.30859375
2,732;-1.30828857421875
2,733;-1.30859375
2,734;-1.3092041015625
2,735;-1.30859375
2,736;-1.30859375
2,737;-1.3079833984375
2,738;-1.3079833984375
2,739;-1.30828857421875
2,74;-1.30859375
2,741;-1.30859375
2,742;-1.30859375
2,743;-1.3079833984375
2,744;-1.30859375
2,745;-1.30859375
2,746;-1.30859375
2,747;-1.30859375
2,748;-1.30828857421875
2,749;-1.30859375
2,75;-1.30889892578125
2,751;-1.30859375
2,752;-1.30828857421875
2,753;-1.30859375
2,754;-1.3079833984375
2,755;-1.30828857421875
2,756;-1.3079833984375
2,757;-1.30889892578125
2,758;-1.30859375
2,759;-1.30859375
2,76;-1.30859375
2,761;-1.30859375
2,762;-1.3079833984375
2,763;-1.30889892578125
2,764;-1.3092041015625
2,765;-1.3079833984375
2,766;-1.30889892578125
2,767;-1.3092041015625
2,768;-1.30950927734375
2,769;-1.30828857421875
2,77;-1.30859375
2,771;-1.30828857421875
2,772;-1.30889892578125
2,773;-1.30828857421875
2,774;-1.30828857421875
2,775;-1.30859375
2,776;-1.30828857421875
2,777;-1.30889892578125
2,778;-1.3092041015625
2,779;-1.30859375
2,78;-1.30889892578125
2,781;-1.30889892578125
2,782;-1.30889892578125
2,783;-1.30828857421875
2,784;-1.30828857421875
2,785;-1.30950927734375
2,786;-1.30889892578125
2,787;-1.30889892578125
2,788;-1.3079833984375
2,789;-1.30828857421875
2,79;-1.30828857421875
2,791;-1.30828857421875
2,792;-1.30859375
2,793;-1.3092041015625
2,794;-1.30828857421875
2,795;-1.3079833984375
2,796;-1.30828857421875
2,797;-1.30828857421875
2,798;-1.30828857421875
2,799;-1.30859375
2,8;-1.3079833984375
2,801;-1.3079833984375
2,802;-1.30859375
2,803;-1.3079833984375
2,804;-1.3079833984375
2,805;-1.30859375
2,806;-1.30828857421875
2,807;-1.30889892578125
2,808;-1.30859375
2,809;-1.30828857421875
2,81;-1.30859375
2,811;-1.30859375
2,812;-1.30828857421875
2,813;-1.30889892578125
2,814;-1.30950927734375
2,815;-1.30859375
2,816;-1.30859375
2,817;-1.30859375
2,818;-1.30828857421875
2,819;-1.30859375
2,82;-1.30859375
2,821;-1.30859375
2,822;-1.30859375
2,823;-1.30828857421875
2,824;-1.30889892578125
2,825;-1.30859375
2,826;-1.30859375
2,827;-1.30859375
2,828;-1.3079833984375
2,829;-1.30828857421875
2,83;-1.30889892578125
2,831;-1.3079833984375
2,832;-1.30828857421875
2,833;-1.30889892578125
2,834;-1.30828857421875
2,835;-1.30828857421875
2,836;-1.3079833984375
2,837;-1.3079833984375
2,838;-1.30859375
2,839;-1.30859375
2,84;-1.3092041015625
2,841;-1.30828857421875
2,842;-1.3079833984375
2,843;-1.30859375
2,844;-1.30828857421875
2,845;-1.30828857421875
2,846;-1.3079833984375
2,847;-1.30828857421875
2,848;-1.3079833984375
2,849;-1.30828857421875
2,85;-1.3079833984375
2,851;-1.30828857421875
2,852;-1.30859375
2,853;-1.30828857421875
2,854;-1.30828857421875
2,855;-1.30828857421875
2,856;-1.30859375
2,857;-1.30828857421875
2,858;-1.30889892578125
2,859;-1.30828857421875
2,86;-1.3079833984375
2,861;-1.30859375
2,862;-1.30828857421875
2,863;-1.3079833984375
2,864;-1.30828857421875
2,865;-1.30859375
2,866;-1.30828857421875
2,867;-1.30889892578125
2,868;-1.30889892578125
2,869;-1.30859375
2,87;-1.30950927734375
2,871;-1.30859375
2,872;-1.30859375
2,873;-1.30828857421875
2,874;-1.30859375
2,875;-1.30859375
2,876;-1.30859375
2,877;-1.30859375
2,878;-1.30859375
2,879;-1.30828857421875
2,88;-1.30859375
2,881;-1.30828857421875
2,882;-1.30889892578125
2,883;-1.30828857421875
2,884;-1.30828857421875
2,885;-1.30828857421875
2,886;-1.30859375
2,887;-1.30859375
2,888;-1.30889892578125
2,889;-1.30828857421875
2,89;-1.30828857421875
2,891;-1.30828857421875
2,892;-1.3092041015625
2,893;-1.30859375
2,894;-1.30859375
2,895;-1.30859375
2,896;-1.30828857421875
2,897;-1.30859375
2,898;-1.30859375
2,899;-1.30828857421875
2,9;-1.3092041015625
2,901;-1.30859375
2,902;-1.30859375
2,903;-1.30859375
2,904;-1.30828857421875
2,905;-1.30828857421875
2,906;-1.3079833984375
2,907;-1.3079833984375
2,908;-1.30859375
2,909;-1.30859375
2,91;-1.30828857421875
2,911;-1.30859375
2,912;-1.30828857421875
2,913;-1.30859375
2,914;-1.30859375
2,915;-1.30859375
2,916;-1.30828857421875
2,917;-1.30828857421875
2,918;-1.30828857421875
2,919;-1.30889892578125
2,92;-1.30828857421875
2,921;-1.30889892578125
2,922;-1.30828857421875
2,923;-1.30767822265625
2,924;-1.30859375
2,925;-1.3079833984375
2,926;-1.30859375
2,927;-1.30859375
2,928;-1.30859375
2,929;-1.30889892578125
2,93;-1.30889892578125
2,931;-1.30859375
2,932;-1.30767822265625
2,933;-1.30828857421875
2,934;-1.30828857421875
2,935;-1.30859375
2,936;-1.30859375
2,937;-1.30859375
2,938;-1.30828857421875
2,939;-1.30828857421875
2,94;-1.30859375
2,941;-1.3079833984375
2,942;-1.30889892578125
2,943;-1.30859375
2,944;-1.30859375
2,945;-1.30828857421875
2,946;-1.30859375
2,947;-1.30828857421875
2,948;-1.30859375
2,949;-1.30828857421875
2,95;-1.30828857421875
2,951;-1.30859375
2,952;-1.30859375
2,953;-1.30828857421875
2,954;-1.30828857421875
2,955;-1.30828857421875
2,956;-1.30828857421875
2,957;-1.30859375
2,958;-1.30859375
2,959;-1.30828857421875
2,96;-1.30828857421875
2,961;-1.30828857421875
2,962;-1.30859375
2,963;-1.30859375
2,964;-1.30859375
2,965;-1.30859375
2,966;-1.30828857421875
2,967;-1.30859375
2,968;-1.3079833984375
2,969;-1.30828857421875
2,97;-1.30828857421875
2,971;-1.30859375
2,972;-1.30889892578125
2,973;-1.30859375
2,974;-1.30859375
2,975;-1.3079833984375
2,976;-1.30828857421875
2,977;-1.30859375
2,978;-1.30828857421875
2,979;-1.30859375
2,98;-1.30859375
2,981;-1.30859375
2,982;-1.30859375
2,983;-1.30828857421875
2,984;-1.30828857421875
2,985;-1.30859375
2,986;-1.30859375
2,987;-1.3079833984375
2,988;-1.30828857421875
2,989;-1.30828857421875
2,99;-1.30859375
2,991;-1.30859375
2,992;-1.3079833984375
2,993;-1.30828857421875
2,994;-1.30828857421875
2,995;-1.30828857421875
2,996;-1.30767822265625
2,997;-1.30828857421875
2,998;-1.30859375
2,999;-1.30828857421875
3;-1.30828857421875
3,001;-1.30859375
3,002;-1.30859375
3,003;-1.3079833984375
3,004;-1.30859375
3,005;-1.30828857421875
3,006;-1.30859375
3,007;-1.3079833984375
3,008;-1.30859375
3,009;-1.30828857421875
3,01;-1.30889892578125
3,011;-1.30859375
3,012;-1.3079833984375
3,013;-1.3092041015625
3,014;-1.30889892578125
3,015;-1.30828857421875
3,016;-1.30828857421875
3,017;-1.30889892578125
3,018;-1.30828857421875
3,019;-1.30859375
3,02;-1.30828857421875
3,021;-1.30828857421875
3,022;-1.30859375
3,023;-1.30828857421875
3,024;-1.30859375
3,025;-1.3079833984375
3,026;-1.3079833984375
3,027;-1.30859375
3,028;-1.30859375
3,029;-1.30828857421875
3,03;-1.30828857421875
3,031;-1.30828857421875
3,032;-1.30828857421875
3,033;-1.30828857421875
3,034;-1.30859375
3,035;-1.30828857421875
3,036;-1.3079833984375
3,037;-1.30828857421875
3,038;-1.30828857421875
3,039;-1.30859375
3,04;-1.3079833984375
3,041;-1.30828857421875
3,042;-1.30828857421875
3,043;-1.30828857421875
3,044;-1.3079833984375
3,045;-1.30828857421875
3,046;-1.30828857421875
3,047;-1.30889892578125
3,048;-1.30889892578125
3,049;-1.30828857421875
3,05;-1.30859375
3,051;-1.3079833984375
3,052;-1.30828857421875
3,053;-1.3079833984375
3,054;-1.30859375
3,055;-1.30828857421875
3,056;-1.3079833984375
3,057;-1.30828857421875
3,058;-1.30859375
3,059;-1.30828857421875
3,06;-1.30828857421875
3,061;-1.30859375
3,062;-1.30859375
3,063;-1.30889892578125
3,064;-1.30828857421875
3,065;-1.30859375
3,066;-1.30828857421875
3,067;-1.30859375
3,068;-1.30828857421875
3,069;-1.3079833984375
3,07;-1.30859375
3,071;-1.3079833984375
3,072;-1.3092041015625
3,073;-1.30859375
3,074;-1.30828857421875
3,075;-1.30828857421875
3,076;-1.30828857421875
3,077;-1.30859375
3,078;-1.30828857421875
3,079;-1.3079833984375
3,08;-1.30889892578125
3,081;-1.30859375
3,082;-1.30859375
3,083;-1.30859375
3,084;-1.30859375
3,085;-1.30859375
3,086;-1.3079833984375
3,087;-1.30767822265625
3,088;-1.3079833984375
3,089;-1.30828857421875
3,09;-1.30889892578125
3,091;-1.3092041015625
3,092;-1.30828857421875
3,093;-1.30859375
3,094;-1.30859375
3,095;-1.30828857421875
3,096;-1.3079833984375
3,097;-1.30828857421875
3,098;-1.30828857421875
3,099;-1.30889892578125
3,1;-1.30859375
3,101;-1.30859375
3,102;-1.30828857421875
3,103;-1.30828857421875
3,104;-1.30859375
3,105;-1.30889892578125
3,106;-1.30859375
3,107;-1.30828857421875
3,108;-1.30859375
3,109;-1.30889892578125
3,11;-1.30828857421875
3,111;-1.30889892578125
3,112;-1.30828857421875
3,113;-1.30859375
3,114;-1.30828857421875
3,115;-1.30828857421875
3,116;-1.30859375
3,117;-1.30828857421875
3,118;-1.30859375
3,119;-1.30889892578125
3,12;-1.30828857421875
3,121;-1.30828857421875
3,122;-1.30828857421875
3,123;-1.30828857421875
3,124;-1.30828857421875
3,125;-1.30828857421875
3,126;-1.30859375
3,127;-1.30767822265625
3,128;-1.30859375
3,129;-1.30828857421875
3,13;-1.30828857421875
3,131;-1.30859375
3,132;-1.30828857421875
3,133;-1.30828857421875
3,134;-1.30828857421875
3,135;-1.30828857421875
3,136;-1.30859375
3,137;-1.3079833984375
3,138;-1.30889892578125
3,139;-1.30859375
3,14;-1.30889892578125
3,141;-1.30859375
3,142;-1.30828857421875
3,143;-1.30859375
3,144;-1.30859375
3,145;-1.30889892578125
3,146;-1.30859375
3,147;-1.3079833984375
3,148;-1.3079833984375
3,149;-1.30828857421875
3,15;-1.3079833984375
3,151;-1.30859375
3,152;-1.30828857421875
3,153;-1.30859375
3,154;-1.30859375
3,155;-1.30859375
3,156;-1.30828857421875
3,157;-1.30859375
3,158;-1.3079833984375
3,159;-1.30859375
3,16;-1.30889892578125
3,161;-1.30828857421875
3,162;-1.3079833984375
3,163;-1.3079833984375
3,164;-1.30889892578125
3,165;-1.30859375
3,166;-1.30859375
3,167;-1.30859375
3,168;-1.30828857421875
3,169;-1.30828857421875
3,17;-1.30828857421875
3,171;-1.30859375
3,172;-1.30889892578125
3,173;-1.30828857421875
3,174;-1.30828857421875
3,175;-1.30859375
3,176;-1.30828857421875
3,177;-1.30828857421875
3,178;-1.30828857421875
3,179;-1.30828857421875
3,18;-1.30828857421875
3,181;-1.30889892578125
3,182;-1.30828857421875
3,183;-1.30828857421875
3,184;-1.30859375
3,185;-1.30889892578125
3,186;-1.30828857421875
3,187;-1.30859375
3,188;-1.3079833984375
3,189;-1.30889892578125
3,19;-1.30828857421875
3,191;-1.30828857421875
3,192;-1.30828857421875
3,193;-1.30828857421875
3,194;-1.3079833984375
3,195;-1.30828857421875
3,196;-1.3079833984375
3,197;-1.30828857421875
3,198;-1.30859375
3,199;-1.30828857421875
3,2;-1.3079833984375
3,201;-1.30828857421875
3,202;-1.30859375
3,203;-1.30889892578125
3,204;-1.30828857421875
3,205;-1.30767822265625
3,206;-1.30828857421875
3,207;-1.30889892578125
3,208;-1.30859375
3,209;-1.30859375
3,21;-1.30828857421875
3,211;-1.30828857421875
3,212;-1.30859375
3,213;-1.30828857421875
3,214;-1.3079833984375
3,215;-1.3079833984375
3,216;-1.30828857421875
3,217;-1.30828857421875
3,218;-1.30889892578125
3,219;-1.30828857421875
3,22;-1.30859375
3,221;-1.3092041015625
3,222;-1.30889892578125
3,223;-1.3079833984375
3,224;-1.30859375
3,225;-1.30859375
3,226;-1.30889892578125
3,227;-1.30828857421875
3,228;-1.3079833984375
3,229;-1.30889892578125
3,23;-1.30859375
3,231;-1.30828857421875
3,232;-1.30889892578125
3,233;-1.30859375
3,234;-1.30859375
3,235;-1.30828857421875
3,236;-1.30859375
3,237;-1.30859375
3,238;-1.30889892578125
3,239;-1.3092041015625
3,24;-1.30828857421875
3,241;-1.30828857421875
3,242;-1.30828857421875
3,243;-1.30828857421875
3,244;-1.30859375
3,245;-1.30859375
3,246;-1.30859375
3,247;-1.30828857421875
3,248;-1.30828857421875
3,249;-1.30859375
3,25;-1.30889892578125
3,251;-1.30828857421875
3,252;-1.30828857421875
3,253;-1.30828857421875
3,254;-1.3079833984375
3,255;-1.30828857421875
3,256;-1.30859375
3,257;-1.30859375
3,258;-1.3079833984375
3,259;-1.30859375
3,26;-1.30859375
3,261;-1.30859375
3,262;-1.30828857421875
3,263;-1.30859375
3,264;-1.30889892578125
3,265;-1.3079833984375
3,266;-1.3092041015625
3,267;-1.30859375
3,268;-1.30828857421875
3,269;-1.30767822265625
3,27;-1.30859375
3,271;-1.30828857421875
3,272;-1.30889892578125
3,273;-1.30828857421875
3,274;-1.30828857421875
3,275;-1.30828857421875
3,276;-1.30859375
3,277;-1.30828857421875
3,278;-1.30859375
3,279;-1.30859375
3,28;-1.30828857421875
3,281;-1.30828857421875
3,282;-1.30828857421875
3,283;-1.30859375
3,284;-1.30859375
3,285;-1.3079833984375
3,286;-1.30859375
3,287;-1.30859375
3,288;-1.30859375
3,289;-1.30859375
3,29;-1.30859375
3,291;-1.30889892578125
3,292;-1.30828857421875
3,293;-1.30828857421875
3,294;-1.30859375
3,295;-1.30859375
3,296;-1.3092041015625
3,297;-1.3079833984375
3,298;-1.30859375
3,299;-1.30859375
3,3;-1.30859375
3,301;-1.30859375
3,302;-1.30828857421875
3,303;-1.30889892578125
3,304;-1.30859375
3,305;-1.30889892578125
3,306;-1.30828857421875
3,307;-1.30889892578125
3,308;-1.30828857421875
3,309;-1.30859375
3,31;-1.30859375
3,311;-1.30859375
3,312;-1.30828857421875
3,313;-1.30828857421875
3,314;-1.30859375
3,315;-1.30859375
3,316;-1.30859375
3,317;-1.3079833984375
3,318;-1.30828857421875
3,319;-1.30828857421875
3,32;-1.30859375
3,321;-1.30828857421875
3,322;-1.30828857421875
3,323;-1.30889892578125
3,324;-1.3079833984375
3,325;-1.30828857421875
3,326;-1.30859375
3,327;-1.30859375
3,328;-1.30889892578125
3,329;-1.30828857421875
3,33;-1.30828857421875
3,331;-1.30828857421875
3,332;-1.3079833984375
3,333;-1.30828857421875
3,334;-1.30828857421875
3,335;-1.3079833984375
3,336;-1.30859375
3,337;-1.30828857421875
3,338;-1.30828857421875
3,339;-1.30828857421875
3,34;-1.30859375
3,341;-1.30859375
3,342;-1.30828857421875
3,343;-1.30859375
3,344;-1.30859375
3,345;-1.30859375
3,346;-1.30828857421875
3,347;-1.30859375
3,348;-1.30828857421875
3,349;-1.30859375
3,35;-1.30859375
3,351;-1.3079833984375
3,352;-1.30828857421875
3,353;-1.30828857421875
3,354;-1.30859375
3,355;-1.3092041015625
3,356;-1.30889892578125
3,357;-1.3079833984375
3,358;-1.3079833984375
3,359;-1.30859375
3,36;-1.30828857421875
3,361;-1.30859375
3,362;-1.30828857421875
3,363;-1.30828857421875
3,364;-1.30828857421875
3,365;-1.30889892578125
3,366;-1.30859375
3,367;-1.30859375
3,368;-1.30889892578125
3,369;-1.30889892578125
3,37;-1.30889892578125
3,371;-1.30859375
3,372;-1.3079833984375
3,373;-1.30889892578125
3,374;-1.3092041015625
3,375;-1.30828857421875
3,376;-1.30828857421875
3,377;-1.30828857421875
3,378;-1.30828857421875
3,379;-1.30828857421875
3,38;-1.30859375
3,381;-1.30859375
3,382;-1.30859375
3,383;-1.30889892578125
3,384;-1.3079833984375
3,385;-1.30859375
3,386;-1.30859375
3,387;-1.30859375
3,388;-1.30889892578125
3,389;-1.30828857421875
3,39;-1.30828857421875
3,391;-1.30767822265625
3,392;-1.30828857421875
3,393;-1.30828857421875
3,394;-1.30889892578125
3,395;-1.3079833984375
3,396;-1.3079833984375
3,397;-1.30889892578125
3,398;-1.30950927734375
3,399;-1.3079833984375
3,4;-1.3092041015625
3,401;-1.3079833984375
3,402;-1.30859375
3,403;-1.30859375
3,404;-1.30859375
3,405;-1.30859375
3,406;-1.30859375
3,407;-1.3079833984375
3,408;-1.30859375
3,409;-1.3079833984375
3,41;-1.30859375
3,411;-1.30889892578125
3,412;-1.30889892578125
3,413;-1.30828857421875
3,414;-1.30828857421875
3,415;-1.30859375
3,416;-1.30889892578125
3,417;-1.30859375
3,418;-1.30859375
3,419;-1.30828857421875
3,42;-1.30859375
3,421;-1.3079833984375
3,422;-1.30828857421875
3,423;-1.3079833984375
3,424;-1.3092041015625
3,425;-1.3092041015625
3,426;-1.30828857421875
3,427;-1.30859375
3,428;-1.30859375
3,429;-1.30859375
3,43;-1.30828857421875
3,431;-1.30859375
3,432;-1.30859375
3,433;-1.30889892578125
3,434;-1.30828857421875
3,435;-1.30828857421875
3,436;-1.30889892578125
3,437;-1.3079833984375
3,438;-1.30859375
3,439;-1.3092041015625
3,44;-1.30828857421875
3,441;-1.30828857421875
3,442;-1.30828857421875
3,443;-1.30889892578125
3,444;-1.30859375
3,445;-1.30828857421875
3,446;-1.30889892578125
3,447;-1.30828857421875
3,448;-1.30767822265625
3,449;-1.30859375
3,45;-1.30859375
3,451;-1.30859375
3,452;-1.30889892578125
3,453;-1.30828857421875
3,454;-1.3079833984375
3,455;-1.30859375
3,456;-1.3092041015625
3,457;-1.30828857421875
3,458;-1.30859375
3,459;-1.3079833984375
3,46;-1.30828857421875
3,461;-1.30859375
3,462;-1.30859375
3,463;-1.30889892578125
3,464;-1.3092041015625
3,465;-1.30859375
3,466;-1.30889892578125
3,467;-1.30889892578125
3,468;-1.30859375
3,469;-1.30859375
3,47;-1.3079833984375
3,471;-1.30828857421875
3,472;-1.30767822265625
3,473;-1.30767822265625
3,474;-1.3079833984375
3,475;-1.30767822265625
3,476;-1.3079833984375
3,477;-1.30828857421875
3,478;-1.30828857421875
3,479;-1.30859375
3,48;-1.30828857421875
3,481;-1.30828857421875
3,482;-1.30859375
3,483;-1.30828857421875
3,484;-1.30889892578125
3,485;-1.30828857421875
3,486;-1.3079833984375
3,487;-1.30828857421875
3,488;-1.30859375
3,489;-1.30828857421875
3,49;-1.3079833984375
3,491;-1.3079833984375
3,492;-1.30828857421875
3,493;-1.30859375
3,494;-1.30828857421875
3,495;-1.3079833984375
3,496;-1.3079833984375
3,497;-1.30889892578125
3,498;-1.3079833984375
3,499;-1.30859375
3,5;-1.30828857421875
3,501;-1.30859375
3,502;-1.30828857421875
3,503;-1.30889892578125
3,504;-1.30828857421875
3,505;-1.30859375
3,506;-1.30859375
3,507;-1.30828857421875
3,508;-1.3079833984375
3,509;-1.30859375
3,51;-1.30859375
3,511;-1.30828857421875
3,512;-1.30828857421875
3,513;-1.30828857421875
3,514;-1.30767822265625
3,515;-1.30859375
3,516;-1.30859375
3,517;-1.30828857421875
3,518;-1.30828857421875
3,519;-1.30828857421875
3,52;-1.30828857421875
3,521;-1.30828857421875
3,522;-1.30859375
3,523;-1.30859375
3,524;-1.3079833984375
3,525;-1.30828857421875
3,526;-1.30828857421875
3,527;-1.30828857421875
3,528;-1.30828857421875
3,529;-1.30828857421875
3,53;-1.30889892578125
3,531;-1.30859375
3,532;-1.30828857421875
3,533;-1.30828857421875
3,534;-1.3079833984375
3,535;-1.3079833984375
3,536;-1.30859375
3,537;-1.30828857421875
3,538;-1.30828857421875
3,539;-1.30859375
3,54;-1.30828857421875
3,541;-1.3079833984375
3,542;-1.3079833984375
3,543;-1.3079833984375
3,544;-1.30859375
3,545;-1.30767822265625
3,546;-1.30859375
3,547;-1.30828857421875
3,548;-1.30767822265625
3,549;-1.3079833984375
3,55;-1.30828857421875
3,551;-1.30889892578125
3,552;-1.3079833984375
3,553;-1.30859375
3,554;-1.30828857421875
3,555;-1.30828857421875
3,556;-1.30859375
3,557;-1.30828857421875
3,558;-1.30859375
3,559;-1.3079833984375
3,56;-1.30859375
3,561;-1.3079833984375
3,562;-1.30859375
3,563;-1.30859375
3,564;-1.30828857421875
3,565;-1.3079833984375
3,566;-1.30889892578125
3,567;-1.30828857421875
3,568;-1.30828857421875
3,569;-1.3079833984375
3,57;-1.30859375
3,571;-1.30859375
3,572;-1.30828857421875
3,573;-1.30828857421875
3,574;-1.30828857421875
3,575;-1.3079833984375
3,576;-1.30859375
3,577;-1.3079833984375
3,578;-1.30828857421875
3,579;-1.30828857421875
3,58;-1.3079833984375
3,581;-1.30828857421875
3,582;-1.30859375
3,583;-1.30828857421875
3,584;-1.3079833984375
3,585;-1.3079833984375
3,586;-1.30828857421875
3,587;-1.3079833984375
3,588;-1.3079833984375
3,589;-1.3079833984375
3,59;-1.30859375
3,591;-1.3079833984375
3,592;-1.30859375
3,593;-1.30828857421875
3,594;-1.30828857421875
3,595;-1.30859375
3,596;-1.30828857421875
3,597;-1.30828857421875
3,598;-1.30859375
3,599;-1.30859375
3,6;-1.30828857421875
3,601;-1.30859375
3,602;-1.3079833984375
3,603;-1.30889892578125
3,604;-1.30859375
3,605;-1.30828857421875
3,606;-1.30828857421875
3,607;-1.30828857421875
3,608;-1.30889892578125
3,609;-1.30859375
3,61;-1.30889892578125
3,611;-1.30859375
3,612;-1.30828857421875
3,613;-1.30828857421875
3,614;-1.30828857421875
3,615;-1.30859375
3,616;-1.30828857421875
3,617;-1.30828857421875
3,618;-1.30859375
3,619;-1.30889892578125
3,62;-1.30828857421875
3,621;-1.30859375
3,622;-1.30859375
3,623;-1.30859375
3,624;-1.30828857421875
3,625;-1.30859375
3,626;-1.30889892578125
3,627;-1.30828857421875
3,628;-1.30828857421875
3,629;-1.30859375
3,63;-1.30889892578125
3,631;-1.30828857421875
3,632;-1.30828857421875
3,633;-1.30828857421875
3,634;-1.30828857421875
3,635;-1.3079833984375
3,636;-1.30767822265625
3,637;-1.30859375
3,638;-1.30828857421875
3,639;-1.3079833984375
3,64;-1.30828857421875
3,641;-1.30828857421875
3,642;-1.30859375
3,643;-1.3079833984375
3,644;-1.30828857421875
3,645;-1.30828857421875
3,646;-1.3079833984375
3,647;-1.30828857421875
3,648;-1.3079833984375
3,649;-1.30859375
3,65;-1.30859375
3,651;-1.30828857421875
3,652;-1.30859375
3,653;-1.3079833984375
3,654;-1.30859375
3,655;-1.30828857421875
3,656;-1.3079833984375
3,657;-1.30828857421875
3,658;-1.30828857421875
3,659;-1.30828857421875
3,66;-1.3079833984375
3,661;-1.30828857421875
3,662;-1.30859375
3,663;-1.30859375
3,664;-1.30859375
3,665;-1.3079833984375
3,666;-1.30859375
3,667;-1.30859375
3,668;-1.30859375
3,669;-1.3079833984375
3,67;-1.30828857421875
3,671;-1.30828857421875
3,672;-1.3079833984375
3,673;-1.30828857421875
3,674;-1.30828857421875
3,675;-1.30859375
3,676;-1.30828857421875
3,677;-1.3079833984375
3,678;-1.30828857421875
3,679;-1.30889892578125
3,68;-1.30828857421875
3,681;-1.30828857421875
3,682;-1.30859375
3,683;-1.3079833984375
3,684;-1.30828857421875
3,685;-1.3079833984375
3,686;-1.30828857421875
3,687;-1.3079833984375
3,688;-1.30828857421875
3,689;-1.30859375
3,69;-1.3079833984375
3,691;-1.30859375
3,692;-1.30767822265625
3,693;-1.30828857421875
3,694;-1.3079833984375
3,695;-1.30828857421875
3,696;-1.3079833984375
3,697;-1.3079833984375
3,698;-1.3079833984375
3,699;-1.30859375
3,7;-1.30859375
3,701;-1.3079833984375
3,702;-1.30859375
3,703;-1.30828857421875
3,704;-1.3079833984375
3,705;-1.30767822265625
3,706;-1.30828857421875
3,707;-1.30859375
3,708;-1.30859375
3,709;-1.30859375
3,71;-1.30828857421875
3,711;-1.30859375
3,712;-1.30859375
3,713;-1.3079833984375
3,714;-1.30859375
3,715;-1.3079833984375
3,716;-1.30828857421875
3,717;-1.30828857421875
3,718;-1.30767822265625
3,719;-1.30859375
3,72;-1.30828857421875
3,721;-1.3079833984375
3,722;-1.30828857421875
3,723;-1.30828857421875
3,724;-1.30828857421875
3,725;-1.30889892578125
3,726;-1.30859375
3,727;-1.30828857421875
3,728;-1.30828857421875
3,729;-1.30859375
3,73;-1.30828857421875
3,731;-1.30859375
3,732;-1.30828857421875
3,733;-1.30859375
3,734;-1.30828857421875
3,735;-1.30859375
3,736;-1.30859375
3,737;-1.30828857421875
3,738;-1.30828857421875
3,739;-1.30889892578125
3,74;-1.30859375
3,741;-1.30889892578125
3,742;-1.30859375
3,743;-1.3092041015625
3,744;-1.30828857421875
3,745;-1.30828857421875
3,746;-1.30828857421875
3,747;-1.30828857421875
3,748;-1.30828857421875
3,749;-1.30828857421875
3,75;-1.30828857421875
3,751;-1.3079833984375
3,752;-1.3079833984375
3,753;-1.30889892578125
3,754;-1.30828857421875
3,755;-1.30828857421875
3,756;-1.30828857421875
3,757;-1.30859375
3,758;-1.30828857421875
3,759;-1.3079833984375
3,76;-1.3079833984375
3,761;-1.30859375
3,762;-1.3079833984375
3,763;-1.30828857421875
3,764;-1.30828857421875
3,765;-1.3079833984375
3,766;-1.3079833984375
3,767;-1.30859375
3,768;-1.30828857421875
3,769;-1.30859375
3,77;-1.30828857421875
3,771;-1.30828857421875
3,772;-1.30828857421875
3,773;-1.30859375
3,774;-1.3079833984375
3,775;-1.30889892578125
3,776;-1.30859375
3,777;-1.30859375
3,778;-1.30828857421875
3,779;-1.30828857421875
3,78;-1.30859375
3,781;-1.30859375
3,782;-1.30859375
3,783;-1.3079833984375
3,784;-1.30828857421875
3,785;-1.30859375
3,786;-1.30828857421875
3,787;-1.30828857421875
3,788;-1.3079833984375
3,789;-1.30828857421875
3,79;-1.30828857421875
3,791;-1.30889892578125
3,792;-1.30828857421875
3,793;-1.3079833984375
3,794;-1.30859375
3,795;-1.30859375
3,796;-1.30828857421875
3,797;-1.30828857421875
3,798;-1.30859375
3,799;-1.30859375
3,8;-1.3079833984375
3,801;-1.3079833984375
3,802;-1.30859375
3,803;-1.30828857421875
3,804;-1.30828857421875
3,805;-1.3079833984375
3,806;-1.30859375
3,807;-1.30859375
3,808;-1.30828857421875
3,809;-1.30889892578125
3,81;-1.30828857421875
3,811;-1.30828857421875
3,812;-1.30859375
3,813;-1.30828857421875
3,814;-1.3079833984375
3,815;-1.30859375
3,816;-1.30859375
3,817;-1.30859375
3,818;-1.3079833984375
3,819;-1.30828857421875
3,82;-1.30828857421875
3,821;-1.30828857421875
3,822;-1.30889892578125
3,823;-1.30828857421875
3,824;-1.3079833984375
3,825;-1.30828857421875
3,826;-1.3079833984375
3,827;-1.30859375
3,828;-1.3079833984375
3,829;-1.307373046875
3,83;-1.30828857421875
3,831;-1.30859375
3,832;-1.30828857421875
3,833;-1.30828857421875
3,834;-1.30828857421875
3,835;-1.3079833984375
3,836;-1.30828857421875
3,837;-1.30889892578125
3,838;-1.30859375
3,839;-1.30828857421875
3,84;-1.30828857421875
3,841;-1.3079833984375
3,842;-1.30859375
3,843;-1.30859375
3,844;-1.30828857421875
3,845;-1.30828857421875
3,846;-1.3079833984375
3,847;-1.30859375
3,848;-1.30889892578125
3,849;-1.30828857421875
3,85;-1.30859375
3,851;-1.30828857421875
3,852;-1.30828857421875
3,853;-1.30828857421875
3,854;-1.30828857421875
3,855;-1.30859375
3,856;-1.30859375
3,857;-1.30889892578125
3,858;-1.30859375
3,859;-1.30828857421875
3,86;-1.30889892578125
3,861;-1.3079833984375
3,862;-1.30828857421875
3,863;-1.3079833984375
3,864;-1.30828857421875
3,865;-1.30859375
3,866;-1.30828857421875
3,867;-1.30828857421875
3,868;-1.30828857421875
3,869;-1.30859375
3,87;-1.30828857421875
3,871;-1.30859375
3,872;-1.30828857421875
3,873;-1.30859375
3,874;-1.30828857421875
3,875;-1.3079833984375
3,876;-1.307373046875
3,877;-1.3079833984375
3,878;-1.30859375
3,879;-1.30859375
3,88;-1.3092041015625
3,881;-1.3079833984375
3,882;-1.30859375
3,883;-1.30828857421875
3,884;-1.30828857421875
3,885;-1.30859375
3,886;-1.30859375
3,887;-1.30828857421875
3,888;-1.30828857421875
3,889;-1.3079833984375
3,89;-1.30828857421875
3,891;-1.30859375
3,892;-1.30828857421875
3,893;-1.30859375
3,894;-1.3079833984375
3,895;-1.3079833984375
3,896;-1.30859375
3,897;-1.30859375
3,898;-1.30828857421875
3,899;-1.30859375
3,9;-1.30859375
3,901;-1.30828857421875
3,902;-1.30889892578125
3,903;-1.30859375
3,904;-1.30859375
3,905;-1.30828857421875
3,906;-1.30859375
3,907;-1.30859375
3,908;-1.30828857421875
3,909;-1.30859375
3,91;-1.30828857421875
3,911;-1.30859375
3,912;-1.30828857421875
3,913;-1.30828857421875
3,914;-1.30859375
3,915;-1.30828857421875
3,916;-1.3079833984375
3,917;-1.30828857421875
3,918;-1.3092041015625
3,919;-1.30767822265625
3,92;-1.3079833984375
3,921;-1.30828857421875
3,922;-1.3079833984375
3,923;-1.30859375
3,924;-1.30889892578125
3,925;-1.30828857421875
3,926;-1.30859375
3,927;-1.3079833984375
3,928;-1.30859375
3,929;-1.30828857421875
3,93;-1.30859375
3,931;-1.30828857421875
3,932;-1.30859375
3,933;-1.30828857421875
3,934;-1.30828857421875
3,935;-1.30828857421875
3,936;-1.30859375
3,937;-1.30828857421875
3,938;-1.30889892578125
3,939;-1.30859375
3,94;-1.30889892578125
3,941;-1.30828857421875
3,942;-1.30859375
3,943;-1.3079833984375
3,944;-1.30828857421875
3,945;-1.30828857421875
3,946;-1.30859375
3,947;-1.30859375
3,948;-1.30828857421875
3,949;-1.30828857421875
3,95;-1.30828857421875
3,951;-1.30828857421875
3,952;-1.30767822265625
3,953;-1.30828857421875
3,954;-1.3079833984375
3,955;-1.30859375
3,956;-1.30828857421875
3,957;-1.30828857421875
3,958;-1.30889892578125
3,959;-1.30828857421875
3,96;-1.3079833984375
3,961;-1.3079833984375
3,962;-1.3079833984375
3,963;-1.30828857421875
3,964;-1.30828857421875
3,965;-1.30859375
3,966;-1.30859375
3,967;-1.30859375
3,968;-1.3079833984375
3,969;-1.30859375
3,97;-1.30889892578125
3,971;-1.30828857421875
3,972;-1.30828857421875
3,973;-1.30889892578125
3,974;-1.30828857421875
3,975;-1.30828857421875
3,976;-1.30828857421875
3,977;-1.30889892578125
3,978;-1.30767822265625
3,979;-1.30889892578125
3,98;-1.30859375
3,981;-1.30859375
3,982;-1.30828857421875
3,983;-1.30859375
3,984;-1.30859375
3,985;-1.30859375
3,986;-1.3079833984375
3,987;-1.30859375
3,988;-1.30889892578125
3,989;-1.30828857421875
3,99;-1.30828857421875
3,991;-1.30828857421875
3,992;-1.30828857421875
3,993;-1.30828857421875
3,994;-1.30859375
3,995;-1.3079833984375
3,996;-1.30828857421875
3,997;-1.3079833984375
3,998;-1.3079833984375
3,999;-1.30828857421875
4;-1.30828857421875
4,001;-1.30828857421875
4,002;-1.30828857421875
4,003;-1.3079833984375
4,004;-1.30889892578125
4,005;-1.30828857421875
4,006;-1.30859375
4,007;-1.30767822265625
4,008;-1.30828857421875
4,009;-1.30859375
4,01;-1.30859375
4,011;-1.30889892578125
4,012;-1.30859375
4,013;-1.30828857421875
4,014;-1.3079833984375
4,015;-1.30828857421875
4,016;-1.30828857421875
4,017;-1.30828857421875
4,018;-1.30889892578125
4,019;-1.30859375
4,02;-1.3079833984375
4,021;-1.3079833984375
4,022;-1.30859375
4,023;-1.30828857421875
4,024;-1.30828857421875
4,025;-1.30828857421875
4,026;-1.3079833984375
4,027;-1.30828857421875
4,028;-1.30828857421875
4,029;-1.30859375
4,03;-1.30859375
4,031;-1.3079833984375
4,032;-1.3079833984375
4,033;-1.3079833984375
4,034;-1.30828857421875
4,035;-1.30859375
4,036;-1.30767822265625
4,037;-1.30767822265625
4,038;-1.30828857421875
4,039;-1.30828857421875
4,04;-1.3079833984375
4,041;-1.30859375
4,042;-1.30828857421875
4,043;-1.30859375
4,044;-1.30859375
4,045;-1.3079833984375
4,046;-1.30859375
4,047;-1.30859375
4,048;-1.3079833984375
4,049;-1.30859375
4,05;-1.30828857421875
4,051;-1.30859375
4,052;-1.30828857421875
4,053;-1.30828857421875
4,054;-1.30828857421875
4,055;-1.30828857421875
4,056;-1.30889892578125
4,057;-1.3079833984375
4,058;-1.3079833984375
4,059;-1.30859375
4,06;-1.30828857421875
4,061;-1.30828857421875
4,062;-1.30828857421875
4,063;-1.30859375
4,064;-1.30828857421875
4,065;-1.30828857421875
4,066;-1.30859375
4,067;-1.30828857421875
4,068;-1.30828857421875
4,069;-1.30828857421875
4,07;-1.30828857421875
4,071;-1.30828857421875
4,072;-1.30828857421875
4,073;-1.30828857421875
4,074;-1.30859375
4,075;-1.3079833984375
4,076;-1.30828857421875
4,077;-1.30859375
4,078;-1.30859375
4,079;-1.30859375
4,08;-1.3092041015625
4,081;-1.30828857421875
4,082;-1.30828857421875
4,083;-1.30859375
4,084;-1.30828857421875
4,085;-1.30828857421875
4,086;-1.30828857421875
4,087;-1.30828857421875
4,088;-1.30828857421875
4,089;-1.30828857421875
4,09;-1.3079833984375
4,091;-1.30828857421875
4,092;-1.30889892578125
4,093;-1.30859375
4,094;-1.30828857421875
4,095;-1.30828857421875
4,096;-1.30859375
4,097;-1.30828857421875
4,098;-1.30828857421875
4,099;-1.30828857421875
4,1;-1.30889892578125
4,101;-1.30828857421875
4,102;-1.30828857421875
4,103;-1.30859375
4,104;-1.30889892578125
4,105;-1.30859375
4,106;-1.30828857421875
4,107;-1.30828857421875
4,108;-1.30859375
4,109;-1.30828857421875
4,11;-1.30889892578125
4,111;-1.3079833984375
4,112;-1.30828857421875
4,113;-1.30828857421875
4,114;-1.30828857421875
4,115;-1.30828857421875
4,116;-1.30859375
4,117;-1.3079833984375
4,118;-1.30828857421875
4,119;-1.30828857421875
4,12;-1.30828857421875
4,121;-1.30828857421875
4,122;-1.30828857421875
4,123;-1.30828857421875
4,124;-1.30859375
4,125;-1.30889892578125
4,126;-1.30828857421875
4,127;-1.30828857421875
4,128;-1.30828857421875
4,129;-1.30859375
4,13;-1.30828857421875
4,131;-1.30828857421875
4,132;-1.3079833984375
4,133;-1.30828857421875
4,134;-1.30828857421875
4,135;-1.30859375
4,136;-1.3079833984375
4,137;-1.3079833984375
4,138;-1.30828857421875
4,139;-1.30828857421875
4,14;-1.30859375
4,141;-1.30828857421875
4,142;-1.30828857421875
4,143;-1.3079833984375
4,144;-1.30859375
4,145;-1.30889892578125
4,146;-1.30828857421875
4,147;-1.3079833984375
4,148;-1.30859375
4,149;-1.30889892578125
4,15;-1.30859375
4,151;-1.30828857421875
4,152;-1.30828857421875
4,153;-1.30859375
4,154;-1.30859375
4,155;-1.30828857421875
4,156;-1.30828857421875
4,157;-1.30859375
4,158;-1.30828857421875
4,159;-1.3079833984375
4,16;-1.30828857421875
4,161;-1.3079833984375
4,162;-1.3079833984375
4,163;-1.30828857421875
4,164;-1.30767822265625
4,165;-1.30828857421875
4,166;-1.30859375
4,167;-1.30859375
4,168;-1.30828857421875
4,169;-1.30859375
4,17;-1.30828857421875
4,171;-1.30859375
4,172;-1.3079833984375
4,173;-1.30889892578125
4,174;-1.30859375
4,175;-1.30828857421875
4,176;-1.30828857421875
4,177;-1.30828857421875
4,178;-1.30828857421875
4,179;-1.30828857421875
4,18;-1.30889892578125
4,181;-1.30859375
4,182;-1.30889892578125
4,183;-1.30828857421875
4,184;-1.30828857421875
4,185;-1.3079833984375
4,186;-1.30859375
4,187;-1.30828857421875
4,188;-1.3079833984375
4,189;-1.30859375
4,19;-1.30828857421875
4,191;-1.3079833984375
4,192;-1.30859375
4,193;-1.3079833984375
4,194;-1.30859375
4,195;-1.30859375
4,196;-1.30889892578125
4,197;-1.30828857421875
4,198;-1.3079833984375
4,199;-1.3079833984375
4,2;-1.3092041015625
4,201;-1.3079833984375
4,202;-1.30859375
4,203;-1.3079833984375
4,204;-1.30767822265625
4,205;-1.3079833984375
4,206;-1.30859375
4,207;-1.30859375
4,208;-1.30828857421875
4,209;-1.30828857421875
4,21;-1.30828857421875
4,211;-1.30859375
4,212;-1.30828857421875
4,213;-1.30859375
4,214;-1.3079833984375
4,215;-1.30828857421875
4,216;-1.30859375
4,217;-1.30828857421875
4,218;-1.30859375
4,219;-1.30859375
4,22;-1.3079833984375
4,221;-1.30828857421875
4,222;-1.30859375
4,223;-1.30828857421875
4,224;-1.3079833984375
4,225;-1.30859375
4,226;-1.30859375
4,227;-1.30828857421875
4,228;-1.3079833984375
4,229;-1.30828857421875
4,23;-1.30859375
4,231;-1.30828857421875
4,232;-1.30828857421875
4,233;-1.30828857421875
4,234;-1.30767822265625
4,235;-1.30828857421875
4,236;-1.3079833984375
4,237;-1.3079833984375
4,238;-1.30889892578125
4,239;-1.30828857421875
4,24;-1.3079833984375
4,241;-1.30828857421875
4,242;-1.30828857421875
4,243;-1.30889892578125
4,244;-1.30859375
4,245;-1.30828857421875
4,246;-1.30828857421875
4,247;-1.30859375
4,248;-1.3079833984375
4,249;-1.30828857421875
4,25;-1.3079833984375
4,251;-1.30859375
4,252;-1.30889892578125
4,253;-1.30828857421875
4,254;-1.3079833984375
4,255;-1.30828857421875
4,256;-1.30828857421875
4,257;-1.30859375
4,258;-1.30828857421875
4,259;-1.30828857421875
4,26;-1.30828857421875
4,261;-1.30859375
4,262;-1.30859375
4,263;-1.3079833984375
4,264;-1.30828857421875
4,265;-1.30828857421875
4,266;-1.3079833984375
4,267;-1.30859375
4,268;-1.3079833984375
4,269;-1.3079833984375
4,27;-1.3092041015625
4,271;-1.30859375
4,272;-1.3079833984375
4,273;-1.30828857421875
4,274;-1.3079833984375
4,275;-1.30828857421875
4,276;-1.3079833984375
4,277;-1.30828857421875
4,278;-1.30828857421875
4,279;-1.30828857421875
4,28;-1.30767822265625
4,281;-1.30828857421875
4,282;-1.3079833984375
4,283;-1.30828857421875
4,284;-1.30859375
4,285;-1.3079833984375
4,286;-1.30859375
4,287;-1.30828857421875
4,288;-1.30828857421875
4,289;-1.30859375
4,29;-1.30889892578125
4,291;-1.3079833984375
4,292;-1.30828857421875
4,293;-1.30828857421875
4,294;-1.30859375
4,295;-1.307373046875
4,296;-1.3079833984375
4,297;-1.3079833984375
4,298;-1.30889892578125
4,299;-1.30859375
4,3;-1.30859375
4,301;-1.30828857421875
4,302;-1.30859375
4,303;-1.30828857421875
4,304;-1.30828857421875
4,305;-1.30859375
4,306;-1.30859375
4,307;-1.3079833984375
4,308;-1.30859375
4,309;-1.30828857421875
4,31;-1.3079833984375
4,311;-1.3079833984375
4,312;-1.30828857421875
4,313;-1.30859375
4,314;-1.30828857421875
4,315;-1.3079833984375
4,316;-1.30828857421875
4,317;-1.30828857421875
4,318;-1.30859375
4,319;-1.30828857421875
4,32;-1.30828857421875
4,321;-1.30859375
4,322;-1.30859375
4,323;-1.30828857421875
4,324;-1.30828857421875
4,325;-1.30828857421875
4,326;-1.3079833984375
4,327;-1.30828857421875
4,328;-1.30859375
4,329;-1.3079833984375
4,33;-1.30828857421875
4,331;-1.30828857421875
4,332;-1.30859375
4,333;-1.30828857421875
4,334;-1.30828857421875
4,335;-1.30859375
4,336;-1.30828857421875
4,337;-1.30828857421875
4,338;-1.30828857421875
4,339;-1.3079833984375
4,34;-1.30859375
4,341;-1.30828857421875
4,342;-1.30828857421875
4,343;-1.30828857421875
4,344;-1.30828857421875
4,345;-1.3079833984375
4,346;-1.30828857421875
4,347;-1.30889892578125
4,348;-1.3079833984375
4,349;-1.3079833984375
4,35;-1.30828857421875
4,351;-1.30828857421875
4,352;-1.30828857421875
4,353;-1.30767822265625
4,354;-1.30828857421875
4,355;-1.30828857421875
4,356;-1.3079833984375
4,357;-1.3079833984375
4,358;-1.30828857421875
4,359;-1.30828857421875
4,36;-1.30828857421875
4,361;-1.3079833984375
4,362;-1.30828857421875
4,363;-1.30828857421875
4,364;-1.30828857421875
4,365;-1.30859375
4,366;-1.30828857421875
4,367;-1.30828857421875
4,368;-1.30828857421875
4,369;-1.30828857421875
4,37;-1.30828857421875
4,371;-1.30828857421875
4,372;-1.3079833984375
4,373;-1.30859375
4,374;-1.30828857421875
4,375;-1.30859375
4,376;-1.30828857421875
4,377;-1.30859375
4,378;-1.3079833984375
4,379;-1.30859375
4,38;-1.3079833984375
4,381;-1.30828857421875
4,382;-1.3079833984375
4,383;-1.30828857421875
4,384;-1.30859375
4,385;-1.3079833984375
4,386;-1.30828857421875
4,387;-1.30828857421875
4,388;-1.30889892578125
4,389;-1.30859375
4,39;-1.30828857421875
4,391;-1.30859375
4,392;-1.30889892578125
4,393;-1.3079833984375
4,394;-1.3079833984375
4,395;-1.30828857421875
4,396;-1.30859375
4,397;-1.30828857421875
4,398;-1.30828857421875
4,399;-1.30828857421875
4,4;-1.30828857421875
4,401;-1.30859375
4,402;-1.30859375
4,403;-1.3079833984375
4,404;-1.30859375
4,405;-1.3079833984375
4,406;-1.30828857421875
4,407;-1.30859375
4,408;-1.3079833984375
4,409;-1.30859375
4,41;-1.30859375
4,411;-1.3079833984375
4,412;-1.3079833984375
4,413;-1.3079833984375
4,414;-1.30828857421875
4,415;-1.3079833984375
4,416;-1.30828857421875
4,417;-1.30828857421875
4,418;-1.3079833984375
4,419;-1.3079833984375
4,42;-1.30828857421875
4,421;-1.3079833984375
4,422;-1.30859375
4,423;-1.3079833984375
4,424;-1.30767822265625
4,425;-1.3079833984375
4,426;-1.3079833984375
4,427;-1.30859375
4,428;-1.30828857421875
4,429;-1.30828857421875
4,43;-1.30828857421875
4,431;-1.30859375
4,432;-1.30859375
4,433;-1.30828857421875
4,434;-1.30828857421875
4,435;-1.30828857421875
4,436;-1.30828857421875
4,437;-1.3079833984375
4,438;-1.30859375
4,439;-1.30828857421875
4,44;-1.3079833984375
4,441;-1.30859375
4,442;-1.3079833984375
4,443;-1.30828857421875
4,444;-1.30828857421875
4,445;-1.30767822265625
4,446;-1.3079833984375
4,447;-1.30828857421875
4,448;-1.30859375
4,449;-1.30859375
4,45;-1.30828857421875
4,451;-1.30767822265625
4,452;-1.30859375
4,453;-1.30828857421875
4,454;-1.3079833984375
4,455;-1.30889892578125
4,456;-1.30828857421875
4,457;-1.30828857421875
4,458;-1.30889892578125
4,459;-1.30859375
4,46;-1.30828857421875
4,461;-1.3079833984375
4,462;-1.30859375
4,463;-1.30828857421875
4,464;-1.30828857421875
4,465;-1.30828857421875
4,466;-1.30828857421875
4,467;-1.30889892578125
4,468;-1.30859375
4,469;-1.30859375
4,47;-1.3079833984375
4,471;-1.30859375
4,472;-1.30828857421875
4,473;-1.30828857421875
4,474;-1.3092041015625
4,475;-1.30859375
4,476;-1.3079833984375
4,477;-1.3079833984375
4,478;-1.3079833984375
4,479;-1.30859375
4,48;-1.30828857421875
4,481;-1.3079833984375
4,482;-1.30859375
4,483;-1.30828857421875
4,484;-1.30859375
4,485;-1.30828857421875
4,486;-1.30828857421875
4,487;-1.30859375
4,488;-1.30859375
4,489;-1.30859375
4,49;-1.30828857421875
4,491;-1.30859375
4,492;-1.3079833984375
4,493;-1.30828857421875
4,494;-1.30828857421875
4,495;-1.30828857421875
4,496;-1.30859375
4,497;-1.30859375
4,498;-1.3079833984375
4,499;-1.30828857421875
4,5;-1.30828857421875
4,501;-1.30859375
4,502;-1.30859375
4,503;-1.3079833984375
4,504;-1.30859375
4,505;-1.30828857421875
4,506;-1.3079833984375
4,507;-1.30859375
4,508;-1.30828857421875
4,509;-1.30889892578125
4,51;-1.30828857421875
4,511;-1.3079833984375
4,512;-1.3079833984375
4,513;-1.3079833984375
4,514;-1.30828857421875
4,515;-1.30767822265625
4,516;-1.3079833984375
4,517;-1.30859375
4,518;-1.3079833984375
4,519;-1.30828857421875
4,52;-1.30828857421875
4,521;-1.30828857421875
4,522;-1.30828857421875
4,523;-1.30767822265625
4,524;-1.30859375
4,525;-1.30889892578125
4,526;-1.30859375
4,527;-1.30859375
4,528;-1.3079833984375
4,529;-1.30828857421875
4,53;-1.30828857421875
4,531;-1.30828857421875
4,532;-1.3079833984375
4,533;-1.30859375
4,534;-1.30828857421875
4,535;-1.30828857421875
4,536;-1.30859375
4,537;-1.30828857421875
4,538;-1.3079833984375
4,539;-1.30828857421875
4,54;-1.30859375
4,541;-1.30828857421875
4,542;-1.30828857421875
4,543;-1.30828857421875
4,544;-1.30828857421875
4,545;-1.30859375
4,546;-1.30828857421875
4,547;-1.3079833984375
4,548;-1.30828857421875
4,549;-1.30889892578125
4,55;-1.30859375
4,551;-1.3079833984375
4,552;-1.30828857421875
4,553;-1.30828857421875
4,554;-1.30859375
4,555;-1.3079833984375
4,556;-1.30828857421875
4,557;-1.30859375
4,558;-1.30859375
4,559;-1.3079833984375
4,56;-1.30859375
4,561;-1.30859375
4,562;-1.30859375
4,563;-1.30828857421875
4,564;-1.30828857421875
4,565;-1.30859375
4,566;-1.30767822265625
4,567;-1.30889892578125
4,568;-1.3079833984375
4,569;-1.30859375
4,57;-1.30828857421875
4,571;-1.30828857421875
4,572;-1.30828857421875
4,573;-1.30828857421875
4,574;-1.3079833984375
4,575;-1.30828857421875
4,576;-1.30828857421875
4,577;-1.30889892578125
4,578;-1.30828857421875
4,579;-1.30828857421875
4,58;-1.3079833984375
4,581;-1.30828857421875
4,582;-1.30889892578125
4,583;-1.30859375
4,584;-1.3079833984375
4,585;-1.30828857421875
4,586;-1.30828857421875
4,587;-1.3079833984375
4,588;-1.30828857421875
4,589;-1.30828857421875
4,59;-1.3079833984375
4,591;-1.3079833984375
4,592;-1.30859375
4,593;-1.30828857421875
4,594;-1.30828857421875
4,595;-1.30828857421875
4,596;-1.30828857421875
4,597;-1.30828857421875
4,598;-1.30859375
4,599;-1.30828857421875
4,6;-1.3079833984375
4,601;-1.30828857421875
4,602;-1.3079833984375
4,603;-1.3079833984375
4,604;-1.30828857421875
4,605;-1.30767822265625
4,606;-1.30859375
4,607;-1.30889892578125
4,608;-1.3079833984375
