
;DT9804(00).A/D0.Channel 0;DT9804(00).A/D0.Channel 1;DT9804(00).A/D0.Channel 2;DT9804(00).A/D0.Channel 3;DT9804(00).A/D0.Channel 4;DT9804(00).A/D0.Channel 5;DT9804(00).A/D0.Channel 6;DT9804(00).A/D0.Channel 7;DT9804(00).A/D0.Channel 8;DT9804(00).A/D0.Channel 9;DT9804(00).A/D0.Channel 10;DT9804(00).A/D0.Channel 11;DT9804(00).A/D0.Channel 12;DT9804(00).A/D0.Channel 13;DT9804(00).A/D0.Channel 14;DT9804(00).A/D0.Channel 15
0;-2.97576904296875
0,001;-2.97454833984375
0,002;-2.97576904296875
0,003;-2.97576904296875
0,004;-2.97515869140625
0,005;-2.97515869140625
0,006;-2.9754638671875
0,007;-2.97576904296875
0,008;-2.9754638671875
0,009;-2.9754638671875
0,01;-2.97576904296875
0,011;-2.97576904296875
0,012;-2.9754638671875
0,013;-2.97576904296875
0,014;-2.9754638671875
0,015;-2.9754638671875
0,016;-2.97576904296875
0,017;-2.9754638671875
0,018;-2.97576904296875
0,019;-2.9754638671875
0,02;-2.97576904296875
0,021;-2.97515869140625
0,022;-2.9754638671875
0,023;-2.97576904296875
0,024;-2.97515869140625
0,025;-2.97515869140625
0,026;-2.97515869140625
0,027;-2.9754638671875
0,028;-2.97515869140625
0,029;-2.97515869140625
0,03;-2.9754638671875
0,031;-2.9754638671875
0,032;-2.97607421875
0,033;-2.9754638671875
0,034;-2.9754638671875
0,035;-2.97576904296875
0,036;-2.97607421875
0,037;-2.9754638671875
0,038;-2.97515869140625
0,039;-2.97515869140625
0,04;-2.97515869140625
0,041;-2.974853515625
0,042;-2.974853515625
0,043;-2.9754638671875
0,044;-2.97607421875
0,045;-2.9754638671875
0,046;-2.97515869140625
0,047;-2.97515869140625
0,048;-2.9754638671875
0,049;-2.9754638671875
0,05;-2.97576904296875
0,051;-2.97515869140625
0,052;-2.9754638671875
0,053;-2.9754638671875
0,054;-2.97576904296875
0,055;-2.9754638671875
0,056;-2.97576904296875
0,057;-2.97515869140625
0,058;-2.9754638671875
0,059;-2.9754638671875
0,06;-2.9754638671875
0,061;-2.97576904296875
0,062;-2.97515869140625
0,063;-2.9754638671875
0,064;-2.97576904296875
0,065;-2.9754638671875
0,066;-2.974853515625
0,067;-2.97515869140625
0,068;-2.9754638671875
0,069;-2.9754638671875
0,07;-2.97515869140625
0,071;-2.9754638671875
0,072;-2.97515869140625
0,073;-2.97515869140625
0,074;-2.9754638671875
0,075;-2.9754638671875
0,076;-2.9754638671875
0,077;-2.974853515625
0,078;-2.974853515625
0,079;-2.9754638671875
0,08;-2.97515869140625
0,081;-2.9754638671875
0,082;-2.97515869140625
0,083;-2.97576904296875
0,084;-2.97515869140625
0,085;-2.9754638671875
0,086;-2.9754638671875
0,087;-2.97576904296875
0,088;-2.97576904296875
0,089;-2.97576904296875
0,09;-2.9754638671875
0,091;-2.9754638671875
0,092;-2.9754638671875
0,093;-2.9754638671875
0,094;-2.97576904296875
0,095;-2.9754638671875
0,096;-2.9754638671875
0,097;-2.97515869140625
0,098;-2.97515869140625
0,099;-2.9754638671875
0,1;-2.9754638671875
0,101;-2.97515869140625
0,102;-2.9754638671875
0,103;-2.97607421875
0,104;-2.9754638671875
0,105;-2.97607421875
0,106;-2.9754638671875
0,107;-2.97515869140625
0,108;-2.97515869140625
0,109;-2.974853515625
0,11;-2.974853515625
0,111;-2.9754638671875
0,112;-2.97515869140625
0,113;-2.9754638671875
0,114;-2.9754638671875
0,115;-2.9754638671875
0,116;-2.9754638671875
0,117;-2.974853515625
0,118;-2.97576904296875
0,119;-2.97607421875
0,12;-2.97576904296875
0,121;-2.97576904296875
0,122;-2.97576904296875
0,123;-2.9754638671875
0,124;-2.97576904296875
0,125;-2.9754638671875
0,126;-2.974853515625
0,127;-2.9754638671875
0,128;-2.97607421875
0,129;-2.97576904296875
0,13;-2.97576904296875
0,131;-2.97515869140625
0,132;-2.9754638671875
0,133;-2.9754638671875
0,134;-2.9754638671875
0,135;-2.9754638671875
0,136;-2.9754638671875
0,137;-2.97515869140625
0,138;-2.97576904296875
0,139;-2.9754638671875
0,14;-2.97576904296875
0,141;-2.97515869140625
0,142;-2.97515869140625
0,143;-2.97576904296875
0,144;-2.9754638671875
0,145;-2.9754638671875
0,146;-2.9754638671875
0,147;-2.9754638671875
0,148;-2.97515869140625
0,149;-2.97515869140625
0,15;-2.9754638671875
0,151;-2.97576904296875
0,152;-2.97576904296875
0,153;-2.97576904296875
0,154;-2.974853515625
0,155;-2.97576904296875
0,156;-2.97576904296875
0,157;-2.9754638671875
0,158;-2.97515869140625
0,159;-2.97576904296875
0,16;-2.9754638671875
0,161;-2.97576904296875
0,162;-2.9754638671875
0,163;-2.97515869140625
0,164;-2.97576904296875
0,165;-2.9754638671875
0,166;-2.9754638671875
0,167;-2.97576904296875
0,168;-2.97515869140625
0,169;-2.97515869140625
0,17;-2.97515869140625
0,171;-2.97576904296875
0,172;-2.974853515625
0,173;-2.97515869140625
0,174;-2.9754638671875
0,175;-2.97515869140625
0,176;-2.974853515625
0,177;-2.97515869140625
0,178;-2.97576904296875
0,179;-2.97576904296875
0,18;-2.9754638671875
0,181;-2.97515869140625
0,182;-2.97576904296875
0,183;-2.97576904296875
0,184;-2.97576904296875
0,185;-2.9754638671875
0,186;-2.97515869140625
0,187;-2.9754638671875
0,188;-2.9754638671875
0,189;-2.97515869140625
0,19;-2.97576904296875
0,191;-2.97515869140625
0,192;-2.97576904296875
0,193;-2.97607421875
0,194;-2.97576904296875
0,195;-2.9754638671875
0,196;-2.97515869140625
0,197;-2.97607421875
0,198;-2.97576904296875
0,199;-2.9754638671875
0,2;-2.97515869140625
0,201;-2.97576904296875
0,202;-2.9754638671875
0,203;-2.97515869140625
0,204;-2.97576904296875
0,205;-2.974853515625
0,206;-2.9754638671875
0,207;-2.9754638671875
0,208;-2.97515869140625
0,209;-2.97515869140625
0,21;-2.97515869140625
0,211;-2.97515869140625
0,212;-2.9754638671875
0,213;-2.97576904296875
0,214;-2.97515869140625
0,215;-2.9754638671875
0,216;-2.9754638671875
0,217;-2.97515869140625
0,218;-2.974853515625
0,219;-2.97576904296875
0,22;-2.97576904296875
0,221;-2.9754638671875
0,222;-2.97576904296875
0,223;-2.9754638671875
0,224;-2.9754638671875
0,225;-2.97576904296875
0,226;-2.9754638671875
0,227;-2.97576904296875
0,228;-2.9754638671875
0,229;-2.9754638671875
0,23;-2.97576904296875
0,231;-2.97576904296875
0,232;-2.97576904296875
0,233;-2.9754638671875
0,234;-2.97515869140625
0,235;-2.9754638671875
0,236;-2.9754638671875
0,237;-2.97515869140625
0,238;-2.97515869140625
0,239;-2.974853515625
0,24;-2.97607421875
0,241;-2.974853515625
0,242;-2.97515869140625
0,243;-2.97454833984375
0,244;-2.97515869140625
0,245;-2.97515869140625
0,246;-2.97515869140625
0,247;-2.9754638671875
0,248;-2.97576904296875
0,249;-2.9754638671875
0,25;-2.97515869140625
0,251;-2.9754638671875
0,252;-2.97576904296875
0,253;-2.97576904296875
0,254;-2.9754638671875
0,255;-2.97576904296875
0,256;-2.9754638671875
0,257;-2.9754638671875
0,258;-2.9754638671875
0,259;-2.97576904296875
0,26;-2.9754638671875
0,261;-2.97576904296875
0,262;-2.9754638671875
0,263;-2.97515869140625
0,264;-2.97515869140625
0,265;-2.97576904296875
0,266;-2.97515869140625
0,267;-2.97515869140625
0,268;-2.9754638671875
0,269;-2.97515869140625
0,27;-2.9754638671875
0,271;-2.97515869140625
0,272;-2.9754638671875
0,273;-2.97576904296875
0,274;-2.97576904296875
0,275;-2.9754638671875
0,276;-2.9754638671875
0,277;-2.97576904296875
0,278;-2.97607421875
0,279;-2.9754638671875
0,28;-2.9754638671875
0,281;-2.9754638671875
0,282;-2.9754638671875
0,283;-2.97515869140625
0,284;-2.9754638671875
0,285;-2.97576904296875
0,286;-2.97515869140625
0,287;-2.97515869140625
0,288;-2.97515869140625
0,289;-2.97576904296875
0,29;-2.97576904296875
0,291;-2.97576904296875
0,292;-2.97576904296875
0,293;-2.97515869140625
0,294;-2.9754638671875
0,295;-2.97576904296875
0,296;-2.9754638671875
0,297;-2.9754638671875
0,298;-2.9754638671875
0,299;-2.97515869140625
0,3;-2.9754638671875
0,301;-2.9754638671875
0,302;-2.9754638671875
0,303;-2.9754638671875
0,304;-2.9754638671875
0,305;-2.97576904296875
0,306;-2.97515869140625
0,307;-2.97576904296875
0,308;-2.97515869140625
0,309;-2.97607421875
0,31;-2.9754638671875
0,311;-2.97515869140625
0,312;-2.97515869140625
0,313;-2.9754638671875
0,314;-2.97515869140625
0,315;-2.97515869140625
0,316;-2.97576904296875
0,317;-2.97607421875
0,318;-2.974853515625
0,319;-2.97515869140625
0,32;-2.97576904296875
0,321;-2.97515869140625
0,322;-2.97576904296875
0,323;-2.974853515625
0,324;-2.97576904296875
0,325;-2.97576904296875
0,326;-2.9754638671875
0,327;-2.97515869140625
0,328;-2.9754638671875
0,329;-2.97607421875
0,33;-2.97637939453125
0,331;-2.97576904296875
0,332;-2.9754638671875
0,333;-2.97576904296875
0,334;-2.9754638671875
0,335;-2.97576904296875
0,336;-2.97576904296875
0,337;-2.9754638671875
0,338;-2.9754638671875
0,339;-2.9754638671875
0,34;-2.97576904296875
0,341;-2.97576904296875
0,342;-2.97515869140625
0,343;-2.9754638671875
0,344;-2.97515869140625
0,345;-2.97576904296875
0,346;-2.97576904296875
0,347;-2.9754638671875
0,348;-2.97515869140625
0,349;-2.97515869140625
0,35;-2.97576904296875
0,351;-2.974853515625
0,352;-2.97515869140625
0,353;-2.974853515625
0,354;-2.97607421875
0,355;-2.97576904296875
0,356;-2.97515869140625
0,357;-2.9754638671875
0,358;-2.97576904296875
0,359;-2.97607421875
0,36;-2.9754638671875
0,361;-2.9754638671875
0,362;-2.9754638671875
0,363;-2.97576904296875
0,364;-2.97515869140625
0,365;-2.9754638671875
0,366;-2.9754638671875
0,367;-2.97515869140625
0,368;-2.97576904296875
0,369;-2.974853515625
0,37;-2.97515869140625
0,371;-2.9754638671875
0,372;-2.9754638671875
0,373;-2.9754638671875
0,374;-2.97607421875
0,375;-2.97576904296875
0,376;-2.9754638671875
0,377;-2.97576904296875
0,378;-2.97607421875
0,379;-2.9754638671875
0,38;-2.97607421875
0,381;-2.974853515625
0,382;-2.97576904296875
0,383;-2.97576904296875
0,384;-2.9754638671875
0,385;-2.97515869140625
0,386;-2.9754638671875
0,387;-2.9754638671875
0,388;-2.97515869140625
0,389;-2.97576904296875
0,39;-2.97576904296875
0,391;-2.97576904296875
0,392;-2.97515869140625
0,393;-2.9754638671875
0,394;-2.9754638671875
0,395;-2.97576904296875
0,396;-2.97607421875
0,397;-2.97515869140625
0,398;-2.97576904296875
0,399;-2.97515869140625
0,4;-2.9754638671875
0,401;-2.9754638671875
0,402;-2.97515869140625
0,403;-2.9754638671875
0,404;-2.9754638671875
0,405;-2.9754638671875
0,406;-2.9754638671875
0,407;-2.97576904296875
0,408;-2.9754638671875
0,409;-2.97576904296875
0,41;-2.9754638671875
0,411;-2.97576904296875
0,412;-2.9754638671875
0,413;-2.9754638671875
0,414;-2.9754638671875
0,415;-2.9754638671875
0,416;-2.97576904296875
0,417;-2.974853515625
0,418;-2.9754638671875
0,419;-2.97515869140625
0,42;-2.9754638671875
0,421;-2.9754638671875
0,422;-2.9754638671875
0,423;-2.9754638671875
0,424;-2.9754638671875
0,425;-2.97576904296875
0,426;-2.97515869140625
0,427;-2.97576904296875
0,428;-2.974853515625
0,429;-2.97576904296875
0,43;-2.97607421875
0,431;-2.9754638671875
0,432;-2.97515869140625
0,433;-2.97576904296875
0,434;-2.97515869140625
0,435;-2.97576904296875
0,436;-2.9754638671875
0,437;-2.97576904296875
0,438;-2.97576904296875
0,439;-2.9754638671875
0,44;-2.97515869140625
0,441;-2.97576904296875
0,442;-2.97576904296875
0,443;-2.97576904296875
0,444;-2.97515869140625
0,445;-2.9754638671875
0,446;-2.97576904296875
0,447;-2.97515869140625
0,448;-2.9754638671875
0,449;-2.97576904296875
0,45;-2.97576904296875
0,451;-2.9754638671875
0,452;-2.974853515625
0,453;-2.9754638671875
0,454;-2.97515869140625
0,455;-2.9754638671875
0,456;-2.9754638671875
0,457;-2.97515869140625
0,458;-2.974853515625
0,459;-2.97515869140625
0,46;-2.97576904296875
0,461;-2.97515869140625
0,462;-2.97607421875
0,463;-2.9754638671875
0,464;-2.9754638671875
0,465;-2.97515869140625
0,466;-2.9754638671875
0,467;-2.9754638671875
0,468;-2.97576904296875
0,469;-2.97576904296875
0,47;-2.97576904296875
0,471;-2.9754638671875
0,472;-2.9754638671875
0,473;-2.974853515625
0,474;-2.9754638671875
0,475;-2.97515869140625
0,476;-2.9754638671875
0,477;-2.9754638671875
0,478;-2.974853515625
0,479;-2.97515869140625
0,48;-2.9754638671875
0,481;-2.9754638671875
0,482;-2.9754638671875
0,483;-2.9754638671875
0,484;-2.9754638671875
0,485;-2.97576904296875
0,486;-2.97515869140625
0,487;-2.97515869140625
0,488;-2.974853515625
0,489;-2.9754638671875
0,49;-2.97576904296875
0,491;-2.9754638671875
0,492;-2.9754638671875
0,493;-2.9754638671875
0,494;-2.9754638671875
0,495;-2.97576904296875
0,496;-2.9754638671875
0,497;-2.9754638671875
0,498;-2.97515869140625
0,499;-2.97576904296875
0,5;-2.97576904296875
0,501;-2.9754638671875
0,502;-2.9754638671875
0,503;-2.9754638671875
0,504;-2.97607421875
0,505;-2.97576904296875
0,506;-2.97576904296875
0,507;-2.9754638671875
0,508;-2.97576904296875
0,509;-2.9754638671875
0,51;-2.9754638671875
0,511;-2.97576904296875
0,512;-2.9754638671875
0,513;-2.9754638671875
0,514;-2.97515869140625
0,515;-2.9754638671875
0,516;-2.97607421875
0,517;-2.97576904296875
0,518;-2.97515869140625
0,519;-2.9754638671875
0,52;-2.97607421875
0,521;-2.97515869140625
0,522;-2.9754638671875
0,523;-2.9754638671875
0,524;-2.9754638671875
0,525;-2.9754638671875
0,526;-2.97607421875
0,527;-2.9754638671875
0,528;-2.9754638671875
0,529;-2.97515869140625
0,53;-2.97576904296875
0,531;-2.97607421875
0,532;-2.97576904296875
0,533;-2.9754638671875
0,534;-2.97576904296875
0,535;-2.97576904296875
0,536;-2.97576904296875
0,537;-2.97576904296875
0,538;-2.97576904296875
0,539;-2.9754638671875
0,54;-2.9754638671875
0,541;-2.97576904296875
0,542;-2.9754638671875
0,543;-2.97576904296875
0,544;-2.97515869140625
0,545;-2.97576904296875
0,546;-2.9754638671875
0,547;-2.97576904296875
0,548;-2.9754638671875
0,549;-2.9754638671875
0,55;-2.97515869140625
0,551;-2.97515869140625
0,552;-2.97515869140625
0,553;-2.974853515625
0,554;-2.97576904296875
0,555;-2.9754638671875
0,556;-2.9754638671875
0,557;-2.97576904296875
0,558;-2.9754638671875
0,559;-2.97576904296875
0,56;-2.97576904296875
0,561;-2.97576904296875
0,562;-2.9754638671875
0,563;-2.97576904296875
0,564;-2.97576904296875
0,565;-2.97576904296875
0,566;-2.9754638671875
0,567;-2.97607421875
0,568;-2.97515869140625
0,569;-2.97576904296875
0,57;-2.97515869140625
0,571;-2.97637939453125
0,572;-2.9754638671875
0,573;-2.97576904296875
0,574;-2.9754638671875
0,575;-2.97576904296875
0,576;-2.97576904296875
0,577;-2.97576904296875
0,578;-2.9754638671875
0,579;-2.9754638671875
0,58;-2.9754638671875
0,581;-2.97576904296875
0,582;-2.97576904296875
0,583;-2.97515869140625
0,584;-2.97576904296875
0,585;-2.9754638671875
0,586;-2.9754638671875
0,587;-2.97515869140625
0,588;-2.97607421875
0,589;-2.9754638671875
0,59;-2.9754638671875
0,591;-2.9754638671875
0,592;-2.97576904296875
0,593;-2.97576904296875
0,594;-2.97515869140625
0,595;-2.9754638671875
0,596;-2.97576904296875
0,597;-2.97607421875
0,598;-2.9754638671875
0,599;-2.9754638671875
0,6;-2.9754638671875
0,601;-2.97515869140625
0,602;-2.9754638671875
0,603;-2.97515869140625
0,604;-2.9754638671875
0,605;-2.9754638671875
0,606;-2.97576904296875
0,607;-2.97515869140625
0,608;-2.9754638671875
0,609;-2.9754638671875
0,61;-2.9754638671875
0,611;-2.97576904296875
0,612;-2.97515869140625
0,613;-2.9754638671875
0,614;-2.9754638671875
0,615;-2.97576904296875
0,616;-2.97576904296875
0,617;-2.97576904296875
0,618;-2.9754638671875
0,619;-2.9754638671875
0,62;-2.9754638671875
0,621;-2.9754638671875
0,622;-2.9754638671875
0,623;-2.974853515625
0,624;-2.9754638671875
0,625;-2.9754638671875
0,626;-2.97515869140625
0,627;-2.97576904296875
0,628;-2.9754638671875
0,629;-2.97515869140625
0,63;-2.9754638671875
0,631;-2.97515869140625
0,632;-2.97515869140625
0,633;-2.9754638671875
0,634;-2.97576904296875
0,635;-2.97576904296875
0,636;-2.97576904296875
0,637;-2.97607421875
0,638;-2.97515869140625
0,639;-2.9754638671875
0,64;-2.974853515625
0,641;-2.97515869140625
0,642;-2.9754638671875
0,643;-2.9754638671875
0,644;-2.9754638671875
0,645;-2.9754638671875
0,646;-2.9754638671875
0,647;-2.97515869140625
0,648;-2.97576904296875
0,649;-2.97576904296875
0,65;-2.97576904296875
0,651;-2.97576904296875
0,652;-2.97576904296875
0,653;-2.9754638671875
0,654;-2.9754638671875
0,655;-2.97576904296875
0,656;-2.97515869140625
0,657;-2.97576904296875
0,658;-2.97576904296875
0,659;-2.9754638671875
0,66;-2.9754638671875
0,661;-2.9754638671875
0,662;-2.97515869140625
0,663;-2.9754638671875
0,664;-2.9754638671875
0,665;-2.9754638671875
0,666;-2.97576904296875
0,667;-2.97515869140625
0,668;-2.9754638671875
0,669;-2.9754638671875
0,67;-2.974853515625
0,671;-2.97576904296875
0,672;-2.9754638671875
0,673;-2.97576904296875
0,674;-2.9754638671875
0,675;-2.97515869140625
0,676;-2.9754638671875
0,677;-2.97576904296875
0,678;-2.9754638671875
0,679;-2.9754638671875
0,68;-2.9754638671875
0,681;-2.97607421875
0,682;-2.9754638671875
0,683;-2.97576904296875
0,684;-2.97607421875
0,685;-2.9754638671875
0,686;-2.9754638671875
0,687;-2.97576904296875
0,688;-2.9754638671875
0,689;-2.97576904296875
0,69;-2.9754638671875
0,691;-2.97607421875
0,692;-2.97576904296875
0,693;-2.97576904296875
0,694;-2.9754638671875
0,695;-2.9754638671875
0,696;-2.9754638671875
0,697;-2.97515869140625
0,698;-2.9754638671875
0,699;-2.97576904296875
0,7;-2.9754638671875
0,701;-2.9754638671875
0,702;-2.9754638671875
0,703;-2.97576904296875
0,704;-2.9754638671875
0,705;-2.97576904296875
0,706;-2.97515869140625
0,707;-2.97576904296875
0,708;-2.9754638671875
0,709;-2.97576904296875
0,71;-2.97576904296875
0,711;-2.97607421875
0,712;-2.9754638671875
0,713;-2.9754638671875
0,714;-2.97576904296875
0,715;-2.9754638671875
0,716;-2.9754638671875
0,717;-2.9754638671875
0,718;-2.9754638671875
0,719;-2.97515869140625
0,72;-2.9754638671875
0,721;-2.97576904296875
0,722;-2.9754638671875
0,723;-2.97576904296875
0,724;-2.9754638671875
0,725;-2.9754638671875
0,726;-2.97607421875
0,727;-2.97576904296875
0,728;-2.9754638671875
0,729;-2.9754638671875
0,73;-2.9754638671875
0,731;-2.97576904296875
0,732;-2.97515869140625
0,733;-2.97576904296875
0,734;-2.97576904296875
0,735;-2.97637939453125
0,736;-2.9754638671875
0,737;-2.97576904296875
0,738;-2.97515869140625
0,739;-2.9754638671875
0,74;-2.9754638671875
0,741;-2.97515869140625
0,742;-2.97576904296875
0,743;-2.9754638671875
0,744;-2.97607421875
0,745;-2.97515869140625
0,746;-2.97576904296875
0,747;-2.974853515625
0,748;-2.9754638671875
0,749;-2.97576904296875
0,75;-2.9754638671875
0,751;-2.9754638671875
0,752;-2.97576904296875
0,753;-2.97515869140625
0,754;-2.9754638671875
0,755;-2.97607421875
0,756;-2.9754638671875
0,757;-2.97607421875
0,758;-2.97576904296875
0,759;-2.97607421875
0,76;-2.974853515625
0,761;-2.9754638671875
0,762;-2.97576904296875
0,763;-2.9754638671875
0,764;-2.9754638671875
0,765;-2.9754638671875
0,766;-2.97576904296875
0,767;-2.9754638671875
0,768;-2.9754638671875
0,769;-2.97515869140625
0,77;-2.9754638671875
0,771;-2.9754638671875
0,772;-2.97576904296875
0,773;-2.9754638671875
0,774;-2.97515869140625
0,775;-2.97607421875
0,776;-2.97515869140625
0,777;-2.97576904296875
0,778;-2.9754638671875
0,779;-2.97607421875
0,78;-2.97607421875
0,781;-2.9754638671875
0,782;-2.97576904296875
0,783;-2.97607421875
0,784;-2.97607421875
0,785;-2.9754638671875
0,786;-2.9754638671875
0,787;-2.97576904296875
0,788;-2.97576904296875
0,789;-2.97576904296875
0,79;-2.97576904296875
0,791;-2.97637939453125
0,792;-2.97576904296875
0,793;-2.97515869140625
0,794;-2.9754638671875
0,795;-2.97576904296875
0,796;-2.97576904296875
0,797;-2.97576904296875
0,798;-2.97576904296875
0,799;-2.97576904296875
0,8;-2.97607421875
0,801;-2.97607421875
0,802;-2.9754638671875
0,803;-2.9754638671875
0,804;-2.97576904296875
0,805;-2.97576904296875
0,806;-2.97515869140625
0,807;-2.97515869140625
0,808;-2.97576904296875
0,809;-2.97607421875
0,81;-2.9754638671875
0,811;-2.97576904296875
0,812;-2.97576904296875
0,813;-2.97576904296875
0,814;-2.9754638671875
0,815;-2.97576904296875
0,816;-2.97576904296875
0,817;-2.97607421875
0,818;-2.97607421875
0,819;-2.97576904296875
0,82;-2.9754638671875
0,821;-2.97576904296875
0,822;-2.9754638671875
0,823;-2.97607421875
0,824;-2.9754638671875
0,825;-2.9754638671875
0,826;-2.9754638671875
0,827;-2.97576904296875
0,828;-2.97607421875
0,829;-2.97515869140625
0,83;-2.97607421875
0,831;-2.9754638671875
0,832;-2.97576904296875
0,833;-2.97576904296875
0,834;-2.9754638671875
0,835;-2.9754638671875
0,836;-2.9754638671875
0,837;-2.97576904296875
0,838;-2.97576904296875
0,839;-2.97607421875
0,84;-2.97576904296875
0,841;-2.97576904296875
0,842;-2.9754638671875
0,843;-2.97576904296875
0,844;-2.97576904296875
0,845;-2.9754638671875
0,846;-2.97607421875
0,847;-2.97576904296875
0,848;-2.974853515625
0,849;-2.97637939453125
0,85;-2.97607421875
0,851;-2.97576904296875
0,852;-2.9754638671875
0,853;-2.97607421875
0,854;-2.97607421875
0,855;-2.9754638671875
0,856;-2.97576904296875
0,857;-2.97515869140625
0,858;-2.97515869140625
0,859;-2.9754638671875
0,86;-2.97576904296875
0,861;-2.97576904296875
0,862;-2.97576904296875
0,863;-2.97607421875
0,864;-2.97576904296875
0,865;-2.9754638671875
0,866;-2.97576904296875
0,867;-2.9754638671875
0,868;-2.97637939453125
0,869;-2.9754638671875
0,87;-2.9754638671875
0,871;-2.974853515625
0,872;-2.97576904296875
0,873;-2.9754638671875
0,874;-2.97607421875
0,875;-2.97576904296875
0,876;-2.9754638671875
0,877;-2.9754638671875
0,878;-2.97607421875
0,879;-2.97576904296875
0,88;-2.97576904296875
0,881;-2.97576904296875
0,882;-2.9754638671875
0,883;-2.97576904296875
0,884;-2.97576904296875
0,885;-2.97607421875
0,886;-2.97607421875
0,887;-2.9754638671875
0,888;-2.9754638671875
0,889;-2.9754638671875
0,89;-2.97607421875
0,891;-2.97607421875
0,892;-2.9754638671875
0,893;-2.97515869140625
0,894;-2.97576904296875
0,895;-2.974853515625
0,896;-2.97576904296875
0,897;-2.97515869140625
0,898;-2.97576904296875
0,899;-2.9754638671875
0,9;-2.97576904296875
0,901;-2.97607421875
0,902;-2.97576904296875
0,903;-2.9754638671875
0,904;-2.9754638671875
0,905;-2.97576904296875
0,906;-2.9754638671875
0,907;-2.9754638671875
0,908;-2.97576904296875
0,909;-2.97576904296875
0,91;-2.9754638671875
0,911;-2.9754638671875
0,912;-2.97607421875
0,913;-2.9754638671875
0,914;-2.9754638671875
0,915;-2.9754638671875
0,916;-2.9754638671875
0,917;-2.97576904296875
0,918;-2.97576904296875
0,919;-2.97576904296875
0,92;-2.97515869140625
0,921;-2.97607421875
0,922;-2.9754638671875
0,923;-2.97607421875
0,924;-2.97515869140625
0,925;-2.97576904296875
0,926;-2.9754638671875
0,927;-2.97576904296875
0,928;-2.974853515625
0,929;-2.9754638671875
0,93;-2.97576904296875
0,931;-2.9754638671875
0,932;-2.9754638671875
0,933;-2.9754638671875
0,934;-2.97576904296875
0,935;-2.97576904296875
0,936;-2.97576904296875
0,937;-2.9754638671875
0,938;-2.9754638671875
0,939;-2.97607421875
0,94;-2.97576904296875
0,941;-2.97576904296875
0,942;-2.9754638671875
0,943;-2.97576904296875
0,944;-2.97607421875
0,945;-2.97576904296875
0,946;-2.97607421875
0,947;-2.97607421875
0,948;-2.97607421875
0,949;-2.97607421875
0,95;-2.9754638671875
0,951;-2.97637939453125
0,952;-2.9754638671875
0,953;-2.9754638671875
0,954;-2.9754638671875
0,955;-2.97607421875
0,956;-2.97576904296875
0,957;-2.97515869140625
0,958;-2.97576904296875
0,959;-2.97607421875
0,96;-2.9754638671875
0,961;-2.9754638671875
0,962;-2.97576904296875
0,963;-2.97576904296875
0,964;-2.97607421875
0,965;-2.97576904296875
0,966;-2.97576904296875
0,967;-2.97607421875
0,968;-2.97576904296875
0,969;-2.97607421875
0,97;-2.97607421875
0,971;-2.97607421875
0,972;-2.97576904296875
0,973;-2.9754638671875
0,974;-2.9754638671875
0,975;-2.97607421875
0,976;-2.9754638671875
0,977;-2.97607421875
0,978;-2.9754638671875
0,979;-2.97576904296875
0,98;-2.97637939453125
0,981;-2.9754638671875
0,982;-2.97607421875
0,983;-2.97576904296875
0,984;-2.97576904296875
0,985;-2.9754638671875
0,986;-2.97576904296875
0,987;-2.97607421875
0,988;-2.9754638671875
0,989;-2.97576904296875
0,99;-2.97637939453125
0,991;-2.97576904296875
0,992;-2.97607421875
0,993;-2.97607421875
0,994;-2.9754638671875
0,995;-2.97576904296875
0,996;-2.9754638671875
0,997;-2.97515869140625
0,998;-2.97576904296875
0,999;-2.9754638671875
1;-2.9754638671875
1,001;-2.97576904296875
1,002;-2.9754638671875
1,003;-2.97576904296875
1,004;-2.97607421875
1,005;-2.9754638671875
1,006;-2.97607421875
1,007;-2.9754638671875
1,008;-2.97576904296875
1,009;-2.97576904296875
1,01;-2.9754638671875
1,011;-2.97607421875
1,012;-2.97576904296875
1,013;-2.97576904296875
1,014;-2.97607421875
1,015;-2.97576904296875
1,016;-2.9754638671875
1,017;-2.9754638671875
1,018;-2.9754638671875
1,019;-2.9754638671875
1,02;-2.9754638671875
1,021;-2.97576904296875
1,022;-2.97576904296875
1,023;-2.97607421875
1,024;-2.9754638671875
1,025;-2.97576904296875
1,026;-2.9754638671875
1,027;-2.9754638671875
1,028;-2.9754638671875
1,029;-2.97607421875
1,03;-2.97607421875
1,031;-2.9754638671875
1,032;-2.97515869140625
1,033;-2.97576904296875
1,034;-2.97607421875
1,035;-2.97607421875
1,036;-2.9754638671875
1,037;-2.97637939453125
1,038;-2.97607421875
1,039;-2.97576904296875
1,04;-2.9754638671875
1,041;-2.97576904296875
1,042;-2.97576904296875
1,043;-2.97576904296875
1,044;-2.97576904296875
1,045;-2.97576904296875
1,046;-2.9754638671875
1,047;-2.9754638671875
1,048;-2.97607421875
1,049;-2.9754638671875
1,05;-2.9754638671875
1,051;-2.9754638671875
1,052;-2.97637939453125
1,053;-2.97576904296875
1,054;-2.97576904296875
1,055;-2.97576904296875
1,056;-2.97576904296875
1,057;-2.9754638671875
1,058;-2.97607421875
1,059;-2.97576904296875
1,06;-2.9754638671875
1,061;-2.97576904296875
1,062;-2.9754638671875
1,063;-2.9754638671875
1,064;-2.97607421875
1,065;-2.9754638671875
1,066;-2.97576904296875
1,067;-2.97515869140625
1,068;-2.9754638671875
1,069;-2.9754638671875
1,07;-2.9754638671875
1,071;-2.97576904296875
1,072;-2.97637939453125
1,073;-2.97607421875
1,074;-2.97576904296875
1,075;-2.97607421875
1,076;-2.97576904296875
1,077;-2.97607421875
1,078;-2.9754638671875
1,079;-2.97576904296875
1,08;-2.97576904296875
1,081;-2.97607421875
1,082;-2.97576904296875
1,083;-2.97576904296875
1,084;-2.9754638671875
1,085;-2.9754638671875
1,086;-2.9754638671875
1,087;-2.97515869140625
1,088;-2.97576904296875
1,089;-2.97576904296875
1,09;-2.97576904296875
1,091;-2.97576904296875
1,092;-2.97576904296875
1,093;-2.97576904296875
1,094;-2.9754638671875
1,095;-2.9754638671875
1,096;-2.97576904296875
1,097;-2.97576904296875
1,098;-2.97576904296875
1,099;-2.97607421875
1,1;-2.97576904296875
1,101;-2.97576904296875
1,102;-2.97576904296875
1,103;-2.97607421875
1,104;-2.9754638671875
1,105;-2.97576904296875
1,106;-2.97576904296875
1,107;-2.97576904296875
1,108;-2.97637939453125
1,109;-2.97576904296875
1,11;-2.97576904296875
1,111;-2.97607421875
1,112;-2.97607421875
1,113;-2.9754638671875
1,114;-2.97607421875
1,115;-2.9754638671875
1,116;-2.97607421875
1,117;-2.97576904296875
1,118;-2.97576904296875
1,119;-2.9754638671875
1,12;-2.97637939453125
1,121;-2.97576904296875
1,122;-2.97607421875
1,123;-2.9754638671875
1,124;-2.97637939453125
1,125;-2.97576904296875
1,126;-2.97576904296875
1,127;-2.97515869140625
1,128;-2.9754638671875
1,129;-2.97576904296875
1,13;-2.97607421875
1,131;-2.97607421875
1,132;-2.97576904296875
1,133;-2.97576904296875
1,134;-2.97576904296875
1,135;-2.9754638671875
1,136;-2.97576904296875
1,137;-2.97576904296875
1,138;-2.9754638671875
1,139;-2.97607421875
1,14;-2.97607421875
1,141;-2.97576904296875
1,142;-2.97576904296875
1,143;-2.97576904296875
1,144;-2.9754638671875
1,145;-2.97576904296875
1,146;-2.97576904296875
1,147;-2.9754638671875
1,148;-2.9754638671875
1,149;-2.9754638671875
1,15;-2.97576904296875
1,151;-2.9754638671875
1,152;-2.9754638671875
1,153;-2.97607421875
1,154;-2.9754638671875
1,155;-2.97607421875
1,156;-2.97576904296875
1,157;-2.97607421875
1,158;-2.9754638671875
1,159;-2.97576904296875
1,16;-2.97576904296875
1,161;-2.97576904296875
1,162;-2.974853515625
1,163;-2.97607421875
1,164;-2.97607421875
1,165;-2.97576904296875
1,166;-2.97607421875
1,167;-2.97576904296875
1,168;-2.9754638671875
1,169;-2.9754638671875
1,17;-2.97607421875
1,171;-2.97515869140625
1,172;-2.97576904296875
1,173;-2.97576904296875
1,174;-2.97576904296875
1,175;-2.97576904296875
1,176;-2.97637939453125
1,177;-2.9754638671875
1,178;-2.97576904296875
1,179;-2.97607421875
1,18;-2.97576904296875
1,181;-2.97637939453125
1,182;-2.9754638671875
1,183;-2.97576904296875
1,184;-2.97576904296875
1,185;-2.97576904296875
1,186;-2.97576904296875
1,187;-2.9754638671875
1,188;-2.97576904296875
1,189;-2.97515869140625
1,19;-2.9754638671875
1,191;-2.97576904296875
1,192;-2.9754638671875
1,193;-2.97515869140625
1,194;-2.97576904296875
1,195;-2.97515869140625
1,196;-2.9754638671875
1,197;-2.97576904296875
1,198;-2.97607421875
1,199;-2.97637939453125
1,2;-2.97637939453125
1,201;-2.97576904296875
1,202;-2.9754638671875
1,203;-2.9754638671875
1,204;-2.9754638671875
1,205;-2.97576904296875
1,206;-2.97607421875
1,207;-2.9754638671875
1,208;-2.9754638671875
1,209;-2.9754638671875
1,21;-2.97576904296875
1,211;-2.9754638671875
1,212;-2.97576904296875
1,213;-2.97607421875
1,214;-2.9754638671875
1,215;-2.97576904296875
1,216;-2.9754638671875
1,217;-2.9754638671875
1,218;-2.97576904296875
1,219;-2.97576904296875
1,22;-2.97515869140625
1,221;-2.9754638671875
1,222;-2.9754638671875
1,223;-2.97515869140625
1,224;-2.97576904296875
1,225;-2.97576904296875
1,226;-2.97576904296875
1,227;-2.9754638671875
1,228;-2.97515869140625
1,229;-2.97576904296875
1,23;-2.97576904296875
1,231;-2.97576904296875
1,232;-2.97637939453125
1,233;-2.97576904296875
1,234;-2.97576904296875
1,235;-2.9754638671875
1,236;-2.97576904296875
1,237;-2.97576904296875
1,238;-2.97576904296875
1,239;-2.97637939453125
1,24;-2.97576904296875
1,241;-2.9754638671875
1,242;-2.9754638671875
1,243;-2.97637939453125
1,244;-2.97576904296875
1,245;-2.97515869140625
1,246;-2.9754638671875
1,247;-2.97607421875
1,248;-2.97576904296875
1,249;-2.97607421875
1,25;-2.97607421875
1,251;-2.97607421875
1,252;-2.97576904296875
1,253;-2.9754638671875
1,254;-2.97576904296875
1,255;-2.9754638671875
1,256;-2.97576904296875
1,257;-2.97607421875
1,258;-2.97607421875
1,259;-2.97576904296875
1,26;-2.9754638671875
1,261;-2.9754638671875
1,262;-2.97576904296875
1,263;-2.97607421875
1,264;-2.97607421875
1,265;-2.97576904296875
1,266;-2.97576904296875
1,267;-2.97607421875
1,268;-2.97576904296875
1,269;-2.9754638671875
1,27;-2.9754638671875
1,271;-2.97637939453125
1,272;-2.97607421875
1,273;-2.97576904296875
1,274;-2.97576904296875
1,275;-2.97576904296875
1,276;-2.97607421875
1,277;-2.97607421875
1,278;-2.97576904296875
1,279;-2.9754638671875
1,28;-2.9754638671875
1,281;-2.97576904296875
1,282;-2.9754638671875
1,283;-2.97607421875
1,284;-2.97576904296875
1,285;-2.97607421875
1,286;-2.9754638671875
1,287;-2.97576904296875
1,288;-2.97576904296875
1,289;-2.97607421875
1,29;-2.97576904296875
1,291;-2.9754638671875
1,292;-2.97576904296875
1,293;-2.97637939453125
1,294;-2.9754638671875
1,295;-2.97607421875
1,296;-2.97576904296875
1,297;-2.97576904296875
1,298;-2.9754638671875
1,299;-2.97607421875
1,3;-2.9754638671875
1,301;-2.9754638671875
1,302;-2.97607421875
1,303;-2.97607421875
1,304;-2.9754638671875
1,305;-2.9754638671875
1,306;-2.97576904296875
1,307;-2.97607421875
1,308;-2.9754638671875
1,309;-2.97607421875
1,31;-2.97607421875
1,311;-2.97576904296875
1,312;-2.97576904296875
1,313;-2.97576904296875
1,314;-2.97607421875
1,315;-2.97576904296875
1,316;-2.97576904296875
1,317;-2.97576904296875
1,318;-2.97576904296875
1,319;-2.97607421875
1,32;-2.97607421875
1,321;-2.9754638671875
1,322;-2.97576904296875
1,323;-2.97607421875
1,324;-2.97607421875
1,325;-2.97576904296875
1,326;-2.97576904296875
1,327;-2.97576904296875
1,328;-2.97607421875
1,329;-2.97607421875
1,33;-2.97607421875
1,331;-2.97576904296875
1,332;-2.97607421875
1,333;-2.97576904296875
1,334;-2.97576904296875
1,335;-2.97607421875
1,336;-2.97576904296875
1,337;-2.97576904296875
1,338;-2.97576904296875
1,339;-2.97576904296875
1,34;-2.9754638671875
1,341;-2.97607421875
1,342;-2.97607421875
1,343;-2.97576904296875
1,344;-2.97576904296875
1,345;-2.97607421875
1,346;-2.97607421875
1,347;-2.97576904296875
1,348;-2.97576904296875
1,349;-2.9754638671875
1,35;-2.97576904296875
1,351;-2.97576904296875
1,352;-2.97607421875
1,353;-2.97576904296875
1,354;-2.9754638671875
1,355;-2.97576904296875
1,356;-2.97576904296875
1,357;-2.97637939453125
1,358;-2.97576904296875
1,359;-2.97607421875
1,36;-2.9754638671875
1,361;-2.97607421875
1,362;-2.9754638671875
1,363;-2.97607421875
1,364;-2.97576904296875
1,365;-2.97576904296875
1,366;-2.97576904296875
1,367;-2.97576904296875
1,368;-2.97607421875
1,369;-2.97607421875
1,37;-2.97607421875
1,371;-2.97607421875
1,372;-2.97637939453125
1,373;-2.97607421875
1,374;-2.97637939453125
1,375;-2.97607421875
1,376;-2.97607421875
1,377;-2.97637939453125
1,378;-2.97576904296875
1,379;-2.97637939453125
1,38;-2.97637939453125
1,381;-2.97607421875
1,382;-2.9754638671875
1,383;-2.97576904296875
1,384;-2.9754638671875
1,385;-2.97576904296875
1,386;-2.97607421875
1,387;-2.9754638671875
1,388;-2.97607421875
1,389;-2.97576904296875
1,39;-2.97607421875
1,391;-2.97576904296875
1,392;-2.97607421875
1,393;-2.9766845703125
1,394;-2.97607421875
1,395;-2.97607421875
1,396;-2.97576904296875
1,397;-2.97576904296875
1,398;-2.97576904296875
1,399;-2.97607421875
1,4;-2.97576904296875
1,401;-2.97637939453125
1,402;-2.9754638671875
1,403;-2.97607421875
1,404;-2.97607421875
1,405;-2.97607421875
1,406;-2.97607421875
1,407;-2.97576904296875
1,408;-2.97607421875
1,409;-2.97576904296875
1,41;-2.97637939453125
1,411;-2.97576904296875
1,412;-2.97576904296875
1,413;-2.97607421875
1,414;-2.97607421875
1,415;-2.9754638671875
1,416;-2.97607421875
1,417;-2.97607421875
1,418;-2.97576904296875
1,419;-2.9754638671875
1,42;-2.97576904296875
1,421;-2.97637939453125
1,422;-2.97637939453125
1,423;-2.97607421875
1,424;-2.97576904296875
1,425;-2.97637939453125
1,426;-2.97607421875
1,427;-2.97576904296875
1,428;-2.97607421875
1,429;-2.97576904296875
1,43;-2.97607421875
1,431;-2.97607421875
1,432;-2.97607421875
1,433;-2.97698974609375
1,434;-2.97607421875
1,435;-2.97576904296875
1,436;-2.97576904296875
1,437;-2.97607421875
1,438;-2.97576904296875
1,439;-2.97576904296875
1,44;-2.97576904296875
1,441;-2.97637939453125
1,442;-2.9754638671875
1,443;-2.97576904296875
1,444;-2.97576904296875
1,445;-2.97637939453125
1,446;-2.97576904296875
1,447;-2.97607421875
1,448;-2.97576904296875
1,449;-2.97607421875
1,45;-2.97637939453125
1,451;-2.97576904296875
1,452;-2.97607421875
1,453;-2.97607421875
1,454;-2.97576904296875
1,455;-2.9754638671875
1,456;-2.97576904296875
1,457;-2.97576904296875
1,458;-2.97607421875
1,459;-2.97576904296875
1,46;-2.9754638671875
1,461;-2.97576904296875
1,462;-2.97607421875
1,463;-2.97607421875
1,464;-2.97607421875
1,465;-2.97576904296875
1,466;-2.97576904296875
1,467;-2.97576904296875
1,468;-2.97576904296875
1,469;-2.97576904296875
1,47;-2.97576904296875
1,471;-2.97576904296875
1,472;-2.97576904296875
1,473;-2.97607421875
1,474;-2.97576904296875
1,475;-2.97607421875
1,476;-2.97576904296875
1,477;-2.9754638671875
1,478;-2.97576904296875
1,479;-2.9754638671875
1,48;-2.97607421875
1,481;-2.97607421875
1,482;-2.9754638671875
1,483;-2.97576904296875
1,484;-2.9754638671875
1,485;-2.97607421875
1,486;-2.97576904296875
1,487;-2.97607421875
1,488;-2.97607421875
1,489;-2.97576904296875
1,49;-2.9754638671875
1,491;-2.97576904296875
1,492;-2.9754638671875
1,493;-2.97607421875
1,494;-2.97576904296875
1,495;-2.97607421875
1,496;-2.97637939453125
1,497;-2.9754638671875
1,498;-2.97637939453125
1,499;-2.97607421875
1,5;-2.9766845703125
1,501;-2.97576904296875
1,502;-2.9754638671875
1,503;-2.97576904296875
1,504;-2.97576904296875
1,505;-2.97637939453125
1,506;-2.9754638671875
1,507;-2.97607421875
1,508;-2.97607421875
1,509;-2.97607421875
1,51;-2.9754638671875
1,511;-2.97637939453125
1,512;-2.97576904296875
1,513;-2.97576904296875
1,514;-2.9754638671875
1,515;-2.97607421875
1,516;-2.97576904296875
1,517;-2.9754638671875
1,518;-2.97607421875
1,519;-2.97576904296875
1,52;-2.97637939453125
1,521;-2.97607421875
1,522;-2.97576904296875
1,523;-2.97607421875
1,524;-2.97607421875
1,525;-2.97576904296875
1,526;-2.97576904296875
1,527;-2.97607421875
1,528;-2.97576904296875
1,529;-2.97607421875
1,53;-2.97576904296875
1,531;-2.97607421875
1,532;-2.97607421875
1,533;-2.97637939453125
1,534;-2.97637939453125
1,535;-2.9754638671875
1,536;-2.97576904296875
1,537;-2.97576904296875
1,538;-2.97576904296875
1,539;-2.97576904296875
1,54;-2.97576904296875
1,541;-2.97637939453125
1,542;-2.97637939453125
1,543;-2.97576904296875
1,544;-2.97637939453125
1,545;-2.97576904296875
1,546;-2.9754638671875
1,547;-2.97607421875
1,548;-2.9754638671875
1,549;-2.97576904296875
1,55;-2.97576904296875
1,551;-2.97576904296875
1,552;-2.97637939453125
1,553;-2.9754638671875
1,554;-2.97607421875
1,555;-2.97607421875
1,556;-2.97607421875
1,557;-2.97607421875
1,558;-2.97576904296875
1,559;-2.97637939453125
1,56;-2.97607421875
1,561;-2.9754638671875
1,562;-2.97637939453125
1,563;-2.97576904296875
1,564;-2.97637939453125
1,565;-2.97637939453125
1,566;-2.97607421875
1,567;-2.97607421875
1,568;-2.97576904296875
1,569;-2.97607421875
1,57;-2.97576904296875
1,571;-2.97637939453125
1,572;-2.97576904296875
1,573;-2.97607421875
1,574;-2.9766845703125
1,575;-2.97607421875
1,576;-2.97576904296875
1,577;-2.97607421875
1,578;-2.97607421875
1,579;-2.97576904296875
1,58;-2.97637939453125
1,581;-2.97637939453125
1,582;-2.97576904296875
1,583;-2.97576904296875
1,584;-2.97637939453125
1,585;-2.97576904296875
1,586;-2.97607421875
1,587;-2.97637939453125
1,588;-2.97576904296875
1,589;-2.97576904296875
1,59;-2.97576904296875
1,591;-2.97576904296875
1,592;-2.97637939453125
1,593;-2.97576904296875
1,594;-2.97576904296875
1,595;-2.97607421875
1,596;-2.97576904296875
1,597;-2.97607421875
1,598;-2.97576904296875
1,599;-2.9754638671875
1,6;-2.97576904296875
1,601;-2.97637939453125
1,602;-2.97576904296875
1,603;-2.97607421875
1,604;-2.97607421875
1,605;-2.97576904296875
1,606;-2.97607421875
1,607;-2.97637939453125
1,608;-2.97637939453125
1,609;-2.97607421875
1,61;-2.97637939453125
1,611;-2.97607421875
1,612;-2.97607421875
1,613;-2.97576904296875
1,614;-2.97637939453125
1,615;-2.97515869140625
1,616;-2.97607421875
1,617;-2.97607421875
1,618;-2.97607421875
1,619;-2.97607421875
1,62;-2.97607421875
1,621;-2.97576904296875
1,622;-2.97607421875
1,623;-2.97607421875
1,624;-2.97576904296875
1,625;-2.97576904296875
1,626;-2.9754638671875
1,627;-2.97576904296875
1,628;-2.9754638671875
1,629;-2.9754638671875
1,63;-2.97637939453125
1,631;-2.97637939453125
1,632;-2.97637939453125
1,633;-2.97607421875
1,634;-2.97607421875
1,635;-2.97576904296875
1,636;-2.97637939453125
1,637;-2.97607421875
1,638;-2.97607421875
1,639;-2.97607421875
1,64;-2.97607421875
1,641;-2.97607421875
1,642;-2.9754638671875
1,643;-2.97607421875
1,644;-2.97576904296875
1,645;-2.97607421875
1,646;-2.97607421875
1,647;-2.97637939453125
1,648;-2.97576904296875
1,649;-2.97607421875
1,65;-2.97607421875
1,651;-2.97607421875
1,652;-2.97576904296875
1,653;-2.97607421875
1,654;-2.97607421875
1,655;-2.97576904296875
1,656;-2.97607421875
1,657;-2.97576904296875
1,658;-2.97607421875
1,659;-2.97607421875
1,66;-2.97576904296875
1,661;-2.97607421875
1,662;-2.97576904296875
1,663;-2.97607421875
1,664;-2.97637939453125
1,665;-2.97607421875
1,666;-2.97637939453125
1,667;-2.9754638671875
1,668;-2.97607421875
1,669;-2.97637939453125
1,67;-2.97637939453125
1,671;-2.97576904296875
1,672;-2.97576904296875
1,673;-2.97607421875
1,674;-2.97576904296875
1,675;-2.97607421875
1,676;-2.97607421875
1,677;-2.97576904296875
1,678;-2.97576904296875
1,679;-2.97607421875
1,68;-2.97576904296875
1,681;-2.97607421875
1,682;-2.97576904296875
1,683;-2.97576904296875
1,684;-2.9754638671875
1,685;-2.97607421875
1,686;-2.97515869140625
1,687;-2.97576904296875
1,688;-2.97637939453125
1,689;-2.97607421875
1,69;-2.9754638671875
1,691;-2.97607421875
1,692;-2.9766845703125
1,693;-2.97637939453125
1,694;-2.97637939453125
1,695;-2.9754638671875
1,696;-2.97607421875
1,697;-2.97576904296875
1,698;-2.97637939453125
1,699;-2.97576904296875
1,7;-2.97607421875
1,701;-2.97576904296875
1,702;-2.97607421875
1,703;-2.97607421875
1,704;-2.97576904296875
1,705;-2.97576904296875
1,706;-2.97637939453125
1,707;-2.97607421875
1,708;-2.97607421875
1,709;-2.97576904296875
1,71;-2.97576904296875
1,711;-2.9754638671875
1,712;-2.9754638671875
1,713;-2.97576904296875
1,714;-2.97607421875
1,715;-2.9754638671875
1,716;-2.97576904296875
1,717;-2.9754638671875
1,718;-2.97576904296875
1,719;-2.97607421875
1,72;-2.97576904296875
1,721;-2.97576904296875
1,722;-2.9754638671875
1,723;-2.97576904296875
1,724;-2.97607421875
1,725;-2.97607421875
1,726;-2.97637939453125
1,727;-2.97637939453125
1,728;-2.97637939453125
1,729;-2.97576904296875
1,73;-2.97607421875
1,731;-2.97607421875
1,732;-2.9766845703125
1,733;-2.97607421875
1,734;-2.97637939453125
1,735;-2.97607421875
1,736;-2.97607421875
1,737;-2.97607421875
1,738;-2.97576904296875
1,739;-2.97607421875
1,74;-2.97607421875
1,741;-2.97637939453125
1,742;-2.97607421875
1,743;-2.9754638671875
1,744;-2.97607421875
1,745;-2.97576904296875
1,746;-2.9766845703125
1,747;-2.97607421875
1,748;-2.97637939453125
1,749;-2.97607421875
1,75;-2.97607421875
1,751;-2.97576904296875
1,752;-2.97607421875
1,753;-2.97607421875
1,754;-2.97637939453125
1,755;-2.97637939453125
1,756;-2.97607421875
1,757;-2.97607421875
1,758;-2.97607421875
1,759;-2.97637939453125
1,76;-2.97607421875
1,761;-2.97637939453125
1,762;-2.97637939453125
1,763;-2.97576904296875
1,764;-2.97637939453125
1,765;-2.97607421875
1,766;-2.97607421875
1,767;-2.97637939453125
1,768;-2.97576904296875
1,769;-2.97576904296875
1,77;-2.97607421875
1,771;-2.97576904296875
1,772;-2.97637939453125
1,773;-2.97607421875
1,774;-2.97637939453125
1,775;-2.97607421875
1,776;-2.97607421875
1,777;-2.97607421875
1,778;-2.97607421875
1,779;-2.97607421875
1,78;-2.97576904296875
1,781;-2.97607421875
1,782;-2.97637939453125
1,783;-2.97576904296875
1,784;-2.97607421875
1,785;-2.97576904296875
1,786;-2.9754638671875
1,787;-2.97637939453125
1,788;-2.97607421875
1,789;-2.97607421875
1,79;-2.97607421875
1,791;-2.97607421875
1,792;-2.97607421875
1,793;-2.97576904296875
1,794;-2.97637939453125
1,795;-2.97637939453125
1,796;-2.97607421875
1,797;-2.97637939453125
1,798;-2.97607421875
1,799;-2.97576904296875
1,8;-2.97607421875
1,801;-2.97637939453125
1,802;-2.97576904296875
1,803;-2.97607421875
1,804;-2.97698974609375
1,805;-2.97607421875
1,806;-2.97607421875
1,807;-2.97576904296875
1,808;-2.97607421875
1,809;-2.97607421875
1,81;-2.97607421875
1,811;-2.97576904296875
1,812;-2.97607421875
1,813;-2.9766845703125
1,814;-2.97607421875
1,815;-2.97607421875
1,816;-2.97607421875
1,817;-2.97576904296875
1,818;-2.97576904296875
1,819;-2.97576904296875
1,82;-2.97607421875
1,821;-2.97607421875
1,822;-2.97607421875
1,823;-2.97637939453125
1,824;-2.97607421875
1,825;-2.97576904296875
1,826;-2.97607421875
1,827;-2.97607421875
1,828;-2.9754638671875
1,829;-2.97607421875
1,83;-2.97607421875
1,831;-2.97607421875
1,832;-2.97607421875
1,833;-2.97607421875
1,834;-2.97637939453125
1,835;-2.97607421875
1,836;-2.9766845703125
1,837;-2.97607421875
1,838;-2.97576904296875
1,839;-2.9766845703125
1,84;-2.97607421875
1,841;-2.9754638671875
1,842;-2.97576904296875
1,843;-2.97607421875
1,844;-2.97637939453125
1,845;-2.97576904296875
1,846;-2.97607421875
1,847;-2.97607421875
1,848;-2.97607421875
1,849;-2.97607421875
1,85;-2.97637939453125
1,851;-2.97576904296875
1,852;-2.97637939453125
1,853;-2.97576904296875
1,854;-2.97607421875
1,855;-2.97607421875
1,856;-2.97607421875
1,857;-2.97576904296875
1,858;-2.97576904296875
1,859;-2.97637939453125
1,86;-2.97576904296875
1,861;-2.97637939453125
1,862;-2.9766845703125
1,863;-2.97637939453125
1,864;-2.97607421875
1,865;-2.97607421875
1,866;-2.97637939453125
1,867;-2.9754638671875
1,868;-2.97607421875
1,869;-2.97576904296875
1,87;-2.9766845703125
1,871;-2.97637939453125
1,872;-2.97698974609375
1,873;-2.97607421875
1,874;-2.97576904296875
1,875;-2.9754638671875
1,876;-2.97607421875
1,877;-2.97607421875
1,878;-2.97576904296875
1,879;-2.97607421875
1,88;-2.97637939453125
1,881;-2.97637939453125
1,882;-2.97607421875
1,883;-2.97607421875
1,884;-2.97607421875
1,885;-2.97576904296875
1,886;-2.97607421875
1,887;-2.97576904296875
1,888;-2.9754638671875
1,889;-2.97607421875
1,89;-2.97637939453125
1,891;-2.97576904296875
1,892;-2.97576904296875
1,893;-2.97637939453125
1,894;-2.97576904296875
1,895;-2.97576904296875
1,896;-2.97607421875
1,897;-2.97607421875
1,898;-2.97607421875
1,899;-2.97607421875
1,9;-2.9754638671875
1,901;-2.97607421875
1,902;-2.97607421875
1,903;-2.97637939453125
1,904;-2.97576904296875
1,905;-2.9766845703125
1,906;-2.97637939453125
1,907;-2.9766845703125
1,908;-2.97576904296875
1,909;-2.97607421875
1,91;-2.97637939453125
1,911;-2.97576904296875
1,912;-2.97607421875
1,913;-2.97637939453125
1,914;-2.97576904296875
1,915;-2.97607421875
1,916;-2.9766845703125
1,917;-2.97637939453125
1,918;-2.97637939453125
1,919;-2.97576904296875
1,92;-2.9754638671875
1,921;-2.97607421875
1,922;-2.97607421875
1,923;-2.97637939453125
1,924;-2.97576904296875
1,925;-2.97607421875
1,926;-2.97607421875
1,927;-2.97607421875
1,928;-2.97607421875
1,929;-2.97576904296875
1,93;-2.9754638671875
1,931;-2.97607421875
1,932;-2.97576904296875
1,933;-2.97576904296875
1,934;-2.97576904296875
1,935;-2.97637939453125
1,936;-2.97607421875
1,937;-2.97607421875
1,938;-2.97637939453125
1,939;-2.9754638671875
1,94;-2.97607421875
1,941;-2.97607421875
1,942;-2.97607421875
1,943;-2.97576904296875
1,944;-2.97637939453125
1,945;-2.97607421875
1,946;-2.97637939453125
1,947;-2.97637939453125
1,948;-2.97576904296875
1,949;-2.97637939453125
1,95;-2.97607421875
1,951;-2.97637939453125
1,952;-2.97607421875
1,953;-2.97607421875
1,954;-2.9754638671875
1,955;-2.97607421875
1,956;-2.97607421875
1,957;-2.97607421875
1,958;-2.97607421875
1,959;-2.97607421875
1,96;-2.97637939453125
1,961;-2.97607421875
1,962;-2.97607421875
1,963;-2.97607421875
1,964;-2.97576904296875
1,965;-2.97576904296875
1,966;-2.97576904296875
1,967;-2.97607421875
1,968;-2.97607421875
1,969;-2.97576904296875
1,97;-2.97607421875
1,971;-2.97576904296875
1,972;-2.97607421875
1,973;-2.97607421875
1,974;-2.97576904296875
1,975;-2.97637939453125
1,976;-2.97576904296875
1,977;-2.97637939453125
1,978;-2.97607421875
1,979;-2.97607421875
1,98;-2.97576904296875
1,981;-2.9754638671875
1,982;-2.97637939453125
1,983;-2.97637939453125
1,984;-2.97698974609375
1,985;-2.97607421875
1,986;-2.97607421875
1,987;-2.97637939453125
1,988;-2.97607421875
1,989;-2.97637939453125
1,99;-2.97607421875
1,991;-2.97607421875
1,992;-2.97607421875
1,993;-2.9766845703125
1,994;-2.97607421875
1,995;-2.97576904296875
1,996;-2.97607421875
1,997;-2.97576904296875
1,998;-2.97576904296875
1,999;-2.97607421875
2;-2.97576904296875
2,001;-2.97576904296875
2,002;-2.97576904296875
2,003;-2.97607421875
2,004;-2.97576904296875
2,005;-2.97607421875
2,006;-2.97576904296875
2,007;-2.97607421875
2,008;-2.97637939453125
2,009;-2.97576904296875
2,01;-2.9766845703125
2,011;-2.97576904296875
2,012;-2.97607421875
2,013;-2.97637939453125
2,014;-2.97607421875
2,015;-2.97607421875
2,016;-2.97607421875
2,017;-2.97637939453125
2,018;-2.97607421875
2,019;-2.9766845703125
2,02;-2.97576904296875
2,021;-2.97607421875
2,022;-2.97576904296875
2,023;-2.97607421875
2,024;-2.97637939453125
2,025;-2.97637939453125
2,026;-2.97637939453125
2,027;-2.9766845703125
2,028;-2.97607421875
2,029;-2.97607421875
2,03;-2.97576904296875
2,031;-2.97637939453125
2,032;-2.97607421875
2,033;-2.9766845703125
2,034;-2.97607421875
2,035;-2.97637939453125
2,036;-2.97637939453125
2,037;-2.97607421875
2,038;-2.97576904296875
2,039;-2.97607421875
2,04;-2.97607421875
2,041;-2.97576904296875
2,042;-2.97576904296875
2,043;-2.97607421875
2,044;-2.97607421875
2,045;-2.97637939453125
2,046;-2.97576904296875
2,047;-2.97607421875
2,048;-2.97637939453125
2,049;-2.97576904296875
2,05;-2.97607421875
2,051;-2.97576904296875
2,052;-2.97637939453125
2,053;-2.97576904296875
2,054;-2.97607421875
2,055;-2.97515869140625
2,056;-2.97576904296875
2,057;-2.97637939453125
2,058;-2.97607421875
2,059;-2.97607421875
2,06;-2.97607421875
2,061;-2.97637939453125
2,062;-2.97637939453125
2,063;-2.97607421875
2,064;-2.9754638671875
2,065;-2.97607421875
2,066;-2.97576904296875
2,067;-2.97607421875
2,068;-2.97637939453125
2,069;-2.97576904296875
2,07;-2.97637939453125
2,071;-2.97576904296875
2,072;-2.97576904296875
2,073;-2.97637939453125
2,074;-2.97607421875
2,075;-2.97576904296875
2,076;-2.97607421875
2,077;-2.97637939453125
2,078;-2.9754638671875
2,079;-2.97607421875
2,08;-2.97607421875
2,081;-2.97607421875
2,082;-2.97637939453125
2,083;-2.97637939453125
2,084;-2.97637939453125
2,085;-2.97607421875
2,086;-2.97607421875
2,087;-2.97637939453125
2,088;-2.97637939453125
2,089;-2.97607421875
2,09;-2.97637939453125
2,091;-2.97607421875
2,092;-2.9766845703125
2,093;-2.97607421875
2,094;-2.97576904296875
2,095;-2.97607421875
2,096;-2.97607421875
2,097;-2.97637939453125
2,098;-2.97607421875
2,099;-2.97637939453125
2,1;-2.97607421875
2,101;-2.97607421875
2,102;-2.97637939453125
2,103;-2.97637939453125
2,104;-2.97637939453125
2,105;-2.97637939453125
2,106;-2.97607421875
2,107;-2.97576904296875
2,108;-2.97576904296875
2,109;-2.97576904296875
2,11;-2.97607421875
2,111;-2.97607421875
2,112;-2.97637939453125
2,113;-2.97607421875
2,114;-2.97607421875
2,115;-2.97607421875
2,116;-2.97637939453125
2,117;-2.97607421875
2,118;-2.97607421875
2,119;-2.97576904296875
2,12;-2.97637939453125
2,121;-2.97607421875
2,122;-2.97607421875
2,123;-2.97607421875
2,124;-2.97637939453125
2,125;-2.97637939453125
2,126;-2.9754638671875
2,127;-2.97607421875
2,128;-2.97607421875
2,129;-2.97698974609375
2,13;-2.97637939453125
2,131;-2.97637939453125
2,132;-2.97637939453125
2,133;-2.97607421875
2,134;-2.97637939453125
2,135;-2.97576904296875
2,136;-2.97607421875
2,137;-2.97607421875
2,138;-2.97637939453125
2,139;-2.97637939453125
2,14;-2.97607421875
2,141;-2.97576904296875
2,142;-2.97607421875
2,143;-2.9766845703125
2,144;-2.97637939453125
2,145;-2.97607421875
2,146;-2.97607421875
2,147;-2.9766845703125
2,148;-2.9766845703125
2,149;-2.97637939453125
2,15;-2.97607421875
2,151;-2.97607421875
2,152;-2.97607421875
2,153;-2.9754638671875
2,154;-2.9766845703125
2,155;-2.97637939453125
2,156;-2.97607421875
2,157;-2.97637939453125
2,158;-2.97607421875
2,159;-2.97576904296875
2,16;-2.9766845703125
2,161;-2.97607421875
2,162;-2.97607421875
2,163;-2.9766845703125
2,164;-2.9766845703125
2,165;-2.97607421875
2,166;-2.97576904296875
2,167;-2.97607421875
2,168;-2.97576904296875
2,169;-2.97607421875
2,17;-2.97576904296875
2,171;-2.97607421875
2,172;-2.97607421875
2,173;-2.97637939453125
2,174;-2.97637939453125
2,175;-2.97607421875
2,176;-2.97637939453125
2,177;-2.97607421875
2,178;-2.97607421875
2,179;-2.9766845703125
2,18;-2.9766845703125
2,181;-2.97607421875
2,182;-2.97637939453125
2,183;-2.97698974609375
2,184;-2.97637939453125
2,185;-2.97607421875
2,186;-2.97607421875
2,187;-2.97637939453125
2,188;-2.9754638671875
2,189;-2.97607421875
2,19;-2.97607421875
2,191;-2.97607421875
2,192;-2.97698974609375
2,193;-2.97637939453125
2,194;-2.97607421875
2,195;-2.97607421875
2,196;-2.97607421875
2,197;-2.9766845703125
2,198;-2.97637939453125
2,199;-2.97607421875
2,2;-2.9766845703125
2,201;-2.97607421875
2,202;-2.97607421875
2,203;-2.9766845703125
2,204;-2.97607421875
2,205;-2.97637939453125
2,206;-2.97637939453125
2,207;-2.97607421875
2,208;-2.97576904296875
2,209;-2.97607421875
2,21;-2.97637939453125
2,211;-2.97607421875
2,212;-2.97637939453125
2,213;-2.97637939453125
2,214;-2.9766845703125
2,215;-2.97607421875
2,216;-2.97576904296875
2,217;-2.97576904296875
2,218;-2.97637939453125
2,219;-2.97576904296875
2,22;-2.97576904296875
2,221;-2.97576904296875
2,222;-2.97607421875
2,223;-2.97607421875
2,224;-2.97637939453125
2,225;-2.97607421875
2,226;-2.97637939453125
2,227;-2.97576904296875
2,228;-2.97637939453125
2,229;-2.97607421875
2,23;-2.97637939453125
2,231;-2.97637939453125
2,232;-2.97576904296875
2,233;-2.97607421875
2,234;-2.9766845703125
2,235;-2.97637939453125
2,236;-2.97607421875
2,237;-2.9754638671875
2,238;-2.97698974609375
2,239;-2.97637939453125
2,24;-2.97637939453125
2,241;-2.97637939453125
2,242;-2.97607421875
2,243;-2.97637939453125
2,244;-2.97607421875
2,245;-2.97637939453125
2,246;-2.97637939453125
2,247;-2.97607421875
2,248;-2.97607421875
2,249;-2.97607421875
2,25;-2.97607421875
2,251;-2.97576904296875
2,252;-2.97607421875
2,253;-2.97607421875
2,254;-2.97637939453125
2,255;-2.97607421875
2,256;-2.97607421875
2,257;-2.97607421875
2,258;-2.97576904296875
2,259;-2.9754638671875
2,26;-2.9766845703125
2,261;-2.97607421875
2,262;-2.9766845703125
2,263;-2.9766845703125
2,264;-2.97576904296875
2,265;-2.97607421875
2,266;-2.97637939453125
2,267;-2.97607421875
2,268;-2.97637939453125
2,269;-2.97576904296875
2,27;-2.97607421875
2,271;-2.97607421875
2,272;-2.97607421875
2,273;-2.97576904296875
2,274;-2.9766845703125
2,275;-2.97607421875
2,276;-2.97637939453125
2,277;-2.97576904296875
2,278;-2.97607421875
2,279;-2.97637939453125
2,28;-2.97607421875
2,281;-2.97607421875
2,282;-2.97576904296875
2,283;-2.97607421875
2,284;-2.97607421875
2,285;-2.9766845703125
2,286;-2.97637939453125
2,287;-2.97637939453125
2,288;-2.97607421875
2,289;-2.97607421875
2,29;-2.97607421875
2,291;-2.97607421875
2,292;-2.97698974609375
2,293;-2.9766845703125
2,294;-2.97637939453125
2,295;-2.97637939453125
2,296;-2.97760009765625
2,297;-2.97576904296875
2,298;-2.97637939453125
2,299;-2.97637939453125
2,3;-2.97607421875
2,301;-2.97607421875
2,302;-2.97607421875
2,303;-2.97607421875
2,304;-2.97637939453125
2,305;-2.9766845703125
2,306;-2.97637939453125
2,307;-2.97607421875
2,308;-2.97637939453125
2,309;-2.97607421875
2,31;-2.97637939453125
2,311;-2.9766845703125
2,312;-2.97607421875
2,313;-2.9766845703125
2,314;-2.97607421875
2,315;-2.97637939453125
2,316;-2.97607421875
2,317;-2.97637939453125
2,318;-2.97637939453125
2,319;-2.97607421875
2,32;-2.97637939453125
2,321;-2.97607421875
2,322;-2.97698974609375
2,323;-2.9766845703125
2,324;-2.97607421875
2,325;-2.97607421875
2,326;-2.97637939453125
2,327;-2.97607421875
2,328;-2.97607421875
2,329;-2.97576904296875
2,33;-2.97607421875
2,331;-2.97637939453125
2,332;-2.97607421875
2,333;-2.97576904296875
2,334;-2.97607421875
2,335;-2.9754638671875
2,336;-2.97607421875
2,337;-2.97637939453125
2,338;-2.97607421875
2,339;-2.97607421875
2,34;-2.97637939453125
2,341;-2.9766845703125
2,342;-2.97607421875
2,343;-2.97607421875
2,344;-2.97637939453125
2,345;-2.97607421875
2,346;-2.97637939453125
2,347;-2.97607421875
2,348;-2.97607421875
2,349;-2.97637939453125
2,35;-2.97607421875
2,351;-2.97607421875
2,352;-2.97637939453125
2,353;-2.97637939453125
2,354;-2.97607421875
2,355;-2.97637939453125
2,356;-2.97607421875
2,357;-2.97576904296875
2,358;-2.97607421875
2,359;-2.97607421875
2,36;-2.97576904296875
2,361;-2.97607421875
2,362;-2.97607421875
2,363;-2.97637939453125
2,364;-2.97607421875
2,365;-2.97637939453125
2,366;-2.97607421875
2,367;-2.97607421875
2,368;-2.97607421875
2,369;-2.97607421875
2,37;-2.97637939453125
2,371;-2.97637939453125
2,372;-2.97637939453125
2,373;-2.97576904296875
2,374;-2.97637939453125
2,375;-2.97637939453125
2,376;-2.97607421875
2,377;-2.97607421875
2,378;-2.97607421875
2,379;-2.9766845703125
2,38;-2.9766845703125
2,381;-2.97637939453125
2,382;-2.97576904296875
2,383;-2.97607421875
2,384;-2.97607421875
2,385;-2.97607421875
2,386;-2.97607421875
2,387;-2.97576904296875
2,388;-2.97698974609375
2,389;-2.97637939453125
2,39;-2.97637939453125
2,391;-2.97576904296875
2,392;-2.97576904296875
2,393;-2.97607421875
2,394;-2.97607421875
2,395;-2.97607421875
2,396;-2.97607421875
2,397;-2.97607421875
2,398;-2.97607421875
2,399;-2.97637939453125
2,4;-2.97607421875
2,401;-2.97637939453125
2,402;-2.97637939453125
2,403;-2.97637939453125
2,404;-2.97698974609375
2,405;-2.97637939453125
2,406;-2.9766845703125
2,407;-2.9766845703125
2,408;-2.97637939453125
2,409;-2.97698974609375
2,41;-2.97607421875
2,411;-2.97576904296875
2,412;-2.97607421875
2,413;-2.97607421875
2,414;-2.97637939453125
2,415;-2.9766845703125
2,416;-2.97637939453125
2,417;-2.97607421875
2,418;-2.97637939453125
2,419;-2.9766845703125
2,42;-2.97607421875
2,421;-2.97637939453125
2,422;-2.97637939453125
2,423;-2.97607421875
2,424;-2.97607421875
2,425;-2.97576904296875
2,426;-2.97607421875
2,427;-2.97637939453125
2,428;-2.97637939453125
2,429;-2.97607421875
2,43;-2.97637939453125
2,431;-2.97607421875
2,432;-2.97607421875
2,433;-2.97637939453125
2,434;-2.97607421875
2,435;-2.97637939453125
2,436;-2.97576904296875
2,437;-2.97607421875
2,438;-2.97637939453125
2,439;-2.97637939453125
2,44;-2.97637939453125
2,441;-2.97637939453125
2,442;-2.97698974609375
2,443;-2.97607421875
2,444;-2.97607421875
2,445;-2.97576904296875
2,446;-2.9766845703125
2,447;-2.97698974609375
2,448;-2.97637939453125
2,449;-2.97576904296875
2,45;-2.9766845703125
2,451;-2.97607421875
2,452;-2.97637939453125
2,453;-2.97637939453125
2,454;-2.9766845703125
2,455;-2.97607421875
2,456;-2.97607421875
2,457;-2.97637939453125
2,458;-2.97637939453125
2,459;-2.97576904296875
2,46;-2.97607421875
2,461;-2.97576904296875
2,462;-2.97637939453125
2,463;-2.97607421875
2,464;-2.97576904296875
2,465;-2.97637939453125
2,466;-2.97637939453125
2,467;-2.97607421875
2,468;-2.97637939453125
2,469;-2.97637939453125
2,47;-2.97576904296875
2,471;-2.97637939453125
2,472;-2.97607421875
2,473;-2.97607421875
2,474;-2.97607421875
2,475;-2.97607421875
2,476;-2.97637939453125
2,477;-2.97607421875
2,478;-2.9766845703125
2,479;-2.97637939453125
2,48;-2.97637939453125
2,481;-2.97637939453125
2,482;-2.97607421875
2,483;-2.97607421875
2,484;-2.9766845703125
2,485;-2.97607421875
2,486;-2.97637939453125
2,487;-2.9766845703125
2,488;-2.9766845703125
2,489;-2.97637939453125
2,49;-2.9766845703125
2,491;-2.97607421875
2,492;-2.97637939453125
2,493;-2.97607421875
2,494;-2.97637939453125
2,495;-2.97637939453125
2,496;-2.97607421875
2,497;-2.97607421875
2,498;-2.97637939453125
2,499;-2.97637939453125
2,5;-2.97637939453125
2,501;-2.97607421875
2,502;-2.97637939453125
2,503;-2.97607421875
2,504;-2.97637939453125
2,505;-2.97576904296875
2,506;-2.97637939453125
2,507;-2.97607421875
2,508;-2.97637939453125
2,509;-2.97637939453125
2,51;-2.97607421875
2,511;-2.97576904296875
2,512;-2.97607421875
2,513;-2.97637939453125
2,514;-2.97607421875
2,515;-2.97698974609375
2,516;-2.97637939453125
2,517;-2.97607421875
2,518;-2.9766845703125
2,519;-2.97607421875
2,52;-2.97607421875
2,521;-2.97637939453125
2,522;-2.9766845703125
2,523;-2.9766845703125
2,524;-2.97607421875
2,525;-2.9766845703125
2,526;-2.97607421875
2,527;-2.97576904296875
2,528;-2.97637939453125
2,529;-2.97637939453125
2,53;-2.97637939453125
2,531;-2.97698974609375
2,532;-2.97607421875
2,533;-2.97607421875
2,534;-2.97607421875
2,535;-2.9754638671875
2,536;-2.97607421875
2,537;-2.97637939453125
2,538;-2.97637939453125
2,539;-2.97637939453125
2,54;-2.97607421875
2,541;-2.9766845703125
2,542;-2.97637939453125
2,543;-2.97607421875
2,544;-2.97607421875
2,545;-2.97607421875
2,546;-2.97637939453125
2,547;-2.97637939453125
2,548;-2.97607421875
2,549;-2.9766845703125
2,55;-2.97637939453125
2,551;-2.9766845703125
2,552;-2.9766845703125
2,553;-2.97607421875
2,554;-2.97607421875
2,555;-2.97698974609375
2,556;-2.97607421875
2,557;-2.97698974609375
2,558;-2.97637939453125
2,559;-2.97637939453125
2,56;-2.97607421875
2,561;-2.97576904296875
2,562;-2.97698974609375
2,563;-2.97637939453125
2,564;-2.97637939453125
2,565;-2.97637939453125
2,566;-2.97607421875
2,567;-2.97607421875
2,568;-2.97607421875
2,569;-2.97637939453125
2,57;-2.97607421875
2,571;-2.97637939453125
2,572;-2.97637939453125
2,573;-2.97637939453125
2,574;-2.97637939453125
2,575;-2.97637939453125
2,576;-2.97607421875
2,577;-2.97607421875
2,578;-2.97637939453125
2,579;-2.97607421875
2,58;-2.97637939453125
2,581;-2.97607421875
2,582;-2.97607421875
2,583;-2.9766845703125
2,584;-2.97637939453125
2,585;-2.97607421875
2,586;-2.97637939453125
2,587;-2.97637939453125
2,588;-2.97607421875
2,589;-2.97576904296875
2,59;-2.97607421875
2,591;-2.97637939453125
2,592;-2.97637939453125
2,593;-2.97607421875
2,594;-2.97607421875
2,595;-2.97607421875
2,596;-2.9766845703125
2,597;-2.9766845703125
2,598;-2.97637939453125
2,599;-2.97637939453125
2,6;-2.97576904296875
2,601;-2.97637939453125
2,602;-2.9766845703125
2,603;-2.97607421875
2,604;-2.97607421875
2,605;-2.97637939453125
2,606;-2.97637939453125
2,607;-2.97607421875
2,608;-2.97607421875
2,609;-2.97607421875
2,61;-2.97637939453125
2,611;-2.97698974609375
2,612;-2.97637939453125
2,613;-2.97607421875
2,614;-2.97637939453125
2,615;-2.97637939453125
2,616;-2.9766845703125
2,617;-2.97637939453125
2,618;-2.9766845703125
2,619;-2.9766845703125
2,62;-2.97607421875
2,621;-2.97637939453125
2,622;-2.9766845703125
2,623;-2.97637939453125
2,624;-2.97607421875
2,625;-2.97637939453125
2,626;-2.97637939453125
2,627;-2.97576904296875
2,628;-2.97607421875
2,629;-2.97637939453125
2,63;-2.97637939453125
2,631;-2.97607421875
2,632;-2.97607421875
2,633;-2.97607421875
2,634;-2.97637939453125
2,635;-2.97607421875
2,636;-2.97576904296875
2,637;-2.97607421875
2,638;-2.97607421875
2,639;-2.97637939453125
2,64;-2.97637939453125
2,641;-2.97637939453125
2,642;-2.97637939453125
2,643;-2.97576904296875
2,644;-2.97698974609375
2,645;-2.97637939453125
2,646;-2.97576904296875
2,647;-2.9766845703125
2,648;-2.97637939453125
2,649;-2.97607421875
2,65;-2.97607421875
2,651;-2.97637939453125
2,652;-2.97637939453125
2,653;-2.97637939453125
2,654;-2.97607421875
2,655;-2.9766845703125
2,656;-2.97637939453125
2,657;-2.97637939453125
2,658;-2.97576904296875
2,659;-2.9766845703125
2,66;-2.97607421875
2,661;-2.97637939453125
2,662;-2.97607421875
2,663;-2.97607421875
2,664;-2.97607421875
2,665;-2.97607421875
2,666;-2.97637939453125
2,667;-2.97607421875
2,668;-2.97607421875
2,669;-2.97607421875
2,67;-2.97607421875
2,671;-2.97637939453125
2,672;-2.97637939453125
2,673;-2.9766845703125
2,674;-2.97607421875
2,675;-2.97607421875
2,676;-2.9766845703125
2,677;-2.97637939453125
2,678;-2.97637939453125
2,679;-2.97637939453125
2,68;-2.97637939453125
2,681;-2.97576904296875
2,682;-2.97637939453125
2,683;-2.9766845703125
2,684;-2.97607421875
2,685;-2.97637939453125
2,686;-2.9766845703125
2,687;-2.97607421875
2,688;-2.97637939453125
2,689;-2.97637939453125
2,69;-2.97607421875
2,691;-2.9766845703125
2,692;-2.97576904296875
2,693;-2.97607421875
2,694;-2.9766845703125
2,695;-2.97607421875
2,696;-2.97576904296875
2,697;-2.97637939453125
2,698;-2.97576904296875
2,699;-2.97576904296875
2,7;-2.97607421875
2,701;-2.97576904296875
2,702;-2.97637939453125
2,703;-2.97576904296875
2,704;-2.97607421875
2,705;-2.97607421875
2,706;-2.97698974609375
2,707;-2.97607421875
2,708;-2.9766845703125
2,709;-2.97607421875
2,71;-2.97637939453125
2,711;-2.97607421875
2,712;-2.97698974609375
2,713;-2.97576904296875
2,714;-2.97607421875
2,715;-2.97698974609375
2,716;-2.97637939453125
2,717;-2.97607421875
2,718;-2.97607421875
2,719;-2.9766845703125
2,72;-2.9754638671875
2,721;-2.97607421875
2,722;-2.97607421875
2,723;-2.97698974609375
2,724;-2.97637939453125
2,725;-2.97607421875
2,726;-2.97637939453125
2,727;-2.97576904296875
2,728;-2.97637939453125
2,729;-2.97637939453125
2,73;-2.97637939453125
2,731;-2.97576904296875
2,732;-2.97637939453125
2,733;-2.97637939453125
2,734;-2.97607421875
2,735;-2.97637939453125
2,736;-2.97576904296875
2,737;-2.9766845703125
2,738;-2.97576904296875
2,739;-2.97637939453125
2,74;-2.97607421875
2,741;-2.97637939453125
2,742;-2.97698974609375
2,743;-2.97637939453125
2,744;-2.9766845703125
2,745;-2.9766845703125
2,746;-2.97607421875
2,747;-2.9766845703125
2,748;-2.97637939453125
2,749;-2.9754638671875
2,75;-2.97637939453125
2,751;-2.97607421875
2,752;-2.97637939453125
2,753;-2.97637939453125
2,754;-2.97607421875
2,755;-2.97637939453125
2,756;-2.97607421875
2,757;-2.97637939453125
2,758;-2.97637939453125
2,759;-2.97576904296875
2,76;-2.97607421875
2,761;-2.97637939453125
2,762;-2.97607421875
2,763;-2.97607421875
2,764;-2.97607421875
2,765;-2.9766845703125
2,766;-2.97637939453125
2,767;-2.97637939453125
2,768;-2.97607421875
2,769;-2.97607421875
2,77;-2.97637939453125
2,771;-2.97576904296875
2,772;-2.97607421875
2,773;-2.9766845703125
2,774;-2.97637939453125
2,775;-2.9766845703125
2,776;-2.97698974609375
2,777;-2.97698974609375
2,778;-2.97607421875
2,779;-2.9766845703125
2,78;-2.97607421875
2,781;-2.97607421875
2,782;-2.97607421875
2,783;-2.97637939453125
2,784;-2.9766845703125
2,785;-2.97576904296875
2,786;-2.97637939453125
2,787;-2.97637939453125
2,788;-2.97607421875
2,789;-2.97637939453125
2,79;-2.97637939453125
2,791;-2.97637939453125
2,792;-2.97607421875
2,793;-2.97637939453125
2,794;-2.97607421875
2,795;-2.97576904296875
2,796;-2.9766845703125
2,797;-2.97637939453125
2,798;-2.97607421875
2,799;-2.9766845703125
2,8;-2.97637939453125
2,801;-2.97607421875
2,802;-2.9766845703125
2,803;-2.97637939453125
2,804;-2.97607421875
2,805;-2.97607421875
2,806;-2.9766845703125
2,807;-2.97607421875
2,808;-2.97698974609375
2,809;-2.97637939453125
2,81;-2.9766845703125
2,811;-2.97637939453125
2,812;-2.97607421875
2,813;-2.9754638671875
2,814;-2.97607421875
2,815;-2.97637939453125
2,816;-2.97576904296875
2,817;-2.97637939453125
2,818;-2.97637939453125
2,819;-2.97637939453125
2,82;-2.97637939453125
2,821;-2.97637939453125
2,822;-2.97607421875
2,823;-2.97698974609375
2,824;-2.97576904296875
2,825;-2.97607421875
2,826;-2.97607421875
2,827;-2.97607421875
2,828;-2.97637939453125
2,829;-2.97637939453125
2,83;-2.97637939453125
2,831;-2.97607421875
2,832;-2.97576904296875
2,833;-2.97607421875
2,834;-2.97698974609375
2,835;-2.97637939453125
2,836;-2.97607421875
2,837;-2.9766845703125
2,838;-2.9766845703125
2,839;-2.97607421875
2,84;-2.97607421875
2,841;-2.97607421875
2,842;-2.9766845703125
2,843;-2.9766845703125
2,844;-2.97637939453125
2,845;-2.97607421875
2,846;-2.97607421875
2,847;-2.97607421875
2,848;-2.9766845703125
2,849;-2.9766845703125
2,85;-2.97576904296875
2,851;-2.9766845703125
2,852;-2.9766845703125
2,853;-2.97576904296875
2,854;-2.97698974609375
2,855;-2.9766845703125
2,856;-2.97637939453125
2,857;-2.97698974609375
2,858;-2.97637939453125
2,859;-2.97637939453125
2,86;-2.97607421875
2,861;-2.97637939453125
2,862;-2.97607421875
2,863;-2.9766845703125
2,864;-2.97637939453125
2,865;-2.97637939453125
2,866;-2.97637939453125
2,867;-2.97637939453125
2,868;-2.97607421875
2,869;-2.97637939453125
2,87;-2.97637939453125
2,871;-2.97607421875
2,872;-2.97698974609375
2,873;-2.97698974609375
2,874;-2.9766845703125
2,875;-2.97637939453125
2,876;-2.97576904296875
2,877;-2.97698974609375
2,878;-2.97607421875
2,879;-2.97637939453125
2,88;-2.9766845703125
2,881;-2.97698974609375
2,882;-2.97607421875
2,883;-2.97637939453125
2,884;-2.9766845703125
2,885;-2.97576904296875
2,886;-2.9766845703125
2,887;-2.97607421875
2,888;-2.9766845703125
2,889;-2.97637939453125
2,89;-2.9766845703125
2,891;-2.97637939453125
2,892;-2.97637939453125
2,893;-2.97637939453125
2,894;-2.97637939453125
2,895;-2.9766845703125
2,896;-2.97698974609375
2,897;-2.97607421875
2,898;-2.97607421875
2,899;-2.97637939453125
2,9;-2.97576904296875
2,901;-2.97607421875
2,902;-2.9766845703125
2,903;-2.97698974609375
2,904;-2.97698974609375
2,905;-2.9766845703125
2,906;-2.9766845703125
2,907;-2.9766845703125
2,908;-2.97607421875
2,909;-2.97637939453125
2,91;-2.97607421875
2,911;-2.97637939453125
2,912;-2.97607421875
2,913;-2.97637939453125
2,914;-2.97607421875
2,915;-2.97637939453125
2,916;-2.97607421875
2,917;-2.97637939453125
2,918;-2.97607421875
2,919;-2.9766845703125
2,92;-2.97607421875
2,921;-2.9766845703125
2,922;-2.97607421875
2,923;-2.9766845703125
2,924;-2.97576904296875
2,925;-2.97607421875
2,926;-2.97607421875
2,927;-2.97637939453125
2,928;-2.97637939453125
2,929;-2.97607421875
2,93;-2.9766845703125
2,931;-2.97637939453125
2,932;-2.97637939453125
2,933;-2.9766845703125
2,934;-2.97637939453125
2,935;-2.97637939453125
2,936;-2.97637939453125
2,937;-2.97637939453125
2,938;-2.97698974609375
2,939;-2.97637939453125
2,94;-2.97637939453125
2,941;-2.9766845703125
2,942;-2.9766845703125
2,943;-2.9766845703125
2,944;-2.97607421875
2,945;-2.97576904296875
2,946;-2.97698974609375
2,947;-2.97607421875
2,948;-2.97576904296875
2,949;-2.97607421875
2,95;-2.97607421875
2,951;-2.9766845703125
2,952;-2.97607421875
2,953;-2.97637939453125
2,954;-2.97607421875
2,955;-2.9754638671875
2,956;-2.97637939453125
2,957;-2.97607421875
2,958;-2.97637939453125
2,959;-2.97637939453125
2,96;-2.97698974609375
2,961;-2.97637939453125
2,962;-2.97607421875
2,963;-2.97607421875
2,964;-2.9766845703125
2,965;-2.97637939453125
2,966;-2.97637939453125
2,967;-2.97637939453125
2,968;-2.97637939453125
2,969;-2.97607421875
2,97;-2.97637939453125
2,971;-2.9766845703125
2,972;-2.97637939453125
2,973;-2.97607421875
2,974;-2.97607421875
2,975;-2.97637939453125
2,976;-2.97637939453125
2,977;-2.97576904296875
2,978;-2.97637939453125
2,979;-2.97607421875
2,98;-2.97637939453125
2,981;-2.97637939453125
2,982;-2.97607421875
2,983;-2.97607421875
2,984;-2.9766845703125
2,985;-2.9766845703125
2,986;-2.97637939453125
2,987;-2.97637939453125
2,988;-2.97607421875
2,989;-2.97607421875
2,99;-2.97607421875
2,991;-2.97637939453125
2,992;-2.97576904296875
2,993;-2.97607421875
2,994;-2.97576904296875
2,995;-2.9766845703125
2,996;-2.9766845703125
2,997;-2.9766845703125
2,998;-2.97607421875
2,999;-2.97637939453125
3;-2.9766845703125
3,001;-2.97637939453125
3,002;-2.97637939453125
3,003;-2.97637939453125
3,004;-2.97637939453125
3,005;-2.97607421875
3,006;-2.97607421875
3,007;-2.97607421875
3,008;-2.97637939453125
3,009;-2.97607421875
3,01;-2.97607421875
3,011;-2.97637939453125
3,012;-2.9766845703125
3,013;-2.97637939453125
3,014;-2.97637939453125
3,015;-2.97637939453125
3,016;-2.9766845703125
3,017;-2.97637939453125
3,018;-2.97607421875
3,019;-2.97637939453125
3,02;-2.97637939453125
3,021;-2.97576904296875
3,022;-2.97607421875
3,023;-2.9766845703125
3,024;-2.97637939453125
3,025;-2.97637939453125
3,026;-2.97698974609375
3,027;-2.97607421875
3,028;-2.97698974609375
3,029;-2.97576904296875
3,03;-2.97637939453125
3,031;-2.97698974609375
3,032;-2.9766845703125
3,033;-2.97637939453125
3,034;-2.97607421875
3,035;-2.97637939453125
3,036;-2.9766845703125
3,037;-2.97637939453125
3,038;-2.9766845703125
3,039;-2.977294921875
3,04;-2.97637939453125
3,041;-2.97576904296875
3,042;-2.9766845703125
3,043;-2.9766845703125
3,044;-2.97698974609375
3,045;-2.97637939453125
3,046;-2.97637939453125
3,047;-2.97607421875
3,048;-2.97637939453125
3,049;-2.9766845703125
3,05;-2.9766845703125
3,051;-2.97637939453125
3,052;-2.97637939453125
3,053;-2.97607421875
3,054;-2.97637939453125
3,055;-2.97698974609375
3,056;-2.97637939453125
3,057;-2.97637939453125
3,058;-2.97607421875
3,059;-2.9766845703125
3,06;-2.97698974609375
3,061;-2.97637939453125
3,062;-2.97637939453125
3,063;-2.97637939453125
3,064;-2.9766845703125
3,065;-2.97637939453125
3,066;-2.97698974609375
3,067;-2.97607421875
3,068;-2.9766845703125
3,069;-2.97576904296875
3,07;-2.97637939453125
3,071;-2.97637939453125
3,072;-2.97607421875
3,073;-2.97698974609375
3,074;-2.97637939453125
3,075;-2.97637939453125
3,076;-2.97637939453125
3,077;-2.97637939453125
3,078;-2.97637939453125
3,079;-2.97637939453125
3,08;-2.9766845703125
3,081;-2.97637939453125
3,082;-2.97607421875
3,083;-2.97637939453125
3,084;-2.9766845703125
3,085;-2.9766845703125
3,086;-2.97698974609375
3,087;-2.97607421875
3,088;-2.9766845703125
3,089;-2.97637939453125
3,09;-2.97637939453125
3,091;-2.97637939453125
3,092;-2.97637939453125
3,093;-2.97607421875
3,094;-2.97637939453125
3,095;-2.9766845703125
3,096;-2.9766845703125
3,097;-2.97637939453125
3,098;-2.97698974609375
3,099;-2.97698974609375
3,1;-2.9766845703125
3,101;-2.97637939453125
3,102;-2.9766845703125
3,103;-2.9766845703125
3,104;-2.97637939453125
3,105;-2.97576904296875
3,106;-2.97637939453125
3,107;-2.97607421875
3,108;-2.9766845703125
3,109;-2.97637939453125
3,11;-2.9766845703125
3,111;-2.9766845703125
3,112;-2.9766845703125
3,113;-2.97607421875
3,114;-2.97607421875
3,115;-2.97637939453125
3,116;-2.97637939453125
3,117;-2.97607421875
3,118;-2.9766845703125
3,119;-2.97637939453125
3,12;-2.97576904296875
3,121;-2.97607421875
3,122;-2.97637939453125
3,123;-2.97637939453125
3,124;-2.97607421875
3,125;-2.9766845703125
3,126;-2.9766845703125
3,127;-2.97637939453125
3,128;-2.97637939453125
3,129;-2.97637939453125
3,13;-2.9766845703125
3,131;-2.97607421875
3,132;-2.9766845703125
3,133;-2.97576904296875
3,134;-2.97607421875
3,135;-2.97607421875
3,136;-2.97637939453125
3,137;-2.97637939453125
3,138;-2.97576904296875
3,139;-2.97637939453125
3,14;-2.97607421875
3,141;-2.9766845703125
3,142;-2.97698974609375
3,143;-2.97607421875
3,144;-2.97607421875
3,145;-2.97637939453125
3,146;-2.97607421875
3,147;-2.97607421875
3,148;-2.97637939453125
3,149;-2.97607421875
3,15;-2.97637939453125
3,151;-2.9766845703125
3,152;-2.9766845703125
3,153;-2.977294921875
3,154;-2.97637939453125
3,155;-2.9766845703125
3,156;-2.97576904296875
3,157;-2.97637939453125
3,158;-2.97637939453125
3,159;-2.9766845703125
3,16;-2.97698974609375
3,161;-2.9766845703125
3,162;-2.97637939453125
3,163;-2.97637939453125
3,164;-2.97576904296875
3,165;-2.97637939453125
3,166;-2.97607421875
3,167;-2.97637939453125
3,168;-2.97637939453125
3,169;-2.97637939453125
3,17;-2.97637939453125
3,171;-2.97607421875
3,172;-2.97637939453125
3,173;-2.97607421875
3,174;-2.97637939453125
3,175;-2.97637939453125
3,176;-2.97698974609375
3,177;-2.97607421875
3,178;-2.97637939453125
3,179;-2.97698974609375
3,18;-2.9766845703125
3,181;-2.9766845703125
3,182;-2.97637939453125
3,183;-2.97607421875
3,184;-2.9766845703125
3,185;-2.97607421875
3,186;-2.97698974609375
3,187;-2.97637939453125
3,188;-2.97698974609375
3,189;-2.97637939453125
3,19;-2.97607421875
3,191;-2.97637939453125
3,192;-2.9766845703125
3,193;-2.97698974609375
3,194;-2.977294921875
3,195;-2.9766845703125
3,196;-2.9766845703125
3,197;-2.9766845703125
3,198;-2.97637939453125
3,199;-2.97698974609375
3,2;-2.9766845703125
3,201;-2.97698974609375
3,202;-2.97607421875
3,203;-2.9766845703125
3,204;-2.97698974609375
3,205;-2.97637939453125
3,206;-2.9766845703125
3,207;-2.97698974609375
3,208;-2.9766845703125
3,209;-2.97607421875
3,21;-2.97637939453125
3,211;-2.9766845703125
3,212;-2.97637939453125
3,213;-2.9766845703125
3,214;-2.9766845703125
3,215;-2.97698974609375
3,216;-2.97637939453125
3,217;-2.9766845703125
3,218;-2.97698974609375
3,219;-2.97637939453125
3,22;-2.9766845703125
3,221;-2.97637939453125
3,222;-2.97698974609375
3,223;-2.97637939453125
3,224;-2.9766845703125
3,225;-2.97637939453125
3,226;-2.97607421875
3,227;-2.97637939453125
3,228;-2.97607421875
3,229;-2.9766845703125
3,23;-2.97637939453125
3,231;-2.97637939453125
3,232;-2.97607421875
3,233;-2.97637939453125
3,234;-2.97637939453125
3,235;-2.97698974609375
3,236;-2.97637939453125
3,237;-2.97637939453125
3,238;-2.97637939453125
3,239;-2.97637939453125
3,24;-2.97698974609375
3,241;-2.97607421875
3,242;-2.97637939453125
3,243;-2.97698974609375
3,244;-2.97698974609375
3,245;-2.97637939453125
3,246;-2.97607421875
3,247;-2.97576904296875
3,248;-2.97637939453125
3,249;-2.9766845703125
3,25;-2.97607421875
3,251;-2.97637939453125
3,252;-2.97637939453125
3,253;-2.97637939453125
3,254;-2.9766845703125
3,255;-2.97607421875
3,256;-2.9766845703125
3,257;-2.97637939453125
3,258;-2.9754638671875
3,259;-2.97698974609375
3,26;-2.97698974609375
3,261;-2.9766845703125
3,262;-2.97607421875
3,263;-2.97637939453125
3,264;-2.9766845703125
3,265;-2.97637939453125
3,266;-2.9766845703125
3,267;-2.9766845703125
3,268;-2.97637939453125
3,269;-2.97607421875
3,27;-2.9766845703125
3,271;-2.97637939453125
3,272;-2.9766845703125
3,273;-2.9766845703125
3,274;-2.97637939453125
3,275;-2.97637939453125
3,276;-2.97576904296875
3,277;-2.97637939453125
3,278;-2.97637939453125
3,279;-2.97607421875
3,28;-2.97637939453125
3,281;-2.9766845703125
3,282;-2.97698974609375
3,283;-2.97607421875
3,284;-2.97637939453125
3,285;-2.97607421875
3,286;-2.97607421875
3,287;-2.9766845703125
3,288;-2.9766845703125
3,289;-2.97637939453125
3,29;-2.97637939453125
3,291;-2.97637939453125
3,292;-2.9766845703125
3,293;-2.9766845703125
3,294;-2.97637939453125
3,295;-2.9766845703125
3,296;-2.9766845703125
3,297;-2.9766845703125
3,298;-2.97698974609375
3,299;-2.97760009765625
3,3;-2.9766845703125
3,301;-2.97698974609375
3,302;-2.97607421875
3,303;-2.97637939453125
3,304;-2.97698974609375
3,305;-2.97637939453125
3,306;-2.97637939453125
3,307;-2.9766845703125
3,308;-2.9766845703125
3,309;-2.97637939453125
3,31;-2.97607421875
3,311;-2.97637939453125
3,312;-2.97698974609375
3,313;-2.9766845703125
3,314;-2.9766845703125
3,315;-2.9766845703125
3,316;-2.97607421875
3,317;-2.9766845703125
3,318;-2.97698974609375
3,319;-2.9766845703125
3,32;-2.9766845703125
3,321;-2.97698974609375
3,322;-2.97698974609375
3,323;-2.9766845703125
3,324;-2.97607421875
3,325;-2.9766845703125
3,326;-2.97637939453125
3,327;-2.97637939453125
3,328;-2.9766845703125
3,329;-2.9766845703125
3,33;-2.9766845703125
3,331;-2.97637939453125
3,332;-2.97637939453125
3,333;-2.9766845703125
3,334;-2.97698974609375
3,335;-2.9766845703125
3,336;-2.9766845703125
3,337;-2.97607421875
3,338;-2.97637939453125
3,339;-2.97698974609375
3,34;-2.9766845703125
3,341;-2.97698974609375
3,342;-2.97637939453125
3,343;-2.9766845703125
3,344;-2.97607421875
3,345;-2.97637939453125
3,346;-2.97607421875
3,347;-2.97637939453125
3,348;-2.97698974609375
3,349;-2.9766845703125
3,35;-2.97698974609375
3,351;-2.97637939453125
3,352;-2.97607421875
3,353;-2.97637939453125
3,354;-2.97607421875
3,355;-2.97698974609375
3,356;-2.97637939453125
3,357;-2.97637939453125
3,358;-2.97698974609375
3,359;-2.97698974609375
3,36;-2.9766845703125
3,361;-2.97698974609375
3,362;-2.97637939453125
3,363;-2.97637939453125
3,364;-2.97698974609375
3,365;-2.97637939453125
3,366;-2.97637939453125
3,367;-2.9766845703125
3,368;-2.9766845703125
3,369;-2.97637939453125
3,37;-2.97637939453125
3,371;-2.9766845703125
3,372;-2.9766845703125
3,373;-2.9766845703125
3,374;-2.97637939453125
3,375;-2.97637939453125
3,376;-2.977294921875
3,377;-2.97698974609375
3,378;-2.97698974609375
3,379;-2.9766845703125
3,38;-2.97698974609375
3,381;-2.9766845703125
3,382;-2.97698974609375
3,383;-2.97637939453125
3,384;-2.9766845703125
3,385;-2.97607421875
3,386;-2.9766845703125
3,387;-2.97760009765625
3,388;-2.97637939453125
3,389;-2.97607421875
3,39;-2.97698974609375
3,391;-2.97607421875
3,392;-2.977294921875
3,393;-2.97698974609375
3,394;-2.9766845703125
3,395;-2.9766845703125
3,396;-2.9766845703125
3,397;-2.97698974609375
3,398;-2.9766845703125
3,399;-2.97607421875
3,4;-2.97637939453125
3,401;-2.9766845703125
3,402;-2.97637939453125
3,403;-2.9766845703125
3,404;-2.9766845703125
3,405;-2.97698974609375
3,406;-2.9766845703125
3,407;-2.97637939453125
3,408;-2.97637939453125
3,409;-2.97637939453125
3,41;-2.97637939453125
3,411;-2.97637939453125
3,412;-2.97607421875
3,413;-2.9766845703125
3,414;-2.97637939453125
3,415;-2.97637939453125
3,416;-2.97698974609375
3,417;-2.97637939453125
3,418;-2.9766845703125
3,419;-2.9766845703125
3,42;-2.9766845703125
3,421;-2.9766845703125
3,422;-2.97637939453125
3,423;-2.97698974609375
3,424;-2.97637939453125
3,425;-2.9766845703125
3,426;-2.97637939453125
3,427;-2.9766845703125
3,428;-2.97607421875
3,429;-2.9766845703125
3,43;-2.97698974609375
3,431;-2.97607421875
3,432;-2.97637939453125
3,433;-2.97698974609375
3,434;-2.97637939453125
3,435;-2.97576904296875
3,436;-2.97637939453125
3,437;-2.97607421875
3,438;-2.97698974609375
3,439;-2.9766845703125
3,44;-2.97698974609375
3,441;-2.97637939453125
3,442;-2.97698974609375
3,443;-2.97698974609375
3,444;-2.97698974609375
3,445;-2.97698974609375
3,446;-2.97637939453125
3,447;-2.97698974609375
3,448;-2.97698974609375
3,449;-2.97637939453125
3,45;-2.97637939453125
3,451;-2.97607421875
3,452;-2.97637939453125
3,453;-2.97637939453125
3,454;-2.97637939453125
3,455;-2.97637939453125
3,456;-2.97698974609375
3,457;-2.9766845703125
3,458;-2.9766845703125
3,459;-2.97698974609375
3,46;-2.97698974609375
3,461;-2.977294921875
3,462;-2.97607421875
3,463;-2.9766845703125
3,464;-2.9766845703125
3,465;-2.97698974609375
3,466;-2.97637939453125
3,467;-2.97637939453125
3,468;-2.9766845703125
3,469;-2.97637939453125
3,47;-2.9766845703125
3,471;-2.97698974609375
3,472;-2.9766845703125
3,473;-2.97698974609375
3,474;-2.97637939453125
3,475;-2.97637939453125
3,476;-2.97698974609375
3,477;-2.9766845703125
3,478;-2.97637939453125
3,479;-2.97637939453125
3,48;-2.97607421875
3,481;-2.97698974609375
3,482;-2.9766845703125
3,483;-2.9766845703125
3,484;-2.97637939453125
3,485;-2.9766845703125
3,486;-2.97698974609375
3,487;-2.9766845703125
3,488;-2.9766845703125
3,489;-2.97607421875
3,49;-2.97698974609375
3,491;-2.97637939453125
3,492;-2.97607421875
3,493;-2.97698974609375
3,494;-2.97637939453125
3,495;-2.9766845703125
3,496;-2.97698974609375
3,497;-2.97698974609375
3,498;-2.9766845703125
3,499;-2.97607421875
3,5;-2.9766845703125
3,501;-2.97637939453125
3,502;-2.97637939453125
3,503;-2.977294921875
3,504;-2.9766845703125
3,505;-2.97607421875
3,506;-2.97607421875
3,507;-2.97637939453125
3,508;-2.9766845703125
3,509;-2.977294921875
3,51;-2.97698974609375
3,511;-2.9766845703125
3,512;-2.97637939453125
3,513;-2.97698974609375
3,514;-2.97637939453125
3,515;-2.97637939453125
3,516;-2.97637939453125
3,517;-2.9766845703125
3,518;-2.97637939453125
3,519;-2.97637939453125
3,52;-2.97607421875
3,521;-2.97637939453125
3,522;-2.97698974609375
3,523;-2.97637939453125
3,524;-2.9766845703125
3,525;-2.9766845703125
3,526;-2.97698974609375
3,527;-2.9766845703125
3,528;-2.9766845703125
3,529;-2.97637939453125
3,53;-2.9766845703125
3,531;-2.9766845703125
3,532;-2.9766845703125
3,533;-2.977294921875
3,534;-2.97637939453125
3,535;-2.977294921875
3,536;-2.97698974609375
3,537;-2.977294921875
3,538;-2.97698974609375
3,539;-2.97637939453125
3,54;-2.9766845703125
3,541;-2.9766845703125
3,542;-2.977294921875
3,543;-2.97607421875
3,544;-2.97637939453125
3,545;-2.9766845703125
3,546;-2.97698974609375
3,547;-2.9766845703125
3,548;-2.9766845703125
3,549;-2.97637939453125
3,55;-2.9766845703125
3,551;-2.97607421875
3,552;-2.97698974609375
3,553;-2.97698974609375
3,554;-2.97637939453125
3,555;-2.97637939453125
3,556;-2.97698974609375
3,557;-2.97637939453125
3,558;-2.9766845703125
3,559;-2.97607421875
3,56;-2.97607421875
3,561;-2.9766845703125
3,562;-2.97576904296875
3,563;-2.9766845703125
3,564;-2.9766845703125
3,565;-2.97637939453125
3,566;-2.97637939453125
3,567;-2.97607421875
3,568;-2.97637939453125
3,569;-2.9766845703125
3,57;-2.97637939453125
3,571;-2.97698974609375
3,572;-2.97637939453125
3,573;-2.97698974609375
3,574;-2.977294921875
3,575;-2.977294921875
3,576;-2.9766845703125
3,577;-2.9766845703125
3,578;-2.97698974609375
3,579;-2.97637939453125
3,58;-2.97698974609375
3,581;-2.97637939453125
3,582;-2.97637939453125
3,583;-2.97607421875
3,584;-2.97698974609375
3,585;-2.97637939453125
3,586;-2.9766845703125
3,587;-2.97607421875
3,588;-2.97698974609375
3,589;-2.97607421875
3,59;-2.97576904296875
3,591;-2.97607421875
3,592;-2.97698974609375
3,593;-2.97637939453125
3,594;-2.97637939453125
3,595;-2.97637939453125
3,596;-2.97637939453125
3,597;-2.97637939453125
3,598;-2.97637939453125
3,599;-2.9766845703125
3,6;-2.9766845703125
3,601;-2.9766845703125
3,602;-2.97637939453125
3,603;-2.9766845703125
3,604;-2.97698974609375
3,605;-2.97698974609375
3,606;-2.97637939453125
3,607;-2.97698974609375
3,608;-2.97637939453125
3,609;-2.9766845703125
3,61;-2.9766845703125
3,611;-2.97607421875
3,612;-2.97637939453125
3,613;-2.9766845703125
3,614;-2.97637939453125
3,615;-2.97637939453125
3,616;-2.9766845703125
3,617;-2.97607421875
3,618;-2.97637939453125
3,619;-2.97698974609375
3,62;-2.97637939453125
3,621;-2.97698974609375
3,622;-2.9766845703125
3,623;-2.9766845703125
3,624;-2.97637939453125
3,625;-2.97637939453125
3,626;-2.9766845703125
3,627;-2.9766845703125
3,628;-2.9766845703125
3,629;-2.97607421875
3,63;-2.977294921875
3,631;-2.97637939453125
3,632;-2.97698974609375
3,633;-2.97637939453125
3,634;-2.9766845703125
3,635;-2.9766845703125
3,636;-2.97698974609375
3,637;-2.977294921875
3,638;-2.97576904296875
3,639;-2.97607421875
3,64;-2.97637939453125
3,641;-2.97637939453125
3,642;-2.97637939453125
3,643;-2.9766845703125
3,644;-2.9766845703125
3,645;-2.97607421875
3,646;-2.9766845703125
3,647;-2.97607421875
3,648;-2.9766845703125
3,649;-2.97637939453125
3,65;-2.97637939453125
3,651;-2.9766845703125
3,652;-2.9766845703125
3,653;-2.9766845703125
3,654;-2.97637939453125
3,655;-2.9766845703125
3,656;-2.97607421875
3,657;-2.97698974609375
3,658;-2.97698974609375
3,659;-2.97637939453125
3,66;-2.97637939453125
3,661;-2.97698974609375
3,662;-2.97637939453125
3,663;-2.97607421875
3,664;-2.9766845703125
3,665;-2.97637939453125
3,666;-2.97698974609375
3,667;-2.97698974609375
3,668;-2.97698974609375
3,669;-2.9766845703125
3,67;-2.97698974609375
3,671;-2.97637939453125
3,672;-2.9766845703125
3,673;-2.97698974609375
3,674;-2.97637939453125
3,675;-2.97698974609375
3,676;-2.9766845703125
3,677;-2.97637939453125
3,678;-2.97607421875
3,679;-2.9766845703125
3,68;-2.97637939453125
3,681;-2.977294921875
3,682;-2.97607421875
3,683;-2.977294921875
3,684;-2.9766845703125
3,685;-2.9766845703125
3,686;-2.97637939453125
3,687;-2.9766845703125
3,688;-2.9766845703125
3,689;-2.97637939453125
3,69;-2.97637939453125
3,691;-2.97607421875
3,692;-2.97698974609375
3,693;-2.97637939453125
3,694;-2.97698974609375
3,695;-2.97698974609375
3,696;-2.9766845703125
3,697;-2.97637939453125
3,698;-2.977294921875
3,699;-2.97698974609375
3,7;-2.9766845703125
3,701;-2.97698974609375
3,702;-2.9766845703125
3,703;-2.97698974609375
3,704;-2.97698974609375
3,705;-2.97637939453125
3,706;-2.97698974609375
3,707;-2.9766845703125
3,708;-2.9766845703125
3,709;-2.9754638671875
3,71;-2.97698974609375
3,711;-2.9766845703125
3,712;-2.97637939453125
3,713;-2.97637939453125
3,714;-2.97698974609375
3,715;-2.97637939453125
3,716;-2.9766845703125
3,717;-2.9766845703125
3,718;-2.97637939453125
3,719;-2.9766845703125
3,72;-2.97607421875
3,721;-2.97698974609375
3,722;-2.97698974609375
3,723;-2.9766845703125
3,724;-2.9766845703125
3,725;-2.97698974609375
3,726;-2.9766845703125
3,727;-2.97698974609375
3,728;-2.9766845703125
3,729;-2.97637939453125
3,73;-2.9766845703125
3,731;-2.977294921875
3,732;-2.9766845703125
3,733;-2.97698974609375
3,734;-2.9766845703125
3,735;-2.97637939453125
3,736;-2.97698974609375
3,737;-2.9766845703125
3,738;-2.97607421875
3,739;-2.97637939453125
3,74;-2.97637939453125
3,741;-2.97637939453125
3,742;-2.97607421875
3,743;-2.9766845703125
3,744;-2.97607421875
3,745;-2.97607421875
3,746;-2.9766845703125
3,747;-2.9766845703125
3,748;-2.9766845703125
3,749;-2.9766845703125
3,75;-2.9766845703125
3,751;-2.9766845703125
3,752;-2.9766845703125
3,753;-2.97637939453125
3,754;-2.9766845703125
3,755;-2.97637939453125
3,756;-2.9766845703125
3,757;-2.97698974609375
3,758;-2.97637939453125
3,759;-2.9766845703125
3,76;-2.97637939453125
3,761;-2.9766845703125
3,762;-2.97698974609375
3,763;-2.97637939453125
3,764;-2.97607421875
3,765;-2.977294921875
3,766;-2.97698974609375
3,767;-2.9766845703125
3,768;-2.97698974609375
3,769;-2.97637939453125
3,77;-2.9766845703125
3,771;-2.9766845703125
3,772;-2.9766845703125
3,773;-2.97698974609375
3,774;-2.9766845703125
3,775;-2.97637939453125
3,776;-2.97607421875
3,777;-2.97698974609375
3,778;-2.97637939453125
3,779;-2.97637939453125
3,78;-2.97698974609375
3,781;-2.97637939453125
3,782;-2.97607421875
3,783;-2.97637939453125
3,784;-2.97607421875
3,785;-2.97698974609375
3,786;-2.9766845703125
3,787;-2.977294921875
3,788;-2.97607421875
3,789;-2.97607421875
3,79;-2.97637939453125
3,791;-2.97637939453125
3,792;-2.97637939453125
3,793;-2.97637939453125
3,794;-2.97637939453125
3,795;-2.97637939453125
3,796;-2.97607421875
3,797;-2.9766845703125
3,798;-2.97698974609375
3,799;-2.9766845703125
3,8;-2.97637939453125
3,801;-2.9766845703125
3,802;-2.97576904296875
3,803;-2.97637939453125
3,804;-2.97637939453125
3,805;-2.9766845703125
3,806;-2.97576904296875
3,807;-2.9766845703125
3,808;-2.9766845703125
3,809;-2.97698974609375
3,81;-2.9766845703125
3,811;-2.9766845703125
3,812;-2.97698974609375
3,813;-2.97637939453125
3,814;-2.97698974609375
3,815;-2.9766845703125
3,816;-2.9766845703125
3,817;-2.9766845703125
3,818;-2.97637939453125
3,819;-2.97698974609375
3,82;-2.97637939453125
3,821;-2.97698974609375
3,822;-2.97637939453125
3,823;-2.97637939453125
3,824;-2.97698974609375
3,825;-2.97637939453125
3,826;-2.97698974609375
3,827;-2.97637939453125
3,828;-2.9766845703125
3,829;-2.97698974609375
3,83;-2.97698974609375
3,831;-2.97607421875
3,832;-2.97637939453125
3,833;-2.97637939453125
3,834;-2.9766845703125
3,835;-2.97698974609375
3,836;-2.9766845703125
3,837;-2.97607421875
3,838;-2.9766845703125
3,839;-2.97637939453125
3,84;-2.97698974609375
3,841;-2.97637939453125
3,842;-2.97698974609375
3,843;-2.9766845703125
3,844;-2.9766845703125
3,845;-2.97637939453125
3,846;-2.9766845703125
3,847;-2.97698974609375
3,848;-2.97607421875
3,849;-2.9766845703125
3,85;-2.97607421875
3,851;-2.97698974609375
3,852;-2.9766845703125
3,853;-2.97637939453125
3,854;-2.97698974609375
3,855;-2.97637939453125
3,856;-2.9766845703125
3,857;-2.97698974609375
3,858;-2.97698974609375
3,859;-2.97607421875
3,86;-2.97637939453125
3,861;-2.9766845703125
3,862;-2.9766845703125
3,863;-2.97637939453125
3,864;-2.97607421875
3,865;-2.9766845703125
3,866;-2.97698974609375
3,867;-2.97698974609375
3,868;-2.97576904296875
3,869;-2.9766845703125
3,87;-2.97607421875
3,871;-2.97698974609375
3,872;-2.9766845703125
3,873;-2.97637939453125
3,874;-2.97637939453125
3,875;-2.97698974609375
3,876;-2.9766845703125
3,877;-2.977294921875
3,878;-2.977294921875
3,879;-2.97698974609375
3,88;-2.9766845703125
3,881;-2.9766845703125
3,882;-2.97637939453125
3,883;-2.97637939453125
3,884;-2.9766845703125
3,885;-2.97698974609375
3,886;-2.97637939453125
3,887;-2.977294921875
3,888;-2.97607421875
3,889;-2.97698974609375
3,89;-2.9766845703125
3,891;-2.9766845703125
3,892;-2.97607421875
3,893;-2.9766845703125
3,894;-2.9766845703125
3,895;-2.97698974609375
3,896;-2.9766845703125
3,897;-2.9766845703125
3,898;-2.9766845703125
3,899;-2.9766845703125
3,9;-2.97607421875
3,901;-2.97698974609375
3,902;-2.97698974609375
3,903;-2.97698974609375
3,904;-2.97698974609375
3,905;-2.97637939453125
3,906;-2.97637939453125
3,907;-2.97698974609375
3,908;-2.97607421875
3,909;-2.97637939453125
3,91;-2.97607421875
3,911;-2.9766845703125
3,912;-2.97637939453125
3,913;-2.97698974609375
3,914;-2.97637939453125
3,915;-2.97698974609375
3,916;-2.9766845703125
3,917;-2.97698974609375
3,918;-2.97637939453125
3,919;-2.97637939453125
3,92;-2.97637939453125
3,921;-2.97637939453125
3,922;-2.97607421875
3,923;-2.97698974609375
3,924;-2.977294921875
3,925;-2.97637939453125
3,926;-2.97698974609375
3,927;-2.9766845703125
3,928;-2.97637939453125
3,929;-2.97698974609375
3,93;-2.97637939453125
3,931;-2.97607421875
3,932;-2.97637939453125
3,933;-2.97607421875
3,934;-2.97637939453125
3,935;-2.97698974609375
3,936;-2.97607421875
3,937;-2.977294921875
3,938;-2.97607421875
3,939;-2.97637939453125
3,94;-2.9766845703125
3,941;-2.97637939453125
3,942;-2.97637939453125
3,943;-2.97637939453125
3,944;-2.977294921875
3,945;-2.9766845703125
3,946;-2.977294921875
3,947;-2.97698974609375
3,948;-2.97698974609375
3,949;-2.97698974609375
3,95;-2.9766845703125
3,951;-2.97698974609375
3,952;-2.977294921875
3,953;-2.97637939453125
3,954;-2.97698974609375
3,955;-2.97607421875
3,956;-2.97698974609375
3,957;-2.9766845703125
3,958;-2.97637939453125
3,959;-2.97607421875
3,96;-2.97698974609375
3,961;-2.97607421875
3,962;-2.97637939453125
3,963;-2.9766845703125
3,964;-2.9766845703125
3,965;-2.97637939453125
3,966;-2.97637939453125
3,967;-2.97607421875
3,968;-2.97637939453125
3,969;-2.97637939453125
3,97;-2.97637939453125
3,971;-2.97698974609375
3,972;-2.9766845703125
3,973;-2.9766845703125
3,974;-2.97637939453125
3,975;-2.97698974609375
3,976;-2.97637939453125
3,977;-2.97637939453125
3,978;-2.9766845703125
3,979;-2.97760009765625
3,98;-2.97637939453125
3,981;-2.97637939453125
3,982;-2.97637939453125
3,983;-2.97637939453125
3,984;-2.97698974609375
3,985;-2.9766845703125
3,986;-2.9766845703125
3,987;-2.97637939453125
3,988;-2.9766845703125
3,989;-2.97698974609375
3,99;-2.9766845703125
3,991;-2.9766845703125
3,992;-2.97637939453125
3,993;-2.9766845703125
3,994;-2.97607421875
3,995;-2.97637939453125
3,996;-2.9766845703125
3,997;-2.97607421875
3,998;-2.97698974609375
3,999;-2.97698974609375
4;-2.97698974609375
4,001;-2.9766845703125
4,002;-2.9766845703125
4,003;-2.9766845703125
4,004;-2.9766845703125
4,005;-2.97698974609375
4,006;-2.9766845703125
4,007;-2.97637939453125
4,008;-2.97698974609375
4,009;-2.9766845703125
4,01;-2.9766845703125
4,011;-2.97698974609375
4,012;-2.9766845703125
4,013;-2.97637939453125
4,014;-2.97698974609375
4,015;-2.97698974609375
4,016;-2.9766845703125
4,017;-2.9766845703125
4,018;-2.97698974609375
4,019;-2.97698974609375
4,02;-2.9766845703125
4,021;-2.97698974609375
4,022;-2.97637939453125
4,023;-2.9766845703125
4,024;-2.9766845703125
4,025;-2.97637939453125
4,026;-2.97698974609375
4,027;-2.97607421875
4,028;-2.97607421875
4,029;-2.97607421875
4,03;-2.97607421875
4,031;-2.9766845703125
4,032;-2.97607421875
4,033;-2.9766845703125
4,034;-2.97576904296875
4,035;-2.9766845703125
4,036;-2.97607421875
4,037;-2.97637939453125
4,038;-2.97607421875
4,039;-2.97698974609375
4,04;-2.97637939453125
4,041;-2.97607421875
4,042;-2.97637939453125
4,043;-2.97637939453125
4,044;-2.97607421875
4,045;-2.9766845703125
4,046;-2.97698974609375
4,047;-2.977294921875
4,048;-2.97637939453125
4,049;-2.97607421875
4,05;-2.9766845703125
4,051;-2.9766845703125
4,052;-2.97637939453125
4,053;-2.9766845703125
4,054;-2.97698974609375
4,055;-2.97607421875
4,056;-2.9766845703125
4,057;-2.9766845703125
4,058;-2.97637939453125
4,059;-2.97637939453125
4,06;-2.97576904296875
4,061;-2.97637939453125
4,062;-2.9766845703125
4,063;-2.9766845703125
4,064;-2.9766845703125
4,065;-2.97607421875
4,066;-2.97698974609375
4,067;-2.97637939453125
4,068;-2.97637939453125
4,069;-2.97698974609375
4,07;-2.9766845703125
4,071;-2.97637939453125
4,072;-2.97637939453125
4,073;-2.9766845703125
4,074;-2.97576904296875
4,075;-2.97637939453125
4,076;-2.9766845703125
4,077;-2.97637939453125
4,078;-2.9766845703125
4,079;-2.97607421875
4,08;-2.97698974609375
4,081;-2.97637939453125
4,082;-2.9766845703125
4,083;-2.9766845703125
4,084;-2.9766845703125
4,085;-2.9766845703125
4,086;-2.97607421875
4,087;-2.9766845703125
4,088;-2.97607421875
4,089;-2.97698974609375
4,09;-2.97698974609375
4,091;-2.9766845703125
4,092;-2.97637939453125
4,093;-2.97637939453125
4,094;-2.97607421875
4,095;-2.97637939453125
4,096;-2.9766845703125
4,097;-2.9766845703125
4,098;-2.97607421875
4,099;-2.97637939453125
4,1;-2.97698974609375
4,101;-2.9766845703125
4,102;-2.97607421875
4,103;-2.97637939453125
4,104;-2.97637939453125
4,105;-2.97698974609375
4,106;-2.97698974609375
4,107;-2.9766845703125
4,108;-2.9766845703125
4,109;-2.9766845703125
4,11;-2.97637939453125
4,111;-2.97637939453125
4,112;-2.97698974609375
4,113;-2.97698974609375
4,114;-2.97637939453125
4,115;-2.97698974609375
4,116;-2.97637939453125
4,117;-2.97637939453125
4,118;-2.97698974609375
4,119;-2.97637939453125
4,12;-2.97698974609375
4,121;-2.97607421875
4,122;-2.97698974609375
4,123;-2.97637939453125
4,124;-2.97607421875
4,125;-2.9766845703125
4,126;-2.97698974609375
4,127;-2.97607421875
4,128;-2.9766845703125
4,129;-2.97637939453125
4,13;-2.97637939453125
4,131;-2.97637939453125
4,132;-2.97698974609375
4,133;-2.97637939453125
4,134;-2.97637939453125
4,135;-2.9766845703125
4,136;-2.97698974609375
4,137;-2.97698974609375
4,138;-2.9766845703125
4,139;-2.977294921875
4,14;-2.9766845703125
4,141;-2.9766845703125
4,142;-2.9766845703125
4,143;-2.977294921875
4,144;-2.9766845703125
4,145;-2.97698974609375
4,146;-2.9766845703125
4,147;-2.97637939453125
4,148;-2.97637939453125
4,149;-2.97607421875
4,15;-2.97698974609375
4,151;-2.97637939453125
4,152;-2.97637939453125
4,153;-2.9766845703125
4,154;-2.97698974609375
4,155;-2.9766845703125
4,156;-2.9766845703125
4,157;-2.97698974609375
4,158;-2.97698974609375
4,159;-2.97698974609375
4,16;-2.97637939453125
4,161;-2.97698974609375
4,162;-2.9766845703125
4,163;-2.977294921875
4,164;-2.97637939453125
4,165;-2.9766845703125
4,166;-2.9766845703125
4,167;-2.97637939453125
4,168;-2.97698974609375
4,169;-2.97637939453125
4,17;-2.977294921875
4,171;-2.97607421875
4,172;-2.9766845703125
4,173;-2.97576904296875
4,174;-2.977294921875
4,175;-2.97698974609375
4,176;-2.97698974609375
4,177;-2.9766845703125
4,178;-2.97698974609375
4,179;-2.97607421875
4,18;-2.9766845703125
4,181;-2.97698974609375
4,182;-2.9766845703125
4,183;-2.9766845703125
4,184;-2.97637939453125
4,185;-2.97698974609375
4,186;-2.97698974609375
4,187;-2.97698974609375
4,188;-2.9766845703125
4,189;-2.9766845703125
4,19;-2.97637939453125
4,191;-2.97637939453125
4,192;-2.97698974609375
4,193;-2.97637939453125
4,194;-2.97698974609375
4,195;-2.97637939453125
4,196;-2.97607421875
4,197;-2.977294921875
4,198;-2.97698974609375
4,199;-2.97637939453125
4,2;-2.97637939453125
4,201;-2.9766845703125
4,202;-2.9766845703125
4,203;-2.9766845703125
4,204;-2.97698974609375
4,205;-2.97698974609375
4,206;-2.9766845703125
4,207;-2.9766845703125
4,208;-2.97607421875
4,209;-2.97637939453125
4,21;-2.97637939453125
4,211;-2.97637939453125
4,212;-2.97637939453125
4,213;-2.977294921875
4,214;-2.97637939453125
4,215;-2.97698974609375
4,216;-2.97637939453125
4,217;-2.97698974609375
4,218;-2.9766845703125
4,219;-2.97698974609375
4,22;-2.97576904296875
4,221;-2.97637939453125
4,222;-2.97637939453125
4,223;-2.9766845703125
4,224;-2.97698974609375
4,225;-2.97607421875
4,226;-2.9766845703125
4,227;-2.97637939453125
4,228;-2.97698974609375
4,229;-2.977294921875
4,23;-2.9766845703125
4,231;-2.97637939453125
4,232;-2.9766845703125
4,233;-2.9766845703125
4,234;-2.97637939453125
4,235;-2.97637939453125
4,236;-2.97637939453125
4,237;-2.97637939453125
4,238;-2.9766845703125
4,239;-2.97637939453125
4,24;-2.97698974609375
4,241;-2.97637939453125
4,242;-2.9766845703125
4,243;-2.97637939453125
4,244;-2.97607421875
4,245;-2.97637939453125
4,246;-2.97637939453125
4,247;-2.9766845703125
4,248;-2.9766845703125
4,249;-2.9766845703125
4,25;-2.97698974609375
4,251;-2.9766845703125
4,252;-2.9766845703125
4,253;-2.9766845703125
4,254;-2.97698974609375
4,255;-2.97637939453125
4,256;-2.9766845703125
4,257;-2.977294921875
4,258;-2.97637939453125
4,259;-2.9766845703125
4,26;-2.97698974609375
4,261;-2.977294921875
4,262;-2.97637939453125
4,263;-2.97607421875
4,264;-2.9766845703125
4,265;-2.9766845703125
4,266;-2.9766845703125
4,267;-2.9766845703125
4,268;-2.977294921875
4,269;-2.97698974609375
4,27;-2.9766845703125
4,271;-2.97698974609375
4,272;-2.97607421875
4,273;-2.97698974609375
4,274;-2.9766845703125
4,275;-2.97637939453125
4,276;-2.97637939453125
4,277;-2.9766845703125
4,278;-2.97698974609375
4,279;-2.97607421875
4,28;-2.97698974609375
4,281;-2.977294921875
4,282;-2.97637939453125
4,283;-2.9766845703125
4,284;-2.977294921875
4,285;-2.97698974609375
4,286;-2.97637939453125
4,287;-2.97637939453125
4,288;-2.97698974609375
4,289;-2.97698974609375
4,29;-2.9766845703125
4,291;-2.97698974609375
4,292;-2.97607421875
4,293;-2.97698974609375
4,294;-2.97698974609375
4,295;-2.9766845703125
4,296;-2.97637939453125
4,297;-2.9766845703125
4,298;-2.97637939453125
4,299;-2.9766845703125
4,3;-2.9766845703125
4,301;-2.97698974609375
4,302;-2.97698974609375
4,303;-2.97637939453125
4,304;-2.97637939453125
4,305;-2.97698974609375
4,306;-2.97698974609375
4,307;-2.97637939453125
4,308;-2.9766845703125
4,309;-2.97637939453125
4,31;-2.9766845703125
4,311;-2.9766845703125
4,312;-2.97637939453125
4,313;-2.97607421875
4,314;-2.9766845703125
4,315;-2.97637939453125
4,316;-2.9766845703125
4,317;-2.9766845703125
4,318;-2.97698974609375
4,319;-2.9766845703125
4,32;-2.97637939453125
4,321;-2.97698974609375
4,322;-2.97637939453125
4,323;-2.9766845703125
4,324;-2.97698974609375
4,325;-2.97607421875
4,326;-2.9766845703125
4,327;-2.9766845703125
4,328;-2.97637939453125
4,329;-2.97607421875
4,33;-2.97637939453125
4,331;-2.9766845703125
4,332;-2.97698974609375
4,333;-2.97607421875
4,334;-2.97637939453125
4,335;-2.97637939453125
4,336;-2.97698974609375
4,337;-2.97637939453125
4,338;-2.97637939453125
4,339;-2.9766845703125
4,34;-2.97637939453125
4,341;-2.97698974609375
4,342;-2.97637939453125
4,343;-2.977294921875
