
;DT9804(00).A/D0.Channel 1;DT9804(00).A/D0.Channel 1;DT9804(00).A/D0.Channel 2;DT9804(00).A/D0.Channel 3;DT9804(00).A/D0.Channel 4;DT9804(00).A/D0.Channel 5;DT9804(00).A/D0.Channel 6;DT9804(00).A/D0.Channel 7;DT9804(00).A/D0.Channel 8;DT9804(00).A/D0.Channel 9;DT9804(00).A/D0.Channel 10;DT9804(00).A/D0.Channel 11;DT9804(00).A/D0.Channel 12;DT9804(00).A/D0.Channel 13;DT9804(00).A/D0.Channel 14;DT9804(00).A/D0.Channel 15
0;-0.3460693359375
0,001;-0.345458984375
0,002;-0.345458984375
0,003;-0.34576416015625
0,004;-0.34576416015625
0,005;-0.345458984375
0,006;-0.34576416015625
0,007;-0.34515380859375
0,008;-0.34576416015625
0,009;-0.345458984375
0,01;-0.3460693359375
0,011;-0.3460693359375
0,012;-0.3460693359375
0,013;-0.3460693359375
0,014;-0.34576416015625
0,015;-0.345458984375
0,016;-0.34576416015625
0,017;-0.34576416015625
0,018;-0.345458984375
0,019;-0.345458984375
0,02;-0.34576416015625
0,021;-0.34576416015625
0,022;-0.3460693359375
0,023;-0.345458984375
0,024;-0.345458984375
0,025;-0.34515380859375
0,026;-0.3460693359375
0,027;-0.345458984375
0,028;-0.34576416015625
0,029;-0.3460693359375
0,03;-0.345458984375
0,031;-0.345458984375
0,032;-0.345458984375
0,033;-0.34576416015625
0,034;-0.3460693359375
0,035;-0.345458984375
0,036;-0.34576416015625
0,037;-0.34515380859375
0,038;-0.345458984375
0,039;-0.345458984375
0,04;-0.3460693359375
0,041;-0.3460693359375
0,042;-0.34576416015625
0,043;-0.3460693359375
0,044;-0.345458984375
0,045;-0.34576416015625
0,046;-0.34576416015625
0,047;-0.34576416015625
0,048;-0.34576416015625
0,049;-0.3460693359375
0,05;-0.34576416015625
0,051;-0.34576416015625
0,052;-0.345458984375
0,053;-0.34576416015625
0,054;-0.3460693359375
0,055;-0.3460693359375
0,056;-0.34515380859375
0,057;-0.3460693359375
0,058;-0.34576416015625
0,059;-0.345458984375
0,06;-0.345458984375
0,061;-0.34576416015625
0,062;-0.34515380859375
0,063;-0.34515380859375
0,064;-0.3460693359375
0,065;-0.345458984375
0,066;-0.34576416015625
0,067;-0.34576416015625
0,068;-0.34576416015625
0,069;-0.345458984375
0,07;-0.3460693359375
0,071;-0.345458984375
0,072;-0.345458984375
0,073;-0.34576416015625
0,074;-0.34515380859375
0,075;-0.345458984375
0,076;-0.3460693359375
0,077;-0.34515380859375
0,078;-0.34576416015625
0,079;-0.34576416015625
0,08;-0.345458984375
0,081;-0.3460693359375
0,082;-0.34637451171875
0,083;-0.34576416015625
0,084;-0.34515380859375
0,085;-0.34576416015625
0,086;-0.34576416015625
0,087;-0.34576416015625
0,088;-0.345458984375
0,089;-0.3460693359375
0,09;-0.345458984375
0,091;-0.34576416015625
0,092;-0.34576416015625
0,093;-0.3460693359375
0,094;-0.34637451171875
0,095;-0.3460693359375
0,096;-0.345458984375
0,097;-0.34576416015625
0,098;-0.3460693359375
0,099;-0.345458984375
0,1;-0.3460693359375
0,101;-0.34576416015625
0,102;-0.34576416015625
0,103;-0.3460693359375
0,104;-0.34576416015625
0,105;-0.34576416015625
0,106;-0.34576416015625
0,107;-0.3460693359375
0,108;-0.3460693359375
0,109;-0.3460693359375
0,11;-0.345458984375
0,111;-0.345458984375
0,112;-0.345458984375
0,113;-0.345458984375
0,114;-0.34576416015625
0,115;-0.34576416015625
0,116;-0.345458984375
0,117;-0.345458984375
0,118;-0.345458984375
0,119;-0.34515380859375
0,12;-0.34576416015625
0,121;-0.345458984375
0,122;-0.345458984375
0,123;-0.34515380859375
0,124;-0.34576416015625
0,125;-0.3460693359375
0,126;-0.345458984375
0,127;-0.34576416015625
0,128;-0.34576416015625
0,129;-0.3460693359375
0,13;-0.345458984375
0,131;-0.34576416015625
0,132;-0.34515380859375
0,133;-0.34576416015625
0,134;-0.345458984375
0,135;-0.34637451171875
0,136;-0.34576416015625
0,137;-0.34637451171875
0,138;-0.34576416015625
0,139;-0.34576416015625
0,14;-0.34515380859375
0,141;-0.34576416015625
0,142;-0.345458984375
0,143;-0.34576416015625
0,144;-0.3460693359375
0,145;-0.34576416015625
0,146;-0.34576416015625
0,147;-0.345458984375
0,148;-0.34576416015625
0,149;-0.345458984375
0,15;-0.34637451171875
0,151;-0.3460693359375
0,152;-0.3460693359375
0,153;-0.345458984375
0,154;-0.3460693359375
0,155;-0.34576416015625
0,156;-0.34515380859375
0,157;-0.34576416015625
0,158;-0.34576416015625
0,159;-0.34637451171875
0,16;-0.34576416015625
0,161;-0.3460693359375
0,162;-0.34576416015625
0,163;-0.3460693359375
0,164;-0.34515380859375
0,165;-0.3460693359375
0,166;-0.34576416015625
0,167;-0.345458984375
0,168;-0.34515380859375
0,169;-0.34576416015625
0,17;-0.3460693359375
0,171;-0.34576416015625
0,172;-0.345458984375
0,173;-0.34576416015625
0,174;-0.34576416015625
0,175;-0.34576416015625
0,176;-0.345458984375
0,177;-0.34576416015625
0,178;-0.345458984375
0,179;-0.34576416015625
0,18;-0.3460693359375
0,181;-0.3460693359375
0,182;-0.3460693359375
0,183;-0.34576416015625
0,184;-0.34576416015625
0,185;-0.345458984375
0,186;-0.34637451171875
0,187;-0.34576416015625
0,188;-0.345458984375
0,189;-0.34576416015625
0,19;-0.345458984375
0,191;-0.3460693359375
0,192;-0.3460693359375
0,193;-0.34576416015625
0,194;-0.3460693359375
0,195;-0.34576416015625
0,196;-0.34515380859375
0,197;-0.34637451171875
0,198;-0.34637451171875
0,199;-0.345458984375
0,2;-0.34637451171875
0,201;-0.3460693359375
0,202;-0.345458984375
0,203;-0.34576416015625
0,204;-0.3460693359375
0,205;-0.345458984375
0,206;-0.34637451171875
0,207;-0.345458984375
0,208;-0.34515380859375
0,209;-0.34576416015625
0,21;-0.3460693359375
0,211;-0.3460693359375
0,212;-0.3460693359375
0,213;-0.345458984375
0,214;-0.345458984375
0,215;-0.345458984375
0,216;-0.34637451171875
0,217;-0.345458984375
0,218;-0.34576416015625
0,219;-0.3460693359375
0,22;-0.34576416015625
0,221;-0.3460693359375
0,222;-0.34576416015625
0,223;-0.34576416015625
0,224;-0.34576416015625
0,225;-0.345458984375
0,226;-0.3460693359375
0,227;-0.34576416015625
0,228;-0.34576416015625
0,229;-0.34576416015625
0,23;-0.34576416015625
0,231;-0.345458984375
0,232;-0.34576416015625
0,233;-0.345458984375
0,234;-0.34576416015625
0,235;-0.34576416015625
0,236;-0.345458984375
0,237;-0.34576416015625
0,238;-0.3460693359375
0,239;-0.34576416015625
0,24;-0.34576416015625
0,241;-0.345458984375
0,242;-0.345458984375
0,243;-0.345458984375
0,244;-0.345458984375
0,245;-0.3460693359375
0,246;-0.3460693359375
0,247;-0.34576416015625
0,248;-0.34576416015625
0,249;-0.345458984375
0,25;-0.34576416015625
0,251;-0.3460693359375
0,252;-0.34576416015625
0,253;-0.345458984375
0,254;-0.345458984375
0,255;-0.34576416015625
0,256;-0.345458984375
0,257;-0.3460693359375
0,258;-0.34576416015625
0,259;-0.34515380859375
0,26;-0.345458984375
0,261;-0.3460693359375
0,262;-0.34576416015625
0,263;-0.34576416015625
0,264;-0.345458984375
0,265;-0.34576416015625
0,266;-0.3460693359375
0,267;-0.345458984375
0,268;-0.345458984375
0,269;-0.345458984375
0,27;-0.3460693359375
0,271;-0.3460693359375
0,272;-0.34576416015625
0,273;-0.345458984375
0,274;-0.34576416015625
0,275;-0.34576416015625
0,276;-0.34576416015625
0,277;-0.345458984375
0,278;-0.3460693359375
0,279;-0.34576416015625
0,28;-0.3460693359375
0,281;-0.34576416015625
0,282;-0.345458984375
0,283;-0.345458984375
0,284;-0.34576416015625
0,285;-0.34515380859375
0,286;-0.34576416015625
0,287;-0.34515380859375
0,288;-0.34576416015625
0,289;-0.34576416015625
0,29;-0.34576416015625
0,291;-0.345458984375
0,292;-0.34576416015625
0,293;-0.34576416015625
0,294;-0.34576416015625
0,295;-0.345458984375
0,296;-0.34576416015625
0,297;-0.3460693359375
0,298;-0.345458984375
0,299;-0.3460693359375
0,3;-0.345458984375
0,301;-0.34576416015625
0,302;-0.34515380859375
0,303;-0.3460693359375
0,304;-0.3460693359375
0,305;-0.34576416015625
0,306;-0.34576416015625
0,307;-0.34576416015625
0,308;-0.34576416015625
0,309;-0.3460693359375
0,31;-0.345458984375
0,311;-0.3460693359375
0,312;-0.34515380859375
0,313;-0.345458984375
0,314;-0.345458984375
0,315;-0.3460693359375
0,316;-0.3460693359375
0,317;-0.3460693359375
0,318;-0.3460693359375
0,319;-0.3460693359375
0,32;-0.345458984375
0,321;-0.34576416015625
0,322;-0.345458984375
0,323;-0.34576416015625
0,324;-0.3460693359375
0,325;-0.34576416015625
0,326;-0.34576416015625
0,327;-0.3460693359375
0,328;-0.3460693359375
0,329;-0.34576416015625
0,33;-0.34576416015625
0,331;-0.345458984375
0,332;-0.34576416015625
0,333;-0.34576416015625
0,334;-0.3460693359375
0,335;-0.34576416015625
0,336;-0.34576416015625
0,337;-0.3460693359375
0,338;-0.34576416015625
0,339;-0.34637451171875
0,34;-0.34576416015625
0,341;-0.34576416015625
0,342;-0.34515380859375
0,343;-0.34576416015625
0,344;-0.34576416015625
0,345;-0.3460693359375
0,346;-0.34576416015625
0,347;-0.34576416015625
0,348;-0.345458984375
0,349;-0.34576416015625
0,35;-0.345458984375
0,351;-0.345458984375
0,352;-0.3460693359375
0,353;-0.345458984375
0,354;-0.345458984375
0,355;-0.3460693359375
0,356;-0.3460693359375
0,357;-0.34576416015625
0,358;-0.345458984375
0,359;-0.345458984375
0,36;-0.34576416015625
0,361;-0.3460693359375
0,362;-0.3460693359375
0,363;-0.34576416015625
0,364;-0.34515380859375
0,365;-0.34576416015625
0,366;-0.34576416015625
0,367;-0.34576416015625
0,368;-0.3460693359375
0,369;-0.345458984375
0,37;-0.3460693359375
0,371;-0.3460693359375
0,372;-0.345458984375
0,373;-0.3460693359375
0,374;-0.3460693359375
0,375;-0.34576416015625
0,376;-0.345458984375
0,377;-0.34576416015625
0,378;-0.34576416015625
0,379;-0.3460693359375
0,38;-0.3460693359375
0,381;-0.345458984375
0,382;-0.34637451171875
0,383;-0.34515380859375
0,384;-0.34576416015625
0,385;-0.345458984375
0,386;-0.34576416015625
0,387;-0.34576416015625
0,388;-0.34576416015625
0,389;-0.345458984375
0,39;-0.3460693359375
0,391;-0.3460693359375
0,392;-0.34576416015625
0,393;-0.345458984375
0,394;-0.3460693359375
0,395;-0.345458984375
0,396;-0.34576416015625
0,397;-0.345458984375
0,398;-0.3460693359375
0,399;-0.34576416015625
0,4;-0.345458984375
0,401;-0.3460693359375
0,402;-0.34637451171875
0,403;-0.34515380859375
0,404;-0.34576416015625
0,405;-0.3460693359375
0,406;-0.345458984375
0,407;-0.345458984375
0,408;-0.345458984375
0,409;-0.34576416015625
0,41;-0.34515380859375
0,411;-0.345458984375
0,412;-0.34576416015625
0,413;-0.34576416015625
0,414;-0.34576416015625
0,415;-0.345458984375
0,416;-0.3460693359375
0,417;-0.34576416015625
0,418;-0.34576416015625
0,419;-0.3460693359375
0,42;-0.345458984375
0,421;-0.345458984375
0,422;-0.34576416015625
0,423;-0.34515380859375
0,424;-0.3460693359375
0,425;-0.3460693359375
0,426;-0.34515380859375
0,427;-0.345458984375
0,428;-0.34576416015625
0,429;-0.34576416015625
0,43;-0.345458984375
0,431;-0.3460693359375
0,432;-0.34576416015625
0,433;-0.3460693359375
0,434;-0.34576416015625
0,435;-0.345458984375
0,436;-0.345458984375
0,437;-0.3460693359375
0,438;-0.3460693359375
0,439;-0.3460693359375
0,44;-0.34576416015625
0,441;-0.34576416015625
0,442;-0.345458984375
0,443;-0.34576416015625
0,444;-0.3460693359375
0,445;-0.3460693359375
0,446;-0.345458984375
0,447;-0.345458984375
0,448;-0.34576416015625
0,449;-0.3460693359375
0,45;-0.3460693359375
0,451;-0.345458984375
0,452;-0.34576416015625
0,453;-0.3460693359375
0,454;-0.34576416015625
0,455;-0.34637451171875
0,456;-0.345458984375
0,457;-0.34576416015625
0,458;-0.34576416015625
0,459;-0.3460693359375
0,46;-0.345458984375
0,461;-0.345458984375
0,462;-0.345458984375
0,463;-0.34576416015625
0,464;-0.345458984375
0,465;-0.34515380859375
0,466;-0.345458984375
0,467;-0.34576416015625
0,468;-0.345458984375
0,469;-0.3460693359375
0,47;-0.34576416015625
0,471;-0.345458984375
0,472;-0.34576416015625
0,473;-0.34576416015625
0,474;-0.34576416015625
0,475;-0.345458984375
0,476;-0.34576416015625
0,477;-0.3460693359375
0,478;-0.3460693359375
0,479;-0.34576416015625
0,48;-0.345458984375
0,481;-0.34576416015625
0,482;-0.34637451171875
0,483;-0.34576416015625
0,484;-0.34576416015625
0,485;-0.345458984375
0,486;-0.345458984375
0,487;-0.345458984375
0,488;-0.3460693359375
0,489;-0.34576416015625
0,49;-0.34576416015625
0,491;-0.34576416015625
0,492;-0.34576416015625
0,493;-0.34576416015625
0,494;-0.34515380859375
0,495;-0.345458984375
0,496;-0.34576416015625
0,497;-0.34576416015625
0,498;-0.34576416015625
0,499;-0.345458984375
0,5;-0.34515380859375
0,501;-0.34576416015625
0,502;-0.34576416015625
0,503;-0.34576416015625
0,504;-0.345458984375
0,505;-0.345458984375
0,506;-0.34576416015625
0,507;-0.34576416015625
0,508;-0.34576416015625
0,509;-0.345458984375
0,51;-0.3460693359375
0,511;-0.34576416015625
0,512;-0.34576416015625
0,513;-0.34576416015625
0,514;-0.34515380859375
0,515;-0.345458984375
0,516;-0.34576416015625
0,517;-0.34576416015625
0,518;-0.34576416015625
0,519;-0.34576416015625
0,52;-0.345458984375
0,521;-0.3460693359375
0,522;-0.345458984375
0,523;-0.345458984375
0,524;-0.3460693359375
0,525;-0.34515380859375
0,526;-0.34576416015625
0,527;-0.34576416015625
0,528;-0.34576416015625
0,529;-0.3460693359375
0,53;-0.345458984375
0,531;-0.3460693359375
0,532;-0.34576416015625
0,533;-0.34576416015625
0,534;-0.34576416015625
0,535;-0.34576416015625
0,536;-0.34576416015625
0,537;-0.345458984375
0,538;-0.3460693359375
0,539;-0.3460693359375
0,54;-0.345458984375
0,541;-0.34576416015625
0,542;-0.34576416015625
0,543;-0.3460693359375
0,544;-0.34576416015625
0,545;-0.34576416015625
0,546;-0.345458984375
0,547;-0.34576416015625
0,548;-0.3460693359375
0,549;-0.34576416015625
0,55;-0.34515380859375
0,551;-0.345458984375
0,552;-0.3460693359375
0,553;-0.34576416015625
0,554;-0.34576416015625
0,555;-0.3460693359375
0,556;-0.34576416015625
0,557;-0.34576416015625
0,558;-0.3460693359375
0,559;-0.34576416015625
0,56;-0.34637451171875
0,561;-0.34576416015625
0,562;-0.345458984375
0,563;-0.3460693359375
0,564;-0.3460693359375
0,565;-0.345458984375
0,566;-0.34576416015625
0,567;-0.345458984375
0,568;-0.34576416015625
0,569;-0.345458984375
0,57;-0.3460693359375
0,571;-0.3448486328125
0,572;-0.34515380859375
0,573;-0.3460693359375
0,574;-0.345458984375
0,575;-0.34576416015625
0,576;-0.3460693359375
0,577;-0.345458984375
0,578;-0.3460693359375
0,579;-0.345458984375
0,58;-0.34576416015625
0,581;-0.34515380859375
0,582;-0.34576416015625
0,583;-0.34576416015625
0,584;-0.34576416015625
0,585;-0.3460693359375
0,586;-0.34576416015625
0,587;-0.34515380859375
0,588;-0.34576416015625
0,589;-0.345458984375
0,59;-0.34576416015625
0,591;-0.3460693359375
0,592;-0.34576416015625
0,593;-0.345458984375
0,594;-0.34576416015625
0,595;-0.345458984375
0,596;-0.34515380859375
0,597;-0.34576416015625
0,598;-0.345458984375
0,599;-0.34576416015625
0,6;-0.345458984375
0,601;-0.345458984375
0,602;-0.34576416015625
0,603;-0.34637451171875
0,604;-0.345458984375
0,605;-0.34576416015625
0,606;-0.34515380859375
0,607;-0.345458984375
0,608;-0.3460693359375
0,609;-0.3460693359375
0,61;-0.34576416015625
0,611;-0.34576416015625
0,612;-0.34637451171875
0,613;-0.34637451171875
0,614;-0.34576416015625
0,615;-0.34515380859375
0,616;-0.34576416015625
0,617;-0.345458984375
0,618;-0.345458984375
0,619;-0.345458984375
0,62;-0.345458984375
0,621;-0.3460693359375
0,622;-0.34515380859375
0,623;-0.3460693359375
0,624;-0.34576416015625
0,625;-0.345458984375
0,626;-0.34576416015625
0,627;-0.345458984375
0,628;-0.3460693359375
0,629;-0.34576416015625
0,63;-0.3460693359375
0,631;-0.34515380859375
0,632;-0.3460693359375
0,633;-0.3460693359375
0,634;-0.34515380859375
0,635;-0.3460693359375
0,636;-0.34576416015625
0,637;-0.34576416015625
0,638;-0.345458984375
0,639;-0.34576416015625
0,64;-0.34576416015625
0,641;-0.3460693359375
0,642;-0.345458984375
0,643;-0.34576416015625
0,644;-0.34576416015625
0,645;-0.34576416015625
0,646;-0.345458984375
0,647;-0.34576416015625
0,648;-0.34576416015625
0,649;-0.3460693359375
0,65;-0.34576416015625
0,651;-0.345458984375
0,652;-0.345458984375
0,653;-0.34576416015625
0,654;-0.34576416015625
0,655;-0.345458984375
0,656;-0.34637451171875
0,657;-0.345458984375
0,658;-0.3460693359375
0,659;-0.3460693359375
0,66;-0.34576416015625
0,661;-0.34576416015625
0,662;-0.34576416015625
0,663;-0.34576416015625
0,664;-0.345458984375
0,665;-0.34576416015625
0,666;-0.34515380859375
0,667;-0.3460693359375
0,668;-0.34576416015625
0,669;-0.345458984375
0,67;-0.345458984375
0,671;-0.34576416015625
0,672;-0.34515380859375
0,673;-0.34637451171875
0,674;-0.34576416015625
0,675;-0.34576416015625
0,676;-0.3460693359375
0,677;-0.34576416015625
0,678;-0.34576416015625
0,679;-0.345458984375
0,68;-0.345458984375
0,681;-0.34576416015625
0,682;-0.3460693359375
0,683;-0.3460693359375
0,684;-0.34576416015625
0,685;-0.345458984375
0,686;-0.34637451171875
0,687;-0.345458984375
0,688;-0.34576416015625
0,689;-0.34576416015625
0,69;-0.3460693359375
0,691;-0.345458984375
0,692;-0.34576416015625
0,693;-0.34576416015625
0,694;-0.3460693359375
0,695;-0.3460693359375
0,696;-0.3460693359375
0,697;-0.34637451171875
0,698;-0.34576416015625
0,699;-0.34576416015625
0,7;-0.34576416015625
0,701;-0.3460693359375
0,702;-0.34576416015625
0,703;-0.34576416015625
0,704;-0.34576416015625
0,705;-0.345458984375
0,706;-0.3460693359375
0,707;-0.34515380859375
0,708;-0.34576416015625
0,709;-0.345458984375
0,71;-0.34576416015625
0,711;-0.34637451171875
0,712;-0.34515380859375
0,713;-0.34576416015625
0,714;-0.3460693359375
0,715;-0.345458984375
0,716;-0.34576416015625
0,717;-0.34576416015625
0,718;-0.345458984375
0,719;-0.345458984375
0,72;-0.34576416015625
0,721;-0.34576416015625
0,722;-0.345458984375
0,723;-0.345458984375
0,724;-0.34576416015625
0,725;-0.3460693359375
0,726;-0.3460693359375
0,727;-0.34576416015625
0,728;-0.34576416015625
0,729;-0.34576416015625
0,73;-0.34576416015625
0,731;-0.345458984375
0,732;-0.345458984375
0,733;-0.3460693359375
0,734;-0.34576416015625
0,735;-0.345458984375
0,736;-0.345458984375
0,737;-0.34515380859375
0,738;-0.345458984375
0,739;-0.345458984375
0,74;-0.34637451171875
0,741;-0.345458984375
0,742;-0.3448486328125
0,743;-0.345458984375
0,744;-0.3460693359375
0,745;-0.34576416015625
0,746;-0.34576416015625
0,747;-0.34576416015625
0,748;-0.345458984375
0,749;-0.345458984375
0,75;-0.345458984375
0,751;-0.34576416015625
0,752;-0.3460693359375
0,753;-0.3460693359375
0,754;-0.34515380859375
0,755;-0.34576416015625
0,756;-0.3460693359375
0,757;-0.34576416015625
0,758;-0.34576416015625
0,759;-0.345458984375
0,76;-0.34576416015625
0,761;-0.345458984375
0,762;-0.3460693359375
0,763;-0.34576416015625
0,764;-0.34515380859375
0,765;-0.345458984375
0,766;-0.34576416015625
0,767;-0.34576416015625
0,768;-0.345458984375
0,769;-0.34576416015625
0,77;-0.345458984375
0,771;-0.34576416015625
0,772;-0.3460693359375
0,773;-0.345458984375
0,774;-0.345458984375
0,775;-0.34576416015625
0,776;-0.34637451171875
0,777;-0.34576416015625
0,778;-0.345458984375
0,779;-0.345458984375
0,78;-0.3460693359375
0,781;-0.345458984375
0,782;-0.3460693359375
0,783;-0.34576416015625
0,784;-0.345458984375
0,785;-0.345458984375
0,786;-0.3460693359375
0,787;-0.34576416015625
0,788;-0.34515380859375
0,789;-0.345458984375
0,79;-0.34576416015625
0,791;-0.34576416015625
0,792;-0.345458984375
0,793;-0.3460693359375
0,794;-0.3460693359375
0,795;-0.3460693359375
0,796;-0.345458984375
0,797;-0.34576416015625
0,798;-0.34576416015625
0,799;-0.345458984375
0,8;-0.345458984375
0,801;-0.34576416015625
0,802;-0.34576416015625
0,803;-0.345458984375
0,804;-0.3460693359375
0,805;-0.34637451171875
0,806;-0.345458984375
0,807;-0.345458984375
0,808;-0.34576416015625
0,809;-0.345458984375
0,81;-0.34515380859375
0,811;-0.34576416015625
0,812;-0.3460693359375
0,813;-0.345458984375
0,814;-0.34576416015625
0,815;-0.345458984375
0,816;-0.34576416015625
0,817;-0.345458984375
0,818;-0.3460693359375
0,819;-0.34576416015625
0,82;-0.3460693359375
0,821;-0.34576416015625
0,822;-0.34576416015625
0,823;-0.345458984375
0,824;-0.34576416015625
0,825;-0.34576416015625
0,826;-0.345458984375
0,827;-0.345458984375
0,828;-0.34576416015625
0,829;-0.34576416015625
0,83;-0.34576416015625
0,831;-0.34576416015625
0,832;-0.34576416015625
0,833;-0.345458984375
0,834;-0.34576416015625
0,835;-0.34576416015625
0,836;-0.34515380859375
0,837;-0.34576416015625
0,838;-0.345458984375
0,839;-0.34576416015625
0,84;-0.3460693359375
0,841;-0.34576416015625
0,842;-0.3460693359375
0,843;-0.34576416015625
0,844;-0.34515380859375
0,845;-0.345458984375
0,846;-0.3460693359375
0,847;-0.3460693359375
0,848;-0.34576416015625
0,849;-0.34637451171875
0,85;-0.3460693359375
0,851;-0.34576416015625
0,852;-0.34576416015625
0,853;-0.34576416015625
0,854;-0.345458984375
0,855;-0.34515380859375
0,856;-0.34576416015625
0,857;-0.34637451171875
0,858;-0.34515380859375
0,859;-0.3460693359375
0,86;-0.3460693359375
0,861;-0.34576416015625
0,862;-0.34576416015625
0,863;-0.34637451171875
0,864;-0.34576416015625
0,865;-0.34576416015625
0,866;-0.3460693359375
0,867;-0.345458984375
0,868;-0.34576416015625
0,869;-0.34576416015625
0,87;-0.3460693359375
0,871;-0.34515380859375
0,872;-0.345458984375
0,873;-0.3460693359375
0,874;-0.345458984375
0,875;-0.345458984375
0,876;-0.34576416015625
0,877;-0.345458984375
0,878;-0.34576416015625
0,879;-0.34576416015625
0,88;-0.3460693359375
0,881;-0.34515380859375
0,882;-0.34576416015625
0,883;-0.345458984375
0,884;-0.34576416015625
0,885;-0.34576416015625
0,886;-0.345458984375
0,887;-0.34515380859375
0,888;-0.34576416015625
0,889;-0.34576416015625
0,89;-0.34576416015625
0,891;-0.34576416015625
0,892;-0.34637451171875
0,893;-0.34515380859375
0,894;-0.345458984375
0,895;-0.34576416015625
0,896;-0.34576416015625
0,897;-0.345458984375
0,898;-0.3460693359375
0,899;-0.3460693359375
0,9;-0.34576416015625
0,901;-0.34576416015625
0,902;-0.34576416015625
0,903;-0.345458984375
0,904;-0.34576416015625
0,905;-0.34637451171875
0,906;-0.34576416015625
0,907;-0.3460693359375
0,908;-0.345458984375
0,909;-0.3460693359375
0,91;-0.34515380859375
0,911;-0.3460693359375
0,912;-0.3460693359375
0,913;-0.345458984375
0,914;-0.345458984375
0,915;-0.345458984375
0,916;-0.34515380859375
0,917;-0.34576416015625
0,918;-0.34576416015625
0,919;-0.345458984375
0,92;-0.34576416015625
0,921;-0.345458984375
0,922;-0.34576416015625
0,923;-0.34515380859375
0,924;-0.3448486328125
0,925;-0.345458984375
0,926;-0.34515380859375
0,927;-0.34576416015625
0,928;-0.34576416015625
0,929;-0.345458984375
0,93;-0.345458984375
0,931;-0.34637451171875
0,932;-0.34576416015625
0,933;-0.3460693359375
0,934;-0.345458984375
0,935;-0.345458984375
0,936;-0.345458984375
0,937;-0.345458984375
0,938;-0.345458984375
0,939;-0.3460693359375
0,94;-0.3460693359375
0,941;-0.3460693359375
0,942;-0.34576416015625
0,943;-0.34576416015625
0,944;-0.3460693359375
0,945;-0.345458984375
0,946;-0.34576416015625
0,947;-0.34576416015625
0,948;-0.34576416015625
0,949;-0.345458984375
0,95;-0.345458984375
0,951;-0.34576416015625
0,952;-0.34576416015625
0,953;-0.34515380859375
0,954;-0.345458984375
0,955;-0.3460693359375
0,956;-0.34576416015625
0,957;-0.3460693359375
0,958;-0.34515380859375
0,959;-0.34576416015625
0,96;-0.34576416015625
0,961;-0.34576416015625
0,962;-0.34576416015625
0,963;-0.34576416015625
0,964;-0.34576416015625
0,965;-0.3460693359375
0,966;-0.345458984375
0,967;-0.345458984375
0,968;-0.34576416015625
0,969;-0.3460693359375
0,97;-0.34515380859375
0,971;-0.3460693359375
0,972;-0.345458984375
0,973;-0.34637451171875
0,974;-0.34576416015625
0,975;-0.34576416015625
0,976;-0.3460693359375
0,977;-0.3460693359375
0,978;-0.345458984375
0,979;-0.3460693359375
0,98;-0.34576416015625
0,981;-0.345458984375
0,982;-0.34576416015625
0,983;-0.3460693359375
0,984;-0.34576416015625
0,985;-0.34637451171875
0,986;-0.34576416015625
0,987;-0.345458984375
0,988;-0.34576416015625
0,989;-0.34576416015625
0,99;-0.34576416015625
0,991;-0.3460693359375
0,992;-0.3460693359375
0,993;-0.345458984375
0,994;-0.34576416015625
0,995;-0.34515380859375
0,996;-0.345458984375
0,997;-0.34576416015625
0,998;-0.345458984375
0,999;-0.34576416015625
1;-0.34515380859375
1,001;-0.34576416015625
1,002;-0.3460693359375
1,003;-0.34576416015625
1,004;-0.34515380859375
1,005;-0.345458984375
1,006;-0.345458984375
1,007;-0.3460693359375
1,008;-0.345458984375
1,009;-0.345458984375
1,01;-0.345458984375
1,011;-0.34576416015625
1,012;-0.34576416015625
1,013;-0.345458984375
1,014;-0.34515380859375
1,015;-0.34576416015625
1,016;-0.3460693359375
1,017;-0.345458984375
1,018;-0.34576416015625
1,019;-0.345458984375
1,02;-0.34576416015625
1,021;-0.34576416015625
1,022;-0.345458984375
1,023;-0.3460693359375
1,024;-0.34576416015625
1,025;-0.34576416015625
1,026;-0.34515380859375
1,027;-0.34576416015625
1,028;-0.3460693359375
1,029;-0.34576416015625
1,03;-0.345458984375
1,031;-0.3460693359375
1,032;-0.345458984375
1,033;-0.34576416015625
1,034;-0.345458984375
1,035;-0.34576416015625
1,036;-0.345458984375
1,037;-0.345458984375
1,038;-0.345458984375
1,039;-0.345458984375
1,04;-0.345458984375
1,041;-0.34637451171875
1,042;-0.34576416015625
1,043;-0.34576416015625
1,044;-0.3460693359375
1,045;-0.345458984375
1,046;-0.345458984375
1,047;-0.345458984375
1,048;-0.345458984375
1,049;-0.3460693359375
1,05;-0.345458984375
1,051;-0.34576416015625
1,052;-0.34576416015625
1,053;-0.3460693359375
1,054;-0.34576416015625
1,055;-0.34576416015625
1,056;-0.34576416015625
1,057;-0.34515380859375
1,058;-0.34576416015625
1,059;-0.34576416015625
1,06;-0.3460693359375
1,061;-0.345458984375
1,062;-0.34576416015625
1,063;-0.34515380859375
1,064;-0.34576416015625
1,065;-0.34576416015625
1,066;-0.34576416015625
1,067;-0.34576416015625
1,068;-0.34576416015625
1,069;-0.345458984375
1,07;-0.3460693359375
1,071;-0.345458984375
1,072;-0.345458984375
1,073;-0.345458984375
1,074;-0.3460693359375
1,075;-0.345458984375
1,076;-0.34576416015625
1,077;-0.3460693359375
1,078;-0.3460693359375
1,079;-0.34576416015625
1,08;-0.3460693359375
1,081;-0.34576416015625
1,082;-0.3460693359375
1,083;-0.345458984375
1,084;-0.34576416015625
1,085;-0.34576416015625
1,086;-0.3460693359375
1,087;-0.34576416015625
1,088;-0.34576416015625
1,089;-0.3448486328125
1,09;-0.345458984375
1,091;-0.34576416015625
1,092;-0.345458984375
1,093;-0.345458984375
1,094;-0.34576416015625
1,095;-0.345458984375
1,096;-0.345458984375
1,097;-0.34576416015625
1,098;-0.345458984375
1,099;-0.34576416015625
1,1;-0.345458984375
1,101;-0.3460693359375
1,102;-0.34576416015625
1,103;-0.34576416015625
1,104;-0.345458984375
1,105;-0.3460693359375
1,106;-0.345458984375
1,107;-0.345458984375
1,108;-0.345458984375
1,109;-0.34576416015625
1,11;-0.345458984375
1,111;-0.345458984375
1,112;-0.345458984375
1,113;-0.34637451171875
1,114;-0.34576416015625
1,115;-0.3460693359375
1,116;-0.34637451171875
1,117;-0.34576416015625
1,118;-0.345458984375
1,119;-0.3460693359375
1,12;-0.34576416015625
1,121;-0.34576416015625
1,122;-0.345458984375
1,123;-0.3460693359375
1,124;-0.34576416015625
1,125;-0.345458984375
1,126;-0.345458984375
1,127;-0.3460693359375
1,128;-0.345458984375
1,129;-0.3460693359375
1,13;-0.345458984375
1,131;-0.3460693359375
1,132;-0.34515380859375
1,133;-0.345458984375
1,134;-0.34576416015625
1,135;-0.34637451171875
1,136;-0.345458984375
1,137;-0.34576416015625
1,138;-0.345458984375
1,139;-0.3460693359375
1,14;-0.345458984375
1,141;-0.3460693359375
1,142;-0.34576416015625
1,143;-0.3460693359375
1,144;-0.3460693359375
1,145;-0.34576416015625
1,146;-0.34576416015625
1,147;-0.34576416015625
1,148;-0.34576416015625
1,149;-0.345458984375
1,15;-0.345458984375
1,151;-0.34576416015625
1,152;-0.34576416015625
1,153;-0.34515380859375
1,154;-0.34515380859375
1,155;-0.345458984375
1,156;-0.34576416015625
1,157;-0.34576416015625
1,158;-0.345458984375
1,159;-0.34576416015625
1,16;-0.34576416015625
1,161;-0.34576416015625
1,162;-0.345458984375
1,163;-0.34576416015625
1,164;-0.345458984375
1,165;-0.345458984375
1,166;-0.34576416015625
1,167;-0.34576416015625
1,168;-0.34576416015625
1,169;-0.3460693359375
1,17;-0.34576416015625
1,171;-0.345458984375
1,172;-0.34576416015625
1,173;-0.34576416015625
1,174;-0.34515380859375
1,175;-0.345458984375
1,176;-0.34576416015625
1,177;-0.3460693359375
1,178;-0.34637451171875
1,179;-0.34515380859375
1,18;-0.345458984375
1,181;-0.3460693359375
1,182;-0.345458984375
1,183;-0.34576416015625
1,184;-0.34576416015625
1,185;-0.345458984375
1,186;-0.34637451171875
1,187;-0.34576416015625
1,188;-0.34576416015625
1,189;-0.34515380859375
1,19;-0.345458984375
1,191;-0.34576416015625
1,192;-0.345458984375
1,193;-0.34576416015625
1,194;-0.34515380859375
1,195;-0.34637451171875
1,196;-0.34637451171875
1,197;-0.34576416015625
1,198;-0.345458984375
1,199;-0.3460693359375
1,2;-0.34576416015625
1,201;-0.34576416015625
1,202;-0.34576416015625
1,203;-0.34515380859375
1,204;-0.34576416015625
1,205;-0.34576416015625
1,206;-0.34576416015625
1,207;-0.345458984375
1,208;-0.345458984375
1,209;-0.345458984375
1,21;-0.34576416015625
1,211;-0.3460693359375
1,212;-0.34576416015625
1,213;-0.3460693359375
1,214;-0.34576416015625
1,215;-0.34576416015625
1,216;-0.34576416015625
1,217;-0.34576416015625
1,218;-0.34515380859375
1,219;-0.345458984375
1,22;-0.34576416015625
1,221;-0.345458984375
1,222;-0.34576416015625
1,223;-0.34515380859375
1,224;-0.34576416015625
1,225;-0.34576416015625
1,226;-0.345458984375
1,227;-0.34576416015625
1,228;-0.345458984375
1,229;-0.3460693359375
1,23;-0.34576416015625
1,231;-0.345458984375
1,232;-0.345458984375
1,233;-0.34576416015625
1,234;-0.3460693359375
1,235;-0.34576416015625
1,236;-0.34515380859375
1,237;-0.3460693359375
1,238;-0.3460693359375
1,239;-0.3460693359375
1,24;-0.34576416015625
1,241;-0.3460693359375
1,242;-0.3460693359375
1,243;-0.34576416015625
1,244;-0.34576416015625
1,245;-0.34576416015625
1,246;-0.345458984375
1,247;-0.34637451171875
1,248;-0.34576416015625
1,249;-0.34576416015625
1,25;-0.34576416015625
1,251;-0.34637451171875
1,252;-0.3460693359375
1,253;-0.34515380859375
1,254;-0.34576416015625
1,255;-0.34576416015625
1,256;-0.345458984375
1,257;-0.345458984375
1,258;-0.3460693359375
1,259;-0.34576416015625
1,26;-0.345458984375
1,261;-0.34576416015625
1,262;-0.3460693359375
1,263;-0.345458984375
1,264;-0.3460693359375
1,265;-0.345458984375
1,266;-0.345458984375
1,267;-0.34576416015625
1,268;-0.34515380859375
1,269;-0.345458984375
1,27;-0.34576416015625
1,271;-0.34576416015625
1,272;-0.34576416015625
1,273;-0.34515380859375
1,274;-0.345458984375
1,275;-0.345458984375
1,276;-0.3460693359375
1,277;-0.345458984375
1,278;-0.345458984375
1,279;-0.3460693359375
1,28;-0.345458984375
1,281;-0.34576416015625
1,282;-0.3448486328125
1,283;-0.34576416015625
1,284;-0.3460693359375
1,285;-0.34576416015625
1,286;-0.34576416015625
1,287;-0.3460693359375
1,288;-0.34515380859375
1,289;-0.34576416015625
1,29;-0.345458984375
1,291;-0.345458984375
1,292;-0.345458984375
1,293;-0.34576416015625
1,294;-0.34576416015625
1,295;-0.345458984375
1,296;-0.34576416015625
1,297;-0.34576416015625
1,298;-0.345458984375
1,299;-0.34576416015625
1,3;-0.345458984375
1,301;-0.3460693359375
1,302;-0.3460693359375
1,303;-0.3460693359375
1,304;-0.34637451171875
1,305;-0.34515380859375
1,306;-0.34576416015625
1,307;-0.345458984375
1,308;-0.345458984375
1,309;-0.345458984375
1,31;-0.345458984375
1,311;-0.34576416015625
1,312;-0.3460693359375
1,313;-0.345458984375
1,314;-0.3460693359375
1,315;-0.345458984375
1,316;-0.34576416015625
1,317;-0.34515380859375
1,318;-0.34576416015625
1,319;-0.34576416015625
1,32;-0.345458984375
1,321;-0.34576416015625
1,322;-0.34576416015625
1,323;-0.34576416015625
1,324;-0.34576416015625
1,325;-0.3460693359375
1,326;-0.345458984375
1,327;-0.34576416015625
1,328;-0.34576416015625
1,329;-0.34515380859375
1,33;-0.3460693359375
1,331;-0.34637451171875
1,332;-0.34576416015625
1,333;-0.34576416015625
1,334;-0.34515380859375
1,335;-0.34515380859375
1,336;-0.34576416015625
1,337;-0.3460693359375
1,338;-0.34576416015625
1,339;-0.34576416015625
1,34;-0.345458984375
1,341;-0.3460693359375
1,342;-0.34637451171875
1,343;-0.345458984375
1,344;-0.3460693359375
1,345;-0.3460693359375
1,346;-0.345458984375
1,347;-0.345458984375
1,348;-0.34515380859375
1,349;-0.3460693359375
1,35;-0.345458984375
1,351;-0.34576416015625
1,352;-0.34576416015625
1,353;-0.3460693359375
1,354;-0.3460693359375
1,355;-0.3460693359375
1,356;-0.3460693359375
1,357;-0.34576416015625
1,358;-0.34576416015625
1,359;-0.3460693359375
1,36;-0.34576416015625
1,361;-0.34576416015625
1,362;-0.34576416015625
1,363;-0.345458984375
1,364;-0.34576416015625
1,365;-0.3460693359375
1,366;-0.345458984375
1,367;-0.34576416015625
1,368;-0.34576416015625
1,369;-0.34576416015625
1,37;-0.34576416015625
1,371;-0.345458984375
1,372;-0.34637451171875
1,373;-0.34576416015625
1,374;-0.34576416015625
1,375;-0.34576416015625
1,376;-0.34576416015625
1,377;-0.34576416015625
1,378;-0.3460693359375
1,379;-0.3460693359375
1,38;-0.34576416015625
1,381;-0.3460693359375
1,382;-0.345458984375
1,383;-0.34576416015625
1,384;-0.34637451171875
1,385;-0.345458984375
1,386;-0.3460693359375
1,387;-0.345458984375
1,388;-0.34576416015625
1,389;-0.3460693359375
1,39;-0.34576416015625
1,391;-0.3460693359375
1,392;-0.345458984375
1,393;-0.34576416015625
1,394;-0.3460693359375
1,395;-0.345458984375
1,396;-0.34576416015625
1,397;-0.34576416015625
1,398;-0.3460693359375
1,399;-0.34576416015625
1,4;-0.34576416015625
1,401;-0.34515380859375
1,402;-0.345458984375
1,403;-0.3460693359375
1,404;-0.34576416015625
1,405;-0.345458984375
1,406;-0.345458984375
1,407;-0.3460693359375
1,408;-0.345458984375
1,409;-0.34576416015625
1,41;-0.345458984375
1,411;-0.345458984375
1,412;-0.3460693359375
1,413;-0.34576416015625
1,414;-0.34576416015625
1,415;-0.34576416015625
1,416;-0.34637451171875
1,417;-0.345458984375
1,418;-0.345458984375
1,419;-0.34637451171875
1,42;-0.3460693359375
1,421;-0.345458984375
1,422;-0.3460693359375
1,423;-0.34576416015625
1,424;-0.34576416015625
1,425;-0.34576416015625
1,426;-0.34576416015625
1,427;-0.3460693359375
1,428;-0.345458984375
1,429;-0.34576416015625
1,43;-0.34576416015625
1,431;-0.3460693359375
1,432;-0.34515380859375
1,433;-0.34515380859375
1,434;-0.34576416015625
1,435;-0.345458984375
1,436;-0.345458984375
1,437;-0.34576416015625
1,438;-0.345458984375
1,439;-0.34576416015625
1,44;-0.3460693359375
1,441;-0.345458984375
1,442;-0.34576416015625
1,443;-0.34576416015625
1,444;-0.34576416015625
1,445;-0.3460693359375
1,446;-0.34576416015625
1,447;-0.3460693359375
1,448;-0.345458984375
1,449;-0.34576416015625
1,45;-0.345458984375
1,451;-0.34515380859375
1,452;-0.34576416015625
1,453;-0.345458984375
1,454;-0.3460693359375
1,455;-0.3460693359375
1,456;-0.34576416015625
1,457;-0.345458984375
1,458;-0.345458984375
1,459;-0.34515380859375
1,46;-0.34576416015625
1,461;-0.345458984375
1,462;-0.34576416015625
1,463;-0.3448486328125
1,464;-0.345458984375
1,465;-0.345458984375
1,466;-0.34515380859375
1,467;-0.345458984375
1,468;-0.345458984375
1,469;-0.34576416015625
1,47;-0.3460693359375
1,471;-0.34637451171875
1,472;-0.3460693359375
1,473;-0.34576416015625
1,474;-0.345458984375
1,475;-0.3460693359375
1,476;-0.34637451171875
1,477;-0.345458984375
1,478;-0.3448486328125
1,479;-0.34576416015625
1,48;-0.34576416015625
1,481;-0.34576416015625
1,482;-0.345458984375
1,483;-0.3460693359375
1,484;-0.34576416015625
1,485;-0.3460693359375
1,486;-0.345458984375
1,487;-0.34576416015625
1,488;-0.34515380859375
1,489;-0.345458984375
1,49;-0.34637451171875
1,491;-0.3448486328125
1,492;-0.345458984375
1,493;-0.345458984375
1,494;-0.34576416015625
1,495;-0.34576416015625
1,496;-0.34576416015625
1,497;-0.345458984375
1,498;-0.345458984375
1,499;-0.34576416015625
1,5;-0.34576416015625
1,501;-0.3460693359375
1,502;-0.34576416015625
1,503;-0.34576416015625
1,504;-0.3460693359375
1,505;-0.345458984375
1,506;-0.34576416015625
1,507;-0.34576416015625
1,508;-0.345458984375
1,509;-0.34576416015625
1,51;-0.34576416015625
1,511;-0.345458984375
1,512;-0.34576416015625
1,513;-0.34515380859375
1,514;-0.34576416015625
1,515;-0.345458984375
1,516;-0.3460693359375
1,517;-0.3448486328125
1,518;-0.3466796875
1,519;-0.345458984375
1,52;-0.345458984375
1,521;-0.34576416015625
1,522;-0.345458984375
1,523;-0.345458984375
1,524;-0.34576416015625
1,525;-0.34576416015625
1,526;-0.3460693359375
1,527;-0.345458984375
1,528;-0.34576416015625
1,529;-0.345458984375
1,53;-0.34576416015625
1,531;-0.34576416015625
1,532;-0.345458984375
1,533;-0.34576416015625
1,534;-0.3460693359375
1,535;-0.345458984375
1,536;-0.345458984375
1,537;-0.3460693359375
1,538;-0.34576416015625
1,539;-0.34576416015625
1,54;-0.34576416015625
1,541;-0.345458984375
1,542;-0.3460693359375
1,543;-0.345458984375
1,544;-0.3460693359375
1,545;-0.34576416015625
1,546;-0.345458984375
1,547;-0.345458984375
1,548;-0.345458984375
1,549;-0.3460693359375
1,55;-0.3460693359375
1,551;-0.34515380859375
1,552;-0.34576416015625
1,553;-0.34515380859375
1,554;-0.345458984375
1,555;-0.3460693359375
1,556;-0.34576416015625
1,557;-0.345458984375
1,558;-0.3460693359375
1,559;-0.3460693359375
1,56;-0.34576416015625
1,561;-0.3460693359375
1,562;-0.3460693359375
1,563;-0.345458984375
1,564;-0.34576416015625
1,565;-0.34576416015625
1,566;-0.34576416015625
1,567;-0.34576416015625
1,568;-0.34576416015625
1,569;-0.34576416015625
1,57;-0.3460693359375
1,571;-0.34576416015625
1,572;-0.3460693359375
1,573;-0.345458984375
1,574;-0.34576416015625
1,575;-0.34576416015625
1,576;-0.34576416015625
1,577;-0.345458984375
1,578;-0.34515380859375
1,579;-0.345458984375
1,58;-0.345458984375
1,581;-0.34576416015625
1,582;-0.3460693359375
1,583;-0.34515380859375
1,584;-0.345458984375
1,585;-0.34576416015625
1,586;-0.34576416015625
1,587;-0.345458984375
1,588;-0.34576416015625
1,589;-0.34576416015625
1,59;-0.345458984375
1,591;-0.3460693359375
1,592;-0.345458984375
1,593;-0.34576416015625
1,594;-0.345458984375
1,595;-0.345458984375
1,596;-0.34576416015625
1,597;-0.34576416015625
1,598;-0.345458984375
1,599;-0.34576416015625
1,6;-0.34515380859375
1,601;-0.34576416015625
1,602;-0.345458984375
1,603;-0.34576416015625
1,604;-0.3460693359375
1,605;-0.3460693359375
1,606;-0.3460693359375
1,607;-0.345458984375
1,608;-0.3460693359375
1,609;-0.34576416015625
1,61;-0.34515380859375
1,611;-0.34576416015625
1,612;-0.34576416015625
1,613;-0.345458984375
1,614;-0.345458984375
1,615;-0.34576416015625
1,616;-0.345458984375
1,617;-0.34515380859375
1,618;-0.345458984375
1,619;-0.34576416015625
1,62;-0.34576416015625
1,621;-0.345458984375
1,622;-0.3460693359375
1,623;-0.34576416015625
1,624;-0.3460693359375
1,625;-0.34576416015625
1,626;-0.34576416015625
1,627;-0.34576416015625
1,628;-0.345458984375
1,629;-0.34576416015625
1,63;-0.345458984375
1,631;-0.345458984375
1,632;-0.3460693359375
1,633;-0.34576416015625
1,634;-0.345458984375
1,635;-0.34576416015625
1,636;-0.34576416015625
1,637;-0.34576416015625
1,638;-0.34576416015625
1,639;-0.345458984375
1,64;-0.34576416015625
1,641;-0.34576416015625
1,642;-0.345458984375
1,643;-0.34637451171875
1,644;-0.3460693359375
1,645;-0.3460693359375
1,646;-0.3460693359375
1,647;-0.34576416015625
1,648;-0.34576416015625
1,649;-0.3460693359375
1,65;-0.34515380859375
1,651;-0.3448486328125
1,652;-0.345458984375
1,653;-0.345458984375
1,654;-0.34576416015625
1,655;-0.34515380859375
1,656;-0.3460693359375
1,657;-0.34576416015625
1,658;-0.345458984375
1,659;-0.34576416015625
1,66;-0.345458984375
1,661;-0.34576416015625
1,662;-0.34576416015625
1,663;-0.34515380859375
1,664;-0.3460693359375
1,665;-0.3460693359375
1,666;-0.34576416015625
1,667;-0.34576416015625
1,668;-0.34515380859375
1,669;-0.34576416015625
1,67;-0.34576416015625
1,671;-0.345458984375
1,672;-0.345458984375
1,673;-0.34576416015625
1,674;-0.345458984375
1,675;-0.345458984375
1,676;-0.345458984375
1,677;-0.34576416015625
1,678;-0.345458984375
1,679;-0.34576416015625
1,68;-0.34576416015625
1,681;-0.345458984375
1,682;-0.345458984375
1,683;-0.345458984375
1,684;-0.34576416015625
1,685;-0.3460693359375
1,686;-0.34515380859375
1,687;-0.345458984375
1,688;-0.34576416015625
1,689;-0.345458984375
1,69;-0.34576416015625
1,691;-0.345458984375
1,692;-0.3460693359375
1,693;-0.34576416015625
1,694;-0.345458984375
1,695;-0.3460693359375
1,696;-0.345458984375
1,697;-0.34637451171875
1,698;-0.34576416015625
1,699;-0.345458984375
1,7;-0.3460693359375
1,701;-0.3460693359375
1,702;-0.345458984375
1,703;-0.3460693359375
1,704;-0.345458984375
1,705;-0.34576416015625
1,706;-0.345458984375
1,707;-0.345458984375
1,708;-0.34576416015625
1,709;-0.345458984375
1,71;-0.34515380859375
1,711;-0.34576416015625
1,712;-0.3460693359375
1,713;-0.34515380859375
1,714;-0.34576416015625
1,715;-0.34576416015625
1,716;-0.345458984375
1,717;-0.34576416015625
1,718;-0.345458984375
1,719;-0.3460693359375
1,72;-0.34515380859375
1,721;-0.3460693359375
1,722;-0.34576416015625
1,723;-0.345458984375
1,724;-0.345458984375
1,725;-0.345458984375
1,726;-0.34515380859375
1,727;-0.34637451171875
1,728;-0.3460693359375
1,729;-0.3460693359375
1,73;-0.34515380859375
1,731;-0.34576416015625
1,732;-0.345458984375
1,733;-0.34576416015625
1,734;-0.345458984375
1,735;-0.345458984375
1,736;-0.345458984375
1,737;-0.345458984375
1,738;-0.34576416015625
1,739;-0.345458984375
1,74;-0.345458984375
1,741;-0.345458984375
1,742;-0.34576416015625
1,743;-0.34637451171875
1,744;-0.3460693359375
1,745;-0.345458984375
1,746;-0.34576416015625
1,747;-0.34576416015625
1,748;-0.3460693359375
1,749;-0.345458984375
1,75;-0.34576416015625
1,751;-0.3460693359375
1,752;-0.34515380859375
1,753;-0.3460693359375
1,754;-0.345458984375
1,755;-0.3460693359375
1,756;-0.34576416015625
1,757;-0.34576416015625
1,758;-0.345458984375
1,759;-0.34576416015625
1,76;-0.34637451171875
1,761;-0.345458984375
1,762;-0.34576416015625
1,763;-0.345458984375
1,764;-0.3460693359375
1,765;-0.3460693359375
1,766;-0.3460693359375
1,767;-0.3460693359375
1,768;-0.345458984375
1,769;-0.345458984375
1,77;-0.345458984375
1,771;-0.34576416015625
1,772;-0.3460693359375
1,773;-0.34576416015625
1,774;-0.34576416015625
1,775;-0.345458984375
1,776;-0.345458984375
1,777;-0.345458984375
1,778;-0.34576416015625
1,779;-0.3460693359375
1,78;-0.345458984375
1,781;-0.34576416015625
1,782;-0.34576416015625
1,783;-0.3460693359375
1,784;-0.34576416015625
1,785;-0.34576416015625
1,786;-0.34576416015625
1,787;-0.34576416015625
1,788;-0.345458984375
1,789;-0.345458984375
1,79;-0.34576416015625
1,791;-0.345458984375
1,792;-0.34576416015625
1,793;-0.34515380859375
1,794;-0.345458984375
1,795;-0.34576416015625
1,796;-0.34576416015625
1,797;-0.34576416015625
1,798;-0.3460693359375
1,799;-0.34576416015625
1,8;-0.345458984375
1,801;-0.34576416015625
1,802;-0.345458984375
1,803;-0.345458984375
1,804;-0.345458984375
1,805;-0.345458984375
1,806;-0.34515380859375
1,807;-0.34576416015625
1,808;-0.34515380859375
1,809;-0.345458984375
1,81;-0.34576416015625
1,811;-0.3460693359375
1,812;-0.34576416015625
1,813;-0.34576416015625
1,814;-0.34576416015625
1,815;-0.345458984375
1,816;-0.3448486328125
1,817;-0.345458984375
1,818;-0.34515380859375
1,819;-0.345458984375
1,82;-0.345458984375
1,821;-0.345458984375
1,822;-0.3460693359375
1,823;-0.3460693359375
1,824;-0.34576416015625
1,825;-0.34576416015625
1,826;-0.345458984375
1,827;-0.34576416015625
1,828;-0.3460693359375
1,829;-0.3460693359375
1,83;-0.345458984375
1,831;-0.34515380859375
1,832;-0.345458984375
1,833;-0.345458984375
1,834;-0.345458984375
1,835;-0.34515380859375
1,836;-0.3460693359375
1,837;-0.34576416015625
1,838;-0.345458984375
1,839;-0.345458984375
1,84;-0.34637451171875
1,841;-0.34576416015625
1,842;-0.34576416015625
1,843;-0.345458984375
1,844;-0.34515380859375
1,845;-0.345458984375
1,846;-0.345458984375
1,847;-0.345458984375
1,848;-0.345458984375
1,849;-0.34576416015625
1,85;-0.345458984375
1,851;-0.34576416015625
1,852;-0.34576416015625
1,853;-0.34576416015625
1,854;-0.345458984375
1,855;-0.345458984375
1,856;-0.34576416015625
1,857;-0.3460693359375
1,858;-0.345458984375
1,859;-0.345458984375
1,86;-0.345458984375
1,861;-0.345458984375
1,862;-0.345458984375
1,863;-0.3460693359375
1,864;-0.345458984375
1,865;-0.34576416015625
1,866;-0.34576416015625
1,867;-0.34576416015625
1,868;-0.3460693359375
1,869;-0.345458984375
1,87;-0.34576416015625
1,871;-0.345458984375
1,872;-0.3460693359375
1,873;-0.345458984375
1,874;-0.345458984375
1,875;-0.34576416015625
1,876;-0.345458984375
1,877;-0.34576416015625
1,878;-0.34576416015625
1,879;-0.34637451171875
1,88;-0.345458984375
1,881;-0.345458984375
1,882;-0.34576416015625
1,883;-0.34576416015625
1,884;-0.345458984375
1,885;-0.345458984375
1,886;-0.34576416015625
1,887;-0.34576416015625
1,888;-0.34576416015625
1,889;-0.34576416015625
1,89;-0.345458984375
1,891;-0.345458984375
1,892;-0.345458984375
1,893;-0.34576416015625
1,894;-0.34576416015625
1,895;-0.345458984375
1,896;-0.3448486328125
1,897;-0.3460693359375
1,898;-0.34576416015625
1,899;-0.34576416015625
1,9;-0.34576416015625
1,901;-0.3460693359375
1,902;-0.3460693359375
1,903;-0.345458984375
1,904;-0.34576416015625
1,905;-0.345458984375
1,906;-0.34637451171875
1,907;-0.3460693359375
1,908;-0.34576416015625
1,909;-0.3460693359375
1,91;-0.34576416015625
1,911;-0.34576416015625
1,912;-0.34576416015625
1,913;-0.34576416015625
1,914;-0.34576416015625
1,915;-0.345458984375
1,916;-0.34576416015625
1,917;-0.345458984375
1,918;-0.34576416015625
1,919;-0.3460693359375
1,92;-0.345458984375
1,921;-0.345458984375
1,922;-0.34515380859375
1,923;-0.345458984375
1,924;-0.34576416015625
1,925;-0.34576416015625
1,926;-0.34637451171875
1,927;-0.345458984375
1,928;-0.345458984375
1,929;-0.34576416015625
1,93;-0.3448486328125
1,931;-0.345458984375
1,932;-0.34515380859375
1,933;-0.345458984375
1,934;-0.345458984375
1,935;-0.345458984375
1,936;-0.34576416015625
1,937;-0.3460693359375
1,938;-0.34576416015625
1,939;-0.34515380859375
1,94;-0.34576416015625
1,941;-0.34576416015625
1,942;-0.345458984375
1,943;-0.345458984375
1,944;-0.34576416015625
1,945;-0.345458984375
1,946;-0.345458984375
1,947;-0.34515380859375
1,948;-0.34576416015625
1,949;-0.34515380859375
1,95;-0.34576416015625
1,951;-0.3460693359375
1,952;-0.34515380859375
1,953;-0.34515380859375
1,954;-0.3460693359375
1,955;-0.345458984375
1,956;-0.34576416015625
1,957;-0.34515380859375
1,958;-0.345458984375
1,959;-0.34576416015625
1,96;-0.34576416015625
1,961;-0.345458984375
1,962;-0.345458984375
1,963;-0.345458984375
1,964;-0.34576416015625
1,965;-0.345458984375
1,966;-0.34576416015625
1,967;-0.345458984375
1,968;-0.345458984375
1,969;-0.3460693359375
1,97;-0.34576416015625
1,971;-0.34515380859375
1,972;-0.34576416015625
1,973;-0.34576416015625
1,974;-0.34515380859375
1,975;-0.345458984375
1,976;-0.34576416015625
1,977;-0.3460693359375
1,978;-0.34515380859375
1,979;-0.34576416015625
1,98;-0.345458984375
1,981;-0.345458984375
1,982;-0.3460693359375
1,983;-0.345458984375
1,984;-0.345458984375
1,985;-0.345458984375
1,986;-0.345458984375
1,987;-0.34576416015625
1,988;-0.345458984375
1,989;-0.345458984375
1,99;-0.345458984375
1,991;-0.34576416015625
1,992;-0.345458984375
1,993;-0.34576416015625
1,994;-0.345458984375
1,995;-0.345458984375
1,996;-0.345458984375
1,997;-0.345458984375
1,998;-0.34515380859375
1,999;-0.34515380859375
2;-0.3460693359375
2,001;-0.34515380859375
2,002;-0.34576416015625
2,003;-0.345458984375
2,004;-0.34515380859375
2,005;-0.3460693359375
2,006;-0.3460693359375
2,007;-0.34515380859375
2,008;-0.34515380859375
2,009;-0.34576416015625
2,01;-0.345458984375
2,011;-0.3460693359375
2,012;-0.34576416015625
2,013;-0.34576416015625
2,014;-0.345458984375
2,015;-0.3460693359375
2,016;-0.34515380859375
2,017;-0.34576416015625
2,018;-0.345458984375
2,019;-0.3460693359375
2,02;-0.34576416015625
2,021;-0.34576416015625
2,022;-0.345458984375
2,023;-0.34576416015625
2,024;-0.345458984375
2,025;-0.34576416015625
2,026;-0.34637451171875
2,027;-0.34576416015625
2,028;-0.34576416015625
2,029;-0.345458984375
2,03;-0.345458984375
2,031;-0.34576416015625
2,032;-0.34515380859375
2,033;-0.34576416015625
2,034;-0.34576416015625
2,035;-0.345458984375
2,036;-0.3460693359375
2,037;-0.345458984375
2,038;-0.345458984375
2,039;-0.345458984375
2,04;-0.34576416015625
2,041;-0.345458984375
2,042;-0.345458984375
2,043;-0.345458984375
2,044;-0.34576416015625
2,045;-0.34576416015625
2,046;-0.345458984375
2,047;-0.34576416015625
2,048;-0.345458984375
2,049;-0.345458984375
2,05;-0.34576416015625
2,051;-0.345458984375
2,052;-0.345458984375
2,053;-0.345458984375
2,054;-0.345458984375
2,055;-0.3460693359375
2,056;-0.345458984375
2,057;-0.34576416015625
2,058;-0.34576416015625
2,059;-0.34515380859375
2,06;-0.3460693359375
2,061;-0.34515380859375
2,062;-0.34515380859375
2,063;-0.34576416015625
2,064;-0.3460693359375
2,065;-0.345458984375
2,066;-0.34576416015625
2,067;-0.345458984375
2,068;-0.3460693359375
2,069;-0.3460693359375
2,07;-0.345458984375
2,071;-0.3460693359375
2,072;-0.345458984375
2,073;-0.34576416015625
2,074;-0.34576416015625
2,075;-0.34515380859375
2,076;-0.34576416015625
2,077;-0.34515380859375
2,078;-0.34576416015625
2,079;-0.3460693359375
2,08;-0.3460693359375
2,081;-0.34576416015625
2,082;-0.34515380859375
2,083;-0.34576416015625
2,084;-0.34576416015625
2,085;-0.3460693359375
2,086;-0.3460693359375
2,087;-0.345458984375
2,088;-0.34576416015625
2,089;-0.34576416015625
2,09;-0.345458984375
2,091;-0.345458984375
2,092;-0.34576416015625
2,093;-0.34576416015625
2,094;-0.34515380859375
2,095;-0.345458984375
2,096;-0.34515380859375
2,097;-0.345458984375
2,098;-0.3460693359375
2,099;-0.3460693359375
2,1;-0.34576416015625
2,101;-0.345458984375
2,102;-0.34576416015625
2,103;-0.34576416015625
2,104;-0.345458984375
2,105;-0.34576416015625
2,106;-0.34576416015625
2,107;-0.34576416015625
2,108;-0.345458984375
2,109;-0.345458984375
2,11;-0.34576416015625
2,111;-0.345458984375
2,112;-0.345458984375
2,113;-0.34576416015625
2,114;-0.3460693359375
2,115;-0.34515380859375
2,116;-0.34576416015625
2,117;-0.345458984375
2,118;-0.345458984375
2,119;-0.3460693359375
2,12;-0.345458984375
2,121;-0.34576416015625
2,122;-0.34576416015625
2,123;-0.345458984375
2,124;-0.34515380859375
2,125;-0.34576416015625
2,126;-0.34576416015625
2,127;-0.345458984375
2,128;-0.34576416015625
2,129;-0.34576416015625
2,13;-0.34576416015625
2,131;-0.34515380859375
2,132;-0.345458984375
2,133;-0.34576416015625
2,134;-0.34576416015625
2,135;-0.345458984375
2,136;-0.345458984375
2,137;-0.34576416015625
2,138;-0.34515380859375
2,139;-0.34576416015625
2,14;-0.345458984375
2,141;-0.34515380859375
2,142;-0.345458984375
2,143;-0.34576416015625
2,144;-0.34637451171875
2,145;-0.34515380859375
2,146;-0.345458984375
2,147;-0.34576416015625
2,148;-0.345458984375
2,149;-0.3460693359375
2,15;-0.34576416015625
2,151;-0.345458984375
2,152;-0.34576416015625
2,153;-0.34576416015625
2,154;-0.345458984375
2,155;-0.34515380859375
2,156;-0.34576416015625
2,157;-0.34515380859375
2,158;-0.34576416015625
2,159;-0.345458984375
2,16;-0.3460693359375
2,161;-0.34515380859375
2,162;-0.34576416015625
2,163;-0.34576416015625
2,164;-0.34576416015625
2,165;-0.34576416015625
2,166;-0.34515380859375
2,167;-0.3460693359375
2,168;-0.34576416015625
2,169;-0.3460693359375
2,17;-0.34515380859375
2,171;-0.34576416015625
2,172;-0.34576416015625
2,173;-0.345458984375
2,174;-0.345458984375
2,175;-0.345458984375
2,176;-0.345458984375
2,177;-0.3460693359375
2,178;-0.345458984375
2,179;-0.34576416015625
2,18;-0.345458984375
2,181;-0.34576416015625
2,182;-0.345458984375
2,183;-0.345458984375
2,184;-0.345458984375
2,185;-0.3460693359375
2,186;-0.345458984375
2,187;-0.345458984375
2,188;-0.3460693359375
2,189;-0.345458984375
2,19;-0.345458984375
2,191;-0.34576416015625
2,192;-0.34576416015625
2,193;-0.34515380859375
2,194;-0.3460693359375
2,195;-0.34515380859375
2,196;-0.345458984375
2,197;-0.345458984375
2,198;-0.3460693359375
2,199;-0.34576416015625
2,2;-0.34576416015625
2,201;-0.345458984375
2,202;-0.345458984375
2,203;-0.34576416015625
2,204;-0.34576416015625
2,205;-0.34576416015625
2,206;-0.34576416015625
2,207;-0.34576416015625
2,208;-0.34515380859375
2,209;-0.345458984375
2,21;-0.34576416015625
2,211;-0.345458984375
2,212;-0.34576416015625
2,213;-0.345458984375
2,214;-0.34576416015625
2,215;-0.34576416015625
2,216;-0.345458984375
2,217;-0.34576416015625
2,218;-0.34576416015625
2,219;-0.34576416015625
2,22;-0.34576416015625
2,221;-0.34576416015625
2,222;-0.34515380859375
2,223;-0.345458984375
2,224;-0.345458984375
2,225;-0.34576416015625
2,226;-0.3460693359375
2,227;-0.345458984375
2,228;-0.34576416015625
2,229;-0.34576416015625
2,23;-0.345458984375
2,231;-0.34576416015625
2,232;-0.34576416015625
2,233;-0.34576416015625
2,234;-0.34576416015625
2,235;-0.3460693359375
2,236;-0.34576416015625
2,237;-0.345458984375
2,238;-0.34576416015625
2,239;-0.34515380859375
2,24;-0.345458984375
2,241;-0.34576416015625
2,242;-0.3460693359375
2,243;-0.345458984375
2,244;-0.34576416015625
2,245;-0.3460693359375
2,246;-0.34515380859375
2,247;-0.3460693359375
2,248;-0.34576416015625
2,249;-0.3460693359375
2,25;-0.345458984375
2,251;-0.345458984375
2,252;-0.345458984375
2,253;-0.34515380859375
2,254;-0.3460693359375
2,255;-0.34576416015625
2,256;-0.34576416015625
2,257;-0.34576416015625
2,258;-0.345458984375
2,259;-0.345458984375
2,26;-0.34515380859375
2,261;-0.345458984375
2,262;-0.3460693359375
2,263;-0.34576416015625
2,264;-0.345458984375
2,265;-0.3460693359375
2,266;-0.34576416015625
2,267;-0.34576416015625
2,268;-0.34576416015625
2,269;-0.34576416015625
2,27;-0.345458984375
2,271;-0.34576416015625
2,272;-0.34576416015625
2,273;-0.34515380859375
2,274;-0.34576416015625
2,275;-0.34576416015625
2,276;-0.345458984375
2,277;-0.34576416015625
2,278;-0.345458984375
2,279;-0.34576416015625
2,28;-0.34576416015625
2,281;-0.3460693359375
2,282;-0.345458984375
2,283;-0.345458984375
2,284;-0.34576416015625
2,285;-0.34576416015625
2,286;-0.345458984375
2,287;-0.345458984375
2,288;-0.3460693359375
2,289;-0.345458984375
2,29;-0.345458984375
2,291;-0.3460693359375
2,292;-0.345458984375
2,293;-0.34515380859375
2,294;-0.3460693359375
2,295;-0.34576416015625
2,296;-0.345458984375
2,297;-0.34576416015625
2,298;-0.345458984375
2,299;-0.34576416015625
2,3;-0.345458984375
2,301;-0.3460693359375
2,302;-0.34576416015625
2,303;-0.34576416015625
2,304;-0.345458984375
2,305;-0.34515380859375
2,306;-0.3460693359375
2,307;-0.345458984375
2,308;-0.345458984375
2,309;-0.3460693359375
2,31;-0.34576416015625
2,311;-0.34515380859375
2,312;-0.34515380859375
2,313;-0.3460693359375
2,314;-0.345458984375
2,315;-0.34576416015625
2,316;-0.34515380859375
2,317;-0.34576416015625
2,318;-0.34576416015625
2,319;-0.3460693359375
2,32;-0.34515380859375
2,321;-0.345458984375
2,322;-0.345458984375
2,323;-0.34576416015625
2,324;-0.34576416015625
2,325;-0.345458984375
2,326;-0.34576416015625
2,327;-0.34515380859375
2,328;-0.34576416015625
2,329;-0.34515380859375
2,33;-0.345458984375
2,331;-0.34576416015625
2,332;-0.34515380859375
2,333;-0.345458984375
2,334;-0.345458984375
2,335;-0.345458984375
2,336;-0.34576416015625
2,337;-0.345458984375
2,338;-0.345458984375
2,339;-0.345458984375
2,34;-0.3460693359375
2,341;-0.345458984375
2,342;-0.345458984375
2,343;-0.345458984375
2,344;-0.34515380859375
2,345;-0.34576416015625
2,346;-0.345458984375
2,347;-0.345458984375
2,348;-0.345458984375
2,349;-0.345458984375
2,35;-0.345458984375
2,351;-0.3460693359375
2,352;-0.345458984375
2,353;-0.345458984375
2,354;-0.345458984375
2,355;-0.34515380859375
2,356;-0.345458984375
2,357;-0.345458984375
2,358;-0.345458984375
2,359;-0.34576416015625
2,36;-0.345458984375
2,361;-0.34515380859375
2,362;-0.34576416015625
2,363;-0.34515380859375
2,364;-0.34576416015625
2,365;-0.345458984375
2,366;-0.3448486328125
2,367;-0.345458984375
2,368;-0.345458984375
2,369;-0.34576416015625
2,37;-0.34515380859375
2,371;-0.34576416015625
2,372;-0.34576416015625
2,373;-0.345458984375
2,374;-0.3460693359375
2,375;-0.34515380859375
2,376;-0.34576416015625
2,377;-0.34576416015625
2,378;-0.34576416015625
2,379;-0.34576416015625
2,38;-0.34576416015625
2,381;-0.345458984375
2,382;-0.34515380859375
2,383;-0.34576416015625
2,384;-0.34515380859375
2,385;-0.34515380859375
2,386;-0.345458984375
2,387;-0.34576416015625
2,388;-0.34515380859375
2,389;-0.34576416015625
2,39;-0.345458984375
2,391;-0.345458984375
2,392;-0.3460693359375
2,393;-0.345458984375
2,394;-0.345458984375
2,395;-0.345458984375
2,396;-0.34576416015625
2,397;-0.34576416015625
2,398;-0.345458984375
2,399;-0.34515380859375
2,4;-0.34515380859375
2,401;-0.3460693359375
2,402;-0.3460693359375
2,403;-0.34576416015625
2,404;-0.34576416015625
2,405;-0.345458984375
2,406;-0.34515380859375
2,407;-0.345458984375
2,408;-0.345458984375
2,409;-0.345458984375
2,41;-0.34576416015625
2,411;-0.345458984375
2,412;-0.34576416015625
2,413;-0.345458984375
2,414;-0.345458984375
2,415;-0.34576416015625
2,416;-0.345458984375
2,417;-0.3460693359375
2,418;-0.34515380859375
2,419;-0.34576416015625
2,42;-0.345458984375
2,421;-0.345458984375
2,422;-0.3460693359375
2,423;-0.345458984375
2,424;-0.345458984375
2,425;-0.34576416015625
2,426;-0.3460693359375
2,427;-0.345458984375
2,428;-0.34515380859375
2,429;-0.345458984375
2,43;-0.34576416015625
2,431;-0.34576416015625
2,432;-0.345458984375
2,433;-0.345458984375
2,434;-0.34576416015625
2,435;-0.345458984375
2,436;-0.3460693359375
2,437;-0.34576416015625
2,438;-0.34515380859375
2,439;-0.34576416015625
2,44;-0.34515380859375
2,441;-0.34576416015625
2,442;-0.345458984375
2,443;-0.345458984375
2,444;-0.34576416015625
2,445;-0.34515380859375
2,446;-0.34576416015625
2,447;-0.345458984375
2,448;-0.34515380859375
2,449;-0.34515380859375
2,45;-0.345458984375
2,451;-0.34515380859375
2,452;-0.345458984375
2,453;-0.34576416015625
2,454;-0.345458984375
2,455;-0.34515380859375
2,456;-0.34515380859375
2,457;-0.34576416015625
2,458;-0.34576416015625
2,459;-0.345458984375
2,46;-0.345458984375
2,461;-0.3460693359375
2,462;-0.345458984375
2,463;-0.34576416015625
2,464;-0.34576416015625
2,465;-0.34576416015625
2,466;-0.34576416015625
2,467;-0.345458984375
2,468;-0.345458984375
2,469;-0.345458984375
2,47;-0.345458984375
2,471;-0.34576416015625
2,472;-0.3460693359375
2,473;-0.34576416015625
2,474;-0.345458984375
2,475;-0.345458984375
2,476;-0.345458984375
2,477;-0.3460693359375
2,478;-0.34576416015625
2,479;-0.34515380859375
2,48;-0.34576416015625
2,481;-0.34576416015625
2,482;-0.34515380859375
2,483;-0.34576416015625
2,484;-0.345458984375
2,485;-0.345458984375
2,486;-0.34515380859375
2,487;-0.345458984375
2,488;-0.34576416015625
2,489;-0.345458984375
2,49;-0.345458984375
2,491;-0.345458984375
2,492;-0.34576416015625
2,493;-0.34576416015625
2,494;-0.3460693359375
2,495;-0.345458984375
2,496;-0.34576416015625
2,497;-0.34576416015625
2,498;-0.34515380859375
2,499;-0.34576416015625
2,5;-0.34515380859375
2,501;-0.34515380859375
2,502;-0.345458984375
2,503;-0.345458984375
2,504;-0.345458984375
2,505;-0.34515380859375
2,506;-0.34515380859375
2,507;-0.345458984375
2,508;-0.34576416015625
2,509;-0.34515380859375
2,51;-0.345458984375
2,511;-0.3460693359375
2,512;-0.345458984375
2,513;-0.345458984375
2,514;-0.34576416015625
2,515;-0.345458984375
2,516;-0.345458984375
2,517;-0.345458984375
2,518;-0.345458984375
2,519;-0.345458984375
2,52;-0.345458984375
2,521;-0.34576416015625
2,522;-0.345458984375
2,523;-0.34576416015625
2,524;-0.34515380859375
2,525;-0.34515380859375
2,526;-0.345458984375
2,527;-0.345458984375
2,528;-0.34576416015625
2,529;-0.34515380859375
2,53;-0.3460693359375
2,531;-0.345458984375
2,532;-0.345458984375
2,533;-0.3460693359375
2,534;-0.34576416015625
2,535;-0.345458984375
2,536;-0.345458984375
2,537;-0.345458984375
2,538;-0.345458984375
2,539;-0.34576416015625
2,54;-0.34515380859375
2,541;-0.345458984375
2,542;-0.345458984375
2,543;-0.345458984375
2,544;-0.3460693359375
2,545;-0.34576416015625
2,546;-0.34576416015625
2,547;-0.34576416015625
2,548;-0.345458984375
2,549;-0.34515380859375
2,55;-0.34576416015625
2,551;-0.345458984375
2,552;-0.345458984375
2,553;-0.345458984375
2,554;-0.34576416015625
2,555;-0.34576416015625
2,556;-0.345458984375
2,557;-0.34576416015625
2,558;-0.34576416015625
2,559;-0.345458984375
2,56;-0.34515380859375
2,561;-0.34637451171875
2,562;-0.34515380859375
2,563;-0.3448486328125
2,564;-0.34576416015625
2,565;-0.34576416015625
2,566;-0.345458984375
2,567;-0.34576416015625
2,568;-0.34576416015625
2,569;-0.345458984375
2,57;-0.345458984375
2,571;-0.345458984375
2,572;-0.3460693359375
2,573;-0.34515380859375
2,574;-0.345458984375
2,575;-0.345458984375
2,576;-0.34515380859375
2,577;-0.34515380859375
2,578;-0.34576416015625
2,579;-0.345458984375
2,58;-0.3448486328125
2,581;-0.345458984375
2,582;-0.34515380859375
2,583;-0.34576416015625
2,584;-0.3460693359375
2,585;-0.3460693359375
2,586;-0.34576416015625
2,587;-0.3460693359375
2,588;-0.3460693359375
2,589;-0.34576416015625
2,59;-0.345458984375
2,591;-0.345458984375
2,592;-0.34637451171875
2,593;-0.34576416015625
2,594;-0.345458984375
2,595;-0.34576416015625
2,596;-0.34576416015625
2,597;-0.345458984375
2,598;-0.34576416015625
2,599;-0.34576416015625
2,6;-0.34515380859375
2,601;-0.345458984375
2,602;-0.34576416015625
2,603;-0.345458984375
2,604;-0.3460693359375
2,605;-0.345458984375
2,606;-0.34576416015625
2,607;-0.345458984375
2,608;-0.345458984375
2,609;-0.34576416015625
2,61;-0.34576416015625
2,611;-0.345458984375
2,612;-0.345458984375
2,613;-0.34515380859375
2,614;-0.345458984375
2,615;-0.34576416015625
2,616;-0.345458984375
2,617;-0.34576416015625
2,618;-0.34515380859375
2,619;-0.345458984375
2,62;-0.34576416015625
2,621;-0.34515380859375
2,622;-0.34515380859375
2,623;-0.34576416015625
2,624;-0.34576416015625
2,625;-0.34576416015625
2,626;-0.34515380859375
2,627;-0.34576416015625
2,628;-0.34576416015625
2,629;-0.345458984375
2,63;-0.345458984375
2,631;-0.34576416015625
2,632;-0.34515380859375
2,633;-0.345458984375
2,634;-0.345458984375
2,635;-0.3460693359375
2,636;-0.34515380859375
2,637;-0.345458984375
2,638;-0.34576416015625
2,639;-0.345458984375
2,64;-0.3460693359375
2,641;-0.34576416015625
2,642;-0.34576416015625
2,643;-0.3460693359375
2,644;-0.34576416015625
2,645;-0.34515380859375
2,646;-0.34576416015625
2,647;-0.34576416015625
2,648;-0.345458984375
2,649;-0.34515380859375
2,65;-0.345458984375
2,651;-0.34576416015625
2,652;-0.345458984375
2,653;-0.345458984375
2,654;-0.34576416015625
2,655;-0.34576416015625
2,656;-0.34576416015625
2,657;-0.34515380859375
2,658;-0.345458984375
2,659;-0.3460693359375
2,66;-0.34515380859375
2,661;-0.34576416015625
2,662;-0.34576416015625
2,663;-0.34576416015625
2,664;-0.34515380859375
2,665;-0.34576416015625
2,666;-0.345458984375
2,667;-0.345458984375
2,668;-0.345458984375
2,669;-0.345458984375
2,67;-0.34576416015625
2,671;-0.3460693359375
2,672;-0.345458984375
2,673;-0.345458984375
2,674;-0.345458984375
2,675;-0.345458984375
2,676;-0.345458984375
2,677;-0.345458984375
2,678;-0.3460693359375
2,679;-0.3460693359375
2,68;-0.34515380859375
2,681;-0.345458984375
2,682;-0.34576416015625
2,683;-0.34515380859375
2,684;-0.34515380859375
2,685;-0.345458984375
2,686;-0.345458984375
2,687;-0.34576416015625
2,688;-0.34515380859375
2,689;-0.3460693359375
2,69;-0.34576416015625
2,691;-0.345458984375
2,692;-0.34576416015625
2,693;-0.345458984375
2,694;-0.34576416015625
2,695;-0.34576416015625
2,696;-0.34515380859375
2,697;-0.345458984375
2,698;-0.34576416015625
2,699;-0.345458984375
2,7;-0.34576416015625
2,701;-0.345458984375
2,702;-0.345458984375
2,703;-0.345458984375
2,704;-0.345458984375
2,705;-0.34515380859375
2,706;-0.345458984375
2,707;-0.345458984375
2,708;-0.3460693359375
2,709;-0.345458984375
2,71;-0.345458984375
2,711;-0.345458984375
2,712;-0.34515380859375
2,713;-0.3460693359375
2,714;-0.34515380859375
2,715;-0.34576416015625
2,716;-0.34576416015625
2,717;-0.34576416015625
2,718;-0.34576416015625
2,719;-0.34576416015625
2,72;-0.34576416015625
2,721;-0.34576416015625
2,722;-0.3460693359375
2,723;-0.345458984375
2,724;-0.3460693359375
2,725;-0.34515380859375
2,726;-0.34576416015625
2,727;-0.34576416015625
2,728;-0.345458984375
2,729;-0.345458984375
2,73;-0.345458984375
2,731;-0.345458984375
2,732;-0.34515380859375
2,733;-0.34515380859375
2,734;-0.345458984375
2,735;-0.34515380859375
2,736;-0.34576416015625
2,737;-0.34515380859375
2,738;-0.34576416015625
2,739;-0.34576416015625
2,74;-0.345458984375
2,741;-0.34576416015625
2,742;-0.345458984375
2,743;-0.345458984375
2,744;-0.345458984375
2,745;-0.34576416015625
2,746;-0.34576416015625
2,747;-0.34515380859375
2,748;-0.3448486328125
2,749;-0.345458984375
2,75;-0.345458984375
2,751;-0.345458984375
2,752;-0.3460693359375
2,753;-0.345458984375
2,754;-0.345458984375
2,755;-0.345458984375
2,756;-0.345458984375
2,757;-0.34576416015625
2,758;-0.34576416015625
2,759;-0.34576416015625
2,76;-0.34576416015625
2,761;-0.34515380859375
2,762;-0.345458984375
2,763;-0.345458984375
2,764;-0.34576416015625
2,765;-0.34576416015625
2,766;-0.345458984375
2,767;-0.345458984375
2,768;-0.34576416015625
2,769;-0.345458984375
2,77;-0.34515380859375
2,771;-0.34515380859375
2,772;-0.345458984375
2,773;-0.345458984375
2,774;-0.3448486328125
2,775;-0.34515380859375
2,776;-0.345458984375
2,777;-0.34515380859375
2,778;-0.34515380859375
2,779;-0.345458984375
2,78;-0.34515380859375
2,781;-0.34576416015625
2,782;-0.34576416015625
2,783;-0.345458984375
2,784;-0.34515380859375
2,785;-0.345458984375
2,786;-0.345458984375
2,787;-0.34576416015625
2,788;-0.34576416015625
2,789;-0.34576416015625
2,79;-0.34576416015625
2,791;-0.345458984375
2,792;-0.345458984375
2,793;-0.3460693359375
2,794;-0.34576416015625
2,795;-0.3460693359375
2,796;-0.34576416015625
2,797;-0.345458984375
2,798;-0.34515380859375
2,799;-0.34576416015625
2,8;-0.34576416015625
2,801;-0.34576416015625
2,802;-0.3460693359375
2,803;-0.34576416015625
2,804;-0.34515380859375
2,805;-0.34576416015625
2,806;-0.345458984375
2,807;-0.345458984375
2,808;-0.34576416015625
2,809;-0.34576416015625
2,81;-0.34576416015625
2,811;-0.34515380859375
2,812;-0.345458984375
2,813;-0.34515380859375
2,814;-0.34515380859375
2,815;-0.34515380859375
2,816;-0.345458984375
2,817;-0.3460693359375
2,818;-0.345458984375
2,819;-0.34576416015625
2,82;-0.3460693359375
2,821;-0.345458984375
2,822;-0.34576416015625
2,823;-0.3448486328125
2,824;-0.34576416015625
2,825;-0.345458984375
2,826;-0.34515380859375
2,827;-0.345458984375
2,828;-0.3460693359375
2,829;-0.34515380859375
2,83;-0.34576416015625
2,831;-0.34576416015625
2,832;-0.345458984375
2,833;-0.34576416015625
2,834;-0.34576416015625
2,835;-0.345458984375
2,836;-0.345458984375
2,837;-0.3460693359375
2,838;-0.345458984375
2,839;-0.34576416015625
2,84;-0.34576416015625
2,841;-0.34576416015625
2,842;-0.34515380859375
2,843;-0.34515380859375
2,844;-0.345458984375
2,845;-0.34576416015625
2,846;-0.345458984375
2,847;-0.345458984375
2,848;-0.345458984375
2,849;-0.345458984375
2,85;-0.34515380859375
2,851;-0.34515380859375
2,852;-0.345458984375
2,853;-0.3460693359375
2,854;-0.345458984375
2,855;-0.3460693359375
2,856;-0.34576416015625
2,857;-0.345458984375
2,858;-0.345458984375
2,859;-0.34576416015625
2,86;-0.34576416015625
2,861;-0.34515380859375
2,862;-0.34576416015625
2,863;-0.345458984375
2,864;-0.345458984375
2,865;-0.345458984375
2,866;-0.34576416015625
2,867;-0.34576416015625
2,868;-0.345458984375
2,869;-0.345458984375
2,87;-0.34576416015625
2,871;-0.345458984375
2,872;-0.34576416015625
2,873;-0.34515380859375
2,874;-0.345458984375
2,875;-0.345458984375
2,876;-0.345458984375
2,877;-0.34515380859375
2,878;-0.345458984375
2,879;-0.34576416015625
2,88;-0.34576416015625
2,881;-0.34576416015625
2,882;-0.34515380859375
2,883;-0.34576416015625
2,884;-0.345458984375
2,885;-0.345458984375
2,886;-0.345458984375
2,887;-0.345458984375
2,888;-0.34515380859375
2,889;-0.34576416015625
2,89;-0.345458984375
2,891;-0.345458984375
2,892;-0.34515380859375
2,893;-0.34576416015625
2,894;-0.345458984375
2,895;-0.34576416015625
2,896;-0.345458984375
2,897;-0.3460693359375
2,898;-0.34576416015625
2,899;-0.345458984375
2,9;-0.345458984375
2,901;-0.34515380859375
2,902;-0.3460693359375
2,903;-0.345458984375
2,904;-0.34576416015625
2,905;-0.345458984375
2,906;-0.34576416015625
2,907;-0.345458984375
2,908;-0.34515380859375
2,909;-0.34515380859375
2,91;-0.345458984375
2,911;-0.34576416015625
2,912;-0.345458984375
2,913;-0.34576416015625
2,914;-0.3460693359375
2,915;-0.345458984375
2,916;-0.345458984375
2,917;-0.34515380859375
2,918;-0.34576416015625
2,919;-0.345458984375
2,92;-0.345458984375
2,921;-0.34515380859375
2,922;-0.34576416015625
2,923;-0.34576416015625
2,924;-0.345458984375
2,925;-0.34576416015625
2,926;-0.345458984375
2,927;-0.34576416015625
2,928;-0.345458984375
2,929;-0.345458984375
2,93;-0.34515380859375
2,931;-0.34576416015625
2,932;-0.345458984375
2,933;-0.3460693359375
2,934;-0.34515380859375
2,935;-0.34515380859375
2,936;-0.34515380859375
2,937;-0.345458984375
2,938;-0.345458984375
2,939;-0.345458984375
2,94;-0.345458984375
2,941;-0.345458984375
2,942;-0.345458984375
2,943;-0.345458984375
2,944;-0.34576416015625
2,945;-0.345458984375
2,946;-0.345458984375
2,947;-0.345458984375
2,948;-0.34576416015625
2,949;-0.3460693359375
2,95;-0.345458984375
2,951;-0.34576416015625
2,952;-0.345458984375
2,953;-0.34576416015625
2,954;-0.3460693359375
2,955;-0.34576416015625
2,956;-0.34576416015625
2,957;-0.345458984375
2,958;-0.34515380859375
2,959;-0.34576416015625
2,96;-0.345458984375
2,961;-0.34576416015625
2,962;-0.34576416015625
2,963;-0.34576416015625
2,964;-0.34576416015625
2,965;-0.34576416015625
2,966;-0.345458984375
2,967;-0.34576416015625
2,968;-0.345458984375
2,969;-0.345458984375
2,97;-0.3460693359375
2,971;-0.34576416015625
2,972;-0.345458984375
2,973;-0.34576416015625
2,974;-0.345458984375
2,975;-0.34576416015625
2,976;-0.34576416015625
2,977;-0.345458984375
2,978;-0.3460693359375
2,979;-0.34637451171875
2,98;-0.34576416015625
2,981;-0.34576416015625
2,982;-0.34576416015625
2,983;-0.34576416015625
2,984;-0.34515380859375
2,985;-0.345458984375
2,986;-0.34515380859375
2,987;-0.345458984375
2,988;-0.34576416015625
2,989;-0.34576416015625
2,99;-0.345458984375
2,991;-0.3460693359375
2,992;-0.345458984375
2,993;-0.34576416015625
2,994;-0.34576416015625
2,995;-0.34576416015625
2,996;-0.34515380859375
2,997;-0.345458984375
2,998;-0.34515380859375
2,999;-0.345458984375
3;-0.34515380859375
3,001;-0.34576416015625
3,002;-0.34515380859375
3,003;-0.34576416015625
3,004;-0.3460693359375
3,005;-0.345458984375
3,006;-0.34576416015625
3,007;-0.34515380859375
3,008;-0.3460693359375
3,009;-0.34576416015625
3,01;-0.34576416015625
3,011;-0.3460693359375
3,012;-0.3460693359375
3,013;-0.34576416015625
3,014;-0.345458984375
3,015;-0.3448486328125
3,016;-0.34515380859375
3,017;-0.34515380859375
3,018;-0.345458984375
3,019;-0.345458984375
3,02;-0.34515380859375
3,021;-0.345458984375
3,022;-0.345458984375
3,023;-0.345458984375
3,024;-0.345458984375
3,025;-0.345458984375
3,026;-0.3460693359375
3,027;-0.345458984375
3,028;-0.345458984375
3,029;-0.34576416015625
3,03;-0.34576416015625
3,031;-0.34515380859375
3,032;-0.3460693359375
3,033;-0.34515380859375
3,034;-0.34576416015625
3,035;-0.34576416015625
3,036;-0.345458984375
3,037;-0.345458984375
3,038;-0.345458984375
3,039;-0.345458984375
3,04;-0.34576416015625
3,041;-0.34515380859375
3,042;-0.34576416015625
3,043;-0.345458984375
3,044;-0.34515380859375
3,045;-0.3448486328125
3,046;-0.34515380859375
3,047;-0.345458984375
3,048;-0.34576416015625
3,049;-0.34515380859375
3,05;-0.345458984375
3,051;-0.34515380859375
3,052;-0.34515380859375
3,053;-0.34576416015625
3,054;-0.34576416015625
3,055;-0.345458984375
3,056;-0.345458984375
3,057;-0.3460693359375
3,058;-0.3460693359375
3,059;-0.345458984375
3,06;-0.345458984375
3,061;-0.345458984375
3,062;-0.345458984375
3,063;-0.345458984375
3,064;-0.3460693359375
3,065;-0.3448486328125
3,066;-0.345458984375
3,067;-0.34576416015625
3,068;-0.34576416015625
3,069;-0.34576416015625
3,07;-0.3460693359375
3,071;-0.3460693359375
3,072;-0.34576416015625
3,073;-0.3460693359375
3,074;-0.34515380859375
3,075;-0.34576416015625
3,076;-0.34515380859375
3,077;-0.34515380859375
3,078;-0.34515380859375
3,079;-0.34576416015625
3,08;-0.34576416015625
3,081;-0.345458984375
3,082;-0.3460693359375
3,083;-0.34515380859375
3,084;-0.34576416015625
3,085;-0.345458984375
3,086;-0.34637451171875
3,087;-0.34576416015625
3,088;-0.345458984375
3,089;-0.345458984375
3,09;-0.34576416015625
3,091;-0.345458984375
3,092;-0.345458984375
3,093;-0.34576416015625
3,094;-0.345458984375
3,095;-0.34637451171875
3,096;-0.345458984375
3,097;-0.345458984375
3,098;-0.34576416015625
3,099;-0.34576416015625
3,1;-0.34576416015625
3,101;-0.34576416015625
3,102;-0.345458984375
3,103;-0.345458984375
3,104;-0.345458984375
3,105;-0.34515380859375
3,106;-0.34576416015625
3,107;-0.34576416015625
3,108;-0.34576416015625
3,109;-0.34576416015625
3,11;-0.345458984375
3,111;-0.34576416015625
3,112;-0.345458984375
3,113;-0.34576416015625
3,114;-0.34576416015625
3,115;-0.345458984375
3,116;-0.34576416015625
3,117;-0.345458984375
3,118;-0.3460693359375
3,119;-0.345458984375
3,12;-0.34576416015625
3,121;-0.34576416015625
3,122;-0.345458984375
3,123;-0.34576416015625
3,124;-0.345458984375
3,125;-0.34576416015625
3,126;-0.34576416015625
3,127;-0.34576416015625
3,128;-0.34515380859375
3,129;-0.34576416015625
3,13;-0.34515380859375
3,131;-0.345458984375
3,132;-0.34515380859375
3,133;-0.34576416015625
3,134;-0.345458984375
3,135;-0.345458984375
3,136;-0.34515380859375
3,137;-0.34576416015625
3,138;-0.34576416015625
3,139;-0.34576416015625
3,14;-0.34576416015625
3,141;-0.345458984375
3,142;-0.345458984375
3,143;-0.345458984375
3,144;-0.34576416015625
3,145;-0.34576416015625
3,146;-0.345458984375
3,147;-0.345458984375
3,148;-0.34637451171875
3,149;-0.34515380859375
3,15;-0.34576416015625
3,151;-0.34576416015625
3,152;-0.34576416015625
3,153;-0.34576416015625
3,154;-0.345458984375
3,155;-0.345458984375
3,156;-0.345458984375
3,157;-0.34515380859375
3,158;-0.34576416015625
3,159;-0.345458984375
3,16;-0.3460693359375
3,161;-0.345458984375
3,162;-0.34576416015625
3,163;-0.345458984375
3,164;-0.34576416015625
3,165;-0.345458984375
3,166;-0.34576416015625
3,167;-0.34515380859375
3,168;-0.34576416015625
3,169;-0.345458984375
3,17;-0.34515380859375
3,171;-0.345458984375
3,172;-0.345458984375
3,173;-0.34515380859375
3,174;-0.345458984375
3,175;-0.34576416015625
3,176;-0.345458984375
3,177;-0.345458984375
3,178;-0.34576416015625
3,179;-0.3460693359375
3,18;-0.34576416015625
3,181;-0.34515380859375
3,182;-0.34515380859375
3,183;-0.34576416015625
3,184;-0.34515380859375
3,185;-0.34576416015625
3,186;-0.34515380859375
3,187;-0.345458984375
3,188;-0.345458984375
3,189;-0.345458984375
3,19;-0.345458984375
3,191;-0.3448486328125
3,192;-0.34576416015625
3,193;-0.345458984375
3,194;-0.34576416015625
3,195;-0.3448486328125
3,196;-0.345458984375
3,197;-0.345458984375
3,198;-0.34576416015625
3,199;-0.34515380859375
3,2;-0.34576416015625
3,201;-0.3460693359375
3,202;-0.345458984375
3,203;-0.345458984375
3,204;-0.34576416015625
3,205;-0.34576416015625
3,206;-0.34515380859375
3,207;-0.345458984375
3,208;-0.34576416015625
3,209;-0.345458984375
3,21;-0.34576416015625
3,211;-0.34515380859375
3,212;-0.34515380859375
3,213;-0.34515380859375
3,214;-0.34576416015625
3,215;-0.34515380859375
3,216;-0.34576416015625
3,217;-0.34576416015625
3,218;-0.34515380859375
3,219;-0.34576416015625
3,22;-0.345458984375
3,221;-0.345458984375
3,222;-0.34576416015625
3,223;-0.345458984375
3,224;-0.34576416015625
3,225;-0.345458984375
3,226;-0.3460693359375
3,227;-0.345458984375
3,228;-0.34515380859375
3,229;-0.34576416015625
3,23;-0.345458984375
3,231;-0.34515380859375
3,232;-0.345458984375
3,233;-0.345458984375
3,234;-0.34576416015625
3,235;-0.34576416015625
3,236;-0.34515380859375
3,237;-0.345458984375
3,238;-0.345458984375
3,239;-0.345458984375
3,24;-0.345458984375
3,241;-0.34576416015625
3,242;-0.345458984375
3,243;-0.34576416015625
3,244;-0.34576416015625
3,245;-0.34576416015625
3,246;-0.34515380859375
3,247;-0.345458984375
3,248;-0.3460693359375
3,249;-0.34576416015625
3,25;-0.345458984375
3,251;-0.345458984375
3,252;-0.3448486328125
3,253;-0.345458984375
3,254;-0.34576416015625
3,255;-0.34576416015625
3,256;-0.34576416015625
3,257;-0.34515380859375
3,258;-0.34515380859375
3,259;-0.3460693359375
3,26;-0.345458984375
3,261;-0.34515380859375
3,262;-0.345458984375
3,263;-0.34515380859375
3,264;-0.34515380859375
3,265;-0.34515380859375
3,266;-0.3460693359375
3,267;-0.34515380859375
3,268;-0.345458984375
3,269;-0.345458984375
3,27;-0.3460693359375
3,271;-0.345458984375
3,272;-0.34576416015625
3,273;-0.3460693359375
3,274;-0.34576416015625
3,275;-0.345458984375
3,276;-0.345458984375
3,277;-0.3448486328125
3,278;-0.34576416015625
3,279;-0.345458984375
3,28;-0.3460693359375
3,281;-0.3448486328125
3,282;-0.34576416015625
3,283;-0.345458984375
3,284;-0.3460693359375
3,285;-0.34515380859375
3,286;-0.34576416015625
3,287;-0.34576416015625
3,288;-0.34576416015625
3,289;-0.345458984375
3,29;-0.345458984375
3,291;-0.345458984375
3,292;-0.34515380859375
3,293;-0.34515380859375
3,294;-0.34576416015625
3,295;-0.34576416015625
3,296;-0.34576416015625
3,297;-0.3460693359375
3,298;-0.345458984375
3,299;-0.34576416015625
3,3;-0.34576416015625
3,301;-0.34576416015625
3,302;-0.34576416015625
3,303;-0.345458984375
3,304;-0.34576416015625
3,305;-0.3448486328125
3,306;-0.34576416015625
3,307;-0.34515380859375
3,308;-0.345458984375
3,309;-0.34576416015625
3,31;-0.345458984375
3,311;-0.345458984375
3,312;-0.345458984375
3,313;-0.34576416015625
3,314;-0.345458984375
3,315;-0.345458984375
3,316;-0.34576416015625
3,317;-0.345458984375
3,318;-0.345458984375
3,319;-0.34515380859375
3,32;-0.34576416015625
3,321;-0.34515380859375
3,322;-0.34576416015625
3,323;-0.34576416015625
3,324;-0.34576416015625
3,325;-0.34637451171875
3,326;-0.34576416015625
3,327;-0.345458984375
3,328;-0.34576416015625
3,329;-0.345458984375
3,33;-0.3460693359375
3,331;-0.3460693359375
3,332;-0.3460693359375
3,333;-0.345458984375
3,334;-0.34515380859375
3,335;-0.345458984375
3,336;-0.345458984375
3,337;-0.345458984375
3,338;-0.345458984375
3,339;-0.34515380859375
3,34;-0.345458984375
3,341;-0.34576416015625
3,342;-0.34637451171875
3,343;-0.34576416015625
3,344;-0.34576416015625
3,345;-0.345458984375
3,346;-0.345458984375
3,347;-0.345458984375
3,348;-0.34515380859375
3,349;-0.345458984375
3,35;-0.345458984375
3,351;-0.34515380859375
3,352;-0.3460693359375
3,353;-0.345458984375
3,354;-0.34576416015625
3,355;-0.34576416015625
3,356;-0.34576416015625
3,357;-0.3448486328125
3,358;-0.345458984375
3,359;-0.345458984375
3,36;-0.34515380859375
3,361;-0.345458984375
3,362;-0.3460693359375
3,363;-0.345458984375
3,364;-0.34576416015625
3,365;-0.34576416015625
3,366;-0.34576416015625
3,367;-0.345458984375
3,368;-0.34576416015625
3,369;-0.34515380859375
3,37;-0.34515380859375
3,371;-0.34515380859375
3,372;-0.34576416015625
3,373;-0.345458984375
3,374;-0.34576416015625
3,375;-0.34515380859375
3,376;-0.3460693359375
3,377;-0.34576416015625
3,378;-0.34576416015625
3,379;-0.345458984375
3,38;-0.345458984375
3,381;-0.3460693359375
3,382;-0.3448486328125
3,383;-0.34576416015625
3,384;-0.345458984375
3,385;-0.345458984375
3,386;-0.34515380859375
3,387;-0.34515380859375
3,388;-0.34515380859375
3,389;-0.345458984375
3,39;-0.34515380859375
3,391;-0.345458984375
3,392;-0.34576416015625
3,393;-0.345458984375
3,394;-0.345458984375
3,395;-0.345458984375
3,396;-0.34576416015625
3,397;-0.3460693359375
3,398;-0.345458984375
3,399;-0.34576416015625
3,4;-0.34576416015625
3,401;-0.345458984375
3,402;-0.345458984375
3,403;-0.34576416015625
3,404;-0.34576416015625
3,405;-0.34576416015625
3,406;-0.34515380859375
3,407;-0.34515380859375
3,408;-0.345458984375
3,409;-0.34576416015625
3,41;-0.34515380859375
3,411;-0.34576416015625
3,412;-0.345458984375
3,413;-0.34576416015625
3,414;-0.345458984375
3,415;-0.34576416015625
3,416;-0.3460693359375
3,417;-0.34515380859375
3,418;-0.34515380859375
3,419;-0.34576416015625
3,42;-0.34515380859375
3,421;-0.34576416015625
3,422;-0.34576416015625
3,423;-0.345458984375
3,424;-0.34576416015625
3,425;-0.34515380859375
3,426;-0.34515380859375
3,427;-0.345458984375
3,428;-0.34576416015625
3,429;-0.34515380859375
3,43;-0.34515380859375
3,431;-0.345458984375
3,432;-0.34576416015625
3,433;-0.34515380859375
3,434;-0.34515380859375
3,435;-0.34515380859375
3,436;-0.34576416015625
3,437;-0.34576416015625
3,438;-0.34515380859375
3,439;-0.345458984375
3,44;-0.34576416015625
3,441;-0.3460693359375
3,442;-0.3460693359375
3,443;-0.34576416015625
3,444;-0.345458984375
3,445;-0.34576416015625
3,446;-0.34515380859375
3,447;-0.34576416015625
3,448;-0.34515380859375
3,449;-0.34576416015625
3,45;-0.34576416015625
3,451;-0.3460693359375
3,452;-0.345458984375
3,453;-0.34515380859375
3,454;-0.34576416015625
3,455;-0.34576416015625
3,456;-0.34515380859375
3,457;-0.34576416015625
3,458;-0.34576416015625
3,459;-0.34576416015625
3,46;-0.34576416015625
3,461;-0.345458984375
3,462;-0.34576416015625
3,463;-0.34515380859375
3,464;-0.345458984375
3,465;-0.345458984375
3,466;-0.3460693359375
3,467;-0.34576416015625
3,468;-0.34576416015625
3,469;-0.34576416015625
3,47;-0.345458984375
3,471;-0.34576416015625
3,472;-0.345458984375
3,473;-0.3460693359375
3,474;-0.345458984375
3,475;-0.34576416015625
3,476;-0.34576416015625
3,477;-0.3460693359375
3,478;-0.345458984375
3,479;-0.3460693359375
3,48;-0.345458984375
3,481;-0.345458984375
3,482;-0.34576416015625
3,483;-0.34576416015625
3,484;-0.3460693359375
3,485;-0.34576416015625
3,486;-0.34515380859375
3,487;-0.34515380859375
3,488;-0.34576416015625
3,489;-0.3460693359375
3,49;-0.3460693359375
3,491;-0.34576416015625
3,492;-0.3460693359375
3,493;-0.345458984375
3,494;-0.3448486328125
3,495;-0.345458984375
3,496;-0.345458984375
3,497;-0.34576416015625
3,498;-0.3448486328125
3,499;-0.3460693359375
3,5;-0.345458984375
3,501;-0.345458984375
3,502;-0.34515380859375
3,503;-0.345458984375
3,504;-0.34576416015625
3,505;-0.34576416015625
3,506;-0.3460693359375
3,507;-0.34576416015625
3,508;-0.345458984375
3,509;-0.34576416015625
3,51;-0.3448486328125
3,511;-0.345458984375
3,512;-0.34576416015625
3,513;-0.3460693359375
3,514;-0.34515380859375
3,515;-0.3460693359375
3,516;-0.345458984375
3,517;-0.3460693359375
3,518;-0.345458984375
3,519;-0.3460693359375
3,52;-0.345458984375
3,521;-0.34576416015625
3,522;-0.345458984375
3,523;-0.3448486328125
3,524;-0.345458984375
3,525;-0.34515380859375
3,526;-0.345458984375
3,527;-0.34515380859375
3,528;-0.34576416015625
3,529;-0.345458984375
3,53;-0.34576416015625
3,531;-0.34576416015625
3,532;-0.34515380859375
3,533;-0.3448486328125
3,534;-0.3448486328125
3,535;-0.345458984375
3,536;-0.3448486328125
3,537;-0.34576416015625
3,538;-0.345458984375
3,539;-0.345458984375
3,54;-0.34576416015625
3,541;-0.34576416015625
3,542;-0.34515380859375
3,543;-0.34576416015625
3,544;-0.3448486328125
3,545;-0.34576416015625
3,546;-0.34576416015625
3,547;-0.345458984375
3,548;-0.34515380859375
3,549;-0.3460693359375
3,55;-0.34515380859375
3,551;-0.345458984375
3,552;-0.345458984375
3,553;-0.34576416015625
3,554;-0.34576416015625
3,555;-0.34515380859375
3,556;-0.34576416015625
3,557;-0.345458984375
3,558;-0.34576416015625
3,559;-0.34576416015625
3,56;-0.34515380859375
3,561;-0.345458984375
3,562;-0.345458984375
3,563;-0.34515380859375
3,564;-0.34576416015625
3,565;-0.345458984375
3,566;-0.345458984375
3,567;-0.34576416015625
3,568;-0.34576416015625
3,569;-0.34515380859375
3,57;-0.3460693359375
3,571;-0.34576416015625
3,572;-0.34515380859375
3,573;-0.34576416015625
3,574;-0.345458984375
3,575;-0.345458984375
3,576;-0.34515380859375
3,577;-0.34576416015625
3,578;-0.3460693359375
3,579;-0.345458984375
3,58;-0.34515380859375
3,581;-0.34576416015625
3,582;-0.34515380859375
3,583;-0.345458984375
3,584;-0.34576416015625
3,585;-0.345458984375
3,586;-0.3448486328125
3,587;-0.34515380859375
3,588;-0.345458984375
3,589;-0.34515380859375
3,59;-0.34515380859375
3,591;-0.34576416015625
3,592;-0.34515380859375
3,593;-0.345458984375
3,594;-0.345458984375
3,595;-0.345458984375
3,596;-0.34515380859375
3,597;-0.345458984375
3,598;-0.345458984375
3,599;-0.34576416015625
3,6;-0.345458984375
3,601;-0.345458984375
3,602;-0.34515380859375
3,603;-0.34515380859375
3,604;-0.345458984375
3,605;-0.3448486328125
3,606;-0.34515380859375
3,607;-0.345458984375
3,608;-0.345458984375
3,609;-0.345458984375
3,61;-0.34515380859375
3,611;-0.3460693359375
3,612;-0.3448486328125
3,613;-0.345458984375
3,614;-0.345458984375
3,615;-0.34576416015625
3,616;-0.345458984375
3,617;-0.34515380859375
3,618;-0.34576416015625
3,619;-0.34515380859375
3,62;-0.345458984375
3,621;-0.34576416015625
3,622;-0.345458984375
3,623;-0.34576416015625
3,624;-0.34515380859375
3,625;-0.3460693359375
3,626;-0.34576416015625
3,627;-0.34576416015625
3,628;-0.3460693359375
3,629;-0.345458984375
3,63;-0.345458984375
3,631;-0.345458984375
3,632;-0.345458984375
3,633;-0.34576416015625
3,634;-0.345458984375
3,635;-0.34515380859375
3,636;-0.34515380859375
3,637;-0.34515380859375
3,638;-0.345458984375
3,639;-0.345458984375
3,64;-0.34576416015625
3,641;-0.34576416015625
3,642;-0.345458984375
3,643;-0.345458984375
3,644;-0.34515380859375
3,645;-0.345458984375
3,646;-0.345458984375
3,647;-0.34515380859375
3,648;-0.34515380859375
3,649;-0.34515380859375
3,65;-0.345458984375
3,651;-0.345458984375
3,652;-0.345458984375
3,653;-0.3460693359375
3,654;-0.345458984375
3,655;-0.34576416015625
3,656;-0.345458984375
3,657;-0.345458984375
3,658;-0.345458984375
3,659;-0.345458984375
3,66;-0.34515380859375
3,661;-0.34576416015625
3,662;-0.345458984375
3,663;-0.345458984375
3,664;-0.34515380859375
3,665;-0.34576416015625
3,666;-0.3460693359375
3,667;-0.34515380859375
3,668;-0.34576416015625
3,669;-0.345458984375
3,67;-0.345458984375
3,671;-0.34515380859375
3,672;-0.345458984375
3,673;-0.345458984375
3,674;-0.3448486328125
3,675;-0.345458984375
3,676;-0.345458984375
3,677;-0.34576416015625
3,678;-0.345458984375
3,679;-0.34515380859375
3,68;-0.34576416015625
3,681;-0.34576416015625
3,682;-0.34576416015625
3,683;-0.34576416015625
3,684;-0.345458984375
3,685;-0.345458984375
3,686;-0.34576416015625
3,687;-0.345458984375
3,688;-0.34515380859375
3,689;-0.345458984375
3,69;-0.34576416015625
3,691;-0.34515380859375
3,692;-0.34576416015625
3,693;-0.345458984375
3,694;-0.3460693359375
3,695;-0.34515380859375
3,696;-0.345458984375
3,697;-0.345458984375
3,698;-0.34576416015625
3,699;-0.345458984375
3,7;-0.345458984375
3,701;-0.34576416015625
3,702;-0.34576416015625
3,703;-0.345458984375
3,704;-0.345458984375
3,705;-0.3460693359375
3,706;-0.3460693359375
3,707;-0.345458984375
3,708;-0.345458984375
3,709;-0.34576416015625
3,71;-0.345458984375
3,711;-0.34515380859375
3,712;-0.34515380859375
3,713;-0.345458984375
3,714;-0.34576416015625
3,715;-0.34515380859375
3,716;-0.34515380859375
3,717;-0.34576416015625
3,718;-0.34515380859375
3,719;-0.345458984375
3,72;-0.34576416015625
3,721;-0.3448486328125
3,722;-0.3448486328125
3,723;-0.3448486328125
3,724;-0.34515380859375
3,725;-0.3460693359375
3,726;-0.345458984375
3,727;-0.34576416015625
3,728;-0.345458984375
3,729;-0.345458984375
3,73;-0.34576416015625
3,731;-0.3448486328125
3,732;-0.34576416015625
3,733;-0.34515380859375
3,734;-0.3460693359375
3,735;-0.34576416015625
3,736;-0.345458984375
3,737;-0.34576416015625
3,738;-0.345458984375
3,739;-0.345458984375
3,74;-0.3460693359375
3,741;-0.34576416015625
3,742;-0.34515380859375
3,743;-0.3460693359375
3,744;-0.345458984375
3,745;-0.34515380859375
3,746;-0.345458984375
3,747;-0.34576416015625
3,748;-0.345458984375
3,749;-0.345458984375
3,75;-0.34576416015625
3,751;-0.345458984375
3,752;-0.34515380859375
3,753;-0.345458984375
3,754;-0.34576416015625
3,755;-0.34515380859375
3,756;-0.345458984375
3,757;-0.345458984375
3,758;-0.34576416015625
3,759;-0.345458984375
3,76;-0.34576416015625
3,761;-0.34576416015625
3,762;-0.34576416015625
3,763;-0.34515380859375
3,764;-0.3448486328125
3,765;-0.345458984375
3,766;-0.345458984375
3,767;-0.345458984375
3,768;-0.34515380859375
3,769;-0.34515380859375
3,77;-0.34576416015625
3,771;-0.34576416015625
3,772;-0.3448486328125
3,773;-0.345458984375
3,774;-0.34576416015625
3,775;-0.345458984375
3,776;-0.3460693359375
3,777;-0.34576416015625
3,778;-0.3460693359375
3,779;-0.345458984375
3,78;-0.3448486328125
3,781;-0.34576416015625
3,782;-0.34576416015625
3,783;-0.34515380859375
3,784;-0.345458984375
3,785;-0.34576416015625
3,786;-0.34515380859375
3,787;-0.34515380859375
3,788;-0.34576416015625
3,789;-0.345458984375
3,79;-0.34515380859375
3,791;-0.34576416015625
3,792;-0.34576416015625
3,793;-0.345458984375
3,794;-0.34576416015625
3,795;-0.34515380859375
3,796;-0.3448486328125
3,797;-0.34576416015625
3,798;-0.34515380859375
3,799;-0.345458984375
3,8;-0.345458984375
3,801;-0.34576416015625
3,802;-0.34576416015625
3,803;-0.345458984375
3,804;-0.345458984375
3,805;-0.34576416015625
3,806;-0.345458984375
3,807;-0.345458984375
3,808;-0.345458984375
3,809;-0.34515380859375
3,81;-0.34515380859375
3,811;-0.345458984375
3,812;-0.3460693359375
3,813;-0.34515380859375
3,814;-0.345458984375
3,815;-0.345458984375
3,816;-0.34576416015625
3,817;-0.345458984375
3,818;-0.34515380859375
3,819;-0.34576416015625
3,82;-0.34515380859375
3,821;-0.345458984375
3,822;-0.34515380859375
3,823;-0.34515380859375
3,824;-0.34515380859375
3,825;-0.345458984375
3,826;-0.3460693359375
3,827;-0.3460693359375
3,828;-0.34576416015625
3,829;-0.34515380859375
3,83;-0.3448486328125
3,831;-0.345458984375
3,832;-0.345458984375
3,833;-0.345458984375
3,834;-0.345458984375
3,835;-0.34515380859375
3,836;-0.345458984375
3,837;-0.34515380859375
3,838;-0.345458984375
3,839;-0.34515380859375
3,84;-0.34515380859375
3,841;-0.345458984375
3,842;-0.34576416015625
3,843;-0.34515380859375
3,844;-0.34515380859375
3,845;-0.34515380859375
3,846;-0.345458984375
3,847;-0.345458984375
3,848;-0.345458984375
3,849;-0.34576416015625
3,85;-0.345458984375
3,851;-0.345458984375
3,852;-0.34576416015625
3,853;-0.345458984375
3,854;-0.34515380859375
3,855;-0.345458984375
3,856;-0.34637451171875
3,857;-0.345458984375
3,858;-0.345458984375
3,859;-0.345458984375
3,86;-0.34576416015625
3,861;-0.34515380859375
3,862;-0.345458984375
3,863;-0.345458984375
3,864;-0.34515380859375
3,865;-0.345458984375
3,866;-0.345458984375
3,867;-0.345458984375
3,868;-0.345458984375
3,869;-0.34576416015625
3,87;-0.345458984375
3,871;-0.345458984375
3,872;-0.34515380859375
3,873;-0.3448486328125
3,874;-0.345458984375
3,875;-0.345458984375
3,876;-0.3448486328125
3,877;-0.34515380859375
3,878;-0.34515380859375
3,879;-0.345458984375
3,88;-0.345458984375
3,881;-0.345458984375
3,882;-0.345458984375
3,883;-0.34576416015625
3,884;-0.345458984375
3,885;-0.345458984375
3,886;-0.345458984375
3,887;-0.34515380859375
3,888;-0.34515380859375
3,889;-0.345458984375
3,89;-0.34576416015625
3,891;-0.34576416015625
3,892;-0.345458984375
3,893;-0.34576416015625
3,894;-0.345458984375
3,895;-0.34515380859375
3,896;-0.345458984375
3,897;-0.345458984375
3,898;-0.345458984375
3,899;-0.34576416015625
3,9;-0.34576416015625
3,901;-0.345458984375
3,902;-0.345458984375
3,903;-0.34576416015625
3,904;-0.345458984375
3,905;-0.34576416015625
3,906;-0.345458984375
3,907;-0.34576416015625
3,908;-0.345458984375
3,909;-0.3460693359375
3,91;-0.34515380859375
3,911;-0.3460693359375
3,912;-0.34576416015625
3,913;-0.345458984375
3,914;-0.3460693359375
3,915;-0.345458984375
3,916;-0.345458984375
3,917;-0.3460693359375
3,918;-0.34515380859375
3,919;-0.34576416015625
3,92;-0.345458984375
3,921;-0.3460693359375
3,922;-0.345458984375
3,923;-0.345458984375
3,924;-0.34515380859375
3,925;-0.345458984375
3,926;-0.345458984375
3,927;-0.345458984375
3,928;-0.34576416015625
3,929;-0.34576416015625
3,93;-0.345458984375
3,931;-0.34515380859375
3,932;-0.34576416015625
3,933;-0.34515380859375
3,934;-0.345458984375
3,935;-0.34576416015625
3,936;-0.3448486328125
3,937;-0.34515380859375
3,938;-0.345458984375
3,939;-0.34576416015625
3,94;-0.34515380859375
3,941;-0.34423828125
3,942;-0.34515380859375
3,943;-0.345458984375
3,944;-0.34576416015625
3,945;-0.345458984375
3,946;-0.345458984375
3,947;-0.34515380859375
3,948;-0.34576416015625
3,949;-0.345458984375
3,95;-0.345458984375
3,951;-0.345458984375
3,952;-0.34515380859375
3,953;-0.345458984375
3,954;-0.345458984375
3,955;-0.345458984375
3,956;-0.34576416015625
3,957;-0.34576416015625
3,958;-0.345458984375
3,959;-0.3448486328125
3,96;-0.34515380859375
3,961;-0.3460693359375
3,962;-0.345458984375
3,963;-0.34576416015625
3,964;-0.34576416015625
3,965;-0.34515380859375
3,966;-0.345458984375
3,967;-0.34576416015625
3,968;-0.345458984375
3,969;-0.34576416015625
3,97;-0.34515380859375
3,971;-0.345458984375
3,972;-0.34515380859375
3,973;-0.34576416015625
3,974;-0.345458984375
3,975;-0.34576416015625
3,976;-0.34576416015625
3,977;-0.34515380859375
3,978;-0.3460693359375
3,979;-0.34576416015625
3,98;-0.345458984375
3,981;-0.34515380859375
3,982;-0.345458984375
3,983;-0.345458984375
3,984;-0.345458984375
3,985;-0.3460693359375
3,986;-0.345458984375
3,987;-0.34576416015625
3,988;-0.345458984375
3,989;-0.34515380859375
3,99;-0.345458984375
3,991;-0.34515380859375
3,992;-0.345458984375
3,993;-0.345458984375
3,994;-0.34576416015625
3,995;-0.345458984375
3,996;-0.345458984375
3,997;-0.345458984375
3,998;-0.34576416015625
3,999;-0.3460693359375
4;-0.345458984375
4,001;-0.3448486328125
4,002;-0.345458984375
4,003;-0.34515380859375
4,004;-0.34515380859375
4,005;-0.34576416015625
4,006;-0.3460693359375
4,007;-0.345458984375
4,008;-0.34576416015625
4,009;-0.34576416015625
4,01;-0.345458984375
4,011;-0.34515380859375
4,012;-0.34515380859375
4,013;-0.34576416015625
4,014;-0.34515380859375
4,015;-0.345458984375
4,016;-0.34576416015625
4,017;-0.3448486328125
4,018;-0.34576416015625
4,019;-0.34515380859375
4,02;-0.34576416015625
4,021;-0.345458984375
4,022;-0.345458984375
4,023;-0.345458984375
4,024;-0.34576416015625
4,025;-0.345458984375
4,026;-0.345458984375
4,027;-0.34515380859375
4,028;-0.34576416015625
4,029;-0.3460693359375
4,03;-0.34576416015625
4,031;-0.345458984375
4,032;-0.34515380859375
4,033;-0.345458984375
4,034;-0.34515380859375
4,035;-0.34576416015625
4,036;-0.345458984375
4,037;-0.345458984375
4,038;-0.34576416015625
4,039;-0.34515380859375
4,04;-0.345458984375
4,041;-0.345458984375
4,042;-0.345458984375
4,043;-0.345458984375
4,044;-0.345458984375
4,045;-0.34515380859375
4,046;-0.34515380859375
4,047;-0.34515380859375
4,048;-0.34515380859375
4,049;-0.34515380859375
4,05;-0.34515380859375
4,051;-0.345458984375
4,052;-0.3460693359375
4,053;-0.345458984375
4,054;-0.3448486328125
4,055;-0.34576416015625
4,056;-0.345458984375
4,057;-0.34515380859375
4,058;-0.345458984375
4,059;-0.34576416015625
4,06;-0.34515380859375
4,061;-0.34515380859375
4,062;-0.34576416015625
4,063;-0.345458984375
4,064;-0.34576416015625
4,065;-0.34515380859375
4,066;-0.34515380859375
4,067;-0.345458984375
4,068;-0.34515380859375
4,069;-0.34515380859375
4,07;-0.34576416015625
4,071;-0.345458984375
4,072;-0.345458984375
4,073;-0.345458984375
4,074;-0.34576416015625
4,075;-0.345458984375
4,076;-0.345458984375
4,077;-0.34576416015625
4,078;-0.34576416015625
4,079;-0.3460693359375
4,08;-0.34576416015625
4,081;-0.34515380859375
4,082;-0.34515380859375
4,083;-0.345458984375
4,084;-0.345458984375
4,085;-0.345458984375
4,086;-0.345458984375
4,087;-0.34576416015625
4,088;-0.34515380859375
4,089;-0.34515380859375
4,09;-0.345458984375
4,091;-0.34515380859375
4,092;-0.34576416015625
4,093;-0.3448486328125
4,094;-0.34515380859375
4,095;-0.345458984375
4,096;-0.34576416015625
4,097;-0.345458984375
4,098;-0.3460693359375
4,099;-0.34576416015625
4,1;-0.34515380859375
4,101;-0.34576416015625
4,102;-0.3448486328125
4,103;-0.34515380859375
4,104;-0.345458984375
4,105;-0.345458984375
4,106;-0.345458984375
4,107;-0.3460693359375
4,108;-0.34576416015625
4,109;-0.34515380859375
4,11;-0.34576416015625
4,111;-0.34576416015625
4,112;-0.34515380859375
4,113;-0.345458984375
4,114;-0.34515380859375
4,115;-0.34576416015625
4,116;-0.34515380859375
4,117;-0.3460693359375
4,118;-0.345458984375
4,119;-0.34515380859375
4,12;-0.34576416015625
4,121;-0.34576416015625
4,122;-0.345458984375
4,123;-0.34515380859375
4,124;-0.345458984375
4,125;-0.345458984375
4,126;-0.345458984375
4,127;-0.345458984375
4,128;-0.34576416015625
4,129;-0.34576416015625
4,13;-0.34515380859375
4,131;-0.34576416015625
4,132;-0.345458984375
4,133;-0.34515380859375
4,134;-0.3448486328125
4,135;-0.34515380859375
4,136;-0.345458984375
4,137;-0.345458984375
4,138;-0.3460693359375
4,139;-0.345458984375
4,14;-0.345458984375
4,141;-0.345458984375
4,142;-0.34515380859375
4,143;-0.34576416015625
4,144;-0.34515380859375
4,145;-0.34515380859375
4,146;-0.345458984375
4,147;-0.345458984375
4,148;-0.34576416015625
4,149;-0.345458984375
4,15;-0.34576416015625
4,151;-0.345458984375
4,152;-0.34576416015625
4,153;-0.34515380859375
4,154;-0.345458984375
4,155;-0.345458984375
4,156;-0.34576416015625
4,157;-0.345458984375
4,158;-0.34576416015625
4,159;-0.345458984375
4,16;-0.34515380859375
4,161;-0.345458984375
4,162;-0.345458984375
4,163;-0.34515380859375
4,164;-0.34515380859375
4,165;-0.345458984375
4,166;-0.34576416015625
4,167;-0.345458984375
4,168;-0.34576416015625
4,169;-0.345458984375
4,17;-0.34576416015625
4,171;-0.34515380859375
4,172;-0.34515380859375
4,173;-0.34576416015625
4,174;-0.345458984375
4,175;-0.3460693359375
4,176;-0.34515380859375
4,177;-0.34515380859375
4,178;-0.345458984375
4,179;-0.3460693359375
4,18;-0.34576416015625
4,181;-0.34515380859375
4,182;-0.34515380859375
4,183;-0.345458984375
4,184;-0.34515380859375
4,185;-0.345458984375
4,186;-0.345458984375
4,187;-0.345458984375
4,188;-0.345458984375
4,189;-0.345458984375
4,19;-0.345458984375
4,191;-0.34576416015625
4,192;-0.34515380859375
4,193;-0.345458984375
4,194;-0.34576416015625
4,195;-0.34515380859375
4,196;-0.34515380859375
4,197;-0.34576416015625
4,198;-0.34576416015625
4,199;-0.34576416015625
4,2;-0.345458984375
4,201;-0.345458984375
4,202;-0.345458984375
4,203;-0.34515380859375
4,204;-0.345458984375
4,205;-0.345458984375
4,206;-0.34515380859375
4,207;-0.345458984375
4,208;-0.34576416015625
4,209;-0.345458984375
4,21;-0.34576416015625
4,211;-0.345458984375
4,212;-0.3448486328125
4,213;-0.34576416015625
4,214;-0.34515380859375
4,215;-0.345458984375
4,216;-0.34576416015625
4,217;-0.34576416015625
4,218;-0.345458984375
4,219;-0.345458984375
4,22;-0.34515380859375
4,221;-0.34637451171875
4,222;-0.34576416015625
4,223;-0.34515380859375
4,224;-0.345458984375
4,225;-0.34576416015625
4,226;-0.34515380859375
4,227;-0.345458984375
4,228;-0.34576416015625
4,229;-0.34576416015625
4,23;-0.34454345703125
4,231;-0.345458984375
4,232;-0.345458984375
4,233;-0.34515380859375
4,234;-0.34576416015625
4,235;-0.34576416015625
4,236;-0.345458984375
4,237;-0.345458984375
4,238;-0.3448486328125
4,239;-0.3460693359375
4,24;-0.34515380859375
4,241;-0.34515380859375
4,242;-0.34515380859375
4,243;-0.345458984375
4,244;-0.345458984375
4,245;-0.34576416015625
4,246;-0.345458984375
4,247;-0.3448486328125
4,248;-0.34576416015625
4,249;-0.3460693359375
4,25;-0.34515380859375
4,251;-0.3448486328125
4,252;-0.345458984375
4,253;-0.345458984375
4,254;-0.345458984375
4,255;-0.345458984375
4,256;-0.34576416015625
4,257;-0.345458984375
4,258;-0.345458984375
4,259;-0.345458984375
4,26;-0.345458984375
4,261;-0.34515380859375
4,262;-0.34515380859375
4,263;-0.345458984375
4,264;-0.3448486328125
4,265;-0.34576416015625
4,266;-0.3448486328125
4,267;-0.345458984375
4,268;-0.345458984375
4,269;-0.34515380859375
4,27;-0.34515380859375
4,271;-0.34515380859375
4,272;-0.3460693359375
4,273;-0.345458984375
4,274;-0.345458984375
4,275;-0.3448486328125
4,276;-0.345458984375
4,277;-0.345458984375
4,278;-0.34515380859375
4,279;-0.345458984375
4,28;-0.34576416015625
4,281;-0.3448486328125
4,282;-0.34515380859375
4,283;-0.3448486328125
4,284;-0.34515380859375
4,285;-0.34515380859375
4,286;-0.345458984375
4,287;-0.34576416015625
4,288;-0.345458984375
4,289;-0.345458984375
4,29;-0.34576416015625
4,291;-0.345458984375
4,292;-0.34515380859375
4,293;-0.34454345703125
4,294;-0.34515380859375
4,295;-0.34515380859375
4,296;-0.34576416015625
4,297;-0.345458984375
4,298;-0.345458984375
4,299;-0.34576416015625
4,3;-0.345458984375
4,301;-0.345458984375
4,302;-0.34576416015625
4,303;-0.345458984375
4,304;-0.345458984375
4,305;-0.34515380859375
4,306;-0.34576416015625
4,307;-0.3448486328125
4,308;-0.345458984375
4,309;-0.34515380859375
4,31;-0.34576416015625
4,311;-0.34515380859375
4,312;-0.345458984375
4,313;-0.345458984375
4,314;-0.345458984375
4,315;-0.34515380859375
4,316;-0.34576416015625
4,317;-0.34576416015625
4,318;-0.345458984375
4,319;-0.3448486328125
4,32;-0.345458984375
