
;DT9804(00).A/D0.Channel 1;DT9804(00).A/D0.Channel 1;DT9804(00).A/D0.Channel 2;DT9804(00).A/D0.Channel 3;DT9804(00).A/D0.Channel 4;DT9804(00).A/D0.Channel 5;DT9804(00).A/D0.Channel 6;DT9804(00).A/D0.Channel 7;DT9804(00).A/D0.Channel 8;DT9804(00).A/D0.Channel 9;DT9804(00).A/D0.Channel 10;DT9804(00).A/D0.Channel 11;DT9804(00).A/D0.Channel 12;DT9804(00).A/D0.Channel 13;DT9804(00).A/D0.Channel 14;DT9804(00).A/D0.Channel 15
0;-0.46966552734375
0,001;-0.46875
0,002;-0.46966552734375
0,003;-0.46966552734375
0,004;-0.46966552734375
0,005;-0.46966552734375
0,006;-0.4693603515625
0,007;-0.46966552734375
0,008;-0.46905517578125
0,009;-0.46905517578125
0,01;-0.46966552734375
0,011;-0.46966552734375
0,012;-0.46966552734375
0,013;-0.4693603515625
0,014;-0.4693603515625
0,015;-0.46905517578125
0,016;-0.46966552734375
0,017;-0.469970703125
0,018;-0.46966552734375
0,019;-0.46966552734375
0,02;-0.46966552734375
0,021;-0.4693603515625
0,022;-0.46966552734375
0,023;-0.47027587890625
0,024;-0.4693603515625
0,025;-0.4693603515625
0,026;-0.469970703125
0,027;-0.469970703125
0,028;-0.46966552734375
0,029;-0.46966552734375
0,03;-0.46905517578125
0,031;-0.46966552734375
0,032;-0.47027587890625
0,033;-0.46966552734375
0,034;-0.469970703125
0,035;-0.4693603515625
0,036;-0.469970703125
0,037;-0.469970703125
0,038;-0.4693603515625
0,039;-0.4693603515625
0,04;-0.46966552734375
0,041;-0.46875
0,042;-0.46875
0,043;-0.47027587890625
0,044;-0.46966552734375
0,045;-0.4693603515625
0,046;-0.4693603515625
0,047;-0.46966552734375
0,048;-0.4693603515625
0,049;-0.4693603515625
0,05;-0.4693603515625
0,051;-0.47027587890625
0,052;-0.46966552734375
0,053;-0.46905517578125
0,054;-0.46905517578125
0,055;-0.4693603515625
0,056;-0.46966552734375
0,057;-0.46966552734375
0,058;-0.4693603515625
0,059;-0.4693603515625
0,06;-0.46966552734375
0,061;-0.46966552734375
0,062;-0.46905517578125
0,063;-0.4693603515625
0,064;-0.46966552734375
0,065;-0.4693603515625
0,066;-0.469970703125
0,067;-0.46966552734375
0,068;-0.469970703125
0,069;-0.46875
0,07;-0.46966552734375
0,071;-0.469970703125
0,072;-0.469970703125
0,073;-0.4693603515625
0,074;-0.46966552734375
0,075;-0.46966552734375
0,076;-0.4705810546875
0,077;-0.4693603515625
0,078;-0.46966552734375
0,079;-0.47027587890625
0,08;-0.46966552734375
0,081;-0.46966552734375
0,082;-0.47027587890625
0,083;-0.46966552734375
0,084;-0.469970703125
0,085;-0.46966552734375
0,086;-0.46966552734375
0,087;-0.46966552734375
0,088;-0.4693603515625
0,089;-0.4693603515625
0,09;-0.469970703125
0,091;-0.47027587890625
0,092;-0.46875
0,093;-0.46875
0,094;-0.4693603515625
0,095;-0.469970703125
0,096;-0.46966552734375
0,097;-0.4693603515625
0,098;-0.469970703125
0,099;-0.469970703125
0,1;-0.4693603515625
0,101;-0.469970703125
0,102;-0.469970703125
0,103;-0.4693603515625
0,104;-0.46966552734375
0,105;-0.4693603515625
0,106;-0.4693603515625
0,107;-0.46875
0,108;-0.469970703125
0,109;-0.4693603515625
0,11;-0.4693603515625
0,111;-0.46966552734375
0,112;-0.46966552734375
0,113;-0.4693603515625
0,114;-0.46966552734375
0,115;-0.46966552734375
0,116;-0.46966552734375
0,117;-0.469970703125
0,118;-0.469970703125
0,119;-0.46966552734375
0,12;-0.469970703125
0,121;-0.469970703125
0,122;-0.46966552734375
0,123;-0.469970703125
0,124;-0.46966552734375
0,125;-0.469970703125
0,126;-0.46966552734375
0,127;-0.4693603515625
0,128;-0.46966552734375
0,129;-0.46966552734375
0,13;-0.46966552734375
0,131;-0.46966552734375
0,132;-0.469970703125
0,133;-0.46966552734375
0,134;-0.47027587890625
0,135;-0.46905517578125
0,136;-0.469970703125
0,137;-0.469970703125
0,138;-0.46966552734375
0,139;-0.469970703125
0,14;-0.4693603515625
0,141;-0.46966552734375
0,142;-0.46966552734375
0,143;-0.46905517578125
0,144;-0.469970703125
0,145;-0.469970703125
0,146;-0.46966552734375
0,147;-0.4693603515625
0,148;-0.47027587890625
0,149;-0.4693603515625
0,15;-0.46966552734375
0,151;-0.46966552734375
0,152;-0.469970703125
0,153;-0.4693603515625
0,154;-0.46966552734375
0,155;-0.47027587890625
0,156;-0.46966552734375
0,157;-0.469970703125
0,158;-0.46966552734375
0,159;-0.46966552734375
0,16;-0.47027587890625
0,161;-0.469970703125
0,162;-0.46966552734375
0,163;-0.4693603515625
0,164;-0.4693603515625
0,165;-0.46966552734375
0,166;-0.4693603515625
0,167;-0.46966552734375
0,168;-0.47027587890625
0,169;-0.4693603515625
0,17;-0.46966552734375
0,171;-0.469970703125
0,172;-0.469970703125
0,173;-0.469970703125
0,174;-0.46966552734375
0,175;-0.4693603515625
0,176;-0.469970703125
0,177;-0.46875
0,178;-0.469970703125
0,179;-0.469970703125
0,18;-0.46966552734375
0,181;-0.46966552734375
0,182;-0.4693603515625
0,183;-0.46966552734375
0,184;-0.469970703125
0,185;-0.469970703125
0,186;-0.4693603515625
0,187;-0.46966552734375
0,188;-0.469970703125
0,189;-0.46966552734375
0,19;-0.46966552734375
0,191;-0.4693603515625
0,192;-0.46966552734375
0,193;-0.469970703125
0,194;-0.46966552734375
0,195;-0.469970703125
0,196;-0.469970703125
0,197;-0.469970703125
0,198;-0.469970703125
0,199;-0.46905517578125
0,2;-0.46966552734375
0,201;-0.469970703125
0,202;-0.46966552734375
0,203;-0.4693603515625
0,204;-0.46966552734375
0,205;-0.46966552734375
0,206;-0.46875
0,207;-0.469970703125
0,208;-0.47027587890625
0,209;-0.46966552734375
0,21;-0.4693603515625
0,211;-0.47027587890625
0,212;-0.469970703125
0,213;-0.46966552734375
0,214;-0.46966552734375
0,215;-0.46966552734375
0,216;-0.46966552734375
0,217;-0.47027587890625
0,218;-0.469970703125
0,219;-0.469970703125
0,22;-0.47027587890625
0,221;-0.46966552734375
0,222;-0.47027587890625
0,223;-0.4693603515625
0,224;-0.4693603515625
0,225;-0.46966552734375
0,226;-0.46966552734375
0,227;-0.469970703125
0,228;-0.46966552734375
0,229;-0.469970703125
0,23;-0.469970703125
0,231;-0.469970703125
0,232;-0.469970703125
0,233;-0.469970703125
0,234;-0.469970703125
0,235;-0.4693603515625
0,236;-0.46966552734375
0,237;-0.469970703125
0,238;-0.469970703125
0,239;-0.4693603515625
0,24;-0.46966552734375
0,241;-0.46966552734375
0,242;-0.46966552734375
0,243;-0.46905517578125
0,244;-0.4693603515625
0,245;-0.46966552734375
0,246;-0.469970703125
0,247;-0.46966552734375
0,248;-0.469970703125
0,249;-0.47027587890625
0,25;-0.4693603515625
0,251;-0.469970703125
0,252;-0.46966552734375
0,253;-0.4693603515625
0,254;-0.469970703125
0,255;-0.46966552734375
0,256;-0.469970703125
0,257;-0.469970703125
0,258;-0.46966552734375
0,259;-0.469970703125
0,26;-0.47027587890625
0,261;-0.46966552734375
0,262;-0.469970703125
0,263;-0.4693603515625
0,264;-0.4693603515625
0,265;-0.46966552734375
0,266;-0.46966552734375
0,267;-0.469970703125
0,268;-0.46966552734375
0,269;-0.47027587890625
0,27;-0.47027587890625
0,271;-0.46966552734375
0,272;-0.469970703125
0,273;-0.469970703125
0,274;-0.469970703125
0,275;-0.469970703125
0,276;-0.47027587890625
0,277;-0.46966552734375
0,278;-0.46966552734375
0,279;-0.46966552734375
0,28;-0.46966552734375
0,281;-0.469970703125
0,282;-0.46905517578125
0,283;-0.46966552734375
0,284;-0.46966552734375
0,285;-0.47027587890625
0,286;-0.469970703125
0,287;-0.469970703125
0,288;-0.46966552734375
0,289;-0.46966552734375
0,29;-0.469970703125
0,291;-0.469970703125
0,292;-0.469970703125
0,293;-0.47027587890625
0,294;-0.469970703125
0,295;-0.469970703125
0,296;-0.469970703125
0,297;-0.469970703125
0,298;-0.47027587890625
0,299;-0.46966552734375
0,3;-0.469970703125
0,301;-0.469970703125
0,302;-0.47027587890625
0,303;-0.46966552734375
0,304;-0.4693603515625
0,305;-0.469970703125
0,306;-0.469970703125
0,307;-0.469970703125
0,308;-0.46966552734375
0,309;-0.469970703125
0,31;-0.469970703125
0,311;-0.469970703125
0,312;-0.46966552734375
0,313;-0.46966552734375
0,314;-0.46966552734375
0,315;-0.4693603515625
0,316;-0.469970703125
0,317;-0.4693603515625
0,318;-0.4693603515625
0,319;-0.469970703125
0,32;-0.46966552734375
0,321;-0.46966552734375
0,322;-0.46966552734375
0,323;-0.469970703125
0,324;-0.46966552734375
0,325;-0.46966552734375
0,326;-0.47027587890625
0,327;-0.469970703125
0,328;-0.46966552734375
0,329;-0.4693603515625
0,33;-0.4693603515625
0,331;-0.469970703125
0,332;-0.46966552734375
0,333;-0.469970703125
0,334;-0.46966552734375
0,335;-0.46966552734375
0,336;-0.4693603515625
0,337;-0.46905517578125
0,338;-0.469970703125
0,339;-0.46905517578125
0,34;-0.469970703125
0,341;-0.46966552734375
0,342;-0.469970703125
0,343;-0.46905517578125
0,344;-0.4693603515625
0,345;-0.469970703125
0,346;-0.469970703125
0,347;-0.46966552734375
0,348;-0.469970703125
0,349;-0.46966552734375
0,35;-0.469970703125
0,351;-0.46966552734375
0,352;-0.46966552734375
0,353;-0.469970703125
0,354;-0.46966552734375
0,355;-0.469970703125
0,356;-0.46966552734375
0,357;-0.46966552734375
0,358;-0.469970703125
0,359;-0.46966552734375
0,36;-0.46966552734375
0,361;-0.469970703125
0,362;-0.469970703125
0,363;-0.46966552734375
0,364;-0.46966552734375
0,365;-0.469970703125
0,366;-0.46905517578125
0,367;-0.4693603515625
0,368;-0.469970703125
0,369;-0.46966552734375
0,37;-0.46966552734375
0,371;-0.469970703125
0,372;-0.47027587890625
0,373;-0.4693603515625
0,374;-0.46966552734375
0,375;-0.46966552734375
0,376;-0.46966552734375
0,377;-0.469970703125
0,378;-0.469970703125
0,379;-0.46966552734375
0,38;-0.46966552734375
0,381;-0.4693603515625
0,382;-0.46966552734375
0,383;-0.4693603515625
0,384;-0.46905517578125
0,385;-0.4693603515625
0,386;-0.469970703125
0,387;-0.46966552734375
0,388;-0.46966552734375
0,389;-0.47027587890625
0,39;-0.46966552734375
0,391;-0.46966552734375
0,392;-0.469970703125
0,393;-0.47027587890625
0,394;-0.46966552734375
0,395;-0.46966552734375
0,396;-0.46966552734375
0,397;-0.46905517578125
0,398;-0.4693603515625
0,399;-0.46966552734375
0,4;-0.469970703125
0,401;-0.46966552734375
0,402;-0.46905517578125
0,403;-0.46966552734375
0,404;-0.4693603515625
0,405;-0.46966552734375
0,406;-0.46966552734375
0,407;-0.46966552734375
0,408;-0.46966552734375
0,409;-0.4693603515625
0,41;-0.469970703125
0,411;-0.4693603515625
0,412;-0.46966552734375
0,413;-0.46966552734375
0,414;-0.4693603515625
0,415;-0.46966552734375
0,416;-0.46966552734375
0,417;-0.469970703125
0,418;-0.46966552734375
0,419;-0.4693603515625
0,42;-0.46875
0,421;-0.4693603515625
0,422;-0.4693603515625
0,423;-0.46966552734375
0,424;-0.46966552734375
0,425;-0.46966552734375
0,426;-0.4693603515625
0,427;-0.46966552734375
0,428;-0.4693603515625
0,429;-0.46966552734375
0,43;-0.4693603515625
0,431;-0.46966552734375
0,432;-0.469970703125
0,433;-0.469970703125
0,434;-0.469970703125
0,435;-0.46905517578125
0,436;-0.469970703125
0,437;-0.46966552734375
0,438;-0.4693603515625
0,439;-0.4693603515625
0,44;-0.46905517578125
0,441;-0.46966552734375
0,442;-0.4693603515625
0,443;-0.46966552734375
0,444;-0.469970703125
0,445;-0.46966552734375
0,446;-0.46966552734375
0,447;-0.4693603515625
0,448;-0.469970703125
0,449;-0.46966552734375
0,45;-0.46905517578125
0,451;-0.46966552734375
0,452;-0.46966552734375
0,453;-0.46966552734375
0,454;-0.469970703125
0,455;-0.47027587890625
0,456;-0.469970703125
0,457;-0.47027587890625
0,458;-0.47027587890625
0,459;-0.469970703125
0,46;-0.46966552734375
0,461;-0.4693603515625
0,462;-0.469970703125
0,463;-0.4693603515625
0,464;-0.46966552734375
0,465;-0.46966552734375
0,466;-0.46966552734375
0,467;-0.4693603515625
0,468;-0.469970703125
0,469;-0.46966552734375
0,47;-0.46966552734375
0,471;-0.46966552734375
0,472;-0.4693603515625
0,473;-0.46966552734375
0,474;-0.469970703125
0,475;-0.469970703125
0,476;-0.46966552734375
0,477;-0.46966552734375
0,478;-0.4693603515625
0,479;-0.4693603515625
0,48;-0.46966552734375
0,481;-0.469970703125
0,482;-0.47027587890625
0,483;-0.46905517578125
0,484;-0.46966552734375
0,485;-0.469970703125
0,486;-0.4693603515625
0,487;-0.4693603515625
0,488;-0.4693603515625
0,489;-0.46966552734375
0,49;-0.469970703125
0,491;-0.47027587890625
0,492;-0.469970703125
0,493;-0.469970703125
0,494;-0.46966552734375
0,495;-0.4693603515625
0,496;-0.46966552734375
0,497;-0.469970703125
0,498;-0.469970703125
0,499;-0.46966552734375
0,5;-0.46966552734375
0,501;-0.469970703125
0,502;-0.47027587890625
0,503;-0.4693603515625
0,504;-0.47027587890625
0,505;-0.46966552734375
0,506;-0.4693603515625
0,507;-0.4693603515625
0,508;-0.469970703125
0,509;-0.46966552734375
0,51;-0.4693603515625
0,511;-0.4693603515625
0,512;-0.46966552734375
0,513;-0.469970703125
0,514;-0.469970703125
0,515;-0.46966552734375
0,516;-0.47027587890625
0,517;-0.469970703125
0,518;-0.46966552734375
0,519;-0.4693603515625
0,52;-0.47027587890625
0,521;-0.4693603515625
0,522;-0.46966552734375
0,523;-0.47027587890625
0,524;-0.46966552734375
0,525;-0.46966552734375
0,526;-0.46966552734375
0,527;-0.4693603515625
0,528;-0.46966552734375
0,529;-0.4693603515625
0,53;-0.469970703125
0,531;-0.46966552734375
0,532;-0.46966552734375
0,533;-0.46905517578125
0,534;-0.4693603515625
0,535;-0.469970703125
0,536;-0.46966552734375
0,537;-0.46875
0,538;-0.46966552734375
0,539;-0.4693603515625
0,54;-0.4693603515625
0,541;-0.469970703125
0,542;-0.46966552734375
0,543;-0.469970703125
0,544;-0.4693603515625
0,545;-0.46966552734375
0,546;-0.46966552734375
0,547;-0.4693603515625
0,548;-0.46966552734375
0,549;-0.46966552734375
0,55;-0.46966552734375
0,551;-0.46966552734375
0,552;-0.4693603515625
0,553;-0.46905517578125
0,554;-0.46966552734375
0,555;-0.469970703125
0,556;-0.4693603515625
0,557;-0.46966552734375
0,558;-0.46905517578125
0,559;-0.46966552734375
0,56;-0.469970703125
0,561;-0.46966552734375
0,562;-0.46966552734375
0,563;-0.4693603515625
0,564;-0.46966552734375
0,565;-0.4693603515625
0,566;-0.46966552734375
0,567;-0.4693603515625
0,568;-0.4693603515625
0,569;-0.46966552734375
0,57;-0.4693603515625
0,571;-0.469970703125
0,572;-0.46966552734375
0,573;-0.46966552734375
0,574;-0.4693603515625
0,575;-0.46966552734375
0,576;-0.46905517578125
0,577;-0.4693603515625
0,578;-0.46966552734375
0,579;-0.46966552734375
0,58;-0.46966552734375
0,581;-0.4693603515625
0,582;-0.4693603515625
0,583;-0.4693603515625
0,584;-0.4693603515625
0,585;-0.46966552734375
0,586;-0.46966552734375
0,587;-0.46966552734375
0,588;-0.4693603515625
0,589;-0.4693603515625
0,59;-0.46875
0,591;-0.46905517578125
0,592;-0.46966552734375
0,593;-0.4693603515625
0,594;-0.46966552734375
0,595;-0.4693603515625
0,596;-0.46966552734375
0,597;-0.46905517578125
0,598;-0.46966552734375
0,599;-0.46966552734375
0,6;-0.46905517578125
0,601;-0.46905517578125
0,602;-0.46905517578125
0,603;-0.46966552734375
0,604;-0.46966552734375
0,605;-0.4693603515625
0,606;-0.46905517578125
0,607;-0.4693603515625
0,608;-0.46905517578125
0,609;-0.469970703125
0,61;-0.469970703125
0,611;-0.46966552734375
0,612;-0.4693603515625
0,613;-0.46966552734375
0,614;-0.4693603515625
0,615;-0.46966552734375
0,616;-0.46966552734375
0,617;-0.46966552734375
0,618;-0.469970703125
0,619;-0.46966552734375
0,62;-0.46966552734375
0,621;-0.46966552734375
0,622;-0.46905517578125
0,623;-0.46875
0,624;-0.46905517578125
0,625;-0.46905517578125
0,626;-0.4693603515625
0,627;-0.469970703125
0,628;-0.46875
0,629;-0.46905517578125
0,63;-0.46905517578125
0,631;-0.4693603515625
0,632;-0.46905517578125
0,633;-0.4693603515625
0,634;-0.46905517578125
0,635;-0.46966552734375
0,636;-0.46875
0,637;-0.46966552734375
0,638;-0.4693603515625
0,639;-0.469970703125
0,64;-0.4693603515625
0,641;-0.46966552734375
0,642;-0.46905517578125
0,643;-0.46966552734375
0,644;-0.46966552734375
0,645;-0.46966552734375
0,646;-0.4693603515625
0,647;-0.4693603515625
0,648;-0.4693603515625
0,649;-0.46875
0,65;-0.46875
0,651;-0.4693603515625
0,652;-0.4693603515625
0,653;-0.4693603515625
0,654;-0.469970703125
0,655;-0.46966552734375
0,656;-0.469970703125
0,657;-0.46966552734375
0,658;-0.46966552734375
0,659;-0.46966552734375
0,66;-0.4693603515625
0,661;-0.4693603515625
0,662;-0.46875
0,663;-0.46905517578125
0,664;-0.4693603515625
0,665;-0.46966552734375
0,666;-0.46966552734375
0,667;-0.4693603515625
0,668;-0.46905517578125
0,669;-0.46966552734375
0,67;-0.469970703125
0,671;-0.46905517578125
0,672;-0.46966552734375
0,673;-0.4693603515625
0,674;-0.4693603515625
0,675;-0.4693603515625
0,676;-0.4693603515625
0,677;-0.4693603515625
0,678;-0.46966552734375
0,679;-0.4693603515625
0,68;-0.46966552734375
0,681;-0.46905517578125
0,682;-0.46905517578125
0,683;-0.4693603515625
0,684;-0.46966552734375
0,685;-0.4693603515625
0,686;-0.46905517578125
0,687;-0.46966552734375
0,688;-0.469970703125
0,689;-0.4693603515625
0,69;-0.4693603515625
0,691;-0.46966552734375
0,692;-0.4693603515625
0,693;-0.4693603515625
0,694;-0.4693603515625
0,695;-0.4693603515625
0,696;-0.469970703125
0,697;-0.4693603515625
0,698;-0.46966552734375
0,699;-0.4693603515625
0,7;-0.47027587890625
0,701;-0.4693603515625
0,702;-0.46966552734375
0,703;-0.4693603515625
0,704;-0.46966552734375
0,705;-0.4693603515625
0,706;-0.4693603515625
0,707;-0.46966552734375
0,708;-0.46966552734375
0,709;-0.4693603515625
0,71;-0.46966552734375
0,711;-0.46905517578125
0,712;-0.46905517578125
0,713;-0.4693603515625
0,714;-0.46966552734375
0,715;-0.469970703125
0,716;-0.469970703125
0,717;-0.4693603515625
0,718;-0.46966552734375
0,719;-0.4693603515625
0,72;-0.46966552734375
0,721;-0.469970703125
0,722;-0.4693603515625
0,723;-0.46966552734375
0,724;-0.46905517578125
0,725;-0.46966552734375
0,726;-0.469970703125
0,727;-0.469970703125
0,728;-0.4693603515625
0,729;-0.46905517578125
0,73;-0.46905517578125
0,731;-0.4693603515625
0,732;-0.46905517578125
0,733;-0.4693603515625
0,734;-0.46905517578125
0,735;-0.4693603515625
0,736;-0.4693603515625
0,737;-0.46966552734375
0,738;-0.4693603515625
0,739;-0.46966552734375
0,74;-0.4693603515625
0,741;-0.46966552734375
0,742;-0.4693603515625
0,743;-0.46966552734375
0,744;-0.46966552734375
0,745;-0.4693603515625
0,746;-0.46966552734375
0,747;-0.47027587890625
0,748;-0.46905517578125
0,749;-0.4693603515625
0,75;-0.46966552734375
0,751;-0.46966552734375
0,752;-0.46905517578125
0,753;-0.4693603515625
0,754;-0.4693603515625
0,755;-0.4693603515625
0,756;-0.4693603515625
0,757;-0.46966552734375
0,758;-0.4693603515625
0,759;-0.46905517578125
0,76;-0.46905517578125
0,761;-0.46875
0,762;-0.46875
0,763;-0.46905517578125
0,764;-0.4693603515625
0,765;-0.46966552734375
0,766;-0.46905517578125
0,767;-0.4693603515625
0,768;-0.469970703125
0,769;-0.46966552734375
0,77;-0.46966552734375
0,771;-0.46966552734375
0,772;-0.46966552734375
0,773;-0.4693603515625
0,774;-0.469970703125
0,775;-0.469970703125
0,776;-0.4693603515625
0,777;-0.46875
0,778;-0.4693603515625
0,779;-0.46966552734375
0,78;-0.469970703125
0,781;-0.46966552734375
0,782;-0.4693603515625
0,783;-0.4693603515625
0,784;-0.46966552734375
0,785;-0.46966552734375
0,786;-0.4693603515625
0,787;-0.469970703125
0,788;-0.46966552734375
0,789;-0.4693603515625
0,79;-0.46966552734375
0,791;-0.46966552734375
0,792;-0.4693603515625
0,793;-0.4693603515625
0,794;-0.4693603515625
0,795;-0.4693603515625
0,796;-0.46966552734375
0,797;-0.469970703125
0,798;-0.469970703125
0,799;-0.4693603515625
0,8;-0.46905517578125
0,801;-0.469970703125
0,802;-0.46966552734375
0,803;-0.4693603515625
0,804;-0.469970703125
0,805;-0.46966552734375
0,806;-0.4693603515625
0,807;-0.46966552734375
0,808;-0.469970703125
0,809;-0.46966552734375
0,81;-0.46875
0,811;-0.469970703125
0,812;-0.46905517578125
0,813;-0.4693603515625
0,814;-0.46966552734375
0,815;-0.46966552734375
0,816;-0.46966552734375
0,817;-0.46966552734375
0,818;-0.46966552734375
0,819;-0.46966552734375
0,82;-0.4693603515625
0,821;-0.4693603515625
0,822;-0.46966552734375
0,823;-0.46966552734375
0,824;-0.4705810546875
0,825;-0.4693603515625
0,826;-0.46966552734375
0,827;-0.46966552734375
0,828;-0.46966552734375
0,829;-0.4693603515625
0,83;-0.469970703125
0,831;-0.46966552734375
0,832;-0.4693603515625
0,833;-0.46966552734375
0,834;-0.46966552734375
0,835;-0.46875
0,836;-0.4693603515625
0,837;-0.47027587890625
0,838;-0.4693603515625
0,839;-0.469970703125
0,84;-0.46966552734375
0,841;-0.46966552734375
0,842;-0.469970703125
0,843;-0.4693603515625
0,844;-0.469970703125
0,845;-0.46966552734375
0,846;-0.4693603515625
0,847;-0.46905517578125
0,848;-0.4693603515625
0,849;-0.46966552734375
0,85;-0.46966552734375
0,851;-0.46966552734375
0,852;-0.46905517578125
0,853;-0.46966552734375
0,854;-0.46905517578125
0,855;-0.469970703125
0,856;-0.469970703125
0,857;-0.4693603515625
0,858;-0.4693603515625
0,859;-0.46905517578125
0,86;-0.469970703125
0,861;-0.46905517578125
0,862;-0.469970703125
0,863;-0.46966552734375
0,864;-0.47027587890625
0,865;-0.4693603515625
0,866;-0.469970703125
0,867;-0.46875
0,868;-0.46966552734375
0,869;-0.46966552734375
0,87;-0.46966552734375
0,871;-0.46966552734375
0,872;-0.469970703125
0,873;-0.46966552734375
0,874;-0.46966552734375
0,875;-0.4693603515625
0,876;-0.46966552734375
0,877;-0.46966552734375
0,878;-0.4693603515625
0,879;-0.46966552734375
0,88;-0.4693603515625
0,881;-0.46966552734375
0,882;-0.46875
0,883;-0.4693603515625
0,884;-0.469970703125
0,885;-0.46966552734375
0,886;-0.469970703125
0,887;-0.4693603515625
0,888;-0.46966552734375
0,889;-0.469970703125
0,89;-0.46966552734375
0,891;-0.469970703125
0,892;-0.46966552734375
0,893;-0.46966552734375
0,894;-0.469970703125
0,895;-0.4693603515625
0,896;-0.46966552734375
0,897;-0.469970703125
0,898;-0.46966552734375
0,899;-0.46966552734375
0,9;-0.4693603515625
0,901;-0.46905517578125
0,902;-0.46966552734375
0,903;-0.469970703125
0,904;-0.4693603515625
0,905;-0.46966552734375
0,906;-0.46905517578125
0,907;-0.469970703125
0,908;-0.4693603515625
0,909;-0.469970703125
0,91;-0.46966552734375
0,911;-0.4693603515625
0,912;-0.46905517578125
0,913;-0.46905517578125
0,914;-0.4693603515625
0,915;-0.469970703125
0,916;-0.46966552734375
0,917;-0.469970703125
0,918;-0.469970703125
0,919;-0.46966552734375
0,92;-0.4693603515625
0,921;-0.469970703125
0,922;-0.46966552734375
0,923;-0.4693603515625
0,924;-0.46905517578125
0,925;-0.4693603515625
0,926;-0.46875
0,927;-0.46875
0,928;-0.4693603515625
0,929;-0.4693603515625
0,93;-0.46966552734375
0,931;-0.46966552734375
0,932;-0.4693603515625
0,933;-0.469970703125
0,934;-0.4693603515625
0,935;-0.46875
0,936;-0.46966552734375
0,937;-0.46905517578125
0,938;-0.46905517578125
0,939;-0.4693603515625
0,94;-0.469970703125
0,941;-0.46966552734375
0,942;-0.46966552734375
0,943;-0.4693603515625
0,944;-0.46966552734375
0,945;-0.469970703125
0,946;-0.46966552734375
0,947;-0.469970703125
0,948;-0.4693603515625
0,949;-0.4693603515625
0,95;-0.4693603515625
0,951;-0.469970703125
0,952;-0.46966552734375
0,953;-0.4693603515625
0,954;-0.4693603515625
0,955;-0.46966552734375
0,956;-0.47027587890625
0,957;-0.469970703125
0,958;-0.46966552734375
0,959;-0.46966552734375
0,96;-0.46966552734375
0,961;-0.469970703125
0,962;-0.469970703125
0,963;-0.46966552734375
0,964;-0.469970703125
0,965;-0.46966552734375
0,966;-0.469970703125
0,967;-0.46966552734375
0,968;-0.469970703125
0,969;-0.47027587890625
0,97;-0.46966552734375
0,971;-0.46905517578125
0,972;-0.46966552734375
0,973;-0.46966552734375
0,974;-0.46966552734375
0,975;-0.469970703125
0,976;-0.46966552734375
0,977;-0.469970703125
0,978;-0.46905517578125
0,979;-0.4693603515625
0,98;-0.469970703125
0,981;-0.4693603515625
0,982;-0.47027587890625
0,983;-0.469970703125
0,984;-0.469970703125
0,985;-0.469970703125
0,986;-0.46966552734375
0,987;-0.469970703125
0,988;-0.47027587890625
0,989;-0.469970703125
0,99;-0.46966552734375
0,991;-0.469970703125
0,992;-0.469970703125
0,993;-0.46966552734375
0,994;-0.46966552734375
0,995;-0.4693603515625
0,996;-0.46966552734375
0,997;-0.4693603515625
0,998;-0.469970703125
0,999;-0.469970703125
1;-0.469970703125
1,001;-0.46966552734375
1,002;-0.46966552734375
1,003;-0.4693603515625
1,004;-0.46966552734375
1,005;-0.46966552734375
1,006;-0.4693603515625
1,007;-0.469970703125
1,008;-0.4693603515625
1,009;-0.46966552734375
1,01;-0.469970703125
1,011;-0.469970703125
1,012;-0.46966552734375
1,013;-0.469970703125
1,014;-0.4693603515625
1,015;-0.469970703125
1,016;-0.46966552734375
1,017;-0.46966552734375
1,018;-0.46966552734375
1,019;-0.46875
1,02;-0.46966552734375
1,021;-0.4693603515625
1,022;-0.46966552734375
1,023;-0.46966552734375
1,024;-0.46966552734375
1,025;-0.469970703125
1,026;-0.47027587890625
1,027;-0.46966552734375
1,028;-0.4693603515625
1,029;-0.46966552734375
1,03;-0.469970703125
1,031;-0.469970703125
1,032;-0.4693603515625
1,033;-0.469970703125
1,034;-0.4693603515625
1,035;-0.46966552734375
1,036;-0.46966552734375
1,037;-0.46966552734375
1,038;-0.46966552734375
1,039;-0.46966552734375
1,04;-0.46966552734375
1,041;-0.469970703125
1,042;-0.46966552734375
1,043;-0.46966552734375
1,044;-0.4693603515625
1,045;-0.46905517578125
1,046;-0.46966552734375
1,047;-0.47027587890625
1,048;-0.46966552734375
1,049;-0.4693603515625
1,05;-0.46966552734375
1,051;-0.47027587890625
1,052;-0.46966552734375
1,053;-0.46966552734375
1,054;-0.46905517578125
1,055;-0.4693603515625
1,056;-0.46966552734375
1,057;-0.46966552734375
1,058;-0.46966552734375
1,059;-0.469970703125
1,06;-0.4693603515625
1,061;-0.46905517578125
1,062;-0.46966552734375
1,063;-0.46966552734375
1,064;-0.4693603515625
1,065;-0.469970703125
1,066;-0.46966552734375
1,067;-0.469970703125
1,068;-0.46966552734375
1,069;-0.46966552734375
1,07;-0.46966552734375
1,071;-0.46966552734375
1,072;-0.46905517578125
1,073;-0.46966552734375
1,074;-0.46966552734375
1,075;-0.4693603515625
1,076;-0.46905517578125
1,077;-0.4693603515625
1,078;-0.469970703125
1,079;-0.46905517578125
1,08;-0.4693603515625
1,081;-0.4693603515625
1,082;-0.469970703125
1,083;-0.469970703125
1,084;-0.469970703125
1,085;-0.46966552734375
1,086;-0.47027587890625
1,087;-0.4693603515625
1,088;-0.469970703125
1,089;-0.469970703125
1,09;-0.469970703125
1,091;-0.4693603515625
1,092;-0.46966552734375
1,093;-0.469970703125
1,094;-0.46966552734375
1,095;-0.4693603515625
1,096;-0.46966552734375
1,097;-0.4693603515625
1,098;-0.4693603515625
1,099;-0.46875
1,1;-0.46966552734375
1,101;-0.46966552734375
1,102;-0.46966552734375
1,103;-0.46966552734375
1,104;-0.47027587890625
1,105;-0.46905517578125
1,106;-0.46966552734375
1,107;-0.47027587890625
1,108;-0.469970703125
1,109;-0.4693603515625
1,11;-0.46905517578125
1,111;-0.46966552734375
1,112;-0.4693603515625
1,113;-0.469970703125
1,114;-0.46966552734375
1,115;-0.46966552734375
1,116;-0.4693603515625
1,117;-0.46966552734375
1,118;-0.46905517578125
1,119;-0.4693603515625
1,12;-0.46905517578125
1,121;-0.4693603515625
1,122;-0.46966552734375
1,123;-0.46905517578125
1,124;-0.46966552734375
1,125;-0.4693603515625
1,126;-0.46966552734375
1,127;-0.46966552734375
1,128;-0.46966552734375
1,129;-0.4693603515625
1,13;-0.47027587890625
1,131;-0.46966552734375
1,132;-0.46905517578125
1,133;-0.46966552734375
1,134;-0.4693603515625
1,135;-0.469970703125
1,136;-0.46966552734375
1,137;-0.46905517578125
1,138;-0.4693603515625
1,139;-0.469970703125
1,14;-0.46966552734375
1,141;-0.4693603515625
1,142;-0.46966552734375
1,143;-0.4693603515625
1,144;-0.4693603515625
1,145;-0.46966552734375
1,146;-0.4693603515625
1,147;-0.47027587890625
1,148;-0.469970703125
1,149;-0.469970703125
1,15;-0.46966552734375
1,151;-0.46966552734375
1,152;-0.4693603515625
1,153;-0.46966552734375
1,154;-0.469970703125
1,155;-0.46905517578125
1,156;-0.46966552734375
1,157;-0.46905517578125
1,158;-0.4693603515625
1,159;-0.47027587890625
1,16;-0.4693603515625
1,161;-0.469970703125
1,162;-0.46966552734375
1,163;-0.46966552734375
1,164;-0.469970703125
1,165;-0.46966552734375
1,166;-0.46966552734375
1,167;-0.46966552734375
1,168;-0.46905517578125
1,169;-0.469970703125
1,17;-0.4693603515625
1,171;-0.46966552734375
1,172;-0.46966552734375
1,173;-0.469970703125
1,174;-0.46905517578125
1,175;-0.4693603515625
1,176;-0.46966552734375
1,177;-0.47027587890625
1,178;-0.4693603515625
1,179;-0.46966552734375
1,18;-0.4693603515625
1,181;-0.46966552734375
1,182;-0.469970703125
1,183;-0.46966552734375
1,184;-0.4693603515625
1,185;-0.46966552734375
1,186;-0.46905517578125
1,187;-0.46966552734375
1,188;-0.4693603515625
1,189;-0.46966552734375
1,19;-0.46966552734375
1,191;-0.469970703125
1,192;-0.4693603515625
1,193;-0.4693603515625
1,194;-0.4693603515625
1,195;-0.46966552734375
1,196;-0.469970703125
1,197;-0.469970703125
1,198;-0.46905517578125
1,199;-0.46966552734375
1,2;-0.46966552734375
1,201;-0.469970703125
1,202;-0.469970703125
1,203;-0.46966552734375
1,204;-0.46966552734375
1,205;-0.4693603515625
1,206;-0.46905517578125
1,207;-0.46966552734375
1,208;-0.46966552734375
1,209;-0.4693603515625
1,21;-0.469970703125
1,211;-0.4693603515625
1,212;-0.469970703125
1,213;-0.46966552734375
1,214;-0.46966552734375
1,215;-0.469970703125
1,216;-0.4693603515625
1,217;-0.46905517578125
1,218;-0.46966552734375
1,219;-0.469970703125
1,22;-0.47027587890625
1,221;-0.469970703125
1,222;-0.46966552734375
1,223;-0.469970703125
1,224;-0.469970703125
1,225;-0.469970703125
1,226;-0.46966552734375
1,227;-0.469970703125
1,228;-0.469970703125
1,229;-0.469970703125
1,23;-0.469970703125
1,231;-0.4693603515625
1,232;-0.4693603515625
1,233;-0.46875
1,234;-0.4693603515625
1,235;-0.4693603515625
1,236;-0.46966552734375
1,237;-0.469970703125
1,238;-0.46966552734375
1,239;-0.469970703125
1,24;-0.46966552734375
1,241;-0.469970703125
1,242;-0.46966552734375
1,243;-0.46966552734375
1,244;-0.4693603515625
1,245;-0.469970703125
1,246;-0.469970703125
1,247;-0.4693603515625
1,248;-0.46966552734375
1,249;-0.46905517578125
1,25;-0.46966552734375
1,251;-0.4693603515625
1,252;-0.4693603515625
1,253;-0.46966552734375
1,254;-0.4693603515625
1,255;-0.46905517578125
1,256;-0.469970703125
1,257;-0.4693603515625
1,258;-0.4693603515625
1,259;-0.46966552734375
1,26;-0.4693603515625
1,261;-0.46966552734375
1,262;-0.47027587890625
1,263;-0.4693603515625
1,264;-0.46966552734375
1,265;-0.46966552734375
1,266;-0.47027587890625
1,267;-0.46966552734375
1,268;-0.46966552734375
1,269;-0.46966552734375
1,27;-0.46966552734375
1,271;-0.46905517578125
1,272;-0.4693603515625
1,273;-0.4693603515625
1,274;-0.46966552734375
1,275;-0.46966552734375
1,276;-0.4693603515625
1,277;-0.46966552734375
1,278;-0.46966552734375
1,279;-0.46905517578125
1,28;-0.4693603515625
1,281;-0.46966552734375
1,282;-0.46966552734375
1,283;-0.4693603515625
1,284;-0.46966552734375
1,285;-0.46966552734375
1,286;-0.46905517578125
1,287;-0.46966552734375
1,288;-0.4693603515625
1,289;-0.46966552734375
1,29;-0.4693603515625
1,291;-0.469970703125
1,292;-0.46966552734375
1,293;-0.46966552734375
1,294;-0.46966552734375
1,295;-0.46905517578125
1,296;-0.46905517578125
1,297;-0.46905517578125
1,298;-0.4693603515625
1,299;-0.46966552734375
1,3;-0.4693603515625
1,301;-0.46905517578125
1,302;-0.46966552734375
1,303;-0.4693603515625
1,304;-0.46966552734375
1,305;-0.46966552734375
1,306;-0.46966552734375
1,307;-0.469970703125
1,308;-0.46966552734375
1,309;-0.4693603515625
1,31;-0.46966552734375
1,311;-0.4693603515625
1,312;-0.46966552734375
1,313;-0.469970703125
1,314;-0.4693603515625
1,315;-0.46905517578125
1,316;-0.469970703125
1,317;-0.4693603515625
1,318;-0.46966552734375
1,319;-0.469970703125
1,32;-0.46905517578125
1,321;-0.46966552734375
1,322;-0.469970703125
1,323;-0.46905517578125
1,324;-0.46966552734375
1,325;-0.4693603515625
1,326;-0.4693603515625
1,327;-0.46966552734375
1,328;-0.46966552734375
1,329;-0.46966552734375
1,33;-0.46905517578125
1,331;-0.46966552734375
1,332;-0.46966552734375
1,333;-0.4693603515625
1,334;-0.46966552734375
1,335;-0.4693603515625
1,336;-0.46966552734375
1,337;-0.46966552734375
1,338;-0.46905517578125
1,339;-0.46966552734375
1,34;-0.46966552734375
1,341;-0.469970703125
1,342;-0.46966552734375
1,343;-0.46966552734375
1,344;-0.46966552734375
1,345;-0.4693603515625
1,346;-0.469970703125
1,347;-0.469970703125
1,348;-0.46875
1,349;-0.46966552734375
1,35;-0.46966552734375
1,351;-0.46966552734375
1,352;-0.4693603515625
1,353;-0.46875
1,354;-0.46966552734375
1,355;-0.469970703125
1,356;-0.4693603515625
1,357;-0.46966552734375
1,358;-0.46966552734375
1,359;-0.46905517578125
1,36;-0.46966552734375
1,361;-0.47027587890625
1,362;-0.4693603515625
1,363;-0.46966552734375
1,364;-0.46905517578125
1,365;-0.46966552734375
1,366;-0.4693603515625
1,367;-0.46905517578125
1,368;-0.46966552734375
1,369;-0.46966552734375
1,37;-0.4693603515625
1,371;-0.46905517578125
1,372;-0.46905517578125
1,373;-0.4693603515625
1,374;-0.46966552734375
1,375;-0.4693603515625
1,376;-0.469970703125
1,377;-0.469970703125
1,378;-0.46905517578125
1,379;-0.4693603515625
1,38;-0.46905517578125
1,381;-0.46905517578125
1,382;-0.46966552734375
1,383;-0.46875
1,384;-0.46875
1,385;-0.4693603515625
1,386;-0.46905517578125
1,387;-0.46905517578125
1,388;-0.4693603515625
1,389;-0.4693603515625
1,39;-0.46905517578125
1,391;-0.469970703125
1,392;-0.469970703125
1,393;-0.4693603515625
1,394;-0.46966552734375
1,395;-0.46905517578125
1,396;-0.4693603515625
1,397;-0.4693603515625
1,398;-0.46875
1,399;-0.46966552734375
1,4;-0.46966552734375
1,401;-0.46966552734375
1,402;-0.46905517578125
1,403;-0.46966552734375
1,404;-0.4693603515625
1,405;-0.46966552734375
1,406;-0.4693603515625
1,407;-0.4693603515625
1,408;-0.46875
1,409;-0.46875
1,41;-0.46966552734375
1,411;-0.4693603515625
1,412;-0.4693603515625
1,413;-0.4693603515625
1,414;-0.46905517578125
1,415;-0.46875
1,416;-0.4693603515625
1,417;-0.46966552734375
1,418;-0.46875
1,419;-0.4693603515625
1,42;-0.4693603515625
1,421;-0.469970703125
1,422;-0.46966552734375
1,423;-0.4693603515625
1,424;-0.46905517578125
1,425;-0.4693603515625
1,426;-0.46966552734375
1,427;-0.46966552734375
1,428;-0.46875
1,429;-0.46875
1,43;-0.4693603515625
1,431;-0.46905517578125
1,432;-0.4693603515625
1,433;-0.4693603515625
1,434;-0.4693603515625
1,435;-0.46966552734375
1,436;-0.46966552734375
1,437;-0.4693603515625
1,438;-0.4693603515625
1,439;-0.4693603515625
1,44;-0.4693603515625
1,441;-0.46905517578125
1,442;-0.46966552734375
1,443;-0.46966552734375
1,444;-0.4693603515625
1,445;-0.46905517578125
1,446;-0.46905517578125
1,447;-0.46966552734375
1,448;-0.46905517578125
1,449;-0.46966552734375
1,45;-0.46905517578125
1,451;-0.47027587890625
1,452;-0.46966552734375
1,453;-0.469970703125
1,454;-0.46905517578125
1,455;-0.46966552734375
1,456;-0.4693603515625
1,457;-0.4693603515625
1,458;-0.4693603515625
1,459;-0.46905517578125
1,46;-0.46966552734375
1,461;-0.4693603515625
1,462;-0.46905517578125
1,463;-0.469970703125
1,464;-0.469970703125
1,465;-0.46905517578125
1,466;-0.4693603515625
1,467;-0.46966552734375
1,468;-0.4693603515625
1,469;-0.4693603515625
1,47;-0.46966552734375
1,471;-0.469970703125
1,472;-0.46875
1,473;-0.46905517578125
1,474;-0.46905517578125
1,475;-0.4693603515625
1,476;-0.46905517578125
1,477;-0.46966552734375
1,478;-0.46966552734375
1,479;-0.469970703125
1,48;-0.4693603515625
1,481;-0.4693603515625
1,482;-0.46966552734375
1,483;-0.469970703125
1,484;-0.46966552734375
1,485;-0.4693603515625
1,486;-0.46966552734375
1,487;-0.46966552734375
1,488;-0.46905517578125
1,489;-0.4693603515625
1,49;-0.4693603515625
1,491;-0.4693603515625
1,492;-0.4693603515625
1,493;-0.4693603515625
1,494;-0.46966552734375
1,495;-0.4693603515625
1,496;-0.46966552734375
1,497;-0.46966552734375
1,498;-0.4693603515625
1,499;-0.4693603515625
1,5;-0.4693603515625
1,501;-0.4693603515625
1,502;-0.4693603515625
1,503;-0.46875
1,504;-0.46966552734375
1,505;-0.4693603515625
1,506;-0.46966552734375
1,507;-0.46966552734375
1,508;-0.46966552734375
1,509;-0.46905517578125
1,51;-0.46905517578125
1,511;-0.46966552734375
1,512;-0.46905517578125
1,513;-0.46905517578125
1,514;-0.46966552734375
1,515;-0.4693603515625
1,516;-0.46966552734375
1,517;-0.4693603515625
1,518;-0.46875
1,519;-0.46844482421875
1,52;-0.4693603515625
1,521;-0.46905517578125
1,522;-0.4693603515625
1,523;-0.47027587890625
1,524;-0.469970703125
1,525;-0.46966552734375
1,526;-0.4693603515625
1,527;-0.46966552734375
1,528;-0.4693603515625
1,529;-0.4693603515625
1,53;-0.46875
1,531;-0.46966552734375
1,532;-0.46966552734375
1,533;-0.46966552734375
1,534;-0.469970703125
1,535;-0.4693603515625
1,536;-0.46966552734375
1,537;-0.46966552734375
1,538;-0.469970703125
1,539;-0.4693603515625
1,54;-0.4693603515625
1,541;-0.46875
1,542;-0.46966552734375
1,543;-0.46875
1,544;-0.46905517578125
1,545;-0.469970703125
1,546;-0.4693603515625
1,547;-0.46966552734375
1,548;-0.46966552734375
1,549;-0.4693603515625
1,55;-0.46966552734375
1,551;-0.46966552734375
1,552;-0.4693603515625
1,553;-0.46966552734375
1,554;-0.46966552734375
1,555;-0.46905517578125
1,556;-0.4693603515625
1,557;-0.469970703125
1,558;-0.469970703125
1,559;-0.46875
1,56;-0.46875
1,561;-0.46875
1,562;-0.46966552734375
1,563;-0.46966552734375
1,564;-0.46966552734375
1,565;-0.46966552734375
1,566;-0.46966552734375
1,567;-0.46966552734375
1,568;-0.46966552734375
1,569;-0.4693603515625
1,57;-0.46966552734375
1,571;-0.4693603515625
1,572;-0.469970703125
1,573;-0.4693603515625
1,574;-0.46905517578125
1,575;-0.4693603515625
1,576;-0.46966552734375
1,577;-0.46966552734375
1,578;-0.46966552734375
1,579;-0.46966552734375
1,58;-0.4693603515625
1,581;-0.46966552734375
1,582;-0.4693603515625
1,583;-0.4693603515625
1,584;-0.46875
1,585;-0.46905517578125
1,586;-0.46966552734375
1,587;-0.4693603515625
1,588;-0.4693603515625
1,589;-0.4693603515625
1,59;-0.469970703125
1,591;-0.46966552734375
1,592;-0.469970703125
1,593;-0.46966552734375
1,594;-0.4693603515625
1,595;-0.469970703125
1,596;-0.46905517578125
1,597;-0.46966552734375
1,598;-0.46966552734375
1,599;-0.46905517578125
1,6;-0.46905517578125
1,601;-0.4693603515625
1,602;-0.469970703125
1,603;-0.4693603515625
1,604;-0.4693603515625
1,605;-0.4693603515625
1,606;-0.46966552734375
1,607;-0.46905517578125
1,608;-0.46966552734375
1,609;-0.4693603515625
1,61;-0.46875
1,611;-0.4693603515625
1,612;-0.46966552734375
1,613;-0.4693603515625
1,614;-0.4693603515625
1,615;-0.4693603515625
1,616;-0.46966552734375
1,617;-0.469970703125
1,618;-0.469970703125
1,619;-0.4693603515625
1,62;-0.46966552734375
1,621;-0.46966552734375
1,622;-0.46966552734375
1,623;-0.46966552734375
1,624;-0.4693603515625
1,625;-0.46966552734375
1,626;-0.46966552734375
1,627;-0.46905517578125
1,628;-0.4693603515625
1,629;-0.46966552734375
1,63;-0.46966552734375
1,631;-0.46966552734375
1,632;-0.4693603515625
1,633;-0.46905517578125
1,634;-0.4693603515625
1,635;-0.46966552734375
1,636;-0.469970703125
1,637;-0.46905517578125
1,638;-0.4693603515625
1,639;-0.4693603515625
1,64;-0.4693603515625
1,641;-0.4693603515625
1,642;-0.46966552734375
1,643;-0.46966552734375
1,644;-0.46905517578125
1,645;-0.4693603515625
1,646;-0.46905517578125
1,647;-0.4693603515625
1,648;-0.46966552734375
1,649;-0.46905517578125
1,65;-0.469970703125
1,651;-0.4693603515625
1,652;-0.46875
1,653;-0.46966552734375
1,654;-0.46875
1,655;-0.46875
1,656;-0.4693603515625
1,657;-0.46966552734375
1,658;-0.46905517578125
1,659;-0.4693603515625
1,66;-0.46966552734375
1,661;-0.46966552734375
1,662;-0.46966552734375
1,663;-0.4693603515625
1,664;-0.4693603515625
1,665;-0.46966552734375
1,666;-0.4693603515625
1,667;-0.4693603515625
1,668;-0.46875
1,669;-0.4693603515625
1,67;-0.46905517578125
1,671;-0.469970703125
1,672;-0.4693603515625
1,673;-0.4693603515625
1,674;-0.46905517578125
1,675;-0.4693603515625
1,676;-0.4693603515625
1,677;-0.4693603515625
1,678;-0.46905517578125
1,679;-0.46966552734375
1,68;-0.46905517578125
1,681;-0.46966552734375
1,682;-0.4693603515625
1,683;-0.46875
1,684;-0.46905517578125
1,685;-0.4693603515625
1,686;-0.4693603515625
1,687;-0.469970703125
1,688;-0.46966552734375
1,689;-0.46966552734375
1,69;-0.46966552734375
1,691;-0.46905517578125
1,692;-0.46966552734375
1,693;-0.4693603515625
1,694;-0.46966552734375
1,695;-0.46966552734375
1,696;-0.46966552734375
1,697;-0.46905517578125
1,698;-0.46905517578125
1,699;-0.469970703125
1,7;-0.46966552734375
1,701;-0.46966552734375
1,702;-0.46966552734375
1,703;-0.46966552734375
1,704;-0.46966552734375
1,705;-0.4693603515625
1,706;-0.4693603515625
1,707;-0.46966552734375
1,708;-0.46905517578125
1,709;-0.4693603515625
1,71;-0.4693603515625
1,711;-0.4693603515625
1,712;-0.469970703125
1,713;-0.4693603515625
1,714;-0.46966552734375
1,715;-0.47027587890625
1,716;-0.4693603515625
1,717;-0.4693603515625
1,718;-0.47027587890625
1,719;-0.46966552734375
1,72;-0.469970703125
1,721;-0.46966552734375
1,722;-0.46966552734375
1,723;-0.46966552734375
1,724;-0.46966552734375
1,725;-0.46966552734375
1,726;-0.46966552734375
1,727;-0.46966552734375
1,728;-0.46905517578125
1,729;-0.4693603515625
1,73;-0.46966552734375
1,731;-0.46966552734375
1,732;-0.46966552734375
1,733;-0.46905517578125
1,734;-0.46966552734375
1,735;-0.46966552734375
1,736;-0.46966552734375
1,737;-0.46966552734375
1,738;-0.46966552734375
1,739;-0.4693603515625
1,74;-0.46966552734375
1,741;-0.469970703125
1,742;-0.46966552734375
1,743;-0.46966552734375
1,744;-0.46966552734375
1,745;-0.4693603515625
1,746;-0.469970703125
1,747;-0.46966552734375
1,748;-0.46966552734375
1,749;-0.469970703125
1,75;-0.4693603515625
1,751;-0.469970703125
1,752;-0.46966552734375
1,753;-0.46966552734375
1,754;-0.46966552734375
1,755;-0.4693603515625
1,756;-0.46966552734375
1,757;-0.469970703125
1,758;-0.4693603515625
1,759;-0.469970703125
1,76;-0.4693603515625
1,761;-0.46966552734375
1,762;-0.4693603515625
1,763;-0.4693603515625
1,764;-0.46875
1,765;-0.46905517578125
1,766;-0.4693603515625
1,767;-0.469970703125
1,768;-0.4693603515625
1,769;-0.46905517578125
1,77;-0.46966552734375
1,771;-0.469970703125
1,772;-0.46966552734375
1,773;-0.46966552734375
1,774;-0.469970703125
1,775;-0.4693603515625
1,776;-0.46966552734375
1,777;-0.46966552734375
1,778;-0.4693603515625
1,779;-0.4693603515625
1,78;-0.4693603515625
1,781;-0.46905517578125
1,782;-0.46966552734375
1,783;-0.469970703125
1,784;-0.46966552734375
1,785;-0.4693603515625
1,786;-0.4693603515625
1,787;-0.46966552734375
1,788;-0.47027587890625
1,789;-0.46966552734375
1,79;-0.46966552734375
1,791;-0.469970703125
1,792;-0.46966552734375
1,793;-0.469970703125
1,794;-0.469970703125
1,795;-0.46966552734375
1,796;-0.47027587890625
1,797;-0.46966552734375
1,798;-0.46905517578125
1,799;-0.46966552734375
1,8;-0.46966552734375
1,801;-0.46875
1,802;-0.46966552734375
1,803;-0.4693603515625
1,804;-0.469970703125
1,805;-0.46966552734375
1,806;-0.4693603515625
1,807;-0.469970703125
1,808;-0.46966552734375
1,809;-0.4693603515625
1,81;-0.46905517578125
1,811;-0.469970703125
1,812;-0.46966552734375
1,813;-0.46905517578125
1,814;-0.46966552734375
1,815;-0.46966552734375
1,816;-0.4693603515625
1,817;-0.469970703125
1,818;-0.46966552734375
1,819;-0.46966552734375
1,82;-0.469970703125
1,821;-0.4693603515625
1,822;-0.4693603515625
1,823;-0.4693603515625
1,824;-0.46966552734375
1,825;-0.46905517578125
1,826;-0.46905517578125
1,827;-0.4693603515625
1,828;-0.46905517578125
1,829;-0.46966552734375
1,83;-0.4693603515625
1,831;-0.46966552734375
1,832;-0.46966552734375
1,833;-0.46966552734375
1,834;-0.46966552734375
1,835;-0.469970703125
1,836;-0.46966552734375
1,837;-0.46966552734375
1,838;-0.4693603515625
1,839;-0.4693603515625
1,84;-0.4693603515625
1,841;-0.4693603515625
1,842;-0.46966552734375
1,843;-0.4693603515625
1,844;-0.46966552734375
1,845;-0.4693603515625
1,846;-0.4693603515625
1,847;-0.469970703125
1,848;-0.469970703125
1,849;-0.46966552734375
1,85;-0.46966552734375
1,851;-0.46905517578125
1,852;-0.46905517578125
1,853;-0.47027587890625
1,854;-0.46875
1,855;-0.46966552734375
1,856;-0.4693603515625
1,857;-0.46966552734375
1,858;-0.469970703125
1,859;-0.46905517578125
1,86;-0.46966552734375
1,861;-0.4693603515625
1,862;-0.4693603515625
1,863;-0.46905517578125
1,864;-0.4693603515625
1,865;-0.46905517578125
1,866;-0.469970703125
1,867;-0.46966552734375
1,868;-0.469970703125
1,869;-0.46966552734375
1,87;-0.4693603515625
1,871;-0.469970703125
1,872;-0.469970703125
1,873;-0.46966552734375
1,874;-0.4693603515625
1,875;-0.46966552734375
1,876;-0.469970703125
1,877;-0.46966552734375
1,878;-0.4693603515625
1,879;-0.46966552734375
1,88;-0.46966552734375
1,881;-0.46966552734375
1,882;-0.469970703125
1,883;-0.46966552734375
1,884;-0.46905517578125
1,885;-0.46966552734375
1,886;-0.46966552734375
1,887;-0.46966552734375
1,888;-0.469970703125
1,889;-0.46966552734375
1,89;-0.469970703125
1,891;-0.469970703125
1,892;-0.46905517578125
1,893;-0.46966552734375
1,894;-0.469970703125
1,895;-0.4693603515625
1,896;-0.4693603515625
1,897;-0.469970703125
1,898;-0.4693603515625
1,899;-0.469970703125
1,9;-0.46966552734375
1,901;-0.469970703125
1,902;-0.46966552734375
1,903;-0.46875
1,904;-0.4693603515625
1,905;-0.46966552734375
1,906;-0.46966552734375
1,907;-0.46966552734375
1,908;-0.46966552734375
1,909;-0.46966552734375
1,91;-0.4693603515625
1,911;-0.4693603515625
1,912;-0.46966552734375
1,913;-0.469970703125
1,914;-0.4693603515625
1,915;-0.46966552734375
1,916;-0.46966552734375
1,917;-0.46875
1,918;-0.469970703125
1,919;-0.4693603515625
1,92;-0.46966552734375
1,921;-0.469970703125
1,922;-0.469970703125
1,923;-0.4693603515625
1,924;-0.469970703125
1,925;-0.46875
1,926;-0.46966552734375
1,927;-0.46966552734375
1,928;-0.46966552734375
1,929;-0.46905517578125
1,93;-0.4693603515625
1,931;-0.46966552734375
1,932;-0.4693603515625
1,933;-0.4693603515625
1,934;-0.4693603515625
1,935;-0.4693603515625
1,936;-0.46966552734375
1,937;-0.46966552734375
1,938;-0.46966552734375
1,939;-0.46966552734375
1,94;-0.46966552734375
1,941;-0.46905517578125
1,942;-0.46966552734375
1,943;-0.46966552734375
1,944;-0.4693603515625
1,945;-0.46966552734375
1,946;-0.46966552734375
1,947;-0.46966552734375
1,948;-0.46966552734375
1,949;-0.469970703125
1,95;-0.46966552734375
1,951;-0.4693603515625
1,952;-0.47027587890625
1,953;-0.46905517578125
1,954;-0.46875
1,955;-0.4693603515625
1,956;-0.4693603515625
1,957;-0.4693603515625
1,958;-0.4693603515625
1,959;-0.46966552734375
1,96;-0.469970703125
1,961;-0.4693603515625
1,962;-0.4693603515625
1,963;-0.46905517578125
1,964;-0.46966552734375
1,965;-0.46905517578125
1,966;-0.46905517578125
1,967;-0.4693603515625
1,968;-0.469970703125
1,969;-0.46966552734375
1,97;-0.4693603515625
1,971;-0.4693603515625
1,972;-0.469970703125
1,973;-0.46905517578125
1,974;-0.46966552734375
1,975;-0.4693603515625
1,976;-0.4693603515625
1,977;-0.46905517578125
1,978;-0.46966552734375
1,979;-0.46905517578125
1,98;-0.46905517578125
1,981;-0.469970703125
1,982;-0.469970703125
1,983;-0.4693603515625
1,984;-0.469970703125
1,985;-0.46905517578125
1,986;-0.46966552734375
1,987;-0.4693603515625
1,988;-0.46966552734375
1,989;-0.46966552734375
1,99;-0.46966552734375
1,991;-0.4693603515625
1,992;-0.46966552734375
1,993;-0.46966552734375
1,994;-0.46905517578125
1,995;-0.46966552734375
1,996;-0.46905517578125
1,997;-0.469970703125
1,998;-0.46966552734375
1,999;-0.46966552734375
2;-0.469970703125
2,001;-0.46966552734375
2,002;-0.4693603515625
2,003;-0.469970703125
2,004;-0.46966552734375
2,005;-0.46966552734375
2,006;-0.469970703125
2,007;-0.4693603515625
2,008;-0.46966552734375
2,009;-0.46905517578125
2,01;-0.4693603515625
2,011;-0.46966552734375
2,012;-0.4693603515625
2,013;-0.46905517578125
2,014;-0.46875
2,015;-0.46905517578125
2,016;-0.46905517578125
2,017;-0.46875
2,018;-0.4693603515625
2,019;-0.46966552734375
2,02;-0.469970703125
2,021;-0.4693603515625
2,022;-0.46905517578125
2,023;-0.46966552734375
2,024;-0.46905517578125
2,025;-0.469970703125
2,026;-0.46966552734375
2,027;-0.4693603515625
2,028;-0.4693603515625
2,029;-0.46966552734375
2,03;-0.4693603515625
2,031;-0.469970703125
2,032;-0.4693603515625
2,033;-0.46905517578125
2,034;-0.469970703125
2,035;-0.4693603515625
2,036;-0.46966552734375
2,037;-0.469970703125
2,038;-0.4693603515625
2,039;-0.46875
2,04;-0.46905517578125
2,041;-0.46966552734375
2,042;-0.46966552734375
2,043;-0.4693603515625
2,044;-0.4693603515625
2,045;-0.4693603515625
2,046;-0.469970703125
2,047;-0.46966552734375
2,048;-0.46966552734375
2,049;-0.46966552734375
2,05;-0.46905517578125
2,051;-0.46966552734375
2,052;-0.469970703125
2,053;-0.46966552734375
2,054;-0.4693603515625
2,055;-0.46966552734375
2,056;-0.46905517578125
2,057;-0.46966552734375
2,058;-0.4693603515625
2,059;-0.46966552734375
2,06;-0.4693603515625
2,061;-0.469970703125
2,062;-0.469970703125
2,063;-0.46966552734375
2,064;-0.46905517578125
2,065;-0.46966552734375
2,066;-0.46966552734375
2,067;-0.46966552734375
2,068;-0.46875
2,069;-0.46875
2,07;-0.4693603515625
2,071;-0.4693603515625
2,072;-0.46905517578125
2,073;-0.46966552734375
2,074;-0.469970703125
2,075;-0.46905517578125
2,076;-0.46966552734375
2,077;-0.46905517578125
2,078;-0.4693603515625
2,079;-0.4693603515625
2,08;-0.4693603515625
2,081;-0.46905517578125
2,082;-0.4693603515625
2,083;-0.4693603515625
2,084;-0.4693603515625
2,085;-0.46875
2,086;-0.46905517578125
2,087;-0.46966552734375
2,088;-0.46966552734375
2,089;-0.46966552734375
2,09;-0.4693603515625
2,091;-0.46905517578125
2,092;-0.469970703125
2,093;-0.469970703125
2,094;-0.4693603515625
2,095;-0.469970703125
2,096;-0.4693603515625
2,097;-0.4693603515625
2,098;-0.4693603515625
2,099;-0.46875
2,1;-0.46905517578125
2,101;-0.46905517578125
2,102;-0.46905517578125
2,103;-0.46966552734375
2,104;-0.4693603515625
2,105;-0.4693603515625
2,106;-0.46905517578125
2,107;-0.46905517578125
2,108;-0.46966552734375
2,109;-0.46966552734375
2,11;-0.4693603515625
2,111;-0.469970703125
2,112;-0.46966552734375
2,113;-0.4693603515625
2,114;-0.46905517578125
2,115;-0.4693603515625
2,116;-0.46905517578125
2,117;-0.4693603515625
2,118;-0.46875
2,119;-0.4693603515625
2,12;-0.46875
2,121;-0.46844482421875
2,122;-0.46966552734375
2,123;-0.4693603515625
2,124;-0.4693603515625
2,125;-0.46905517578125
2,126;-0.4693603515625
2,127;-0.46905517578125
2,128;-0.4693603515625
2,129;-0.469970703125
2,13;-0.46966552734375
2,131;-0.4693603515625
2,132;-0.46905517578125
2,133;-0.46966552734375
2,134;-0.46875
2,135;-0.4693603515625
2,136;-0.46875
2,137;-0.46905517578125
2,138;-0.4693603515625
2,139;-0.46905517578125
2,14;-0.4693603515625
2,141;-0.46966552734375
2,142;-0.46966552734375
2,143;-0.46875
2,144;-0.46905517578125
2,145;-0.46905517578125
2,146;-0.46905517578125
2,147;-0.46905517578125
2,148;-0.46966552734375
2,149;-0.46905517578125
2,15;-0.46966552734375
2,151;-0.46905517578125
2,152;-0.47027587890625
2,153;-0.46905517578125
2,154;-0.46966552734375
2,155;-0.4693603515625
2,156;-0.469970703125
2,157;-0.46875
2,158;-0.4693603515625
2,159;-0.46966552734375
2,16;-0.46966552734375
2,161;-0.46905517578125
2,162;-0.4693603515625
2,163;-0.46966552734375
2,164;-0.46875
2,165;-0.4693603515625
2,166;-0.46875
2,167;-0.46905517578125
2,168;-0.4693603515625
2,169;-0.46905517578125
2,17;-0.46905517578125
2,171;-0.4693603515625
2,172;-0.4693603515625
2,173;-0.46966552734375
2,174;-0.46875
2,175;-0.46875
2,176;-0.46905517578125
2,177;-0.46905517578125
2,178;-0.46966552734375
2,179;-0.46905517578125
2,18;-0.46966552734375
2,181;-0.46966552734375
2,182;-0.4693603515625
2,183;-0.46905517578125
2,184;-0.46966552734375
2,185;-0.46966552734375
2,186;-0.46905517578125
2,187;-0.4693603515625
2,188;-0.46966552734375
2,189;-0.469970703125
2,19;-0.46844482421875
2,191;-0.46875
2,192;-0.4693603515625
2,193;-0.46905517578125
2,194;-0.469970703125
2,195;-0.46905517578125
2,196;-0.46905517578125
2,197;-0.46905517578125
2,198;-0.46875
2,199;-0.46875
2,2;-0.46905517578125
2,201;-0.4693603515625
2,202;-0.46966552734375
2,203;-0.4693603515625
2,204;-0.46966552734375
2,205;-0.469970703125
2,206;-0.46966552734375
2,207;-0.46875
2,208;-0.46905517578125
2,209;-0.4693603515625
2,21;-0.46905517578125
2,211;-0.46905517578125
2,212;-0.4693603515625
2,213;-0.46905517578125
2,214;-0.46966552734375
2,215;-0.46966552734375
2,216;-0.4693603515625
2,217;-0.4693603515625
2,218;-0.4693603515625
2,219;-0.46966552734375
2,22;-0.46905517578125
2,221;-0.46875
2,222;-0.46905517578125
2,223;-0.46905517578125
2,224;-0.46905517578125
2,225;-0.46905517578125
2,226;-0.46966552734375
2,227;-0.46905517578125
2,228;-0.46875
2,229;-0.4693603515625
2,23;-0.469970703125
2,231;-0.46905517578125
2,232;-0.46875
2,233;-0.46905517578125
2,234;-0.4693603515625
2,235;-0.46966552734375
2,236;-0.46966552734375
2,237;-0.46966552734375
2,238;-0.46966552734375
2,239;-0.4693603515625
2,24;-0.4693603515625
2,241;-0.46966552734375
2,242;-0.469970703125
2,243;-0.46905517578125
2,244;-0.4693603515625
2,245;-0.4693603515625
2,246;-0.469970703125
2,247;-0.46966552734375
2,248;-0.4693603515625
2,249;-0.46966552734375
2,25;-0.46966552734375
2,251;-0.4693603515625
2,252;-0.46966552734375
2,253;-0.46905517578125
2,254;-0.46905517578125
2,255;-0.4693603515625
2,256;-0.46905517578125
2,257;-0.46966552734375
2,258;-0.4693603515625
2,259;-0.46966552734375
2,26;-0.46905517578125
2,261;-0.46905517578125
2,262;-0.46966552734375
2,263;-0.46966552734375
2,264;-0.46905517578125
2,265;-0.46966552734375
2,266;-0.46966552734375
2,267;-0.46966552734375
2,268;-0.4693603515625
2,269;-0.46875
2,27;-0.46875
2,271;-0.4693603515625
2,272;-0.4693603515625
2,273;-0.4693603515625
2,274;-0.46905517578125
2,275;-0.469970703125
2,276;-0.46905517578125
2,277;-0.46905517578125
2,278;-0.46905517578125
2,279;-0.46966552734375
2,28;-0.4693603515625
2,281;-0.4693603515625
2,282;-0.4693603515625
2,283;-0.46905517578125
2,284;-0.46905517578125
2,285;-0.46966552734375
2,286;-0.46905517578125
2,287;-0.46905517578125
2,288;-0.46966552734375
2,289;-0.4693603515625
2,29;-0.46966552734375
2,291;-0.46966552734375
2,292;-0.46905517578125
2,293;-0.46875
2,294;-0.46905517578125
2,295;-0.46905517578125
2,296;-0.46905517578125
2,297;-0.469970703125
2,298;-0.46966552734375
2,299;-0.46875
2,3;-0.46875
2,301;-0.46966552734375
2,302;-0.4693603515625
2,303;-0.46966552734375
2,304;-0.4693603515625
2,305;-0.46966552734375
2,306;-0.4693603515625
2,307;-0.46905517578125
2,308;-0.46875
2,309;-0.46905517578125
2,31;-0.46966552734375
2,311;-0.46966552734375
2,312;-0.4693603515625
2,313;-0.46966552734375
2,314;-0.4693603515625
2,315;-0.46966552734375
2,316;-0.46905517578125
2,317;-0.46966552734375
2,318;-0.46966552734375
2,319;-0.46905517578125
2,32;-0.4693603515625
2,321;-0.46905517578125
2,322;-0.46905517578125
2,323;-0.46905517578125
2,324;-0.46966552734375
2,325;-0.46875
2,326;-0.4693603515625
2,327;-0.46905517578125
2,328;-0.46966552734375
2,329;-0.46905517578125
2,33;-0.46966552734375
2,331;-0.46875
2,332;-0.46875
2,333;-0.46875
2,334;-0.46905517578125
2,335;-0.4693603515625
2,336;-0.46966552734375
2,337;-0.46875
2,338;-0.46875
2,339;-0.4693603515625
2,34;-0.46875
2,341;-0.46905517578125
2,342;-0.46875
2,343;-0.46875
2,344;-0.4693603515625
2,345;-0.46905517578125
2,346;-0.4693603515625
2,347;-0.46966552734375
2,348;-0.46966552734375
2,349;-0.46875
2,35;-0.46905517578125
2,351;-0.46905517578125
2,352;-0.4693603515625
2,353;-0.46966552734375
2,354;-0.46966552734375
2,355;-0.4693603515625
2,356;-0.4693603515625
2,357;-0.4693603515625
2,358;-0.46905517578125
2,359;-0.4693603515625
2,36;-0.46875
2,361;-0.46875
2,362;-0.46875
2,363;-0.46966552734375
2,364;-0.4693603515625
2,365;-0.46875
2,366;-0.46905517578125
2,367;-0.4693603515625
2,368;-0.46875
2,369;-0.46875
2,37;-0.46905517578125
2,371;-0.4693603515625
2,372;-0.4693603515625
2,373;-0.4693603515625
2,374;-0.46905517578125
2,375;-0.4693603515625
2,376;-0.46905517578125
2,377;-0.46905517578125
2,378;-0.46875
2,379;-0.46875
2,38;-0.46905517578125
2,381;-0.46905517578125
2,382;-0.46905517578125
2,383;-0.46905517578125
2,384;-0.46966552734375
2,385;-0.46966552734375
2,386;-0.46966552734375
2,387;-0.46905517578125
2,388;-0.4693603515625
2,389;-0.4693603515625
2,39;-0.46875
2,391;-0.46905517578125
2,392;-0.46875
2,393;-0.46966552734375
2,394;-0.46905517578125
2,395;-0.4693603515625
2,396;-0.46966552734375
2,397;-0.46875
2,398;-0.46875
2,399;-0.46905517578125
2,4;-0.46966552734375
2,401;-0.46905517578125
2,402;-0.46905517578125
2,403;-0.4693603515625
2,404;-0.46966552734375
2,405;-0.4693603515625
2,406;-0.4693603515625
2,407;-0.46875
2,408;-0.4693603515625
2,409;-0.4693603515625
2,41;-0.46966552734375
2,411;-0.46875
2,412;-0.46966552734375
2,413;-0.4693603515625
2,414;-0.4693603515625
2,415;-0.46966552734375
2,416;-0.4693603515625
2,417;-0.46905517578125
2,418;-0.4693603515625
2,419;-0.46905517578125
2,42;-0.46875
2,421;-0.46875
2,422;-0.46905517578125
2,423;-0.469970703125
2,424;-0.46875
2,425;-0.46875
2,426;-0.46905517578125
2,427;-0.46875
2,428;-0.4693603515625
2,429;-0.4693603515625
2,43;-0.46966552734375
2,431;-0.46875
2,432;-0.4693603515625
2,433;-0.46966552734375
2,434;-0.4693603515625
2,435;-0.46905517578125
2,436;-0.4693603515625
2,437;-0.46905517578125
2,438;-0.46966552734375
2,439;-0.46905517578125
2,44;-0.46966552734375
2,441;-0.46905517578125
2,442;-0.46905517578125
2,443;-0.4693603515625
2,444;-0.4693603515625
2,445;-0.46905517578125
2,446;-0.46966552734375
2,447;-0.46966552734375
2,448;-0.46966552734375
2,449;-0.46905517578125
2,45;-0.4693603515625
2,451;-0.46875
2,452;-0.4693603515625
2,453;-0.46966552734375
2,454;-0.46905517578125
2,455;-0.46966552734375
2,456;-0.46905517578125
2,457;-0.46905517578125
2,458;-0.46966552734375
2,459;-0.46966552734375
2,46;-0.46905517578125
2,461;-0.46966552734375
2,462;-0.4693603515625
2,463;-0.46966552734375
2,464;-0.469970703125
2,465;-0.4693603515625
2,466;-0.46905517578125
2,467;-0.46905517578125
2,468;-0.46905517578125
2,469;-0.4693603515625
2,47;-0.46966552734375
2,471;-0.4693603515625
2,472;-0.46905517578125
2,473;-0.46966552734375
2,474;-0.46905517578125
2,475;-0.46966552734375
2,476;-0.4693603515625
2,477;-0.46966552734375
2,478;-0.4693603515625
2,479;-0.4693603515625
2,48;-0.4693603515625
2,481;-0.4693603515625
2,482;-0.46905517578125
2,483;-0.46966552734375
2,484;-0.4693603515625
2,485;-0.4693603515625
2,486;-0.4693603515625
2,487;-0.46966552734375
2,488;-0.469970703125
2,489;-0.46966552734375
2,49;-0.46966552734375
2,491;-0.46966552734375
2,492;-0.46905517578125
2,493;-0.46905517578125
2,494;-0.4693603515625
2,495;-0.4693603515625
2,496;-0.46875
2,497;-0.4693603515625
2,498;-0.46875
2,499;-0.4693603515625
2,5;-0.46875
2,501;-0.46966552734375
2,502;-0.4693603515625
2,503;-0.46966552734375
2,504;-0.4693603515625
2,505;-0.46905517578125
2,506;-0.46875
2,507;-0.4693603515625
2,508;-0.46905517578125
2,509;-0.46905517578125
2,51;-0.4693603515625
2,511;-0.46966552734375
2,512;-0.469970703125
2,513;-0.46875
2,514;-0.46875
2,515;-0.46905517578125
2,516;-0.469970703125
2,517;-0.4693603515625
2,518;-0.46966552734375
2,519;-0.46905517578125
2,52;-0.46966552734375
2,521;-0.4693603515625
2,522;-0.4693603515625
2,523;-0.46966552734375
2,524;-0.46966552734375
2,525;-0.46966552734375
2,526;-0.469970703125
2,527;-0.46905517578125
2,528;-0.469970703125
2,529;-0.46966552734375
2,53;-0.46905517578125
2,531;-0.4693603515625
2,532;-0.46905517578125
2,533;-0.46905517578125
2,534;-0.46966552734375
2,535;-0.4693603515625
2,536;-0.46966552734375
2,537;-0.4693603515625
2,538;-0.46875
2,539;-0.46905517578125
2,54;-0.46966552734375
2,541;-0.46966552734375
2,542;-0.46844482421875
2,543;-0.4693603515625
2,544;-0.46905517578125
2,545;-0.4693603515625
2,546;-0.46905517578125
2,547;-0.4693603515625
2,548;-0.46875
2,549;-0.46875
2,55;-0.46966552734375
2,551;-0.4693603515625
2,552;-0.46905517578125
2,553;-0.46966552734375
2,554;-0.46966552734375
2,555;-0.46905517578125
2,556;-0.4693603515625
2,557;-0.46966552734375
2,558;-0.46966552734375
2,559;-0.4693603515625
2,56;-0.469970703125
2,561;-0.4693603515625
2,562;-0.4693603515625
2,563;-0.4693603515625
2,564;-0.46966552734375
2,565;-0.46905517578125
2,566;-0.46966552734375
2,567;-0.46966552734375
2,568;-0.4693603515625
2,569;-0.46966552734375
2,57;-0.4693603515625
2,571;-0.4693603515625
2,572;-0.46966552734375
2,573;-0.4693603515625
2,574;-0.46905517578125
2,575;-0.46875
2,576;-0.46875
2,577;-0.4693603515625
2,578;-0.46875
2,579;-0.46905517578125
2,58;-0.46905517578125
2,581;-0.46875
2,582;-0.46875
2,583;-0.4693603515625
2,584;-0.4693603515625
2,585;-0.4693603515625
2,586;-0.469970703125
2,587;-0.46905517578125
2,588;-0.46905517578125
2,589;-0.46966552734375
2,59;-0.469970703125
2,591;-0.46966552734375
2,592;-0.46966552734375
2,593;-0.46966552734375
2,594;-0.46966552734375
2,595;-0.4693603515625
2,596;-0.4693603515625
2,597;-0.469970703125
2,598;-0.4693603515625
2,599;-0.46966552734375
2,6;-0.46905517578125
2,601;-0.469970703125
2,602;-0.4693603515625
2,603;-0.46905517578125
2,604;-0.469970703125
2,605;-0.46966552734375
2,606;-0.4693603515625
2,607;-0.46875
2,608;-0.46966552734375
2,609;-0.46875
2,61;-0.4693603515625
2,611;-0.46905517578125
2,612;-0.46966552734375
2,613;-0.469970703125
2,614;-0.46966552734375
2,615;-0.46905517578125
2,616;-0.46905517578125
2,617;-0.46875
2,618;-0.46966552734375
2,619;-0.46905517578125
2,62;-0.469970703125
2,621;-0.46966552734375
2,622;-0.4693603515625
2,623;-0.46966552734375
2,624;-0.469970703125
2,625;-0.46966552734375
2,626;-0.4693603515625
2,627;-0.46966552734375
2,628;-0.46966552734375
2,629;-0.46966552734375
2,63;-0.46875
2,631;-0.4693603515625
2,632;-0.46905517578125
2,633;-0.46905517578125
2,634;-0.4693603515625
2,635;-0.4693603515625
2,636;-0.46966552734375
2,637;-0.46966552734375
2,638;-0.46966552734375
2,639;-0.46905517578125
2,64;-0.469970703125
2,641;-0.46966552734375
2,642;-0.46966552734375
2,643;-0.46966552734375
2,644;-0.4693603515625
2,645;-0.46966552734375
2,646;-0.46966552734375
2,647;-0.4693603515625
2,648;-0.46905517578125
2,649;-0.46875
2,65;-0.4693603515625
2,651;-0.4693603515625
2,652;-0.46875
2,653;-0.4693603515625
2,654;-0.4693603515625
2,655;-0.4693603515625
2,656;-0.46905517578125
2,657;-0.4693603515625
2,658;-0.4693603515625
2,659;-0.4693603515625
2,66;-0.46905517578125
2,661;-0.47027587890625
2,662;-0.46905517578125
2,663;-0.4693603515625
2,664;-0.46966552734375
2,665;-0.4693603515625
2,666;-0.46905517578125
2,667;-0.46875
2,668;-0.46875
2,669;-0.46844482421875
2,67;-0.4693603515625
2,671;-0.46905517578125
2,672;-0.46966552734375
2,673;-0.46966552734375
2,674;-0.4693603515625
2,675;-0.46966552734375
2,676;-0.4693603515625
2,677;-0.46966552734375
2,678;-0.46966552734375
2,679;-0.46905517578125
2,68;-0.46966552734375
2,681;-0.469970703125
2,682;-0.4693603515625
2,683;-0.469970703125
2,684;-0.46905517578125
2,685;-0.4693603515625
2,686;-0.46966552734375
2,687;-0.46966552734375
2,688;-0.469970703125
2,689;-0.46966552734375
2,69;-0.46966552734375
2,691;-0.469970703125
2,692;-0.46966552734375
2,693;-0.46966552734375
2,694;-0.4693603515625
2,695;-0.4693603515625
2,696;-0.46966552734375
2,697;-0.46905517578125
2,698;-0.46905517578125
2,699;-0.4693603515625
2,7;-0.46905517578125
2,701;-0.46905517578125
2,702;-0.46905517578125
2,703;-0.46966552734375
2,704;-0.46905517578125
2,705;-0.46966552734375
2,706;-0.46966552734375
2,707;-0.46966552734375
2,708;-0.46966552734375
2,709;-0.469970703125
2,71;-0.46905517578125
2,711;-0.4693603515625
2,712;-0.46905517578125
2,713;-0.46966552734375
2,714;-0.46966552734375
2,715;-0.46966552734375
2,716;-0.46966552734375
2,717;-0.46905517578125
2,718;-0.469970703125
2,719;-0.46844482421875
2,72;-0.4693603515625
2,721;-0.46905517578125
2,722;-0.46905517578125
2,723;-0.46875
2,724;-0.46905517578125
2,725;-0.4693603515625
2,726;-0.4693603515625
2,727;-0.46966552734375
2,728;-0.46966552734375
2,729;-0.46905517578125
2,73;-0.4693603515625
2,731;-0.4693603515625
2,732;-0.469970703125
2,733;-0.4693603515625
2,734;-0.46966552734375
2,735;-0.469970703125
2,736;-0.4693603515625
2,737;-0.46966552734375
2,738;-0.46966552734375
2,739;-0.46966552734375
2,74;-0.46966552734375
2,741;-0.46966552734375
2,742;-0.4693603515625
2,743;-0.46905517578125
2,744;-0.469970703125
2,745;-0.46966552734375
2,746;-0.4693603515625
2,747;-0.46966552734375
2,748;-0.46905517578125
2,749;-0.4693603515625
2,75;-0.46905517578125
2,751;-0.46905517578125
2,752;-0.4693603515625
2,753;-0.4693603515625
2,754;-0.47027587890625
2,755;-0.46966552734375
2,756;-0.469970703125
2,757;-0.46966552734375
2,758;-0.46966552734375
2,759;-0.4693603515625
2,76;-0.4693603515625
2,761;-0.469970703125
2,762;-0.46905517578125
2,763;-0.46966552734375
2,764;-0.46905517578125
2,765;-0.46905517578125
2,766;-0.4693603515625
2,767;-0.4693603515625
2,768;-0.46966552734375
2,769;-0.46905517578125
2,77;-0.4693603515625
2,771;-0.4693603515625
2,772;-0.46966552734375
2,773;-0.46966552734375
2,774;-0.4693603515625
2,775;-0.4693603515625
2,776;-0.46875
2,777;-0.46875
2,778;-0.46875
2,779;-0.46875
2,78;-0.4693603515625
2,781;-0.46875
2,782;-0.46875
2,783;-0.46905517578125
2,784;-0.4693603515625
2,785;-0.46905517578125
2,786;-0.4693603515625
2,787;-0.46875
2,788;-0.46875
2,789;-0.46875
2,79;-0.46905517578125
2,791;-0.4693603515625
2,792;-0.46966552734375
2,793;-0.46966552734375
2,794;-0.46966552734375
2,795;-0.4693603515625
2,796;-0.46875
2,797;-0.46905517578125
2,798;-0.46966552734375
2,799;-0.46966552734375
2,8;-0.46966552734375
2,801;-0.47027587890625
2,802;-0.469970703125
2,803;-0.4693603515625
2,804;-0.46875
2,805;-0.4693603515625
2,806;-0.4693603515625
2,807;-0.4693603515625
2,808;-0.4693603515625
2,809;-0.46966552734375
2,81;-0.4693603515625
2,811;-0.46844482421875
2,812;-0.46905517578125
2,813;-0.46905517578125
2,814;-0.46875
2,815;-0.4693603515625
2,816;-0.4693603515625
2,817;-0.46966552734375
2,818;-0.46966552734375
2,819;-0.4693603515625
2,82;-0.46966552734375
2,821;-0.4693603515625
2,822;-0.46905517578125
2,823;-0.46966552734375
2,824;-0.46905517578125
2,825;-0.469970703125
2,826;-0.46966552734375
2,827;-0.469970703125
2,828;-0.4693603515625
2,829;-0.4693603515625
2,83;-0.469970703125
2,831;-0.46966552734375
2,832;-0.469970703125
2,833;-0.46966552734375
2,834;-0.46875
2,835;-0.46844482421875
2,836;-0.4693603515625
2,837;-0.46905517578125
2,838;-0.46966552734375
2,839;-0.4693603515625
2,84;-0.46966552734375
2,841;-0.4693603515625
2,842;-0.46875
2,843;-0.46905517578125
2,844;-0.469970703125
2,845;-0.46966552734375
2,846;-0.46966552734375
2,847;-0.46905517578125
2,848;-0.46905517578125
2,849;-0.4693603515625
2,85;-0.46966552734375
2,851;-0.4693603515625
2,852;-0.46905517578125
2,853;-0.4693603515625
2,854;-0.46966552734375
2,855;-0.47027587890625
2,856;-0.46966552734375
2,857;-0.46966552734375
2,858;-0.4693603515625
2,859;-0.4693603515625
2,86;-0.4693603515625
2,861;-0.4693603515625
2,862;-0.4693603515625
2,863;-0.46905517578125
2,864;-0.46966552734375
2,865;-0.4693603515625
2,866;-0.4693603515625
2,867;-0.46966552734375
2,868;-0.46966552734375
2,869;-0.46966552734375
2,87;-0.4693603515625
2,871;-0.46966552734375
2,872;-0.46905517578125
2,873;-0.4693603515625
2,874;-0.469970703125
2,875;-0.46966552734375
2,876;-0.46905517578125
2,877;-0.4693603515625
2,878;-0.46966552734375
2,879;-0.46905517578125
2,88;-0.469970703125
2,881;-0.46905517578125
2,882;-0.46905517578125
2,883;-0.46875
2,884;-0.46966552734375
2,885;-0.46905517578125
2,886;-0.46966552734375
2,887;-0.4693603515625
2,888;-0.46966552734375
2,889;-0.46905517578125
2,89;-0.46905517578125
2,891;-0.4693603515625
2,892;-0.4693603515625
2,893;-0.4693603515625
2,894;-0.46905517578125
2,895;-0.46905517578125
2,896;-0.46966552734375
2,897;-0.46966552734375
2,898;-0.4693603515625
2,899;-0.46905517578125
2,9;-0.46966552734375
2,901;-0.46875
2,902;-0.46905517578125
2,903;-0.46905517578125
2,904;-0.469970703125
2,905;-0.46905517578125
2,906;-0.46905517578125
2,907;-0.46966552734375
2,908;-0.46875
2,909;-0.4693603515625
2,91;-0.46905517578125
2,911;-0.46875
2,912;-0.4693603515625
2,913;-0.4693603515625
2,914;-0.469970703125
2,915;-0.4693603515625
2,916;-0.4693603515625
2,917;-0.4693603515625
2,918;-0.4693603515625
2,919;-0.46905517578125
2,92;-0.4693603515625
2,921;-0.46875
2,922;-0.46905517578125
2,923;-0.4693603515625
2,924;-0.46875
2,925;-0.46875
2,926;-0.46905517578125
2,927;-0.4693603515625
2,928;-0.4693603515625
2,929;-0.46905517578125
2,93;-0.46905517578125
2,931;-0.46966552734375
2,932;-0.4693603515625
2,933;-0.4693603515625
2,934;-0.4693603515625
2,935;-0.46966552734375
2,936;-0.4693603515625
2,937;-0.46966552734375
2,938;-0.46905517578125
2,939;-0.46875
2,94;-0.46875
2,941;-0.46966552734375
2,942;-0.46875
2,943;-0.46905517578125
2,944;-0.46966552734375
2,945;-0.4693603515625
2,946;-0.469970703125
2,947;-0.46966552734375
2,948;-0.46905517578125
2,949;-0.46966552734375
2,95;-0.46905517578125
2,951;-0.46875
2,952;-0.46905517578125
2,953;-0.46966552734375
2,954;-0.469970703125
2,955;-0.4693603515625
2,956;-0.46875
2,957;-0.46905517578125
2,958;-0.46875
2,959;-0.46875
2,96;-0.4693603515625
2,961;-0.46966552734375
2,962;-0.4693603515625
2,963;-0.46844482421875
2,964;-0.46905517578125
2,965;-0.46966552734375
2,966;-0.46905517578125
2,967;-0.46905517578125
2,968;-0.46905517578125
2,969;-0.469970703125
2,97;-0.46966552734375
2,971;-0.46966552734375
2,972;-0.46966552734375
2,973;-0.4693603515625
2,974;-0.46905517578125
2,975;-0.4693603515625
2,976;-0.46966552734375
2,977;-0.46905517578125
2,978;-0.46875
2,979;-0.46875
2,98;-0.46875
2,981;-0.46905517578125
2,982;-0.46905517578125
2,983;-0.46966552734375
2,984;-0.46905517578125
2,985;-0.46905517578125
2,986;-0.46844482421875
2,987;-0.46844482421875
2,988;-0.46875
2,989;-0.46875
2,99;-0.46905517578125
2,991;-0.4693603515625
2,992;-0.46905517578125
2,993;-0.4693603515625
2,994;-0.46905517578125
2,995;-0.46905517578125
2,996;-0.46875
2,997;-0.46905517578125
2,998;-0.46966552734375
2,999;-0.46966552734375
3;-0.46875
3,001;-0.4693603515625
3,002;-0.46875
3,003;-0.46905517578125
3,004;-0.4693603515625
3,005;-0.46905517578125
3,006;-0.46905517578125
3,007;-0.4693603515625
3,008;-0.46905517578125
3,009;-0.46966552734375
3,01;-0.46905517578125
3,011;-0.4693603515625
3,012;-0.46905517578125
3,013;-0.46875
3,014;-0.46844482421875
3,015;-0.46905517578125
3,016;-0.4693603515625
3,017;-0.4693603515625
3,018;-0.46875
3,019;-0.46905517578125
3,02;-0.469970703125
3,021;-0.469970703125
3,022;-0.469970703125
3,023;-0.46905517578125
3,024;-0.4693603515625
3,025;-0.4693603515625
3,026;-0.4693603515625
3,027;-0.46905517578125
3,028;-0.4693603515625
3,029;-0.46905517578125
3,03;-0.46905517578125
3,031;-0.46875
3,032;-0.46905517578125
3,033;-0.46966552734375
3,034;-0.46966552734375
3,035;-0.46875
3,036;-0.46905517578125
3,037;-0.46905517578125
3,038;-0.4693603515625
3,039;-0.46905517578125
3,04;-0.46875
3,041;-0.46875
3,042;-0.46844482421875
3,043;-0.46905517578125
3,044;-0.46966552734375
3,045;-0.46966552734375
3,046;-0.46905517578125
3,047;-0.46966552734375
3,048;-0.46905517578125
3,049;-0.4693603515625
3,05;-0.46905517578125
3,051;-0.4693603515625
3,052;-0.46905517578125
3,053;-0.46905517578125
3,054;-0.46905517578125
3,055;-0.46905517578125
3,056;-0.4693603515625
3,057;-0.46905517578125
3,058;-0.46875
3,059;-0.4693603515625
3,06;-0.46905517578125
3,061;-0.46875
3,062;-0.46905517578125
3,063;-0.469970703125
3,064;-0.46905517578125
3,065;-0.46905517578125
3,066;-0.46966552734375
3,067;-0.46905517578125
3,068;-0.4693603515625
3,069;-0.46966552734375
3,07;-0.46905517578125
3,071;-0.46875
3,072;-0.46905517578125
3,073;-0.4693603515625
3,074;-0.46966552734375
3,075;-0.46905517578125
3,076;-0.46875
3,077;-0.46875
3,078;-0.4693603515625
3,079;-0.46905517578125
3,08;-0.4693603515625
3,081;-0.46875
3,082;-0.46905517578125
3,083;-0.469970703125
3,084;-0.46875
3,085;-0.4693603515625
3,086;-0.46875
3,087;-0.46905517578125
3,088;-0.4693603515625
3,089;-0.46966552734375
3,09;-0.46905517578125
3,091;-0.4693603515625
3,092;-0.46966552734375
3,093;-0.46905517578125
3,094;-0.46905517578125
3,095;-0.4693603515625
3,096;-0.4693603515625
3,097;-0.469970703125
3,098;-0.46966552734375
3,099;-0.46905517578125
3,1;-0.46966552734375
3,101;-0.46966552734375
3,102;-0.4693603515625
3,103;-0.4693603515625
3,104;-0.46905517578125
3,105;-0.4693603515625
3,106;-0.46905517578125
3,107;-0.46966552734375
3,108;-0.46875
3,109;-0.46966552734375
3,11;-0.46905517578125
3,111;-0.46875
3,112;-0.46875
3,113;-0.46905517578125
3,114;-0.46966552734375
3,115;-0.46875
3,116;-0.46905517578125
3,117;-0.46905517578125
3,118;-0.46875
3,119;-0.46905517578125
3,12;-0.4693603515625
3,121;-0.4693603515625
3,122;-0.46875
3,123;-0.46875
3,124;-0.46905517578125
3,125;-0.46905517578125
3,126;-0.4693603515625
3,127;-0.4693603515625
3,128;-0.46905517578125
3,129;-0.46905517578125
3,13;-0.46875
3,131;-0.46905517578125
3,132;-0.4693603515625
3,133;-0.46875
3,134;-0.46905517578125
3,135;-0.46875
3,136;-0.46905517578125
3,137;-0.46905517578125
3,138;-0.46844482421875
3,139;-0.46905517578125
3,14;-0.46905517578125
3,141;-0.46875
3,142;-0.46875
3,143;-0.46905517578125
3,144;-0.46966552734375
3,145;-0.469970703125
3,146;-0.4693603515625
3,147;-0.4693603515625
3,148;-0.4693603515625
3,149;-0.46966552734375
3,15;-0.46966552734375
3,151;-0.4693603515625
3,152;-0.4693603515625
3,153;-0.46905517578125
3,154;-0.46905517578125
3,155;-0.4693603515625
3,156;-0.4693603515625
3,157;-0.46875
3,158;-0.46905517578125
3,159;-0.46875
3,16;-0.4693603515625
3,161;-0.46966552734375
3,162;-0.4693603515625
3,163;-0.46905517578125
3,164;-0.4693603515625
3,165;-0.4693603515625
3,166;-0.46905517578125
3,167;-0.46905517578125
3,168;-0.4693603515625
3,169;-0.46905517578125
3,17;-0.46966552734375
3,171;-0.4693603515625
3,172;-0.4693603515625
3,173;-0.46905517578125
3,174;-0.46966552734375
3,175;-0.4693603515625
3,176;-0.46905517578125
3,177;-0.46905517578125
3,178;-0.46905517578125
3,179;-0.46966552734375
3,18;-0.4693603515625
3,181;-0.46966552734375
3,182;-0.4693603515625
3,183;-0.46905517578125
3,184;-0.46966552734375
3,185;-0.4693603515625
3,186;-0.46966552734375
3,187;-0.4693603515625
3,188;-0.46966552734375
3,189;-0.46875
3,19;-0.46844482421875
3,191;-0.46875
3,192;-0.46905517578125
3,193;-0.4693603515625
3,194;-0.46905517578125
3,195;-0.46966552734375
3,196;-0.46966552734375
3,197;-0.4693603515625
3,198;-0.46966552734375
3,199;-0.46966552734375
3,2;-0.46875
3,201;-0.46905517578125
3,202;-0.46875
3,203;-0.46905517578125
3,204;-0.46905517578125
3,205;-0.4693603515625
3,206;-0.46966552734375
3,207;-0.46875
3,208;-0.4693603515625
3,209;-0.4693603515625
3,21;-0.46905517578125
3,211;-0.46966552734375
3,212;-0.4693603515625
3,213;-0.46875
3,214;-0.46875
3,215;-0.4693603515625
3,216;-0.46905517578125
3,217;-0.46905517578125
3,218;-0.46966552734375
3,219;-0.46905517578125
3,22;-0.46966552734375
3,221;-0.46905517578125
3,222;-0.46966552734375
3,223;-0.46905517578125
3,224;-0.46875
3,225;-0.46875
3,226;-0.4693603515625
3,227;-0.4693603515625
3,228;-0.4693603515625
3,229;-0.4693603515625
3,23;-0.4693603515625
3,231;-0.46966552734375
3,232;-0.4693603515625
3,233;-0.46905517578125
3,234;-0.46875
3,235;-0.46905517578125
3,236;-0.46966552734375
3,237;-0.46875
3,238;-0.46875
3,239;-0.46905517578125
3,24;-0.4693603515625
3,241;-0.4693603515625
3,242;-0.4693603515625
3,243;-0.4693603515625
3,244;-0.46875
3,245;-0.46905517578125
3,246;-0.46905517578125
3,247;-0.46905517578125
3,248;-0.4693603515625
3,249;-0.46905517578125
3,25;-0.4693603515625
3,251;-0.4693603515625
3,252;-0.46905517578125
3,253;-0.4693603515625
3,254;-0.46905517578125
3,255;-0.46966552734375
3,256;-0.46966552734375
3,257;-0.46875
3,258;-0.46905517578125
3,259;-0.4693603515625
3,26;-0.46966552734375
3,261;-0.4693603515625
3,262;-0.4693603515625
3,263;-0.46905517578125
3,264;-0.46905517578125
3,265;-0.4693603515625
3,266;-0.46905517578125
3,267;-0.46875
3,268;-0.46875
3,269;-0.46905517578125
3,27;-0.46875
3,271;-0.4693603515625
3,272;-0.4693603515625
3,273;-0.46905517578125
3,274;-0.46905517578125
3,275;-0.46905517578125
3,276;-0.46905517578125
3,277;-0.46905517578125
3,278;-0.46966552734375
3,279;-0.46966552734375
3,28;-0.46905517578125
3,281;-0.4693603515625
3,282;-0.46875
3,283;-0.46875
3,284;-0.4681396484375
3,285;-0.46905517578125
3,286;-0.4693603515625
3,287;-0.46905517578125
3,288;-0.4693603515625
3,289;-0.46966552734375
3,29;-0.46844482421875
3,291;-0.46905517578125
3,292;-0.4693603515625
3,293;-0.46875
3,294;-0.4693603515625
3,295;-0.4693603515625
3,296;-0.46905517578125
3,297;-0.4693603515625
3,298;-0.469970703125
3,299;-0.46966552734375
3,3;-0.4693603515625
3,301;-0.46875
3,302;-0.4693603515625
3,303;-0.4693603515625
3,304;-0.46966552734375
3,305;-0.469970703125
3,306;-0.4693603515625
3,307;-0.469970703125
3,308;-0.4693603515625
3,309;-0.4693603515625
3,31;-0.46905517578125
3,311;-0.4693603515625
3,312;-0.4693603515625
3,313;-0.46966552734375
3,314;-0.46905517578125
3,315;-0.46875
3,316;-0.46875
3,317;-0.46905517578125
3,318;-0.46905517578125
3,319;-0.4693603515625
3,32;-0.46966552734375
3,321;-0.4693603515625
3,322;-0.4693603515625
3,323;-0.46966552734375
3,324;-0.469970703125
3,325;-0.46905517578125
3,326;-0.46966552734375
3,327;-0.4693603515625
3,328;-0.4693603515625
3,329;-0.46905517578125
3,33;-0.4693603515625
3,331;-0.46966552734375
3,332;-0.46905517578125
3,333;-0.46875
3,334;-0.46966552734375
3,335;-0.4693603515625
3,336;-0.4693603515625
3,337;-0.46966552734375
3,338;-0.46966552734375
3,339;-0.46905517578125
3,34;-0.46966552734375
3,341;-0.46905517578125
3,342;-0.46905517578125
3,343;-0.4693603515625
3,344;-0.46905517578125
3,345;-0.46905517578125
3,346;-0.4693603515625
3,347;-0.4693603515625
3,348;-0.46905517578125
3,349;-0.46875
3,35;-0.4693603515625
3,351;-0.46905517578125
3,352;-0.46905517578125
3,353;-0.46875
3,354;-0.46875
3,355;-0.46905517578125
3,356;-0.46875
3,357;-0.46905517578125
3,358;-0.469970703125
3,359;-0.46905517578125
3,36;-0.46905517578125
3,361;-0.4693603515625
3,362;-0.46905517578125
3,363;-0.4693603515625
3,364;-0.4693603515625
3,365;-0.46966552734375
3,366;-0.46966552734375
3,367;-0.469970703125
3,368;-0.4693603515625
3,369;-0.46966552734375
3,37;-0.46905517578125
3,371;-0.4693603515625
3,372;-0.46905517578125
3,373;-0.46875
3,374;-0.46905517578125
3,375;-0.46966552734375
3,376;-0.469970703125
3,377;-0.46905517578125
3,378;-0.46905517578125
3,379;-0.46875
3,38;-0.46905517578125
3,381;-0.469970703125
3,382;-0.46905517578125
3,383;-0.46966552734375
3,384;-0.46966552734375
3,385;-0.469970703125
3,386;-0.46905517578125
3,387;-0.46875
3,388;-0.46966552734375
3,389;-0.469970703125
3,39;-0.4693603515625
3,391;-0.469970703125
3,392;-0.4693603515625
3,393;-0.46875
3,394;-0.46905517578125
3,395;-0.46966552734375
3,396;-0.4693603515625
3,397;-0.46905517578125
3,398;-0.46905517578125
3,399;-0.46875
3,4;-0.46844482421875
3,401;-0.4693603515625
3,402;-0.46905517578125
3,403;-0.4693603515625
3,404;-0.469970703125
3,405;-0.46875
3,406;-0.46905517578125
3,407;-0.46966552734375
3,408;-0.46875
3,409;-0.46966552734375
3,41;-0.46966552734375
3,411;-0.4693603515625
3,412;-0.46905517578125
3,413;-0.4693603515625
3,414;-0.46966552734375
3,415;-0.46905517578125
3,416;-0.46875
3,417;-0.46905517578125
3,418;-0.46966552734375
3,419;-0.46905517578125
3,42;-0.46905517578125
3,421;-0.46966552734375
3,422;-0.4693603515625
3,423;-0.46966552734375
3,424;-0.4693603515625
3,425;-0.46905517578125
3,426;-0.46875
3,427;-0.46875
3,428;-0.46966552734375
3,429;-0.4693603515625
3,43;-0.4693603515625
3,431;-0.46875
3,432;-0.46875
3,433;-0.4693603515625
3,434;-0.46966552734375
3,435;-0.46966552734375
3,436;-0.46875
3,437;-0.4693603515625
3,438;-0.46966552734375
3,439;-0.46875
3,44;-0.46905517578125
3,441;-0.46905517578125
3,442;-0.46966552734375
3,443;-0.46905517578125
3,444;-0.46905517578125
3,445;-0.4693603515625
3,446;-0.4693603515625
3,447;-0.46875
3,448;-0.46905517578125
3,449;-0.4693603515625
3,45;-0.46905517578125
3,451;-0.46875
3,452;-0.4693603515625
3,453;-0.4693603515625
3,454;-0.46966552734375
3,455;-0.4693603515625
3,456;-0.46966552734375
3,457;-0.46905517578125
3,458;-0.469970703125
3,459;-0.469970703125
3,46;-0.46966552734375
3,461;-0.46905517578125
3,462;-0.4693603515625
3,463;-0.46905517578125
3,464;-0.4693603515625
3,465;-0.46905517578125
3,466;-0.46905517578125
3,467;-0.4693603515625
3,468;-0.46844482421875
3,469;-0.46905517578125
3,47;-0.46905517578125
3,471;-0.46905517578125
3,472;-0.46905517578125
3,473;-0.46966552734375
3,474;-0.4693603515625
3,475;-0.4693603515625
3,476;-0.46875
3,477;-0.46905517578125
3,478;-0.4693603515625
3,479;-0.46905517578125
3,48;-0.46875
3,481;-0.46905517578125
3,482;-0.46966552734375
3,483;-0.46905517578125
3,484;-0.4693603515625
3,485;-0.4693603515625
3,486;-0.46905517578125
3,487;-0.46966552734375
3,488;-0.46966552734375
3,489;-0.46844482421875
3,49;-0.46966552734375
3,491;-0.46966552734375
3,492;-0.46905517578125
3,493;-0.4693603515625
3,494;-0.46905517578125
3,495;-0.4693603515625
3,496;-0.46905517578125
3,497;-0.46966552734375
3,498;-0.46966552734375
3,499;-0.4693603515625
3,5;-0.46905517578125
3,501;-0.469970703125
3,502;-0.46966552734375
3,503;-0.46875
3,504;-0.46966552734375
3,505;-0.4693603515625
3,506;-0.46966552734375
3,507;-0.46875
3,508;-0.46966552734375
3,509;-0.46966552734375
3,51;-0.4693603515625
3,511;-0.46966552734375
3,512;-0.46905517578125
3,513;-0.46875
3,514;-0.4693603515625
3,515;-0.4693603515625
3,516;-0.46966552734375
3,517;-0.46905517578125
3,518;-0.46966552734375
3,519;-0.46905517578125
3,52;-0.46875
3,521;-0.4693603515625
3,522;-0.469970703125
3,523;-0.4693603515625
3,524;-0.46905517578125
3,525;-0.46966552734375
3,526;-0.46905517578125
3,527;-0.46905517578125
3,528;-0.46966552734375
3,529;-0.46905517578125
3,53;-0.469970703125
3,531;-0.4693603515625
3,532;-0.46905517578125
3,533;-0.46905517578125
3,534;-0.4693603515625
3,535;-0.4693603515625
3,536;-0.46905517578125
3,537;-0.46905517578125
3,538;-0.46966552734375
3,539;-0.4693603515625
3,54;-0.46966552734375
3,541;-0.46905517578125
3,542;-0.4693603515625
3,543;-0.4693603515625
3,544;-0.46966552734375
3,545;-0.46905517578125
3,546;-0.469970703125
3,547;-0.4693603515625
3,548;-0.46905517578125
3,549;-0.46905517578125
3,55;-0.46966552734375
3,551;-0.4693603515625
3,552;-0.4693603515625
3,553;-0.469970703125
3,554;-0.46875
3,555;-0.46905517578125
3,556;-0.46875
3,557;-0.46905517578125
3,558;-0.4693603515625
3,559;-0.46966552734375
3,56;-0.46875
3,561;-0.46905517578125
3,562;-0.4693603515625
3,563;-0.46905517578125
3,564;-0.4693603515625
3,565;-0.46966552734375
3,566;-0.4693603515625
3,567;-0.46966552734375
3,568;-0.46875
3,569;-0.4693603515625
3,57;-0.46844482421875
3,571;-0.46875
3,572;-0.4693603515625
3,573;-0.46905517578125
3,574;-0.469970703125
3,575;-0.4693603515625
3,576;-0.46966552734375
3,577;-0.46905517578125
3,578;-0.46905517578125
3,579;-0.46966552734375
3,58;-0.469970703125
3,581;-0.46905517578125
3,582;-0.46905517578125
3,583;-0.46905517578125
3,584;-0.46966552734375
3,585;-0.46875
3,586;-0.46905517578125
3,587;-0.46966552734375
3,588;-0.46875
3,589;-0.46875
3,59;-0.46905517578125
3,591;-0.46966552734375
3,592;-0.469970703125
3,593;-0.4693603515625
3,594;-0.4693603515625
3,595;-0.4693603515625
3,596;-0.4693603515625
3,597;-0.4693603515625
3,598;-0.4693603515625
3,599;-0.4693603515625
3,6;-0.46966552734375
3,601;-0.46905517578125
3,602;-0.4693603515625
3,603;-0.46905517578125
3,604;-0.4693603515625
3,605;-0.4693603515625
3,606;-0.46875
3,607;-0.46875
3,608;-0.46875
3,609;-0.46905517578125
3,61;-0.46966552734375
3,611;-0.46966552734375
3,612;-0.46966552734375
3,613;-0.46966552734375
3,614;-0.46966552734375
3,615;-0.46905517578125
3,616;-0.46905517578125
3,617;-0.4693603515625
3,618;-0.4693603515625
3,619;-0.4693603515625
3,62;-0.4693603515625
3,621;-0.46905517578125
3,622;-0.46905517578125
3,623;-0.46905517578125
3,624;-0.4693603515625
3,625;-0.4693603515625
3,626;-0.46905517578125
3,627;-0.46966552734375
3,628;-0.46905517578125
3,629;-0.46966552734375
3,63;-0.4693603515625
3,631;-0.46905517578125
3,632;-0.4693603515625
3,633;-0.4693603515625
3,634;-0.46905517578125
3,635;-0.46905517578125
3,636;-0.4693603515625
3,637;-0.46905517578125
3,638;-0.46966552734375
3,639;-0.4693603515625
3,64;-0.46905517578125
3,641;-0.46905517578125
3,642;-0.46875
3,643;-0.46905517578125
3,644;-0.46966552734375
3,645;-0.46966552734375
3,646;-0.46875
3,647;-0.46905517578125
3,648;-0.469970703125
3,649;-0.4693603515625
3,65;-0.46875
3,651;-0.46875
3,652;-0.4693603515625
3,653;-0.46905517578125
3,654;-0.46905517578125
3,655;-0.4693603515625
3,656;-0.4693603515625
3,657;-0.46966552734375
3,658;-0.4693603515625
3,659;-0.46966552734375
3,66;-0.46966552734375
3,661;-0.46966552734375
3,662;-0.46875
3,663;-0.46875
3,664;-0.46905517578125
3,665;-0.4693603515625
3,666;-0.4693603515625
3,667;-0.46875
3,668;-0.46905517578125
3,669;-0.46905517578125
3,67;-0.4693603515625
3,671;-0.4693603515625
3,672;-0.46905517578125
3,673;-0.46844482421875
3,674;-0.46905517578125
3,675;-0.46966552734375
3,676;-0.4693603515625
3,677;-0.4693603515625
3,678;-0.46966552734375
3,679;-0.4693603515625
3,68;-0.469970703125
3,681;-0.46905517578125
3,682;-0.46966552734375
3,683;-0.4693603515625
3,684;-0.46905517578125
3,685;-0.46905517578125
3,686;-0.46905517578125
3,687;-0.46905517578125
3,688;-0.46905517578125
3,689;-0.46905517578125
3,69;-0.4693603515625
3,691;-0.46966552734375
3,692;-0.46875
3,693;-0.46875
3,694;-0.46875
3,695;-0.46875
3,696;-0.46844482421875
3,697;-0.46966552734375
3,698;-0.4693603515625
3,699;-0.46875
3,7;-0.46905517578125
3,701;-0.4693603515625
3,702;-0.469970703125
3,703;-0.46966552734375
3,704;-0.46966552734375
3,705;-0.4693603515625
3,706;-0.46844482421875
3,707;-0.4693603515625
3,708;-0.46966552734375
3,709;-0.4693603515625
3,71;-0.46966552734375
3,711;-0.4693603515625
3,712;-0.46966552734375
3,713;-0.469970703125
3,714;-0.46966552734375
3,715;-0.46905517578125
3,716;-0.46905517578125
3,717;-0.46966552734375
3,718;-0.46905517578125
3,719;-0.46905517578125
3,72;-0.4693603515625
3,721;-0.46905517578125
3,722;-0.4693603515625
3,723;-0.46875
3,724;-0.46966552734375
3,725;-0.46905517578125
3,726;-0.4693603515625
3,727;-0.46875
3,728;-0.4693603515625
3,729;-0.469970703125
3,73;-0.46905517578125
3,731;-0.4693603515625
3,732;-0.4693603515625
3,733;-0.469970703125
3,734;-0.46875
3,735;-0.46875
3,736;-0.46905517578125
3,737;-0.46905517578125
3,738;-0.4693603515625
3,739;-0.4693603515625
3,74;-0.4693603515625
3,741;-0.46875
3,742;-0.46905517578125
3,743;-0.46905517578125
3,744;-0.46905517578125
3,745;-0.4693603515625
3,746;-0.46966552734375
3,747;-0.46875
3,748;-0.4693603515625
3,749;-0.4693603515625
3,75;-0.46875
3,751;-0.46905517578125
3,752;-0.46875
3,753;-0.46905517578125
3,754;-0.46905517578125
3,755;-0.46905517578125
3,756;-0.46844482421875
3,757;-0.46875
3,758;-0.46905517578125
3,759;-0.46966552734375
3,76;-0.46905517578125
3,761;-0.46966552734375
3,762;-0.46966552734375
3,763;-0.4693603515625
3,764;-0.4693603515625
3,765;-0.46875
3,766;-0.46875
3,767;-0.46875
3,768;-0.46905517578125
3,769;-0.46905517578125
3,77;-0.46966552734375
3,771;-0.46875
3,772;-0.46905517578125
3,773;-0.4693603515625
3,774;-0.46966552734375
3,775;-0.4693603515625
3,776;-0.46905517578125
3,777;-0.46966552734375
3,778;-0.46905517578125
3,779;-0.46905517578125
3,78;-0.4693603515625
3,781;-0.4693603515625
3,782;-0.4693603515625
3,783;-0.4693603515625
3,784;-0.4693603515625
3,785;-0.46905517578125
3,786;-0.4693603515625
3,787;-0.46905517578125
3,788;-0.4693603515625
3,789;-0.4693603515625
3,79;-0.46966552734375
3,791;-0.4693603515625
3,792;-0.4693603515625
3,793;-0.46905517578125
3,794;-0.46905517578125
3,795;-0.46875
3,796;-0.46905517578125
3,797;-0.46905517578125
3,798;-0.469970703125
3,799;-0.46966552734375
3,8;-0.4693603515625
3,801;-0.4693603515625
3,802;-0.4693603515625
3,803;-0.46905517578125
3,804;-0.46966552734375
3,805;-0.46905517578125
3,806;-0.4693603515625
3,807;-0.46905517578125
3,808;-0.46905517578125
3,809;-0.46905517578125
3,81;-0.46966552734375
3,811;-0.46875
3,812;-0.4693603515625
3,813;-0.4693603515625
3,814;-0.4693603515625
3,815;-0.46905517578125
3,816;-0.46966552734375
3,817;-0.46905517578125
3,818;-0.46966552734375
3,819;-0.46905517578125
3,82;-0.469970703125
3,821;-0.46966552734375
3,822;-0.4693603515625
3,823;-0.46905517578125
3,824;-0.46905517578125
3,825;-0.46905517578125
3,826;-0.46905517578125
3,827;-0.46966552734375
3,828;-0.46905517578125
3,829;-0.46966552734375
3,83;-0.46966552734375
3,831;-0.46905517578125
3,832;-0.4693603515625
3,833;-0.46905517578125
3,834;-0.46875
3,835;-0.46905517578125
3,836;-0.46875
3,837;-0.46875
3,838;-0.4693603515625
3,839;-0.4693603515625
3,84;-0.46875
3,841;-0.46905517578125
3,842;-0.46966552734375
3,843;-0.469970703125
3,844;-0.46905517578125
3,845;-0.4693603515625
3,846;-0.46905517578125
3,847;-0.46875
3,848;-0.46905517578125
3,849;-0.4693603515625
3,85;-0.46905517578125
3,851;-0.46905517578125
3,852;-0.46875
3,853;-0.46905517578125
3,854;-0.46905517578125
3,855;-0.46905517578125
3,856;-0.46966552734375
3,857;-0.46966552734375
3,858;-0.4693603515625
3,859;-0.46844482421875
3,86;-0.4693603515625
3,861;-0.46905517578125
3,862;-0.46875
3,863;-0.46875
3,864;-0.46905517578125
3,865;-0.46905517578125
3,866;-0.46844482421875
3,867;-0.46844482421875
3,868;-0.46875
3,869;-0.46875
3,87;-0.4693603515625
3,871;-0.4693603515625
3,872;-0.4693603515625
3,873;-0.46875
3,874;-0.46875
3,875;-0.46844482421875
3,876;-0.46905517578125
3,877;-0.4693603515625
3,878;-0.46966552734375
3,879;-0.46905517578125
3,88;-0.46905517578125
3,881;-0.4693603515625
3,882;-0.46966552734375
3,883;-0.46905517578125
3,884;-0.46875
3,885;-0.46905517578125
3,886;-0.4693603515625
3,887;-0.46875
3,888;-0.46844482421875
3,889;-0.46905517578125
3,89;-0.46905517578125
3,891;-0.46875
3,892;-0.46905517578125
3,893;-0.4693603515625
3,894;-0.4693603515625
3,895;-0.46875
3,896;-0.4693603515625
3,897;-0.46905517578125
3,898;-0.46905517578125
3,899;-0.46966552734375
3,9;-0.46905517578125
3,901;-0.4693603515625
3,902;-0.46844482421875
3,903;-0.46875
3,904;-0.46844482421875
3,905;-0.46875
3,906;-0.46905517578125
3,907;-0.4693603515625
3,908;-0.4693603515625
3,909;-0.46905517578125
3,91;-0.46905517578125
3,911;-0.4693603515625
3,912;-0.4693603515625
3,913;-0.46875
3,914;-0.46905517578125
3,915;-0.46905517578125
3,916;-0.46905517578125
3,917;-0.46905517578125
3,918;-0.46966552734375
3,919;-0.46875
3,92;-0.46905517578125
3,921;-0.46875
3,922;-0.46875
3,923;-0.4693603515625
3,924;-0.46905517578125
3,925;-0.46905517578125
3,926;-0.46875
3,927;-0.46966552734375
3,928;-0.4693603515625
3,929;-0.46966552734375
3,93;-0.4693603515625
3,931;-0.46875
3,932;-0.46875
3,933;-0.46844482421875
3,934;-0.46905517578125
3,935;-0.4693603515625
3,936;-0.46966552734375
3,937;-0.46966552734375
3,938;-0.46905517578125
3,939;-0.46905517578125
3,94;-0.46966552734375
3,941;-0.46905517578125
3,942;-0.4693603515625
3,943;-0.46905517578125
3,944;-0.4693603515625
3,945;-0.46905517578125
3,946;-0.46875
3,947;-0.46844482421875
3,948;-0.46875
3,949;-0.46875
3,95;-0.46905517578125
3,951;-0.46844482421875
3,952;-0.46905517578125
3,953;-0.4693603515625
3,954;-0.46875
3,955;-0.46905517578125
3,956;-0.46905517578125
3,957;-0.46875
3,958;-0.46905517578125
3,959;-0.46905517578125
3,96;-0.46875
3,961;-0.46875
3,962;-0.46905517578125
3,963;-0.46905517578125
3,964;-0.46966552734375
3,965;-0.4693603515625
3,966;-0.46905517578125
3,967;-0.46875
3,968;-0.46844482421875
3,969;-0.46966552734375
3,97;-0.46875
3,971;-0.46844482421875
3,972;-0.4693603515625
3,973;-0.46875
3,974;-0.46844482421875
3,975;-0.46905517578125
3,976;-0.4693603515625
3,977;-0.46844482421875
3,978;-0.46844482421875
3,979;-0.46905517578125
3,98;-0.4693603515625
3,981;-0.46905517578125
3,982;-0.46875
3,983;-0.46875
3,984;-0.46844482421875
3,985;-0.46905517578125
3,986;-0.4693603515625
3,987;-0.4693603515625
3,988;-0.46844482421875
3,989;-0.4693603515625
3,99;-0.4693603515625
3,991;-0.46966552734375
3,992;-0.46905517578125
3,993;-0.46875
3,994;-0.46966552734375
3,995;-0.46875
3,996;-0.46875
3,997;-0.46875
3,998;-0.46875
3,999;-0.46905517578125
4;-0.46966552734375
4,001;-0.46875
4,002;-0.46905517578125
4,003;-0.4693603515625
4,004;-0.4693603515625
4,005;-0.46844482421875
4,006;-0.46875
4,007;-0.46905517578125
4,008;-0.46905517578125
4,009;-0.46875
4,01;-0.46844482421875
4,011;-0.4681396484375
4,012;-0.46905517578125
4,013;-0.46905517578125
4,014;-0.4693603515625
4,015;-0.46905517578125
4,016;-0.4693603515625
4,017;-0.46905517578125
4,018;-0.46905517578125
4,019;-0.4693603515625
4,02;-0.4693603515625
4,021;-0.46905517578125
4,022;-0.46905517578125
4,023;-0.46875
4,024;-0.46905517578125
4,025;-0.46966552734375
4,026;-0.4693603515625
4,027;-0.46905517578125
4,028;-0.46905517578125
4,029;-0.46905517578125
4,03;-0.46905517578125
4,031;-0.46966552734375
4,032;-0.46875
4,033;-0.4693603515625
4,034;-0.46875
4,035;-0.46875
4,036;-0.46875
4,037;-0.46875
4,038;-0.46905517578125
4,039;-0.46875
4,04;-0.46875
4,041;-0.46905517578125
4,042;-0.46905517578125
4,043;-0.4693603515625
4,044;-0.46905517578125
4,045;-0.46905517578125
4,046;-0.46905517578125
4,047;-0.4693603515625
4,048;-0.4693603515625
4,049;-0.46966552734375
4,05;-0.46905517578125
4,051;-0.46966552734375
4,052;-0.46905517578125
4,053;-0.4693603515625
4,054;-0.46875
4,055;-0.4693603515625
4,056;-0.46905517578125
4,057;-0.4693603515625
4,058;-0.46905517578125
4,059;-0.46905517578125
4,06;-0.46966552734375
4,061;-0.46905517578125
4,062;-0.46905517578125
4,063;-0.46875
4,064;-0.46875
4,065;-0.46905517578125
4,066;-0.4693603515625
4,067;-0.4693603515625
4,068;-0.46966552734375
4,069;-0.4693603515625
4,07;-0.46875
4,071;-0.46905517578125
4,072;-0.46905517578125
4,073;-0.46966552734375
4,074;-0.46875
4,075;-0.46905517578125
4,076;-0.46905517578125
4,077;-0.46905517578125
4,078;-0.46905517578125
4,079;-0.46905517578125
4,08;-0.46905517578125
4,081;-0.46905517578125
4,082;-0.46905517578125
4,083;-0.4693603515625
4,084;-0.46966552734375
4,085;-0.4693603515625
4,086;-0.4693603515625
4,087;-0.46875
4,088;-0.4693603515625
4,089;-0.46905517578125
4,09;-0.4693603515625
4,091;-0.46875
4,092;-0.46875
4,093;-0.46905517578125
4,094;-0.46875
4,095;-0.4693603515625
4,096;-0.4693603515625
4,097;-0.46875
4,098;-0.46844482421875
4,099;-0.4681396484375
4,1;-0.46905517578125
4,101;-0.46875
4,102;-0.46905517578125
4,103;-0.46966552734375
4,104;-0.46905517578125
4,105;-0.46905517578125
4,106;-0.4693603515625
4,107;-0.4693603515625
4,108;-0.46875
4,109;-0.46905517578125
4,11;-0.46905517578125
4,111;-0.4693603515625
4,112;-0.46905517578125
4,113;-0.46966552734375
4,114;-0.46966552734375
4,115;-0.46905517578125
4,116;-0.46905517578125
4,117;-0.46905517578125
4,118;-0.4693603515625
4,119;-0.46966552734375
4,12;-0.469970703125
4,121;-0.46875
4,122;-0.46875
4,123;-0.46905517578125
4,124;-0.46875
4,125;-0.46905517578125
4,126;-0.46875
4,127;-0.46875
4,128;-0.46844482421875
4,129;-0.46875
4,13;-0.46905517578125
4,131;-0.46966552734375
4,132;-0.46875
4,133;-0.46875
4,134;-0.46905517578125
4,135;-0.46966552734375
4,136;-0.4693603515625
4,137;-0.4693603515625
4,138;-0.46966552734375
4,139;-0.46905517578125
4,14;-0.46905517578125
4,141;-0.46966552734375
4,142;-0.46966552734375
4,143;-0.46875
4,144;-0.4693603515625
4,145;-0.46905517578125
4,146;-0.46875
4,147;-0.46844482421875
4,148;-0.46875
4,149;-0.46966552734375
4,15;-0.4693603515625
4,151;-0.4693603515625
4,152;-0.46905517578125
4,153;-0.46875
4,154;-0.469970703125
4,155;-0.46966552734375
4,156;-0.4693603515625
4,157;-0.4693603515625
4,158;-0.4693603515625
4,159;-0.4693603515625
4,16;-0.4693603515625
4,161;-0.4693603515625
4,162;-0.46905517578125
4,163;-0.4693603515625
4,164;-0.469970703125
4,165;-0.4693603515625
4,166;-0.46905517578125
4,167;-0.46905517578125
4,168;-0.46875
4,169;-0.46905517578125
4,17;-0.46905517578125
4,171;-0.46905517578125
4,172;-0.46875
4,173;-0.46905517578125
4,174;-0.4693603515625
4,175;-0.4693603515625
4,176;-0.4693603515625
4,177;-0.4693603515625
4,178;-0.46905517578125
4,179;-0.4693603515625
4,18;-0.46905517578125
4,181;-0.46966552734375
4,182;-0.46875
4,183;-0.46875
4,184;-0.46875
4,185;-0.4693603515625
4,186;-0.4693603515625
4,187;-0.46905517578125
4,188;-0.46905517578125
4,189;-0.46844482421875
4,19;-0.4693603515625
4,191;-0.4693603515625
4,192;-0.46905517578125
4,193;-0.4693603515625
4,194;-0.46966552734375
4,195;-0.46966552734375
4,196;-0.46966552734375
4,197;-0.46905517578125
4,198;-0.4693603515625
4,199;-0.46875
4,2;-0.46875
4,201;-0.46905517578125
4,202;-0.4693603515625
4,203;-0.4693603515625
4,204;-0.46905517578125
4,205;-0.4693603515625
4,206;-0.46966552734375
4,207;-0.46905517578125
4,208;-0.46875
4,209;-0.46905517578125
4,21;-0.4693603515625
4,211;-0.46875
4,212;-0.46905517578125
4,213;-0.46875
4,214;-0.469970703125
4,215;-0.46905517578125
4,216;-0.4693603515625
4,217;-0.46905517578125
4,218;-0.46875
4,219;-0.46905517578125
4,22;-0.46905517578125
4,221;-0.46966552734375
4,222;-0.46844482421875
4,223;-0.4693603515625
4,224;-0.46875
4,225;-0.4693603515625
4,226;-0.46905517578125
4,227;-0.46905517578125
4,228;-0.46875
4,229;-0.46875
4,23;-0.46905517578125
4,231;-0.4693603515625
4,232;-0.46905517578125
4,233;-0.4693603515625
4,234;-0.46875
4,235;-0.46905517578125
4,236;-0.46905517578125
4,237;-0.46905517578125
4,238;-0.46905517578125
4,239;-0.46875
4,24;-0.46966552734375
4,241;-0.46844482421875
4,242;-0.46844482421875
4,243;-0.46875
4,244;-0.46905517578125
4,245;-0.4693603515625
4,246;-0.4693603515625
4,247;-0.46966552734375
4,248;-0.46875
4,249;-0.46875
4,25;-0.46875
4,251;-0.46905517578125
4,252;-0.4693603515625
4,253;-0.4693603515625
4,254;-0.46905517578125
4,255;-0.46875
4,256;-0.46905517578125
4,257;-0.46905517578125
4,258;-0.46875
4,259;-0.46844482421875
4,26;-0.4693603515625
4,261;-0.46966552734375
4,262;-0.46875
4,263;-0.4693603515625
4,264;-0.46905517578125
4,265;-0.46905517578125
4,266;-0.46966552734375
4,267;-0.46966552734375
4,268;-0.4693603515625
4,269;-0.46905517578125
4,27;-0.46905517578125
4,271;-0.4693603515625
4,272;-0.4693603515625
4,273;-0.46875
4,274;-0.46905517578125
4,275;-0.46966552734375
4,276;-0.46875
4,277;-0.46875
4,278;-0.4693603515625
4,279;-0.4693603515625
4,28;-0.46905517578125
4,281;-0.4693603515625
4,282;-0.46875
4,283;-0.46875
4,284;-0.46905517578125
4,285;-0.46966552734375
4,286;-0.46966552734375
4,287;-0.4693603515625
4,288;-0.46905517578125
4,289;-0.46966552734375
4,29;-0.46905517578125
4,291;-0.46875
4,292;-0.46905517578125
4,293;-0.46966552734375
4,294;-0.46905517578125
4,295;-0.46905517578125
4,296;-0.4693603515625
4,297;-0.46966552734375
4,298;-0.4693603515625
4,299;-0.4693603515625
4,3;-0.46905517578125
4,301;-0.4693603515625
4,302;-0.4693603515625
4,303;-0.46875
4,304;-0.46875
4,305;-0.46905517578125
4,306;-0.46875
4,307;-0.46875
4,308;-0.46905517578125
4,309;-0.4693603515625
4,31;-0.4693603515625
4,311;-0.46905517578125
4,312;-0.46875
4,313;-0.46875
4,314;-0.46875
4,315;-0.46875
4,316;-0.4693603515625
4,317;-0.4693603515625
4,318;-0.46905517578125
4,319;-0.46905517578125
4,32;-0.46875
4,321;-0.46905517578125
4,322;-0.46905517578125
4,323;-0.46875
4,324;-0.46875
4,325;-0.46875
4,326;-0.46905517578125
4,327;-0.46905517578125
4,328;-0.4693603515625
4,329;-0.46875
4,33;-0.46875
4,331;-0.46905517578125
4,332;-0.46905517578125
4,333;-0.46905517578125
4,334;-0.46905517578125
4,335;-0.4693603515625
4,336;-0.46966552734375
4,337;-0.4693603515625
4,338;-0.46875
4,339;-0.46875
4,34;-0.46875
4,341;-0.4681396484375
4,342;-0.46905517578125
4,343;-0.46966552734375
4,344;-0.46966552734375
4,345;-0.46875
4,346;-0.46875
4,347;-0.4693603515625
4,348;-0.46875
4,349;-0.46905517578125
4,35;-0.46875
4,351;-0.46875
4,352;-0.46875
4,353;-0.46875
4,354;-0.46844482421875
4,355;-0.4693603515625
4,356;-0.46875
4,357;-0.46844482421875
4,358;-0.46905517578125
4,359;-0.46905517578125
4,36;-0.46905517578125
4,361;-0.46905517578125
4,362;-0.46905517578125
4,363;-0.46905517578125
4,364;-0.46905517578125
4,365;-0.46875
4,366;-0.46875
4,367;-0.4693603515625
4,368;-0.46905517578125
4,369;-0.46905517578125
4,37;-0.46966552734375
4,371;-0.46966552734375
4,372;-0.4693603515625
4,373;-0.4693603515625
4,374;-0.4693603515625
4,375;-0.4693603515625
4,376;-0.469970703125
4,377;-0.4693603515625
4,378;-0.4693603515625
4,379;-0.46905517578125
4,38;-0.46875
4,381;-0.46905517578125
4,382;-0.46875
4,383;-0.46905517578125
4,384;-0.4693603515625
4,385;-0.46905517578125
4,386;-0.46966552734375
4,387;-0.46875
4,388;-0.46905517578125
4,389;-0.46905517578125
4,39;-0.46875
4,391;-0.46905517578125
4,392;-0.46966552734375
4,393;-0.46875
4,394;-0.46905517578125
4,395;-0.46875
4,396;-0.46875
4,397;-0.46844482421875
4,398;-0.46905517578125
4,399;-0.46875
4,4;-0.46875
4,401;-0.46875
4,402;-0.46966552734375
4,403;-0.46966552734375
4,404;-0.46875
4,405;-0.4693603515625
4,406;-0.46905517578125
4,407;-0.46905517578125
4,408;-0.46905517578125
4,409;-0.46875
4,41;-0.46905517578125
4,411;-0.46875
4,412;-0.46875
4,413;-0.46966552734375
4,414;-0.46875
4,415;-0.46875
4,416;-0.46905517578125
4,417;-0.46905517578125
4,418;-0.46905517578125
4,419;-0.46875
4,42;-0.4693603515625
4,421;-0.46905517578125
4,422;-0.46875
4,423;-0.46875
4,424;-0.4681396484375
4,425;-0.46875
4,426;-0.46905517578125
4,427;-0.46966552734375
4,428;-0.4693603515625
