
;DT9804(00).A/D0.Channel 1;DT9804(00).A/D0.Channel 1;DT9804(00).A/D0.Channel 2;DT9804(00).A/D0.Channel 3;DT9804(00).A/D0.Channel 4;DT9804(00).A/D0.Channel 5;DT9804(00).A/D0.Channel 6;DT9804(00).A/D0.Channel 7;DT9804(00).A/D0.Channel 8;DT9804(00).A/D0.Channel 9;DT9804(00).A/D0.Channel 10;DT9804(00).A/D0.Channel 11;DT9804(00).A/D0.Channel 12;DT9804(00).A/D0.Channel 13;DT9804(00).A/D0.Channel 14;DT9804(00).A/D0.Channel 15
0;-0.57952880859375
0,001;-0.5792236328125
0,002;-0.5792236328125
0,003;-0.5792236328125
0,004;-0.5792236328125
0,005;-0.5792236328125
0,006;-0.579833984375
0,007;-0.579833984375
0,008;-0.5792236328125
0,009;-0.5792236328125
0,01;-0.57952880859375
0,011;-0.57891845703125
0,012;-0.579833984375
0,013;-0.57952880859375
0,014;-0.57952880859375
0,015;-0.5792236328125
0,016;-0.5792236328125
0,017;-0.57952880859375
0,018;-0.579833984375
0,019;-0.57952880859375
0,02;-0.579833984375
0,021;-0.5792236328125
0,022;-0.57952880859375
0,023;-0.57952880859375
0,024;-0.57952880859375
0,025;-0.58013916015625
0,026;-0.5792236328125
0,027;-0.5792236328125
0,028;-0.579833984375
0,029;-0.57952880859375
0,03;-0.57952880859375
0,031;-0.57891845703125
0,032;-0.5792236328125
0,033;-0.5792236328125
0,034;-0.5792236328125
0,035;-0.5792236328125
0,036;-0.579833984375
0,037;-0.5792236328125
0,038;-0.57952880859375
0,039;-0.57952880859375
0,04;-0.58013916015625
0,041;-0.5792236328125
0,042;-0.5792236328125
0,043;-0.57952880859375
0,044;-0.5792236328125
0,045;-0.57952880859375
0,046;-0.5792236328125
0,047;-0.5804443359375
0,048;-0.5792236328125
0,049;-0.5792236328125
0,05;-0.5792236328125
0,051;-0.57952880859375
0,052;-0.5792236328125
0,053;-0.5792236328125
0,054;-0.57952880859375
0,055;-0.5792236328125
0,056;-0.57952880859375
0,057;-0.579833984375
0,058;-0.5792236328125
0,059;-0.5792236328125
0,06;-0.57952880859375
0,061;-0.57952880859375
0,062;-0.5792236328125
0,063;-0.579833984375
0,064;-0.5792236328125
0,065;-0.57952880859375
0,066;-0.57952880859375
0,067;-0.57952880859375
0,068;-0.5792236328125
0,069;-0.5792236328125
0,07;-0.57891845703125
0,071;-0.579833984375
0,072;-0.57952880859375
0,073;-0.5792236328125
0,074;-0.57952880859375
0,075;-0.579833984375
0,076;-0.579833984375
0,077;-0.57952880859375
0,078;-0.579833984375
0,079;-0.57952880859375
0,08;-0.5792236328125
0,081;-0.5792236328125
0,082;-0.579833984375
0,083;-0.57952880859375
0,084;-0.579833984375
0,085;-0.57952880859375
0,086;-0.57952880859375
0,087;-0.57891845703125
0,088;-0.57952880859375
0,089;-0.579833984375
0,09;-0.57952880859375
0,091;-0.57952880859375
0,092;-0.579833984375
0,093;-0.57952880859375
0,094;-0.57952880859375
0,095;-0.57952880859375
0,096;-0.579833984375
0,097;-0.57952880859375
0,098;-0.579833984375
0,099;-0.5792236328125
0,1;-0.579833984375
0,101;-0.5792236328125
0,102;-0.5792236328125
0,103;-0.5792236328125
0,104;-0.579833984375
0,105;-0.57952880859375
0,106;-0.5792236328125
0,107;-0.5792236328125
0,108;-0.57952880859375
0,109;-0.5792236328125
0,11;-0.5792236328125
0,111;-0.57952880859375
0,112;-0.5792236328125
0,113;-0.5792236328125
0,114;-0.57952880859375
0,115;-0.5792236328125
0,116;-0.57952880859375
0,117;-0.579833984375
0,118;-0.5792236328125
0,119;-0.579833984375
0,12;-0.57952880859375
0,121;-0.579833984375
0,122;-0.5792236328125
0,123;-0.57891845703125
0,124;-0.57952880859375
0,125;-0.5792236328125
0,126;-0.579833984375
0,127;-0.57952880859375
0,128;-0.57952880859375
0,129;-0.57952880859375
0,13;-0.5792236328125
0,131;-0.579833984375
0,132;-0.5792236328125
0,133;-0.57952880859375
0,134;-0.57952880859375
0,135;-0.5792236328125
0,136;-0.57952880859375
0,137;-0.5792236328125
0,138;-0.58013916015625
0,139;-0.5792236328125
0,14;-0.57952880859375
0,141;-0.5792236328125
0,142;-0.57952880859375
0,143;-0.57952880859375
0,144;-0.57952880859375
0,145;-0.5792236328125
0,146;-0.57952880859375
0,147;-0.57952880859375
0,148;-0.57952880859375
0,149;-0.57952880859375
0,15;-0.5792236328125
0,151;-0.57952880859375
0,152;-0.57952880859375
0,153;-0.5792236328125
0,154;-0.5792236328125
0,155;-0.57891845703125
0,156;-0.57952880859375
0,157;-0.57952880859375
0,158;-0.5792236328125
0,159;-0.5792236328125
0,16;-0.57952880859375
0,161;-0.57952880859375
0,162;-0.579833984375
0,163;-0.5792236328125
0,164;-0.57952880859375
0,165;-0.57952880859375
0,166;-0.58013916015625
0,167;-0.57952880859375
0,168;-0.57952880859375
0,169;-0.5792236328125
0,17;-0.57952880859375
0,171;-0.579833984375
0,172;-0.57952880859375
0,173;-0.5792236328125
0,174;-0.5792236328125
0,175;-0.57952880859375
0,176;-0.58013916015625
0,177;-0.579833984375
0,178;-0.5792236328125
0,179;-0.57952880859375
0,18;-0.5792236328125
0,181;-0.579833984375
0,182;-0.57891845703125
0,183;-0.5792236328125
0,184;-0.57952880859375
0,185;-0.5792236328125
0,186;-0.5792236328125
0,187;-0.579833984375
0,188;-0.5792236328125
0,189;-0.5792236328125
0,19;-0.5792236328125
0,191;-0.57891845703125
0,192;-0.57891845703125
0,193;-0.5792236328125
0,194;-0.57952880859375
0,195;-0.579833984375
0,196;-0.57952880859375
0,197;-0.5792236328125
0,198;-0.57891845703125
0,199;-0.5792236328125
0,2;-0.57952880859375
0,201;-0.57952880859375
0,202;-0.57891845703125
0,203;-0.57891845703125
0,204;-0.5792236328125
0,205;-0.57952880859375
0,206;-0.57952880859375
0,207;-0.579833984375
0,208;-0.58013916015625
0,209;-0.57952880859375
0,21;-0.579833984375
0,211;-0.5792236328125
0,212;-0.5792236328125
0,213;-0.5792236328125
0,214;-0.5792236328125
0,215;-0.579833984375
0,216;-0.5792236328125
0,217;-0.5792236328125
0,218;-0.5792236328125
0,219;-0.579833984375
0,22;-0.5792236328125
0,221;-0.57891845703125
0,222;-0.5792236328125
0,223;-0.5792236328125
0,224;-0.579833984375
0,225;-0.579833984375
0,226;-0.57952880859375
0,227;-0.579833984375
0,228;-0.57952880859375
0,229;-0.5792236328125
0,23;-0.57952880859375
0,231;-0.579833984375
0,232;-0.57952880859375
0,233;-0.57952880859375
0,234;-0.579833984375
0,235;-0.579833984375
0,236;-0.57952880859375
0,237;-0.57891845703125
0,238;-0.5792236328125
0,239;-0.57952880859375
0,24;-0.579833984375
0,241;-0.57861328125
0,242;-0.57952880859375
0,243;-0.57952880859375
0,244;-0.579833984375
0,245;-0.57952880859375
0,246;-0.57891845703125
0,247;-0.57952880859375
0,248;-0.5792236328125
0,249;-0.579833984375
0,25;-0.57952880859375
0,251;-0.5792236328125
0,252;-0.579833984375
0,253;-0.57952880859375
0,254;-0.58013916015625
0,255;-0.57952880859375
0,256;-0.5792236328125
0,257;-0.57952880859375
0,258;-0.5792236328125
0,259;-0.5792236328125
0,26;-0.58013916015625
0,261;-0.5792236328125
0,262;-0.57952880859375
0,263;-0.5792236328125
0,264;-0.5792236328125
0,265;-0.5792236328125
0,266;-0.579833984375
0,267;-0.5792236328125
0,268;-0.57952880859375
0,269;-0.5792236328125
0,27;-0.57891845703125
0,271;-0.5792236328125
0,272;-0.57952880859375
0,273;-0.5792236328125
0,274;-0.57891845703125
0,275;-0.57891845703125
0,276;-0.5792236328125
0,277;-0.5792236328125
0,278;-0.5792236328125
0,279;-0.57952880859375
0,28;-0.57952880859375
0,281;-0.57952880859375
0,282;-0.57891845703125
0,283;-0.57891845703125
0,284;-0.5792236328125
0,285;-0.57952880859375
0,286;-0.57952880859375
0,287;-0.5792236328125
0,288;-0.5792236328125
0,289;-0.57952880859375
0,29;-0.5792236328125
0,291;-0.57952880859375
0,292;-0.5804443359375
0,293;-0.579833984375
0,294;-0.5792236328125
0,295;-0.58013916015625
0,296;-0.5792236328125
0,297;-0.57952880859375
0,298;-0.57952880859375
0,299;-0.57952880859375
0,3;-0.5792236328125
0,301;-0.5792236328125
0,302;-0.57952880859375
0,303;-0.57891845703125
0,304;-0.57891845703125
0,305;-0.57861328125
0,306;-0.57952880859375
0,307;-0.5792236328125
0,308;-0.57952880859375
0,309;-0.57861328125
0,31;-0.57952880859375
0,311;-0.57952880859375
0,312;-0.57952880859375
0,313;-0.57952880859375
0,314;-0.57952880859375
0,315;-0.57952880859375
0,316;-0.5792236328125
0,317;-0.5792236328125
0,318;-0.57952880859375
0,319;-0.57891845703125
0,32;-0.57891845703125
0,321;-0.57891845703125
0,322;-0.57952880859375
0,323;-0.57952880859375
0,324;-0.57952880859375
0,325;-0.57952880859375
0,326;-0.5792236328125
0,327;-0.58013916015625
0,328;-0.5792236328125
0,329;-0.57891845703125
0,33;-0.57891845703125
0,331;-0.57952880859375
0,332;-0.57952880859375
0,333;-0.57952880859375
0,334;-0.5792236328125
0,335;-0.5792236328125
0,336;-0.5792236328125
0,337;-0.57952880859375
0,338;-0.5792236328125
0,339;-0.579833984375
0,34;-0.5792236328125
0,341;-0.57952880859375
0,342;-0.5792236328125
0,343;-0.5792236328125
0,344;-0.57952880859375
0,345;-0.5792236328125
0,346;-0.57952880859375
0,347;-0.579833984375
0,348;-0.57952880859375
0,349;-0.5792236328125
0,35;-0.57952880859375
0,351;-0.5792236328125
0,352;-0.5792236328125
0,353;-0.5792236328125
0,354;-0.57952880859375
0,355;-0.5792236328125
0,356;-0.57891845703125
0,357;-0.5792236328125
0,358;-0.57952880859375
0,359;-0.57952880859375
0,36;-0.579833984375
0,361;-0.57952880859375
0,362;-0.57891845703125
0,363;-0.57952880859375
0,364;-0.57952880859375
0,365;-0.57952880859375
0,366;-0.5792236328125
0,367;-0.579833984375
0,368;-0.57952880859375
0,369;-0.579833984375
0,37;-0.5792236328125
0,371;-0.5792236328125
0,372;-0.57952880859375
0,373;-0.57952880859375
0,374;-0.57952880859375
0,375;-0.57952880859375
0,376;-0.579833984375
0,377;-0.57952880859375
0,378;-0.5792236328125
0,379;-0.579833984375
0,38;-0.5792236328125
0,381;-0.57891845703125
0,382;-0.57952880859375
0,383;-0.5792236328125
0,384;-0.57952880859375
0,385;-0.579833984375
0,386;-0.5792236328125
0,387;-0.57952880859375
0,388;-0.5792236328125
0,389;-0.57952880859375
0,39;-0.579833984375
0,391;-0.57952880859375
0,392;-0.5792236328125
0,393;-0.579833984375
0,394;-0.5792236328125
0,395;-0.5792236328125
0,396;-0.5792236328125
0,397;-0.5792236328125
0,398;-0.5792236328125
0,399;-0.5792236328125
0,4;-0.5792236328125
0,401;-0.5792236328125
0,402;-0.5792236328125
0,403;-0.57952880859375
0,404;-0.579833984375
0,405;-0.5792236328125
0,406;-0.579833984375
0,407;-0.57952880859375
0,408;-0.5792236328125
0,409;-0.57952880859375
0,41;-0.57952880859375
0,411;-0.57952880859375
0,412;-0.57952880859375
0,413;-0.57952880859375
0,414;-0.57952880859375
0,415;-0.57952880859375
0,416;-0.57952880859375
0,417;-0.5792236328125
0,418;-0.5792236328125
0,419;-0.57952880859375
0,42;-0.57952880859375
0,421;-0.5792236328125
0,422;-0.57952880859375
0,423;-0.57952880859375
0,424;-0.57891845703125
0,425;-0.57952880859375
0,426;-0.5792236328125
0,427;-0.57952880859375
0,428;-0.57891845703125
0,429;-0.57952880859375
0,43;-0.579833984375
0,431;-0.57891845703125
0,432;-0.579833984375
0,433;-0.5792236328125
0,434;-0.5792236328125
0,435;-0.57952880859375
0,436;-0.57952880859375
0,437;-0.5792236328125
0,438;-0.57952880859375
0,439;-0.5792236328125
0,44;-0.5792236328125
0,441;-0.57952880859375
0,442;-0.5792236328125
0,443;-0.5792236328125
0,444;-0.57891845703125
0,445;-0.57891845703125
0,446;-0.57952880859375
0,447;-0.57891845703125
0,448;-0.5792236328125
0,449;-0.58013916015625
0,45;-0.579833984375
0,451;-0.57891845703125
0,452;-0.5792236328125
0,453;-0.579833984375
0,454;-0.57952880859375
0,455;-0.57952880859375
0,456;-0.57952880859375
0,457;-0.579833984375
0,458;-0.5792236328125
0,459;-0.579833984375
0,46;-0.57952880859375
0,461;-0.5792236328125
0,462;-0.57891845703125
0,463;-0.5792236328125
0,464;-0.57952880859375
0,465;-0.5792236328125
0,466;-0.57952880859375
0,467;-0.57952880859375
0,468;-0.5792236328125
0,469;-0.57952880859375
0,47;-0.57952880859375
0,471;-0.5792236328125
0,472;-0.57952880859375
0,473;-0.57952880859375
0,474;-0.5792236328125
0,475;-0.57952880859375
0,476;-0.5792236328125
0,477;-0.579833984375
0,478;-0.5792236328125
0,479;-0.57952880859375
0,48;-0.5792236328125
0,481;-0.58013916015625
0,482;-0.57952880859375
0,483;-0.579833984375
0,484;-0.5792236328125
0,485;-0.57952880859375
0,486;-0.579833984375
0,487;-0.57952880859375
0,488;-0.579833984375
0,489;-0.57952880859375
0,49;-0.57891845703125
0,491;-0.5792236328125
0,492;-0.579833984375
0,493;-0.579833984375
0,494;-0.57952880859375
0,495;-0.5792236328125
0,496;-0.57952880859375
0,497;-0.57952880859375
0,498;-0.57952880859375
0,499;-0.57952880859375
0,5;-0.5792236328125
0,501;-0.5792236328125
0,502;-0.57891845703125
0,503;-0.57952880859375
0,504;-0.57952880859375
0,505;-0.57952880859375
0,506;-0.579833984375
0,507;-0.57891845703125
0,508;-0.5792236328125
0,509;-0.5792236328125
0,51;-0.579833984375
0,511;-0.57891845703125
0,512;-0.5792236328125
0,513;-0.57891845703125
0,514;-0.57952880859375
0,515;-0.5792236328125
0,516;-0.57952880859375
0,517;-0.5792236328125
0,518;-0.57952880859375
0,519;-0.5792236328125
0,52;-0.57891845703125
0,521;-0.57952880859375
0,522;-0.57952880859375
0,523;-0.57891845703125
0,524;-0.579833984375
0,525;-0.57952880859375
0,526;-0.57952880859375
0,527;-0.57952880859375
0,528;-0.5792236328125
0,529;-0.579833984375
0,53;-0.5792236328125
0,531;-0.5792236328125
0,532;-0.5792236328125
0,533;-0.579833984375
0,534;-0.579833984375
0,535;-0.57952880859375
0,536;-0.5792236328125
0,537;-0.5792236328125
0,538;-0.57952880859375
0,539;-0.579833984375
0,54;-0.57952880859375
0,541;-0.57952880859375
0,542;-0.579833984375
0,543;-0.57891845703125
0,544;-0.57952880859375
0,545;-0.579833984375
0,546;-0.5792236328125
0,547;-0.5792236328125
0,548;-0.58013916015625
0,549;-0.57891845703125
0,55;-0.5792236328125
0,551;-0.579833984375
0,552;-0.58013916015625
0,553;-0.579833984375
0,554;-0.5792236328125
0,555;-0.57952880859375
0,556;-0.57952880859375
0,557;-0.5792236328125
0,558;-0.58013916015625
0,559;-0.57952880859375
0,56;-0.57891845703125
0,561;-0.57891845703125
0,562;-0.57952880859375
0,563;-0.5792236328125
0,564;-0.5792236328125
0,565;-0.57952880859375
0,566;-0.57952880859375
0,567;-0.57952880859375
0,568;-0.5792236328125
0,569;-0.57952880859375
0,57;-0.579833984375
0,571;-0.5792236328125
0,572;-0.57891845703125
0,573;-0.5792236328125
0,574;-0.57952880859375
0,575;-0.57952880859375
0,576;-0.57891845703125
0,577;-0.5792236328125
0,578;-0.5792236328125
0,579;-0.57952880859375
0,58;-0.5792236328125
0,581;-0.57952880859375
0,582;-0.5792236328125
0,583;-0.57861328125
0,584;-0.5792236328125
0,585;-0.5792236328125
0,586;-0.57952880859375
0,587;-0.57861328125
0,588;-0.5792236328125
0,589;-0.57952880859375
0,59;-0.57891845703125
0,591;-0.57861328125
0,592;-0.57952880859375
0,593;-0.57891845703125
0,594;-0.57952880859375
0,595;-0.5792236328125
0,596;-0.5792236328125
0,597;-0.5792236328125
0,598;-0.579833984375
0,599;-0.5792236328125
0,6;-0.5792236328125
0,601;-0.5792236328125
0,602;-0.579833984375
0,603;-0.579833984375
0,604;-0.579833984375
0,605;-0.57952880859375
0,606;-0.57952880859375
0,607;-0.57952880859375
0,608;-0.5792236328125
0,609;-0.5792236328125
0,61;-0.5792236328125
0,611;-0.579833984375
0,612;-0.5792236328125
0,613;-0.579833984375
0,614;-0.57952880859375
0,615;-0.5792236328125
0,616;-0.5792236328125
0,617;-0.57952880859375
0,618;-0.579833984375
0,619;-0.5792236328125
0,62;-0.579833984375
0,621;-0.57952880859375
0,622;-0.5792236328125
0,623;-0.57952880859375
0,624;-0.57952880859375
0,625;-0.579833984375
0,626;-0.579833984375
0,627;-0.579833984375
0,628;-0.57891845703125
0,629;-0.5792236328125
0,63;-0.579833984375
0,631;-0.57952880859375
0,632;-0.5792236328125
0,633;-0.57891845703125
0,634;-0.5792236328125
0,635;-0.579833984375
0,636;-0.57952880859375
0,637;-0.5792236328125
0,638;-0.57952880859375
0,639;-0.5792236328125
0,64;-0.57952880859375
0,641;-0.57952880859375
0,642;-0.5792236328125
0,643;-0.5792236328125
0,644;-0.579833984375
0,645;-0.57952880859375
0,646;-0.57952880859375
0,647;-0.57952880859375
0,648;-0.5792236328125
0,649;-0.5792236328125
0,65;-0.57891845703125
0,651;-0.57952880859375
0,652;-0.57952880859375
0,653;-0.579833984375
0,654;-0.5792236328125
0,655;-0.5792236328125
0,656;-0.57891845703125
0,657;-0.57952880859375
0,658;-0.579833984375
0,659;-0.579833984375
0,66;-0.57952880859375
0,661;-0.5792236328125
0,662;-0.579833984375
0,663;-0.5792236328125
0,664;-0.57891845703125
0,665;-0.57891845703125
0,666;-0.57952880859375
0,667;-0.57952880859375
0,668;-0.57891845703125
0,669;-0.57952880859375
0,67;-0.57891845703125
0,671;-0.5792236328125
0,672;-0.5792236328125
0,673;-0.5792236328125
0,674;-0.579833984375
0,675;-0.57952880859375
0,676;-0.57952880859375
0,677;-0.579833984375
0,678;-0.5792236328125
0,679;-0.57952880859375
0,68;-0.5792236328125
0,681;-0.57952880859375
0,682;-0.57952880859375
0,683;-0.5792236328125
0,684;-0.5792236328125
0,685;-0.5792236328125
0,686;-0.57952880859375
0,687;-0.57891845703125
0,688;-0.57891845703125
0,689;-0.5792236328125
0,69;-0.57952880859375
0,691;-0.57952880859375
0,692;-0.5792236328125
0,693;-0.57952880859375
0,694;-0.57952880859375
0,695;-0.5792236328125
0,696;-0.57952880859375
0,697;-0.57952880859375
0,698;-0.5792236328125
0,699;-0.5792236328125
0,7;-0.579833984375
0,701;-0.57952880859375
0,702;-0.5792236328125
0,703;-0.579833984375
0,704;-0.579833984375
0,705;-0.57952880859375
0,706;-0.57891845703125
0,707;-0.579833984375
0,708;-0.5792236328125
0,709;-0.57891845703125
0,71;-0.57952880859375
0,711;-0.57952880859375
0,712;-0.57891845703125
0,713;-0.5792236328125
0,714;-0.579833984375
0,715;-0.57891845703125
0,716;-0.5792236328125
0,717;-0.5792236328125
0,718;-0.5792236328125
0,719;-0.579833984375
0,72;-0.5792236328125
0,721;-0.5792236328125
0,722;-0.57952880859375
0,723;-0.579833984375
0,724;-0.5792236328125
0,725;-0.57952880859375
0,726;-0.57891845703125
0,727;-0.5792236328125
0,728;-0.579833984375
0,729;-0.57952880859375
0,73;-0.57952880859375
0,731;-0.57952880859375
0,732;-0.57952880859375
0,733;-0.579833984375
0,734;-0.579833984375
0,735;-0.5792236328125
0,736;-0.5792236328125
0,737;-0.57952880859375
0,738;-0.5792236328125
0,739;-0.57952880859375
0,74;-0.57952880859375
0,741;-0.5792236328125
0,742;-0.57952880859375
0,743;-0.5792236328125
0,744;-0.57952880859375
0,745;-0.57952880859375
0,746;-0.579833984375
0,747;-0.5792236328125
0,748;-0.57952880859375
0,749;-0.57891845703125
0,75;-0.5792236328125
0,751;-0.57952880859375
0,752;-0.57952880859375
0,753;-0.58013916015625
0,754;-0.57952880859375
0,755;-0.57952880859375
0,756;-0.5792236328125
0,757;-0.579833984375
0,758;-0.57952880859375
0,759;-0.57952880859375
0,76;-0.57952880859375
0,761;-0.5792236328125
0,762;-0.5792236328125
0,763;-0.57952880859375
0,764;-0.5792236328125
0,765;-0.5792236328125
0,766;-0.57952880859375
0,767;-0.579833984375
0,768;-0.57952880859375
0,769;-0.57952880859375
0,77;-0.5792236328125
0,771;-0.57952880859375
0,772;-0.57891845703125
0,773;-0.57952880859375
0,774;-0.57952880859375
0,775;-0.5792236328125
0,776;-0.57952880859375
0,777;-0.57952880859375
0,778;-0.57952880859375
0,779;-0.5792236328125
0,78;-0.57952880859375
0,781;-0.57952880859375
0,782;-0.57952880859375
0,783;-0.579833984375
0,784;-0.58013916015625
0,785;-0.5792236328125
0,786;-0.57952880859375
0,787;-0.57952880859375
0,788;-0.5792236328125
0,789;-0.57952880859375
0,79;-0.5792236328125
0,791;-0.57952880859375
0,792;-0.57952880859375
0,793;-0.5792236328125
0,794;-0.579833984375
0,795;-0.5792236328125
0,796;-0.579833984375
0,797;-0.57952880859375
0,798;-0.57952880859375
0,799;-0.579833984375
0,8;-0.5792236328125
0,801;-0.5792236328125
0,802;-0.5792236328125
0,803;-0.579833984375
0,804;-0.57952880859375
0,805;-0.57952880859375
0,806;-0.57952880859375
0,807;-0.579833984375
0,808;-0.57952880859375
0,809;-0.57952880859375
0,81;-0.5792236328125
0,811;-0.5792236328125
0,812;-0.57952880859375
0,813;-0.57952880859375
0,814;-0.57952880859375
0,815;-0.57952880859375
0,816;-0.579833984375
0,817;-0.57891845703125
0,818;-0.5792236328125
0,819;-0.579833984375
0,82;-0.57891845703125
0,821;-0.5792236328125
0,822;-0.5792236328125
0,823;-0.57952880859375
0,824;-0.57952880859375
0,825;-0.57891845703125
0,826;-0.57952880859375
0,827;-0.57952880859375
0,828;-0.57952880859375
0,829;-0.579833984375
0,83;-0.5792236328125
0,831;-0.57952880859375
0,832;-0.57952880859375
0,833;-0.579833984375
0,834;-0.5792236328125
0,835;-0.5792236328125
0,836;-0.5792236328125
0,837;-0.5792236328125
0,838;-0.5792236328125
0,839;-0.5792236328125
0,84;-0.5792236328125
0,841;-0.57891845703125
0,842;-0.57891845703125
0,843;-0.5792236328125
0,844;-0.5792236328125
0,845;-0.57952880859375
0,846;-0.5792236328125
0,847;-0.5792236328125
0,848;-0.57952880859375
0,849;-0.579833984375
0,85;-0.5792236328125
0,851;-0.579833984375
0,852;-0.579833984375
0,853;-0.57952880859375
0,854;-0.57952880859375
0,855;-0.57891845703125
0,856;-0.579833984375
0,857;-0.5792236328125
0,858;-0.5792236328125
0,859;-0.57952880859375
0,86;-0.5792236328125
0,861;-0.57952880859375
0,862;-0.57952880859375
0,863;-0.57952880859375
0,864;-0.57952880859375
0,865;-0.57891845703125
0,866;-0.5792236328125
0,867;-0.57952880859375
0,868;-0.57952880859375
0,869;-0.57952880859375
0,87;-0.5792236328125
0,871;-0.57952880859375
0,872;-0.5792236328125
0,873;-0.57952880859375
0,874;-0.57952880859375
0,875;-0.57952880859375
0,876;-0.57891845703125
0,877;-0.579833984375
0,878;-0.5792236328125
0,879;-0.57891845703125
0,88;-0.57952880859375
0,881;-0.57952880859375
0,882;-0.57952880859375
0,883;-0.5792236328125
0,884;-0.5792236328125
0,885;-0.5792236328125
0,886;-0.5792236328125
0,887;-0.579833984375
0,888;-0.579833984375
0,889;-0.579833984375
0,89;-0.5792236328125
0,891;-0.5792236328125
0,892;-0.5792236328125
0,893;-0.57952880859375
0,894;-0.579833984375
0,895;-0.57952880859375
0,896;-0.579833984375
0,897;-0.5792236328125
0,898;-0.579833984375
0,899;-0.5792236328125
0,9;-0.5792236328125
0,901;-0.57952880859375
0,902;-0.57952880859375
0,903;-0.5792236328125
0,904;-0.57952880859375
0,905;-0.57952880859375
0,906;-0.57952880859375
0,907;-0.57952880859375
0,908;-0.57952880859375
0,909;-0.5792236328125
0,91;-0.57952880859375
0,911;-0.57952880859375
0,912;-0.57952880859375
0,913;-0.5792236328125
0,914;-0.57952880859375
0,915;-0.57952880859375
0,916;-0.57952880859375
0,917;-0.5792236328125
0,918;-0.57952880859375
0,919;-0.57952880859375
0,92;-0.579833984375
0,921;-0.57952880859375
0,922;-0.57952880859375
0,923;-0.57952880859375
0,924;-0.57891845703125
0,925;-0.57891845703125
0,926;-0.5792236328125
0,927;-0.5792236328125
0,928;-0.57952880859375
0,929;-0.5792236328125
0,93;-0.5792236328125
0,931;-0.57861328125
0,932;-0.57952880859375
0,933;-0.57952880859375
0,934;-0.57861328125
0,935;-0.5792236328125
0,936;-0.57891845703125
0,937;-0.579833984375
0,938;-0.5792236328125
0,939;-0.5792236328125
0,94;-0.579833984375
0,941;-0.57952880859375
0,942;-0.579833984375
0,943;-0.57952880859375
0,944;-0.57952880859375
0,945;-0.5792236328125
0,946;-0.5792236328125
0,947;-0.579833984375
0,948;-0.57861328125
0,949;-0.57952880859375
0,95;-0.5792236328125
0,951;-0.57891845703125
0,952;-0.579833984375
0,953;-0.57952880859375
0,954;-0.5792236328125
0,955;-0.57952880859375
0,956;-0.5792236328125
0,957;-0.5792236328125
0,958;-0.57952880859375
0,959;-0.57952880859375
0,96;-0.57952880859375
0,961;-0.57952880859375
0,962;-0.57952880859375
0,963;-0.5792236328125
0,964;-0.57891845703125
0,965;-0.5792236328125
0,966;-0.5792236328125
0,967;-0.5792236328125
0,968;-0.579833984375
0,969;-0.57891845703125
0,97;-0.57952880859375
0,971;-0.57952880859375
0,972;-0.57952880859375
0,973;-0.5792236328125
0,974;-0.5792236328125
0,975;-0.57952880859375
0,976;-0.579833984375
0,977;-0.579833984375
0,978;-0.579833984375
0,979;-0.57952880859375
0,98;-0.57952880859375
0,981;-0.57952880859375
0,982;-0.5792236328125
0,983;-0.5792236328125
0,984;-0.57952880859375
0,985;-0.57891845703125
0,986;-0.579833984375
0,987;-0.57952880859375
0,988;-0.57952880859375
0,989;-0.5792236328125
0,99;-0.57952880859375
0,991;-0.57952880859375
0,992;-0.579833984375
0,993;-0.57952880859375
0,994;-0.5792236328125
0,995;-0.57952880859375
0,996;-0.57952880859375
0,997;-0.57952880859375
0,998;-0.5792236328125
0,999;-0.57952880859375
1;-0.57952880859375
1,001;-0.57952880859375
1,002;-0.57952880859375
1,003;-0.57891845703125
1,004;-0.5792236328125
1,005;-0.5792236328125
1,006;-0.57952880859375
1,007;-0.57891845703125
1,008;-0.57952880859375
1,009;-0.57891845703125
1,01;-0.5792236328125
1,011;-0.57952880859375
1,012;-0.57952880859375
1,013;-0.57952880859375
1,014;-0.57952880859375
1,015;-0.57952880859375
1,016;-0.57952880859375
1,017;-0.57952880859375
1,018;-0.5792236328125
1,019;-0.57952880859375
1,02;-0.57891845703125
1,021;-0.5792236328125
1,022;-0.5792236328125
1,023;-0.57952880859375
1,024;-0.57952880859375
1,025;-0.5792236328125
1,026;-0.57952880859375
1,027;-0.579833984375
1,028;-0.5792236328125
1,029;-0.57952880859375
1,03;-0.57861328125
1,031;-0.57952880859375
1,032;-0.57952880859375
1,033;-0.5792236328125
1,034;-0.5792236328125
1,035;-0.57952880859375
1,036;-0.57952880859375
1,037;-0.57952880859375
1,038;-0.57891845703125
1,039;-0.57952880859375
1,04;-0.579833984375
1,041;-0.5792236328125
1,042;-0.5792236328125
1,043;-0.57891845703125
1,044;-0.5792236328125
1,045;-0.579833984375
1,046;-0.5792236328125
1,047;-0.579833984375
1,048;-0.5792236328125
1,049;-0.5792236328125
1,05;-0.579833984375
1,051;-0.57952880859375
1,052;-0.57952880859375
1,053;-0.57952880859375
1,054;-0.5792236328125
1,055;-0.57952880859375
1,056;-0.57952880859375
1,057;-0.5792236328125
1,058;-0.5792236328125
1,059;-0.5792236328125
1,06;-0.58013916015625
1,061;-0.57952880859375
1,062;-0.57891845703125
1,063;-0.57952880859375
1,064;-0.57891845703125
1,065;-0.57861328125
1,066;-0.5792236328125
1,067;-0.5792236328125
1,068;-0.57952880859375
1,069;-0.57952880859375
1,07;-0.5792236328125
1,071;-0.57952880859375
1,072;-0.57952880859375
1,073;-0.5792236328125
1,074;-0.579833984375
1,075;-0.5792236328125
1,076;-0.57952880859375
1,077;-0.57952880859375
1,078;-0.579833984375
1,079;-0.57952880859375
1,08;-0.57952880859375
1,081;-0.57952880859375
1,082;-0.57952880859375
1,083;-0.5792236328125
1,084;-0.57952880859375
1,085;-0.57952880859375
1,086;-0.579833984375
1,087;-0.5792236328125
1,088;-0.5792236328125
1,089;-0.57952880859375
1,09;-0.57952880859375
1,091;-0.579833984375
1,092;-0.57952880859375
1,093;-0.5792236328125
1,094;-0.5792236328125
1,095;-0.5792236328125
1,096;-0.57891845703125
1,097;-0.5792236328125
1,098;-0.5792236328125
1,099;-0.5792236328125
1,1;-0.57952880859375
1,101;-0.57952880859375
1,102;-0.57891845703125
1,103;-0.57952880859375
1,104;-0.57952880859375
1,105;-0.57952880859375
1,106;-0.58013916015625
1,107;-0.57952880859375
1,108;-0.579833984375
1,109;-0.57952880859375
1,11;-0.57952880859375
1,111;-0.5792236328125
1,112;-0.579833984375
1,113;-0.57952880859375
1,114;-0.579833984375
1,115;-0.57952880859375
1,116;-0.5792236328125
1,117;-0.5792236328125
1,118;-0.57952880859375
1,119;-0.5792236328125
1,12;-0.58013916015625
1,121;-0.5792236328125
1,122;-0.57861328125
1,123;-0.57891845703125
1,124;-0.57952880859375
1,125;-0.57952880859375
1,126;-0.57891845703125
1,127;-0.5792236328125
1,128;-0.5792236328125
1,129;-0.579833984375
1,13;-0.57952880859375
1,131;-0.57952880859375
1,132;-0.5792236328125
1,133;-0.57891845703125
1,134;-0.57952880859375
1,135;-0.57952880859375
1,136;-0.57952880859375
1,137;-0.57952880859375
1,138;-0.57861328125
1,139;-0.57952880859375
1,14;-0.5792236328125
1,141;-0.57952880859375
1,142;-0.57952880859375
1,143;-0.58013916015625
1,144;-0.5792236328125
1,145;-0.57891845703125
1,146;-0.57861328125
1,147;-0.5792236328125
1,148;-0.57952880859375
1,149;-0.579833984375
1,15;-0.57952880859375
1,151;-0.57952880859375
1,152;-0.579833984375
1,153;-0.57952880859375
1,154;-0.579833984375
1,155;-0.57891845703125
1,156;-0.5792236328125
1,157;-0.57952880859375
1,158;-0.57952880859375
1,159;-0.57861328125
1,16;-0.5792236328125
1,161;-0.57952880859375
1,162;-0.5792236328125
1,163;-0.5792236328125
1,164;-0.57952880859375
1,165;-0.5792236328125
1,166;-0.57952880859375
1,167;-0.5792236328125
1,168;-0.57952880859375
1,169;-0.5792236328125
1,17;-0.57952880859375
1,171;-0.5792236328125
1,172;-0.579833984375
1,173;-0.57952880859375
1,174;-0.5792236328125
1,175;-0.57952880859375
1,176;-0.57952880859375
1,177;-0.57891845703125
1,178;-0.57952880859375
1,179;-0.5792236328125
1,18;-0.57952880859375
1,181;-0.57952880859375
1,182;-0.58013916015625
1,183;-0.579833984375
1,184;-0.57952880859375
1,185;-0.5792236328125
1,186;-0.57891845703125
1,187;-0.5792236328125
1,188;-0.5792236328125
1,189;-0.5792236328125
1,19;-0.57891845703125
1,191;-0.57952880859375
1,192;-0.57952880859375
1,193;-0.57952880859375
1,194;-0.5792236328125
1,195;-0.57952880859375
1,196;-0.5792236328125
1,197;-0.5792236328125
1,198;-0.57952880859375
1,199;-0.57952880859375
1,2;-0.57952880859375
1,201;-0.5792236328125
1,202;-0.57952880859375
1,203;-0.5792236328125
1,204;-0.579833984375
1,205;-0.57891845703125
1,206;-0.5792236328125
1,207;-0.57952880859375
1,208;-0.579833984375
1,209;-0.57952880859375
1,21;-0.5792236328125
1,211;-0.5792236328125
1,212;-0.57952880859375
1,213;-0.57952880859375
1,214;-0.57891845703125
1,215;-0.579833984375
1,216;-0.5792236328125
1,217;-0.5792236328125
1,218;-0.579833984375
1,219;-0.5792236328125
1,22;-0.5792236328125
1,221;-0.57952880859375
1,222;-0.5792236328125
1,223;-0.58013916015625
1,224;-0.579833984375
1,225;-0.57952880859375
1,226;-0.5792236328125
1,227;-0.5792236328125
1,228;-0.57952880859375
1,229;-0.57952880859375
1,23;-0.57952880859375
1,231;-0.57952880859375
1,232;-0.5792236328125
1,233;-0.57952880859375
1,234;-0.58013916015625
1,235;-0.57952880859375
1,236;-0.579833984375
1,237;-0.5792236328125
1,238;-0.57952880859375
1,239;-0.579833984375
1,24;-0.579833984375
1,241;-0.57891845703125
1,242;-0.57891845703125
1,243;-0.57891845703125
1,244;-0.57952880859375
1,245;-0.5792236328125
1,246;-0.5792236328125
1,247;-0.5792236328125
1,248;-0.57952880859375
1,249;-0.5792236328125
1,25;-0.57952880859375
1,251;-0.57952880859375
1,252;-0.57952880859375
1,253;-0.579833984375
1,254;-0.579833984375
1,255;-0.57952880859375
1,256;-0.57952880859375
1,257;-0.57952880859375
1,258;-0.57952880859375
1,259;-0.57952880859375
1,26;-0.579833984375
1,261;-0.57861328125
1,262;-0.579833984375
1,263;-0.57952880859375
1,264;-0.57952880859375
1,265;-0.5792236328125
1,266;-0.5792236328125
1,267;-0.57952880859375
1,268;-0.57952880859375
1,269;-0.579833984375
1,27;-0.57952880859375
1,271;-0.57952880859375
1,272;-0.57952880859375
1,273;-0.57952880859375
1,274;-0.579833984375
1,275;-0.5792236328125
1,276;-0.5792236328125
1,277;-0.57952880859375
1,278;-0.5792236328125
1,279;-0.57861328125
1,28;-0.57952880859375
1,281;-0.5792236328125
1,282;-0.57952880859375
1,283;-0.5792236328125
1,284;-0.57952880859375
1,285;-0.579833984375
1,286;-0.5792236328125
1,287;-0.57891845703125
1,288;-0.57952880859375
1,289;-0.58013916015625
1,29;-0.5792236328125
1,291;-0.5792236328125
1,292;-0.57952880859375
1,293;-0.5792236328125
1,294;-0.57952880859375
1,295;-0.57952880859375
1,296;-0.57952880859375
1,297;-0.57952880859375
1,298;-0.57952880859375
1,299;-0.5792236328125
1,3;-0.57952880859375
1,301;-0.57891845703125
1,302;-0.5792236328125
1,303;-0.57952880859375
1,304;-0.5792236328125
1,305;-0.57952880859375
1,306;-0.57952880859375
1,307;-0.5792236328125
1,308;-0.58013916015625
1,309;-0.5792236328125
1,31;-0.579833984375
1,311;-0.58013916015625
1,312;-0.57952880859375
1,313;-0.579833984375
1,314;-0.579833984375
1,315;-0.57952880859375
1,316;-0.57952880859375
1,317;-0.57891845703125
1,318;-0.57952880859375
1,319;-0.57861328125
1,32;-0.57952880859375
1,321;-0.57952880859375
1,322;-0.57891845703125
1,323;-0.5792236328125
1,324;-0.579833984375
1,325;-0.57952880859375
1,326;-0.5792236328125
1,327;-0.57861328125
1,328;-0.57952880859375
1,329;-0.57952880859375
1,33;-0.579833984375
1,331;-0.579833984375
1,332;-0.579833984375
1,333;-0.57952880859375
1,334;-0.57952880859375
1,335;-0.57952880859375
1,336;-0.57952880859375
1,337;-0.57952880859375
1,338;-0.57952880859375
1,339;-0.58013916015625
1,34;-0.58013916015625
1,341;-0.579833984375
1,342;-0.579833984375
1,343;-0.5792236328125
1,344;-0.5792236328125
1,345;-0.579833984375
1,346;-0.5792236328125
1,347;-0.57952880859375
1,348;-0.57952880859375
1,349;-0.58013916015625
1,35;-0.5792236328125
1,351;-0.579833984375
1,352;-0.57952880859375
1,353;-0.57952880859375
1,354;-0.5792236328125
1,355;-0.57952880859375
1,356;-0.5792236328125
1,357;-0.5792236328125
1,358;-0.57952880859375
1,359;-0.57952880859375
1,36;-0.57952880859375
1,361;-0.57952880859375
1,362;-0.57952880859375
1,363;-0.5792236328125
1,364;-0.579833984375
1,365;-0.57952880859375
1,366;-0.5792236328125
1,367;-0.5792236328125
1,368;-0.5792236328125
1,369;-0.57952880859375
1,37;-0.57891845703125
1,371;-0.57952880859375
1,372;-0.5792236328125
1,373;-0.57952880859375
1,374;-0.579833984375
1,375;-0.5792236328125
1,376;-0.5792236328125
1,377;-0.5792236328125
1,378;-0.57952880859375
1,379;-0.57952880859375
1,38;-0.58013916015625
1,381;-0.579833984375
1,382;-0.5792236328125
1,383;-0.57952880859375
1,384;-0.579833984375
1,385;-0.57952880859375
1,386;-0.5792236328125
1,387;-0.57952880859375
1,388;-0.579833984375
1,389;-0.57952880859375
1,39;-0.57952880859375
1,391;-0.5792236328125
1,392;-0.5792236328125
1,393;-0.5792236328125
1,394;-0.57891845703125
1,395;-0.579833984375
1,396;-0.5792236328125
1,397;-0.57891845703125
1,398;-0.5792236328125
1,399;-0.5792236328125
1,4;-0.5792236328125
1,401;-0.57952880859375
1,402;-0.57952880859375
1,403;-0.579833984375
1,404;-0.57952880859375
1,405;-0.57952880859375
1,406;-0.579833984375
1,407;-0.57891845703125
1,408;-0.579833984375
1,409;-0.57952880859375
1,41;-0.5792236328125
1,411;-0.57952880859375
1,412;-0.57952880859375
1,413;-0.57952880859375
1,414;-0.57952880859375
1,415;-0.579833984375
1,416;-0.5792236328125
1,417;-0.5792236328125
1,418;-0.57952880859375
1,419;-0.5792236328125
1,42;-0.579833984375
1,421;-0.579833984375
1,422;-0.57891845703125
1,423;-0.57891845703125
1,424;-0.57891845703125
1,425;-0.5792236328125
1,426;-0.57861328125
1,427;-0.5792236328125
1,428;-0.57891845703125
1,429;-0.5792236328125
1,43;-0.5792236328125
1,431;-0.57952880859375
1,432;-0.57891845703125
1,433;-0.57952880859375
1,434;-0.57952880859375
1,435;-0.5792236328125
1,436;-0.5792236328125
1,437;-0.5792236328125
1,438;-0.579833984375
1,439;-0.5792236328125
1,44;-0.57891845703125
1,441;-0.57952880859375
1,442;-0.57952880859375
1,443;-0.57861328125
1,444;-0.5792236328125
1,445;-0.579833984375
1,446;-0.57891845703125
1,447;-0.57952880859375
1,448;-0.57952880859375
1,449;-0.5792236328125
1,45;-0.5792236328125
1,451;-0.57952880859375
1,452;-0.5792236328125
1,453;-0.57952880859375
1,454;-0.5792236328125
1,455;-0.57891845703125
1,456;-0.5792236328125
1,457;-0.5792236328125
1,458;-0.5792236328125
1,459;-0.5792236328125
1,46;-0.57952880859375
1,461;-0.57952880859375
1,462;-0.57891845703125
1,463;-0.57891845703125
1,464;-0.5792236328125
1,465;-0.57952880859375
1,466;-0.5792236328125
1,467;-0.57891845703125
1,468;-0.5792236328125
1,469;-0.5792236328125
1,47;-0.5792236328125
1,471;-0.5792236328125
1,472;-0.579833984375
1,473;-0.5792236328125
1,474;-0.5792236328125
1,475;-0.57952880859375
1,476;-0.57891845703125
1,477;-0.579833984375
1,478;-0.5792236328125
1,479;-0.5792236328125
1,48;-0.5792236328125
1,481;-0.5792236328125
1,482;-0.579833984375
1,483;-0.57861328125
1,484;-0.5792236328125
1,485;-0.5792236328125
1,486;-0.5792236328125
1,487;-0.579833984375
1,488;-0.57952880859375
1,489;-0.579833984375
1,49;-0.5792236328125
1,491;-0.57952880859375
1,492;-0.57952880859375
1,493;-0.579833984375
1,494;-0.5792236328125
1,495;-0.5792236328125
1,496;-0.57952880859375
1,497;-0.5792236328125
1,498;-0.57952880859375
1,499;-0.57952880859375
1,5;-0.5792236328125
1,501;-0.57952880859375
1,502;-0.5792236328125
1,503;-0.579833984375
1,504;-0.5792236328125
1,505;-0.5792236328125
1,506;-0.5792236328125
1,507;-0.57952880859375
1,508;-0.57952880859375
1,509;-0.57952880859375
1,51;-0.57952880859375
1,511;-0.57952880859375
1,512;-0.57952880859375
1,513;-0.57952880859375
1,514;-0.57952880859375
1,515;-0.5792236328125
1,516;-0.5792236328125
1,517;-0.5792236328125
1,518;-0.5792236328125
1,519;-0.579833984375
1,52;-0.5792236328125
1,521;-0.57952880859375
1,522;-0.5792236328125
1,523;-0.5792236328125
1,524;-0.5792236328125
1,525;-0.5792236328125
1,526;-0.5792236328125
1,527;-0.57952880859375
1,528;-0.5792236328125
1,529;-0.57952880859375
1,53;-0.57952880859375
1,531;-0.5792236328125
1,532;-0.579833984375
1,533;-0.5792236328125
1,534;-0.57952880859375
1,535;-0.57891845703125
1,536;-0.5792236328125
1,537;-0.5792236328125
1,538;-0.57952880859375
1,539;-0.5792236328125
1,54;-0.5792236328125
1,541;-0.57952880859375
1,542;-0.57891845703125
1,543;-0.57891845703125
1,544;-0.57952880859375
1,545;-0.5792236328125
1,546;-0.57952880859375
1,547;-0.57952880859375
1,548;-0.57952880859375
1,549;-0.5792236328125
1,55;-0.5792236328125
1,551;-0.57952880859375
1,552;-0.579833984375
1,553;-0.579833984375
1,554;-0.5792236328125
1,555;-0.5792236328125
1,556;-0.57952880859375
1,557;-0.5792236328125
1,558;-0.57952880859375
1,559;-0.579833984375
1,56;-0.57891845703125
1,561;-0.57952880859375
1,562;-0.5792236328125
1,563;-0.57891845703125
1,564;-0.5792236328125
1,565;-0.57952880859375
1,566;-0.5792236328125
1,567;-0.5792236328125
1,568;-0.5792236328125
1,569;-0.57952880859375
1,57;-0.57952880859375
1,571;-0.57952880859375
1,572;-0.5792236328125
1,573;-0.57952880859375
1,574;-0.57891845703125
1,575;-0.579833984375
1,576;-0.57952880859375
1,577;-0.57952880859375
1,578;-0.5792236328125
1,579;-0.57952880859375
1,58;-0.57952880859375
1,581;-0.5792236328125
1,582;-0.579833984375
1,583;-0.5792236328125
1,584;-0.579833984375
1,585;-0.5792236328125
1,586;-0.5792236328125
1,587;-0.57952880859375
1,588;-0.579833984375
1,589;-0.5792236328125
1,59;-0.5792236328125
1,591;-0.57952880859375
1,592;-0.57952880859375
1,593;-0.57952880859375
1,594;-0.57952880859375
1,595;-0.57952880859375
1,596;-0.579833984375
1,597;-0.579833984375
1,598;-0.5792236328125
1,599;-0.5792236328125
1,6;-0.57891845703125
1,601;-0.5792236328125
1,602;-0.57952880859375
1,603;-0.57952880859375
1,604;-0.57952880859375
1,605;-0.5792236328125
1,606;-0.579833984375
1,607;-0.5792236328125
1,608;-0.57952880859375
1,609;-0.57952880859375
1,61;-0.57952880859375
1,611;-0.57952880859375
1,612;-0.57952880859375
1,613;-0.5792236328125
1,614;-0.57952880859375
1,615;-0.57952880859375
1,616;-0.57952880859375
1,617;-0.57952880859375
1,618;-0.57891845703125
1,619;-0.57952880859375
1,62;-0.5792236328125
1,621;-0.5792236328125
1,622;-0.57952880859375
1,623;-0.57952880859375
1,624;-0.5792236328125
1,625;-0.5792236328125
1,626;-0.579833984375
1,627;-0.5792236328125
1,628;-0.57952880859375
1,629;-0.57891845703125
1,63;-0.5792236328125
1,631;-0.5792236328125
1,632;-0.57952880859375
1,633;-0.5792236328125
1,634;-0.5792236328125
1,635;-0.57952880859375
1,636;-0.57952880859375
1,637;-0.57952880859375
1,638;-0.57891845703125
1,639;-0.57952880859375
1,64;-0.579833984375
1,641;-0.5792236328125
1,642;-0.5792236328125
1,643;-0.57952880859375
1,644;-0.5792236328125
1,645;-0.57952880859375
1,646;-0.57861328125
1,647;-0.57891845703125
1,648;-0.5792236328125
1,649;-0.57952880859375
1,65;-0.5792236328125
1,651;-0.5792236328125
1,652;-0.579833984375
1,653;-0.57952880859375
1,654;-0.5792236328125
1,655;-0.5792236328125
1,656;-0.579833984375
1,657;-0.57952880859375
1,658;-0.5792236328125
1,659;-0.5792236328125
1,66;-0.57891845703125
1,661;-0.57952880859375
1,662;-0.57891845703125
1,663;-0.5792236328125
1,664;-0.5792236328125
1,665;-0.57952880859375
1,666;-0.57891845703125
1,667;-0.5792236328125
1,668;-0.57891845703125
1,669;-0.57891845703125
1,67;-0.57891845703125
1,671;-0.5792236328125
1,672;-0.5792236328125
1,673;-0.5792236328125
1,674;-0.57952880859375
1,675;-0.57952880859375
1,676;-0.57952880859375
1,677;-0.57952880859375
1,678;-0.57952880859375
1,679;-0.5792236328125
1,68;-0.5792236328125
1,681;-0.5792236328125
1,682;-0.5792236328125
1,683;-0.5792236328125
1,684;-0.57952880859375
1,685;-0.57952880859375
1,686;-0.57952880859375
1,687;-0.5792236328125
1,688;-0.57952880859375
1,689;-0.57952880859375
1,69;-0.5792236328125
1,691;-0.579833984375
1,692;-0.579833984375
1,693;-0.57952880859375
1,694;-0.57952880859375
1,695;-0.5792236328125
1,696;-0.57952880859375
1,697;-0.57952880859375
1,698;-0.5792236328125
1,699;-0.57952880859375
1,7;-0.57952880859375
1,701;-0.57952880859375
1,702;-0.5792236328125
1,703;-0.579833984375
1,704;-0.57891845703125
1,705;-0.57952880859375
1,706;-0.5792236328125
1,707;-0.5792236328125
1,708;-0.5792236328125
1,709;-0.5792236328125
1,71;-0.57952880859375
1,711;-0.579833984375
1,712;-0.5792236328125
1,713;-0.57952880859375
1,714;-0.57891845703125
1,715;-0.57952880859375
1,716;-0.579833984375
1,717;-0.57891845703125
1,718;-0.5792236328125
1,719;-0.5792236328125
1,72;-0.5792236328125
1,721;-0.57952880859375
1,722;-0.57891845703125
1,723;-0.57952880859375
1,724;-0.57952880859375
1,725;-0.57952880859375
1,726;-0.579833984375
1,727;-0.5792236328125
1,728;-0.5792236328125
1,729;-0.5792236328125
1,73;-0.579833984375
1,731;-0.579833984375
1,732;-0.5792236328125
1,733;-0.57891845703125
1,734;-0.57891845703125
1,735;-0.57891845703125
1,736;-0.57952880859375
1,737;-0.579833984375
1,738;-0.57952880859375
1,739;-0.579833984375
1,74;-0.5792236328125
1,741;-0.579833984375
1,742;-0.579833984375
1,743;-0.57952880859375
1,744;-0.57952880859375
1,745;-0.57891845703125
1,746;-0.5792236328125
1,747;-0.5792236328125
1,748;-0.57952880859375
1,749;-0.5792236328125
1,75;-0.5792236328125
1,751;-0.57891845703125
1,752;-0.57952880859375
1,753;-0.57952880859375
1,754;-0.57861328125
1,755;-0.5792236328125
1,756;-0.5792236328125
1,757;-0.57891845703125
1,758;-0.57891845703125
1,759;-0.5792236328125
1,76;-0.57952880859375
1,761;-0.57952880859375
1,762;-0.579833984375
1,763;-0.5792236328125
1,764;-0.5792236328125
1,765;-0.579833984375
1,766;-0.57952880859375
1,767;-0.5792236328125
1,768;-0.57952880859375
1,769;-0.57952880859375
1,77;-0.57952880859375
1,771;-0.57952880859375
1,772;-0.57891845703125
1,773;-0.5792236328125
1,774;-0.5792236328125
1,775;-0.579833984375
1,776;-0.5792236328125
1,777;-0.58013916015625
1,778;-0.5792236328125
1,779;-0.5792236328125
1,78;-0.57952880859375
1,781;-0.5792236328125
1,782;-0.57891845703125
1,783;-0.57952880859375
1,784;-0.57891845703125
1,785;-0.58013916015625
1,786;-0.57891845703125
1,787;-0.579833984375
1,788;-0.5792236328125
1,789;-0.57952880859375
1,79;-0.579833984375
1,791;-0.57952880859375
1,792;-0.579833984375
1,793;-0.57952880859375
1,794;-0.57952880859375
1,795;-0.57952880859375
1,796;-0.579833984375
1,797;-0.57952880859375
1,798;-0.5792236328125
1,799;-0.5792236328125
1,8;-0.5792236328125
1,801;-0.57952880859375
1,802;-0.5792236328125
1,803;-0.579833984375
1,804;-0.5792236328125
1,805;-0.57952880859375
1,806;-0.57952880859375
1,807;-0.5792236328125
1,808;-0.57952880859375
1,809;-0.5792236328125
1,81;-0.5792236328125
1,811;-0.57891845703125
1,812;-0.57891845703125
1,813;-0.5792236328125
1,814;-0.5792236328125
1,815;-0.5792236328125
1,816;-0.5792236328125
1,817;-0.5792236328125
1,818;-0.579833984375
1,819;-0.57952880859375
1,82;-0.5792236328125
1,821;-0.57952880859375
1,822;-0.57952880859375
1,823;-0.57891845703125
1,824;-0.57952880859375
1,825;-0.5792236328125
1,826;-0.5792236328125
1,827;-0.57952880859375
1,828;-0.57952880859375
1,829;-0.5792236328125
1,83;-0.579833984375
1,831;-0.57952880859375
1,832;-0.579833984375
1,833;-0.57952880859375
1,834;-0.57952880859375
1,835;-0.5792236328125
1,836;-0.5792236328125
1,837;-0.5792236328125
1,838;-0.57952880859375
1,839;-0.5792236328125
1,84;-0.579833984375
1,841;-0.57891845703125
1,842;-0.5792236328125
1,843;-0.5792236328125
1,844;-0.579833984375
1,845;-0.5792236328125
1,846;-0.5792236328125
1,847;-0.5792236328125
1,848;-0.57952880859375
1,849;-0.5792236328125
1,85;-0.57891845703125
1,851;-0.57952880859375
1,852;-0.57952880859375
1,853;-0.57891845703125
1,854;-0.5792236328125
1,855;-0.57952880859375
1,856;-0.57952880859375
1,857;-0.5792236328125
1,858;-0.5792236328125
1,859;-0.579833984375
1,86;-0.579833984375
1,861;-0.57952880859375
1,862;-0.5792236328125
1,863;-0.58013916015625
1,864;-0.579833984375
1,865;-0.5792236328125
1,866;-0.57952880859375
1,867;-0.57952880859375
1,868;-0.5792236328125
1,869;-0.57952880859375
1,87;-0.5792236328125
1,871;-0.57952880859375
1,872;-0.57952880859375
1,873;-0.5792236328125
1,874;-0.57952880859375
1,875;-0.57952880859375
1,876;-0.5792236328125
1,877;-0.5792236328125
1,878;-0.579833984375
1,879;-0.57952880859375
1,88;-0.57952880859375
1,881;-0.57952880859375
1,882;-0.579833984375
1,883;-0.5792236328125
1,884;-0.5792236328125
1,885;-0.57952880859375
1,886;-0.5792236328125
1,887;-0.5792236328125
1,888;-0.579833984375
1,889;-0.579833984375
1,89;-0.57952880859375
1,891;-0.57952880859375
1,892;-0.58013916015625
1,893;-0.5792236328125
1,894;-0.5792236328125
1,895;-0.5792236328125
1,896;-0.57952880859375
1,897;-0.5792236328125
1,898;-0.5792236328125
1,899;-0.5792236328125
1,9;-0.57952880859375
1,901;-0.57952880859375
1,902;-0.579833984375
1,903;-0.5792236328125
1,904;-0.57952880859375
1,905;-0.57891845703125
1,906;-0.5792236328125
1,907;-0.5792236328125
1,908;-0.5792236328125
1,909;-0.5792236328125
1,91;-0.5792236328125
1,911;-0.5792236328125
1,912;-0.5792236328125
1,913;-0.5792236328125
1,914;-0.5792236328125
1,915;-0.57952880859375
1,916;-0.5792236328125
1,917;-0.57952880859375
1,918;-0.57952880859375
1,919;-0.57952880859375
1,92;-0.5792236328125
1,921;-0.5792236328125
1,922;-0.57952880859375
1,923;-0.57952880859375
1,924;-0.5792236328125
1,925;-0.57952880859375
1,926;-0.57891845703125
1,927;-0.5792236328125
1,928;-0.57891845703125
1,929;-0.57952880859375
1,93;-0.57952880859375
1,931;-0.57952880859375
1,932;-0.57952880859375
1,933;-0.5792236328125
1,934;-0.57952880859375
1,935;-0.5792236328125
1,936;-0.5792236328125
1,937;-0.5792236328125
1,938;-0.5792236328125
1,939;-0.5792236328125
1,94;-0.5792236328125
1,941;-0.5792236328125
1,942;-0.57891845703125
1,943;-0.579833984375
1,944;-0.57952880859375
1,945;-0.5792236328125
1,946;-0.579833984375
1,947;-0.57952880859375
1,948;-0.579833984375
1,949;-0.5792236328125
1,95;-0.579833984375
1,951;-0.579833984375
1,952;-0.58013916015625
1,953;-0.57952880859375
1,954;-0.5792236328125
1,955;-0.57891845703125
1,956;-0.5792236328125
1,957;-0.57952880859375
1,958;-0.57952880859375
1,959;-0.5792236328125
1,96;-0.57952880859375
1,961;-0.57952880859375
1,962;-0.57952880859375
1,963;-0.57952880859375
1,964;-0.57952880859375
1,965;-0.579833984375
1,966;-0.57891845703125
1,967;-0.5792236328125
1,968;-0.579833984375
1,969;-0.5792236328125
1,97;-0.579833984375
1,971;-0.57952880859375
1,972;-0.57952880859375
1,973;-0.57891845703125
1,974;-0.57952880859375
1,975;-0.57891845703125
1,976;-0.579833984375
1,977;-0.57952880859375
1,978;-0.57952880859375
1,979;-0.5792236328125
1,98;-0.57891845703125
1,981;-0.5792236328125
1,982;-0.57952880859375
1,983;-0.579833984375
1,984;-0.57952880859375
1,985;-0.5792236328125
1,986;-0.5792236328125
1,987;-0.57891845703125
1,988;-0.57952880859375
1,989;-0.5792236328125
1,99;-0.57891845703125
1,991;-0.5792236328125
1,992;-0.57952880859375
1,993;-0.57891845703125
1,994;-0.57952880859375
1,995;-0.5792236328125
1,996;-0.57952880859375
1,997;-0.57952880859375
1,998;-0.5792236328125
1,999;-0.57952880859375
2;-0.57952880859375
2,001;-0.57952880859375
2,002;-0.58013916015625
2,003;-0.5792236328125
2,004;-0.5792236328125
2,005;-0.57952880859375
2,006;-0.57952880859375
2,007;-0.5792236328125
2,008;-0.57952880859375
2,009;-0.57952880859375
2,01;-0.5792236328125
2,011;-0.5792236328125
2,012;-0.57952880859375
2,013;-0.57952880859375
2,014;-0.57952880859375
2,015;-0.579833984375
2,016;-0.5792236328125
2,017;-0.57952880859375
2,018;-0.5792236328125
2,019;-0.57952880859375
2,02;-0.57952880859375
2,021;-0.5792236328125
2,022;-0.57891845703125
2,023;-0.57952880859375
2,024;-0.57952880859375
2,025;-0.57952880859375
2,026;-0.5792236328125
2,027;-0.5792236328125
2,028;-0.5792236328125
2,029;-0.57952880859375
2,03;-0.579833984375
2,031;-0.5792236328125
2,032;-0.57952880859375
2,033;-0.57952880859375
2,034;-0.5792236328125
2,035;-0.57952880859375
2,036;-0.57952880859375
2,037;-0.57952880859375
2,038;-0.5792236328125
2,039;-0.5792236328125
2,04;-0.57891845703125
2,041;-0.579833984375
2,042;-0.57952880859375
2,043;-0.58013916015625
2,044;-0.579833984375
2,045;-0.579833984375
2,046;-0.57952880859375
2,047;-0.5792236328125
2,048;-0.57861328125
2,049;-0.57952880859375
2,05;-0.5792236328125
2,051;-0.579833984375
2,052;-0.57952880859375
2,053;-0.57891845703125
2,054;-0.5792236328125
2,055;-0.57952880859375
2,056;-0.5792236328125
2,057;-0.57952880859375
2,058;-0.579833984375
2,059;-0.58013916015625
2,06;-0.57891845703125
2,061;-0.5792236328125
2,062;-0.57952880859375
2,063;-0.5792236328125
2,064;-0.58013916015625
2,065;-0.57891845703125
2,066;-0.57952880859375
2,067;-0.57891845703125
2,068;-0.57952880859375
2,069;-0.57952880859375
2,07;-0.57891845703125
2,071;-0.57952880859375
2,072;-0.57952880859375
2,073;-0.57891845703125
2,074;-0.5792236328125
2,075;-0.5792236328125
2,076;-0.57952880859375
2,077;-0.57952880859375
2,078;-0.5792236328125
2,079;-0.579833984375
2,08;-0.57891845703125
2,081;-0.57891845703125
2,082;-0.5792236328125
2,083;-0.57952880859375
2,084;-0.5792236328125
2,085;-0.57952880859375
2,086;-0.579833984375
2,087;-0.57891845703125
2,088;-0.57952880859375
2,089;-0.5792236328125
2,09;-0.57952880859375
2,091;-0.57952880859375
2,092;-0.57891845703125
2,093;-0.579833984375
2,094;-0.5792236328125
2,095;-0.5792236328125
2,096;-0.5792236328125
2,097;-0.57952880859375
2,098;-0.57952880859375
2,099;-0.579833984375
2,1;-0.57952880859375
2,101;-0.5792236328125
2,102;-0.5792236328125
2,103;-0.57952880859375
2,104;-0.5792236328125
2,105;-0.5792236328125
2,106;-0.57952880859375
2,107;-0.57952880859375
2,108;-0.57952880859375
2,109;-0.57952880859375
2,11;-0.579833984375
2,111;-0.5792236328125
2,112;-0.57952880859375
2,113;-0.5792236328125
2,114;-0.57952880859375
2,115;-0.5792236328125
2,116;-0.57952880859375
2,117;-0.5792236328125
2,118;-0.57952880859375
2,119;-0.57952880859375
2,12;-0.58013916015625
2,121;-0.5792236328125
2,122;-0.58013916015625
2,123;-0.57952880859375
2,124;-0.57952880859375
2,125;-0.57952880859375
2,126;-0.57952880859375
2,127;-0.5792236328125
2,128;-0.5792236328125
2,129;-0.5792236328125
2,13;-0.57952880859375
2,131;-0.57952880859375
2,132;-0.579833984375
2,133;-0.57952880859375
2,134;-0.57952880859375
2,135;-0.57952880859375
2,136;-0.57952880859375
2,137;-0.5792236328125
2,138;-0.57952880859375
2,139;-0.57952880859375
2,14;-0.579833984375
2,141;-0.57952880859375
2,142;-0.5792236328125
2,143;-0.57952880859375
2,144;-0.5792236328125
2,145;-0.57952880859375
2,146;-0.57891845703125
2,147;-0.5792236328125
2,148;-0.57952880859375
2,149;-0.5792236328125
2,15;-0.57952880859375
2,151;-0.57891845703125
2,152;-0.5792236328125
2,153;-0.57891845703125
2,154;-0.5792236328125
2,155;-0.57952880859375
2,156;-0.5792236328125
2,157;-0.579833984375
2,158;-0.57952880859375
2,159;-0.5792236328125
2,16;-0.579833984375
2,161;-0.57952880859375
2,162;-0.579833984375
2,163;-0.57952880859375
2,164;-0.57891845703125
2,165;-0.5792236328125
2,166;-0.579833984375
2,167;-0.57952880859375
2,168;-0.57952880859375
2,169;-0.57891845703125
2,17;-0.579833984375
2,171;-0.579833984375
2,172;-0.57891845703125
2,173;-0.57952880859375
2,174;-0.58013916015625
2,175;-0.57952880859375
2,176;-0.5792236328125
2,177;-0.579833984375
2,178;-0.57952880859375
2,179;-0.57952880859375
2,18;-0.57952880859375
2,181;-0.57891845703125
2,182;-0.57952880859375
2,183;-0.5792236328125
2,184;-0.57952880859375
2,185;-0.57952880859375
2,186;-0.5792236328125
2,187;-0.579833984375
2,188;-0.57952880859375
2,189;-0.57952880859375
2,19;-0.57952880859375
2,191;-0.57952880859375
2,192;-0.5792236328125
2,193;-0.579833984375
2,194;-0.579833984375
2,195;-0.58013916015625
2,196;-0.579833984375
2,197;-0.57952880859375
2,198;-0.57952880859375
2,199;-0.5792236328125
2,2;-0.579833984375
2,201;-0.5792236328125
2,202;-0.5792236328125
2,203;-0.5792236328125
2,204;-0.57952880859375
2,205;-0.579833984375
2,206;-0.57952880859375
2,207;-0.5792236328125
2,208;-0.5792236328125
2,209;-0.579833984375
2,21;-0.5792236328125
2,211;-0.57952880859375
2,212;-0.5792236328125
2,213;-0.57952880859375
2,214;-0.579833984375
2,215;-0.57952880859375
2,216;-0.5792236328125
2,217;-0.57952880859375
2,218;-0.57952880859375
2,219;-0.579833984375
2,22;-0.5792236328125
2,221;-0.57952880859375
2,222;-0.57891845703125
2,223;-0.57952880859375
2,224;-0.57891845703125
2,225;-0.5792236328125
2,226;-0.57952880859375
2,227;-0.57952880859375
2,228;-0.57952880859375
2,229;-0.57952880859375
2,23;-0.57952880859375
2,231;-0.579833984375
2,232;-0.57952880859375
2,233;-0.5792236328125
2,234;-0.579833984375
2,235;-0.57952880859375
2,236;-0.5792236328125
2,237;-0.57952880859375
2,238;-0.57952880859375
2,239;-0.57891845703125
2,24;-0.579833984375
2,241;-0.57952880859375
2,242;-0.5792236328125
2,243;-0.579833984375
2,244;-0.579833984375
2,245;-0.5792236328125
2,246;-0.57891845703125
2,247;-0.57952880859375
2,248;-0.5792236328125
2,249;-0.57891845703125
2,25;-0.579833984375
2,251;-0.57952880859375
2,252;-0.57891845703125
2,253;-0.5792236328125
2,254;-0.579833984375
2,255;-0.57891845703125
2,256;-0.57891845703125
2,257;-0.5792236328125
2,258;-0.5792236328125
2,259;-0.579833984375
2,26;-0.57952880859375
2,261;-0.5792236328125
2,262;-0.579833984375
2,263;-0.57891845703125
2,264;-0.57891845703125
2,265;-0.5792236328125
2,266;-0.5792236328125
2,267;-0.579833984375
2,268;-0.579833984375
2,269;-0.579833984375
2,27;-0.5792236328125
2,271;-0.57891845703125
2,272;-0.57952880859375
2,273;-0.5792236328125
2,274;-0.579833984375
2,275;-0.57952880859375
2,276;-0.57952880859375
2,277;-0.57891845703125
2,278;-0.579833984375
2,279;-0.57952880859375
2,28;-0.579833984375
2,281;-0.57891845703125
2,282;-0.58013916015625
2,283;-0.5792236328125
2,284;-0.57952880859375
2,285;-0.579833984375
2,286;-0.5792236328125
2,287;-0.5792236328125
2,288;-0.5792236328125
2,289;-0.5792236328125
2,29;-0.5792236328125
2,291;-0.5792236328125
2,292;-0.57952880859375
2,293;-0.5792236328125
2,294;-0.57952880859375
2,295;-0.5792236328125
2,296;-0.5792236328125
2,297;-0.57952880859375
2,298;-0.5792236328125
2,299;-0.5792236328125
2,3;-0.57891845703125
2,301;-0.5792236328125
2,302;-0.5792236328125
2,303;-0.57891845703125
2,304;-0.57952880859375
2,305;-0.579833984375
2,306;-0.57952880859375
2,307;-0.5792236328125
2,308;-0.57952880859375
2,309;-0.5792236328125
2,31;-0.57952880859375
2,311;-0.5792236328125
2,312;-0.57952880859375
2,313;-0.57952880859375
2,314;-0.579833984375
2,315;-0.5792236328125
2,316;-0.579833984375
2,317;-0.57952880859375
2,318;-0.57952880859375
2,319;-0.57952880859375
2,32;-0.579833984375
2,321;-0.579833984375
2,322;-0.57952880859375
2,323;-0.57952880859375
2,324;-0.57891845703125
2,325;-0.5792236328125
2,326;-0.5792236328125
2,327;-0.579833984375
2,328;-0.57952880859375
2,329;-0.57891845703125
2,33;-0.57952880859375
2,331;-0.57952880859375
2,332;-0.57952880859375
2,333;-0.579833984375
2,334;-0.57952880859375
2,335;-0.579833984375
2,336;-0.57952880859375
2,337;-0.57952880859375
2,338;-0.57952880859375
2,339;-0.5792236328125
2,34;-0.57891845703125
2,341;-0.5792236328125
2,342;-0.5792236328125
2,343;-0.57952880859375
2,344;-0.57952880859375
2,345;-0.579833984375
2,346;-0.57952880859375
2,347;-0.57891845703125
2,348;-0.5792236328125
2,349;-0.57891845703125
2,35;-0.57891845703125
2,351;-0.5792236328125
2,352;-0.579833984375
2,353;-0.579833984375
2,354;-0.5792236328125
2,355;-0.5792236328125
2,356;-0.5792236328125
2,357;-0.57952880859375
2,358;-0.57952880859375
2,359;-0.57952880859375
2,36;-0.57952880859375
2,361;-0.57891845703125
2,362;-0.5792236328125
2,363;-0.5792236328125
2,364;-0.57891845703125
2,365;-0.5792236328125
2,366;-0.579833984375
2,367;-0.57891845703125
2,368;-0.579833984375
2,369;-0.5792236328125
2,37;-0.579833984375
2,371;-0.5792236328125
2,372;-0.5792236328125
2,373;-0.5792236328125
2,374;-0.57952880859375
2,375;-0.579833984375
2,376;-0.58013916015625
2,377;-0.5792236328125
2,378;-0.57952880859375
2,379;-0.5792236328125
2,38;-0.579833984375
2,381;-0.58013916015625
2,382;-0.57952880859375
2,383;-0.57891845703125
2,384;-0.57952880859375
2,385;-0.5792236328125
2,386;-0.58013916015625
2,387;-0.579833984375
2,388;-0.5792236328125
2,389;-0.5792236328125
2,39;-0.5792236328125
2,391;-0.57952880859375
2,392;-0.57891845703125
2,393;-0.57952880859375
2,394;-0.58013916015625
2,395;-0.5792236328125
2,396;-0.57891845703125
2,397;-0.57952880859375
2,398;-0.57891845703125
2,399;-0.5792236328125
2,4;-0.57952880859375
2,401;-0.57952880859375
2,402;-0.57952880859375
2,403;-0.5792236328125
2,404;-0.58013916015625
2,405;-0.579833984375
2,406;-0.5792236328125
2,407;-0.57952880859375
2,408;-0.57891845703125
2,409;-0.5792236328125
2,41;-0.5792236328125
2,411;-0.5792236328125
2,412;-0.5792236328125
2,413;-0.57952880859375
2,414;-0.579833984375
2,415;-0.579833984375
2,416;-0.579833984375
2,417;-0.5792236328125
2,418;-0.57891845703125
2,419;-0.579833984375
2,42;-0.57891845703125
2,421;-0.57952880859375
2,422;-0.57952880859375
2,423;-0.5792236328125
2,424;-0.57952880859375
2,425;-0.579833984375
2,426;-0.57952880859375
2,427;-0.5792236328125
2,428;-0.57952880859375
2,429;-0.579833984375
2,43;-0.57952880859375
2,431;-0.57952880859375
2,432;-0.57952880859375
2,433;-0.5792236328125
2,434;-0.5792236328125
2,435;-0.579833984375
2,436;-0.57952880859375
2,437;-0.579833984375
2,438;-0.5792236328125
2,439;-0.579833984375
2,44;-0.5792236328125
2,441;-0.5792236328125
2,442;-0.579833984375
2,443;-0.57952880859375
2,444;-0.57952880859375
2,445;-0.57891845703125
2,446;-0.5792236328125
2,447;-0.57952880859375
2,448;-0.5792236328125
2,449;-0.579833984375
2,45;-0.5792236328125
2,451;-0.57891845703125
2,452;-0.5792236328125
2,453;-0.5792236328125
2,454;-0.57952880859375
2,455;-0.579833984375
2,456;-0.5792236328125
2,457;-0.58013916015625
2,458;-0.5792236328125
2,459;-0.5792236328125
2,46;-0.57952880859375
2,461;-0.5792236328125
2,462;-0.5792236328125
2,463;-0.57891845703125
2,464;-0.5792236328125
2,465;-0.57952880859375
2,466;-0.57952880859375
2,467;-0.57952880859375
2,468;-0.57952880859375
2,469;-0.5792236328125
2,47;-0.57952880859375
2,471;-0.579833984375
2,472;-0.57952880859375
2,473;-0.57952880859375
2,474;-0.57952880859375
2,475;-0.579833984375
2,476;-0.57952880859375
2,477;-0.5792236328125
2,478;-0.5792236328125
2,479;-0.5792236328125
2,48;-0.57952880859375
2,481;-0.57891845703125
2,482;-0.5792236328125
2,483;-0.5792236328125
2,484;-0.57952880859375
2,485;-0.57952880859375
2,486;-0.579833984375
2,487;-0.58013916015625
2,488;-0.5792236328125
2,489;-0.57952880859375
2,49;-0.57952880859375
2,491;-0.57891845703125
2,492;-0.5792236328125
2,493;-0.57952880859375
2,494;-0.57952880859375
2,495;-0.5792236328125
2,496;-0.5792236328125
2,497;-0.5792236328125
2,498;-0.5792236328125
2,499;-0.57891845703125
2,5;-0.57891845703125
2,501;-0.57891845703125
2,502;-0.5792236328125
2,503;-0.5792236328125
2,504;-0.58013916015625
2,505;-0.57952880859375
2,506;-0.57952880859375
2,507;-0.5792236328125
2,508;-0.5792236328125
2,509;-0.579833984375
2,51;-0.579833984375
2,511;-0.57952880859375
2,512;-0.57952880859375
2,513;-0.5792236328125
2,514;-0.57952880859375
2,515;-0.57952880859375
2,516;-0.5792236328125
2,517;-0.57952880859375
2,518;-0.57952880859375
2,519;-0.57952880859375
2,52;-0.57891845703125
2,521;-0.5792236328125
2,522;-0.5792236328125
2,523;-0.5792236328125
2,524;-0.57952880859375
2,525;-0.57952880859375
2,526;-0.579833984375
2,527;-0.5792236328125
2,528;-0.57952880859375
2,529;-0.58013916015625
2,53;-0.57952880859375
2,531;-0.57952880859375
2,532;-0.5792236328125
2,533;-0.58013916015625
2,534;-0.57952880859375
2,535;-0.57952880859375
2,536;-0.57952880859375
2,537;-0.57952880859375
2,538;-0.5792236328125
2,539;-0.5792236328125
2,54;-0.5792236328125
2,541;-0.57952880859375
2,542;-0.5792236328125
2,543;-0.5792236328125
2,544;-0.5792236328125
2,545;-0.57952880859375
2,546;-0.5792236328125
2,547;-0.57952880859375
2,548;-0.57952880859375
2,549;-0.57952880859375
2,55;-0.57952880859375
2,551;-0.5792236328125
2,552;-0.57952880859375
2,553;-0.579833984375
2,554;-0.57952880859375
2,555;-0.5792236328125
2,556;-0.579833984375
2,557;-0.58013916015625
2,558;-0.57952880859375
2,559;-0.5792236328125
2,56;-0.57952880859375
2,561;-0.57952880859375
2,562;-0.57952880859375
2,563;-0.57952880859375
2,564;-0.5792236328125
2,565;-0.579833984375
2,566;-0.5792236328125
2,567;-0.57952880859375
2,568;-0.5792236328125
2,569;-0.57952880859375
2,57;-0.57952880859375
2,571;-0.58013916015625
2,572;-0.5792236328125
2,573;-0.5792236328125
2,574;-0.5792236328125
2,575;-0.57952880859375
2,576;-0.5792236328125
2,577;-0.5792236328125
2,578;-0.579833984375
2,579;-0.5792236328125
2,58;-0.5792236328125
2,581;-0.579833984375
2,582;-0.57952880859375
2,583;-0.57952880859375
2,584;-0.57952880859375
2,585;-0.57952880859375
2,586;-0.5792236328125
2,587;-0.57952880859375
2,588;-0.57952880859375
2,589;-0.579833984375
2,59;-0.57952880859375
2,591;-0.5792236328125
2,592;-0.579833984375
2,593;-0.57952880859375
2,594;-0.5792236328125
2,595;-0.57952880859375
2,596;-0.579833984375
2,597;-0.57952880859375
2,598;-0.5792236328125
2,599;-0.57952880859375
2,6;-0.5792236328125
2,601;-0.57952880859375
2,602;-0.57952880859375
2,603;-0.5792236328125
2,604;-0.57952880859375
2,605;-0.579833984375
2,606;-0.57952880859375
2,607;-0.57952880859375
2,608;-0.5792236328125
2,609;-0.5792236328125
2,61;-0.5792236328125
2,611;-0.5792236328125
2,612;-0.579833984375
2,613;-0.57952880859375
2,614;-0.5792236328125
2,615;-0.5792236328125
2,616;-0.5792236328125
2,617;-0.57952880859375
2,618;-0.579833984375
2,619;-0.579833984375
2,62;-0.57952880859375
2,621;-0.57952880859375
2,622;-0.57952880859375
2,623;-0.58013916015625
2,624;-0.5792236328125
2,625;-0.57891845703125
2,626;-0.57952880859375
2,627;-0.5792236328125
2,628;-0.579833984375
2,629;-0.5792236328125
2,63;-0.579833984375
2,631;-0.57952880859375
2,632;-0.57891845703125
2,633;-0.57891845703125
2,634;-0.579833984375
2,635;-0.5792236328125
2,636;-0.5792236328125
2,637;-0.58013916015625
2,638;-0.5792236328125
2,639;-0.5792236328125
2,64;-0.5792236328125
2,641;-0.57952880859375
2,642;-0.57952880859375
2,643;-0.5792236328125
2,644;-0.57952880859375
2,645;-0.579833984375
2,646;-0.57952880859375
2,647;-0.57952880859375
2,648;-0.579833984375
2,649;-0.57952880859375
2,65;-0.5792236328125
2,651;-0.5792236328125
2,652;-0.5792236328125
2,653;-0.57952880859375
2,654;-0.579833984375
2,655;-0.57952880859375
2,656;-0.5792236328125
2,657;-0.579833984375
2,658;-0.579833984375
2,659;-0.5792236328125
2,66;-0.5792236328125
2,661;-0.57952880859375
2,662;-0.57952880859375
2,663;-0.5792236328125
2,664;-0.57891845703125
2,665;-0.57891845703125
2,666;-0.579833984375
2,667;-0.5792236328125
2,668;-0.57952880859375
2,669;-0.5792236328125
2,67;-0.57952880859375
2,671;-0.5792236328125
2,672;-0.579833984375
2,673;-0.57952880859375
2,674;-0.57891845703125
2,675;-0.5792236328125
2,676;-0.57952880859375
2,677;-0.579833984375
2,678;-0.57952880859375
2,679;-0.57952880859375
2,68;-0.57952880859375
2,681;-0.5792236328125
2,682;-0.57952880859375
2,683;-0.57952880859375
2,684;-0.5792236328125
2,685;-0.5792236328125
2,686;-0.57952880859375
2,687;-0.579833984375
2,688;-0.57952880859375
2,689;-0.5792236328125
2,69;-0.5792236328125
2,691;-0.57952880859375
2,692;-0.57952880859375
2,693;-0.5792236328125
2,694;-0.57952880859375
2,695;-0.57891845703125
2,696;-0.57952880859375
2,697;-0.5792236328125
2,698;-0.57952880859375
2,699;-0.57952880859375
2,7;-0.5792236328125
2,701;-0.5792236328125
2,702;-0.57952880859375
2,703;-0.5792236328125
2,704;-0.579833984375
2,705;-0.57952880859375
2,706;-0.57952880859375
2,707;-0.5792236328125
2,708;-0.57952880859375
2,709;-0.57952880859375
2,71;-0.5792236328125
2,711;-0.57891845703125
2,712;-0.5792236328125
2,713;-0.57952880859375
2,714;-0.5792236328125
2,715;-0.57952880859375
2,716;-0.5792236328125
2,717;-0.579833984375
2,718;-0.57891845703125
2,719;-0.57952880859375
2,72;-0.57952880859375
2,721;-0.57952880859375
2,722;-0.57952880859375
2,723;-0.57952880859375
2,724;-0.57952880859375
2,725;-0.5792236328125
2,726;-0.5792236328125
2,727;-0.5792236328125
2,728;-0.579833984375
2,729;-0.57952880859375
2,73;-0.5792236328125
2,731;-0.57952880859375
2,732;-0.5792236328125
2,733;-0.57952880859375
2,734;-0.579833984375
2,735;-0.5792236328125
2,736;-0.57952880859375
2,737;-0.579833984375
2,738;-0.57952880859375
2,739;-0.5792236328125
2,74;-0.5792236328125
2,741;-0.579833984375
2,742;-0.57952880859375
2,743;-0.57952880859375
2,744;-0.57952880859375
2,745;-0.5792236328125
2,746;-0.5792236328125
2,747;-0.579833984375
2,748;-0.579833984375
2,749;-0.5792236328125
2,75;-0.58013916015625
2,751;-0.579833984375
2,752;-0.5792236328125
2,753;-0.5792236328125
2,754;-0.579833984375
2,755;-0.57952880859375
2,756;-0.5792236328125
2,757;-0.57891845703125
2,758;-0.57952880859375
2,759;-0.579833984375
2,76;-0.5792236328125
2,761;-0.5792236328125
2,762;-0.57952880859375
2,763;-0.579833984375
2,764;-0.57952880859375
2,765;-0.5792236328125
2,766;-0.579833984375
2,767;-0.57952880859375
2,768;-0.57952880859375
2,769;-0.5792236328125
2,77;-0.57952880859375
2,771;-0.579833984375
2,772;-0.5792236328125
2,773;-0.5792236328125
2,774;-0.579833984375
2,775;-0.5792236328125
2,776;-0.57952880859375
2,777;-0.57952880859375
2,778;-0.5792236328125
2,779;-0.5792236328125
2,78;-0.579833984375
2,781;-0.57891845703125
2,782;-0.57952880859375
2,783;-0.57952880859375
2,784;-0.5792236328125
2,785;-0.57891845703125
2,786;-0.57952880859375
2,787;-0.5792236328125
2,788;-0.5792236328125
2,789;-0.58013916015625
2,79;-0.5792236328125
2,791;-0.579833984375
2,792;-0.57952880859375
2,793;-0.57952880859375
2,794;-0.5792236328125
2,795;-0.57952880859375
2,796;-0.5792236328125
2,797;-0.57952880859375
2,798;-0.57952880859375
2,799;-0.5792236328125
2,8;-0.579833984375
2,801;-0.57952880859375
2,802;-0.57952880859375
2,803;-0.57952880859375
2,804;-0.57952880859375
2,805;-0.57952880859375
2,806;-0.57952880859375
2,807;-0.5792236328125
2,808;-0.57891845703125
2,809;-0.579833984375
2,81;-0.57952880859375
2,811;-0.57952880859375
2,812;-0.57952880859375
2,813;-0.5792236328125
2,814;-0.5792236328125
2,815;-0.5792236328125
2,816;-0.57891845703125
2,817;-0.57952880859375
2,818;-0.57952880859375
2,819;-0.5792236328125
2,82;-0.5792236328125
2,821;-0.5792236328125
2,822;-0.57952880859375
2,823;-0.57891845703125
2,824;-0.57952880859375
2,825;-0.57952880859375
2,826;-0.57952880859375
2,827;-0.5792236328125
2,828;-0.57952880859375
2,829;-0.5792236328125
2,83;-0.5792236328125
2,831;-0.57891845703125
2,832;-0.5792236328125
2,833;-0.5792236328125
2,834;-0.57891845703125
2,835;-0.5792236328125
2,836;-0.5792236328125
2,837;-0.57891845703125
2,838;-0.5792236328125
2,839;-0.57952880859375
2,84;-0.579833984375
2,841;-0.5792236328125
2,842;-0.57952880859375
2,843;-0.57952880859375
2,844;-0.5792236328125
2,845;-0.579833984375
2,846;-0.57891845703125
2,847;-0.5792236328125
2,848;-0.57952880859375
2,849;-0.5792236328125
2,85;-0.57952880859375
2,851;-0.57952880859375
2,852;-0.579833984375
2,853;-0.579833984375
2,854;-0.57952880859375
2,855;-0.57952880859375
2,856;-0.57952880859375
2,857;-0.57952880859375
2,858;-0.57952880859375
2,859;-0.5792236328125
2,86;-0.5792236328125
2,861;-0.57952880859375
2,862;-0.57952880859375
2,863;-0.5792236328125
2,864;-0.57952880859375
2,865;-0.57891845703125
2,866;-0.57952880859375
2,867;-0.5792236328125
2,868;-0.5792236328125
2,869;-0.5792236328125
2,87;-0.5792236328125
2,871;-0.5792236328125
2,872;-0.5792236328125
2,873;-0.579833984375
2,874;-0.5792236328125
2,875;-0.57952880859375
2,876;-0.5792236328125
2,877;-0.5792236328125
2,878;-0.5792236328125
2,879;-0.579833984375
2,88;-0.57952880859375
2,881;-0.57952880859375
2,882;-0.5792236328125
2,883;-0.5792236328125
2,884;-0.5792236328125
2,885;-0.57952880859375
2,886;-0.579833984375
2,887;-0.57952880859375
2,888;-0.57952880859375
2,889;-0.57952880859375
2,89;-0.57952880859375
2,891;-0.57952880859375
2,892;-0.57952880859375
2,893;-0.5792236328125
2,894;-0.5792236328125
2,895;-0.57952880859375
2,896;-0.579833984375
2,897;-0.5792236328125
2,898;-0.5792236328125
2,899;-0.57952880859375
2,9;-0.57952880859375
2,901;-0.57952880859375
2,902;-0.57891845703125
2,903;-0.579833984375
2,904;-0.5792236328125
2,905;-0.5792236328125
2,906;-0.57891845703125
2,907;-0.5792236328125
2,908;-0.5792236328125
2,909;-0.57952880859375
2,91;-0.5792236328125
2,911;-0.5792236328125
2,912;-0.57952880859375
2,913;-0.579833984375
2,914;-0.57952880859375
2,915;-0.5792236328125
2,916;-0.579833984375
2,917;-0.57952880859375
2,918;-0.5792236328125
2,919;-0.5792236328125
2,92;-0.57952880859375
2,921;-0.57861328125
2,922;-0.57952880859375
2,923;-0.57891845703125
2,924;-0.57952880859375
2,925;-0.57891845703125
2,926;-0.57891845703125
2,927;-0.57891845703125
2,928;-0.57952880859375
2,929;-0.57952880859375
2,93;-0.5792236328125
2,931;-0.57952880859375
2,932;-0.57891845703125
2,933;-0.57952880859375
2,934;-0.57952880859375
2,935;-0.579833984375
2,936;-0.57891845703125
2,937;-0.5792236328125
2,938;-0.579833984375
2,939;-0.5792236328125
2,94;-0.5792236328125
2,941;-0.5792236328125
2,942;-0.5792236328125
2,943;-0.57952880859375
2,944;-0.579833984375
2,945;-0.5792236328125
2,946;-0.57952880859375
2,947;-0.579833984375
2,948;-0.579833984375
2,949;-0.57952880859375
2,95;-0.5792236328125
2,951;-0.579833984375
2,952;-0.5792236328125
2,953;-0.57952880859375
2,954;-0.57891845703125
2,955;-0.5792236328125
2,956;-0.5792236328125
2,957;-0.5792236328125
2,958;-0.57952880859375
2,959;-0.5792236328125
2,96;-0.5792236328125
2,961;-0.5792236328125
2,962;-0.57891845703125
2,963;-0.5792236328125
2,964;-0.579833984375
2,965;-0.57952880859375
2,966;-0.57952880859375
2,967;-0.57952880859375
2,968;-0.5792236328125
2,969;-0.5792236328125
2,97;-0.579833984375
2,971;-0.57952880859375
2,972;-0.57952880859375
2,973;-0.5792236328125
2,974;-0.57952880859375
2,975;-0.57891845703125
2,976;-0.5792236328125
2,977;-0.57952880859375
2,978;-0.5792236328125
2,979;-0.57952880859375
2,98;-0.5792236328125
2,981;-0.5792236328125
2,982;-0.5792236328125
2,983;-0.579833984375
2,984;-0.57952880859375
2,985;-0.58013916015625
2,986;-0.57952880859375
2,987;-0.57952880859375
2,988;-0.5792236328125
2,989;-0.57952880859375
2,99;-0.579833984375
2,991;-0.57891845703125
2,992;-0.57952880859375
2,993;-0.57952880859375
2,994;-0.57891845703125
2,995;-0.5792236328125
2,996;-0.57952880859375
2,997;-0.5792236328125
2,998;-0.57952880859375
2,999;-0.5792236328125
3;-0.58013916015625
3,001;-0.5792236328125
3,002;-0.5792236328125
3,003;-0.5792236328125
3,004;-0.579833984375
3,005;-0.57952880859375
3,006;-0.57952880859375
3,007;-0.57891845703125
3,008;-0.57952880859375
3,009;-0.5792236328125
3,01;-0.57952880859375
3,011;-0.5792236328125
3,012;-0.57952880859375
3,013;-0.579833984375
3,014;-0.5792236328125
3,015;-0.57891845703125
3,016;-0.5792236328125
3,017;-0.579833984375
3,018;-0.5792236328125
3,019;-0.5792236328125
3,02;-0.579833984375
3,021;-0.57952880859375
3,022;-0.5792236328125
3,023;-0.57952880859375
3,024;-0.57952880859375
3,025;-0.5792236328125
3,026;-0.57952880859375
3,027;-0.579833984375
3,028;-0.5792236328125
3,029;-0.5792236328125
3,03;-0.57952880859375
3,031;-0.57952880859375
3,032;-0.5792236328125
3,033;-0.5792236328125
3,034;-0.579833984375
3,035;-0.5792236328125
3,036;-0.57952880859375
3,037;-0.5792236328125
3,038;-0.579833984375
3,039;-0.57891845703125
3,04;-0.5792236328125
3,041;-0.5792236328125
3,042;-0.57861328125
3,043;-0.579833984375
3,044;-0.5792236328125
3,045;-0.5792236328125
3,046;-0.57952880859375
3,047;-0.57952880859375
3,048;-0.5792236328125
3,049;-0.57891845703125
3,05;-0.579833984375
3,051;-0.579833984375
3,052;-0.5792236328125
3,053;-0.5792236328125
3,054;-0.579833984375
3,055;-0.57952880859375
3,056;-0.57952880859375
3,057;-0.57891845703125
3,058;-0.5792236328125
3,059;-0.5792236328125
3,06;-0.57952880859375
3,061;-0.57891845703125
3,062;-0.579833984375
3,063;-0.57891845703125
3,064;-0.579833984375
3,065;-0.57952880859375
3,066;-0.5792236328125
3,067;-0.579833984375
3,068;-0.5792236328125
3,069;-0.57952880859375
3,07;-0.57861328125
3,071;-0.579833984375
3,072;-0.5792236328125
3,073;-0.579833984375
3,074;-0.5792236328125
3,075;-0.57891845703125
3,076;-0.57891845703125
3,077;-0.579833984375
3,078;-0.5792236328125
3,079;-0.5792236328125
3,08;-0.579833984375
3,081;-0.57891845703125
3,082;-0.57891845703125
3,083;-0.5792236328125
3,084;-0.5792236328125
3,085;-0.58013916015625
3,086;-0.5792236328125
3,087;-0.57952880859375
3,088;-0.57952880859375
3,089;-0.57952880859375
3,09;-0.57952880859375
3,091;-0.5792236328125
3,092;-0.5792236328125
3,093;-0.579833984375
3,094;-0.5792236328125
3,095;-0.57952880859375
3,096;-0.5792236328125
3,097;-0.57952880859375
3,098;-0.5792236328125
3,099;-0.57952880859375
3,1;-0.5792236328125
3,101;-0.57952880859375
3,102;-0.57952880859375
3,103;-0.57952880859375
3,104;-0.57952880859375
3,105;-0.57952880859375
3,106;-0.5792236328125
3,107;-0.57952880859375
3,108;-0.57952880859375
3,109;-0.57952880859375
3,11;-0.57952880859375
3,111;-0.57952880859375
3,112;-0.57861328125
3,113;-0.5792236328125
3,114;-0.5792236328125
3,115;-0.57952880859375
3,116;-0.5792236328125
3,117;-0.57952880859375
3,118;-0.57952880859375
3,119;-0.5792236328125
3,12;-0.5792236328125
3,121;-0.5792236328125
3,122;-0.57891845703125
3,123;-0.5792236328125
3,124;-0.57952880859375
3,125;-0.57952880859375
3,126;-0.57952880859375
3,127;-0.5792236328125
3,128;-0.5792236328125
3,129;-0.57952880859375
3,13;-0.57952880859375
3,131;-0.57891845703125
3,132;-0.579833984375
3,133;-0.5792236328125
3,134;-0.57861328125
3,135;-0.57891845703125
3,136;-0.57891845703125
3,137;-0.57952880859375
3,138;-0.57952880859375
3,139;-0.579833984375
3,14;-0.5792236328125
3,141;-0.5792236328125
3,142;-0.57952880859375
3,143;-0.57952880859375
3,144;-0.57952880859375
3,145;-0.57891845703125
3,146;-0.57952880859375
3,147;-0.57952880859375
3,148;-0.57952880859375
3,149;-0.57891845703125
3,15;-0.57952880859375
3,151;-0.5792236328125
3,152;-0.57952880859375
3,153;-0.579833984375
3,154;-0.57952880859375
3,155;-0.57952880859375
3,156;-0.57891845703125
3,157;-0.57861328125
3,158;-0.5792236328125
3,159;-0.5792236328125
3,16;-0.57952880859375
3,161;-0.57891845703125
3,162;-0.57952880859375
3,163;-0.579833984375
3,164;-0.57952880859375
3,165;-0.5792236328125
3,166;-0.5792236328125
3,167;-0.57891845703125
3,168;-0.579833984375
3,169;-0.57952880859375
3,17;-0.57952880859375
3,171;-0.5792236328125
3,172;-0.5792236328125
3,173;-0.57891845703125
3,174;-0.57952880859375
3,175;-0.57891845703125
3,176;-0.57952880859375
3,177;-0.5792236328125
3,178;-0.5792236328125
3,179;-0.579833984375
3,18;-0.5792236328125
3,181;-0.57891845703125
3,182;-0.57952880859375
3,183;-0.57952880859375
3,184;-0.57952880859375
3,185;-0.57952880859375
3,186;-0.57952880859375
3,187;-0.57891845703125
3,188;-0.5792236328125
3,189;-0.579833984375
3,19;-0.579833984375
3,191;-0.57952880859375
3,192;-0.579833984375
3,193;-0.5792236328125
3,194;-0.57952880859375
3,195;-0.5792236328125
3,196;-0.57952880859375
3,197;-0.579833984375
3,198;-0.5792236328125
3,199;-0.57952880859375
3,2;-0.57952880859375
3,201;-0.57891845703125
3,202;-0.579833984375
3,203;-0.579833984375
3,204;-0.5792236328125
3,205;-0.57952880859375
3,206;-0.579833984375
3,207;-0.5792236328125
3,208;-0.5792236328125
3,209;-0.57952880859375
3,21;-0.57952880859375
3,211;-0.57952880859375
3,212;-0.57952880859375
3,213;-0.57891845703125
3,214;-0.5792236328125
3,215;-0.5792236328125
3,216;-0.5792236328125
3,217;-0.57891845703125
3,218;-0.5792236328125
3,219;-0.58013916015625
3,22;-0.57952880859375
3,221;-0.57891845703125
3,222;-0.5792236328125
3,223;-0.57952880859375
3,224;-0.5792236328125
3,225;-0.57952880859375
3,226;-0.57952880859375
3,227;-0.5792236328125
3,228;-0.57952880859375
3,229;-0.57891845703125
3,23;-0.5792236328125
3,231;-0.5792236328125
3,232;-0.57952880859375
3,233;-0.57891845703125
3,234;-0.579833984375
3,235;-0.57891845703125
3,236;-0.57952880859375
3,237;-0.57952880859375
3,238;-0.57952880859375
3,239;-0.57891845703125
3,24;-0.57891845703125
3,241;-0.579833984375
3,242;-0.57891845703125
3,243;-0.57952880859375
3,244;-0.57891845703125
3,245;-0.57952880859375
3,246;-0.57891845703125
3,247;-0.5792236328125
3,248;-0.57952880859375
3,249;-0.5792236328125
3,25;-0.5792236328125
3,251;-0.5792236328125
3,252;-0.579833984375
3,253;-0.57952880859375
3,254;-0.57952880859375
3,255;-0.5792236328125
3,256;-0.57952880859375
3,257;-0.5792236328125
3,258;-0.57952880859375
3,259;-0.57952880859375
3,26;-0.5792236328125
3,261;-0.5792236328125
3,262;-0.57891845703125
3,263;-0.579833984375
3,264;-0.5792236328125
3,265;-0.579833984375
3,266;-0.5792236328125
3,267;-0.57952880859375
3,268;-0.5792236328125
3,269;-0.57891845703125
3,27;-0.5792236328125
3,271;-0.57952880859375
3,272;-0.57952880859375
3,273;-0.5792236328125
3,274;-0.5792236328125
3,275;-0.57952880859375
3,276;-0.579833984375
3,277;-0.5792236328125
3,278;-0.57952880859375
3,279;-0.5792236328125
3,28;-0.5792236328125
3,281;-0.5792236328125
3,282;-0.5792236328125
3,283;-0.5792236328125
3,284;-0.579833984375
3,285;-0.57952880859375
3,286;-0.5792236328125
3,287;-0.5792236328125
3,288;-0.5792236328125
3,289;-0.5792236328125
3,29;-0.57952880859375
3,291;-0.57952880859375
3,292;-0.57952880859375
3,293;-0.57952880859375
3,294;-0.579833984375
3,295;-0.5792236328125
3,296;-0.5792236328125
3,297;-0.579833984375
3,298;-0.5792236328125
3,299;-0.57952880859375
3,3;-0.5792236328125
3,301;-0.57952880859375
3,302;-0.5792236328125
3,303;-0.579833984375
3,304;-0.5792236328125
3,305;-0.579833984375
3,306;-0.57952880859375
3,307;-0.57891845703125
3,308;-0.5792236328125
3,309;-0.58013916015625
3,31;-0.5792236328125
3,311;-0.57952880859375
3,312;-0.579833984375
3,313;-0.579833984375
3,314;-0.57952880859375
3,315;-0.57891845703125
3,316;-0.57952880859375
3,317;-0.57952880859375
3,318;-0.57952880859375
3,319;-0.5792236328125
3,32;-0.579833984375
3,321;-0.5792236328125
3,322;-0.57861328125
3,323;-0.579833984375
3,324;-0.57952880859375
3,325;-0.579833984375
3,326;-0.579833984375
3,327;-0.5792236328125
3,328;-0.579833984375
3,329;-0.5792236328125
3,33;-0.57952880859375
3,331;-0.5792236328125
3,332;-0.57952880859375
3,333;-0.579833984375
3,334;-0.57952880859375
3,335;-0.5792236328125
3,336;-0.5792236328125
3,337;-0.57952880859375
3,338;-0.57861328125
3,339;-0.57891845703125
3,34;-0.57952880859375
3,341;-0.57952880859375
3,342;-0.57952880859375
3,343;-0.57952880859375
3,344;-0.57891845703125
3,345;-0.57891845703125
3,346;-0.5792236328125
3,347;-0.57952880859375
3,348;-0.57952880859375
3,349;-0.57952880859375
3,35;-0.579833984375
3,351;-0.57952880859375
3,352;-0.579833984375
3,353;-0.579833984375
3,354;-0.5792236328125
3,355;-0.5792236328125
3,356;-0.5792236328125
3,357;-0.57952880859375
3,358;-0.5792236328125
3,359;-0.57952880859375
3,36;-0.57952880859375
3,361;-0.579833984375
3,362;-0.579833984375
3,363;-0.57891845703125
3,364;-0.5792236328125
3,365;-0.5792236328125
3,366;-0.5792236328125
3,367;-0.57891845703125
3,368;-0.57952880859375
3,369;-0.579833984375
3,37;-0.5792236328125
3,371;-0.57952880859375
3,372;-0.5792236328125
3,373;-0.5792236328125
3,374;-0.5792236328125
3,375;-0.57952880859375
3,376;-0.5792236328125
3,377;-0.57952880859375
3,378;-0.5792236328125
3,379;-0.579833984375
3,38;-0.57952880859375
3,381;-0.57891845703125
3,382;-0.57952880859375
3,383;-0.5792236328125
3,384;-0.57952880859375
3,385;-0.57952880859375
3,386;-0.5792236328125
3,387;-0.57952880859375
3,388;-0.57952880859375
3,389;-0.579833984375
3,39;-0.579833984375
3,391;-0.57952880859375
3,392;-0.57952880859375
3,393;-0.57952880859375
3,394;-0.57891845703125
3,395;-0.579833984375
3,396;-0.57891845703125
3,397;-0.5792236328125
3,398;-0.579833984375
3,399;-0.57952880859375
3,4;-0.579833984375
3,401;-0.5792236328125
3,402;-0.57952880859375
3,403;-0.57952880859375
3,404;-0.57952880859375
3,405;-0.5792236328125
3,406;-0.57952880859375
3,407;-0.5792236328125
3,408;-0.5792236328125
3,409;-0.579833984375
3,41;-0.5792236328125
3,411;-0.57952880859375
3,412;-0.57952880859375
3,413;-0.5792236328125
3,414;-0.57952880859375
3,415;-0.5792236328125
3,416;-0.57891845703125
3,417;-0.57891845703125
3,418;-0.5792236328125
3,419;-0.57952880859375
3,42;-0.579833984375
3,421;-0.5792236328125
3,422;-0.5792236328125
3,423;-0.5792236328125
3,424;-0.5792236328125
3,425;-0.5792236328125
3,426;-0.5792236328125
3,427;-0.57952880859375
3,428;-0.5792236328125
3,429;-0.57952880859375
3,43;-0.5792236328125
3,431;-0.57952880859375
3,432;-0.57952880859375
3,433;-0.5792236328125
3,434;-0.579833984375
3,435;-0.57952880859375
3,436;-0.57952880859375
3,437;-0.5792236328125
3,438;-0.57861328125
3,439;-0.5792236328125
3,44;-0.57952880859375
3,441;-0.5792236328125
3,442;-0.57891845703125
3,443;-0.5792236328125
3,444;-0.57952880859375
3,445;-0.5792236328125
3,446;-0.5792236328125
3,447;-0.5792236328125
3,448;-0.57952880859375
3,449;-0.5792236328125
3,45;-0.5792236328125
3,451;-0.57891845703125
3,452;-0.57891845703125
3,453;-0.5792236328125
3,454;-0.579833984375
3,455;-0.57952880859375
3,456;-0.57891845703125
3,457;-0.579833984375
3,458;-0.57952880859375
3,459;-0.57952880859375
3,46;-0.5792236328125
3,461;-0.579833984375
3,462;-0.5792236328125
3,463;-0.5792236328125
3,464;-0.5792236328125
3,465;-0.5792236328125
3,466;-0.5792236328125
3,467;-0.5792236328125
3,468;-0.5792236328125
3,469;-0.57861328125
3,47;-0.5792236328125
3,471;-0.57891845703125
3,472;-0.57861328125
3,473;-0.57952880859375
3,474;-0.57952880859375
3,475;-0.5792236328125
3,476;-0.58013916015625
3,477;-0.57891845703125
3,478;-0.57952880859375
3,479;-0.5792236328125
3,48;-0.57952880859375
3,481;-0.5792236328125
3,482;-0.5792236328125
3,483;-0.57891845703125
3,484;-0.57952880859375
3,485;-0.5792236328125
3,486;-0.579833984375
3,487;-0.5792236328125
3,488;-0.57952880859375
3,489;-0.57891845703125
3,49;-0.57952880859375
3,491;-0.579833984375
3,492;-0.5792236328125
3,493;-0.5792236328125
3,494;-0.579833984375
3,495;-0.57952880859375
3,496;-0.57891845703125
3,497;-0.5792236328125
3,498;-0.57952880859375
3,499;-0.57952880859375
3,5;-0.57952880859375
3,501;-0.5792236328125
3,502;-0.579833984375
3,503;-0.579833984375
3,504;-0.5792236328125
3,505;-0.5792236328125
3,506;-0.57952880859375
3,507;-0.57952880859375
3,508;-0.57952880859375
3,509;-0.57952880859375
3,51;-0.579833984375
3,511;-0.57952880859375
3,512;-0.579833984375
3,513;-0.57952880859375
3,514;-0.57952880859375
3,515;-0.57952880859375
3,516;-0.57952880859375
3,517;-0.5792236328125
3,518;-0.5792236328125
3,519;-0.579833984375
3,52;-0.5792236328125
3,521;-0.579833984375
3,522;-0.579833984375
3,523;-0.57952880859375
3,524;-0.5792236328125
3,525;-0.57891845703125
3,526;-0.57952880859375
3,527;-0.5792236328125
3,528;-0.5792236328125
3,529;-0.57952880859375
3,53;-0.5792236328125
3,531;-0.57952880859375
3,532;-0.5792236328125
3,533;-0.5792236328125
3,534;-0.57952880859375
3,535;-0.579833984375
3,536;-0.5792236328125
3,537;-0.57952880859375
3,538;-0.579833984375
3,539;-0.5792236328125
3,54;-0.579833984375
3,541;-0.57952880859375
3,542;-0.5792236328125
3,543;-0.5792236328125
3,544;-0.5792236328125
3,545;-0.57952880859375
3,546;-0.57952880859375
3,547;-0.579833984375
3,548;-0.57952880859375
3,549;-0.579833984375
3,55;-0.5792236328125
3,551;-0.5792236328125
3,552;-0.579833984375
3,553;-0.5792236328125
3,554;-0.57952880859375
3,555;-0.57952880859375
3,556;-0.5792236328125
3,557;-0.579833984375
3,558;-0.5792236328125
3,559;-0.57952880859375
3,56;-0.57861328125
3,561;-0.57952880859375
3,562;-0.5792236328125
3,563;-0.579833984375
3,564;-0.579833984375
3,565;-0.57952880859375
3,566;-0.579833984375
3,567;-0.57891845703125
3,568;-0.57861328125
3,569;-0.5792236328125
3,57;-0.57952880859375
3,571;-0.579833984375
3,572;-0.5792236328125
3,573;-0.579833984375
3,574;-0.5792236328125
3,575;-0.57952880859375
3,576;-0.57891845703125
3,577;-0.57952880859375
3,578;-0.57952880859375
3,579;-0.5792236328125
3,58;-0.579833984375
3,581;-0.57952880859375
3,582;-0.5792236328125
3,583;-0.5792236328125
3,584;-0.5792236328125
3,585;-0.57952880859375
3,586;-0.5792236328125
3,587;-0.5792236328125
3,588;-0.579833984375
3,589;-0.57952880859375
3,59;-0.5792236328125
3,591;-0.5792236328125
3,592;-0.57952880859375
3,593;-0.57952880859375
3,594;-0.57952880859375
3,595;-0.57891845703125
3,596;-0.5792236328125
3,597;-0.57952880859375
3,598;-0.57891845703125
3,599;-0.5792236328125
3,6;-0.57830810546875
3,601;-0.579833984375
3,602;-0.579833984375
3,603;-0.57891845703125
3,604;-0.57891845703125
3,605;-0.57891845703125
3,606;-0.5792236328125
3,607;-0.5792236328125
3,608;-0.57952880859375
3,609;-0.57891845703125
3,61;-0.57952880859375
3,611;-0.57952880859375
3,612;-0.579833984375
3,613;-0.57952880859375
3,614;-0.5792236328125
3,615;-0.57952880859375
3,616;-0.579833984375
3,617;-0.57891845703125
3,618;-0.57952880859375
3,619;-0.5792236328125
3,62;-0.5792236328125
3,621;-0.5792236328125
3,622;-0.579833984375
3,623;-0.5792236328125
3,624;-0.57891845703125
3,625;-0.5792236328125
3,626;-0.5792236328125
3,627;-0.57952880859375
3,628;-0.57952880859375
3,629;-0.57952880859375
3,63;-0.57952880859375
3,631;-0.5792236328125
3,632;-0.57952880859375
3,633;-0.579833984375
3,634;-0.57952880859375
3,635;-0.57952880859375
3,636;-0.57952880859375
3,637;-0.579833984375
3,638;-0.57952880859375
3,639;-0.5792236328125
3,64;-0.58013916015625
3,641;-0.57952880859375
3,642;-0.57952880859375
3,643;-0.579833984375
3,644;-0.5792236328125
3,645;-0.57891845703125
3,646;-0.579833984375
3,647;-0.579833984375
3,648;-0.57952880859375
3,649;-0.579833984375
3,65;-0.57952880859375
3,651;-0.58013916015625
3,652;-0.57952880859375
3,653;-0.57952880859375
3,654;-0.5792236328125
3,655;-0.579833984375
3,656;-0.57952880859375
3,657;-0.579833984375
3,658;-0.57952880859375
3,659;-0.57952880859375
3,66;-0.57891845703125
3,661;-0.5792236328125
3,662;-0.57952880859375
3,663;-0.57891845703125
3,664;-0.579833984375
3,665;-0.5792236328125
3,666;-0.5792236328125
3,667;-0.579833984375
3,668;-0.579833984375
3,669;-0.57952880859375
3,67;-0.579833984375
3,671;-0.579833984375
3,672;-0.57952880859375
3,673;-0.5792236328125
3,674;-0.5792236328125
3,675;-0.57952880859375
3,676;-0.57952880859375
3,677;-0.57952880859375
3,678;-0.58013916015625
3,679;-0.57952880859375
3,68;-0.5792236328125
3,681;-0.579833984375
3,682;-0.5792236328125
3,683;-0.57952880859375
3,684;-0.57952880859375
3,685;-0.579833984375
3,686;-0.5792236328125
3,687;-0.57952880859375
3,688;-0.5792236328125
3,689;-0.5792236328125
3,69;-0.5792236328125
3,691;-0.5792236328125
3,692;-0.579833984375
3,693;-0.579833984375
3,694;-0.5792236328125
3,695;-0.5792236328125
3,696;-0.57952880859375
3,697;-0.57952880859375
3,698;-0.579833984375
3,699;-0.579833984375
3,7;-0.57952880859375
3,701;-0.57952880859375
3,702;-0.57891845703125
3,703;-0.5792236328125
3,704;-0.579833984375
3,705;-0.5792236328125
3,706;-0.5792236328125
3,707;-0.58013916015625
3,708;-0.57952880859375
3,709;-0.5792236328125
3,71;-0.579833984375
3,711;-0.579833984375
3,712;-0.57952880859375
3,713;-0.57952880859375
3,714;-0.5792236328125
3,715;-0.579833984375
3,716;-0.579833984375
3,717;-0.57891845703125
3,718;-0.579833984375
3,719;-0.5792236328125
3,72;-0.57952880859375
3,721;-0.57952880859375
3,722;-0.5792236328125
3,723;-0.579833984375
3,724;-0.57891845703125
3,725;-0.57952880859375
3,726;-0.57952880859375
3,727;-0.5792236328125
3,728;-0.57952880859375
3,729;-0.5792236328125
3,73;-0.5792236328125
3,731;-0.5792236328125
3,732;-0.5792236328125
3,733;-0.579833984375
3,734;-0.5792236328125
3,735;-0.57952880859375
3,736;-0.5792236328125
3,737;-0.5792236328125
3,738;-0.5792236328125
3,739;-0.5792236328125
3,74;-0.5792236328125
3,741;-0.579833984375
3,742;-0.579833984375
3,743;-0.57952880859375
3,744;-0.57952880859375
3,745;-0.57952880859375
3,746;-0.57952880859375
3,747;-0.57952880859375
3,748;-0.57952880859375
3,749;-0.57952880859375
3,75;-0.57952880859375
3,751;-0.5792236328125
3,752;-0.57952880859375
3,753;-0.5792236328125
3,754;-0.579833984375
3,755;-0.57952880859375
3,756;-0.57952880859375
3,757;-0.5792236328125
3,758;-0.57952880859375
3,759;-0.5792236328125
3,76;-0.5792236328125
3,761;-0.5792236328125
3,762;-0.57952880859375
3,763;-0.579833984375
3,764;-0.57952880859375
3,765;-0.57952880859375
3,766;-0.57891845703125
3,767;-0.5792236328125
3,768;-0.5792236328125
3,769;-0.57952880859375
3,77;-0.57952880859375
3,771;-0.5792236328125
3,772;-0.57952880859375
3,773;-0.57952880859375
3,774;-0.57952880859375
3,775;-0.579833984375
3,776;-0.579833984375
3,777;-0.57952880859375
3,778;-0.579833984375
3,779;-0.5792236328125
3,78;-0.57891845703125
3,781;-0.57952880859375
3,782;-0.5792236328125
3,783;-0.57952880859375
3,784;-0.57952880859375
3,785;-0.5792236328125
3,786;-0.5792236328125
3,787;-0.57891845703125
3,788;-0.5792236328125
3,789;-0.57952880859375
3,79;-0.5792236328125
3,791;-0.579833984375
3,792;-0.57952880859375
3,793;-0.57952880859375
3,794;-0.57952880859375
3,795;-0.579833984375
3,796;-0.57952880859375
3,797;-0.5792236328125
3,798;-0.5792236328125
3,799;-0.5792236328125
3,8;-0.57952880859375
3,801;-0.57952880859375
3,802;-0.57952880859375
3,803;-0.579833984375
3,804;-0.57952880859375
3,805;-0.5792236328125
3,806;-0.5792236328125
3,807;-0.57952880859375
3,808;-0.57952880859375
3,809;-0.57952880859375
3,81;-0.57952880859375
3,811;-0.57952880859375
3,812;-0.579833984375
3,813;-0.579833984375
3,814;-0.5792236328125
3,815;-0.5792236328125
3,816;-0.57952880859375
3,817;-0.57952880859375
3,818;-0.57952880859375
3,819;-0.57952880859375
3,82;-0.5792236328125
3,821;-0.57952880859375
3,822;-0.57952880859375
3,823;-0.5792236328125
3,824;-0.57952880859375
3,825;-0.57952880859375
3,826;-0.57952880859375
3,827;-0.57952880859375
3,828;-0.5792236328125
3,829;-0.5792236328125
3,83;-0.5792236328125
3,831;-0.57952880859375
3,832;-0.5792236328125
3,833;-0.57952880859375
3,834;-0.579833984375
3,835;-0.5792236328125
3,836;-0.57952880859375
3,837;-0.5792236328125
3,838;-0.57891845703125
3,839;-0.57952880859375
3,84;-0.5792236328125
3,841;-0.58013916015625
3,842;-0.57952880859375
3,843;-0.5792236328125
3,844;-0.5792236328125
3,845;-0.5792236328125
3,846;-0.5792236328125
3,847;-0.5792236328125
3,848;-0.579833984375
3,849;-0.57891845703125
3,85;-0.57952880859375
3,851;-0.57952880859375
3,852;-0.57891845703125
3,853;-0.579833984375
3,854;-0.5792236328125
3,855;-0.5792236328125
3,856;-0.5792236328125
3,857;-0.57952880859375
3,858;-0.5792236328125
3,859;-0.57952880859375
3,86;-0.57952880859375
3,861;-0.57952880859375
3,862;-0.57952880859375
3,863;-0.5792236328125
3,864;-0.57952880859375
3,865;-0.57952880859375
3,866;-0.579833984375
3,867;-0.579833984375
3,868;-0.5792236328125
3,869;-0.5792236328125
3,87;-0.5792236328125
3,871;-0.5792236328125
3,872;-0.57952880859375
3,873;-0.57952880859375
3,874;-0.57952880859375
3,875;-0.57891845703125
3,876;-0.57952880859375
3,877;-0.579833984375
3,878;-0.579833984375
3,879;-0.57952880859375
3,88;-0.5792236328125
3,881;-0.5792236328125
3,882;-0.57891845703125
3,883;-0.579833984375
3,884;-0.57952880859375
3,885;-0.579833984375
3,886;-0.57952880859375
3,887;-0.579833984375
3,888;-0.5792236328125
3,889;-0.579833984375
3,89;-0.58013916015625
3,891;-0.57952880859375
3,892;-0.579833984375
3,893;-0.57952880859375
3,894;-0.57952880859375
3,895;-0.57952880859375
3,896;-0.57952880859375
3,897;-0.579833984375
3,898;-0.58013916015625
3,899;-0.5792236328125
3,9;-0.579833984375
3,901;-0.5792236328125
3,902;-0.57952880859375
3,903;-0.5792236328125
3,904;-0.57952880859375
3,905;-0.5792236328125
3,906;-0.57952880859375
3,907;-0.579833984375
3,908;-0.5792236328125
3,909;-0.579833984375
3,91;-0.57952880859375
3,911;-0.57952880859375
3,912;-0.57952880859375
3,913;-0.57952880859375
3,914;-0.579833984375
3,915;-0.5792236328125
3,916;-0.57891845703125
3,917;-0.5792236328125
3,918;-0.579833984375
3,919;-0.5792236328125
3,92;-0.58013916015625
3,921;-0.57952880859375
3,922;-0.57952880859375
3,923;-0.579833984375
3,924;-0.5792236328125
3,925;-0.57952880859375
3,926;-0.5792236328125
3,927;-0.579833984375
3,928;-0.5792236328125
3,929;-0.57952880859375
3,93;-0.57891845703125
3,931;-0.57952880859375
3,932;-0.5792236328125
3,933;-0.5792236328125
3,934;-0.579833984375
3,935;-0.5792236328125
3,936;-0.579833984375
3,937;-0.57952880859375
3,938;-0.579833984375
3,939;-0.57952880859375
3,94;-0.5792236328125
3,941;-0.57952880859375
3,942;-0.579833984375
3,943;-0.57952880859375
3,944;-0.5792236328125
3,945;-0.57952880859375
3,946;-0.5792236328125
3,947;-0.57891845703125
3,948;-0.5792236328125
3,949;-0.57952880859375
3,95;-0.57952880859375
3,951;-0.5792236328125
3,952;-0.5792236328125
3,953;-0.57891845703125
3,954;-0.5792236328125
3,955;-0.57891845703125
3,956;-0.579833984375
3,957;-0.57952880859375
3,958;-0.579833984375
3,959;-0.57952880859375
3,96;-0.57952880859375
3,961;-0.57952880859375
3,962;-0.579833984375
3,963;-0.57952880859375
3,964;-0.57952880859375
3,965;-0.57891845703125
3,966;-0.5792236328125
3,967;-0.57952880859375
3,968;-0.57952880859375
3,969;-0.5792236328125
3,97;-0.58013916015625
3,971;-0.57952880859375
3,972;-0.579833984375
3,973;-0.5792236328125
3,974;-0.5792236328125
3,975;-0.5792236328125
3,976;-0.579833984375
3,977;-0.57952880859375
3,978;-0.57952880859375
3,979;-0.5792236328125
3,98;-0.5792236328125
3,981;-0.57891845703125
3,982;-0.579833984375
3,983;-0.5792236328125
3,984;-0.579833984375
3,985;-0.57952880859375
3,986;-0.58013916015625
3,987;-0.5792236328125
3,988;-0.57952880859375
3,989;-0.57952880859375
3,99;-0.5792236328125
3,991;-0.57952880859375
3,992;-0.579833984375
3,993;-0.57952880859375
3,994;-0.57891845703125
3,995;-0.57952880859375
3,996;-0.5792236328125
3,997;-0.5792236328125
3,998;-0.5792236328125
3,999;-0.57952880859375
4;-0.57952880859375
4,001;-0.57952880859375
4,002;-0.57952880859375
4,003;-0.57952880859375
4,004;-0.579833984375
4,005;-0.57952880859375
4,006;-0.57952880859375
4,007;-0.579833984375
4,008;-0.57952880859375
4,009;-0.5792236328125
4,01;-0.57952880859375
4,011;-0.58013916015625
4,012;-0.5792236328125
4,013;-0.57952880859375
4,014;-0.5792236328125
4,015;-0.5792236328125
4,016;-0.57952880859375
4,017;-0.57952880859375
4,018;-0.5792236328125
4,019;-0.5792236328125
4,02;-0.57952880859375
4,021;-0.57952880859375
4,022;-0.579833984375
4,023;-0.57952880859375
4,024;-0.57952880859375
4,025;-0.57952880859375
4,026;-0.579833984375
4,027;-0.58013916015625
4,028;-0.57952880859375
4,029;-0.57952880859375
4,03;-0.579833984375
4,031;-0.579833984375
4,032;-0.57952880859375
4,033;-0.57952880859375
4,034;-0.57891845703125
4,035;-0.57891845703125
4,036;-0.57952880859375
4,037;-0.579833984375
4,038;-0.579833984375
4,039;-0.57952880859375
4,04;-0.5792236328125
4,041;-0.57952880859375
4,042;-0.5792236328125
4,043;-0.57952880859375
4,044;-0.57952880859375
4,045;-0.579833984375
4,046;-0.5792236328125
4,047;-0.5792236328125
4,048;-0.5792236328125
4,049;-0.579833984375
4,05;-0.57952880859375
4,051;-0.5792236328125
4,052;-0.579833984375
4,053;-0.57952880859375
4,054;-0.5792236328125
4,055;-0.57952880859375
4,056;-0.57952880859375
4,057;-0.57891845703125
4,058;-0.57952880859375
4,059;-0.57952880859375
4,06;-0.5792236328125
4,061;-0.5792236328125
4,062;-0.57952880859375
4,063;-0.57952880859375
4,064;-0.5792236328125
4,065;-0.5792236328125
4,066;-0.58013916015625
4,067;-0.57952880859375
4,068;-0.5792236328125
4,069;-0.5792236328125
4,07;-0.5792236328125
4,071;-0.5792236328125
4,072;-0.579833984375
4,073;-0.57952880859375
4,074;-0.579833984375
4,075;-0.57952880859375
4,076;-0.579833984375
4,077;-0.57952880859375
4,078;-0.57891845703125
4,079;-0.57952880859375
4,08;-0.57891845703125
4,081;-0.57891845703125
4,082;-0.579833984375
4,083;-0.57952880859375
4,084;-0.57861328125
4,085;-0.57952880859375
4,086;-0.57891845703125
4,087;-0.579833984375
4,088;-0.57952880859375
4,089;-0.57952880859375
4,09;-0.57952880859375
4,091;-0.5792236328125
4,092;-0.57952880859375
4,093;-0.5792236328125
4,094;-0.57952880859375
4,095;-0.579833984375
4,096;-0.5792236328125
4,097;-0.57891845703125
4,098;-0.5792236328125
4,099;-0.57952880859375
4,1;-0.57952880859375
4,101;-0.5792236328125
4,102;-0.579833984375
4,103;-0.5792236328125
4,104;-0.57952880859375
4,105;-0.579833984375
4,106;-0.57952880859375
4,107;-0.57952880859375
4,108;-0.5792236328125
4,109;-0.5792236328125
4,11;-0.57952880859375
4,111;-0.57952880859375
4,112;-0.5792236328125
4,113;-0.5792236328125
4,114;-0.5792236328125
4,115;-0.57891845703125
4,116;-0.5792236328125
4,117;-0.5792236328125
4,118;-0.57891845703125
4,119;-0.579833984375
4,12;-0.57952880859375
4,121;-0.57952880859375
4,122;-0.57952880859375
4,123;-0.57891845703125
4,124;-0.579833984375
4,125;-0.57952880859375
4,126;-0.57952880859375
4,127;-0.57891845703125
4,128;-0.579833984375
4,129;-0.579833984375
4,13;-0.579833984375
4,131;-0.5792236328125
4,132;-0.57891845703125
4,133;-0.57891845703125
4,134;-0.579833984375
4,135;-0.5792236328125
4,136;-0.57952880859375
4,137;-0.579833984375
4,138;-0.5792236328125
4,139;-0.57952880859375
4,14;-0.5792236328125
4,141;-0.5792236328125
4,142;-0.5792236328125
4,143;-0.57952880859375
4,144;-0.5792236328125
4,145;-0.579833984375
4,146;-0.5792236328125
4,147;-0.57952880859375
4,148;-0.5792236328125
4,149;-0.57952880859375
4,15;-0.5792236328125
4,151;-0.57952880859375
4,152;-0.57952880859375
4,153;-0.57952880859375
4,154;-0.5792236328125
4,155;-0.5792236328125
4,156;-0.57861328125
4,157;-0.5792236328125
4,158;-0.57952880859375
4,159;-0.5792236328125
4,16;-0.579833984375
4,161;-0.5792236328125
4,162;-0.57952880859375
4,163;-0.57952880859375
4,164;-0.5792236328125
4,165;-0.57891845703125
4,166;-0.5792236328125
4,167;-0.5792236328125
4,168;-0.5792236328125
4,169;-0.5792236328125
4,17;-0.57952880859375
4,171;-0.579833984375
4,172;-0.5792236328125
4,173;-0.579833984375
4,174;-0.579833984375
4,175;-0.5792236328125
4,176;-0.57891845703125
4,177;-0.57891845703125
4,178;-0.579833984375
4,179;-0.5792236328125
4,18;-0.57952880859375
4,181;-0.57952880859375
4,182;-0.57952880859375
4,183;-0.57952880859375
4,184;-0.57952880859375
4,185;-0.57952880859375
4,186;-0.57891845703125
4,187;-0.57952880859375
4,188;-0.57891845703125
4,189;-0.57952880859375
4,19;-0.579833984375
4,191;-0.57952880859375
4,192;-0.579833984375
4,193;-0.5792236328125
4,194;-0.58013916015625
4,195;-0.57952880859375
4,196;-0.579833984375
4,197;-0.5792236328125
4,198;-0.57952880859375
4,199;-0.5792236328125
4,2;-0.57952880859375
4,201;-0.5792236328125
4,202;-0.5792236328125
4,203;-0.57952880859375
4,204;-0.5792236328125
4,205;-0.5792236328125
4,206;-0.57952880859375
4,207;-0.57861328125
4,208;-0.579833984375
4,209;-0.57952880859375
4,21;-0.579833984375
4,211;-0.57952880859375
4,212;-0.57952880859375
4,213;-0.579833984375
4,214;-0.57952880859375
4,215;-0.57952880859375
4,216;-0.57952880859375
4,217;-0.57952880859375
4,218;-0.579833984375
4,219;-0.57952880859375
4,22;-0.57952880859375
4,221;-0.57952880859375
4,222;-0.57952880859375
4,223;-0.5792236328125
4,224;-0.57891845703125
4,225;-0.57952880859375
4,226;-0.5792236328125
4,227;-0.579833984375
4,228;-0.57952880859375
4,229;-0.57952880859375
4,23;-0.57952880859375
4,231;-0.57952880859375
4,232;-0.57952880859375
4,233;-0.57891845703125
4,234;-0.5792236328125
4,235;-0.57952880859375
4,236;-0.579833984375
4,237;-0.5792236328125
4,238;-0.5792236328125
4,239;-0.5792236328125
4,24;-0.57952880859375
4,241;-0.57952880859375
4,242;-0.57891845703125
4,243;-0.5792236328125
4,244;-0.5792236328125
4,245;-0.5792236328125
4,246;-0.57952880859375
4,247;-0.5792236328125
4,248;-0.57891845703125
4,249;-0.579833984375
4,25;-0.5792236328125
4,251;-0.579833984375
4,252;-0.5792236328125
4,253;-0.5792236328125
4,254;-0.57952880859375
4,255;-0.57952880859375
4,256;-0.5792236328125
4,257;-0.5792236328125
4,258;-0.57891845703125
4,259;-0.57952880859375
4,26;-0.57952880859375
4,261;-0.57952880859375
4,262;-0.57952880859375
4,263;-0.5792236328125
4,264;-0.579833984375
4,265;-0.57952880859375
4,266;-0.57891845703125
4,267;-0.5792236328125
4,268;-0.57952880859375
4,269;-0.579833984375
4,27;-0.57952880859375
4,271;-0.57952880859375
4,272;-0.5792236328125
4,273;-0.57861328125
4,274;-0.57952880859375
4,275;-0.57952880859375
4,276;-0.57952880859375
4,277;-0.5792236328125
4,278;-0.57891845703125
4,279;-0.579833984375
4,28;-0.57861328125
4,281;-0.57952880859375
4,282;-0.579833984375
4,283;-0.5792236328125
4,284;-0.5792236328125
4,285;-0.5792236328125
4,286;-0.57952880859375
4,287;-0.57952880859375
4,288;-0.57891845703125
