
;DT9804(00).A/D0.Channel 1;DT9804(00).A/D0.Channel 1;DT9804(00).A/D0.Channel 2;DT9804(00).A/D0.Channel 3;DT9804(00).A/D0.Channel 4;DT9804(00).A/D0.Channel 5;DT9804(00).A/D0.Channel 6;DT9804(00).A/D0.Channel 7;DT9804(00).A/D0.Channel 8;DT9804(00).A/D0.Channel 9;DT9804(00).A/D0.Channel 10;DT9804(00).A/D0.Channel 11;DT9804(00).A/D0.Channel 12;DT9804(00).A/D0.Channel 13;DT9804(00).A/D0.Channel 14;DT9804(00).A/D0.Channel 15
0;-1.1956787109375
0,001;-1.19659423828125
0,002;-1.19598388671875
0,003;-1.19598388671875
0,004;-1.1956787109375
0,005;-1.19598388671875
0,006;-1.19598388671875
0,007;-1.19598388671875
0,008;-1.19598388671875
0,009;-1.1962890625
0,01;-1.1956787109375
0,011;-1.1956787109375
0,012;-1.1956787109375
0,013;-1.1962890625
0,014;-1.1962890625
0,015;-1.19598388671875
0,016;-1.1956787109375
0,017;-1.1962890625
0,018;-1.1956787109375
0,019;-1.1962890625
0,02;-1.1956787109375
0,021;-1.19598388671875
0,022;-1.1956787109375
0,023;-1.1962890625
0,024;-1.19598388671875
0,025;-1.1956787109375
0,026;-1.1956787109375
0,027;-1.1962890625
0,028;-1.1956787109375
0,029;-1.19598388671875
0,03;-1.1962890625
0,031;-1.1962890625
0,032;-1.19598388671875
0,033;-1.19659423828125
0,034;-1.19598388671875
0,035;-1.19598388671875
0,036;-1.1956787109375
0,037;-1.19598388671875
0,038;-1.1956787109375
0,039;-1.1962890625
0,04;-1.1962890625
0,041;-1.1956787109375
0,042;-1.19598388671875
0,043;-1.1956787109375
0,044;-1.1956787109375
0,045;-1.1956787109375
0,046;-1.1956787109375
0,047;-1.19537353515625
0,048;-1.19537353515625
0,049;-1.1956787109375
0,05;-1.19598388671875
0,051;-1.1956787109375
0,052;-1.19598388671875
0,053;-1.1956787109375
0,054;-1.1956787109375
0,055;-1.1962890625
0,056;-1.1956787109375
0,057;-1.19598388671875
0,058;-1.19659423828125
0,059;-1.19659423828125
0,06;-1.1956787109375
0,061;-1.19598388671875
0,062;-1.1962890625
0,063;-1.19598388671875
0,064;-1.19598388671875
0,065;-1.19598388671875
0,066;-1.19598388671875
0,067;-1.19598388671875
0,068;-1.19598388671875
0,069;-1.1956787109375
0,07;-1.19598388671875
0,071;-1.1956787109375
0,072;-1.19598388671875
0,073;-1.19598388671875
0,074;-1.19598388671875
0,075;-1.1956787109375
0,076;-1.19659423828125
0,077;-1.19659423828125
0,078;-1.1962890625
0,079;-1.19598388671875
0,08;-1.1962890625
0,081;-1.1962890625
0,082;-1.1962890625
0,083;-1.1962890625
0,084;-1.1962890625
0,085;-1.19598388671875
0,086;-1.19598388671875
0,087;-1.19598388671875
0,088;-1.19659423828125
0,089;-1.19598388671875
0,09;-1.19598388671875
0,091;-1.1956787109375
0,092;-1.1962890625
0,093;-1.1962890625
0,094;-1.19598388671875
0,095;-1.1962890625
0,096;-1.1962890625
0,097;-1.1956787109375
0,098;-1.19598388671875
0,099;-1.19598388671875
0,1;-1.19598388671875
0,101;-1.1956787109375
0,102;-1.1956787109375
0,103;-1.1962890625
0,104;-1.1962890625
0,105;-1.1956787109375
0,106;-1.19598388671875
0,107;-1.1962890625
0,108;-1.1956787109375
0,109;-1.1962890625
0,11;-1.1962890625
0,111;-1.1956787109375
0,112;-1.1956787109375
0,113;-1.19659423828125
0,114;-1.19598388671875
0,115;-1.19537353515625
0,116;-1.1962890625
0,117;-1.19598388671875
0,118;-1.19659423828125
0,119;-1.1962890625
0,12;-1.19598388671875
0,121;-1.1956787109375
0,122;-1.19598388671875
0,123;-1.1956787109375
0,124;-1.19598388671875
0,125;-1.19598388671875
0,126;-1.1962890625
0,127;-1.19598388671875
0,128;-1.1962890625
0,129;-1.19659423828125
0,13;-1.19598388671875
0,131;-1.1962890625
0,132;-1.19598388671875
0,133;-1.1956787109375
0,134;-1.19598388671875
0,135;-1.1962890625
0,136;-1.1962890625
0,137;-1.19598388671875
0,138;-1.19598388671875
0,139;-1.1962890625
0,14;-1.19537353515625
0,141;-1.1956787109375
0,142;-1.1956787109375
0,143;-1.19598388671875
0,144;-1.19598388671875
0,145;-1.19537353515625
0,146;-1.1962890625
0,147;-1.1956787109375
0,148;-1.1962890625
0,149;-1.1962890625
0,15;-1.1962890625
0,151;-1.19598388671875
0,152;-1.1962890625
0,153;-1.1956787109375
0,154;-1.1956787109375
0,155;-1.1962890625
0,156;-1.19598388671875
0,157;-1.19598388671875
0,158;-1.1962890625
0,159;-1.1956787109375
0,16;-1.19598388671875
0,161;-1.19598388671875
0,162;-1.19598388671875
0,163;-1.1956787109375
0,164;-1.19598388671875
0,165;-1.1956787109375
0,166;-1.19659423828125
0,167;-1.19598388671875
0,168;-1.19598388671875
0,169;-1.19598388671875
0,17;-1.1956787109375
0,171;-1.1956787109375
0,172;-1.19598388671875
0,173;-1.1962890625
0,174;-1.19598388671875
0,175;-1.19598388671875
0,176;-1.19659423828125
0,177;-1.19598388671875
0,178;-1.19598388671875
0,179;-1.1956787109375
0,18;-1.1962890625
0,181;-1.19598388671875
0,182;-1.19659423828125
0,183;-1.19598388671875
0,184;-1.1962890625
0,185;-1.19598388671875
0,186;-1.1962890625
0,187;-1.1956787109375
0,188;-1.1956787109375
0,189;-1.1956787109375
0,19;-1.19598388671875
0,191;-1.19598388671875
0,192;-1.19598388671875
0,193;-1.1962890625
0,194;-1.1962890625
0,195;-1.19598388671875
0,196;-1.19598388671875
0,197;-1.19598388671875
0,198;-1.19537353515625
0,199;-1.1956787109375
0,2;-1.1962890625
0,201;-1.1962890625
0,202;-1.1956787109375
0,203;-1.1962890625
0,204;-1.1956787109375
0,205;-1.1956787109375
0,206;-1.19598388671875
0,207;-1.19598388671875
0,208;-1.1956787109375
0,209;-1.19598388671875
0,21;-1.19659423828125
0,211;-1.1956787109375
0,212;-1.1962890625
0,213;-1.1962890625
0,214;-1.19598388671875
0,215;-1.19598388671875
0,216;-1.1956787109375
0,217;-1.1956787109375
0,218;-1.1968994140625
0,219;-1.19598388671875
0,22;-1.19598388671875
0,221;-1.19598388671875
0,222;-1.1956787109375
0,223;-1.19598388671875
0,224;-1.19598388671875
0,225;-1.19598388671875
0,226;-1.1962890625
0,227;-1.19598388671875
0,228;-1.1956787109375
0,229;-1.1956787109375
0,23;-1.19598388671875
0,231;-1.19598388671875
0,232;-1.1956787109375
0,233;-1.19598388671875
0,234;-1.1956787109375
0,235;-1.1956787109375
0,236;-1.1962890625
0,237;-1.19598388671875
0,238;-1.19598388671875
0,239;-1.1956787109375
0,24;-1.19598388671875
0,241;-1.1956787109375
0,242;-1.1962890625
0,243;-1.1956787109375
0,244;-1.19598388671875
0,245;-1.1962890625
0,246;-1.1962890625
0,247;-1.1962890625
0,248;-1.19598388671875
0,249;-1.19598388671875
0,25;-1.19598388671875
0,251;-1.1956787109375
0,252;-1.19598388671875
0,253;-1.1956787109375
0,254;-1.19598388671875
0,255;-1.19598388671875
0,256;-1.19598388671875
0,257;-1.19537353515625
0,258;-1.19598388671875
0,259;-1.19598388671875
0,26;-1.1956787109375
0,261;-1.19598388671875
0,262;-1.1962890625
0,263;-1.19598388671875
0,264;-1.19598388671875
0,265;-1.1956787109375
0,266;-1.1956787109375
0,267;-1.1956787109375
0,268;-1.1956787109375
0,269;-1.1962890625
0,27;-1.1956787109375
0,271;-1.1962890625
0,272;-1.19598388671875
0,273;-1.19598388671875
0,274;-1.1956787109375
0,275;-1.19598388671875
0,276;-1.1962890625
0,277;-1.19598388671875
0,278;-1.1956787109375
0,279;-1.19598388671875
0,28;-1.1962890625
0,281;-1.19598388671875
0,282;-1.19598388671875
0,283;-1.19598388671875
0,284;-1.19598388671875
0,285;-1.19598388671875
0,286;-1.19598388671875
0,287;-1.19598388671875
0,288;-1.19598388671875
0,289;-1.19598388671875
0,29;-1.1956787109375
0,291;-1.19659423828125
0,292;-1.1956787109375
0,293;-1.19598388671875
0,294;-1.1956787109375
0,295;-1.19598388671875
0,296;-1.1962890625
0,297;-1.1956787109375
0,298;-1.1962890625
0,299;-1.1956787109375
0,3;-1.19598388671875
0,301;-1.1962890625
0,302;-1.1962890625
0,303;-1.1956787109375
0,304;-1.1962890625
0,305;-1.1962890625
0,306;-1.19598388671875
0,307;-1.1962890625
0,308;-1.19598388671875
0,309;-1.1962890625
0,31;-1.1956787109375
0,311;-1.19537353515625
0,312;-1.19537353515625
0,313;-1.1956787109375
0,314;-1.1956787109375
0,315;-1.19598388671875
0,316;-1.1956787109375
0,317;-1.19598388671875
0,318;-1.1962890625
0,319;-1.19598388671875
0,32;-1.19598388671875
0,321;-1.19598388671875
0,322;-1.19598388671875
0,323;-1.195068359375
0,324;-1.1956787109375
0,325;-1.1956787109375
0,326;-1.19598388671875
0,327;-1.19598388671875
0,328;-1.19598388671875
0,329;-1.19598388671875
0,33;-1.1956787109375
0,331;-1.19598388671875
0,332;-1.19598388671875
0,333;-1.1956787109375
0,334;-1.1956787109375
0,335;-1.1956787109375
0,336;-1.19598388671875
0,337;-1.1956787109375
0,338;-1.1956787109375
0,339;-1.1956787109375
0,34;-1.19537353515625
0,341;-1.19598388671875
0,342;-1.19598388671875
0,343;-1.19598388671875
0,344;-1.19598388671875
0,345;-1.19537353515625
0,346;-1.19598388671875
0,347;-1.1956787109375
0,348;-1.19598388671875
0,349;-1.19598388671875
0,35;-1.19598388671875
0,351;-1.1962890625
0,352;-1.1962890625
0,353;-1.19598388671875
0,354;-1.19598388671875
0,355;-1.19598388671875
0,356;-1.19598388671875
0,357;-1.1956787109375
0,358;-1.1956787109375
0,359;-1.19598388671875
0,36;-1.19598388671875
0,361;-1.1962890625
0,362;-1.1962890625
0,363;-1.1956787109375
0,364;-1.1962890625
0,365;-1.1962890625
0,366;-1.19537353515625
0,367;-1.19598388671875
0,368;-1.1956787109375
0,369;-1.19537353515625
0,37;-1.19537353515625
0,371;-1.19537353515625
0,372;-1.1962890625
0,373;-1.19598388671875
0,374;-1.19598388671875
0,375;-1.19598388671875
0,376;-1.19537353515625
0,377;-1.19598388671875
0,378;-1.19598388671875
0,379;-1.19598388671875
0,38;-1.1956787109375
0,381;-1.19659423828125
0,382;-1.19598388671875
0,383;-1.1956787109375
0,384;-1.19598388671875
0,385;-1.19598388671875
0,386;-1.19537353515625
0,387;-1.19476318359375
0,388;-1.19598388671875
0,389;-1.19537353515625
0,39;-1.19598388671875
0,391;-1.1956787109375
0,392;-1.19598388671875
0,393;-1.19598388671875
0,394;-1.1956787109375
0,395;-1.19598388671875
0,396;-1.19598388671875
0,397;-1.1956787109375
0,398;-1.19537353515625
0,399;-1.19598388671875
0,4;-1.19537353515625
0,401;-1.19598388671875
0,402;-1.1956787109375
0,403;-1.1956787109375
0,404;-1.19598388671875
0,405;-1.1956787109375
0,406;-1.1956787109375
0,407;-1.1968994140625
0,408;-1.19598388671875
0,409;-1.1956787109375
0,41;-1.19598388671875
0,411;-1.1956787109375
0,412;-1.1956787109375
0,413;-1.1956787109375
0,414;-1.19598388671875
0,415;-1.19598388671875
0,416;-1.19598388671875
0,417;-1.1956787109375
0,418;-1.1962890625
0,419;-1.19598388671875
0,42;-1.19598388671875
0,421;-1.19598388671875
0,422;-1.1956787109375
0,423;-1.19598388671875
0,424;-1.1956787109375
0,425;-1.19598388671875
0,426;-1.1956787109375
0,427;-1.1956787109375
0,428;-1.19598388671875
0,429;-1.19598388671875
0,43;-1.1956787109375
0,431;-1.19598388671875
0,432;-1.1956787109375
0,433;-1.1962890625
0,434;-1.1956787109375
0,435;-1.1956787109375
0,436;-1.1956787109375
0,437;-1.19598388671875
0,438;-1.19537353515625
0,439;-1.19598388671875
0,44;-1.19598388671875
0,441;-1.19537353515625
0,442;-1.19598388671875
0,443;-1.1962890625
0,444;-1.19598388671875
0,445;-1.19598388671875
0,446;-1.19537353515625
0,447;-1.19598388671875
0,448;-1.19598388671875
0,449;-1.1956787109375
0,45;-1.1956787109375
0,451;-1.1956787109375
0,452;-1.19598388671875
0,453;-1.19598388671875
0,454;-1.1956787109375
0,455;-1.19598388671875
0,456;-1.1962890625
0,457;-1.1962890625
0,458;-1.1962890625
0,459;-1.19598388671875
0,46;-1.1956787109375
0,461;-1.19598388671875
0,462;-1.19598388671875
0,463;-1.19537353515625
0,464;-1.19598388671875
0,465;-1.1956787109375
0,466;-1.19598388671875
0,467;-1.1962890625
0,468;-1.19598388671875
0,469;-1.19598388671875
0,47;-1.1956787109375
0,471;-1.19598388671875
0,472;-1.19598388671875
0,473;-1.1956787109375
0,474;-1.1956787109375
0,475;-1.1956787109375
0,476;-1.1956787109375
0,477;-1.1956787109375
0,478;-1.19598388671875
0,479;-1.1956787109375
0,48;-1.19598388671875
0,481;-1.19598388671875
0,482;-1.1956787109375
0,483;-1.1962890625
0,484;-1.19537353515625
0,485;-1.19537353515625
0,486;-1.1956787109375
0,487;-1.1956787109375
0,488;-1.1956787109375
0,489;-1.19598388671875
0,49;-1.1956787109375
0,491;-1.1956787109375
0,492;-1.1956787109375
0,493;-1.19598388671875
0,494;-1.19598388671875
0,495;-1.1956787109375
0,496;-1.19537353515625
0,497;-1.1962890625
0,498;-1.19598388671875
0,499;-1.1962890625
0,5;-1.1956787109375
0,501;-1.19598388671875
0,502;-1.19598388671875
0,503;-1.1962890625
0,504;-1.19598388671875
0,505;-1.19598388671875
0,506;-1.1962890625
0,507;-1.1956787109375
0,508;-1.19598388671875
0,509;-1.19598388671875
0,51;-1.19598388671875
0,511;-1.1956787109375
0,512;-1.1956787109375
0,513;-1.195068359375
0,514;-1.1956787109375
0,515;-1.1962890625
0,516;-1.1956787109375
0,517;-1.1956787109375
0,518;-1.19537353515625
0,519;-1.1956787109375
0,52;-1.1956787109375
0,521;-1.1956787109375
0,522;-1.1956787109375
0,523;-1.1956787109375
0,524;-1.19598388671875
0,525;-1.1956787109375
0,526;-1.1956787109375
0,527;-1.19659423828125
0,528;-1.19537353515625
0,529;-1.1956787109375
0,53;-1.19598388671875
0,531;-1.1956787109375
0,532;-1.19598388671875
0,533;-1.19598388671875
0,534;-1.19598388671875
0,535;-1.19598388671875
0,536;-1.1956787109375
0,537;-1.19598388671875
0,538;-1.1962890625
0,539;-1.19537353515625
0,54;-1.19598388671875
0,541;-1.1962890625
0,542;-1.19598388671875
0,543;-1.19598388671875
0,544;-1.1956787109375
0,545;-1.19598388671875
0,546;-1.19598388671875
0,547;-1.19598388671875
0,548;-1.19537353515625
0,549;-1.19598388671875
0,55;-1.19537353515625
0,551;-1.19598388671875
0,552;-1.1956787109375
0,553;-1.19598388671875
0,554;-1.19598388671875
0,555;-1.1956787109375
0,556;-1.19598388671875
0,557;-1.19598388671875
0,558;-1.19598388671875
0,559;-1.1962890625
0,56;-1.19598388671875
0,561;-1.19598388671875
0,562;-1.19598388671875
0,563;-1.1956787109375
0,564;-1.19598388671875
0,565;-1.19598388671875
0,566;-1.19537353515625
0,567;-1.19598388671875
0,568;-1.1956787109375
0,569;-1.1956787109375
0,57;-1.1956787109375
0,571;-1.19598388671875
0,572;-1.1962890625
0,573;-1.1962890625
0,574;-1.1956787109375
0,575;-1.1956787109375
0,576;-1.1956787109375
0,577;-1.19598388671875
0,578;-1.19598388671875
0,579;-1.1956787109375
0,58;-1.1956787109375
0,581;-1.19598388671875
0,582;-1.1962890625
0,583;-1.1956787109375
0,584;-1.1956787109375
0,585;-1.19598388671875
0,586;-1.1956787109375
0,587;-1.19598388671875
0,588;-1.19598388671875
0,589;-1.19598388671875
0,59;-1.19598388671875
0,591;-1.19598388671875
0,592;-1.19598388671875
0,593;-1.1956787109375
0,594;-1.1956787109375
0,595;-1.1956787109375
0,596;-1.19598388671875
0,597;-1.19598388671875
0,598;-1.19537353515625
0,599;-1.19598388671875
0,6;-1.1962890625
0,601;-1.19537353515625
0,602;-1.195068359375
0,603;-1.1962890625
0,604;-1.1956787109375
0,605;-1.1956787109375
0,606;-1.19598388671875
0,607;-1.1956787109375
0,608;-1.19598388671875
0,609;-1.19598388671875
0,61;-1.1956787109375
0,611;-1.1956787109375
0,612;-1.1956787109375
0,613;-1.1962890625
0,614;-1.19598388671875
0,615;-1.19598388671875
0,616;-1.1962890625
0,617;-1.19598388671875
0,618;-1.19598388671875
0,619;-1.19598388671875
0,62;-1.1956787109375
0,621;-1.1962890625
0,622;-1.1956787109375
0,623;-1.19537353515625
0,624;-1.19537353515625
0,625;-1.19598388671875
0,626;-1.1956787109375
0,627;-1.19598388671875
0,628;-1.1956787109375
0,629;-1.19598388671875
0,63;-1.19537353515625
0,631;-1.19598388671875
0,632;-1.19598388671875
0,633;-1.19598388671875
0,634;-1.19598388671875
0,635;-1.19598388671875
0,636;-1.1962890625
0,637;-1.19598388671875
0,638;-1.19598388671875
0,639;-1.19598388671875
0,64;-1.1956787109375
0,641;-1.19598388671875
0,642;-1.1956787109375
0,643;-1.1956787109375
0,644;-1.19598388671875
0,645;-1.1956787109375
0,646;-1.19598388671875
0,647;-1.1962890625
0,648;-1.19598388671875
0,649;-1.19537353515625
0,65;-1.1956787109375
0,651;-1.1956787109375
0,652;-1.1956787109375
0,653;-1.1956787109375
0,654;-1.1962890625
0,655;-1.19537353515625
0,656;-1.19598388671875
0,657;-1.19598388671875
0,658;-1.1956787109375
0,659;-1.1956787109375
0,66;-1.1956787109375
0,661;-1.19598388671875
0,662;-1.1956787109375
0,663;-1.1956787109375
0,664;-1.19598388671875
0,665;-1.1962890625
0,666;-1.19598388671875
0,667;-1.19537353515625
0,668;-1.19598388671875
0,669;-1.1962890625
0,67;-1.1956787109375
0,671;-1.1956787109375
0,672;-1.1956787109375
0,673;-1.19537353515625
0,674;-1.1956787109375
0,675;-1.19537353515625
0,676;-1.19537353515625
0,677;-1.1956787109375
0,678;-1.1956787109375
0,679;-1.19598388671875
0,68;-1.19598388671875
0,681;-1.1956787109375
0,682;-1.1956787109375
0,683;-1.19537353515625
0,684;-1.1962890625
0,685;-1.19598388671875
0,686;-1.19598388671875
0,687;-1.19537353515625
0,688;-1.19537353515625
0,689;-1.1956787109375
0,69;-1.1956787109375
0,691;-1.1962890625
0,692;-1.1956787109375
0,693;-1.1962890625
0,694;-1.1956787109375
0,695;-1.1956787109375
0,696;-1.19598388671875
0,697;-1.19598388671875
0,698;-1.1962890625
0,699;-1.19598388671875
0,7;-1.1956787109375
0,701;-1.1956787109375
0,702;-1.1962890625
0,703;-1.19598388671875
0,704;-1.19598388671875
0,705;-1.19598388671875
0,706;-1.1962890625
0,707;-1.1962890625
0,708;-1.1962890625
0,709;-1.19598388671875
0,71;-1.19537353515625
0,711;-1.19598388671875
0,712;-1.19598388671875
0,713;-1.19598388671875
0,714;-1.19598388671875
0,715;-1.19598388671875
0,716;-1.19598388671875
0,717;-1.19598388671875
0,718;-1.19598388671875
0,719;-1.1956787109375
0,72;-1.19537353515625
0,721;-1.1956787109375
0,722;-1.1956787109375
0,723;-1.1956787109375
0,724;-1.1956787109375
0,725;-1.1956787109375
0,726;-1.19537353515625
0,727;-1.1956787109375
0,728;-1.1962890625
0,729;-1.19537353515625
0,73;-1.19598388671875
0,731;-1.19598388671875
0,732;-1.1962890625
0,733;-1.19537353515625
0,734;-1.1956787109375
0,735;-1.19598388671875
0,736;-1.1956787109375
0,737;-1.1956787109375
0,738;-1.1956787109375
0,739;-1.1962890625
0,74;-1.1956787109375
0,741;-1.19598388671875
0,742;-1.19537353515625
0,743;-1.19537353515625
0,744;-1.19598388671875
0,745;-1.1956787109375
0,746;-1.1956787109375
0,747;-1.1956787109375
0,748;-1.1956787109375
0,749;-1.1962890625
0,75;-1.1956787109375
0,751;-1.1962890625
0,752;-1.19537353515625
0,753;-1.1956787109375
0,754;-1.1956787109375
0,755;-1.1962890625
0,756;-1.1956787109375
0,757;-1.19598388671875
0,758;-1.19598388671875
0,759;-1.19537353515625
0,76;-1.19598388671875
0,761;-1.19598388671875
0,762;-1.19598388671875
0,763;-1.19598388671875
0,764;-1.1956787109375
0,765;-1.195068359375
0,766;-1.1956787109375
0,767;-1.19598388671875
0,768;-1.19598388671875
0,769;-1.19598388671875
0,77;-1.19537353515625
0,771;-1.19598388671875
0,772;-1.19598388671875
0,773;-1.19537353515625
0,774;-1.1956787109375
0,775;-1.19537353515625
0,776;-1.1956787109375
0,777;-1.19598388671875
0,778;-1.1956787109375
0,779;-1.19598388671875
0,78;-1.19598388671875
0,781;-1.1956787109375
0,782;-1.19598388671875
0,783;-1.19598388671875
0,784;-1.1956787109375
0,785;-1.19598388671875
0,786;-1.19598388671875
0,787;-1.1956787109375
0,788;-1.1956787109375
0,789;-1.19598388671875
0,79;-1.1956787109375
0,791;-1.1956787109375
0,792;-1.1956787109375
0,793;-1.1962890625
0,794;-1.1956787109375
0,795;-1.1956787109375
0,796;-1.19598388671875
0,797;-1.19598388671875
0,798;-1.1956787109375
0,799;-1.1956787109375
0,8;-1.19537353515625
0,801;-1.19598388671875
0,802;-1.19598388671875
0,803;-1.1956787109375
0,804;-1.19598388671875
0,805;-1.19598388671875
0,806;-1.19598388671875
0,807;-1.19598388671875
0,808;-1.19598388671875
0,809;-1.1956787109375
0,81;-1.19598388671875
0,811;-1.1956787109375
0,812;-1.19537353515625
0,813;-1.1968994140625
0,814;-1.1956787109375
0,815;-1.19598388671875
0,816;-1.195068359375
0,817;-1.1962890625
0,818;-1.19598388671875
0,819;-1.19598388671875
0,82;-1.1956787109375
0,821;-1.19537353515625
0,822;-1.1956787109375
0,823;-1.19598388671875
0,824;-1.1962890625
0,825;-1.1956787109375
0,826;-1.19598388671875
0,827;-1.19537353515625
0,828;-1.1962890625
0,829;-1.19598388671875
0,83;-1.19598388671875
0,831;-1.19537353515625
0,832;-1.19598388671875
0,833;-1.1962890625
0,834;-1.19598388671875
0,835;-1.19537353515625
0,836;-1.1956787109375
0,837;-1.19598388671875
0,838;-1.1962890625
0,839;-1.19537353515625
0,84;-1.19598388671875
0,841;-1.19598388671875
0,842;-1.19659423828125
0,843;-1.19537353515625
0,844;-1.19598388671875
0,845;-1.1956787109375
0,846;-1.1956787109375
0,847;-1.1956787109375
0,848;-1.19598388671875
0,849;-1.1956787109375
0,85;-1.1956787109375
0,851;-1.1956787109375
0,852;-1.1956787109375
0,853;-1.19598388671875
0,854;-1.19598388671875
0,855;-1.1956787109375
0,856;-1.1956787109375
0,857;-1.19598388671875
0,858;-1.1956787109375
0,859;-1.195068359375
0,86;-1.19598388671875
0,861;-1.1956787109375
0,862;-1.19598388671875
0,863;-1.195068359375
0,864;-1.19537353515625
0,865;-1.19537353515625
0,866;-1.19598388671875
0,867;-1.195068359375
0,868;-1.1956787109375
0,869;-1.19537353515625
0,87;-1.1956787109375
0,871;-1.19598388671875
0,872;-1.1956787109375
0,873;-1.1956787109375
0,874;-1.1956787109375
0,875;-1.1956787109375
0,876;-1.1956787109375
0,877;-1.1956787109375
0,878;-1.1956787109375
0,879;-1.1956787109375
0,88;-1.1962890625
0,881;-1.19598388671875
0,882;-1.19598388671875
0,883;-1.19598388671875
0,884;-1.19598388671875
0,885;-1.1956787109375
0,886;-1.1962890625
0,887;-1.1956787109375
0,888;-1.1962890625
0,889;-1.1956787109375
0,89;-1.1956787109375
0,891;-1.195068359375
0,892;-1.19598388671875
0,893;-1.1956787109375
0,894;-1.1956787109375
0,895;-1.1956787109375
0,896;-1.1962890625
0,897;-1.19598388671875
0,898;-1.19598388671875
0,899;-1.19598388671875
0,9;-1.19598388671875
0,901;-1.1956787109375
0,902;-1.1956787109375
0,903;-1.19598388671875
0,904;-1.19598388671875
0,905;-1.19537353515625
0,906;-1.19537353515625
0,907;-1.19598388671875
0,908;-1.19598388671875
0,909;-1.19598388671875
0,91;-1.1956787109375
0,911;-1.19598388671875
0,912;-1.19537353515625
0,913;-1.1956787109375
0,914;-1.19537353515625
0,915;-1.19598388671875
0,916;-1.1956787109375
0,917;-1.1956787109375
0,918;-1.1956787109375
0,919;-1.19598388671875
0,92;-1.195068359375
0,921;-1.1956787109375
0,922;-1.19537353515625
0,923;-1.19537353515625
0,924;-1.19659423828125
0,925;-1.19537353515625
0,926;-1.1956787109375
0,927;-1.1956787109375
0,928;-1.19537353515625
0,929;-1.19598388671875
0,93;-1.19598388671875
0,931;-1.1956787109375
0,932;-1.19598388671875
0,933;-1.1956787109375
0,934;-1.1956787109375
0,935;-1.1956787109375
0,936;-1.1956787109375
0,937;-1.19598388671875
0,938;-1.1962890625
0,939;-1.1956787109375
0,94;-1.19537353515625
0,941;-1.1956787109375
0,942;-1.19598388671875
0,943;-1.19598388671875
0,944;-1.19537353515625
0,945;-1.19537353515625
0,946;-1.19598388671875
0,947;-1.19537353515625
0,948;-1.19598388671875
0,949;-1.19598388671875
0,95;-1.19537353515625
0,951;-1.19537353515625
0,952;-1.1956787109375
0,953;-1.1956787109375
0,954;-1.19598388671875
0,955;-1.19598388671875
0,956;-1.19537353515625
0,957;-1.19598388671875
0,958;-1.1956787109375
0,959;-1.19598388671875
0,96;-1.19598388671875
0,961;-1.19537353515625
0,962;-1.19537353515625
0,963;-1.1956787109375
0,964;-1.19598388671875
0,965;-1.19537353515625
0,966;-1.1956787109375
0,967;-1.1956787109375
0,968;-1.1956787109375
0,969;-1.19598388671875
0,97;-1.1956787109375
0,971;-1.19598388671875
0,972;-1.1956787109375
0,973;-1.1962890625
0,974;-1.1956787109375
0,975;-1.1956787109375
0,976;-1.19598388671875
0,977;-1.1956787109375
0,978;-1.19537353515625
0,979;-1.1956787109375
0,98;-1.19537353515625
0,981;-1.1956787109375
0,982;-1.19598388671875
0,983;-1.19598388671875
0,984;-1.1956787109375
0,985;-1.19598388671875
0,986;-1.1956787109375
0,987;-1.19537353515625
0,988;-1.19598388671875
0,989;-1.1956787109375
0,99;-1.19598388671875
0,991;-1.19537353515625
0,992;-1.1962890625
0,993;-1.19659423828125
0,994;-1.19537353515625
0,995;-1.1962890625
0,996;-1.1956787109375
0,997;-1.19537353515625
0,998;-1.1956787109375
0,999;-1.19598388671875
1;-1.19598388671875
1,001;-1.1956787109375
1,002;-1.1956787109375
1,003;-1.19598388671875
1,004;-1.1956787109375
1,005;-1.1956787109375
1,006;-1.19598388671875
1,007;-1.19598388671875
1,008;-1.19598388671875
1,009;-1.1956787109375
1,01;-1.1956787109375
1,011;-1.19598388671875
1,012;-1.195068359375
1,013;-1.19537353515625
1,014;-1.1956787109375
1,015;-1.19537353515625
1,016;-1.1956787109375
1,017;-1.1956787109375
1,018;-1.19537353515625
1,019;-1.19598388671875
1,02;-1.1956787109375
1,021;-1.1956787109375
1,022;-1.19598388671875
1,023;-1.19598388671875
1,024;-1.1962890625
1,025;-1.19598388671875
1,026;-1.19537353515625
1,027;-1.19537353515625
1,028;-1.19598388671875
1,029;-1.19537353515625
1,03;-1.1956787109375
1,031;-1.1956787109375
1,032;-1.19598388671875
1,033;-1.19598388671875
1,034;-1.1956787109375
1,035;-1.1962890625
1,036;-1.19598388671875
1,037;-1.19598388671875
1,038;-1.19537353515625
1,039;-1.19598388671875
1,04;-1.19598388671875
1,041;-1.19598388671875
1,042;-1.19537353515625
1,043;-1.1956787109375
1,044;-1.19598388671875
1,045;-1.1956787109375
1,046;-1.1956787109375
1,047;-1.1956787109375
1,048;-1.19598388671875
1,049;-1.195068359375
1,05;-1.19598388671875
1,051;-1.195068359375
1,052;-1.19598388671875
1,053;-1.19598388671875
1,054;-1.1956787109375
1,055;-1.1956787109375
1,056;-1.195068359375
1,057;-1.19598388671875
1,058;-1.1962890625
1,059;-1.19537353515625
1,06;-1.19537353515625
1,061;-1.19598388671875
1,062;-1.1962890625
1,063;-1.19598388671875
1,064;-1.19598388671875
1,065;-1.1956787109375
1,066;-1.1956787109375
1,067;-1.195068359375
1,068;-1.1956787109375
1,069;-1.1956787109375
1,07;-1.1956787109375
1,071;-1.19537353515625
1,072;-1.19537353515625
1,073;-1.19537353515625
1,074;-1.19537353515625
1,075;-1.19537353515625
1,076;-1.1956787109375
1,077;-1.19537353515625
1,078;-1.19537353515625
1,079;-1.1956787109375
1,08;-1.1956787109375
1,081;-1.19598388671875
1,082;-1.1956787109375
1,083;-1.19537353515625
1,084;-1.1956787109375
1,085;-1.19537353515625
1,086;-1.19598388671875
1,087;-1.1956787109375
1,088;-1.19537353515625
1,089;-1.1956787109375
1,09;-1.1956787109375
1,091;-1.19537353515625
1,092;-1.19537353515625
1,093;-1.19598388671875
1,094;-1.1956787109375
1,095;-1.1956787109375
1,096;-1.19598388671875
1,097;-1.19537353515625
1,098;-1.1962890625
1,099;-1.1956787109375
1,1;-1.195068359375
1,101;-1.19598388671875
1,102;-1.19537353515625
1,103;-1.1956787109375
1,104;-1.19598388671875
1,105;-1.19537353515625
1,106;-1.19537353515625
1,107;-1.1956787109375
1,108;-1.19537353515625
1,109;-1.1956787109375
1,11;-1.19537353515625
1,111;-1.19537353515625
1,112;-1.19598388671875
1,113;-1.19598388671875
1,114;-1.1956787109375
1,115;-1.1956787109375
1,116;-1.19598388671875
1,117;-1.1956787109375
1,118;-1.19598388671875
1,119;-1.1956787109375
1,12;-1.1962890625
1,121;-1.1956787109375
1,122;-1.19537353515625
1,123;-1.19598388671875
1,124;-1.19537353515625
1,125;-1.19537353515625
1,126;-1.1956787109375
1,127;-1.19537353515625
1,128;-1.1956787109375
1,129;-1.1956787109375
1,13;-1.1956787109375
1,131;-1.19598388671875
1,132;-1.19598388671875
1,133;-1.19598388671875
1,134;-1.1956787109375
1,135;-1.1956787109375
1,136;-1.19598388671875
1,137;-1.19598388671875
1,138;-1.19598388671875
1,139;-1.19598388671875
1,14;-1.1956787109375
1,141;-1.19598388671875
1,142;-1.19537353515625
1,143;-1.19537353515625
1,144;-1.1956787109375
1,145;-1.19598388671875
1,146;-1.1956787109375
1,147;-1.1956787109375
1,148;-1.1962890625
1,149;-1.19598388671875
1,15;-1.19598388671875
1,151;-1.195068359375
1,152;-1.1956787109375
1,153;-1.19537353515625
1,154;-1.19537353515625
1,155;-1.1956787109375
1,156;-1.19537353515625
1,157;-1.1956787109375
1,158;-1.1956787109375
1,159;-1.19537353515625
1,16;-1.19537353515625
1,161;-1.195068359375
1,162;-1.1956787109375
1,163;-1.19598388671875
1,164;-1.1956787109375
1,165;-1.19598388671875
1,166;-1.1956787109375
1,167;-1.1956787109375
1,168;-1.195068359375
1,169;-1.19537353515625
1,17;-1.1956787109375
1,171;-1.19598388671875
1,172;-1.1956787109375
1,173;-1.1956787109375
1,174;-1.19537353515625
1,175;-1.19598388671875
1,176;-1.19537353515625
1,177;-1.19537353515625
1,178;-1.19598388671875
1,179;-1.1956787109375
1,18;-1.1956787109375
1,181;-1.19598388671875
1,182;-1.19537353515625
1,183;-1.1956787109375
1,184;-1.1956787109375
1,185;-1.1956787109375
1,186;-1.195068359375
1,187;-1.1962890625
1,188;-1.1956787109375
1,189;-1.19537353515625
1,19;-1.19598388671875
1,191;-1.19537353515625
1,192;-1.1956787109375
1,193;-1.19537353515625
1,194;-1.1956787109375
1,195;-1.1956787109375
1,196;-1.1956787109375
1,197;-1.19537353515625
1,198;-1.1956787109375
1,199;-1.1956787109375
1,2;-1.19537353515625
1,201;-1.1956787109375
1,202;-1.19598388671875
1,203;-1.19598388671875
1,204;-1.1956787109375
1,205;-1.1956787109375
1,206;-1.19537353515625
1,207;-1.19598388671875
1,208;-1.195068359375
1,209;-1.195068359375
1,21;-1.1956787109375
1,211;-1.19598388671875
1,212;-1.1956787109375
1,213;-1.1956787109375
1,214;-1.1956787109375
1,215;-1.19537353515625
1,216;-1.19537353515625
1,217;-1.19537353515625
1,218;-1.1956787109375
1,219;-1.19598388671875
1,22;-1.19598388671875
1,221;-1.1962890625
1,222;-1.1956787109375
1,223;-1.19537353515625
1,224;-1.19598388671875
1,225;-1.1956787109375
1,226;-1.1956787109375
1,227;-1.1956787109375
1,228;-1.19537353515625
1,229;-1.19537353515625
1,23;-1.19537353515625
1,231;-1.1956787109375
1,232;-1.19598388671875
1,233;-1.19537353515625
1,234;-1.1956787109375
1,235;-1.1956787109375
1,236;-1.19598388671875
1,237;-1.19598388671875
1,238;-1.195068359375
1,239;-1.1956787109375
1,24;-1.19537353515625
1,241;-1.1956787109375
1,242;-1.1956787109375
1,243;-1.19537353515625
1,244;-1.195068359375
1,245;-1.1956787109375
1,246;-1.1956787109375
1,247;-1.1956787109375
1,248;-1.19537353515625
1,249;-1.1956787109375
1,25;-1.1956787109375
1,251;-1.19598388671875
1,252;-1.1956787109375
1,253;-1.19537353515625
1,254;-1.1956787109375
1,255;-1.1962890625
1,256;-1.19537353515625
1,257;-1.1962890625
1,258;-1.1956787109375
1,259;-1.1956787109375
1,26;-1.19598388671875
1,261;-1.19598388671875
1,262;-1.1956787109375
1,263;-1.1956787109375
1,264;-1.19537353515625
1,265;-1.19537353515625
1,266;-1.1956787109375
1,267;-1.19537353515625
1,268;-1.19537353515625
1,269;-1.19537353515625
1,27;-1.1962890625
1,271;-1.1956787109375
1,272;-1.1962890625
1,273;-1.1962890625
1,274;-1.19598388671875
1,275;-1.19598388671875
1,276;-1.1956787109375
1,277;-1.19598388671875
1,278;-1.19537353515625
1,279;-1.19598388671875
1,28;-1.19598388671875
1,281;-1.19598388671875
1,282;-1.1956787109375
1,283;-1.19598388671875
1,284;-1.19598388671875
1,285;-1.1956787109375
1,286;-1.19598388671875
1,287;-1.1956787109375
1,288;-1.19537353515625
1,289;-1.1956787109375
1,29;-1.1956787109375
1,291;-1.1956787109375
1,292;-1.1962890625
1,293;-1.1956787109375
1,294;-1.19598388671875
1,295;-1.1956787109375
1,296;-1.19537353515625
1,297;-1.19537353515625
1,298;-1.1956787109375
1,299;-1.195068359375
1,3;-1.19537353515625
1,301;-1.1956787109375
1,302;-1.19537353515625
1,303;-1.1956787109375
1,304;-1.19537353515625
1,305;-1.1956787109375
1,306;-1.1956787109375
1,307;-1.19537353515625
1,308;-1.19598388671875
1,309;-1.19537353515625
1,31;-1.19537353515625
1,311;-1.195068359375
1,312;-1.1956787109375
1,313;-1.19537353515625
1,314;-1.19537353515625
1,315;-1.19537353515625
1,316;-1.1956787109375
1,317;-1.1956787109375
1,318;-1.1956787109375
1,319;-1.1956787109375
1,32;-1.1956787109375
1,321;-1.1956787109375
1,322;-1.19537353515625
1,323;-1.19537353515625
1,324;-1.1956787109375
1,325;-1.1956787109375
1,326;-1.1956787109375
1,327;-1.1962890625
1,328;-1.19537353515625
1,329;-1.1962890625
1,33;-1.1956787109375
1,331;-1.19598388671875
1,332;-1.1956787109375
1,333;-1.19598388671875
1,334;-1.19598388671875
1,335;-1.19537353515625
1,336;-1.1956787109375
1,337;-1.1956787109375
1,338;-1.19598388671875
1,339;-1.19598388671875
1,34;-1.19537353515625
1,341;-1.19598388671875
1,342;-1.1956787109375
1,343;-1.1956787109375
1,344;-1.1956787109375
1,345;-1.19537353515625
1,346;-1.19598388671875
1,347;-1.19537353515625
1,348;-1.1956787109375
1,349;-1.19598388671875
1,35;-1.19537353515625
1,351;-1.19598388671875
1,352;-1.19598388671875
1,353;-1.19537353515625
1,354;-1.19598388671875
1,355;-1.1956787109375
1,356;-1.1956787109375
1,357;-1.19537353515625
1,358;-1.19598388671875
1,359;-1.1956787109375
1,36;-1.1956787109375
1,361;-1.1956787109375
1,362;-1.19598388671875
1,363;-1.19598388671875
1,364;-1.19537353515625
1,365;-1.1956787109375
1,366;-1.195068359375
1,367;-1.195068359375
1,368;-1.19537353515625
1,369;-1.1956787109375
1,37;-1.1962890625
1,371;-1.19598388671875
1,372;-1.19537353515625
1,373;-1.19598388671875
1,374;-1.19598388671875
1,375;-1.19598388671875
1,376;-1.195068359375
1,377;-1.19598388671875
1,378;-1.19537353515625
1,379;-1.1956787109375
1,38;-1.19598388671875
1,381;-1.19598388671875
1,382;-1.1956787109375
1,383;-1.1956787109375
1,384;-1.19598388671875
1,385;-1.19537353515625
1,386;-1.1956787109375
1,387;-1.19537353515625
1,388;-1.1956787109375
1,389;-1.19537353515625
1,39;-1.19598388671875
1,391;-1.1956787109375
1,392;-1.19598388671875
1,393;-1.19598388671875
1,394;-1.1956787109375
1,395;-1.19598388671875
1,396;-1.1956787109375
1,397;-1.19598388671875
1,398;-1.1956787109375
1,399;-1.1956787109375
1,4;-1.1956787109375
1,401;-1.19537353515625
1,402;-1.19537353515625
1,403;-1.19598388671875
1,404;-1.19537353515625
1,405;-1.19598388671875
1,406;-1.19537353515625
1,407;-1.1962890625
1,408;-1.1956787109375
1,409;-1.19598388671875
1,41;-1.19598388671875
1,411;-1.19476318359375
1,412;-1.19537353515625
1,413;-1.195068359375
1,414;-1.19598388671875
1,415;-1.19537353515625
1,416;-1.19537353515625
1,417;-1.19598388671875
1,418;-1.19537353515625
1,419;-1.19537353515625
1,42;-1.19598388671875
1,421;-1.1956787109375
1,422;-1.1962890625
1,423;-1.19598388671875
1,424;-1.1956787109375
1,425;-1.1956787109375
1,426;-1.1956787109375
1,427;-1.1956787109375
1,428;-1.1956787109375
1,429;-1.1956787109375
1,43;-1.19537353515625
1,431;-1.19537353515625
1,432;-1.1956787109375
1,433;-1.19537353515625
1,434;-1.195068359375
1,435;-1.1956787109375
1,436;-1.19537353515625
1,437;-1.19598388671875
1,438;-1.195068359375
1,439;-1.19537353515625
1,44;-1.1956787109375
1,441;-1.1962890625
1,442;-1.19598388671875
1,443;-1.19598388671875
1,444;-1.1956787109375
1,445;-1.1956787109375
1,446;-1.19598388671875
1,447;-1.1956787109375
1,448;-1.1956787109375
1,449;-1.1962890625
1,45;-1.19598388671875
1,451;-1.19598388671875
1,452;-1.19598388671875
1,453;-1.1956787109375
1,454;-1.195068359375
1,455;-1.1956787109375
1,456;-1.19598388671875
1,457;-1.19537353515625
1,458;-1.1956787109375
1,459;-1.19598388671875
1,46;-1.19537353515625
1,461;-1.19537353515625
1,462;-1.1956787109375
1,463;-1.19598388671875
1,464;-1.19537353515625
1,465;-1.19537353515625
1,466;-1.1956787109375
1,467;-1.19598388671875
1,468;-1.195068359375
1,469;-1.1956787109375
1,47;-1.19598388671875
1,471;-1.1956787109375
1,472;-1.19537353515625
1,473;-1.19598388671875
1,474;-1.1956787109375
1,475;-1.19537353515625
1,476;-1.195068359375
1,477;-1.19537353515625
1,478;-1.1956787109375
1,479;-1.195068359375
1,48;-1.19598388671875
1,481;-1.1956787109375
1,482;-1.19598388671875
1,483;-1.1956787109375
1,484;-1.1956787109375
1,485;-1.19537353515625
1,486;-1.19537353515625
1,487;-1.19598388671875
1,488;-1.1956787109375
1,489;-1.1956787109375
1,49;-1.1956787109375
1,491;-1.19537353515625
1,492;-1.1956787109375
1,493;-1.19598388671875
1,494;-1.19598388671875
1,495;-1.19537353515625
1,496;-1.19598388671875
1,497;-1.19598388671875
1,498;-1.19598388671875
1,499;-1.19537353515625
1,5;-1.19537353515625
1,501;-1.19598388671875
1,502;-1.1956787109375
1,503;-1.1956787109375
1,504;-1.1956787109375
1,505;-1.1962890625
1,506;-1.19537353515625
1,507;-1.19537353515625
1,508;-1.19537353515625
1,509;-1.19537353515625
1,51;-1.1956787109375
1,511;-1.19537353515625
1,512;-1.1956787109375
1,513;-1.19537353515625
1,514;-1.19537353515625
1,515;-1.1956787109375
1,516;-1.1956787109375
1,517;-1.1956787109375
1,518;-1.1956787109375
1,519;-1.1956787109375
1,52;-1.1956787109375
1,521;-1.1956787109375
1,522;-1.1956787109375
1,523;-1.1956787109375
1,524;-1.1956787109375
1,525;-1.1956787109375
1,526;-1.19598388671875
1,527;-1.19537353515625
1,528;-1.195068359375
1,529;-1.1956787109375
1,53;-1.19537353515625
1,531;-1.19537353515625
1,532;-1.1956787109375
1,533;-1.195068359375
1,534;-1.1956787109375
1,535;-1.1956787109375
1,536;-1.195068359375
1,537;-1.1956787109375
1,538;-1.1956787109375
1,539;-1.195068359375
1,54;-1.19598388671875
1,541;-1.1956787109375
1,542;-1.1956787109375
1,543;-1.19598388671875
1,544;-1.195068359375
1,545;-1.19537353515625
1,546;-1.19598388671875
1,547;-1.19537353515625
1,548;-1.19537353515625
1,549;-1.19598388671875
1,55;-1.19537353515625
1,551;-1.195068359375
1,552;-1.1956787109375
1,553;-1.19598388671875
1,554;-1.19537353515625
1,555;-1.1956787109375
1,556;-1.19537353515625
1,557;-1.1956787109375
1,558;-1.1956787109375
1,559;-1.195068359375
1,56;-1.1956787109375
1,561;-1.19598388671875
1,562;-1.19598388671875
1,563;-1.1956787109375
1,564;-1.1956787109375
1,565;-1.1956787109375
1,566;-1.19537353515625
1,567;-1.19598388671875
1,568;-1.1956787109375
1,569;-1.1956787109375
1,57;-1.19598388671875
1,571;-1.1962890625
1,572;-1.1956787109375
1,573;-1.1956787109375
1,574;-1.1956787109375
1,575;-1.19598388671875
1,576;-1.19598388671875
1,577;-1.195068359375
1,578;-1.1956787109375
1,579;-1.19598388671875
1,58;-1.19537353515625
1,581;-1.19537353515625
1,582;-1.1956787109375
1,583;-1.19537353515625
1,584;-1.19537353515625
1,585;-1.19537353515625
1,586;-1.1956787109375
1,587;-1.195068359375
1,588;-1.19537353515625
1,589;-1.19537353515625
1,59;-1.195068359375
1,591;-1.1956787109375
1,592;-1.1956787109375
1,593;-1.1962890625
1,594;-1.19598388671875
1,595;-1.19537353515625
1,596;-1.1956787109375
1,597;-1.1962890625
1,598;-1.19598388671875
1,599;-1.1956787109375
1,6;-1.19537353515625
1,601;-1.195068359375
1,602;-1.195068359375
1,603;-1.195068359375
1,604;-1.19598388671875
1,605;-1.1956787109375
1,606;-1.19537353515625
1,607;-1.1956787109375
1,608;-1.19537353515625
1,609;-1.19537353515625
1,61;-1.1956787109375
1,611;-1.1956787109375
1,612;-1.195068359375
1,613;-1.1956787109375
1,614;-1.1956787109375
1,615;-1.1956787109375
1,616;-1.19598388671875
1,617;-1.1956787109375
1,618;-1.19537353515625
1,619;-1.1962890625
1,62;-1.1956787109375
1,621;-1.195068359375
1,622;-1.19598388671875
1,623;-1.1956787109375
1,624;-1.1956787109375
1,625;-1.1956787109375
1,626;-1.1956787109375
1,627;-1.19537353515625
1,628;-1.1956787109375
1,629;-1.1956787109375
1,63;-1.19537353515625
1,631;-1.1956787109375
1,632;-1.195068359375
1,633;-1.195068359375
1,634;-1.19598388671875
1,635;-1.1956787109375
1,636;-1.1956787109375
1,637;-1.19537353515625
1,638;-1.1956787109375
1,639;-1.1956787109375
1,64;-1.1956787109375
1,641;-1.1956787109375
1,642;-1.19537353515625
1,643;-1.1956787109375
1,644;-1.19537353515625
1,645;-1.1956787109375
1,646;-1.1956787109375
1,647;-1.1956787109375
1,648;-1.1956787109375
1,649;-1.19537353515625
1,65;-1.1956787109375
1,651;-1.1956787109375
1,652;-1.1956787109375
1,653;-1.1956787109375
1,654;-1.1956787109375
1,655;-1.195068359375
1,656;-1.19537353515625
1,657;-1.1956787109375
1,658;-1.19598388671875
1,659;-1.19537353515625
1,66;-1.1956787109375
1,661;-1.1956787109375
1,662;-1.19537353515625
1,663;-1.195068359375
1,664;-1.195068359375
1,665;-1.195068359375
1,666;-1.19537353515625
1,667;-1.1956787109375
1,668;-1.19537353515625
1,669;-1.195068359375
1,67;-1.19598388671875
1,671;-1.1956787109375
1,672;-1.195068359375
1,673;-1.195068359375
1,674;-1.19537353515625
1,675;-1.19598388671875
1,676;-1.1956787109375
1,677;-1.19598388671875
1,678;-1.19537353515625
1,679;-1.195068359375
1,68;-1.1956787109375
1,681;-1.19537353515625
1,682;-1.1956787109375
1,683;-1.195068359375
1,684;-1.1956787109375
1,685;-1.19537353515625
1,686;-1.1956787109375
1,687;-1.195068359375
1,688;-1.19537353515625
1,689;-1.1956787109375
1,69;-1.19537353515625
1,691;-1.19537353515625
1,692;-1.1956787109375
1,693;-1.19598388671875
1,694;-1.19537353515625
1,695;-1.1956787109375
1,696;-1.195068359375
1,697;-1.1956787109375
1,698;-1.1956787109375
1,699;-1.19598388671875
1,7;-1.19537353515625
1,701;-1.19598388671875
1,702;-1.19537353515625
1,703;-1.19537353515625
1,704;-1.195068359375
1,705;-1.19598388671875
1,706;-1.19537353515625
1,707;-1.1956787109375
1,708;-1.19537353515625
1,709;-1.19537353515625
1,71;-1.1956787109375
1,711;-1.19537353515625
1,712;-1.1944580078125
1,713;-1.1956787109375
1,714;-1.19537353515625
1,715;-1.1956787109375
1,716;-1.195068359375
1,717;-1.195068359375
1,718;-1.1956787109375
1,719;-1.195068359375
1,72;-1.195068359375
1,721;-1.1956787109375
1,722;-1.195068359375
1,723;-1.195068359375
1,724;-1.19537353515625
1,725;-1.19598388671875
1,726;-1.19537353515625
1,727;-1.19598388671875
1,728;-1.1956787109375
1,729;-1.1956787109375
1,73;-1.19537353515625
1,731;-1.19598388671875
1,732;-1.19598388671875
1,733;-1.19537353515625
1,734;-1.195068359375
1,735;-1.1956787109375
1,736;-1.1956787109375
1,737;-1.19598388671875
1,738;-1.1956787109375
1,739;-1.19537353515625
1,74;-1.19537353515625
1,741;-1.19537353515625
1,742;-1.1956787109375
1,743;-1.19537353515625
1,744;-1.19537353515625
1,745;-1.1956787109375
1,746;-1.19537353515625
1,747;-1.19537353515625
1,748;-1.1956787109375
1,749;-1.19598388671875
1,75;-1.19598388671875
1,751;-1.1956787109375
1,752;-1.195068359375
1,753;-1.1956787109375
1,754;-1.1956787109375
1,755;-1.19537353515625
1,756;-1.19537353515625
1,757;-1.1956787109375
1,758;-1.1956787109375
1,759;-1.19537353515625
1,76;-1.19537353515625
1,761;-1.19598388671875
1,762;-1.1956787109375
1,763;-1.195068359375
1,764;-1.19537353515625
1,765;-1.19598388671875
1,766;-1.195068359375
1,767;-1.1956787109375
1,768;-1.1962890625
1,769;-1.1956787109375
1,77;-1.19537353515625
1,771;-1.1956787109375
1,772;-1.1956787109375
1,773;-1.1956787109375
1,774;-1.1956787109375
1,775;-1.19537353515625
1,776;-1.19537353515625
1,777;-1.19537353515625
1,778;-1.195068359375
1,779;-1.1956787109375
1,78;-1.1956787109375
1,781;-1.1962890625
1,782;-1.195068359375
1,783;-1.19537353515625
1,784;-1.1956787109375
1,785;-1.1956787109375
1,786;-1.19537353515625
1,787;-1.1956787109375
1,788;-1.1956787109375
1,789;-1.1956787109375
1,79;-1.19537353515625
1,791;-1.1956787109375
1,792;-1.1956787109375
1,793;-1.1962890625
1,794;-1.1956787109375
1,795;-1.19598388671875
1,796;-1.19537353515625
1,797;-1.1956787109375
1,798;-1.1956787109375
1,799;-1.1956787109375
1,8;-1.1956787109375
1,801;-1.19537353515625
1,802;-1.19537353515625
1,803;-1.19537353515625
1,804;-1.1956787109375
1,805;-1.1956787109375
1,806;-1.1956787109375
1,807;-1.19537353515625
1,808;-1.1956787109375
1,809;-1.195068359375
1,81;-1.195068359375
1,811;-1.1956787109375
1,812;-1.19537353515625
1,813;-1.19537353515625
1,814;-1.195068359375
1,815;-1.19537353515625
1,816;-1.19537353515625
1,817;-1.1956787109375
1,818;-1.19598388671875
1,819;-1.1956787109375
1,82;-1.19537353515625
1,821;-1.195068359375
1,822;-1.19537353515625
1,823;-1.19537353515625
1,824;-1.19537353515625
1,825;-1.19537353515625
1,826;-1.1956787109375
1,827;-1.19537353515625
1,828;-1.1956787109375
1,829;-1.195068359375
1,83;-1.19598388671875
1,831;-1.1956787109375
1,832;-1.19537353515625
1,833;-1.1956787109375
1,834;-1.19537353515625
1,835;-1.19537353515625
1,836;-1.19537353515625
1,837;-1.19537353515625
1,838;-1.19537353515625
1,839;-1.1956787109375
1,84;-1.1956787109375
1,841;-1.1956787109375
1,842;-1.19537353515625
1,843;-1.195068359375
1,844;-1.195068359375
1,845;-1.1956787109375
1,846;-1.195068359375
1,847;-1.19537353515625
1,848;-1.19537353515625
1,849;-1.19537353515625
1,85;-1.1956787109375
1,851;-1.19537353515625
1,852;-1.195068359375
1,853;-1.19537353515625
1,854;-1.195068359375
1,855;-1.19537353515625
1,856;-1.19537353515625
1,857;-1.1956787109375
1,858;-1.195068359375
1,859;-1.19537353515625
1,86;-1.1956787109375
1,861;-1.1956787109375
1,862;-1.195068359375
1,863;-1.19537353515625
1,864;-1.1956787109375
1,865;-1.195068359375
1,866;-1.19537353515625
1,867;-1.1956787109375
1,868;-1.19537353515625
1,869;-1.19537353515625
1,87;-1.19598388671875
1,871;-1.19537353515625
1,872;-1.1956787109375
1,873;-1.19598388671875
1,874;-1.19537353515625
1,875;-1.1956787109375
1,876;-1.19537353515625
1,877;-1.19537353515625
1,878;-1.1956787109375
1,879;-1.19598388671875
1,88;-1.1956787109375
1,881;-1.195068359375
1,882;-1.19537353515625
1,883;-1.19537353515625
1,884;-1.19537353515625
1,885;-1.1956787109375
1,886;-1.19537353515625
1,887;-1.1956787109375
1,888;-1.1956787109375
1,889;-1.1956787109375
1,89;-1.195068359375
1,891;-1.19537353515625
1,892;-1.19537353515625
1,893;-1.19598388671875
1,894;-1.195068359375
1,895;-1.19537353515625
1,896;-1.1956787109375
1,897;-1.1956787109375
1,898;-1.19598388671875
1,899;-1.1956787109375
1,9;-1.19537353515625
1,901;-1.195068359375
1,902;-1.195068359375
1,903;-1.19537353515625
1,904;-1.19537353515625
1,905;-1.19537353515625
1,906;-1.1956787109375
1,907;-1.19537353515625
1,908;-1.1956787109375
1,909;-1.19537353515625
1,91;-1.1956787109375
1,911;-1.195068359375
1,912;-1.19537353515625
1,913;-1.1956787109375
1,914;-1.1956787109375
1,915;-1.19476318359375
1,916;-1.19537353515625
1,917;-1.195068359375
1,918;-1.195068359375
1,919;-1.19537353515625
1,92;-1.1956787109375
1,921;-1.195068359375
1,922;-1.19476318359375
1,923;-1.19537353515625
1,924;-1.1956787109375
1,925;-1.1956787109375
1,926;-1.19537353515625
1,927;-1.1956787109375
1,928;-1.19537353515625
1,929;-1.1956787109375
1,93;-1.1956787109375
1,931;-1.19598388671875
1,932;-1.19537353515625
1,933;-1.1956787109375
1,934;-1.19537353515625
1,935;-1.1956787109375
1,936;-1.1956787109375
1,937;-1.19537353515625
1,938;-1.19537353515625
1,939;-1.195068359375
1,94;-1.19537353515625
1,941;-1.19537353515625
1,942;-1.1956787109375
1,943;-1.19537353515625
1,944;-1.1956787109375
1,945;-1.1956787109375
1,946;-1.1956787109375
1,947;-1.19537353515625
1,948;-1.19537353515625
1,949;-1.195068359375
1,95;-1.1956787109375
1,951;-1.19598388671875
1,952;-1.1956787109375
1,953;-1.1956787109375
1,954;-1.19598388671875
1,955;-1.1956787109375
1,956;-1.19537353515625
1,957;-1.1956787109375
1,958;-1.195068359375
1,959;-1.1956787109375
1,96;-1.19598388671875
1,961;-1.19537353515625
1,962;-1.1956787109375
1,963;-1.19598388671875
1,964;-1.1956787109375
1,965;-1.19537353515625
1,966;-1.1956787109375
1,967;-1.195068359375
1,968;-1.19537353515625
1,969;-1.19598388671875
1,97;-1.19537353515625
1,971;-1.19598388671875
1,972;-1.19537353515625
1,973;-1.19537353515625
1,974;-1.1956787109375
1,975;-1.19537353515625
1,976;-1.19598388671875
1,977;-1.19537353515625
1,978;-1.19537353515625
1,979;-1.19537353515625
1,98;-1.19537353515625
1,981;-1.19537353515625
1,982;-1.19537353515625
1,983;-1.19537353515625
1,984;-1.1956787109375
1,985;-1.19537353515625
1,986;-1.195068359375
1,987;-1.19537353515625
1,988;-1.195068359375
1,989;-1.195068359375
1,99;-1.195068359375
1,991;-1.1956787109375
1,992;-1.19537353515625
1,993;-1.19598388671875
1,994;-1.19537353515625
1,995;-1.19537353515625
1,996;-1.19537353515625
1,997;-1.19537353515625
1,998;-1.1956787109375
1,999;-1.195068359375
2;-1.1956787109375
2,001;-1.1956787109375
2,002;-1.1956787109375
2,003;-1.19537353515625
2,004;-1.1956787109375
2,005;-1.19537353515625
2,006;-1.19537353515625
2,007;-1.19537353515625
2,008;-1.19537353515625
2,009;-1.195068359375
2,01;-1.1956787109375
2,011;-1.195068359375
2,012;-1.19537353515625
2,013;-1.1956787109375
2,014;-1.195068359375
2,015;-1.1956787109375
2,016;-1.19537353515625
2,017;-1.19537353515625
2,018;-1.1956787109375
2,019;-1.19537353515625
2,02;-1.1956787109375
2,021;-1.19537353515625
2,022;-1.19537353515625
2,023;-1.19537353515625
2,024;-1.1956787109375
2,025;-1.195068359375
2,026;-1.195068359375
2,027;-1.19598388671875
2,028;-1.19537353515625
2,029;-1.1956787109375
2,03;-1.1956787109375
2,031;-1.1956787109375
2,032;-1.19537353515625
2,033;-1.1956787109375
2,034;-1.1956787109375
2,035;-1.19537353515625
2,036;-1.1956787109375
2,037;-1.19537353515625
2,038;-1.1956787109375
2,039;-1.19537353515625
2,04;-1.1956787109375
2,041;-1.195068359375
2,042;-1.195068359375
2,043;-1.195068359375
2,044;-1.195068359375
2,045;-1.1956787109375
2,046;-1.195068359375
2,047;-1.19598388671875
2,048;-1.19537353515625
2,049;-1.19537353515625
2,05;-1.195068359375
2,051;-1.19537353515625
2,052;-1.19537353515625
2,053;-1.195068359375
2,054;-1.19598388671875
2,055;-1.1956787109375
2,056;-1.1956787109375
2,057;-1.19537353515625
2,058;-1.19537353515625
2,059;-1.19598388671875
2,06;-1.19537353515625
2,061;-1.1956787109375
2,062;-1.1956787109375
2,063;-1.19537353515625
2,064;-1.19598388671875
2,065;-1.19598388671875
2,066;-1.1956787109375
2,067;-1.19537353515625
2,068;-1.195068359375
2,069;-1.195068359375
2,07;-1.19537353515625
2,071;-1.1956787109375
2,072;-1.19598388671875
2,073;-1.1956787109375
2,074;-1.19476318359375
2,075;-1.1956787109375
2,076;-1.19598388671875
2,077;-1.19598388671875
2,078;-1.1956787109375
2,079;-1.19598388671875
2,08;-1.1956787109375
2,081;-1.19598388671875
2,082;-1.19537353515625
2,083;-1.19537353515625
2,084;-1.19537353515625
2,085;-1.19537353515625
2,086;-1.19537353515625
2,087;-1.19598388671875
2,088;-1.19537353515625
2,089;-1.19537353515625
2,09;-1.1956787109375
2,091;-1.19537353515625
2,092;-1.19537353515625
2,093;-1.19537353515625
2,094;-1.19537353515625
2,095;-1.19537353515625
2,096;-1.19537353515625
2,097;-1.1956787109375
2,098;-1.195068359375
2,099;-1.19537353515625
2,1;-1.195068359375
2,101;-1.19537353515625
2,102;-1.1956787109375
2,103;-1.1956787109375
2,104;-1.19537353515625
2,105;-1.1956787109375
2,106;-1.19537353515625
2,107;-1.19537353515625
2,108;-1.1956787109375
2,109;-1.195068359375
2,11;-1.19537353515625
2,111;-1.1956787109375
2,112;-1.1956787109375
2,113;-1.195068359375
2,114;-1.1956787109375
2,115;-1.1956787109375
2,116;-1.19537353515625
2,117;-1.19598388671875
2,118;-1.1956787109375
2,119;-1.19537353515625
2,12;-1.19537353515625
2,121;-1.195068359375
2,122;-1.1956787109375
2,123;-1.19537353515625
2,124;-1.1956787109375
2,125;-1.19598388671875
2,126;-1.195068359375
2,127;-1.19537353515625
2,128;-1.195068359375
2,129;-1.19537353515625
2,13;-1.195068359375
2,131;-1.19537353515625
2,132;-1.1956787109375
2,133;-1.1956787109375
2,134;-1.19537353515625
2,135;-1.1956787109375
2,136;-1.1956787109375
2,137;-1.195068359375
2,138;-1.195068359375
2,139;-1.1956787109375
2,14;-1.195068359375
2,141;-1.19659423828125
2,142;-1.1956787109375
2,143;-1.19598388671875
2,144;-1.1956787109375
2,145;-1.19537353515625
2,146;-1.1956787109375
2,147;-1.1956787109375
2,148;-1.19537353515625
2,149;-1.19598388671875
2,15;-1.1956787109375
2,151;-1.1956787109375
2,152;-1.19537353515625
2,153;-1.19598388671875
2,154;-1.19537353515625
2,155;-1.19537353515625
2,156;-1.1956787109375
2,157;-1.195068359375
2,158;-1.19537353515625
2,159;-1.19537353515625
2,16;-1.195068359375
2,161;-1.1956787109375
2,162;-1.19537353515625
2,163;-1.195068359375
2,164;-1.195068359375
2,165;-1.19537353515625
2,166;-1.19537353515625
2,167;-1.19598388671875
2,168;-1.1956787109375
2,169;-1.195068359375
2,17;-1.19537353515625
2,171;-1.19598388671875
2,172;-1.1956787109375
2,173;-1.19537353515625
2,174;-1.195068359375
2,175;-1.1956787109375
2,176;-1.1956787109375
2,177;-1.195068359375
2,178;-1.19537353515625
2,179;-1.19537353515625
2,18;-1.1956787109375
2,181;-1.19537353515625
2,182;-1.1956787109375
2,183;-1.1956787109375
2,184;-1.195068359375
2,185;-1.19537353515625
2,186;-1.1956787109375
2,187;-1.195068359375
2,188;-1.19537353515625
2,189;-1.1956787109375
2,19;-1.195068359375
2,191;-1.19537353515625
2,192;-1.19537353515625
2,193;-1.1956787109375
2,194;-1.19598388671875
2,195;-1.19537353515625
2,196;-1.195068359375
2,197;-1.1956787109375
2,198;-1.1956787109375
2,199;-1.19537353515625
2,2;-1.1956787109375
2,201;-1.1956787109375
2,202;-1.19537353515625
2,203;-1.195068359375
2,204;-1.1956787109375
2,205;-1.19537353515625
2,206;-1.195068359375
2,207;-1.19537353515625
2,208;-1.19537353515625
2,209;-1.19537353515625
2,21;-1.19537353515625
2,211;-1.19537353515625
2,212;-1.19476318359375
2,213;-1.1956787109375
2,214;-1.1956787109375
2,215;-1.19537353515625
2,216;-1.195068359375
2,217;-1.195068359375
2,218;-1.19537353515625
2,219;-1.19537353515625
2,22;-1.1956787109375
2,221;-1.19537353515625
2,222;-1.1956787109375
2,223;-1.1956787109375
2,224;-1.19537353515625
2,225;-1.19537353515625
2,226;-1.19537353515625
2,227;-1.1956787109375
2,228;-1.1956787109375
2,229;-1.19537353515625
2,23;-1.19537353515625
2,231;-1.19537353515625
2,232;-1.195068359375
2,233;-1.1956787109375
2,234;-1.19476318359375
2,235;-1.19537353515625
2,236;-1.19537353515625
2,237;-1.19537353515625
2,238;-1.195068359375
2,239;-1.19537353515625
2,24;-1.1956787109375
2,241;-1.19537353515625
2,242;-1.19537353515625
2,243;-1.19537353515625
2,244;-1.195068359375
2,245;-1.19537353515625
2,246;-1.1956787109375
2,247;-1.19537353515625
2,248;-1.19537353515625
2,249;-1.19537353515625
2,25;-1.19537353515625
2,251;-1.19537353515625
2,252;-1.19537353515625
2,253;-1.195068359375
2,254;-1.195068359375
2,255;-1.19537353515625
2,256;-1.1956787109375
2,257;-1.19537353515625
2,258;-1.195068359375
2,259;-1.19537353515625
2,26;-1.195068359375
2,261;-1.19537353515625
2,262;-1.19476318359375
2,263;-1.1956787109375
2,264;-1.19537353515625
2,265;-1.19537353515625
2,266;-1.195068359375
2,267;-1.1956787109375
2,268;-1.19537353515625
2,269;-1.195068359375
2,27;-1.19537353515625
2,271;-1.195068359375
2,272;-1.19537353515625
2,273;-1.19537353515625
2,274;-1.1956787109375
2,275;-1.195068359375
2,276;-1.195068359375
2,277;-1.19537353515625
2,278;-1.19476318359375
2,279;-1.19537353515625
2,28;-1.1956787109375
2,281;-1.1956787109375
2,282;-1.195068359375
2,283;-1.1956787109375
2,284;-1.19598388671875
2,285;-1.19537353515625
2,286;-1.1956787109375
2,287;-1.19537353515625
2,288;-1.195068359375
2,289;-1.19537353515625
2,29;-1.1956787109375
2,291;-1.195068359375
2,292;-1.19537353515625
2,293;-1.1956787109375
2,294;-1.19537353515625
2,295;-1.195068359375
2,296;-1.1956787109375
2,297;-1.19476318359375
2,298;-1.19537353515625
2,299;-1.19537353515625
2,3;-1.19537353515625
2,301;-1.195068359375
2,302;-1.19537353515625
2,303;-1.1956787109375
2,304;-1.195068359375
2,305;-1.19537353515625
2,306;-1.19598388671875
2,307;-1.19537353515625
2,308;-1.19537353515625
2,309;-1.1956787109375
2,31;-1.195068359375
2,311;-1.19537353515625
2,312;-1.195068359375
2,313;-1.19537353515625
2,314;-1.19537353515625
2,315;-1.1956787109375
2,316;-1.195068359375
2,317;-1.1956787109375
2,318;-1.1956787109375
2,319;-1.19476318359375
2,32;-1.19537353515625
2,321;-1.19537353515625
2,322;-1.19537353515625
2,323;-1.195068359375
2,324;-1.19537353515625
2,325;-1.19476318359375
2,326;-1.19537353515625
2,327;-1.19537353515625
2,328;-1.1956787109375
2,329;-1.195068359375
2,33;-1.19537353515625
2,331;-1.1956787109375
2,332;-1.195068359375
2,333;-1.19537353515625
2,334;-1.1956787109375
2,335;-1.195068359375
2,336;-1.195068359375
2,337;-1.1956787109375
2,338;-1.195068359375
2,339;-1.19537353515625
2,34;-1.19537353515625
2,341;-1.1956787109375
2,342;-1.1956787109375
2,343;-1.1956787109375
2,344;-1.19537353515625
2,345;-1.19598388671875
2,346;-1.19537353515625
2,347;-1.19476318359375
2,348;-1.19537353515625
2,349;-1.19537353515625
2,35;-1.195068359375
2,351;-1.195068359375
2,352;-1.1956787109375
2,353;-1.195068359375
2,354;-1.195068359375
2,355;-1.195068359375
2,356;-1.195068359375
2,357;-1.19537353515625
2,358;-1.1956787109375
2,359;-1.19537353515625
2,36;-1.1956787109375
2,361;-1.19537353515625
2,362;-1.1956787109375
2,363;-1.195068359375
2,364;-1.19537353515625
2,365;-1.19537353515625
2,366;-1.19537353515625
2,367;-1.19537353515625
2,368;-1.1956787109375
2,369;-1.195068359375
2,37;-1.19476318359375
2,371;-1.195068359375
2,372;-1.1956787109375
2,373;-1.19537353515625
2,374;-1.1956787109375
2,375;-1.1956787109375
2,376;-1.19537353515625
2,377;-1.19598388671875
2,378;-1.195068359375
2,379;-1.19537353515625
2,38;-1.195068359375
2,381;-1.19537353515625
2,382;-1.19537353515625
2,383;-1.19537353515625
2,384;-1.195068359375
2,385;-1.19537353515625
2,386;-1.1956787109375
2,387;-1.1956787109375
2,388;-1.195068359375
2,389;-1.19598388671875
2,39;-1.195068359375
2,391;-1.195068359375
2,392;-1.195068359375
2,393;-1.19537353515625
2,394;-1.195068359375
2,395;-1.19537353515625
2,396;-1.1956787109375
2,397;-1.1956787109375
2,398;-1.19537353515625
2,399;-1.19476318359375
2,4;-1.19537353515625
2,401;-1.19537353515625
2,402;-1.1956787109375
2,403;-1.19537353515625
2,404;-1.1956787109375
2,405;-1.19537353515625
2,406;-1.19537353515625
2,407;-1.19537353515625
2,408;-1.1956787109375
2,409;-1.19537353515625
2,41;-1.195068359375
2,411;-1.19537353515625
2,412;-1.195068359375
2,413;-1.195068359375
2,414;-1.1956787109375
2,415;-1.19476318359375
2,416;-1.1956787109375
2,417;-1.19537353515625
2,418;-1.19537353515625
2,419;-1.195068359375
2,42;-1.19537353515625
2,421;-1.1956787109375
2,422;-1.195068359375
2,423;-1.1956787109375
2,424;-1.195068359375
2,425;-1.1956787109375
2,426;-1.19537353515625
2,427;-1.195068359375
2,428;-1.195068359375
2,429;-1.195068359375
2,43;-1.195068359375
2,431;-1.19537353515625
2,432;-1.19537353515625
2,433;-1.19598388671875
2,434;-1.19537353515625
2,435;-1.1956787109375
2,436;-1.195068359375
2,437;-1.19537353515625
2,438;-1.195068359375
2,439;-1.1956787109375
2,44;-1.19598388671875
2,441;-1.19537353515625
2,442;-1.195068359375
2,443;-1.195068359375
2,444;-1.19537353515625
2,445;-1.1956787109375
2,446;-1.19476318359375
2,447;-1.19537353515625
2,448;-1.195068359375
2,449;-1.195068359375
2,45;-1.19598388671875
2,451;-1.19537353515625
2,452;-1.19537353515625
2,453;-1.195068359375
2,454;-1.19476318359375
2,455;-1.19537353515625
2,456;-1.1956787109375
2,457;-1.19537353515625
2,458;-1.1956787109375
2,459;-1.1956787109375
2,46;-1.1956787109375
2,461;-1.19537353515625
2,462;-1.195068359375
2,463;-1.19537353515625
2,464;-1.19537353515625
2,465;-1.195068359375
2,466;-1.19537353515625
2,467;-1.19537353515625
2,468;-1.19537353515625
2,469;-1.19537353515625
2,47;-1.195068359375
2,471;-1.19537353515625
2,472;-1.19537353515625
2,473;-1.195068359375
2,474;-1.19537353515625
2,475;-1.19598388671875
2,476;-1.19537353515625
2,477;-1.19537353515625
2,478;-1.195068359375
2,479;-1.19537353515625
2,48;-1.19476318359375
2,481;-1.195068359375
2,482;-1.1956787109375
2,483;-1.1956787109375
2,484;-1.19537353515625
2,485;-1.195068359375
2,486;-1.1956787109375
2,487;-1.19537353515625
2,488;-1.1956787109375
2,489;-1.195068359375
2,49;-1.19537353515625
2,491;-1.19537353515625
2,492;-1.195068359375
2,493;-1.19598388671875
2,494;-1.19537353515625
2,495;-1.19476318359375
2,496;-1.195068359375
2,497;-1.19537353515625
2,498;-1.1956787109375
2,499;-1.19476318359375
2,5;-1.1956787109375
2,501;-1.19537353515625
2,502;-1.19476318359375
2,503;-1.1956787109375
2,504;-1.19476318359375
2,505;-1.19537353515625
2,506;-1.19537353515625
2,507;-1.19537353515625
2,508;-1.195068359375
2,509;-1.1956787109375
2,51;-1.195068359375
2,511;-1.1956787109375
2,512;-1.19537353515625
2,513;-1.1956787109375
2,514;-1.195068359375
2,515;-1.19537353515625
2,516;-1.19537353515625
2,517;-1.195068359375
2,518;-1.19537353515625
2,519;-1.195068359375
2,52;-1.19598388671875
2,521;-1.195068359375
2,522;-1.1956787109375
2,523;-1.19537353515625
2,524;-1.19476318359375
2,525;-1.19537353515625
2,526;-1.19537353515625
2,527;-1.1956787109375
2,528;-1.19537353515625
2,529;-1.19537353515625
2,53;-1.195068359375
2,531;-1.1956787109375
2,532;-1.19476318359375
2,533;-1.195068359375
2,534;-1.19537353515625
2,535;-1.19537353515625
2,536;-1.19476318359375
2,537;-1.1956787109375
2,538;-1.19537353515625
2,539;-1.19537353515625
2,54;-1.195068359375
2,541;-1.195068359375
2,542;-1.195068359375
2,543;-1.195068359375
2,544;-1.19598388671875
2,545;-1.19537353515625
2,546;-1.19537353515625
2,547;-1.19537353515625
2,548;-1.1956787109375
2,549;-1.195068359375
2,55;-1.1956787109375
2,551;-1.19537353515625
2,552;-1.19537353515625
2,553;-1.195068359375
2,554;-1.195068359375
2,555;-1.19598388671875
2,556;-1.19537353515625
2,557;-1.1956787109375
2,558;-1.1956787109375
2,559;-1.1944580078125
2,56;-1.19476318359375
2,561;-1.19476318359375
2,562;-1.19537353515625
2,563;-1.19537353515625
2,564;-1.1956787109375
2,565;-1.19537353515625
2,566;-1.19537353515625
2,567;-1.1956787109375
2,568;-1.19537353515625
2,569;-1.195068359375
2,57;-1.19537353515625
2,571;-1.1956787109375
2,572;-1.195068359375
2,573;-1.195068359375
2,574;-1.195068359375
2,575;-1.19598388671875
2,576;-1.19537353515625
2,577;-1.195068359375
2,578;-1.195068359375
2,579;-1.195068359375
2,58;-1.19537353515625
2,581;-1.19598388671875
2,582;-1.1956787109375
2,583;-1.195068359375
2,584;-1.1956787109375
2,585;-1.195068359375
2,586;-1.195068359375
2,587;-1.195068359375
2,588;-1.19476318359375
2,589;-1.195068359375
2,59;-1.19537353515625
2,591;-1.19537353515625
2,592;-1.19537353515625
2,593;-1.19537353515625
2,594;-1.195068359375
2,595;-1.19598388671875
2,596;-1.195068359375
2,597;-1.1956787109375
2,598;-1.19537353515625
2,599;-1.195068359375
2,6;-1.19537353515625
2,601;-1.195068359375
2,602;-1.19537353515625
2,603;-1.195068359375
2,604;-1.19537353515625
2,605;-1.19537353515625
2,606;-1.195068359375
2,607;-1.195068359375
2,608;-1.195068359375
2,609;-1.19537353515625
2,61;-1.1956787109375
2,611;-1.19537353515625
2,612;-1.19537353515625
2,613;-1.19598388671875
2,614;-1.195068359375
2,615;-1.1956787109375
2,616;-1.19537353515625
2,617;-1.19537353515625
2,618;-1.195068359375
2,619;-1.1956787109375
2,62;-1.1956787109375
2,621;-1.19537353515625
2,622;-1.195068359375
2,623;-1.19476318359375
2,624;-1.1956787109375
2,625;-1.19537353515625
2,626;-1.195068359375
2,627;-1.19537353515625
2,628;-1.1944580078125
2,629;-1.19537353515625
2,63;-1.19537353515625
2,631;-1.19537353515625
2,632;-1.19476318359375
2,633;-1.19598388671875
2,634;-1.19537353515625
2,635;-1.195068359375
2,636;-1.195068359375
2,637;-1.195068359375
2,638;-1.19537353515625
2,639;-1.1956787109375
2,64;-1.19537353515625
2,641;-1.19537353515625
2,642;-1.195068359375
2,643;-1.195068359375
2,644;-1.19537353515625
2,645;-1.19476318359375
2,646;-1.1956787109375
2,647;-1.19476318359375
2,648;-1.19537353515625
2,649;-1.1956787109375
2,65;-1.19537353515625
2,651;-1.195068359375
2,652;-1.1956787109375
2,653;-1.195068359375
2,654;-1.19537353515625
2,655;-1.19537353515625
2,656;-1.195068359375
2,657;-1.19537353515625
2,658;-1.195068359375
2,659;-1.1956787109375
2,66;-1.19537353515625
2,661;-1.1956787109375
2,662;-1.1956787109375
2,663;-1.19537353515625
2,664;-1.19537353515625
2,665;-1.19537353515625
2,666;-1.19537353515625
2,667;-1.19537353515625
2,668;-1.195068359375
2,669;-1.19537353515625
2,67;-1.19537353515625
2,671;-1.19598388671875
2,672;-1.19537353515625
2,673;-1.1956787109375
2,674;-1.19537353515625
2,675;-1.1956787109375
2,676;-1.195068359375
2,677;-1.195068359375
2,678;-1.19537353515625
2,679;-1.19537353515625
2,68;-1.19537353515625
2,681;-1.19537353515625
2,682;-1.1944580078125
2,683;-1.195068359375
2,684;-1.195068359375
2,685;-1.195068359375
2,686;-1.19537353515625
2,687;-1.1956787109375
2,688;-1.1956787109375
2,689;-1.195068359375
2,69;-1.1956787109375
2,691;-1.195068359375
2,692;-1.1956787109375
2,693;-1.19537353515625
2,694;-1.19537353515625
2,695;-1.19537353515625
2,696;-1.1956787109375
2,697;-1.195068359375
2,698;-1.195068359375
2,699;-1.19537353515625
2,7;-1.195068359375
2,701;-1.195068359375
2,702;-1.19537353515625
2,703;-1.19476318359375
2,704;-1.195068359375
2,705;-1.195068359375
2,706;-1.19476318359375
2,707;-1.195068359375
2,708;-1.19537353515625
2,709;-1.19537353515625
2,71;-1.19537353515625
2,711;-1.19537353515625
2,712;-1.19537353515625
2,713;-1.19537353515625
2,714;-1.19537353515625
2,715;-1.19537353515625
2,716;-1.19476318359375
2,717;-1.195068359375
2,718;-1.19598388671875
2,719;-1.19537353515625
2,72;-1.19537353515625
2,721;-1.195068359375
2,722;-1.19537353515625
2,723;-1.19537353515625
2,724;-1.19476318359375
2,725;-1.1956787109375
2,726;-1.1956787109375
2,727;-1.1956787109375
2,728;-1.19476318359375
2,729;-1.1956787109375
2,73;-1.195068359375
2,731;-1.19537353515625
2,732;-1.19537353515625
2,733;-1.1956787109375
2,734;-1.195068359375
2,735;-1.19537353515625
2,736;-1.19476318359375
2,737;-1.195068359375
2,738;-1.19537353515625
2,739;-1.195068359375
2,74;-1.19598388671875
2,741;-1.19537353515625
2,742;-1.195068359375
2,743;-1.19537353515625
2,744;-1.19537353515625
2,745;-1.19537353515625
2,746;-1.1956787109375
2,747;-1.1956787109375
2,748;-1.1956787109375
2,749;-1.19537353515625
2,75;-1.19537353515625
2,751;-1.1956787109375
2,752;-1.19537353515625
2,753;-1.19537353515625
2,754;-1.195068359375
2,755;-1.195068359375
2,756;-1.195068359375
2,757;-1.1956787109375
2,758;-1.195068359375
2,759;-1.19537353515625
2,76;-1.195068359375
2,761;-1.19476318359375
2,762;-1.195068359375
2,763;-1.195068359375
2,764;-1.195068359375
2,765;-1.19537353515625
2,766;-1.19537353515625
2,767;-1.195068359375
2,768;-1.19537353515625
2,769;-1.19537353515625
2,77;-1.19537353515625
2,771;-1.19537353515625
2,772;-1.19537353515625
2,773;-1.19537353515625
2,774;-1.19537353515625
2,775;-1.195068359375
2,776;-1.19537353515625
2,777;-1.195068359375
2,778;-1.19476318359375
2,779;-1.1956787109375
2,78;-1.19537353515625
2,781;-1.19537353515625
2,782;-1.19537353515625
2,783;-1.1956787109375
2,784;-1.195068359375
2,785;-1.19537353515625
2,786;-1.19537353515625
2,787;-1.19537353515625
2,788;-1.19476318359375
2,789;-1.19476318359375
2,79;-1.195068359375
2,791;-1.19537353515625
2,792;-1.195068359375
2,793;-1.19537353515625
2,794;-1.195068359375
2,795;-1.195068359375
2,796;-1.19476318359375
2,797;-1.1956787109375
2,798;-1.195068359375
2,799;-1.19537353515625
2,8;-1.195068359375
2,801;-1.1956787109375
2,802;-1.195068359375
2,803;-1.195068359375
2,804;-1.195068359375
2,805;-1.19476318359375
2,806;-1.195068359375
2,807;-1.19537353515625
2,808;-1.195068359375
2,809;-1.195068359375
2,81;-1.1956787109375
2,811;-1.1956787109375
2,812;-1.19476318359375
2,813;-1.195068359375
2,814;-1.195068359375
2,815;-1.19537353515625
2,816;-1.19598388671875
2,817;-1.19537353515625
2,818;-1.195068359375
2,819;-1.19537353515625
2,82;-1.19537353515625
2,821;-1.19537353515625
2,822;-1.19476318359375
2,823;-1.19598388671875
2,824;-1.195068359375
2,825;-1.19537353515625
2,826;-1.19537353515625
2,827;-1.19537353515625
2,828;-1.19537353515625
2,829;-1.195068359375
2,83;-1.195068359375
2,831;-1.195068359375
2,832;-1.195068359375
2,833;-1.1956787109375
2,834;-1.19537353515625
2,835;-1.19537353515625
2,836;-1.19476318359375
2,837;-1.19537353515625
2,838;-1.195068359375
2,839;-1.19537353515625
2,84;-1.1956787109375
2,841;-1.19537353515625
2,842;-1.19537353515625
2,843;-1.195068359375
2,844;-1.19537353515625
2,845;-1.195068359375
2,846;-1.19537353515625
2,847;-1.195068359375
2,848;-1.19598388671875
2,849;-1.19476318359375
2,85;-1.19537353515625
2,851;-1.19476318359375
2,852;-1.1956787109375
2,853;-1.195068359375
2,854;-1.195068359375
2,855;-1.19537353515625
2,856;-1.19537353515625
2,857;-1.19537353515625
2,858;-1.195068359375
2,859;-1.19537353515625
2,86;-1.19537353515625
2,861;-1.19537353515625
2,862;-1.195068359375
2,863;-1.195068359375
2,864;-1.19537353515625
2,865;-1.19537353515625
2,866;-1.19537353515625
2,867;-1.19537353515625
2,868;-1.19476318359375
2,869;-1.19476318359375
2,87;-1.195068359375
2,871;-1.195068359375
2,872;-1.19537353515625
2,873;-1.195068359375
2,874;-1.195068359375
2,875;-1.195068359375
2,876;-1.1944580078125
2,877;-1.19598388671875
2,878;-1.19476318359375
2,879;-1.195068359375
2,88;-1.195068359375
2,881;-1.19537353515625
2,882;-1.195068359375
2,883;-1.19537353515625
2,884;-1.19537353515625
2,885;-1.1956787109375
2,886;-1.19537353515625
2,887;-1.19537353515625
2,888;-1.19598388671875
2,889;-1.195068359375
2,89;-1.19537353515625
2,891;-1.19537353515625
2,892;-1.19537353515625
2,893;-1.1956787109375
2,894;-1.195068359375
2,895;-1.19476318359375
2,896;-1.19537353515625
2,897;-1.19537353515625
2,898;-1.195068359375
2,899;-1.19476318359375
2,9;-1.19537353515625
2,901;-1.195068359375
2,902;-1.19537353515625
2,903;-1.19537353515625
2,904;-1.195068359375
2,905;-1.19537353515625
2,906;-1.19537353515625
2,907;-1.19537353515625
2,908;-1.195068359375
2,909;-1.195068359375
2,91;-1.19537353515625
2,911;-1.19537353515625
2,912;-1.19537353515625
2,913;-1.195068359375
2,914;-1.195068359375
2,915;-1.19476318359375
2,916;-1.19537353515625
2,917;-1.19537353515625
2,918;-1.19537353515625
2,919;-1.195068359375
2,92;-1.1956787109375
2,921;-1.195068359375
2,922;-1.195068359375
2,923;-1.195068359375
2,924;-1.195068359375
2,925;-1.19537353515625
2,926;-1.19476318359375
2,927;-1.19537353515625
2,928;-1.19537353515625
2,929;-1.1956787109375
2,93;-1.19537353515625
2,931;-1.1944580078125
2,932;-1.195068359375
2,933;-1.19537353515625
2,934;-1.19537353515625
2,935;-1.19476318359375
2,936;-1.19537353515625
2,937;-1.1956787109375
2,938;-1.1956787109375
2,939;-1.19476318359375
2,94;-1.195068359375
2,941;-1.195068359375
2,942;-1.195068359375
2,943;-1.19537353515625
2,944;-1.19537353515625
2,945;-1.19537353515625
2,946;-1.195068359375
2,947;-1.195068359375
2,948;-1.19537353515625
2,949;-1.1956787109375
2,95;-1.19537353515625
2,951;-1.195068359375
2,952;-1.1956787109375
2,953;-1.195068359375
2,954;-1.195068359375
2,955;-1.1944580078125
2,956;-1.195068359375
2,957;-1.1956787109375
2,958;-1.19537353515625
2,959;-1.1956787109375
2,96;-1.19537353515625
2,961;-1.19537353515625
2,962;-1.19476318359375
2,963;-1.195068359375
2,964;-1.195068359375
2,965;-1.19537353515625
2,966;-1.19476318359375
2,967;-1.195068359375
2,968;-1.195068359375
2,969;-1.19476318359375
2,97;-1.195068359375
2,971;-1.195068359375
2,972;-1.19476318359375
2,973;-1.19537353515625
2,974;-1.195068359375
2,975;-1.195068359375
2,976;-1.19537353515625
2,977;-1.195068359375
2,978;-1.195068359375
2,979;-1.195068359375
2,98;-1.195068359375
2,981;-1.195068359375
2,982;-1.19537353515625
2,983;-1.19537353515625
2,984;-1.195068359375
2,985;-1.1944580078125
2,986;-1.19537353515625
2,987;-1.195068359375
2,988;-1.195068359375
2,989;-1.1956787109375
2,99;-1.195068359375
2,991;-1.195068359375
2,992;-1.19537353515625
2,993;-1.195068359375
2,994;-1.19537353515625
2,995;-1.195068359375
2,996;-1.195068359375
2,997;-1.19537353515625
2,998;-1.195068359375
2,999;-1.195068359375
3;-1.19537353515625
3,001;-1.19476318359375
3,002;-1.19476318359375
3,003;-1.195068359375
3,004;-1.195068359375
3,005;-1.19476318359375
3,006;-1.19537353515625
3,007;-1.195068359375
3,008;-1.195068359375
3,009;-1.19537353515625
3,01;-1.195068359375
3,011;-1.195068359375
3,012;-1.19537353515625
3,013;-1.195068359375
3,014;-1.19537353515625
3,015;-1.195068359375
3,016;-1.19537353515625
3,017;-1.1956787109375
3,018;-1.1956787109375
3,019;-1.195068359375
3,02;-1.1956787109375
3,021;-1.19537353515625
3,022;-1.1956787109375
3,023;-1.19476318359375
3,024;-1.19537353515625
3,025;-1.19476318359375
3,026;-1.19476318359375
3,027;-1.195068359375
3,028;-1.195068359375
3,029;-1.1956787109375
3,03;-1.19537353515625
3,031;-1.195068359375
3,032;-1.19537353515625
3,033;-1.195068359375
3,034;-1.195068359375
3,035;-1.19476318359375
3,036;-1.1956787109375
3,037;-1.19476318359375
3,038;-1.195068359375
3,039;-1.1956787109375
3,04;-1.195068359375
3,041;-1.1956787109375
3,042;-1.195068359375
3,043;-1.195068359375
3,044;-1.1956787109375
3,045;-1.19476318359375
3,046;-1.19537353515625
3,047;-1.1956787109375
3,048;-1.19537353515625
3,049;-1.19537353515625
3,05;-1.195068359375
3,051;-1.195068359375
3,052;-1.195068359375
3,053;-1.1956787109375
3,054;-1.195068359375
3,055;-1.19537353515625
3,056;-1.195068359375
3,057;-1.195068359375
3,058;-1.19537353515625
3,059;-1.1956787109375
3,06;-1.19537353515625
3,061;-1.195068359375
3,062;-1.19476318359375
3,063;-1.19537353515625
3,064;-1.19537353515625
3,065;-1.195068359375
3,066;-1.19537353515625
3,067;-1.195068359375
3,068;-1.19476318359375
3,069;-1.195068359375
3,07;-1.1944580078125
3,071;-1.195068359375
3,072;-1.195068359375
3,073;-1.195068359375
3,074;-1.19537353515625
3,075;-1.195068359375
3,076;-1.19537353515625
3,077;-1.19537353515625
3,078;-1.195068359375
3,079;-1.195068359375
3,08;-1.19476318359375
3,081;-1.195068359375
3,082;-1.195068359375
3,083;-1.19537353515625
3,084;-1.195068359375
3,085;-1.19537353515625
3,086;-1.195068359375
3,087;-1.195068359375
3,088;-1.195068359375
3,089;-1.195068359375
3,09;-1.195068359375
3,091;-1.195068359375
3,092;-1.1956787109375
3,093;-1.195068359375
3,094;-1.19537353515625
3,095;-1.195068359375
3,096;-1.19476318359375
3,097;-1.19537353515625
3,098;-1.19537353515625
3,099;-1.19537353515625
3,1;-1.19537353515625
3,101;-1.195068359375
3,102;-1.195068359375
3,103;-1.195068359375
3,104;-1.19537353515625
3,105;-1.19476318359375
3,106;-1.195068359375
3,107;-1.19537353515625
3,108;-1.195068359375
3,109;-1.1956787109375
3,11;-1.19537353515625
3,111;-1.195068359375
3,112;-1.19537353515625
3,113;-1.195068359375
3,114;-1.19537353515625
3,115;-1.195068359375
3,116;-1.195068359375
3,117;-1.195068359375
3,118;-1.195068359375
3,119;-1.19476318359375
3,12;-1.195068359375
3,121;-1.1944580078125
3,122;-1.195068359375
3,123;-1.19537353515625
3,124;-1.195068359375
3,125;-1.195068359375
3,126;-1.195068359375
3,127;-1.1956787109375
3,128;-1.19476318359375
3,129;-1.19537353515625
3,13;-1.195068359375
3,131;-1.19537353515625
3,132;-1.195068359375
3,133;-1.19476318359375
3,134;-1.19476318359375
3,135;-1.195068359375
3,136;-1.19537353515625
3,137;-1.19476318359375
3,138;-1.195068359375
3,139;-1.19537353515625
3,14;-1.19476318359375
3,141;-1.19537353515625
3,142;-1.1956787109375
3,143;-1.195068359375
3,144;-1.19476318359375
3,145;-1.19537353515625
3,146;-1.195068359375
3,147;-1.1956787109375
3,148;-1.19537353515625
3,149;-1.195068359375
3,15;-1.195068359375
3,151;-1.195068359375
3,152;-1.195068359375
3,153;-1.19537353515625
3,154;-1.19537353515625
3,155;-1.195068359375
3,156;-1.19476318359375
3,157;-1.195068359375
3,158;-1.19537353515625
3,159;-1.19537353515625
3,16;-1.1944580078125
3,161;-1.19537353515625
3,162;-1.19537353515625
3,163;-1.19537353515625
3,164;-1.19537353515625
3,165;-1.19476318359375
3,166;-1.195068359375
3,167;-1.195068359375
3,168;-1.195068359375
3,169;-1.19537353515625
3,17;-1.19537353515625
3,171;-1.19537353515625
3,172;-1.195068359375
3,173;-1.19537353515625
3,174;-1.19476318359375
3,175;-1.195068359375
3,176;-1.19476318359375
3,177;-1.19476318359375
3,178;-1.19476318359375
3,179;-1.19537353515625
3,18;-1.195068359375
3,181;-1.195068359375
3,182;-1.19476318359375
3,183;-1.19476318359375
3,184;-1.195068359375
3,185;-1.195068359375
3,186;-1.195068359375
3,187;-1.195068359375
3,188;-1.1956787109375
3,189;-1.195068359375
3,19;-1.19537353515625
3,191;-1.195068359375
3,192;-1.195068359375
3,193;-1.19537353515625
3,194;-1.19598388671875
3,195;-1.19537353515625
3,196;-1.19537353515625
3,197;-1.19537353515625
3,198;-1.19537353515625
3,199;-1.19537353515625
3,2;-1.195068359375
3,201;-1.195068359375
3,202;-1.19476318359375
3,203;-1.195068359375
3,204;-1.19537353515625
3,205;-1.195068359375
3,206;-1.195068359375
3,207;-1.19476318359375
3,208;-1.195068359375
3,209;-1.19476318359375
3,21;-1.19537353515625
3,211;-1.19537353515625
3,212;-1.195068359375
3,213;-1.19537353515625
3,214;-1.195068359375
3,215;-1.195068359375
3,216;-1.1944580078125
3,217;-1.19537353515625
3,218;-1.19476318359375
3,219;-1.1944580078125
3,22;-1.19598388671875
3,221;-1.1956787109375
3,222;-1.19537353515625
3,223;-1.195068359375
3,224;-1.19537353515625
3,225;-1.195068359375
3,226;-1.19476318359375
3,227;-1.195068359375
3,228;-1.19476318359375
3,229;-1.19537353515625
3,23;-1.195068359375
3,231;-1.195068359375
3,232;-1.19537353515625
3,233;-1.19537353515625
3,234;-1.19476318359375
3,235;-1.195068359375
3,236;-1.19476318359375
3,237;-1.195068359375
3,238;-1.19537353515625
3,239;-1.19537353515625
3,24;-1.195068359375
3,241;-1.19476318359375
3,242;-1.19476318359375
3,243;-1.195068359375
3,244;-1.195068359375
3,245;-1.19537353515625
3,246;-1.195068359375
3,247;-1.195068359375
3,248;-1.19537353515625
3,249;-1.19537353515625
3,25;-1.1944580078125
3,251;-1.195068359375
3,252;-1.19537353515625
3,253;-1.19476318359375
3,254;-1.19476318359375
3,255;-1.1956787109375
3,256;-1.19537353515625
3,257;-1.19537353515625
3,258;-1.19537353515625
3,259;-1.195068359375
3,26;-1.195068359375
3,261;-1.19598388671875
3,262;-1.19476318359375
3,263;-1.195068359375
3,264;-1.19537353515625
3,265;-1.19537353515625
3,266;-1.195068359375
3,267;-1.1956787109375
3,268;-1.19537353515625
3,269;-1.195068359375
3,27;-1.19476318359375
3,271;-1.19537353515625
3,272;-1.19537353515625
3,273;-1.1944580078125
3,274;-1.195068359375
3,275;-1.195068359375
3,276;-1.19537353515625
3,277;-1.195068359375
3,278;-1.195068359375
3,279;-1.195068359375
3,28;-1.19537353515625
3,281;-1.19537353515625
3,282;-1.19476318359375
3,283;-1.19537353515625
3,284;-1.195068359375
3,285;-1.19537353515625
3,286;-1.19537353515625
3,287;-1.19537353515625
3,288;-1.195068359375
3,289;-1.19537353515625
3,29;-1.195068359375
3,291;-1.19476318359375
3,292;-1.1956787109375
3,293;-1.195068359375
3,294;-1.195068359375
3,295;-1.19537353515625
3,296;-1.19537353515625
3,297;-1.19476318359375
3,298;-1.19476318359375
3,299;-1.195068359375
3,3;-1.1956787109375
3,301;-1.195068359375
3,302;-1.195068359375
3,303;-1.19537353515625
3,304;-1.195068359375
3,305;-1.195068359375
3,306;-1.19476318359375
3,307;-1.195068359375
3,308;-1.19537353515625
3,309;-1.195068359375
3,31;-1.195068359375
3,311;-1.19537353515625
3,312;-1.195068359375
3,313;-1.195068359375
3,314;-1.19537353515625
3,315;-1.195068359375
3,316;-1.1956787109375
3,317;-1.195068359375
3,318;-1.195068359375
3,319;-1.19415283203125
3,32;-1.195068359375
3,321;-1.19537353515625
3,322;-1.1956787109375
3,323;-1.195068359375
3,324;-1.195068359375
3,325;-1.195068359375
3,326;-1.19537353515625
3,327;-1.195068359375
3,328;-1.195068359375
3,329;-1.19537353515625
3,33;-1.1944580078125
3,331;-1.195068359375
3,332;-1.195068359375
3,333;-1.195068359375
3,334;-1.195068359375
3,335;-1.195068359375
3,336;-1.195068359375
3,337;-1.19537353515625
3,338;-1.1944580078125
3,339;-1.19537353515625
3,34;-1.19537353515625
3,341;-1.19537353515625
3,342;-1.19537353515625
3,343;-1.19537353515625
3,344;-1.19476318359375
3,345;-1.195068359375
3,346;-1.1956787109375
3,347;-1.19537353515625
3,348;-1.19537353515625
3,349;-1.1944580078125
3,35;-1.19537353515625
3,351;-1.19476318359375
3,352;-1.1944580078125
3,353;-1.195068359375
3,354;-1.19476318359375
3,355;-1.1956787109375
3,356;-1.1956787109375
3,357;-1.19476318359375
3,358;-1.195068359375
3,359;-1.19537353515625
3,36;-1.195068359375
3,361;-1.19537353515625
3,362;-1.1944580078125
3,363;-1.19537353515625
3,364;-1.19537353515625
3,365;-1.195068359375
3,366;-1.19537353515625
3,367;-1.195068359375
3,368;-1.1956787109375
3,369;-1.1956787109375
3,37;-1.19537353515625
3,371;-1.19476318359375
3,372;-1.19537353515625
3,373;-1.1956787109375
3,374;-1.195068359375
3,375;-1.195068359375
3,376;-1.195068359375
3,377;-1.19476318359375
3,378;-1.19476318359375
3,379;-1.19476318359375
3,38;-1.19476318359375
3,381;-1.195068359375
3,382;-1.19537353515625
3,383;-1.1956787109375
3,384;-1.19537353515625
3,385;-1.19476318359375
3,386;-1.195068359375
3,387;-1.19476318359375
3,388;-1.19476318359375
3,389;-1.19537353515625
3,39;-1.195068359375
3,391;-1.19537353515625
3,392;-1.195068359375
3,393;-1.195068359375
3,394;-1.19537353515625
3,395;-1.19476318359375
3,396;-1.195068359375
3,397;-1.195068359375
3,398;-1.195068359375
3,399;-1.195068359375
3,4;-1.19537353515625
3,401;-1.19476318359375
3,402;-1.19476318359375
3,403;-1.1944580078125
3,404;-1.195068359375
3,405;-1.19476318359375
3,406;-1.19476318359375
3,407;-1.195068359375
3,408;-1.19537353515625
3,409;-1.195068359375
3,41;-1.1956787109375
3,411;-1.19476318359375
3,412;-1.195068359375
3,413;-1.1944580078125
3,414;-1.195068359375
3,415;-1.19537353515625
3,416;-1.19537353515625
3,417;-1.195068359375
3,418;-1.1956787109375
3,419;-1.19476318359375
3,42;-1.19537353515625
3,421;-1.195068359375
3,422;-1.19537353515625
3,423;-1.195068359375
3,424;-1.19476318359375
3,425;-1.19476318359375
3,426;-1.195068359375
3,427;-1.19476318359375
3,428;-1.19476318359375
3,429;-1.19537353515625
3,43;-1.19537353515625
3,431;-1.19476318359375
3,432;-1.19537353515625
3,433;-1.19476318359375
3,434;-1.1956787109375
3,435;-1.195068359375
3,436;-1.1956787109375
3,437;-1.19537353515625
3,438;-1.195068359375
3,439;-1.195068359375
3,44;-1.1956787109375
3,441;-1.195068359375
3,442;-1.195068359375
3,443;-1.195068359375
3,444;-1.195068359375
3,445;-1.195068359375
3,446;-1.19537353515625
3,447;-1.19537353515625
3,448;-1.195068359375
3,449;-1.195068359375
3,45;-1.1944580078125
3,451;-1.19476318359375
3,452;-1.19476318359375
3,453;-1.195068359375
3,454;-1.19537353515625
3,455;-1.195068359375
3,456;-1.19537353515625
3,457;-1.195068359375
3,458;-1.19476318359375
3,459;-1.19476318359375
3,46;-1.19476318359375
3,461;-1.1944580078125
3,462;-1.19537353515625
3,463;-1.195068359375
3,464;-1.19476318359375
3,465;-1.195068359375
3,466;-1.19476318359375
3,467;-1.195068359375
3,468;-1.195068359375
3,469;-1.19476318359375
3,47;-1.195068359375
3,471;-1.195068359375
3,472;-1.195068359375
3,473;-1.19476318359375
3,474;-1.1956787109375
3,475;-1.19537353515625
3,476;-1.195068359375
3,477;-1.19476318359375
3,478;-1.19537353515625
3,479;-1.195068359375
3,48;-1.19537353515625
3,481;-1.19537353515625
3,482;-1.19476318359375
3,483;-1.19537353515625
3,484;-1.19537353515625
3,485;-1.195068359375
3,486;-1.1956787109375
3,487;-1.195068359375
3,488;-1.1944580078125
3,489;-1.195068359375
3,49;-1.1956787109375
3,491;-1.195068359375
3,492;-1.19476318359375
3,493;-1.195068359375
3,494;-1.19537353515625
3,495;-1.195068359375
3,496;-1.19537353515625
3,497;-1.1944580078125
3,498;-1.1956787109375
3,499;-1.19537353515625
3,5;-1.1944580078125
3,501;-1.19537353515625
3,502;-1.19476318359375
3,503;-1.19476318359375
3,504;-1.1956787109375
3,505;-1.195068359375
3,506;-1.1944580078125
3,507;-1.19476318359375
3,508;-1.195068359375
3,509;-1.19476318359375
3,51;-1.19476318359375
3,511;-1.19537353515625
3,512;-1.1944580078125
3,513;-1.19537353515625
3,514;-1.195068359375
3,515;-1.195068359375
3,516;-1.195068359375
3,517;-1.19476318359375
3,518;-1.19476318359375
3,519;-1.19537353515625
3,52;-1.19537353515625
3,521;-1.195068359375
3,522;-1.19537353515625
3,523;-1.195068359375
3,524;-1.19476318359375
3,525;-1.19537353515625
3,526;-1.19537353515625
3,527;-1.19537353515625
3,528;-1.195068359375
3,529;-1.195068359375
3,53;-1.1956787109375
3,531;-1.195068359375
3,532;-1.195068359375
3,533;-1.1944580078125
3,534;-1.19476318359375
3,535;-1.195068359375
3,536;-1.19537353515625
3,537;-1.195068359375
3,538;-1.195068359375
3,539;-1.19476318359375
3,54;-1.1944580078125
3,541;-1.19537353515625
3,542;-1.19476318359375
3,543;-1.195068359375
3,544;-1.195068359375
3,545;-1.195068359375
3,546;-1.19476318359375
3,547;-1.195068359375
3,548;-1.195068359375
3,549;-1.195068359375
3,55;-1.195068359375
3,551;-1.19537353515625
3,552;-1.195068359375
3,553;-1.19476318359375
3,554;-1.1956787109375
3,555;-1.19476318359375
3,556;-1.195068359375
3,557;-1.19476318359375
3,558;-1.195068359375
3,559;-1.19537353515625
3,56;-1.19537353515625
3,561;-1.1944580078125
3,562;-1.195068359375
3,563;-1.19476318359375
3,564;-1.19476318359375
3,565;-1.19537353515625
3,566;-1.195068359375
3,567;-1.19476318359375
3,568;-1.195068359375
3,569;-1.19476318359375
3,57;-1.195068359375
3,571;-1.19537353515625
3,572;-1.195068359375
3,573;-1.195068359375
3,574;-1.19537353515625
3,575;-1.19476318359375
3,576;-1.19476318359375
3,577;-1.19476318359375
3,578;-1.195068359375
3,579;-1.195068359375
3,58;-1.19537353515625
3,581;-1.19476318359375
3,582;-1.195068359375
3,583;-1.19537353515625
3,584;-1.19537353515625
3,585;-1.195068359375
3,586;-1.19476318359375
3,587;-1.1944580078125
3,588;-1.1944580078125
3,589;-1.19476318359375
3,59;-1.19476318359375
3,591;-1.19476318359375
3,592;-1.19476318359375
3,593;-1.195068359375
3,594;-1.19476318359375
3,595;-1.195068359375
3,596;-1.19537353515625
3,597;-1.19476318359375
3,598;-1.19476318359375
3,599;-1.19537353515625
3,6;-1.195068359375
3,601;-1.195068359375
3,602;-1.195068359375
3,603;-1.195068359375
3,604;-1.195068359375
3,605;-1.19537353515625
3,606;-1.19476318359375
3,607;-1.19476318359375
3,608;-1.19537353515625
3,609;-1.19537353515625
3,61;-1.19537353515625
3,611;-1.19537353515625
3,612;-1.19537353515625
3,613;-1.19537353515625
3,614;-1.195068359375
3,615;-1.19537353515625
3,616;-1.195068359375
3,617;-1.19476318359375
3,618;-1.195068359375
3,619;-1.19476318359375
3,62;-1.195068359375
3,621;-1.19537353515625
3,622;-1.195068359375
3,623;-1.19476318359375
3,624;-1.1944580078125
3,625;-1.195068359375
3,626;-1.19476318359375
3,627;-1.19476318359375
3,628;-1.19476318359375
3,629;-1.19476318359375
3,63;-1.195068359375
3,631;-1.195068359375
3,632;-1.19537353515625
3,633;-1.19476318359375
3,634;-1.19537353515625
3,635;-1.19476318359375
3,636;-1.195068359375
3,637;-1.19415283203125
3,638;-1.1944580078125
3,639;-1.19476318359375
3,64;-1.1944580078125
3,641;-1.19476318359375
3,642;-1.19537353515625
3,643;-1.195068359375
3,644;-1.195068359375
3,645;-1.1956787109375
3,646;-1.1944580078125
3,647;-1.19476318359375
3,648;-1.19537353515625
3,649;-1.19476318359375
3,65;-1.19476318359375
3,651;-1.1956787109375
3,652;-1.195068359375
3,653;-1.1956787109375
3,654;-1.19476318359375
3,655;-1.19537353515625
3,656;-1.19476318359375
3,657;-1.195068359375
3,658;-1.195068359375
3,659;-1.19537353515625
3,66;-1.19476318359375
3,661;-1.1944580078125
3,662;-1.19476318359375
3,663;-1.19476318359375
3,664;-1.19476318359375
3,665;-1.19537353515625
3,666;-1.19537353515625
3,667;-1.1944580078125
3,668;-1.195068359375
3,669;-1.19476318359375
3,67;-1.19537353515625
3,671;-1.195068359375
3,672;-1.19476318359375
3,673;-1.19476318359375
3,674;-1.19476318359375
3,675;-1.19476318359375
3,676;-1.195068359375
3,677;-1.19476318359375
3,678;-1.19476318359375
3,679;-1.19537353515625
3,68;-1.1944580078125
3,681;-1.195068359375
3,682;-1.195068359375
3,683;-1.195068359375
3,684;-1.195068359375
3,685;-1.19537353515625
3,686;-1.19476318359375
3,687;-1.19537353515625
3,688;-1.19476318359375
3,689;-1.19476318359375
3,69;-1.19476318359375
3,691;-1.19537353515625
3,692;-1.19537353515625
3,693;-1.19415283203125
3,694;-1.19476318359375
3,695;-1.19476318359375
3,696;-1.19476318359375
3,697;-1.19476318359375
3,698;-1.19476318359375
3,699;-1.19415283203125
3,7;-1.195068359375
3,701;-1.19476318359375
3,702;-1.19537353515625
3,703;-1.19476318359375
3,704;-1.19476318359375
3,705;-1.1956787109375
3,706;-1.19537353515625
3,707;-1.19476318359375
3,708;-1.19476318359375
3,709;-1.1944580078125
3,71;-1.195068359375
3,711;-1.195068359375
3,712;-1.19537353515625
3,713;-1.19476318359375
3,714;-1.1944580078125
3,715;-1.195068359375
3,716;-1.19476318359375
3,717;-1.195068359375
3,718;-1.195068359375
3,719;-1.195068359375
3,72;-1.1956787109375
3,721;-1.19537353515625
3,722;-1.19476318359375
3,723;-1.195068359375
3,724;-1.195068359375
3,725;-1.195068359375
3,726;-1.19476318359375
3,727;-1.19476318359375
3,728;-1.19537353515625
3,729;-1.1944580078125
3,73;-1.19476318359375
3,731;-1.195068359375
3,732;-1.19476318359375
3,733;-1.195068359375
3,734;-1.1956787109375
3,735;-1.19476318359375
3,736;-1.195068359375
3,737;-1.195068359375
3,738;-1.19476318359375
3,739;-1.195068359375
3,74;-1.195068359375
3,741;-1.19537353515625
3,742;-1.195068359375
3,743;-1.19537353515625
3,744;-1.195068359375
3,745;-1.195068359375
3,746;-1.19537353515625
3,747;-1.19537353515625
3,748;-1.195068359375
3,749;-1.19476318359375
3,75;-1.19537353515625
3,751;-1.19537353515625
3,752;-1.195068359375
3,753;-1.19537353515625
3,754;-1.1944580078125
3,755;-1.19476318359375
3,756;-1.195068359375
3,757;-1.195068359375
3,758;-1.195068359375
3,759;-1.195068359375
3,76;-1.195068359375
3,761;-1.19537353515625
3,762;-1.19476318359375
3,763;-1.195068359375
3,764;-1.19476318359375
3,765;-1.195068359375
3,766;-1.19537353515625
3,767;-1.195068359375
3,768;-1.195068359375
3,769;-1.1944580078125
3,77;-1.195068359375
3,771;-1.19476318359375
3,772;-1.195068359375
3,773;-1.19476318359375
3,774;-1.19476318359375
3,775;-1.19537353515625
3,776;-1.19537353515625
3,777;-1.1944580078125
3,778;-1.195068359375
3,779;-1.195068359375
3,78;-1.195068359375
3,781;-1.19537353515625
3,782;-1.19476318359375
3,783;-1.19476318359375
3,784;-1.195068359375
3,785;-1.195068359375
3,786;-1.19476318359375
3,787;-1.195068359375
3,788;-1.19537353515625
3,789;-1.19537353515625
3,79;-1.195068359375
3,791;-1.195068359375
3,792;-1.19476318359375
3,793;-1.19476318359375
3,794;-1.195068359375
3,795;-1.195068359375
3,796;-1.195068359375
3,797;-1.195068359375
3,798;-1.19537353515625
3,799;-1.195068359375
3,8;-1.19476318359375
3,801;-1.19476318359375
3,802;-1.19476318359375
3,803;-1.19476318359375
3,804;-1.1944580078125
3,805;-1.19476318359375
3,806;-1.1944580078125
3,807;-1.195068359375
3,808;-1.195068359375
3,809;-1.195068359375
3,81;-1.195068359375
3,811;-1.19537353515625
3,812;-1.1944580078125
3,813;-1.195068359375
3,814;-1.19537353515625
3,815;-1.19476318359375
3,816;-1.19476318359375
3,817;-1.195068359375
3,818;-1.195068359375
3,819;-1.19415283203125
3,82;-1.195068359375
3,821;-1.195068359375
3,822;-1.19537353515625
3,823;-1.19476318359375
3,824;-1.19476318359375
3,825;-1.19476318359375
3,826;-1.195068359375
3,827;-1.19476318359375
3,828;-1.19476318359375
3,829;-1.195068359375
3,83;-1.1956787109375
3,831;-1.195068359375
3,832;-1.19537353515625
3,833;-1.19476318359375
3,834;-1.1956787109375
3,835;-1.19476318359375
3,836;-1.19537353515625
3,837;-1.195068359375
3,838;-1.195068359375
3,839;-1.19476318359375
3,84;-1.1956787109375
3,841;-1.195068359375
3,842;-1.19537353515625
3,843;-1.19476318359375
3,844;-1.195068359375
3,845;-1.1944580078125
3,846;-1.195068359375
3,847;-1.19537353515625
3,848;-1.195068359375
3,849;-1.19476318359375
3,85;-1.19476318359375
3,851;-1.195068359375
3,852;-1.19476318359375
3,853;-1.195068359375
3,854;-1.195068359375
3,855;-1.195068359375
3,856;-1.19537353515625
3,857;-1.195068359375
3,858;-1.195068359375
3,859;-1.19476318359375
3,86;-1.19537353515625
3,861;-1.19537353515625
3,862;-1.19476318359375
3,863;-1.19537353515625
3,864;-1.19476318359375
3,865;-1.195068359375
3,866;-1.195068359375
3,867;-1.195068359375
3,868;-1.1944580078125
3,869;-1.195068359375
3,87;-1.19476318359375
3,871;-1.1944580078125
3,872;-1.19476318359375
3,873;-1.19476318359375
3,874;-1.19476318359375
3,875;-1.19537353515625
3,876;-1.195068359375
3,877;-1.195068359375
3,878;-1.195068359375
3,879;-1.19476318359375
3,88;-1.19476318359375
3,881;-1.195068359375
3,882;-1.19476318359375
3,883;-1.19537353515625
3,884;-1.19537353515625
3,885;-1.195068359375
3,886;-1.195068359375
3,887;-1.195068359375
3,888;-1.19476318359375
3,889;-1.19476318359375
3,89;-1.195068359375
3,891;-1.19537353515625
3,892;-1.19476318359375
3,893;-1.19476318359375
3,894;-1.195068359375
3,895;-1.195068359375
3,896;-1.195068359375
3,897;-1.1944580078125
3,898;-1.195068359375
3,899;-1.1944580078125
3,9;-1.19476318359375
3,901;-1.195068359375
3,902;-1.195068359375
3,903;-1.195068359375
3,904;-1.195068359375
3,905;-1.19476318359375
3,906;-1.19476318359375
3,907;-1.1944580078125
3,908;-1.195068359375
3,909;-1.19476318359375
3,91;-1.19537353515625
3,911;-1.195068359375
3,912;-1.19476318359375
3,913;-1.195068359375
3,914;-1.195068359375
3,915;-1.19537353515625
3,916;-1.19537353515625
3,917;-1.1956787109375
3,918;-1.1944580078125
3,919;-1.195068359375
3,92;-1.19476318359375
3,921;-1.195068359375
3,922;-1.195068359375
3,923;-1.19476318359375
3,924;-1.19476318359375
3,925;-1.19537353515625
3,926;-1.195068359375
3,927;-1.195068359375
3,928;-1.19476318359375
3,929;-1.195068359375
3,93;-1.195068359375
3,931;-1.19476318359375
3,932;-1.1944580078125
3,933;-1.195068359375
3,934;-1.195068359375
3,935;-1.195068359375
3,936;-1.195068359375
3,937;-1.195068359375
3,938;-1.195068359375
3,939;-1.19476318359375
3,94;-1.19537353515625
3,941;-1.19476318359375
3,942;-1.195068359375
3,943;-1.195068359375
3,944;-1.19476318359375
3,945;-1.195068359375
3,946;-1.19476318359375
3,947;-1.195068359375
3,948;-1.19476318359375
3,949;-1.1944580078125
3,95;-1.19476318359375
3,951;-1.195068359375
3,952;-1.19476318359375
3,953;-1.19476318359375
3,954;-1.195068359375
3,955;-1.195068359375
3,956;-1.195068359375
3,957;-1.195068359375
3,958;-1.195068359375
3,959;-1.19476318359375
3,96;-1.195068359375
3,961;-1.195068359375
3,962;-1.195068359375
3,963;-1.195068359375
3,964;-1.19476318359375
3,965;-1.195068359375
3,966;-1.19476318359375
3,967;-1.195068359375
3,968;-1.19476318359375
3,969;-1.1944580078125
3,97;-1.19476318359375
3,971;-1.195068359375
3,972;-1.19476318359375
3,973;-1.19476318359375
3,974;-1.1944580078125
3,975;-1.195068359375
3,976;-1.1944580078125
3,977;-1.19476318359375
3,978;-1.195068359375
3,979;-1.195068359375
3,98;-1.19476318359375
3,981;-1.195068359375
3,982;-1.1944580078125
3,983;-1.19476318359375
3,984;-1.1944580078125
3,985;-1.19476318359375
3,986;-1.195068359375
3,987;-1.19476318359375
3,988;-1.19476318359375
3,989;-1.19476318359375
3,99;-1.195068359375
3,991;-1.1944580078125
3,992;-1.19537353515625
3,993;-1.19476318359375
3,994;-1.195068359375
3,995;-1.19476318359375
3,996;-1.195068359375
3,997;-1.19476318359375
3,998;-1.19476318359375
3,999;-1.19476318359375
4;-1.195068359375
4,001;-1.19476318359375
4,002;-1.195068359375
4,003;-1.19476318359375
4,004;-1.19537353515625
4,005;-1.195068359375
4,006;-1.19476318359375
4,007;-1.19476318359375
4,008;-1.19476318359375
4,009;-1.195068359375
4,01;-1.195068359375
4,011;-1.19476318359375
4,012;-1.195068359375
4,013;-1.19476318359375
4,014;-1.195068359375
4,015;-1.1944580078125
4,016;-1.19476318359375
4,017;-1.195068359375
4,018;-1.1944580078125
4,019;-1.19476318359375
4,02;-1.195068359375
4,021;-1.195068359375
4,022;-1.195068359375
4,023;-1.195068359375
4,024;-1.19476318359375
4,025;-1.19476318359375
4,026;-1.1944580078125
4,027;-1.1956787109375
4,028;-1.19476318359375
4,029;-1.195068359375
4,03;-1.19476318359375
4,031;-1.19476318359375
4,032;-1.195068359375
4,033;-1.195068359375
4,034;-1.195068359375
4,035;-1.19476318359375
4,036;-1.19537353515625
4,037;-1.1944580078125
4,038;-1.1944580078125
4,039;-1.195068359375
4,04;-1.19476318359375
4,041;-1.19476318359375
4,042;-1.195068359375
4,043;-1.19476318359375
4,044;-1.195068359375
4,045;-1.195068359375
4,046;-1.19476318359375
4,047;-1.19476318359375
4,048;-1.195068359375
4,049;-1.19476318359375
4,05;-1.195068359375
4,051;-1.19537353515625
4,052;-1.19476318359375
4,053;-1.195068359375
4,054;-1.19476318359375
4,055;-1.195068359375
4,056;-1.195068359375
4,057;-1.19476318359375
4,058;-1.19476318359375
4,059;-1.19476318359375
4,06;-1.19476318359375
4,061;-1.19415283203125
4,062;-1.19537353515625
4,063;-1.19476318359375
4,064;-1.19476318359375
4,065;-1.1956787109375
4,066;-1.19476318359375
4,067;-1.1944580078125
4,068;-1.19476318359375
4,069;-1.195068359375
4,07;-1.1944580078125
4,071;-1.195068359375
4,072;-1.19476318359375
4,073;-1.195068359375
4,074;-1.19415283203125
4,075;-1.19476318359375
4,076;-1.19476318359375
4,077;-1.195068359375
4,078;-1.19476318359375
4,079;-1.195068359375
4,08;-1.195068359375
4,081;-1.195068359375
4,082;-1.195068359375
4,083;-1.19537353515625
4,084;-1.19537353515625
4,085;-1.1944580078125
4,086;-1.195068359375
4,087;-1.195068359375
4,088;-1.19476318359375
4,089;-1.19476318359375
4,09;-1.195068359375
4,091;-1.19476318359375
4,092;-1.1944580078125
4,093;-1.19537353515625
4,094;-1.19537353515625
4,095;-1.1944580078125
4,096;-1.19476318359375
4,097;-1.19476318359375
4,098;-1.19476318359375
4,099;-1.195068359375
4,1;-1.195068359375
4,101;-1.195068359375
4,102;-1.195068359375
4,103;-1.1944580078125
4,104;-1.195068359375
4,105;-1.19537353515625
4,106;-1.19476318359375
4,107;-1.19476318359375
4,108;-1.195068359375
4,109;-1.19476318359375
4,11;-1.195068359375
4,111;-1.19476318359375
4,112;-1.1944580078125
4,113;-1.195068359375
4,114;-1.195068359375
4,115;-1.19537353515625
4,116;-1.19537353515625
4,117;-1.19476318359375
4,118;-1.19476318359375
4,119;-1.195068359375
4,12;-1.195068359375
4,121;-1.19476318359375
4,122;-1.19476318359375
4,123;-1.19476318359375
4,124;-1.19476318359375
4,125;-1.195068359375
4,126;-1.195068359375
4,127;-1.19476318359375
4,128;-1.195068359375
4,129;-1.195068359375
4,13;-1.19537353515625
4,131;-1.195068359375
4,132;-1.195068359375
4,133;-1.19537353515625
4,134;-1.19598388671875
4,135;-1.19476318359375
4,136;-1.19476318359375
4,137;-1.195068359375
4,138;-1.195068359375
4,139;-1.195068359375
4,14;-1.19476318359375
4,141;-1.195068359375
4,142;-1.19476318359375
4,143;-1.195068359375
4,144;-1.195068359375
4,145;-1.19476318359375
4,146;-1.19476318359375
4,147;-1.19537353515625
4,148;-1.19476318359375
4,149;-1.1956787109375
4,15;-1.19537353515625
4,151;-1.19476318359375
4,152;-1.1944580078125
4,153;-1.19476318359375
4,154;-1.19476318359375
4,155;-1.19476318359375
4,156;-1.19476318359375
4,157;-1.195068359375
4,158;-1.1944580078125
4,159;-1.195068359375
4,16;-1.19537353515625
4,161;-1.19476318359375
4,162;-1.195068359375
4,163;-1.195068359375
4,164;-1.195068359375
4,165;-1.19476318359375
4,166;-1.195068359375
4,167;-1.19476318359375
4,168;-1.195068359375
4,169;-1.1944580078125
4,17;-1.19476318359375
4,171;-1.195068359375
4,172;-1.19476318359375
4,173;-1.1944580078125
4,174;-1.1944580078125
4,175;-1.19476318359375
4,176;-1.1956787109375
4,177;-1.195068359375
4,178;-1.19476318359375
4,179;-1.19537353515625
4,18;-1.195068359375
4,181;-1.19537353515625
4,182;-1.195068359375
4,183;-1.19476318359375
4,184;-1.19476318359375
4,185;-1.19476318359375
4,186;-1.195068359375
4,187;-1.19476318359375
4,188;-1.195068359375
4,189;-1.19476318359375
4,19;-1.1944580078125
4,191;-1.19476318359375
4,192;-1.19476318359375
4,193;-1.19476318359375
4,194;-1.1944580078125
4,195;-1.195068359375
4,196;-1.19537353515625
4,197;-1.195068359375
4,198;-1.19476318359375
4,199;-1.1956787109375
4,2;-1.19476318359375
4,201;-1.19476318359375
4,202;-1.195068359375
4,203;-1.195068359375
4,204;-1.195068359375
4,205;-1.1944580078125
4,206;-1.19537353515625
4,207;-1.195068359375
4,208;-1.19537353515625
4,209;-1.19476318359375
4,21;-1.1944580078125
4,211;-1.1944580078125
4,212;-1.1944580078125
4,213;-1.1956787109375
4,214;-1.195068359375
4,215;-1.19476318359375
4,216;-1.19476318359375
4,217;-1.19476318359375
4,218;-1.195068359375
4,219;-1.19476318359375
4,22;-1.1944580078125
4,221;-1.19476318359375
4,222;-1.195068359375
4,223;-1.195068359375
4,224;-1.19476318359375
4,225;-1.195068359375
4,226;-1.195068359375
4,227;-1.1944580078125
4,228;-1.19476318359375
4,229;-1.195068359375
4,23;-1.19476318359375
4,231;-1.19476318359375
4,232;-1.1944580078125
4,233;-1.19476318359375
4,234;-1.195068359375
4,235;-1.19476318359375
4,236;-1.19476318359375
4,237;-1.19476318359375
4,238;-1.19537353515625
4,239;-1.19476318359375
4,24;-1.19537353515625
4,241;-1.195068359375
4,242;-1.195068359375
4,243;-1.195068359375
4,244;-1.19476318359375
4,245;-1.19476318359375
4,246;-1.195068359375
4,247;-1.195068359375
4,248;-1.195068359375
4,249;-1.19476318359375
4,25;-1.19537353515625
4,251;-1.19476318359375
4,252;-1.19476318359375
4,253;-1.195068359375
4,254;-1.195068359375
4,255;-1.19476318359375
4,256;-1.19537353515625
4,257;-1.195068359375
4,258;-1.19476318359375
4,259;-1.195068359375
4,26;-1.195068359375
4,261;-1.19476318359375
4,262;-1.195068359375
4,263;-1.195068359375
4,264;-1.195068359375
4,265;-1.195068359375
4,266;-1.19476318359375
4,267;-1.19537353515625
4,268;-1.19476318359375
4,269;-1.19476318359375
4,27;-1.195068359375
4,271;-1.19476318359375
4,272;-1.195068359375
4,273;-1.195068359375
4,274;-1.19537353515625
4,275;-1.1944580078125
4,276;-1.195068359375
4,277;-1.19476318359375
4,278;-1.195068359375
4,279;-1.19476318359375
4,28;-1.19476318359375
4,281;-1.1944580078125
4,282;-1.19476318359375
4,283;-1.195068359375
4,284;-1.19476318359375
4,285;-1.19476318359375
4,286;-1.1944580078125
4,287;-1.19476318359375
4,288;-1.195068359375
4,289;-1.19476318359375
4,29;-1.19476318359375
4,291;-1.195068359375
4,292;-1.19415283203125
4,293;-1.1944580078125
4,294;-1.19476318359375
4,295;-1.19476318359375
4,296;-1.195068359375
4,297;-1.19476318359375
4,298;-1.195068359375
4,299;-1.195068359375
4,3;-1.1944580078125
4,301;-1.1944580078125
4,302;-1.1944580078125
4,303;-1.195068359375
4,304;-1.1944580078125
4,305;-1.19476318359375
4,306;-1.1944580078125
4,307;-1.195068359375
4,308;-1.19476318359375
4,309;-1.1944580078125
4,31;-1.1944580078125
4,311;-1.195068359375
4,312;-1.195068359375
4,313;-1.19476318359375
4,314;-1.19476318359375
4,315;-1.195068359375
4,316;-1.195068359375
