
;DT9804(00).A/D0.Channel 1;DT9804(00).A/D0.Channel 1;DT9804(00).A/D0.Channel 2;DT9804(00).A/D0.Channel 3;DT9804(00).A/D0.Channel 4;DT9804(00).A/D0.Channel 5;DT9804(00).A/D0.Channel 6;DT9804(00).A/D0.Channel 7;DT9804(00).A/D0.Channel 8;DT9804(00).A/D0.Channel 9;DT9804(00).A/D0.Channel 10;DT9804(00).A/D0.Channel 11;DT9804(00).A/D0.Channel 12;DT9804(00).A/D0.Channel 13;DT9804(00).A/D0.Channel 14;DT9804(00).A/D0.Channel 15
0;-1.74224853515625
0,001;-1.741943359375
0,002;-1.74224853515625
0,003;-1.7425537109375
0,004;-1.74224853515625
0,005;-1.74285888671875
0,006;-1.74224853515625
0,007;-1.7425537109375
0,008;-1.74224853515625
0,009;-1.741943359375
0,01;-1.741943359375
0,011;-1.7425537109375
0,012;-1.74224853515625
0,013;-1.74285888671875
0,014;-1.741943359375
0,015;-1.74224853515625
0,016;-1.7425537109375
0,017;-1.741943359375
0,018;-1.7425537109375
0,019;-1.7425537109375
0,02;-1.74224853515625
0,021;-1.74285888671875
0,022;-1.74224853515625
0,023;-1.74224853515625
0,024;-1.741943359375
0,025;-1.74224853515625
0,026;-1.74224853515625
0,027;-1.74163818359375
0,028;-1.74224853515625
0,029;-1.74224853515625
0,03;-1.74163818359375
0,031;-1.74224853515625
0,032;-1.74224853515625
0,033;-1.741943359375
0,034;-1.74224853515625
0,035;-1.74224853515625
0,036;-1.741943359375
0,037;-1.74224853515625
0,038;-1.74224853515625
0,039;-1.741943359375
0,04;-1.741943359375
0,041;-1.7425537109375
0,042;-1.741943359375
0,043;-1.7425537109375
0,044;-1.741943359375
0,045;-1.74224853515625
0,046;-1.74224853515625
0,047;-1.741943359375
0,048;-1.741943359375
0,049;-1.74163818359375
0,05;-1.74224853515625
0,051;-1.7425537109375
0,052;-1.741943359375
0,053;-1.74224853515625
0,054;-1.74224853515625
0,055;-1.74224853515625
0,056;-1.74224853515625
0,057;-1.741943359375
0,058;-1.7425537109375
0,059;-1.741943359375
0,06;-1.74224853515625
0,061;-1.74224853515625
0,062;-1.74285888671875
0,063;-1.741943359375
0,064;-1.74224853515625
0,065;-1.741943359375
0,066;-1.741943359375
0,067;-1.7425537109375
0,068;-1.741943359375
0,069;-1.7425537109375
0,07;-1.7425537109375
0,071;-1.74224853515625
0,072;-1.741943359375
0,073;-1.741943359375
0,074;-1.741943359375
0,075;-1.7425537109375
0,076;-1.74163818359375
0,077;-1.74163818359375
0,078;-1.741943359375
0,079;-1.74163818359375
0,08;-1.74224853515625
0,081;-1.74224853515625
0,082;-1.74224853515625
0,083;-1.741943359375
0,084;-1.7425537109375
0,085;-1.741943359375
0,086;-1.7425537109375
0,087;-1.741943359375
0,088;-1.74224853515625
0,089;-1.741943359375
0,09;-1.741943359375
0,091;-1.74224853515625
0,092;-1.7425537109375
0,093;-1.741943359375
0,094;-1.741943359375
0,095;-1.741943359375
0,096;-1.741943359375
0,097;-1.741943359375
0,098;-1.74224853515625
0,099;-1.74224853515625
0,1;-1.741943359375
0,101;-1.741943359375
0,102;-1.74163818359375
0,103;-1.74224853515625
0,104;-1.74224853515625
0,105;-1.741943359375
0,106;-1.74224853515625
0,107;-1.74224853515625
0,108;-1.74224853515625
0,109;-1.741943359375
0,11;-1.741943359375
0,111;-1.74224853515625
0,112;-1.74224853515625
0,113;-1.74224853515625
0,114;-1.741943359375
0,115;-1.7425537109375
0,116;-1.74224853515625
0,117;-1.74224853515625
0,118;-1.74224853515625
0,119;-1.74224853515625
0,12;-1.74224853515625
0,121;-1.741943359375
0,122;-1.741943359375
0,123;-1.741943359375
0,124;-1.741943359375
0,125;-1.74224853515625
0,126;-1.74163818359375
0,127;-1.741943359375
0,128;-1.741943359375
0,129;-1.741943359375
0,13;-1.74224853515625
0,131;-1.74224853515625
0,132;-1.741943359375
0,133;-1.74224853515625
0,134;-1.74163818359375
0,135;-1.74163818359375
0,136;-1.741943359375
0,137;-1.741943359375
0,138;-1.7425537109375
0,139;-1.74224853515625
0,14;-1.7425537109375
0,141;-1.74224853515625
0,142;-1.741943359375
0,143;-1.741943359375
0,144;-1.74224853515625
0,145;-1.7425537109375
0,146;-1.74224853515625
0,147;-1.74224853515625
0,148;-1.74224853515625
0,149;-1.74224853515625
0,15;-1.741943359375
0,151;-1.74224853515625
0,152;-1.74224853515625
0,153;-1.74224853515625
0,154;-1.74224853515625
0,155;-1.741943359375
0,156;-1.74224853515625
0,157;-1.741943359375
0,158;-1.741943359375
0,159;-1.741943359375
0,16;-1.74224853515625
0,161;-1.741943359375
0,162;-1.74163818359375
0,163;-1.74224853515625
0,164;-1.74224853515625
0,165;-1.74224853515625
0,166;-1.7413330078125
0,167;-1.74224853515625
0,168;-1.741943359375
0,169;-1.741943359375
0,17;-1.741943359375
0,171;-1.74224853515625
0,172;-1.741943359375
0,173;-1.74224853515625
0,174;-1.74224853515625
0,175;-1.741943359375
0,176;-1.74224853515625
0,177;-1.741943359375
0,178;-1.74163818359375
0,179;-1.741943359375
0,18;-1.741943359375
0,181;-1.741943359375
0,182;-1.741943359375
0,183;-1.74224853515625
0,184;-1.74224853515625
0,185;-1.74224853515625
0,186;-1.74224853515625
0,187;-1.741943359375
0,188;-1.74224853515625
0,189;-1.7413330078125
0,19;-1.741943359375
0,191;-1.741943359375
0,192;-1.741943359375
0,193;-1.74163818359375
0,194;-1.74224853515625
0,195;-1.741943359375
0,196;-1.74224853515625
0,197;-1.74224853515625
0,198;-1.74163818359375
0,199;-1.741943359375
0,2;-1.74163818359375
0,201;-1.74224853515625
0,202;-1.74163818359375
0,203;-1.74163818359375
0,204;-1.74224853515625
0,205;-1.7425537109375
0,206;-1.74224853515625
0,207;-1.74224853515625
0,208;-1.741943359375
0,209;-1.74224853515625
0,21;-1.741943359375
0,211;-1.7413330078125
0,212;-1.74224853515625
0,213;-1.741943359375
0,214;-1.741943359375
0,215;-1.74224853515625
0,216;-1.741943359375
0,217;-1.74224853515625
0,218;-1.741943359375
0,219;-1.7425537109375
0,22;-1.74224853515625
0,221;-1.741943359375
0,222;-1.7425537109375
0,223;-1.741943359375
0,224;-1.7425537109375
0,225;-1.741943359375
0,226;-1.74224853515625
0,227;-1.74163818359375
0,228;-1.74224853515625
0,229;-1.74224853515625
0,23;-1.741943359375
0,231;-1.741943359375
0,232;-1.74163818359375
0,233;-1.74224853515625
0,234;-1.741943359375
0,235;-1.74224853515625
0,236;-1.74224853515625
0,237;-1.74163818359375
0,238;-1.74163818359375
0,239;-1.74224853515625
0,24;-1.74224853515625
0,241;-1.74163818359375
0,242;-1.7425537109375
0,243;-1.7425537109375
0,244;-1.74224853515625
0,245;-1.74224853515625
0,246;-1.74163818359375
0,247;-1.74224853515625
0,248;-1.74163818359375
0,249;-1.741943359375
0,25;-1.74224853515625
0,251;-1.741943359375
0,252;-1.74224853515625
0,253;-1.74224853515625
0,254;-1.741943359375
0,255;-1.741943359375
0,256;-1.74224853515625
0,257;-1.741943359375
0,258;-1.74224853515625
0,259;-1.74224853515625
0,26;-1.741943359375
0,261;-1.74163818359375
0,262;-1.74224853515625
0,263;-1.741943359375
0,264;-1.74224853515625
0,265;-1.741943359375
0,266;-1.741943359375
0,267;-1.74285888671875
0,268;-1.74224853515625
0,269;-1.741943359375
0,27;-1.7425537109375
0,271;-1.741943359375
0,272;-1.74163818359375
0,273;-1.74224853515625
0,274;-1.741943359375
0,275;-1.74224853515625
0,276;-1.7425537109375
0,277;-1.74224853515625
0,278;-1.74224853515625
0,279;-1.741943359375
0,28;-1.741943359375
0,281;-1.74224853515625
0,282;-1.741943359375
0,283;-1.74224853515625
0,284;-1.74224853515625
0,285;-1.741943359375
0,286;-1.74224853515625
0,287;-1.74224853515625
0,288;-1.74163818359375
0,289;-1.741943359375
0,29;-1.74224853515625
0,291;-1.7425537109375
0,292;-1.74224853515625
0,293;-1.741943359375
0,294;-1.74224853515625
0,295;-1.74163818359375
0,296;-1.74163818359375
0,297;-1.74163818359375
0,298;-1.74224853515625
0,299;-1.741943359375
0,3;-1.74224853515625
0,301;-1.7413330078125
0,302;-1.74224853515625
0,303;-1.74163818359375
0,304;-1.741943359375
0,305;-1.741943359375
0,306;-1.741943359375
0,307;-1.74163818359375
0,308;-1.741943359375
0,309;-1.741943359375
0,31;-1.74224853515625
0,311;-1.74163818359375
0,312;-1.74224853515625
0,313;-1.741943359375
0,314;-1.74224853515625
0,315;-1.741943359375
0,316;-1.74224853515625
0,317;-1.74224853515625
0,318;-1.74163818359375
0,319;-1.741943359375
0,32;-1.74163818359375
0,321;-1.7425537109375
0,322;-1.741943359375
0,323;-1.74224853515625
0,324;-1.741943359375
0,325;-1.741943359375
0,326;-1.74163818359375
0,327;-1.7413330078125
0,328;-1.74224853515625
0,329;-1.7413330078125
0,33;-1.74224853515625
0,331;-1.74163818359375
0,332;-1.7425537109375
0,333;-1.741943359375
0,334;-1.741943359375
0,335;-1.74163818359375
0,336;-1.7425537109375
0,337;-1.741943359375
0,338;-1.741943359375
0,339;-1.74163818359375
0,34;-1.74224853515625
0,341;-1.741943359375
0,342;-1.741943359375
0,343;-1.74224853515625
0,344;-1.74224853515625
0,345;-1.74224853515625
0,346;-1.741943359375
0,347;-1.74224853515625
0,348;-1.74224853515625
0,349;-1.74163818359375
0,35;-1.741943359375
0,351;-1.741943359375
0,352;-1.74163818359375
0,353;-1.741943359375
0,354;-1.741943359375
0,355;-1.7425537109375
0,356;-1.741943359375
0,357;-1.74163818359375
0,358;-1.74163818359375
0,359;-1.741943359375
0,36;-1.74163818359375
0,361;-1.741943359375
0,362;-1.741943359375
0,363;-1.741943359375
0,364;-1.74163818359375
0,365;-1.7425537109375
0,366;-1.74163818359375
0,367;-1.74163818359375
0,368;-1.741943359375
0,369;-1.74163818359375
0,37;-1.74163818359375
0,371;-1.74224853515625
0,372;-1.74163818359375
0,373;-1.741943359375
0,374;-1.74163818359375
0,375;-1.74163818359375
0,376;-1.741943359375
0,377;-1.74224853515625
0,378;-1.74163818359375
0,379;-1.741943359375
0,38;-1.74163818359375
0,381;-1.741943359375
0,382;-1.741943359375
0,383;-1.7425537109375
0,384;-1.741943359375
0,385;-1.74224853515625
0,386;-1.74224853515625
0,387;-1.741943359375
0,388;-1.74224853515625
0,389;-1.741943359375
0,39;-1.74224853515625
0,391;-1.74163818359375
0,392;-1.741943359375
0,393;-1.741943359375
0,394;-1.741943359375
0,395;-1.74163818359375
0,396;-1.741943359375
0,397;-1.74224853515625
0,398;-1.74224853515625
0,399;-1.741943359375
0,4;-1.74163818359375
0,401;-1.741943359375
0,402;-1.7425537109375
0,403;-1.74224853515625
0,404;-1.741943359375
0,405;-1.74224853515625
0,406;-1.741943359375
0,407;-1.741943359375
0,408;-1.74224853515625
0,409;-1.741943359375
0,41;-1.74163818359375
0,411;-1.74163818359375
0,412;-1.741943359375
0,413;-1.74224853515625
0,414;-1.74224853515625
0,415;-1.741943359375
0,416;-1.74224853515625
0,417;-1.74224853515625
0,418;-1.74163818359375
0,419;-1.741943359375
0,42;-1.741943359375
0,421;-1.7413330078125
0,422;-1.741943359375
0,423;-1.741943359375
0,424;-1.74224853515625
0,425;-1.74163818359375
0,426;-1.741943359375
0,427;-1.741943359375
0,428;-1.741943359375
0,429;-1.7425537109375
0,43;-1.74163818359375
0,431;-1.741943359375
0,432;-1.74224853515625
0,433;-1.74224853515625
0,434;-1.7425537109375
0,435;-1.741943359375
0,436;-1.741943359375
0,437;-1.741943359375
0,438;-1.74163818359375
0,439;-1.74224853515625
0,44;-1.741943359375
0,441;-1.741943359375
0,442;-1.74163818359375
0,443;-1.74224853515625
0,444;-1.74163818359375
0,445;-1.74224853515625
0,446;-1.74224853515625
0,447;-1.741943359375
0,448;-1.741943359375
0,449;-1.74224853515625
0,45;-1.741943359375
0,451;-1.741943359375
0,452;-1.741943359375
0,453;-1.74224853515625
0,454;-1.74163818359375
0,455;-1.74163818359375
0,456;-1.741943359375
0,457;-1.7425537109375
0,458;-1.74163818359375
0,459;-1.741943359375
0,46;-1.741943359375
0,461;-1.741943359375
0,462;-1.74163818359375
0,463;-1.74163818359375
0,464;-1.741943359375
0,465;-1.74163818359375
0,466;-1.74224853515625
0,467;-1.7425537109375
0,468;-1.741943359375
0,469;-1.74224853515625
0,47;-1.7425537109375
0,471;-1.7425537109375
0,472;-1.741943359375
0,473;-1.7413330078125
0,474;-1.74224853515625
0,475;-1.741943359375
0,476;-1.741943359375
0,477;-1.74163818359375
0,478;-1.74224853515625
0,479;-1.74163818359375
0,48;-1.74224853515625
0,481;-1.74224853515625
0,482;-1.74285888671875
0,483;-1.74163818359375
0,484;-1.74224853515625
0,485;-1.74163818359375
0,486;-1.74163818359375
0,487;-1.741943359375
0,488;-1.7413330078125
0,489;-1.74163818359375
0,49;-1.74224853515625
0,491;-1.74163818359375
0,492;-1.74163818359375
0,493;-1.741943359375
0,494;-1.74163818359375
0,495;-1.74224853515625
0,496;-1.741943359375
0,497;-1.741943359375
0,498;-1.7425537109375
0,499;-1.74224853515625
0,5;-1.74163818359375
0,501;-1.74224853515625
0,502;-1.741943359375
0,503;-1.74163818359375
0,504;-1.74163818359375
0,505;-1.741943359375
0,506;-1.74224853515625
0,507;-1.741943359375
0,508;-1.741943359375
0,509;-1.74224853515625
0,51;-1.74224853515625
0,511;-1.74163818359375
0,512;-1.74224853515625
0,513;-1.741943359375
0,514;-1.74224853515625
0,515;-1.741943359375
0,516;-1.74285888671875
0,517;-1.741943359375
0,518;-1.741943359375
0,519;-1.74224853515625
0,52;-1.741943359375
0,521;-1.74224853515625
0,522;-1.74163818359375
0,523;-1.741943359375
0,524;-1.74224853515625
0,525;-1.74163818359375
0,526;-1.741943359375
0,527;-1.7425537109375
0,528;-1.741943359375
0,529;-1.741943359375
0,53;-1.741943359375
0,531;-1.74224853515625
0,532;-1.74163818359375
0,533;-1.741943359375
0,534;-1.74224853515625
0,535;-1.7413330078125
0,536;-1.741943359375
0,537;-1.7425537109375
0,538;-1.741943359375
0,539;-1.741943359375
0,54;-1.741943359375
0,541;-1.741943359375
0,542;-1.74163818359375
0,543;-1.74224853515625
0,544;-1.741943359375
0,545;-1.741943359375
0,546;-1.74224853515625
0,547;-1.741943359375
0,548;-1.741943359375
0,549;-1.74163818359375
0,55;-1.74163818359375
0,551;-1.7413330078125
0,552;-1.7425537109375
0,553;-1.7425537109375
0,554;-1.741943359375
0,555;-1.741943359375
0,556;-1.74224853515625
0,557;-1.741943359375
0,558;-1.74163818359375
0,559;-1.74163818359375
0,56;-1.74163818359375
0,561;-1.74163818359375
0,562;-1.741943359375
0,563;-1.74224853515625
0,564;-1.7413330078125
0,565;-1.74224853515625
0,566;-1.74224853515625
0,567;-1.74163818359375
0,568;-1.74163818359375
0,569;-1.741943359375
0,57;-1.74224853515625
0,571;-1.74163818359375
0,572;-1.741943359375
0,573;-1.741943359375
0,574;-1.741943359375
0,575;-1.741943359375
0,576;-1.7413330078125
0,577;-1.741943359375
0,578;-1.74224853515625
0,579;-1.74224853515625
0,58;-1.74163818359375
0,581;-1.74224853515625
0,582;-1.74163818359375
0,583;-1.74163818359375
0,584;-1.74224853515625
0,585;-1.741943359375
0,586;-1.74224853515625
0,587;-1.7425537109375
0,588;-1.74224853515625
0,589;-1.741943359375
0,59;-1.74163818359375
0,591;-1.74163818359375
0,592;-1.74224853515625
0,593;-1.741943359375
0,594;-1.741943359375
0,595;-1.741943359375
0,596;-1.7413330078125
0,597;-1.741943359375
0,598;-1.7413330078125
0,599;-1.741943359375
0,6;-1.74224853515625
0,601;-1.741943359375
0,602;-1.741943359375
0,603;-1.74163818359375
0,604;-1.741943359375
0,605;-1.74224853515625
0,606;-1.74163818359375
0,607;-1.74163818359375
0,608;-1.74163818359375
0,609;-1.74163818359375
0,61;-1.7413330078125
0,611;-1.74163818359375
0,612;-1.74224853515625
0,613;-1.741943359375
0,614;-1.74224853515625
0,615;-1.741943359375
0,616;-1.74224853515625
0,617;-1.741943359375
0,618;-1.74224853515625
0,619;-1.74224853515625
0,62;-1.74224853515625
0,621;-1.74163818359375
0,622;-1.741943359375
0,623;-1.7413330078125
0,624;-1.74224853515625
0,625;-1.74163818359375
0,626;-1.741943359375
0,627;-1.741943359375
0,628;-1.741943359375
0,629;-1.741943359375
0,63;-1.7413330078125
0,631;-1.741943359375
0,632;-1.74224853515625
0,633;-1.741943359375
0,634;-1.741943359375
0,635;-1.741943359375
0,636;-1.74163818359375
0,637;-1.741943359375
0,638;-1.741943359375
0,639;-1.74163818359375
0,64;-1.741943359375
0,641;-1.74163818359375
0,642;-1.74163818359375
0,643;-1.741943359375
0,644;-1.741943359375
0,645;-1.74224853515625
0,646;-1.741943359375
0,647;-1.74224853515625
0,648;-1.741943359375
0,649;-1.74163818359375
0,65;-1.7413330078125
0,651;-1.74224853515625
0,652;-1.741943359375
0,653;-1.741943359375
0,654;-1.741943359375
0,655;-1.74224853515625
0,656;-1.74163818359375
0,657;-1.74163818359375
0,658;-1.741943359375
0,659;-1.741943359375
0,66;-1.74163818359375
0,661;-1.741943359375
0,662;-1.741943359375
0,663;-1.74224853515625
0,664;-1.7413330078125
0,665;-1.74163818359375
0,666;-1.74163818359375
0,667;-1.741943359375
0,668;-1.741943359375
0,669;-1.741943359375
0,67;-1.741943359375
0,671;-1.74224853515625
0,672;-1.74163818359375
0,673;-1.74224853515625
0,674;-1.74224853515625
0,675;-1.74163818359375
0,676;-1.7413330078125
0,677;-1.74163818359375
0,678;-1.74224853515625
0,679;-1.741943359375
0,68;-1.74224853515625
0,681;-1.74163818359375
0,682;-1.741943359375
0,683;-1.74163818359375
0,684;-1.74224853515625
0,685;-1.74224853515625
0,686;-1.74163818359375
0,687;-1.74163818359375
0,688;-1.741943359375
0,689;-1.741943359375
0,69;-1.74163818359375
0,691;-1.74163818359375
0,692;-1.741943359375
0,693;-1.7413330078125
0,694;-1.74163818359375
0,695;-1.741943359375
0,696;-1.74224853515625
0,697;-1.74163818359375
0,698;-1.74163818359375
0,699;-1.741943359375
0,7;-1.741943359375
0,701;-1.741943359375
0,702;-1.741943359375
0,703;-1.741943359375
0,704;-1.741943359375
0,705;-1.74163818359375
0,706;-1.74163818359375
0,707;-1.741943359375
0,708;-1.74224853515625
0,709;-1.741943359375
0,71;-1.74224853515625
0,711;-1.74163818359375
0,712;-1.74224853515625
0,713;-1.741943359375
0,714;-1.74163818359375
0,715;-1.741943359375
0,716;-1.74224853515625
0,717;-1.74163818359375
0,718;-1.74224853515625
0,719;-1.74163818359375
0,72;-1.741943359375
0,721;-1.741943359375
0,722;-1.74224853515625
0,723;-1.74163818359375
0,724;-1.74224853515625
0,725;-1.7425537109375
0,726;-1.74163818359375
0,727;-1.741943359375
0,728;-1.74163818359375
0,729;-1.741943359375
0,73;-1.74224853515625
0,731;-1.7413330078125
0,732;-1.74224853515625
0,733;-1.74163818359375
0,734;-1.74224853515625
0,735;-1.7413330078125
0,736;-1.74224853515625
0,737;-1.741943359375
0,738;-1.741943359375
0,739;-1.74163818359375
0,74;-1.74163818359375
0,741;-1.741943359375
0,742;-1.7413330078125
0,743;-1.741943359375
0,744;-1.741943359375
0,745;-1.74163818359375
0,746;-1.741943359375
0,747;-1.74224853515625
0,748;-1.741943359375
0,749;-1.74163818359375
0,75;-1.74224853515625
0,751;-1.7413330078125
0,752;-1.74224853515625
0,753;-1.741943359375
0,754;-1.741943359375
0,755;-1.741943359375
0,756;-1.74163818359375
0,757;-1.74163818359375
0,758;-1.741943359375
0,759;-1.741943359375
0,76;-1.74224853515625
0,761;-1.74224853515625
0,762;-1.74163818359375
0,763;-1.741943359375
0,764;-1.741943359375
0,765;-1.74163818359375
0,766;-1.741943359375
0,767;-1.74163818359375
0,768;-1.74163818359375
0,769;-1.74163818359375
0,77;-1.741943359375
0,771;-1.741943359375
0,772;-1.741943359375
0,773;-1.74224853515625
0,774;-1.74224853515625
0,775;-1.74163818359375
0,776;-1.741943359375
0,777;-1.741943359375
0,778;-1.741943359375
0,779;-1.74163818359375
0,78;-1.741943359375
0,781;-1.741943359375
0,782;-1.74163818359375
0,783;-1.74163818359375
0,784;-1.74163818359375
0,785;-1.7413330078125
0,786;-1.741943359375
0,787;-1.74163818359375
0,788;-1.74163818359375
0,789;-1.7425537109375
0,79;-1.7425537109375
0,791;-1.741943359375
0,792;-1.74163818359375
0,793;-1.74163818359375
0,794;-1.741943359375
0,795;-1.74163818359375
0,796;-1.741943359375
0,797;-1.74224853515625
0,798;-1.741943359375
0,799;-1.741943359375
0,8;-1.741943359375
0,801;-1.74163818359375
0,802;-1.741943359375
0,803;-1.741943359375
0,804;-1.74224853515625
0,805;-1.74224853515625
0,806;-1.74224853515625
0,807;-1.74163818359375
0,808;-1.741943359375
0,809;-1.741943359375
0,81;-1.741943359375
0,811;-1.74163818359375
0,812;-1.741943359375
0,813;-1.741943359375
0,814;-1.74224853515625
0,815;-1.7413330078125
0,816;-1.74163818359375
0,817;-1.741943359375
0,818;-1.74163818359375
0,819;-1.74102783203125
0,82;-1.7413330078125
0,821;-1.74224853515625
0,822;-1.74163818359375
0,823;-1.7413330078125
0,824;-1.7413330078125
0,825;-1.741943359375
0,826;-1.74163818359375
0,827;-1.74163818359375
0,828;-1.741943359375
0,829;-1.741943359375
0,83;-1.741943359375
0,831;-1.741943359375
0,832;-1.741943359375
0,833;-1.74224853515625
0,834;-1.741943359375
0,835;-1.74224853515625
0,836;-1.74224853515625
0,837;-1.741943359375
0,838;-1.74163818359375
0,839;-1.74224853515625
0,84;-1.74224853515625
0,841;-1.74224853515625
0,842;-1.74163818359375
0,843;-1.741943359375
0,844;-1.74163818359375
0,845;-1.741943359375
0,846;-1.74163818359375
0,847;-1.74224853515625
0,848;-1.7413330078125
0,849;-1.74224853515625
0,85;-1.74163818359375
0,851;-1.74224853515625
0,852;-1.74224853515625
0,853;-1.741943359375
0,854;-1.74224853515625
0,855;-1.74224853515625
0,856;-1.741943359375
0,857;-1.74224853515625
0,858;-1.74163818359375
0,859;-1.741943359375
0,86;-1.741943359375
0,861;-1.74163818359375
0,862;-1.741943359375
0,863;-1.741943359375
0,864;-1.7425537109375
0,865;-1.74163818359375
0,866;-1.74224853515625
0,867;-1.74163818359375
0,868;-1.74163818359375
0,869;-1.74224853515625
0,87;-1.74163818359375
0,871;-1.74224853515625
0,872;-1.74163818359375
0,873;-1.741943359375
0,874;-1.74224853515625
0,875;-1.74163818359375
0,876;-1.74163818359375
0,877;-1.741943359375
0,878;-1.741943359375
0,879;-1.74224853515625
0,88;-1.74224853515625
0,881;-1.74224853515625
0,882;-1.741943359375
0,883;-1.741943359375
0,884;-1.741943359375
0,885;-1.741943359375
0,886;-1.74163818359375
0,887;-1.741943359375
0,888;-1.7413330078125
0,889;-1.741943359375
0,89;-1.741943359375
0,891;-1.74163818359375
0,892;-1.741943359375
0,893;-1.741943359375
0,894;-1.74224853515625
0,895;-1.741943359375
0,896;-1.741943359375
0,897;-1.74163818359375
0,898;-1.741943359375
0,899;-1.741943359375
0,9;-1.74163818359375
0,901;-1.74224853515625
0,902;-1.7413330078125
0,903;-1.7413330078125
0,904;-1.741943359375
0,905;-1.74163818359375
0,906;-1.741943359375
0,907;-1.7413330078125
0,908;-1.74224853515625
0,909;-1.741943359375
0,91;-1.74163818359375
0,911;-1.74163818359375
0,912;-1.74224853515625
0,913;-1.741943359375
0,914;-1.741943359375
0,915;-1.74163818359375
0,916;-1.741943359375
0,917;-1.741943359375
0,918;-1.74163818359375
0,919;-1.741943359375
0,92;-1.741943359375
0,921;-1.741943359375
0,922;-1.74224853515625
0,923;-1.7413330078125
0,924;-1.74163818359375
0,925;-1.741943359375
0,926;-1.74163818359375
0,927;-1.74163818359375
0,928;-1.741943359375
0,929;-1.741943359375
0,93;-1.741943359375
0,931;-1.741943359375
0,932;-1.741943359375
0,933;-1.74163818359375
0,934;-1.74224853515625
0,935;-1.7413330078125
0,936;-1.741943359375
0,937;-1.74163818359375
0,938;-1.74163818359375
0,939;-1.74163818359375
0,94;-1.7413330078125
0,941;-1.74163818359375
0,942;-1.74163818359375
0,943;-1.7413330078125
0,944;-1.74163818359375
0,945;-1.74163818359375
0,946;-1.74224853515625
0,947;-1.74163818359375
0,948;-1.74224853515625
0,949;-1.7413330078125
0,95;-1.7413330078125
0,951;-1.74163818359375
0,952;-1.74163818359375
0,953;-1.74224853515625
0,954;-1.74163818359375
0,955;-1.74163818359375
0,956;-1.741943359375
0,957;-1.74224853515625
0,958;-1.74163818359375
0,959;-1.74163818359375
0,96;-1.741943359375
0,961;-1.741943359375
0,962;-1.7413330078125
0,963;-1.74163818359375
0,964;-1.74163818359375
0,965;-1.7425537109375
0,966;-1.74163818359375
0,967;-1.7413330078125
0,968;-1.741943359375
0,969;-1.741943359375
0,97;-1.74163818359375
0,971;-1.741943359375
0,972;-1.74224853515625
0,973;-1.741943359375
0,974;-1.74224853515625
0,975;-1.74224853515625
0,976;-1.74224853515625
0,977;-1.741943359375
0,978;-1.74163818359375
0,979;-1.74163818359375
0,98;-1.74224853515625
0,981;-1.7413330078125
0,982;-1.74224853515625
0,983;-1.741943359375
0,984;-1.7413330078125
0,985;-1.74163818359375
0,986;-1.741943359375
0,987;-1.74224853515625
0,988;-1.74163818359375
0,989;-1.74163818359375
0,99;-1.74163818359375
0,991;-1.74163818359375
0,992;-1.74163818359375
0,993;-1.741943359375
0,994;-1.74163818359375
0,995;-1.7413330078125
0,996;-1.741943359375
0,997;-1.74163818359375
0,998;-1.741943359375
0,999;-1.741943359375
1;-1.741943359375
1,001;-1.74224853515625
1,002;-1.74163818359375
1,003;-1.7413330078125
1,004;-1.74224853515625
1,005;-1.741943359375
1,006;-1.74163818359375
1,007;-1.74163818359375
1,008;-1.74163818359375
1,009;-1.741943359375
1,01;-1.741943359375
1,011;-1.74072265625
1,012;-1.74224853515625
1,013;-1.741943359375
1,014;-1.741943359375
1,015;-1.7413330078125
1,016;-1.741943359375
1,017;-1.74163818359375
1,018;-1.74163818359375
1,019;-1.74163818359375
1,02;-1.74163818359375
1,021;-1.7413330078125
1,022;-1.74163818359375
1,023;-1.741943359375
1,024;-1.74163818359375
1,025;-1.74163818359375
1,026;-1.74163818359375
1,027;-1.74224853515625
1,028;-1.74163818359375
1,029;-1.741943359375
1,03;-1.741943359375
1,031;-1.74163818359375
1,032;-1.74163818359375
1,033;-1.741943359375
1,034;-1.74163818359375
1,035;-1.7413330078125
1,036;-1.74163818359375
1,037;-1.7413330078125
1,038;-1.741943359375
1,039;-1.74163818359375
1,04;-1.74224853515625
1,041;-1.74163818359375
1,042;-1.741943359375
1,043;-1.7413330078125
1,044;-1.7413330078125
1,045;-1.74163818359375
1,046;-1.74163818359375
1,047;-1.74163818359375
1,048;-1.74163818359375
1,049;-1.741943359375
1,05;-1.741943359375
1,051;-1.74163818359375
1,052;-1.74163818359375
1,053;-1.74163818359375
1,054;-1.741943359375
1,055;-1.74163818359375
1,056;-1.74224853515625
1,057;-1.7413330078125
1,058;-1.741943359375
1,059;-1.74224853515625
1,06;-1.741943359375
1,061;-1.74163818359375
1,062;-1.74163818359375
1,063;-1.741943359375
1,064;-1.7413330078125
1,065;-1.7413330078125
1,066;-1.7413330078125
1,067;-1.741943359375
1,068;-1.74163818359375
1,069;-1.741943359375
1,07;-1.74102783203125
1,071;-1.741943359375
1,072;-1.74163818359375
1,073;-1.74163818359375
1,074;-1.741943359375
1,075;-1.741943359375
1,076;-1.74102783203125
1,077;-1.741943359375
1,078;-1.741943359375
1,079;-1.741943359375
1,08;-1.7413330078125
1,081;-1.74163818359375
1,082;-1.741943359375
1,083;-1.741943359375
1,084;-1.74163818359375
1,085;-1.741943359375
1,086;-1.741943359375
1,087;-1.7413330078125
1,088;-1.74163818359375
1,089;-1.74163818359375
1,09;-1.74224853515625
1,091;-1.741943359375
1,092;-1.74163818359375
1,093;-1.7413330078125
1,094;-1.74163818359375
1,095;-1.74102783203125
1,096;-1.74163818359375
1,097;-1.74163818359375
1,098;-1.7413330078125
1,099;-1.741943359375
1,1;-1.7413330078125
1,101;-1.74163818359375
1,102;-1.74163818359375
1,103;-1.74224853515625
1,104;-1.74163818359375
1,105;-1.741943359375
1,106;-1.74102783203125
1,107;-1.741943359375
1,108;-1.74163818359375
1,109;-1.74163818359375
1,11;-1.7413330078125
1,111;-1.74224853515625
1,112;-1.7413330078125
1,113;-1.7413330078125
1,114;-1.741943359375
1,115;-1.74163818359375
1,116;-1.7413330078125
1,117;-1.74102783203125
1,118;-1.741943359375
1,119;-1.741943359375
1,12;-1.741943359375
1,121;-1.7413330078125
1,122;-1.7413330078125
1,123;-1.74163818359375
1,124;-1.74163818359375
1,125;-1.7413330078125
1,126;-1.74163818359375
1,127;-1.74224853515625
1,128;-1.74163818359375
1,129;-1.74102783203125
1,13;-1.74163818359375
1,131;-1.741943359375
1,132;-1.7413330078125
1,133;-1.741943359375
1,134;-1.74163818359375
1,135;-1.74163818359375
1,136;-1.7413330078125
1,137;-1.74163818359375
1,138;-1.741943359375
1,139;-1.74163818359375
1,14;-1.74102783203125
1,141;-1.74163818359375
1,142;-1.741943359375
1,143;-1.74224853515625
1,144;-1.74163818359375
1,145;-1.74163818359375
1,146;-1.74163818359375
1,147;-1.74102783203125
1,148;-1.74163818359375
1,149;-1.7413330078125
1,15;-1.74224853515625
1,151;-1.74224853515625
1,152;-1.7425537109375
1,153;-1.74163818359375
1,154;-1.74163818359375
1,155;-1.74163818359375
1,156;-1.74224853515625
1,157;-1.74163818359375
1,158;-1.74163818359375
1,159;-1.74224853515625
1,16;-1.74102783203125
1,161;-1.74163818359375
1,162;-1.74163818359375
1,163;-1.74163818359375
1,164;-1.74224853515625
1,165;-1.74163818359375
1,166;-1.74163818359375
1,167;-1.74163818359375
1,168;-1.74163818359375
1,169;-1.741943359375
1,17;-1.7413330078125
1,171;-1.74163818359375
1,172;-1.74163818359375
1,173;-1.741943359375
1,174;-1.74163818359375
1,175;-1.74163818359375
1,176;-1.74163818359375
1,177;-1.74163818359375
1,178;-1.741943359375
1,179;-1.74163818359375
1,18;-1.74163818359375
1,181;-1.74163818359375
1,182;-1.741943359375
1,183;-1.7425537109375
1,184;-1.74163818359375
1,185;-1.74163818359375
1,186;-1.741943359375
1,187;-1.7413330078125
1,188;-1.741943359375
1,189;-1.741943359375
1,19;-1.741943359375
1,191;-1.7413330078125
1,192;-1.74072265625
1,193;-1.74163818359375
1,194;-1.74163818359375
1,195;-1.74163818359375
1,196;-1.74224853515625
1,197;-1.74163818359375
1,198;-1.7413330078125
1,199;-1.741943359375
1,2;-1.74163818359375
1,201;-1.74163818359375
1,202;-1.741943359375
1,203;-1.7413330078125
1,204;-1.74163818359375
1,205;-1.74224853515625
1,206;-1.7413330078125
1,207;-1.741943359375
1,208;-1.741943359375
1,209;-1.741943359375
1,21;-1.741943359375
1,211;-1.741943359375
1,212;-1.741943359375
1,213;-1.741943359375
1,214;-1.7413330078125
1,215;-1.74163818359375
1,216;-1.741943359375
1,217;-1.741943359375
1,218;-1.74163818359375
1,219;-1.741943359375
1,22;-1.741943359375
1,221;-1.74163818359375
1,222;-1.741943359375
1,223;-1.74224853515625
1,224;-1.74163818359375
1,225;-1.74163818359375
1,226;-1.74163818359375
1,227;-1.74163818359375
1,228;-1.74163818359375
1,229;-1.7413330078125
1,23;-1.74224853515625
1,231;-1.741943359375
1,232;-1.7413330078125
1,233;-1.7413330078125
1,234;-1.74163818359375
1,235;-1.741943359375
1,236;-1.741943359375
1,237;-1.74163818359375
1,238;-1.7413330078125
1,239;-1.7413330078125
1,24;-1.74163818359375
1,241;-1.7425537109375
1,242;-1.7413330078125
1,243;-1.74102783203125
1,244;-1.7413330078125
1,245;-1.74163818359375
1,246;-1.74163818359375
1,247;-1.74163818359375
1,248;-1.741943359375
1,249;-1.7413330078125
1,25;-1.741943359375
1,251;-1.741943359375
1,252;-1.7413330078125
1,253;-1.74163818359375
1,254;-1.74102783203125
1,255;-1.7413330078125
1,256;-1.7413330078125
1,257;-1.74163818359375
1,258;-1.74224853515625
1,259;-1.741943359375
1,26;-1.74163818359375
1,261;-1.741943359375
1,262;-1.74163818359375
1,263;-1.74163818359375
1,264;-1.74163818359375
1,265;-1.74163818359375
1,266;-1.7413330078125
1,267;-1.741943359375
1,268;-1.74163818359375
1,269;-1.74163818359375
1,27;-1.74163818359375
1,271;-1.741943359375
1,272;-1.7425537109375
1,273;-1.741943359375
1,274;-1.74102783203125
1,275;-1.74163818359375
1,276;-1.74163818359375
1,277;-1.741943359375
1,278;-1.74163818359375
1,279;-1.74163818359375
1,28;-1.741943359375
1,281;-1.7413330078125
1,282;-1.741943359375
1,283;-1.74163818359375
1,284;-1.7413330078125
1,285;-1.74163818359375
1,286;-1.741943359375
1,287;-1.741943359375
1,288;-1.74072265625
1,289;-1.74163818359375
1,29;-1.74163818359375
1,291;-1.7413330078125
1,292;-1.74163818359375
1,293;-1.74163818359375
1,294;-1.74102783203125
1,295;-1.741943359375
1,296;-1.7413330078125
1,297;-1.74163818359375
1,298;-1.74163818359375
1,299;-1.741943359375
1,3;-1.74163818359375
1,301;-1.7413330078125
1,302;-1.741943359375
1,303;-1.7413330078125
1,304;-1.74163818359375
1,305;-1.74163818359375
1,306;-1.74163818359375
1,307;-1.74163818359375
1,308;-1.7413330078125
1,309;-1.74224853515625
1,31;-1.74163818359375
1,311;-1.74163818359375
1,312;-1.74163818359375
1,313;-1.74163818359375
1,314;-1.74224853515625
1,315;-1.74163818359375
1,316;-1.7413330078125
1,317;-1.741943359375
1,318;-1.74163818359375
1,319;-1.74163818359375
1,32;-1.74163818359375
1,321;-1.74163818359375
1,322;-1.74163818359375
1,323;-1.7413330078125
1,324;-1.741943359375
1,325;-1.74163818359375
1,326;-1.7413330078125
1,327;-1.7413330078125
1,328;-1.74163818359375
1,329;-1.7413330078125
1,33;-1.74163818359375
1,331;-1.74163818359375
1,332;-1.74163818359375
1,333;-1.74102783203125
1,334;-1.741943359375
1,335;-1.741943359375
1,336;-1.741943359375
1,337;-1.7413330078125
1,338;-1.741943359375
1,339;-1.741943359375
1,34;-1.741943359375
1,341;-1.74163818359375
1,342;-1.74163818359375
1,343;-1.741943359375
1,344;-1.741943359375
1,345;-1.741943359375
1,346;-1.74163818359375
1,347;-1.74163818359375
1,348;-1.74163818359375
1,349;-1.74163818359375
1,35;-1.74163818359375
1,351;-1.74163818359375
1,352;-1.74102783203125
1,353;-1.74163818359375
1,354;-1.741943359375
1,355;-1.741943359375
1,356;-1.74163818359375
1,357;-1.7413330078125
1,358;-1.741943359375
1,359;-1.741943359375
1,36;-1.741943359375
1,361;-1.74163818359375
1,362;-1.74163818359375
1,363;-1.74163818359375
1,364;-1.741943359375
1,365;-1.74224853515625
1,366;-1.7413330078125
1,367;-1.74163818359375
1,368;-1.74163818359375
1,369;-1.741943359375
1,37;-1.74163818359375
1,371;-1.74163818359375
1,372;-1.7413330078125
1,373;-1.7413330078125
1,374;-1.7413330078125
1,375;-1.74163818359375
1,376;-1.7413330078125
1,377;-1.7413330078125
1,378;-1.741943359375
1,379;-1.74163818359375
1,38;-1.7413330078125
1,381;-1.74163818359375
1,382;-1.74163818359375
1,383;-1.74102783203125
1,384;-1.741943359375
1,385;-1.74163818359375
1,386;-1.741943359375
1,387;-1.7413330078125
1,388;-1.74163818359375
1,389;-1.74163818359375
1,39;-1.74163818359375
1,391;-1.74163818359375
1,392;-1.741943359375
1,393;-1.7413330078125
1,394;-1.74163818359375
1,395;-1.7413330078125
1,396;-1.74163818359375
1,397;-1.74163818359375
1,398;-1.741943359375
1,399;-1.74163818359375
1,4;-1.7413330078125
1,401;-1.7413330078125
1,402;-1.741943359375
1,403;-1.7413330078125
1,404;-1.74163818359375
1,405;-1.74163818359375
1,406;-1.7413330078125
1,407;-1.74163818359375
1,408;-1.74163818359375
1,409;-1.741943359375
1,41;-1.7413330078125
1,411;-1.74163818359375
1,412;-1.741943359375
1,413;-1.74163818359375
1,414;-1.74163818359375
1,415;-1.7413330078125
1,416;-1.74163818359375
1,417;-1.7413330078125
1,418;-1.74163818359375
1,419;-1.74163818359375
1,42;-1.74163818359375
1,421;-1.741943359375
1,422;-1.741943359375
1,423;-1.74163818359375
1,424;-1.74163818359375
1,425;-1.74102783203125
1,426;-1.74163818359375
1,427;-1.74163818359375
1,428;-1.74163818359375
1,429;-1.7413330078125
1,43;-1.7413330078125
1,431;-1.7413330078125
1,432;-1.7413330078125
1,433;-1.7413330078125
1,434;-1.741943359375
1,435;-1.74163818359375
1,436;-1.7413330078125
1,437;-1.74163818359375
1,438;-1.74163818359375
1,439;-1.7413330078125
1,44;-1.74163818359375
1,441;-1.74072265625
1,442;-1.741943359375
1,443;-1.741943359375
1,444;-1.741943359375
1,445;-1.7413330078125
1,446;-1.741943359375
1,447;-1.74163818359375
1,448;-1.74163818359375
1,449;-1.74163818359375
1,45;-1.7413330078125
1,451;-1.74163818359375
1,452;-1.74163818359375
1,453;-1.741943359375
1,454;-1.74163818359375
1,455;-1.741943359375
1,456;-1.7413330078125
1,457;-1.74163818359375
1,458;-1.7413330078125
1,459;-1.7413330078125
1,46;-1.7413330078125
1,461;-1.74163818359375
1,462;-1.741943359375
1,463;-1.74163818359375
1,464;-1.74224853515625
1,465;-1.74163818359375
1,466;-1.74163818359375
1,467;-1.74224853515625
1,468;-1.7413330078125
1,469;-1.74163818359375
1,47;-1.7413330078125
1,471;-1.7413330078125
1,472;-1.74163818359375
1,473;-1.74163818359375
1,474;-1.7413330078125
1,475;-1.7413330078125
1,476;-1.74163818359375
1,477;-1.74224853515625
1,478;-1.74163818359375
1,479;-1.74163818359375
1,48;-1.7413330078125
1,481;-1.74163818359375
1,482;-1.74163818359375
1,483;-1.74163818359375
1,484;-1.7413330078125
1,485;-1.7413330078125
1,486;-1.74163818359375
1,487;-1.7413330078125
1,488;-1.741943359375
1,489;-1.74163818359375
1,49;-1.74163818359375
1,491;-1.7413330078125
1,492;-1.7413330078125
1,493;-1.74163818359375
1,494;-1.741943359375
1,495;-1.7413330078125
1,496;-1.7413330078125
1,497;-1.7413330078125
1,498;-1.74163818359375
1,499;-1.7413330078125
1,5;-1.741943359375
1,501;-1.741943359375
1,502;-1.741943359375
1,503;-1.7413330078125
1,504;-1.74102783203125
1,505;-1.74163818359375
1,506;-1.74163818359375
1,507;-1.74163818359375
1,508;-1.741943359375
1,509;-1.74163818359375
1,51;-1.7413330078125
1,511;-1.7413330078125
1,512;-1.741943359375
1,513;-1.74163818359375
1,514;-1.7413330078125
1,515;-1.7413330078125
1,516;-1.74163818359375
1,517;-1.741943359375
1,518;-1.7413330078125
1,519;-1.7413330078125
1,52;-1.74163818359375
1,521;-1.7413330078125
1,522;-1.74163818359375
1,523;-1.74163818359375
1,524;-1.74224853515625
1,525;-1.74163818359375
1,526;-1.74102783203125
1,527;-1.7413330078125
1,528;-1.7413330078125
1,529;-1.74163818359375
1,53;-1.74163818359375
1,531;-1.74163818359375
1,532;-1.741943359375
1,533;-1.74163818359375
1,534;-1.7413330078125
1,535;-1.74163818359375
1,536;-1.741943359375
1,537;-1.741943359375
1,538;-1.74163818359375
1,539;-1.7413330078125
1,54;-1.741943359375
1,541;-1.7413330078125
1,542;-1.74224853515625
1,543;-1.74163818359375
1,544;-1.7413330078125
1,545;-1.74163818359375
1,546;-1.741943359375
1,547;-1.741943359375
1,548;-1.7413330078125
1,549;-1.74224853515625
1,55;-1.74163818359375
1,551;-1.74163818359375
1,552;-1.7413330078125
1,553;-1.741943359375
1,554;-1.741943359375
1,555;-1.74163818359375
1,556;-1.74163818359375
1,557;-1.7413330078125
1,558;-1.74163818359375
1,559;-1.74163818359375
1,56;-1.7413330078125
1,561;-1.741943359375
1,562;-1.74163818359375
1,563;-1.741943359375
1,564;-1.7413330078125
1,565;-1.7413330078125
1,566;-1.74163818359375
1,567;-1.741943359375
1,568;-1.74102783203125
1,569;-1.74163818359375
1,57;-1.74163818359375
1,571;-1.74163818359375
1,572;-1.7413330078125
1,573;-1.7413330078125
1,574;-1.74163818359375
1,575;-1.741943359375
1,576;-1.74163818359375
1,577;-1.7413330078125
1,578;-1.741943359375
1,579;-1.74163818359375
1,58;-1.741943359375
1,581;-1.741943359375
1,582;-1.74163818359375
1,583;-1.74102783203125
1,584;-1.7413330078125
1,585;-1.74163818359375
1,586;-1.74163818359375
1,587;-1.7413330078125
1,588;-1.74163818359375
1,589;-1.741943359375
1,59;-1.74102783203125
1,591;-1.741943359375
1,592;-1.74163818359375
1,593;-1.741943359375
1,594;-1.741943359375
1,595;-1.74163818359375
1,596;-1.74163818359375
1,597;-1.74163818359375
1,598;-1.74163818359375
1,599;-1.741943359375
1,6;-1.741943359375
1,601;-1.74163818359375
1,602;-1.74163818359375
1,603;-1.74163818359375
1,604;-1.741943359375
1,605;-1.74224853515625
1,606;-1.74163818359375
1,607;-1.741943359375
1,608;-1.74102783203125
1,609;-1.74224853515625
1,61;-1.74163818359375
1,611;-1.741943359375
1,612;-1.74163818359375
1,613;-1.7413330078125
1,614;-1.74163818359375
1,615;-1.741943359375
1,616;-1.74224853515625
1,617;-1.7413330078125
1,618;-1.74163818359375
1,619;-1.74163818359375
1,62;-1.741943359375
1,621;-1.74163818359375
1,622;-1.7425537109375
1,623;-1.74102783203125
1,624;-1.74163818359375
1,625;-1.741943359375
1,626;-1.7413330078125
1,627;-1.74224853515625
1,628;-1.741943359375
1,629;-1.74163818359375
1,63;-1.74224853515625
1,631;-1.74163818359375
1,632;-1.741943359375
1,633;-1.74163818359375
1,634;-1.74163818359375
1,635;-1.74163818359375
1,636;-1.74163818359375
1,637;-1.7413330078125
1,638;-1.74102783203125
1,639;-1.741943359375
1,64;-1.74163818359375
1,641;-1.7413330078125
1,642;-1.7413330078125
1,643;-1.7413330078125
1,644;-1.74163818359375
1,645;-1.741943359375
1,646;-1.7413330078125
1,647;-1.7413330078125
1,648;-1.74224853515625
1,649;-1.741943359375
1,65;-1.7413330078125
1,651;-1.7413330078125
1,652;-1.74163818359375
1,653;-1.7413330078125
1,654;-1.74102783203125
1,655;-1.741943359375
1,656;-1.741943359375
1,657;-1.74163818359375
1,658;-1.74163818359375
1,659;-1.7413330078125
1,66;-1.7413330078125
1,661;-1.7413330078125
1,662;-1.7413330078125
1,663;-1.74102783203125
1,664;-1.74224853515625
1,665;-1.74163818359375
1,666;-1.7413330078125
1,667;-1.7413330078125
1,668;-1.74163818359375
1,669;-1.74163818359375
1,67;-1.74163818359375
1,671;-1.7413330078125
1,672;-1.74163818359375
1,673;-1.7413330078125
1,674;-1.7413330078125
1,675;-1.7413330078125
1,676;-1.741943359375
1,677;-1.7413330078125
1,678;-1.741943359375
1,679;-1.7413330078125
1,68;-1.7413330078125
1,681;-1.74224853515625
1,682;-1.74163818359375
1,683;-1.74163818359375
1,684;-1.7413330078125
1,685;-1.7413330078125
1,686;-1.74163818359375
1,687;-1.74163818359375
1,688;-1.74163818359375
1,689;-1.74163818359375
1,69;-1.741943359375
1,691;-1.7413330078125
1,692;-1.74163818359375
1,693;-1.74163818359375
1,694;-1.74163818359375
1,695;-1.7413330078125
1,696;-1.74163818359375
1,697;-1.741943359375
1,698;-1.7413330078125
1,699;-1.74163818359375
1,7;-1.74163818359375
1,701;-1.741943359375
1,702;-1.74163818359375
1,703;-1.74102783203125
1,704;-1.74163818359375
1,705;-1.74163818359375
1,706;-1.7413330078125
1,707;-1.7413330078125
1,708;-1.7413330078125
1,709;-1.7413330078125
1,71;-1.74163818359375
1,711;-1.74163818359375
1,712;-1.74102783203125
1,713;-1.74163818359375
1,714;-1.7413330078125
1,715;-1.74163818359375
1,716;-1.74163818359375
1,717;-1.7413330078125
1,718;-1.7413330078125
1,719;-1.74102783203125
1,72;-1.7413330078125
1,721;-1.741943359375
1,722;-1.7413330078125
1,723;-1.7413330078125
1,724;-1.74163818359375
1,725;-1.74163818359375
1,726;-1.7413330078125
1,727;-1.74163818359375
1,728;-1.7413330078125
1,729;-1.7413330078125
1,73;-1.74163818359375
1,731;-1.741943359375
1,732;-1.741943359375
1,733;-1.74102783203125
1,734;-1.74102783203125
1,735;-1.7413330078125
1,736;-1.7413330078125
1,737;-1.74163818359375
1,738;-1.74163818359375
1,739;-1.74163818359375
1,74;-1.74163818359375
1,741;-1.74163818359375
1,742;-1.741943359375
1,743;-1.7413330078125
1,744;-1.74163818359375
1,745;-1.7413330078125
1,746;-1.7413330078125
1,747;-1.7413330078125
1,748;-1.74163818359375
1,749;-1.74102783203125
1,75;-1.74163818359375
1,751;-1.74163818359375
1,752;-1.74163818359375
1,753;-1.7413330078125
1,754;-1.7413330078125
1,755;-1.741943359375
1,756;-1.7413330078125
1,757;-1.741943359375
1,758;-1.7413330078125
1,759;-1.7413330078125
1,76;-1.74102783203125
1,761;-1.7413330078125
1,762;-1.74163818359375
1,763;-1.74163818359375
1,764;-1.7413330078125
1,765;-1.74163818359375
1,766;-1.74102783203125
1,767;-1.74102783203125
1,768;-1.74163818359375
1,769;-1.741943359375
1,77;-1.7413330078125
1,771;-1.74163818359375
1,772;-1.74163818359375
1,773;-1.74163818359375
1,774;-1.7413330078125
1,775;-1.7413330078125
1,776;-1.74163818359375
1,777;-1.7413330078125
1,778;-1.74163818359375
1,779;-1.74163818359375
1,78;-1.74163818359375
1,781;-1.7413330078125
1,782;-1.7413330078125
1,783;-1.74163818359375
1,784;-1.74163818359375
1,785;-1.74163818359375
1,786;-1.7413330078125
1,787;-1.74163818359375
1,788;-1.7413330078125
1,789;-1.741943359375
1,79;-1.74163818359375
1,791;-1.74163818359375
1,792;-1.74163818359375
1,793;-1.74163818359375
1,794;-1.7413330078125
1,795;-1.74163818359375
1,796;-1.74163818359375
1,797;-1.741943359375
1,798;-1.7413330078125
1,799;-1.741943359375
1,8;-1.741943359375
1,801;-1.7413330078125
1,802;-1.7413330078125
1,803;-1.7413330078125
1,804;-1.7413330078125
1,805;-1.7413330078125
1,806;-1.7413330078125
1,807;-1.7413330078125
1,808;-1.74163818359375
1,809;-1.7413330078125
1,81;-1.74163818359375
1,811;-1.7413330078125
1,812;-1.74163818359375
1,813;-1.7413330078125
1,814;-1.74163818359375
1,815;-1.7413330078125
1,816;-1.74163818359375
1,817;-1.7413330078125
1,818;-1.7413330078125
1,819;-1.7413330078125
1,82;-1.7413330078125
1,821;-1.74163818359375
1,822;-1.74163818359375
1,823;-1.74102783203125
1,824;-1.74163818359375
1,825;-1.74072265625
1,826;-1.7413330078125
1,827;-1.741943359375
1,828;-1.74102783203125
1,829;-1.74163818359375
1,83;-1.7413330078125
1,831;-1.7413330078125
1,832;-1.7413330078125
1,833;-1.74072265625
1,834;-1.74163818359375
1,835;-1.7413330078125
1,836;-1.74163818359375
1,837;-1.74102783203125
1,838;-1.74102783203125
1,839;-1.74163818359375
1,84;-1.74163818359375
1,841;-1.74102783203125
1,842;-1.741943359375
1,843;-1.741943359375
1,844;-1.74102783203125
1,845;-1.74163818359375
1,846;-1.7413330078125
1,847;-1.7413330078125
1,848;-1.7413330078125
1,849;-1.74163818359375
1,85;-1.74102783203125
1,851;-1.74163818359375
1,852;-1.741943359375
1,853;-1.7413330078125
1,854;-1.74163818359375
1,855;-1.7413330078125
1,856;-1.74163818359375
1,857;-1.74102783203125
1,858;-1.74163818359375
1,859;-1.74224853515625
1,86;-1.7413330078125
1,861;-1.74163818359375
1,862;-1.74102783203125
1,863;-1.7413330078125
1,864;-1.7413330078125
1,865;-1.7413330078125
1,866;-1.74163818359375
1,867;-1.741943359375
1,868;-1.74102783203125
1,869;-1.74102783203125
1,87;-1.7413330078125
1,871;-1.7413330078125
1,872;-1.74163818359375
1,873;-1.7413330078125
1,874;-1.741943359375
1,875;-1.7413330078125
1,876;-1.74163818359375
1,877;-1.7413330078125
1,878;-1.741943359375
1,879;-1.74163818359375
1,88;-1.74163818359375
1,881;-1.7413330078125
1,882;-1.7413330078125
1,883;-1.74163818359375
1,884;-1.741943359375
1,885;-1.7413330078125
1,886;-1.74163818359375
1,887;-1.7413330078125
1,888;-1.74163818359375
1,889;-1.7413330078125
1,89;-1.7413330078125
1,891;-1.74163818359375
1,892;-1.7413330078125
1,893;-1.74163818359375
1,894;-1.7413330078125
1,895;-1.74163818359375
1,896;-1.74163818359375
1,897;-1.74102783203125
1,898;-1.74163818359375
1,899;-1.74163818359375
1,9;-1.7413330078125
1,901;-1.741943359375
1,902;-1.74072265625
1,903;-1.74163818359375
1,904;-1.7413330078125
1,905;-1.74163818359375
1,906;-1.74102783203125
1,907;-1.7413330078125
1,908;-1.7413330078125
1,909;-1.74163818359375
1,91;-1.74102783203125
1,911;-1.74163818359375
1,912;-1.74163818359375
1,913;-1.74102783203125
1,914;-1.74163818359375
1,915;-1.74102783203125
1,916;-1.7413330078125
1,917;-1.7413330078125
1,918;-1.7413330078125
1,919;-1.74102783203125
1,92;-1.74163818359375
1,921;-1.74163818359375
1,922;-1.7413330078125
1,923;-1.74163818359375
1,924;-1.7413330078125
1,925;-1.74163818359375
1,926;-1.74163818359375
1,927;-1.74163818359375
1,928;-1.74163818359375
1,929;-1.7413330078125
1,93;-1.7413330078125
1,931;-1.7413330078125
1,932;-1.7413330078125
1,933;-1.7413330078125
1,934;-1.74072265625
1,935;-1.74163818359375
1,936;-1.7413330078125
1,937;-1.7413330078125
1,938;-1.74163818359375
1,939;-1.74163818359375
1,94;-1.74163818359375
1,941;-1.74163818359375
1,942;-1.74163818359375
1,943;-1.74102783203125
1,944;-1.7413330078125
1,945;-1.74163818359375
1,946;-1.74163818359375
1,947;-1.74163818359375
1,948;-1.74163818359375
1,949;-1.74163818359375
1,95;-1.74163818359375
1,951;-1.7413330078125
1,952;-1.741943359375
1,953;-1.7413330078125
1,954;-1.7413330078125
1,955;-1.7413330078125
1,956;-1.741943359375
1,957;-1.7413330078125
1,958;-1.7413330078125
1,959;-1.7413330078125
1,96;-1.74102783203125
1,961;-1.74163818359375
1,962;-1.74102783203125
1,963;-1.741943359375
1,964;-1.74163818359375
1,965;-1.74163818359375
1,966;-1.7413330078125
1,967;-1.74163818359375
1,968;-1.74163818359375
1,969;-1.741943359375
1,97;-1.74163818359375
1,971;-1.74072265625
1,972;-1.7413330078125
1,973;-1.7413330078125
1,974;-1.7413330078125
1,975;-1.741943359375
1,976;-1.74163818359375
1,977;-1.74102783203125
1,978;-1.74163818359375
1,979;-1.74163818359375
1,98;-1.74163818359375
1,981;-1.74163818359375
1,982;-1.7413330078125
1,983;-1.7413330078125
1,984;-1.74102783203125
1,985;-1.74163818359375
1,986;-1.741943359375
1,987;-1.74102783203125
1,988;-1.741943359375
1,989;-1.7413330078125
1,99;-1.74163818359375
1,991;-1.74163818359375
1,992;-1.74163818359375
1,993;-1.74163818359375
1,994;-1.74163818359375
1,995;-1.7413330078125
1,996;-1.74102783203125
1,997;-1.7413330078125
1,998;-1.74163818359375
1,999;-1.7413330078125
2;-1.7413330078125
2,001;-1.74163818359375
2,002;-1.7413330078125
2,003;-1.74163818359375
2,004;-1.74102783203125
2,005;-1.74072265625
2,006;-1.74163818359375
2,007;-1.7413330078125
2,008;-1.741943359375
2,009;-1.74102783203125
2,01;-1.74072265625
2,011;-1.7413330078125
2,012;-1.74163818359375
2,013;-1.741943359375
2,014;-1.74163818359375
2,015;-1.74102783203125
2,016;-1.74163818359375
2,017;-1.74102783203125
2,018;-1.7413330078125
2,019;-1.7413330078125
2,02;-1.741943359375
2,021;-1.74163818359375
2,022;-1.74102783203125
2,023;-1.74102783203125
2,024;-1.74163818359375
2,025;-1.7413330078125
2,026;-1.74163818359375
2,027;-1.74163818359375
2,028;-1.74102783203125
2,029;-1.7413330078125
2,03;-1.7413330078125
2,031;-1.74163818359375
2,032;-1.74163818359375
2,033;-1.7413330078125
2,034;-1.74163818359375
2,035;-1.741943359375
2,036;-1.74102783203125
2,037;-1.74163818359375
2,038;-1.7413330078125
2,039;-1.7413330078125
2,04;-1.7413330078125
2,041;-1.74072265625
2,042;-1.74163818359375
2,043;-1.7413330078125
2,044;-1.7413330078125
2,045;-1.74163818359375
2,046;-1.7413330078125
2,047;-1.7413330078125
2,048;-1.74041748046875
2,049;-1.74102783203125
2,05;-1.74102783203125
2,051;-1.74102783203125
2,052;-1.7413330078125
2,053;-1.7413330078125
2,054;-1.741943359375
2,055;-1.7413330078125
2,056;-1.7413330078125
2,057;-1.7413330078125
2,058;-1.74102783203125
2,059;-1.74163818359375
2,06;-1.7413330078125
2,061;-1.74102783203125
2,062;-1.7413330078125
2,063;-1.74163818359375
2,064;-1.74163818359375
2,065;-1.7413330078125
2,066;-1.7413330078125
2,067;-1.74163818359375
2,068;-1.7413330078125
2,069;-1.7413330078125
2,07;-1.7413330078125
2,071;-1.74163818359375
2,072;-1.7413330078125
2,073;-1.74102783203125
2,074;-1.7413330078125
2,075;-1.74102783203125
2,076;-1.74102783203125
2,077;-1.74072265625
2,078;-1.7413330078125
2,079;-1.74072265625
2,08;-1.7413330078125
2,081;-1.7413330078125
2,082;-1.74102783203125
2,083;-1.7413330078125
2,084;-1.7413330078125
2,085;-1.74102783203125
2,086;-1.74072265625
2,087;-1.74102783203125
2,088;-1.7413330078125
2,089;-1.74102783203125
2,09;-1.74163818359375
2,091;-1.74102783203125
2,092;-1.74163818359375
2,093;-1.74102783203125
2,094;-1.7413330078125
2,095;-1.7413330078125
2,096;-1.74163818359375
2,097;-1.7413330078125
2,098;-1.74163818359375
2,099;-1.74163818359375
2,1;-1.741943359375
2,101;-1.74102783203125
2,102;-1.7413330078125
2,103;-1.7413330078125
2,104;-1.74163818359375
2,105;-1.74102783203125
2,106;-1.74163818359375
2,107;-1.74102783203125
2,108;-1.74102783203125
2,109;-1.74102783203125
2,11;-1.7413330078125
2,111;-1.7413330078125
2,112;-1.7413330078125
2,113;-1.74163818359375
2,114;-1.74072265625
2,115;-1.74102783203125
2,116;-1.741943359375
2,117;-1.74102783203125
2,118;-1.74102783203125
2,119;-1.7413330078125
2,12;-1.7413330078125
2,121;-1.74102783203125
2,122;-1.74102783203125
2,123;-1.7413330078125
2,124;-1.7413330078125
2,125;-1.74163818359375
2,126;-1.7413330078125
2,127;-1.7413330078125
2,128;-1.7413330078125
2,129;-1.7413330078125
2,13;-1.74163818359375
2,131;-1.74163818359375
2,132;-1.7413330078125
2,133;-1.74102783203125
2,134;-1.7413330078125
2,135;-1.7413330078125
2,136;-1.74102783203125
2,137;-1.74163818359375
2,138;-1.7413330078125
2,139;-1.7413330078125
2,14;-1.7413330078125
2,141;-1.74163818359375
2,142;-1.74102783203125
2,143;-1.74163818359375
2,144;-1.7413330078125
2,145;-1.74163818359375
2,146;-1.7413330078125
2,147;-1.74102783203125
2,148;-1.7413330078125
2,149;-1.74163818359375
2,15;-1.741943359375
2,151;-1.7413330078125
2,152;-1.74163818359375
2,153;-1.7413330078125
2,154;-1.741943359375
2,155;-1.7413330078125
2,156;-1.7413330078125
2,157;-1.7413330078125
2,158;-1.7413330078125
2,159;-1.74102783203125
2,16;-1.7413330078125
2,161;-1.7413330078125
2,162;-1.7413330078125
2,163;-1.7413330078125
2,164;-1.74102783203125
2,165;-1.7413330078125
2,166;-1.7413330078125
2,167;-1.74163818359375
2,168;-1.74163818359375
2,169;-1.74163818359375
2,17;-1.7413330078125
2,171;-1.7413330078125
2,172;-1.74072265625
2,173;-1.74102783203125
2,174;-1.7413330078125
2,175;-1.7413330078125
2,176;-1.7413330078125
2,177;-1.7413330078125
2,178;-1.74163818359375
2,179;-1.7413330078125
2,18;-1.7413330078125
2,181;-1.74102783203125
2,182;-1.74163818359375
2,183;-1.7413330078125
2,184;-1.7413330078125
2,185;-1.7413330078125
2,186;-1.7413330078125
2,187;-1.7413330078125
2,188;-1.7413330078125
2,189;-1.7413330078125
2,19;-1.74163818359375
2,191;-1.74163818359375
2,192;-1.7413330078125
2,193;-1.74163818359375
2,194;-1.7413330078125
2,195;-1.74102783203125
2,196;-1.74163818359375
2,197;-1.74163818359375
2,198;-1.74163818359375
2,199;-1.74163818359375
2,2;-1.74102783203125
2,201;-1.74102783203125
2,202;-1.7413330078125
2,203;-1.7413330078125
2,204;-1.74102783203125
2,205;-1.7413330078125
2,206;-1.7413330078125
2,207;-1.7413330078125
2,208;-1.74072265625
2,209;-1.74163818359375
2,21;-1.7413330078125
2,211;-1.74072265625
2,212;-1.74163818359375
2,213;-1.74102783203125
2,214;-1.7413330078125
2,215;-1.74102783203125
2,216;-1.7413330078125
2,217;-1.74163818359375
2,218;-1.74102783203125
2,219;-1.7413330078125
2,22;-1.74163818359375
2,221;-1.7413330078125
2,222;-1.741943359375
2,223;-1.74163818359375
2,224;-1.7413330078125
2,225;-1.74102783203125
2,226;-1.7413330078125
2,227;-1.74102783203125
2,228;-1.741943359375
2,229;-1.7413330078125
2,23;-1.74072265625
2,231;-1.74102783203125
2,232;-1.74102783203125
2,233;-1.7413330078125
2,234;-1.74163818359375
2,235;-1.7413330078125
2,236;-1.74102783203125
2,237;-1.7413330078125
2,238;-1.7413330078125
2,239;-1.74163818359375
2,24;-1.74102783203125
2,241;-1.7413330078125
2,242;-1.74102783203125
2,243;-1.7413330078125
2,244;-1.74163818359375
2,245;-1.74102783203125
2,246;-1.74102783203125
2,247;-1.7413330078125
2,248;-1.7413330078125
2,249;-1.74102783203125
2,25;-1.74102783203125
2,251;-1.74163818359375
2,252;-1.74163818359375
2,253;-1.7413330078125
2,254;-1.74163818359375
2,255;-1.74163818359375
2,256;-1.741943359375
2,257;-1.74102783203125
2,258;-1.7413330078125
2,259;-1.7413330078125
2,26;-1.74072265625
2,261;-1.7413330078125
2,262;-1.7413330078125
2,263;-1.7413330078125
2,264;-1.741943359375
2,265;-1.74102783203125
2,266;-1.74163818359375
2,267;-1.7413330078125
2,268;-1.74102783203125
2,269;-1.7413330078125
2,27;-1.74102783203125
2,271;-1.7413330078125
2,272;-1.74163818359375
2,273;-1.7413330078125
2,274;-1.74102783203125
2,275;-1.74072265625
2,276;-1.7413330078125
2,277;-1.74102783203125
2,278;-1.74102783203125
2,279;-1.7413330078125
2,28;-1.74102783203125
2,281;-1.74163818359375
2,282;-1.7413330078125
2,283;-1.74072265625
2,284;-1.74102783203125
2,285;-1.7413330078125
2,286;-1.7413330078125
2,287;-1.7413330078125
2,288;-1.74072265625
2,289;-1.74102783203125
2,29;-1.74163818359375
2,291;-1.74163818359375
2,292;-1.7413330078125
2,293;-1.74072265625
2,294;-1.74163818359375
2,295;-1.741943359375
2,296;-1.74102783203125
2,297;-1.74163818359375
2,298;-1.74102783203125
2,299;-1.74102783203125
2,3;-1.74102783203125
2,301;-1.7413330078125
2,302;-1.74102783203125
2,303;-1.74102783203125
2,304;-1.74102783203125
2,305;-1.74102783203125
2,306;-1.74102783203125
2,307;-1.74102783203125
2,308;-1.74102783203125
2,309;-1.74163818359375
2,31;-1.74163818359375
2,311;-1.7413330078125
2,312;-1.74163818359375
2,313;-1.74102783203125
2,314;-1.74163818359375
2,315;-1.74102783203125
2,316;-1.7413330078125
2,317;-1.74102783203125
2,318;-1.74102783203125
2,319;-1.74163818359375
2,32;-1.74102783203125
2,321;-1.74102783203125
2,322;-1.7413330078125
2,323;-1.74102783203125
2,324;-1.74102783203125
2,325;-1.74072265625
2,326;-1.7413330078125
2,327;-1.7413330078125
2,328;-1.74072265625
2,329;-1.74102783203125
2,33;-1.7413330078125
2,331;-1.74072265625
2,332;-1.74102783203125
2,333;-1.7413330078125
2,334;-1.74072265625
2,335;-1.7413330078125
2,336;-1.7413330078125
2,337;-1.7413330078125
2,338;-1.74163818359375
2,339;-1.74072265625
2,34;-1.7413330078125
2,341;-1.7413330078125
2,342;-1.74102783203125
2,343;-1.74163818359375
2,344;-1.74163818359375
2,345;-1.7413330078125
2,346;-1.74163818359375
2,347;-1.74072265625
2,348;-1.74102783203125
2,349;-1.7413330078125
2,35;-1.74163818359375
2,351;-1.74102783203125
2,352;-1.7413330078125
2,353;-1.74072265625
2,354;-1.74072265625
2,355;-1.74072265625
2,356;-1.7413330078125
2,357;-1.7413330078125
2,358;-1.7413330078125
2,359;-1.74072265625
2,36;-1.74102783203125
2,361;-1.74102783203125
2,362;-1.74102783203125
2,363;-1.7413330078125
2,364;-1.7413330078125
2,365;-1.74163818359375
2,366;-1.7413330078125
2,367;-1.741943359375
2,368;-1.7413330078125
2,369;-1.74072265625
2,37;-1.7413330078125
2,371;-1.7413330078125
2,372;-1.74102783203125
2,373;-1.7413330078125
2,374;-1.7413330078125
2,375;-1.7413330078125
2,376;-1.74102783203125
2,377;-1.7413330078125
2,378;-1.7413330078125
2,379;-1.7413330078125
2,38;-1.7413330078125
2,381;-1.7413330078125
2,382;-1.74102783203125
2,383;-1.7413330078125
2,384;-1.74072265625
2,385;-1.74102783203125
2,386;-1.7413330078125
2,387;-1.7413330078125
2,388;-1.74102783203125
2,389;-1.74102783203125
2,39;-1.74163818359375
2,391;-1.74163818359375
2,392;-1.7413330078125
2,393;-1.74102783203125
2,394;-1.7413330078125
2,395;-1.7413330078125
2,396;-1.7413330078125
2,397;-1.74163818359375
2,398;-1.74163818359375
2,399;-1.74102783203125
2,4;-1.7413330078125
2,401;-1.74072265625
2,402;-1.74102783203125
2,403;-1.74072265625
2,404;-1.74102783203125
2,405;-1.7413330078125
2,406;-1.7413330078125
2,407;-1.74072265625
2,408;-1.7413330078125
2,409;-1.7413330078125
2,41;-1.7413330078125
2,411;-1.7413330078125
2,412;-1.7413330078125
2,413;-1.7413330078125
2,414;-1.7413330078125
2,415;-1.7413330078125
2,416;-1.74102783203125
2,417;-1.7413330078125
2,418;-1.74163818359375
2,419;-1.7413330078125
2,42;-1.74163818359375
2,421;-1.74163818359375
2,422;-1.74102783203125
2,423;-1.74163818359375
2,424;-1.7413330078125
2,425;-1.74102783203125
2,426;-1.74163818359375
2,427;-1.74041748046875
2,428;-1.7413330078125
2,429;-1.7413330078125
2,43;-1.7413330078125
2,431;-1.7413330078125
2,432;-1.74163818359375
2,433;-1.7413330078125
2,434;-1.7413330078125
2,435;-1.74102783203125
2,436;-1.74102783203125
2,437;-1.74102783203125
2,438;-1.7413330078125
2,439;-1.74102783203125
2,44;-1.7413330078125
2,441;-1.74102783203125
2,442;-1.74102783203125
2,443;-1.74163818359375
2,444;-1.74163818359375
2,445;-1.74102783203125
2,446;-1.74102783203125
2,447;-1.7413330078125
2,448;-1.74102783203125
2,449;-1.74102783203125
2,45;-1.74102783203125
2,451;-1.74072265625
2,452;-1.7413330078125
2,453;-1.74072265625
2,454;-1.7413330078125
2,455;-1.7413330078125
2,456;-1.74102783203125
2,457;-1.74163818359375
2,458;-1.7413330078125
2,459;-1.7413330078125
2,46;-1.74163818359375
2,461;-1.74102783203125
2,462;-1.74163818359375
2,463;-1.7413330078125
2,464;-1.74163818359375
2,465;-1.7413330078125
2,466;-1.74163818359375
2,467;-1.7413330078125
2,468;-1.74102783203125
2,469;-1.74163818359375
2,47;-1.74163818359375
2,471;-1.7413330078125
2,472;-1.74102783203125
2,473;-1.74102783203125
2,474;-1.74072265625
2,475;-1.7413330078125
2,476;-1.74163818359375
2,477;-1.7413330078125
2,478;-1.74102783203125
2,479;-1.74072265625
2,48;-1.74102783203125
2,481;-1.7413330078125
2,482;-1.74102783203125
2,483;-1.74102783203125
2,484;-1.7413330078125
2,485;-1.7413330078125
2,486;-1.74102783203125
2,487;-1.74102783203125
2,488;-1.74102783203125
2,489;-1.74163818359375
2,49;-1.74072265625
2,491;-1.74102783203125
2,492;-1.74163818359375
2,493;-1.74163818359375
2,494;-1.74102783203125
2,495;-1.7413330078125
2,496;-1.74102783203125
2,497;-1.741943359375
2,498;-1.74163818359375
2,499;-1.7413330078125
2,5;-1.74163818359375
2,501;-1.7413330078125
2,502;-1.74102783203125
2,503;-1.74163818359375
2,504;-1.7413330078125
2,505;-1.7413330078125
2,506;-1.74072265625
2,507;-1.74163818359375
2,508;-1.74072265625
2,509;-1.74163818359375
2,51;-1.7413330078125
2,511;-1.7413330078125
2,512;-1.7413330078125
2,513;-1.74072265625
2,514;-1.74102783203125
2,515;-1.7413330078125
2,516;-1.7413330078125
2,517;-1.74163818359375
2,518;-1.74163818359375
2,519;-1.74102783203125
2,52;-1.74163818359375
2,521;-1.74102783203125
2,522;-1.74072265625
2,523;-1.7413330078125
2,524;-1.74163818359375
2,525;-1.7413330078125
2,526;-1.74102783203125
2,527;-1.7413330078125
2,528;-1.7413330078125
2,529;-1.7413330078125
2,53;-1.74102783203125
2,531;-1.74163818359375
2,532;-1.74102783203125
2,533;-1.7413330078125
2,534;-1.74102783203125
2,535;-1.74102783203125
2,536;-1.74224853515625
2,537;-1.7413330078125
2,538;-1.74072265625
2,539;-1.74102783203125
2,54;-1.7413330078125
2,541;-1.74102783203125
2,542;-1.74163818359375
2,543;-1.74163818359375
2,544;-1.74102783203125
2,545;-1.74102783203125
2,546;-1.74102783203125
2,547;-1.74102783203125
2,548;-1.7413330078125
2,549;-1.74163818359375
2,55;-1.74102783203125
2,551;-1.74102783203125
2,552;-1.7413330078125
2,553;-1.7413330078125
2,554;-1.7413330078125
2,555;-1.74102783203125
2,556;-1.74163818359375
2,557;-1.74102783203125
2,558;-1.7413330078125
2,559;-1.7413330078125
2,56;-1.74163818359375
2,561;-1.7413330078125
2,562;-1.74163818359375
2,563;-1.7413330078125
2,564;-1.74102783203125
2,565;-1.74072265625
2,566;-1.74102783203125
2,567;-1.74102783203125
2,568;-1.74102783203125
2,569;-1.7413330078125
2,57;-1.74072265625
2,571;-1.74072265625
2,572;-1.7413330078125
2,573;-1.74072265625
2,574;-1.7413330078125
2,575;-1.7413330078125
2,576;-1.74041748046875
2,577;-1.7413330078125
2,578;-1.74102783203125
2,579;-1.74072265625
2,58;-1.74102783203125
2,581;-1.74102783203125
2,582;-1.7413330078125
2,583;-1.7413330078125
2,584;-1.7413330078125
2,585;-1.74072265625
2,586;-1.74072265625
2,587;-1.74102783203125
2,588;-1.7413330078125
2,589;-1.7413330078125
2,59;-1.7413330078125
2,591;-1.7413330078125
2,592;-1.74163818359375
2,593;-1.7413330078125
2,594;-1.7413330078125
2,595;-1.74102783203125
2,596;-1.74072265625
2,597;-1.74072265625
2,598;-1.74163818359375
2,599;-1.7413330078125
2,6;-1.7413330078125
2,601;-1.74163818359375
2,602;-1.74102783203125
2,603;-1.74163818359375
2,604;-1.74072265625
2,605;-1.7413330078125
2,606;-1.7413330078125
2,607;-1.74102783203125
2,608;-1.74163818359375
2,609;-1.7413330078125
2,61;-1.7413330078125
2,611;-1.74102783203125
2,612;-1.7413330078125
2,613;-1.74163818359375
2,614;-1.74102783203125
2,615;-1.7413330078125
2,616;-1.74102783203125
2,617;-1.74102783203125
2,618;-1.74102783203125
2,619;-1.74041748046875
2,62;-1.7413330078125
2,621;-1.74163818359375
2,622;-1.74102783203125
2,623;-1.7413330078125
2,624;-1.7413330078125
2,625;-1.74102783203125
2,626;-1.7413330078125
2,627;-1.74102783203125
2,628;-1.7413330078125
2,629;-1.7413330078125
2,63;-1.74072265625
2,631;-1.7413330078125
2,632;-1.74163818359375
2,633;-1.74102783203125
2,634;-1.7413330078125
2,635;-1.7413330078125
2,636;-1.7413330078125
2,637;-1.74163818359375
2,638;-1.74102783203125
2,639;-1.7413330078125
2,64;-1.74102783203125
2,641;-1.74072265625
2,642;-1.7413330078125
2,643;-1.7413330078125
2,644;-1.74163818359375
2,645;-1.7413330078125
2,646;-1.7413330078125
2,647;-1.74163818359375
2,648;-1.74102783203125
2,649;-1.74163818359375
2,65;-1.74072265625
2,651;-1.74072265625
2,652;-1.74072265625
2,653;-1.74102783203125
2,654;-1.74102783203125
2,655;-1.74102783203125
2,656;-1.74163818359375
2,657;-1.74163818359375
2,658;-1.7413330078125
2,659;-1.74102783203125
2,66;-1.74163818359375
2,661;-1.7413330078125
2,662;-1.74102783203125
2,663;-1.7413330078125
2,664;-1.74102783203125
2,665;-1.74102783203125
2,666;-1.74102783203125
2,667;-1.74102783203125
2,668;-1.7413330078125
2,669;-1.74041748046875
2,67;-1.7413330078125
2,671;-1.74102783203125
2,672;-1.74163818359375
2,673;-1.7413330078125
2,674;-1.74163818359375
2,675;-1.74163818359375
2,676;-1.74102783203125
2,677;-1.7413330078125
2,678;-1.7413330078125
2,679;-1.74072265625
2,68;-1.74163818359375
2,681;-1.74102783203125
2,682;-1.74102783203125
2,683;-1.74102783203125
2,684;-1.74102783203125
2,685;-1.74072265625
2,686;-1.74072265625
2,687;-1.74072265625
2,688;-1.74072265625
2,689;-1.7413330078125
2,69;-1.74163818359375
2,691;-1.7413330078125
2,692;-1.74102783203125
2,693;-1.7413330078125
2,694;-1.74072265625
2,695;-1.74072265625
2,696;-1.741943359375
2,697;-1.7413330078125
2,698;-1.74102783203125
2,699;-1.74163818359375
2,7;-1.7413330078125
2,701;-1.7413330078125
2,702;-1.7413330078125
2,703;-1.74102783203125
2,704;-1.74102783203125
2,705;-1.7413330078125
2,706;-1.74163818359375
2,707;-1.74072265625
2,708;-1.74041748046875
2,709;-1.74072265625
2,71;-1.7413330078125
2,711;-1.74072265625
2,712;-1.74041748046875
2,713;-1.7413330078125
2,714;-1.74102783203125
2,715;-1.74072265625
2,716;-1.74102783203125
2,717;-1.74072265625
2,718;-1.7413330078125
2,719;-1.74102783203125
2,72;-1.7413330078125
2,721;-1.7413330078125
2,722;-1.74102783203125
2,723;-1.74102783203125
2,724;-1.74163818359375
2,725;-1.7413330078125
2,726;-1.7413330078125
2,727;-1.7413330078125
2,728;-1.74102783203125
2,729;-1.7413330078125
2,73;-1.7413330078125
2,731;-1.74072265625
2,732;-1.7413330078125
2,733;-1.74102783203125
2,734;-1.74102783203125
2,735;-1.7413330078125
2,736;-1.7413330078125
2,737;-1.74072265625
2,738;-1.74102783203125
2,739;-1.74072265625
2,74;-1.7413330078125
2,741;-1.74072265625
2,742;-1.7413330078125
2,743;-1.74072265625
2,744;-1.7413330078125
2,745;-1.7413330078125
2,746;-1.74072265625
2,747;-1.74072265625
2,748;-1.74102783203125
2,749;-1.7413330078125
2,75;-1.74102783203125
2,751;-1.7413330078125
2,752;-1.74041748046875
2,753;-1.7413330078125
2,754;-1.74072265625
2,755;-1.7413330078125
2,756;-1.74102783203125
2,757;-1.74102783203125
2,758;-1.74102783203125
2,759;-1.74102783203125
2,76;-1.74102783203125
2,761;-1.74072265625
2,762;-1.74102783203125
2,763;-1.74102783203125
2,764;-1.7413330078125
2,765;-1.74102783203125
2,766;-1.74072265625
2,767;-1.74102783203125
2,768;-1.74102783203125
2,769;-1.74102783203125
2,77;-1.74072265625
2,771;-1.741943359375
2,772;-1.7413330078125
2,773;-1.74072265625
2,774;-1.74102783203125
2,775;-1.74102783203125
2,776;-1.74102783203125
2,777;-1.7413330078125
2,778;-1.7413330078125
2,779;-1.7413330078125
2,78;-1.74102783203125
2,781;-1.74102783203125
2,782;-1.74102783203125
2,783;-1.74163818359375
2,784;-1.74102783203125
2,785;-1.74102783203125
2,786;-1.7413330078125
2,787;-1.74102783203125
2,788;-1.74041748046875
2,789;-1.7413330078125
2,79;-1.74102783203125
2,791;-1.74102783203125
2,792;-1.7413330078125
2,793;-1.74072265625
2,794;-1.74072265625
2,795;-1.7413330078125
2,796;-1.7413330078125
2,797;-1.7413330078125
2,798;-1.74163818359375
2,799;-1.74102783203125
2,8;-1.74072265625
2,801;-1.74102783203125
2,802;-1.74072265625
2,803;-1.74102783203125
2,804;-1.7413330078125
2,805;-1.74102783203125
2,806;-1.74072265625
2,807;-1.74102783203125
2,808;-1.7413330078125
2,809;-1.7413330078125
2,81;-1.74102783203125
2,811;-1.74102783203125
2,812;-1.74072265625
2,813;-1.7413330078125
2,814;-1.74102783203125
2,815;-1.74102783203125
2,816;-1.7413330078125
2,817;-1.74072265625
2,818;-1.74102783203125
2,819;-1.74163818359375
2,82;-1.74102783203125
2,821;-1.74102783203125
2,822;-1.74102783203125
2,823;-1.74102783203125
2,824;-1.74102783203125
2,825;-1.74102783203125
2,826;-1.74072265625
2,827;-1.74102783203125
2,828;-1.7413330078125
2,829;-1.74072265625
2,83;-1.74072265625
2,831;-1.74102783203125
2,832;-1.74163818359375
2,833;-1.7413330078125
2,834;-1.74102783203125
2,835;-1.74102783203125
2,836;-1.74102783203125
2,837;-1.7413330078125
2,838;-1.74072265625
2,839;-1.74072265625
2,84;-1.7413330078125
2,841;-1.74163818359375
2,842;-1.7413330078125
2,843;-1.74163818359375
2,844;-1.74072265625
2,845;-1.74102783203125
2,846;-1.74102783203125
2,847;-1.74072265625
2,848;-1.74102783203125
2,849;-1.74102783203125
2,85;-1.74102783203125
2,851;-1.7413330078125
2,852;-1.7413330078125
2,853;-1.74102783203125
2,854;-1.74163818359375
2,855;-1.7413330078125
2,856;-1.7413330078125
2,857;-1.74163818359375
2,858;-1.74102783203125
2,859;-1.7413330078125
2,86;-1.74102783203125
2,861;-1.74102783203125
2,862;-1.7413330078125
2,863;-1.7413330078125
2,864;-1.74102783203125
2,865;-1.7413330078125
2,866;-1.74072265625
2,867;-1.74163818359375
2,868;-1.74072265625
2,869;-1.74072265625
2,87;-1.7413330078125
2,871;-1.74102783203125
2,872;-1.74163818359375
2,873;-1.74072265625
2,874;-1.7413330078125
2,875;-1.7413330078125
2,876;-1.74102783203125
2,877;-1.7413330078125
2,878;-1.74072265625
2,879;-1.74072265625
2,88;-1.74072265625
2,881;-1.74041748046875
2,882;-1.74102783203125
2,883;-1.74072265625
2,884;-1.74163818359375
2,885;-1.74102783203125
2,886;-1.74102783203125
2,887;-1.74102783203125
2,888;-1.74072265625
2,889;-1.7413330078125
2,89;-1.7413330078125
2,891;-1.7413330078125
2,892;-1.74041748046875
2,893;-1.74102783203125
2,894;-1.74102783203125
2,895;-1.74072265625
2,896;-1.74102783203125
2,897;-1.7413330078125
2,898;-1.74102783203125
2,899;-1.74072265625
2,9;-1.74072265625
2,901;-1.74102783203125
2,902;-1.74102783203125
2,903;-1.74102783203125
2,904;-1.7413330078125
2,905;-1.74102783203125
2,906;-1.74072265625
2,907;-1.74102783203125
2,908;-1.74102783203125
2,909;-1.74072265625
2,91;-1.7413330078125
2,911;-1.7413330078125
2,912;-1.74072265625
2,913;-1.74072265625
2,914;-1.7413330078125
2,915;-1.74102783203125
2,916;-1.74072265625
2,917;-1.74102783203125
2,918;-1.74102783203125
2,919;-1.7413330078125
2,92;-1.74072265625
2,921;-1.74072265625
2,922;-1.74072265625
2,923;-1.74163818359375
2,924;-1.74102783203125
2,925;-1.7413330078125
2,926;-1.74102783203125
2,927;-1.74102783203125
2,928;-1.74102783203125
2,929;-1.74072265625
2,93;-1.74102783203125
2,931;-1.74102783203125
2,932;-1.7413330078125
2,933;-1.7413330078125
2,934;-1.74102783203125
2,935;-1.74102783203125
2,936;-1.7413330078125
2,937;-1.7413330078125
2,938;-1.74072265625
2,939;-1.7413330078125
2,94;-1.7413330078125
2,941;-1.7413330078125
2,942;-1.74072265625
2,943;-1.7413330078125
2,944;-1.74102783203125
2,945;-1.7413330078125
2,946;-1.74072265625
2,947;-1.7413330078125
2,948;-1.74072265625
2,949;-1.74072265625
2,95;-1.7413330078125
2,951;-1.74102783203125
2,952;-1.74072265625
2,953;-1.7413330078125
2,954;-1.74102783203125
2,955;-1.74102783203125
2,956;-1.74072265625
2,957;-1.74072265625
2,958;-1.74041748046875
2,959;-1.74102783203125
2,96;-1.7413330078125
2,961;-1.7413330078125
2,962;-1.74102783203125
2,963;-1.74072265625
2,964;-1.74102783203125
2,965;-1.74072265625
2,966;-1.7413330078125
2,967;-1.74163818359375
2,968;-1.74072265625
2,969;-1.7413330078125
2,97;-1.74102783203125
2,971;-1.7413330078125
2,972;-1.74072265625
2,973;-1.74102783203125
2,974;-1.7413330078125
2,975;-1.74102783203125
2,976;-1.74163818359375
2,977;-1.74102783203125
2,978;-1.74072265625
2,979;-1.7413330078125
2,98;-1.74072265625
2,981;-1.74102783203125
2,982;-1.74102783203125
2,983;-1.74072265625
2,984;-1.7413330078125
2,985;-1.74072265625
2,986;-1.74072265625
2,987;-1.7413330078125
2,988;-1.74102783203125
2,989;-1.74072265625
2,99;-1.74102783203125
2,991;-1.74102783203125
2,992;-1.7413330078125
2,993;-1.74102783203125
2,994;-1.74102783203125
2,995;-1.74102783203125
2,996;-1.7413330078125
2,997;-1.7413330078125
2,998;-1.7413330078125
2,999;-1.7413330078125
3;-1.74102783203125
3,001;-1.74072265625
3,002;-1.7413330078125
3,003;-1.74072265625
3,004;-1.7413330078125
3,005;-1.7413330078125
3,006;-1.7413330078125
3,007;-1.7413330078125
3,008;-1.74072265625
3,009;-1.74163818359375
3,01;-1.7401123046875
3,011;-1.74102783203125
3,012;-1.74041748046875
3,013;-1.74163818359375
3,014;-1.74072265625
3,015;-1.74102783203125
3,016;-1.74072265625
3,017;-1.74072265625
3,018;-1.74102783203125
3,019;-1.74102783203125
3,02;-1.74072265625
3,021;-1.74102783203125
3,022;-1.7413330078125
3,023;-1.74072265625
3,024;-1.7413330078125
3,025;-1.74072265625
3,026;-1.74072265625
3,027;-1.74072265625
3,028;-1.74102783203125
3,029;-1.74072265625
3,03;-1.7413330078125
3,031;-1.7413330078125
3,032;-1.74102783203125
3,033;-1.74072265625
3,034;-1.74102783203125
3,035;-1.74102783203125
3,036;-1.74041748046875
3,037;-1.74072265625
3,038;-1.74102783203125
3,039;-1.7413330078125
3,04;-1.74102783203125
3,041;-1.74102783203125
3,042;-1.74163818359375
3,043;-1.74102783203125
3,044;-1.74102783203125
3,045;-1.7413330078125
3,046;-1.7413330078125
3,047;-1.74102783203125
3,048;-1.7413330078125
3,049;-1.74163818359375
3,05;-1.74163818359375
3,051;-1.7413330078125
3,052;-1.74102783203125
3,053;-1.74102783203125
3,054;-1.7413330078125
3,055;-1.74072265625
3,056;-1.74102783203125
3,057;-1.7413330078125
3,058;-1.74072265625
3,059;-1.74102783203125
3,06;-1.74072265625
3,061;-1.7413330078125
3,062;-1.74163818359375
3,063;-1.74102783203125
3,064;-1.74102783203125
3,065;-1.7413330078125
3,066;-1.74163818359375
3,067;-1.74102783203125
3,068;-1.74102783203125
3,069;-1.74072265625
3,07;-1.74072265625
3,071;-1.74102783203125
3,072;-1.74072265625
3,073;-1.7413330078125
3,074;-1.7413330078125
3,075;-1.74072265625
3,076;-1.74041748046875
3,077;-1.74102783203125
3,078;-1.74163818359375
3,079;-1.74072265625
3,08;-1.7413330078125
3,081;-1.74102783203125
3,082;-1.7413330078125
3,083;-1.74102783203125
3,084;-1.74072265625
3,085;-1.74102783203125
3,086;-1.74102783203125
3,087;-1.74102783203125
3,088;-1.7413330078125
3,089;-1.74102783203125
3,09;-1.74072265625
3,091;-1.7413330078125
3,092;-1.74102783203125
3,093;-1.74072265625
3,094;-1.74072265625
3,095;-1.7413330078125
3,096;-1.74072265625
3,097;-1.7413330078125
3,098;-1.74102783203125
3,099;-1.74102783203125
3,1;-1.74102783203125
3,101;-1.741943359375
3,102;-1.74102783203125
3,103;-1.74102783203125
3,104;-1.74102783203125
3,105;-1.7413330078125
3,106;-1.74072265625
3,107;-1.74102783203125
3,108;-1.7413330078125
3,109;-1.74102783203125
3,11;-1.74102783203125
3,111;-1.74102783203125
3,112;-1.7413330078125
3,113;-1.74102783203125
3,114;-1.74163818359375
3,115;-1.74072265625
3,116;-1.7401123046875
3,117;-1.74102783203125
3,118;-1.74072265625
3,119;-1.74102783203125
3,12;-1.74102783203125
3,121;-1.74102783203125
3,122;-1.74102783203125
3,123;-1.74102783203125
3,124;-1.7413330078125
3,125;-1.7413330078125
3,126;-1.74072265625
3,127;-1.7413330078125
3,128;-1.74102783203125
3,129;-1.74102783203125
3,13;-1.7413330078125
3,131;-1.74102783203125
3,132;-1.74041748046875
3,133;-1.74102783203125
3,134;-1.74072265625
3,135;-1.74102783203125
3,136;-1.74072265625
3,137;-1.74041748046875
3,138;-1.74102783203125
3,139;-1.74163818359375
3,14;-1.74102783203125
3,141;-1.74163818359375
3,142;-1.74163818359375
3,143;-1.7413330078125
3,144;-1.7413330078125
3,145;-1.74102783203125
3,146;-1.74163818359375
3,147;-1.7413330078125
3,148;-1.74072265625
3,149;-1.74102783203125
3,15;-1.7413330078125
3,151;-1.74102783203125
3,152;-1.74072265625
3,153;-1.74072265625
3,154;-1.74072265625
3,155;-1.74102783203125
3,156;-1.74072265625
3,157;-1.74102783203125
3,158;-1.74072265625
3,159;-1.74102783203125
3,16;-1.74102783203125
3,161;-1.7413330078125
3,162;-1.74041748046875
3,163;-1.74072265625
3,164;-1.74102783203125
3,165;-1.74072265625
3,166;-1.7413330078125
3,167;-1.74072265625
3,168;-1.74102783203125
3,169;-1.74163818359375
3,17;-1.74072265625
3,171;-1.74102783203125
3,172;-1.74102783203125
3,173;-1.74102783203125
3,174;-1.74102783203125
3,175;-1.74102783203125
3,176;-1.74102783203125
3,177;-1.7413330078125
3,178;-1.74072265625
3,179;-1.74072265625
3,18;-1.74072265625
3,181;-1.74072265625
3,182;-1.7413330078125
3,183;-1.7413330078125
3,184;-1.74163818359375
3,185;-1.7413330078125
3,186;-1.7413330078125
3,187;-1.74102783203125
3,188;-1.74072265625
3,189;-1.74102783203125
3,19;-1.74072265625
3,191;-1.74102783203125
3,192;-1.74072265625
3,193;-1.74102783203125
3,194;-1.74102783203125
3,195;-1.74041748046875
3,196;-1.74102783203125
3,197;-1.74072265625
3,198;-1.74102783203125
3,199;-1.74072265625
3,2;-1.74102783203125
3,201;-1.74102783203125
3,202;-1.74102783203125
3,203;-1.74102783203125
3,204;-1.74041748046875
3,205;-1.74072265625
3,206;-1.74072265625
3,207;-1.74102783203125
3,208;-1.7413330078125
3,209;-1.74041748046875
3,21;-1.7413330078125
3,211;-1.74102783203125
3,212;-1.74072265625
3,213;-1.74072265625
3,214;-1.74102783203125
3,215;-1.74072265625
3,216;-1.74102783203125
3,217;-1.74041748046875
3,218;-1.74072265625
3,219;-1.74041748046875
3,22;-1.74102783203125
3,221;-1.74102783203125
3,222;-1.74102783203125
3,223;-1.74072265625
3,224;-1.74041748046875
3,225;-1.74072265625
3,226;-1.74102783203125
3,227;-1.7413330078125
3,228;-1.74102783203125
3,229;-1.74102783203125
3,23;-1.74102783203125
3,231;-1.74102783203125
3,232;-1.74102783203125
3,233;-1.7413330078125
3,234;-1.74102783203125
3,235;-1.74102783203125
3,236;-1.74072265625
3,237;-1.74072265625
3,238;-1.74072265625
3,239;-1.74072265625
3,24;-1.74102783203125
3,241;-1.74072265625
3,242;-1.74102783203125
3,243;-1.74102783203125
3,244;-1.74102783203125
3,245;-1.7413330078125
3,246;-1.74102783203125
3,247;-1.74102783203125
3,248;-1.74072265625
3,249;-1.74072265625
3,25;-1.74102783203125
3,251;-1.74102783203125
3,252;-1.74102783203125
3,253;-1.7413330078125
3,254;-1.74072265625
3,255;-1.74102783203125
3,256;-1.74072265625
3,257;-1.7413330078125
3,258;-1.74102783203125
3,259;-1.7413330078125
3,26;-1.74072265625
3,261;-1.74072265625
3,262;-1.7413330078125
3,263;-1.74102783203125
3,264;-1.74102783203125
3,265;-1.74072265625
3,266;-1.7413330078125
3,267;-1.7413330078125
3,268;-1.741943359375
3,269;-1.74072265625
3,27;-1.7413330078125
3,271;-1.74072265625
3,272;-1.74102783203125
3,273;-1.74072265625
3,274;-1.7413330078125
3,275;-1.7413330078125
3,276;-1.74072265625
3,277;-1.74102783203125
3,278;-1.74102783203125
3,279;-1.74072265625
3,28;-1.74102783203125
3,281;-1.74072265625
3,282;-1.7413330078125
3,283;-1.74072265625
3,284;-1.74102783203125
3,285;-1.74072265625
3,286;-1.74072265625
3,287;-1.7413330078125
3,288;-1.74102783203125
3,289;-1.74072265625
3,29;-1.74072265625
3,291;-1.74102783203125
3,292;-1.74041748046875
3,293;-1.74072265625
3,294;-1.74102783203125
3,295;-1.74072265625
3,296;-1.74072265625
3,297;-1.74072265625
3,298;-1.7413330078125
3,299;-1.74102783203125
3,3;-1.74072265625
3,301;-1.74102783203125
3,302;-1.74041748046875
3,303;-1.74072265625
3,304;-1.74041748046875
3,305;-1.74102783203125
3,306;-1.74102783203125
3,307;-1.74072265625
3,308;-1.74102783203125
3,309;-1.7401123046875
3,31;-1.7413330078125
3,311;-1.74041748046875
3,312;-1.74102783203125
3,313;-1.74072265625
3,314;-1.74102783203125
3,315;-1.74041748046875
3,316;-1.74102783203125
3,317;-1.74102783203125
3,318;-1.74102783203125
3,319;-1.74072265625
3,32;-1.74102783203125
3,321;-1.74072265625
3,322;-1.74102783203125
3,323;-1.74102783203125
3,324;-1.7413330078125
3,325;-1.74102783203125
3,326;-1.74102783203125
3,327;-1.7413330078125
3,328;-1.74041748046875
3,329;-1.74041748046875
3,33;-1.7401123046875
3,331;-1.74072265625
3,332;-1.74102783203125
3,333;-1.74102783203125
3,334;-1.74102783203125
3,335;-1.7413330078125
3,336;-1.74102783203125
3,337;-1.74072265625
3,338;-1.7413330078125
3,339;-1.74102783203125
3,34;-1.74072265625
3,341;-1.7413330078125
3,342;-1.74072265625
3,343;-1.74072265625
3,344;-1.74041748046875
3,345;-1.74072265625
3,346;-1.74102783203125
3,347;-1.74102783203125
3,348;-1.7413330078125
3,349;-1.7413330078125
3,35;-1.74041748046875
3,351;-1.74102783203125
3,352;-1.74041748046875
3,353;-1.74102783203125
3,354;-1.74072265625
3,355;-1.74102783203125
3,356;-1.74072265625
3,357;-1.74102783203125
3,358;-1.74072265625
3,359;-1.74163818359375
3,36;-1.74072265625
3,361;-1.74041748046875
3,362;-1.74102783203125
3,363;-1.74102783203125
3,364;-1.74102783203125
3,365;-1.74102783203125
3,366;-1.74041748046875
3,367;-1.74102783203125
3,368;-1.74072265625
3,369;-1.74072265625
3,37;-1.74102783203125
3,371;-1.74072265625
3,372;-1.74102783203125
3,373;-1.74102783203125
3,374;-1.74041748046875
3,375;-1.74102783203125
3,376;-1.74041748046875
3,377;-1.74041748046875
3,378;-1.74072265625
3,379;-1.74102783203125
3,38;-1.74102783203125
3,381;-1.74072265625
3,382;-1.74072265625
3,383;-1.74102783203125
3,384;-1.74041748046875
3,385;-1.74102783203125
3,386;-1.74072265625
3,387;-1.74072265625
3,388;-1.74102783203125
3,389;-1.74102783203125
3,39;-1.74041748046875
3,391;-1.74102783203125
3,392;-1.74102783203125
3,393;-1.74072265625
3,394;-1.74102783203125
3,395;-1.74072265625
3,396;-1.74102783203125
3,397;-1.74102783203125
3,398;-1.74102783203125
3,399;-1.74072265625
3,4;-1.74072265625
3,401;-1.74072265625
3,402;-1.74102783203125
3,403;-1.74102783203125
3,404;-1.74102783203125
3,405;-1.74072265625
3,406;-1.74102783203125
3,407;-1.74072265625
3,408;-1.74072265625
3,409;-1.74102783203125
3,41;-1.74072265625
3,411;-1.74072265625
3,412;-1.74072265625
3,413;-1.74041748046875
3,414;-1.74072265625
3,415;-1.74102783203125
3,416;-1.74072265625
3,417;-1.74041748046875
3,418;-1.74102783203125
3,419;-1.74102783203125
3,42;-1.74072265625
3,421;-1.74102783203125
3,422;-1.74102783203125
3,423;-1.74072265625
3,424;-1.74072265625
3,425;-1.74072265625
3,426;-1.74102783203125
3,427;-1.74072265625
3,428;-1.7413330078125
3,429;-1.74102783203125
3,43;-1.74072265625
3,431;-1.74102783203125
3,432;-1.74102783203125
3,433;-1.74102783203125
3,434;-1.74041748046875
3,435;-1.74072265625
3,436;-1.7413330078125
3,437;-1.7413330078125
3,438;-1.7413330078125
3,439;-1.74072265625
3,44;-1.74072265625
3,441;-1.74072265625
3,442;-1.7413330078125
3,443;-1.74072265625
3,444;-1.74102783203125
3,445;-1.74072265625
3,446;-1.74072265625
3,447;-1.74072265625
3,448;-1.74072265625
3,449;-1.74102783203125
3,45;-1.7413330078125
3,451;-1.74102783203125
3,452;-1.74072265625
3,453;-1.74102783203125
3,454;-1.74041748046875
3,455;-1.74072265625
3,456;-1.74072265625
3,457;-1.74072265625
3,458;-1.74102783203125
3,459;-1.74072265625
3,46;-1.74072265625
3,461;-1.74072265625
3,462;-1.74072265625
3,463;-1.74072265625
3,464;-1.74072265625
3,465;-1.74041748046875
3,466;-1.74041748046875
3,467;-1.74102783203125
3,468;-1.7413330078125
3,469;-1.74072265625
3,47;-1.74102783203125
3,471;-1.74102783203125
3,472;-1.7413330078125
3,473;-1.74072265625
3,474;-1.7413330078125
3,475;-1.74102783203125
3,476;-1.74102783203125
3,477;-1.74102783203125
3,478;-1.74072265625
3,479;-1.74102783203125
3,48;-1.74102783203125
3,481;-1.74072265625
3,482;-1.7413330078125
3,483;-1.74072265625
3,484;-1.7413330078125
3,485;-1.74072265625
3,486;-1.74102783203125
3,487;-1.74072265625
3,488;-1.74072265625
3,489;-1.74072265625
3,49;-1.74102783203125
3,491;-1.74072265625
3,492;-1.7413330078125
3,493;-1.74072265625
3,494;-1.7413330078125
3,495;-1.7413330078125
3,496;-1.7413330078125
3,497;-1.7413330078125
3,498;-1.7413330078125
3,499;-1.74102783203125
3,5;-1.74072265625
3,501;-1.74072265625
3,502;-1.74072265625
3,503;-1.74072265625
3,504;-1.7413330078125
3,505;-1.7413330078125
3,506;-1.74041748046875
3,507;-1.74102783203125
3,508;-1.74072265625
3,509;-1.74102783203125
3,51;-1.74163818359375
3,511;-1.74102783203125
3,512;-1.74102783203125
3,513;-1.74072265625
3,514;-1.74072265625
3,515;-1.74072265625
3,516;-1.74072265625
3,517;-1.7413330078125
3,518;-1.74072265625
3,519;-1.74072265625
3,52;-1.74041748046875
3,521;-1.74102783203125
3,522;-1.74102783203125
3,523;-1.74102783203125
3,524;-1.74102783203125
3,525;-1.74072265625
3,526;-1.74102783203125
3,527;-1.74102783203125
3,528;-1.74163818359375
3,529;-1.74102783203125
3,53;-1.74041748046875
3,531;-1.74072265625
3,532;-1.74102783203125
3,533;-1.74102783203125
3,534;-1.7401123046875
3,535;-1.7401123046875
3,536;-1.74072265625
3,537;-1.74041748046875
3,538;-1.74072265625
3,539;-1.74041748046875
3,54;-1.74102783203125
3,541;-1.74072265625
3,542;-1.74072265625
3,543;-1.7413330078125
3,544;-1.74072265625
3,545;-1.74072265625
3,546;-1.74102783203125
3,547;-1.74072265625
3,548;-1.74072265625
3,549;-1.74072265625
3,55;-1.7413330078125
3,551;-1.74102783203125
3,552;-1.74072265625
3,553;-1.74072265625
3,554;-1.74102783203125
3,555;-1.74072265625
3,556;-1.74041748046875
3,557;-1.7413330078125
3,558;-1.74072265625
3,559;-1.74102783203125
3,56;-1.74072265625
3,561;-1.74041748046875
3,562;-1.74072265625
3,563;-1.74072265625
3,564;-1.74102783203125
3,565;-1.74102783203125
3,566;-1.74102783203125
3,567;-1.74072265625
3,568;-1.74102783203125
3,569;-1.74041748046875
3,57;-1.74102783203125
3,571;-1.7401123046875
3,572;-1.74072265625
3,573;-1.74072265625
3,574;-1.74102783203125
3,575;-1.74072265625
3,576;-1.74072265625
3,577;-1.74072265625
3,578;-1.74072265625
3,579;-1.74072265625
3,58;-1.74041748046875
3,581;-1.74102783203125
3,582;-1.74041748046875
3,583;-1.74072265625
3,584;-1.74041748046875
3,585;-1.74072265625
3,586;-1.74041748046875
3,587;-1.74102783203125
3,588;-1.74041748046875
3,589;-1.74102783203125
3,59;-1.74163818359375
3,591;-1.74102783203125
3,592;-1.74072265625
3,593;-1.74072265625
3,594;-1.74072265625
3,595;-1.74072265625
3,596;-1.74041748046875
3,597;-1.74102783203125
3,598;-1.74072265625
3,599;-1.74041748046875
3,6;-1.74102783203125
3,601;-1.74102783203125
3,602;-1.74072265625
3,603;-1.74072265625
3,604;-1.74102783203125
3,605;-1.74102783203125
3,606;-1.74072265625
3,607;-1.7413330078125
3,608;-1.74072265625
3,609;-1.74041748046875
3,61;-1.74102783203125
3,611;-1.74041748046875
3,612;-1.74163818359375
3,613;-1.74072265625
3,614;-1.74102783203125
3,615;-1.74072265625
3,616;-1.74072265625
3,617;-1.74102783203125
3,618;-1.74072265625
3,619;-1.74041748046875
3,62;-1.74102783203125
3,621;-1.7401123046875
3,622;-1.74102783203125
3,623;-1.74072265625
3,624;-1.7413330078125
3,625;-1.74102783203125
3,626;-1.7413330078125
3,627;-1.74072265625
3,628;-1.74102783203125
3,629;-1.74102783203125
3,63;-1.74072265625
3,631;-1.74102783203125
3,632;-1.74072265625
3,633;-1.74072265625
3,634;-1.74041748046875
3,635;-1.74041748046875
3,636;-1.74072265625
3,637;-1.74041748046875
3,638;-1.74041748046875
3,639;-1.74072265625
3,64;-1.74041748046875
3,641;-1.74072265625
3,642;-1.74072265625
3,643;-1.74072265625
3,644;-1.74102783203125
3,645;-1.74102783203125
3,646;-1.74072265625
3,647;-1.74072265625
3,648;-1.74072265625
3,649;-1.74072265625
3,65;-1.74072265625
3,651;-1.7413330078125
3,652;-1.7413330078125
3,653;-1.74102783203125
3,654;-1.74102783203125
3,655;-1.74072265625
3,656;-1.7401123046875
3,657;-1.74102783203125
3,658;-1.74072265625
3,659;-1.74072265625
3,66;-1.74072265625
3,661;-1.74072265625
3,662;-1.7413330078125
3,663;-1.74072265625
3,664;-1.74072265625
3,665;-1.74102783203125
3,666;-1.74102783203125
3,667;-1.74072265625
3,668;-1.74102783203125
3,669;-1.74102783203125
3,67;-1.74072265625
3,671;-1.74072265625
3,672;-1.74041748046875
3,673;-1.74041748046875
3,674;-1.74072265625
3,675;-1.74102783203125
3,676;-1.74072265625
3,677;-1.74072265625
3,678;-1.74102783203125
3,679;-1.74102783203125
3,68;-1.7413330078125
3,681;-1.74072265625
3,682;-1.74072265625
3,683;-1.74102783203125
3,684;-1.7413330078125
3,685;-1.74072265625
3,686;-1.74102783203125
3,687;-1.74102783203125
3,688;-1.74072265625
3,689;-1.74102783203125
3,69;-1.74041748046875
3,691;-1.74072265625
3,692;-1.74072265625
3,693;-1.74102783203125
3,694;-1.7413330078125
3,695;-1.74072265625
3,696;-1.74072265625
3,697;-1.74102783203125
3,698;-1.74072265625
3,699;-1.74102783203125
3,7;-1.7413330078125
3,701;-1.74072265625
3,702;-1.74072265625
3,703;-1.74072265625
3,704;-1.74072265625
3,705;-1.74072265625
3,706;-1.74072265625
3,707;-1.74102783203125
3,708;-1.74072265625
3,709;-1.74072265625
3,71;-1.74072265625
3,711;-1.74072265625
3,712;-1.74072265625
3,713;-1.74072265625
3,714;-1.74102783203125
3,715;-1.74041748046875
3,716;-1.74041748046875
3,717;-1.74072265625
3,718;-1.74072265625
3,719;-1.74041748046875
3,72;-1.74102783203125
3,721;-1.74072265625
3,722;-1.74072265625
3,723;-1.74041748046875
3,724;-1.74102783203125
3,725;-1.74041748046875
3,726;-1.74102783203125
3,727;-1.74102783203125
3,728;-1.74041748046875
3,729;-1.74041748046875
3,73;-1.74041748046875
3,731;-1.74102783203125
3,732;-1.74072265625
3,733;-1.74072265625
3,734;-1.74041748046875
3,735;-1.74072265625
3,736;-1.7401123046875
3,737;-1.74102783203125
3,738;-1.74072265625
3,739;-1.74072265625
3,74;-1.74072265625
3,741;-1.74072265625
3,742;-1.74102783203125
3,743;-1.74102783203125
3,744;-1.74072265625
3,745;-1.74102783203125
3,746;-1.74072265625
3,747;-1.74102783203125
3,748;-1.7401123046875
3,749;-1.74041748046875
3,75;-1.74072265625
3,751;-1.74072265625
3,752;-1.74072265625
3,753;-1.74072265625
3,754;-1.74072265625
3,755;-1.74102783203125
3,756;-1.74072265625
3,757;-1.74102783203125
3,758;-1.74163818359375
3,759;-1.74041748046875
3,76;-1.74102783203125
3,761;-1.74072265625
3,762;-1.7401123046875
3,763;-1.74072265625
3,764;-1.74102783203125
3,765;-1.74072265625
3,766;-1.7413330078125
3,767;-1.74072265625
3,768;-1.74102783203125
3,769;-1.74072265625
3,77;-1.74072265625
3,771;-1.74041748046875
3,772;-1.74041748046875
3,773;-1.74102783203125
3,774;-1.7413330078125
3,775;-1.74072265625
3,776;-1.74102783203125
3,777;-1.7413330078125
3,778;-1.74041748046875
3,779;-1.74102783203125
3,78;-1.74072265625
3,781;-1.74102783203125
3,782;-1.74102783203125
3,783;-1.74072265625
3,784;-1.74102783203125
3,785;-1.74041748046875
3,786;-1.74102783203125
3,787;-1.74102783203125
3,788;-1.74072265625
3,789;-1.74041748046875
3,79;-1.74072265625
3,791;-1.74072265625
3,792;-1.74041748046875
3,793;-1.74072265625
3,794;-1.74041748046875
3,795;-1.74072265625
3,796;-1.74072265625
3,797;-1.7401123046875
3,798;-1.74102783203125
3,799;-1.7413330078125
3,8;-1.7401123046875
3,801;-1.74102783203125
3,802;-1.74041748046875
3,803;-1.74072265625
3,804;-1.74072265625
3,805;-1.74041748046875
3,806;-1.74041748046875
3,807;-1.74072265625
3,808;-1.74072265625
3,809;-1.74102783203125
3,81;-1.74102783203125
3,811;-1.74041748046875
3,812;-1.74041748046875
3,813;-1.74041748046875
3,814;-1.74072265625
3,815;-1.74041748046875
3,816;-1.74041748046875
3,817;-1.74072265625
3,818;-1.74041748046875
3,819;-1.74072265625
3,82;-1.74041748046875
3,821;-1.74072265625
3,822;-1.74072265625
3,823;-1.74041748046875
3,824;-1.74041748046875
3,825;-1.74072265625
3,826;-1.74041748046875
3,827;-1.74041748046875
3,828;-1.74072265625
3,829;-1.7413330078125
3,83;-1.74041748046875
3,831;-1.74072265625
3,832;-1.7401123046875
3,833;-1.74041748046875
3,834;-1.74072265625
3,835;-1.74041748046875
3,836;-1.74041748046875
3,837;-1.74072265625
3,838;-1.74072265625
3,839;-1.74041748046875
3,84;-1.74072265625
3,841;-1.74072265625
3,842;-1.7413330078125
3,843;-1.74072265625
3,844;-1.74102783203125
3,845;-1.74072265625
3,846;-1.74072265625
3,847;-1.74102783203125
3,848;-1.74102783203125
3,849;-1.74072265625
3,85;-1.74072265625
3,851;-1.74041748046875
3,852;-1.74072265625
3,853;-1.74041748046875
3,854;-1.74072265625
3,855;-1.74102783203125
3,856;-1.74041748046875
3,857;-1.74102783203125
3,858;-1.74041748046875
3,859;-1.74072265625
3,86;-1.74102783203125
3,861;-1.74072265625
3,862;-1.7413330078125
3,863;-1.74102783203125
3,864;-1.74072265625
3,865;-1.74072265625
3,866;-1.74072265625
3,867;-1.74041748046875
3,868;-1.74102783203125
3,869;-1.74072265625
3,87;-1.74072265625
3,871;-1.74041748046875
3,872;-1.74072265625
3,873;-1.74072265625
3,874;-1.74041748046875
3,875;-1.74072265625
3,876;-1.74072265625
3,877;-1.74041748046875
3,878;-1.74102783203125
3,879;-1.74041748046875
3,88;-1.74041748046875
3,881;-1.74041748046875
3,882;-1.74072265625
3,883;-1.74072265625
3,884;-1.74041748046875
3,885;-1.74072265625
3,886;-1.7401123046875
3,887;-1.74072265625
3,888;-1.74041748046875
3,889;-1.74102783203125
3,89;-1.74072265625
3,891;-1.74102783203125
3,892;-1.74072265625
3,893;-1.74041748046875
3,894;-1.74072265625
3,895;-1.74072265625
3,896;-1.74041748046875
3,897;-1.74102783203125
3,898;-1.74072265625
3,899;-1.73980712890625
3,9;-1.74072265625
3,901;-1.74102783203125
3,902;-1.74102783203125
3,903;-1.7413330078125
3,904;-1.74072265625
3,905;-1.74041748046875
3,906;-1.74072265625
3,907;-1.74072265625
3,908;-1.74072265625
3,909;-1.74072265625
3,91;-1.74072265625
3,911;-1.74041748046875
3,912;-1.74072265625
3,913;-1.74102783203125
3,914;-1.74102783203125
3,915;-1.74102783203125
3,916;-1.74072265625
3,917;-1.74072265625
3,918;-1.74102783203125
3,919;-1.74072265625
3,92;-1.74072265625
3,921;-1.74072265625
3,922;-1.74072265625
3,923;-1.7413330078125
3,924;-1.74041748046875
3,925;-1.74041748046875
3,926;-1.74041748046875
3,927;-1.74102783203125
3,928;-1.74072265625
3,929;-1.74102783203125
3,93;-1.74102783203125
3,931;-1.74041748046875
3,932;-1.74102783203125
3,933;-1.7401123046875
3,934;-1.74041748046875
3,935;-1.74102783203125
3,936;-1.74072265625
3,937;-1.74041748046875
3,938;-1.74102783203125
3,939;-1.74102783203125
3,94;-1.74102783203125
3,941;-1.74102783203125
3,942;-1.74041748046875
3,943;-1.73980712890625
3,944;-1.74072265625
3,945;-1.74102783203125
3,946;-1.74102783203125
3,947;-1.74072265625
3,948;-1.74041748046875
3,949;-1.74072265625
3,95;-1.74072265625
3,951;-1.74072265625
3,952;-1.74072265625
3,953;-1.74102783203125
3,954;-1.74041748046875
3,955;-1.74102783203125
3,956;-1.74072265625
3,957;-1.74072265625
3,958;-1.74102783203125
3,959;-1.74041748046875
3,96;-1.74072265625
3,961;-1.74041748046875
3,962;-1.74072265625
3,963;-1.7401123046875
3,964;-1.74102783203125
3,965;-1.74072265625
3,966;-1.74072265625
3,967;-1.74041748046875
3,968;-1.7413330078125
3,969;-1.74072265625
3,97;-1.74102783203125
3,971;-1.74072265625
3,972;-1.74072265625
3,973;-1.74072265625
3,974;-1.74072265625
3,975;-1.74072265625
3,976;-1.74041748046875
3,977;-1.7413330078125
3,978;-1.74041748046875
3,979;-1.74072265625
3,98;-1.74072265625
3,981;-1.74041748046875
3,982;-1.74041748046875
3,983;-1.74072265625
3,984;-1.74041748046875
3,985;-1.74072265625
3,986;-1.7401123046875
3,987;-1.74102783203125
3,988;-1.74163818359375
3,989;-1.7413330078125
3,99;-1.739501953125
3,991;-1.74102783203125
3,992;-1.74102783203125
3,993;-1.7401123046875
3,994;-1.74072265625
3,995;-1.74072265625
3,996;-1.74072265625
3,997;-1.74102783203125
3,998;-1.74102783203125
3,999;-1.74102783203125
4;-1.74041748046875
4,001;-1.74102783203125
4,002;-1.7413330078125
4,003;-1.74041748046875
4,004;-1.74102783203125
4,005;-1.74041748046875
4,006;-1.74041748046875
4,007;-1.74041748046875
4,008;-1.74072265625
4,009;-1.74072265625
4,01;-1.74072265625
4,011;-1.73980712890625
4,012;-1.74072265625
4,013;-1.74041748046875
4,014;-1.74041748046875
4,015;-1.74072265625
4,016;-1.74102783203125
4,017;-1.74102783203125
4,018;-1.74072265625
4,019;-1.74041748046875
4,02;-1.74072265625
4,021;-1.74102783203125
4,022;-1.74072265625
4,023;-1.74102783203125
4,024;-1.74072265625
4,025;-1.74041748046875
4,026;-1.74041748046875
4,027;-1.74072265625
4,028;-1.74041748046875
4,029;-1.74041748046875
4,03;-1.74072265625
4,031;-1.74041748046875
4,032;-1.74102783203125
4,033;-1.74072265625
4,034;-1.74072265625
4,035;-1.7401123046875
4,036;-1.74041748046875
4,037;-1.74102783203125
4,038;-1.74072265625
4,039;-1.7401123046875
4,04;-1.74041748046875
4,041;-1.74072265625
4,042;-1.7401123046875
4,043;-1.7413330078125
4,044;-1.74041748046875
4,045;-1.74102783203125
4,046;-1.7413330078125
4,047;-1.7401123046875
4,048;-1.7413330078125
4,049;-1.74072265625
4,05;-1.74041748046875
4,051;-1.74072265625
4,052;-1.74072265625
4,053;-1.74072265625
4,054;-1.74072265625
4,055;-1.74102783203125
4,056;-1.74072265625
4,057;-1.74041748046875
4,058;-1.74041748046875
4,059;-1.74102783203125
4,06;-1.74041748046875
4,061;-1.74072265625
4,062;-1.74072265625
4,063;-1.74041748046875
4,064;-1.74102783203125
4,065;-1.74041748046875
4,066;-1.74072265625
4,067;-1.74041748046875
4,068;-1.74102783203125
4,069;-1.7401123046875
4,07;-1.74072265625
4,071;-1.73980712890625
4,072;-1.7413330078125
4,073;-1.74072265625
4,074;-1.74102783203125
4,075;-1.74041748046875
4,076;-1.7401123046875
4,077;-1.74072265625
4,078;-1.74041748046875
4,079;-1.74041748046875
4,08;-1.74102783203125
4,081;-1.74072265625
4,082;-1.74041748046875
4,083;-1.74072265625
4,084;-1.74041748046875
4,085;-1.74072265625
4,086;-1.74072265625
4,087;-1.74072265625
4,088;-1.74072265625
4,089;-1.74072265625
4,09;-1.74072265625
4,091;-1.74041748046875
4,092;-1.74041748046875
4,093;-1.74041748046875
4,094;-1.74041748046875
4,095;-1.74041748046875
4,096;-1.74041748046875
4,097;-1.74041748046875
4,098;-1.74072265625
4,099;-1.74072265625
4,1;-1.74072265625
4,101;-1.74102783203125
4,102;-1.74072265625
4,103;-1.74102783203125
4,104;-1.74041748046875
4,105;-1.7401123046875
4,106;-1.74102783203125
4,107;-1.74102783203125
4,108;-1.74072265625
4,109;-1.74072265625
4,11;-1.74102783203125
4,111;-1.74072265625
4,112;-1.74041748046875
4,113;-1.74072265625
4,114;-1.74072265625
4,115;-1.74102783203125
4,116;-1.7401123046875
4,117;-1.74102783203125
4,118;-1.74102783203125
4,119;-1.74102783203125
4,12;-1.74102783203125
4,121;-1.74102783203125
4,122;-1.74072265625
4,123;-1.74041748046875
4,124;-1.74102783203125
4,125;-1.74041748046875
4,126;-1.74072265625
4,127;-1.74041748046875
4,128;-1.74041748046875
4,129;-1.74102783203125
4,13;-1.74041748046875
4,131;-1.74072265625
4,132;-1.74072265625
4,133;-1.74041748046875
4,134;-1.74072265625
4,135;-1.74102783203125
4,136;-1.74072265625
4,137;-1.74102783203125
4,138;-1.74041748046875
4,139;-1.74102783203125
4,14;-1.74041748046875
4,141;-1.74072265625
4,142;-1.74102783203125
4,143;-1.74163818359375
4,144;-1.74072265625
4,145;-1.74102783203125
4,146;-1.7401123046875
4,147;-1.7413330078125
4,148;-1.74072265625
4,149;-1.74072265625
4,15;-1.74102783203125
4,151;-1.74072265625
4,152;-1.74041748046875
4,153;-1.74041748046875
4,154;-1.74072265625
4,155;-1.74041748046875
4,156;-1.74102783203125
4,157;-1.74102783203125
4,158;-1.74072265625
4,159;-1.74072265625
4,16;-1.74102783203125
4,161;-1.74072265625
4,162;-1.74041748046875
4,163;-1.74102783203125
4,164;-1.74072265625
4,165;-1.74102783203125
4,166;-1.74102783203125
4,167;-1.74041748046875
4,168;-1.74072265625
4,169;-1.74041748046875
4,17;-1.74041748046875
4,171;-1.74041748046875
4,172;-1.74102783203125
4,173;-1.74072265625
4,174;-1.74102783203125
4,175;-1.74072265625
4,176;-1.74072265625
4,177;-1.74041748046875
4,178;-1.74072265625
4,179;-1.74072265625
4,18;-1.73980712890625
4,181;-1.74072265625
4,182;-1.74072265625
4,183;-1.74102783203125
4,184;-1.74072265625
4,185;-1.74072265625
4,186;-1.74072265625
4,187;-1.74072265625
4,188;-1.74041748046875
4,189;-1.7401123046875
4,19;-1.74072265625
4,191;-1.74072265625
4,192;-1.74102783203125
4,193;-1.74072265625
4,194;-1.74163818359375
4,195;-1.74072265625
4,196;-1.74102783203125
4,197;-1.74102783203125
4,198;-1.74072265625
4,199;-1.74072265625
4,2;-1.74041748046875
4,201;-1.74041748046875
4,202;-1.74041748046875
4,203;-1.74072265625
4,204;-1.74041748046875
4,205;-1.74041748046875
4,206;-1.74041748046875
4,207;-1.74041748046875
4,208;-1.74072265625
4,209;-1.74072265625
4,21;-1.74041748046875
4,211;-1.7401123046875
4,212;-1.74102783203125
4,213;-1.74041748046875
4,214;-1.74041748046875
4,215;-1.74072265625
4,216;-1.74102783203125
4,217;-1.74072265625
4,218;-1.74072265625
4,219;-1.74072265625
4,22;-1.74072265625
4,221;-1.74041748046875
4,222;-1.74041748046875
4,223;-1.74041748046875
4,224;-1.74041748046875
4,225;-1.7401123046875
4,226;-1.74102783203125
4,227;-1.74041748046875
4,228;-1.7401123046875
4,229;-1.74041748046875
4,23;-1.74041748046875
4,231;-1.74041748046875
4,232;-1.74102783203125
4,233;-1.7401123046875
4,234;-1.74072265625
4,235;-1.74041748046875
4,236;-1.74072265625
4,237;-1.74163818359375
4,238;-1.74072265625
4,239;-1.74102783203125
4,24;-1.74041748046875
4,241;-1.74041748046875
4,242;-1.7401123046875
4,243;-1.74102783203125
4,244;-1.74041748046875
4,245;-1.74072265625
4,246;-1.74041748046875
4,247;-1.74072265625
4,248;-1.74072265625
4,249;-1.74041748046875
4,25;-1.74072265625
4,251;-1.74072265625
4,252;-1.74102783203125
4,253;-1.74041748046875
4,254;-1.7401123046875
4,255;-1.74041748046875
4,256;-1.74072265625
4,257;-1.74041748046875
4,258;-1.74072265625
4,259;-1.74072265625
4,26;-1.74041748046875
4,261;-1.74041748046875
4,262;-1.74102783203125
4,263;-1.74072265625
4,264;-1.74072265625
4,265;-1.74072265625
4,266;-1.74072265625
4,267;-1.74072265625
4,268;-1.74102783203125
4,269;-1.74072265625
4,27;-1.74041748046875
4,271;-1.74102783203125
4,272;-1.7401123046875
4,273;-1.7401123046875
4,274;-1.74041748046875
4,275;-1.74041748046875
4,276;-1.74102783203125
4,277;-1.74072265625
4,278;-1.74041748046875
4,279;-1.74072265625
4,28;-1.74041748046875
4,281;-1.74072265625
4,282;-1.74072265625
4,283;-1.74041748046875
4,284;-1.74072265625
4,285;-1.74102783203125
4,286;-1.74102783203125
4,287;-1.74072265625
4,288;-1.74072265625
4,289;-1.74041748046875
4,29;-1.74041748046875
4,291;-1.74041748046875
4,292;-1.74041748046875
4,293;-1.74072265625
4,294;-1.74072265625
4,295;-1.74072265625
4,296;-1.74072265625
4,297;-1.74102783203125
4,298;-1.74072265625
4,299;-1.74072265625
4,3;-1.74072265625
4,301;-1.74072265625
4,302;-1.74102783203125
4,303;-1.74041748046875
4,304;-1.74041748046875
4,305;-1.73980712890625
4,306;-1.74041748046875
4,307;-1.74072265625
4,308;-1.74072265625
4,309;-1.74072265625
4,31;-1.74072265625
4,311;-1.74102783203125
4,312;-1.74041748046875
4,313;-1.74102783203125
4,314;-1.74041748046875
4,315;-1.74041748046875
4,316;-1.74072265625
4,317;-1.74072265625
4,318;-1.74072265625
4,319;-1.74072265625
4,32;-1.74041748046875
4,321;-1.74041748046875
4,322;-1.74041748046875
4,323;-1.74072265625
4,324;-1.7401123046875
4,325;-1.74072265625
4,326;-1.73980712890625
4,327;-1.74072265625
4,328;-1.74072265625
4,329;-1.74102783203125
4,33;-1.74072265625
4,331;-1.74072265625
4,332;-1.74041748046875
4,333;-1.74041748046875
4,334;-1.74041748046875
4,335;-1.7401123046875
4,336;-1.74041748046875
4,337;-1.74041748046875
