
;DT9804(00).A/D0.Channel 1;DT9804(00).A/D0.Channel 1;DT9804(00).A/D0.Channel 2;DT9804(00).A/D0.Channel 3;DT9804(00).A/D0.Channel 4;DT9804(00).A/D0.Channel 5;DT9804(00).A/D0.Channel 6;DT9804(00).A/D0.Channel 7;DT9804(00).A/D0.Channel 8;DT9804(00).A/D0.Channel 9;DT9804(00).A/D0.Channel 10;DT9804(00).A/D0.Channel 11;DT9804(00).A/D0.Channel 12;DT9804(00).A/D0.Channel 13;DT9804(00).A/D0.Channel 14;DT9804(00).A/D0.Channel 15
0;-3.1195068359375
0,001;-3.11920166015625
0,002;-3.1195068359375
0,003;-3.1195068359375
0,004;-3.1195068359375
0,005;-3.11981201171875
0,006;-3.11859130859375
0,007;-3.11920166015625
0,008;-3.1195068359375
0,009;-3.11920166015625
0,01;-3.11981201171875
0,011;-3.1195068359375
0,012;-3.11981201171875
0,013;-3.1195068359375
0,014;-3.1195068359375
0,015;-3.11920166015625
0,016;-3.11920166015625
0,017;-3.11920166015625
0,018;-3.11981201171875
0,019;-3.11920166015625
0,02;-3.11981201171875
0,021;-3.11920166015625
0,022;-3.11981201171875
0,023;-3.11920166015625
0,024;-3.1201171875
0,025;-3.11920166015625
0,026;-3.11981201171875
0,027;-3.11920166015625
0,028;-3.11920166015625
0,029;-3.11920166015625
0,03;-3.11981201171875
0,031;-3.11920166015625
0,032;-3.11920166015625
0,033;-3.1195068359375
0,034;-3.1195068359375
0,035;-3.1195068359375
0,036;-3.1195068359375
0,037;-3.11920166015625
0,038;-3.11981201171875
0,039;-3.11920166015625
0,04;-3.11920166015625
0,041;-3.1195068359375
0,042;-3.1195068359375
0,043;-3.11920166015625
0,044;-3.1195068359375
0,045;-3.1195068359375
0,046;-3.11981201171875
0,047;-3.11920166015625
0,048;-3.11981201171875
0,049;-3.1195068359375
0,05;-3.11920166015625
0,051;-3.11920166015625
0,052;-3.11981201171875
0,053;-3.11920166015625
0,054;-3.1195068359375
0,055;-3.11920166015625
0,056;-3.1195068359375
0,057;-3.11859130859375
0,058;-3.1195068359375
0,059;-3.1195068359375
0,06;-3.11920166015625
0,061;-3.118896484375
0,062;-3.11981201171875
0,063;-3.1195068359375
0,064;-3.1195068359375
0,065;-3.1195068359375
0,066;-3.1195068359375
0,067;-3.11981201171875
0,068;-3.1195068359375
0,069;-3.1201171875
0,07;-3.11920166015625
0,071;-3.1195068359375
0,072;-3.11981201171875
0,073;-3.1195068359375
0,074;-3.1195068359375
0,075;-3.11920166015625
0,076;-3.11981201171875
0,077;-3.1195068359375
0,078;-3.11920166015625
0,079;-3.118896484375
0,08;-3.11920166015625
0,081;-3.11981201171875
0,082;-3.11920166015625
0,083;-3.118896484375
0,084;-3.11920166015625
0,085;-3.11920166015625
0,086;-3.1195068359375
0,087;-3.1195068359375
0,088;-3.11920166015625
0,089;-3.1195068359375
0,09;-3.1195068359375
0,091;-3.1195068359375
0,092;-3.1195068359375
0,093;-3.11920166015625
0,094;-3.1195068359375
0,095;-3.1195068359375
0,096;-3.1195068359375
0,097;-3.11981201171875
0,098;-3.1195068359375
0,099;-3.118896484375
0,1;-3.11981201171875
0,101;-3.1195068359375
0,102;-3.11920166015625
0,103;-3.11859130859375
0,104;-3.1195068359375
0,105;-3.1195068359375
0,106;-3.11920166015625
0,107;-3.11920166015625
0,108;-3.11920166015625
0,109;-3.11981201171875
0,11;-3.11920166015625
0,111;-3.11920166015625
0,112;-3.11920166015625
0,113;-3.1195068359375
0,114;-3.1195068359375
0,115;-3.1195068359375
0,116;-3.118896484375
0,117;-3.11920166015625
0,118;-3.118896484375
0,119;-3.1195068359375
0,12;-3.1195068359375
0,121;-3.11920166015625
0,122;-3.1195068359375
0,123;-3.11920166015625
0,124;-3.11920166015625
0,125;-3.11920166015625
0,126;-3.11920166015625
0,127;-3.1195068359375
0,128;-3.1195068359375
0,129;-3.11981201171875
0,13;-3.11981201171875
0,131;-3.11920166015625
0,132;-3.1195068359375
0,133;-3.118896484375
0,134;-3.118896484375
0,135;-3.1195068359375
0,136;-3.11920166015625
0,137;-3.11920166015625
0,138;-3.11920166015625
0,139;-3.11920166015625
0,14;-3.1195068359375
0,141;-3.11920166015625
0,142;-3.1195068359375
0,143;-3.11920166015625
0,144;-3.1195068359375
0,145;-3.11981201171875
0,146;-3.11981201171875
0,147;-3.118896484375
0,148;-3.11920166015625
0,149;-3.11920166015625
0,15;-3.11920166015625
0,151;-3.118896484375
0,152;-3.11920166015625
0,153;-3.1195068359375
0,154;-3.11920166015625
0,155;-3.11920166015625
0,156;-3.11859130859375
0,157;-3.118896484375
0,158;-3.1195068359375
0,159;-3.1195068359375
0,16;-3.118896484375
0,161;-3.1195068359375
0,162;-3.1195068359375
0,163;-3.11920166015625
0,164;-3.11920166015625
0,165;-3.11981201171875
0,166;-3.1195068359375
0,167;-3.118896484375
0,168;-3.118896484375
0,169;-3.1195068359375
0,17;-3.11981201171875
0,171;-3.11920166015625
0,172;-3.1195068359375
0,173;-3.11981201171875
0,174;-3.11920166015625
0,175;-3.1195068359375
0,176;-3.11920166015625
0,177;-3.118896484375
0,178;-3.118896484375
0,179;-3.11920166015625
0,18;-3.118896484375
0,181;-3.1195068359375
0,182;-3.1195068359375
0,183;-3.11920166015625
0,184;-3.11920166015625
0,185;-3.1195068359375
0,186;-3.11920166015625
0,187;-3.1195068359375
0,188;-3.1195068359375
0,189;-3.1195068359375
0,19;-3.1195068359375
0,191;-3.11920166015625
0,192;-3.11920166015625
0,193;-3.118896484375
0,194;-3.1195068359375
0,195;-3.1195068359375
0,196;-3.11920166015625
0,197;-3.118896484375
0,198;-3.1195068359375
0,199;-3.1195068359375
0,2;-3.11920166015625
0,201;-3.11920166015625
0,202;-3.1195068359375
0,203;-3.11920166015625
0,204;-3.1195068359375
0,205;-3.11920166015625
0,206;-3.11920166015625
0,207;-3.1195068359375
0,208;-3.11920166015625
0,209;-3.11920166015625
0,21;-3.118896484375
0,211;-3.118896484375
0,212;-3.11920166015625
0,213;-3.11920166015625
0,214;-3.11920166015625
0,215;-3.118896484375
0,216;-3.11920166015625
0,217;-3.11920166015625
0,218;-3.11981201171875
0,219;-3.11981201171875
0,22;-3.11920166015625
0,221;-3.11920166015625
0,222;-3.118896484375
0,223;-3.11920166015625
0,224;-3.11920166015625
0,225;-3.11920166015625
0,226;-3.118896484375
0,227;-3.11920166015625
0,228;-3.1201171875
0,229;-3.11920166015625
0,23;-3.1195068359375
0,231;-3.118896484375
0,232;-3.118896484375
0,233;-3.1195068359375
0,234;-3.11920166015625
0,235;-3.1195068359375
0,236;-3.1195068359375
0,237;-3.118896484375
0,238;-3.118896484375
0,239;-3.11920166015625
0,24;-3.11920166015625
0,241;-3.11920166015625
0,242;-3.11920166015625
0,243;-3.118896484375
0,244;-3.118896484375
0,245;-3.11920166015625
0,246;-3.1195068359375
0,247;-3.1195068359375
0,248;-3.1195068359375
0,249;-3.118896484375
0,25;-3.118896484375
0,251;-3.11920166015625
0,252;-3.1195068359375
0,253;-3.11920166015625
0,254;-3.11920166015625
0,255;-3.11920166015625
0,256;-3.1195068359375
0,257;-3.11920166015625
0,258;-3.11920166015625
0,259;-3.118896484375
0,26;-3.11920166015625
0,261;-3.118896484375
0,262;-3.11859130859375
0,263;-3.118896484375
0,264;-3.11920166015625
0,265;-3.1195068359375
0,266;-3.11920166015625
0,267;-3.11920166015625
0,268;-3.11920166015625
0,269;-3.118896484375
0,27;-3.118896484375
0,271;-3.118896484375
0,272;-3.118896484375
0,273;-3.11920166015625
0,274;-3.118896484375
0,275;-3.118896484375
0,276;-3.1195068359375
0,277;-3.118896484375
0,278;-3.11981201171875
0,279;-3.11920166015625
0,28;-3.118896484375
0,281;-3.1195068359375
0,282;-3.118896484375
0,283;-3.11920166015625
0,284;-3.11859130859375
0,285;-3.118896484375
0,286;-3.118896484375
0,287;-3.11920166015625
0,288;-3.118896484375
0,289;-3.118896484375
0,29;-3.11859130859375
0,291;-3.11920166015625
0,292;-3.11920166015625
0,293;-3.118896484375
0,294;-3.1195068359375
0,295;-3.11920166015625
0,296;-3.118896484375
0,297;-3.118896484375
0,298;-3.118896484375
0,299;-3.11859130859375
0,3;-3.11920166015625
0,301;-3.118896484375
0,302;-3.118896484375
0,303;-3.118896484375
0,304;-3.11920166015625
0,305;-3.1195068359375
0,306;-3.11859130859375
0,307;-3.11920166015625
0,308;-3.11859130859375
0,309;-3.1195068359375
0,31;-3.118896484375
0,311;-3.1195068359375
0,312;-3.118896484375
0,313;-3.11859130859375
0,314;-3.118896484375
0,315;-3.118896484375
0,316;-3.11920166015625
0,317;-3.11859130859375
0,318;-3.11920166015625
0,319;-3.1195068359375
0,32;-3.11920166015625
0,321;-3.118896484375
0,322;-3.118896484375
0,323;-3.118896484375
0,324;-3.118896484375
0,325;-3.11920166015625
0,326;-3.11859130859375
0,327;-3.118896484375
0,328;-3.11920166015625
0,329;-3.1195068359375
0,33;-3.118896484375
0,331;-3.118896484375
0,332;-3.11920166015625
0,333;-3.11859130859375
0,334;-3.11920166015625
0,335;-3.118896484375
0,336;-3.1195068359375
0,337;-3.11920166015625
0,338;-3.11920166015625
0,339;-3.11920166015625
0,34;-3.11920166015625
0,341;-3.11859130859375
0,342;-3.11920166015625
0,343;-3.118896484375
0,344;-3.118896484375
0,345;-3.118896484375
0,346;-3.11920166015625
0,347;-3.11920166015625
0,348;-3.11920166015625
0,349;-3.118896484375
0,35;-3.11920166015625
0,351;-3.11920166015625
0,352;-3.11920166015625
0,353;-3.11920166015625
0,354;-3.118896484375
0,355;-3.1195068359375
0,356;-3.11920166015625
0,357;-3.11920166015625
0,358;-3.11920166015625
0,359;-3.1195068359375
0,36;-3.11920166015625
0,361;-3.1195068359375
0,362;-3.118896484375
0,363;-3.118896484375
0,364;-3.11920166015625
0,365;-3.118896484375
0,366;-3.118896484375
0,367;-3.11859130859375
0,368;-3.11920166015625
0,369;-3.1195068359375
0,37;-3.11859130859375
0,371;-3.11920166015625
0,372;-3.1195068359375
0,373;-3.11920166015625
0,374;-3.118896484375
0,375;-3.11920166015625
0,376;-3.1195068359375
0,377;-3.11920166015625
0,378;-3.11859130859375
0,379;-3.118896484375
0,38;-3.11920166015625
0,381;-3.1195068359375
0,382;-3.11920166015625
0,383;-3.118896484375
0,384;-3.11920166015625
0,385;-3.118896484375
0,386;-3.1195068359375
0,387;-3.118896484375
0,388;-3.118896484375
0,389;-3.1195068359375
0,39;-3.11920166015625
0,391;-3.118896484375
0,392;-3.118896484375
0,393;-3.11920166015625
0,394;-3.11920166015625
0,395;-3.11920166015625
0,396;-3.11920166015625
0,397;-3.11859130859375
0,398;-3.118896484375
0,399;-3.118896484375
0,4;-3.11920166015625
0,401;-3.11920166015625
0,402;-3.118896484375
0,403;-3.11920166015625
0,404;-3.118896484375
0,405;-3.118896484375
0,406;-3.11920166015625
0,407;-3.11920166015625
0,408;-3.118896484375
0,409;-3.11981201171875
0,41;-3.118896484375
0,411;-3.118896484375
0,412;-3.1182861328125
0,413;-3.118896484375
0,414;-3.118896484375
0,415;-3.11920166015625
0,416;-3.11920166015625
0,417;-3.118896484375
0,418;-3.118896484375
0,419;-3.11920166015625
0,42;-3.11920166015625
0,421;-3.11859130859375
0,422;-3.11859130859375
0,423;-3.11920166015625
0,424;-3.118896484375
0,425;-3.11859130859375
0,426;-3.118896484375
0,427;-3.11920166015625
0,428;-3.11920166015625
0,429;-3.11920166015625
0,43;-3.118896484375
0,431;-3.118896484375
0,432;-3.11920166015625
0,433;-3.118896484375
0,434;-3.118896484375
0,435;-3.1195068359375
0,436;-3.1195068359375
0,437;-3.118896484375
0,438;-3.118896484375
0,439;-3.1195068359375
0,44;-3.1195068359375
0,441;-3.11920166015625
0,442;-3.11920166015625
0,443;-3.118896484375
0,444;-3.11859130859375
0,445;-3.118896484375
0,446;-3.118896484375
0,447;-3.118896484375
0,448;-3.11859130859375
0,449;-3.11859130859375
0,45;-3.11920166015625
0,451;-3.118896484375
0,452;-3.1195068359375
0,453;-3.11859130859375
0,454;-3.118896484375
0,455;-3.11920166015625
0,456;-3.11920166015625
0,457;-3.11859130859375
0,458;-3.11859130859375
0,459;-3.118896484375
0,46;-3.11920166015625
0,461;-3.11859130859375
0,462;-3.118896484375
0,463;-3.118896484375
0,464;-3.11920166015625
0,465;-3.11920166015625
0,466;-3.11920166015625
0,467;-3.1195068359375
0,468;-3.118896484375
0,469;-3.118896484375
0,47;-3.11920166015625
0,471;-3.118896484375
0,472;-3.11859130859375
0,473;-3.11920166015625
0,474;-3.11920166015625
0,475;-3.11920166015625
0,476;-3.118896484375
0,477;-3.1182861328125
0,478;-3.11920166015625
0,479;-3.11920166015625
0,48;-3.118896484375
0,481;-3.118896484375
0,482;-3.118896484375
0,483;-3.11859130859375
0,484;-3.118896484375
0,485;-3.118896484375
0,486;-3.1182861328125
0,487;-3.118896484375
0,488;-3.11859130859375
0,489;-3.11859130859375
0,49;-3.118896484375
0,491;-3.1182861328125
0,492;-3.11859130859375
0,493;-3.11859130859375
0,494;-3.11859130859375
0,495;-3.11859130859375
0,496;-3.11859130859375
0,497;-3.118896484375
0,498;-3.11859130859375
0,499;-3.1195068359375
0,5;-3.118896484375
0,501;-3.118896484375
0,502;-3.11859130859375
0,503;-3.1182861328125
0,504;-3.118896484375
0,505;-3.11920166015625
0,506;-3.118896484375
0,507;-3.118896484375
0,508;-3.11920166015625
0,509;-3.11859130859375
0,51;-3.118896484375
0,511;-3.118896484375
0,512;-3.11859130859375
0,513;-3.11859130859375
0,514;-3.118896484375
0,515;-3.118896484375
0,516;-3.11920166015625
0,517;-3.1182861328125
0,518;-3.118896484375
0,519;-3.118896484375
0,52;-3.11859130859375
0,521;-3.118896484375
0,522;-3.11920166015625
0,523;-3.1182861328125
0,524;-3.11920166015625
0,525;-3.11920166015625
0,526;-3.118896484375
0,527;-3.11920166015625
0,528;-3.118896484375
0,529;-3.11920166015625
0,53;-3.11859130859375
0,531;-3.11920166015625
0,532;-3.118896484375
0,533;-3.11859130859375
0,534;-3.118896484375
0,535;-3.11920166015625
0,536;-3.118896484375
0,537;-3.118896484375
0,538;-3.11920166015625
0,539;-3.11859130859375
0,54;-3.1195068359375
0,541;-3.118896484375
0,542;-3.118896484375
0,543;-3.11859130859375
0,544;-3.11920166015625
0,545;-3.11920166015625
0,546;-3.11981201171875
0,547;-3.118896484375
0,548;-3.11920166015625
0,549;-3.11859130859375
0,55;-3.1182861328125
0,551;-3.118896484375
0,552;-3.118896484375
0,553;-3.11859130859375
0,554;-3.118896484375
0,555;-3.11920166015625
0,556;-3.118896484375
0,557;-3.118896484375
0,558;-3.11920166015625
0,559;-3.11859130859375
0,56;-3.118896484375
0,561;-3.11920166015625
0,562;-3.118896484375
0,563;-3.11920166015625
0,564;-3.118896484375
0,565;-3.11920166015625
0,566;-3.118896484375
0,567;-3.118896484375
0,568;-3.11859130859375
0,569;-3.118896484375
0,57;-3.118896484375
0,571;-3.118896484375
0,572;-3.118896484375
0,573;-3.11859130859375
0,574;-3.11920166015625
0,575;-3.118896484375
0,576;-3.11859130859375
0,577;-3.11859130859375
0,578;-3.11920166015625
0,579;-3.11920166015625
0,58;-3.11920166015625
0,581;-3.11920166015625
0,582;-3.11920166015625
0,583;-3.118896484375
0,584;-3.11859130859375
0,585;-3.1195068359375
0,586;-3.11859130859375
0,587;-3.1182861328125
0,588;-3.11920166015625
0,589;-3.1195068359375
0,59;-3.11859130859375
0,591;-3.11920166015625
0,592;-3.118896484375
0,593;-3.11920166015625
0,594;-3.11981201171875
0,595;-3.118896484375
0,596;-3.11920166015625
0,597;-3.118896484375
0,598;-3.118896484375
0,599;-3.11859130859375
0,6;-3.11859130859375
0,601;-3.118896484375
0,602;-3.11920166015625
0,603;-3.11859130859375
0,604;-3.118896484375
0,605;-3.118896484375
0,606;-3.11859130859375
0,607;-3.11859130859375
0,608;-3.11859130859375
0,609;-3.1182861328125
0,61;-3.118896484375
0,611;-3.11920166015625
0,612;-3.11920166015625
0,613;-3.11859130859375
0,614;-3.11920166015625
0,615;-3.118896484375
0,616;-3.11920166015625
0,617;-3.11859130859375
0,618;-3.11920166015625
0,619;-3.11859130859375
0,62;-3.118896484375
0,621;-3.11859130859375
0,622;-3.11920166015625
0,623;-3.118896484375
0,624;-3.118896484375
0,625;-3.11920166015625
0,626;-3.118896484375
0,627;-3.11859130859375
0,628;-3.118896484375
0,629;-3.118896484375
0,63;-3.118896484375
0,631;-3.11859130859375
0,632;-3.11920166015625
0,633;-3.118896484375
0,634;-3.11859130859375
0,635;-3.118896484375
0,636;-3.11859130859375
0,637;-3.118896484375
0,638;-3.11859130859375
0,639;-3.118896484375
0,64;-3.118896484375
0,641;-3.118896484375
0,642;-3.118896484375
0,643;-3.118896484375
0,644;-3.118896484375
0,645;-3.118896484375
0,646;-3.1182861328125
0,647;-3.11920166015625
0,648;-3.118896484375
0,649;-3.118896484375
0,65;-3.118896484375
0,651;-3.118896484375
0,652;-3.11981201171875
0,653;-3.118896484375
0,654;-3.118896484375
0,655;-3.118896484375
0,656;-3.118896484375
0,657;-3.118896484375
0,658;-3.11859130859375
0,659;-3.118896484375
0,66;-3.118896484375
0,661;-3.1195068359375
0,662;-3.118896484375
0,663;-3.11859130859375
0,664;-3.11859130859375
0,665;-3.118896484375
0,666;-3.118896484375
0,667;-3.118896484375
0,668;-3.11859130859375
0,669;-3.118896484375
0,67;-3.11859130859375
0,671;-3.118896484375
0,672;-3.118896484375
0,673;-3.11920166015625
0,674;-3.118896484375
0,675;-3.11920166015625
0,676;-3.118896484375
0,677;-3.1182861328125
0,678;-3.11920166015625
0,679;-3.11920166015625
0,68;-3.118896484375
0,681;-3.118896484375
0,682;-3.118896484375
0,683;-3.11920166015625
0,684;-3.11920166015625
0,685;-3.11859130859375
0,686;-3.118896484375
0,687;-3.1182861328125
0,688;-3.118896484375
0,689;-3.118896484375
0,69;-3.1195068359375
0,691;-3.118896484375
0,692;-3.11920166015625
0,693;-3.11920166015625
0,694;-3.11859130859375
0,695;-3.11859130859375
0,696;-3.1195068359375
0,697;-3.11920166015625
0,698;-3.11859130859375
0,699;-3.11859130859375
0,7;-3.11859130859375
0,701;-3.118896484375
0,702;-3.11920166015625
0,703;-3.11920166015625
0,704;-3.11859130859375
0,705;-3.11859130859375
0,706;-3.11859130859375
0,707;-3.11920166015625
0,708;-3.118896484375
0,709;-3.11920166015625
0,71;-3.11920166015625
0,711;-3.118896484375
0,712;-3.11859130859375
0,713;-3.118896484375
0,714;-3.11920166015625
0,715;-3.11859130859375
0,716;-3.118896484375
0,717;-3.11859130859375
0,718;-3.11920166015625
0,719;-3.118896484375
0,72;-3.11859130859375
0,721;-3.11920166015625
0,722;-3.1182861328125
0,723;-3.11859130859375
0,724;-3.118896484375
0,725;-3.11920166015625
0,726;-3.118896484375
0,727;-3.11920166015625
0,728;-3.118896484375
0,729;-3.118896484375
0,73;-3.118896484375
0,731;-3.118896484375
0,732;-3.11859130859375
0,733;-3.118896484375
0,734;-3.118896484375
0,735;-3.11859130859375
0,736;-3.11920166015625
0,737;-3.11920166015625
0,738;-3.118896484375
0,739;-3.118896484375
0,74;-3.11859130859375
0,741;-3.11920166015625
0,742;-3.11859130859375
0,743;-3.118896484375
0,744;-3.118896484375
0,745;-3.118896484375
0,746;-3.1182861328125
0,747;-3.11920166015625
0,748;-3.11920166015625
0,749;-3.118896484375
0,75;-3.118896484375
0,751;-3.1182861328125
0,752;-3.1182861328125
0,753;-3.118896484375
0,754;-3.11920166015625
0,755;-3.118896484375
0,756;-3.1182861328125
0,757;-3.118896484375
0,758;-3.1182861328125
0,759;-3.11920166015625
0,76;-3.11859130859375
0,761;-3.11920166015625
0,762;-3.11920166015625
0,763;-3.11920166015625
0,764;-3.118896484375
0,765;-3.11859130859375
0,766;-3.118896484375
0,767;-3.118896484375
0,768;-3.118896484375
0,769;-3.118896484375
0,77;-3.118896484375
0,771;-3.118896484375
0,772;-3.118896484375
0,773;-3.1195068359375
0,774;-3.11920166015625
0,775;-3.11920166015625
0,776;-3.11920166015625
0,777;-3.118896484375
0,778;-3.118896484375
0,779;-3.11859130859375
0,78;-3.118896484375
0,781;-3.118896484375
0,782;-3.118896484375
0,783;-3.118896484375
0,784;-3.118896484375
0,785;-3.11859130859375
0,786;-3.11859130859375
0,787;-3.118896484375
0,788;-3.11920166015625
0,789;-3.118896484375
0,79;-3.118896484375
0,791;-3.118896484375
0,792;-3.11859130859375
0,793;-3.11920166015625
0,794;-3.11859130859375
0,795;-3.11859130859375
0,796;-3.118896484375
0,797;-3.118896484375
0,798;-3.11920166015625
0,799;-3.11920166015625
0,8;-3.11920166015625
0,801;-3.118896484375
0,802;-3.1182861328125
0,803;-3.118896484375
0,804;-3.118896484375
0,805;-3.118896484375
0,806;-3.11920166015625
0,807;-3.11859130859375
0,808;-3.11859130859375
0,809;-3.118896484375
0,81;-3.11920166015625
0,811;-3.1195068359375
0,812;-3.118896484375
0,813;-3.11920166015625
0,814;-3.118896484375
0,815;-3.118896484375
0,816;-3.118896484375
0,817;-3.118896484375
0,818;-3.1182861328125
0,819;-3.118896484375
0,82;-3.11859130859375
0,821;-3.118896484375
0,822;-3.11859130859375
0,823;-3.118896484375
0,824;-3.11920166015625
0,825;-3.118896484375
0,826;-3.11859130859375
0,827;-3.1182861328125
0,828;-3.11920166015625
0,829;-3.118896484375
0,83;-3.118896484375
0,831;-3.11859130859375
0,832;-3.118896484375
0,833;-3.118896484375
0,834;-3.11859130859375
0,835;-3.1195068359375
0,836;-3.118896484375
0,837;-3.1195068359375
0,838;-3.11920166015625
0,839;-3.11920166015625
0,84;-3.11920166015625
0,841;-3.11859130859375
0,842;-3.118896484375
0,843;-3.118896484375
0,844;-3.11920166015625
0,845;-3.11859130859375
0,846;-3.118896484375
0,847;-3.11859130859375
0,848;-3.1182861328125
0,849;-3.11859130859375
0,85;-3.11920166015625
0,851;-3.11920166015625
0,852;-3.11920166015625
0,853;-3.11859130859375
0,854;-3.118896484375
0,855;-3.118896484375
0,856;-3.11920166015625
0,857;-3.11920166015625
0,858;-3.118896484375
0,859;-3.118896484375
0,86;-3.11859130859375
0,861;-3.118896484375
0,862;-3.11920166015625
0,863;-3.11920166015625
0,864;-3.118896484375
0,865;-3.118896484375
0,866;-3.11859130859375
0,867;-3.11859130859375
0,868;-3.1195068359375
0,869;-3.118896484375
0,87;-3.11920166015625
0,871;-3.118896484375
0,872;-3.11920166015625
0,873;-3.118896484375
0,874;-3.118896484375
0,875;-3.118896484375
0,876;-3.118896484375
0,877;-3.11859130859375
0,878;-3.11859130859375
0,879;-3.11920166015625
0,88;-3.118896484375
0,881;-3.118896484375
0,882;-3.11920166015625
0,883;-3.1195068359375
0,884;-3.11859130859375
0,885;-3.1182861328125
0,886;-3.118896484375
0,887;-3.11920166015625
0,888;-3.11920166015625
0,889;-3.11859130859375
0,89;-3.11859130859375
0,891;-3.118896484375
0,892;-3.11859130859375
0,893;-3.1195068359375
0,894;-3.118896484375
0,895;-3.11920166015625
0,896;-3.118896484375
0,897;-3.118896484375
0,898;-3.1182861328125
0,899;-3.11859130859375
0,9;-3.118896484375
0,901;-3.11859130859375
0,902;-3.11859130859375
0,903;-3.11859130859375
0,904;-3.11859130859375
0,905;-3.1182861328125
0,906;-3.118896484375
0,907;-3.11859130859375
0,908;-3.11859130859375
0,909;-3.11859130859375
0,91;-3.118896484375
0,911;-3.11859130859375
0,912;-3.1182861328125
0,913;-3.118896484375
0,914;-3.1182861328125
0,915;-3.11859130859375
0,916;-3.118896484375
0,917;-3.1182861328125
0,918;-3.11920166015625
0,919;-3.11859130859375
0,92;-3.11859130859375
0,921;-3.118896484375
0,922;-3.11859130859375
0,923;-3.118896484375
0,924;-3.118896484375
0,925;-3.11859130859375
0,926;-3.11859130859375
0,927;-3.11859130859375
0,928;-3.11859130859375
0,929;-3.118896484375
0,93;-3.118896484375
0,931;-3.1195068359375
0,932;-3.118896484375
0,933;-3.118896484375
0,934;-3.11920166015625
0,935;-3.11920166015625
0,936;-3.118896484375
0,937;-3.1182861328125
0,938;-3.118896484375
0,939;-3.118896484375
0,94;-3.11859130859375
0,941;-3.11920166015625
0,942;-3.11859130859375
0,943;-3.118896484375
0,944;-3.11859130859375
0,945;-3.11859130859375
0,946;-3.118896484375
0,947;-3.11859130859375
0,948;-3.118896484375
0,949;-3.1182861328125
0,95;-3.118896484375
0,951;-3.1182861328125
0,952;-3.11798095703125
0,953;-3.118896484375
0,954;-3.118896484375
0,955;-3.11920166015625
0,956;-3.1182861328125
0,957;-3.11859130859375
0,958;-3.118896484375
0,959;-3.1182861328125
0,96;-3.11920166015625
0,961;-3.118896484375
0,962;-3.118896484375
0,963;-3.11859130859375
0,964;-3.11859130859375
0,965;-3.11859130859375
0,966;-3.1182861328125
0,967;-3.118896484375
0,968;-3.11859130859375
0,969;-3.11859130859375
0,97;-3.11859130859375
0,971;-3.1182861328125
0,972;-3.11859130859375
0,973;-3.11859130859375
0,974;-3.1182861328125
0,975;-3.11920166015625
0,976;-3.11859130859375
0,977;-3.118896484375
0,978;-3.118896484375
0,979;-3.118896484375
0,98;-3.11859130859375
0,981;-3.11920166015625
0,982;-3.1182861328125
0,983;-3.11859130859375
0,984;-3.1182861328125
0,985;-3.11859130859375
0,986;-3.11859130859375
0,987;-3.11859130859375
0,988;-3.118896484375
0,989;-3.11859130859375
0,99;-3.118896484375
0,991;-3.11859130859375
0,992;-3.118896484375
0,993;-3.11859130859375
0,994;-3.11859130859375
0,995;-3.11859130859375
0,996;-3.11859130859375
0,997;-3.118896484375
0,998;-3.118896484375
0,999;-3.1182861328125
1;-3.118896484375
1,001;-3.11859130859375
1,002;-3.11859130859375
1,003;-3.118896484375
1,004;-3.11859130859375
1,005;-3.118896484375
1,006;-3.11859130859375
1,007;-3.1182861328125
1,008;-3.118896484375
1,009;-3.11859130859375
1,01;-3.1182861328125
1,011;-3.11859130859375
1,012;-3.118896484375
1,013;-3.11859130859375
1,014;-3.11859130859375
1,015;-3.11920166015625
1,016;-3.11859130859375
1,017;-3.11859130859375
1,018;-3.11798095703125
1,019;-3.11859130859375
1,02;-3.118896484375
1,021;-3.11798095703125
1,022;-3.118896484375
1,023;-3.118896484375
1,024;-3.11859130859375
1,025;-3.11859130859375
1,026;-3.11859130859375
1,027;-3.118896484375
1,028;-3.11859130859375
1,029;-3.118896484375
1,03;-3.11859130859375
1,031;-3.11859130859375
1,032;-3.1195068359375
1,033;-3.118896484375
1,034;-3.11859130859375
1,035;-3.11859130859375
1,036;-3.1182861328125
1,037;-3.118896484375
1,038;-3.11859130859375
1,039;-3.1182861328125
1,04;-3.1182861328125
1,041;-3.11920166015625
1,042;-3.1182861328125
1,043;-3.118896484375
1,044;-3.11859130859375
1,045;-3.1182861328125
1,046;-3.118896484375
1,047;-3.11859130859375
1,048;-3.11859130859375
1,049;-3.11859130859375
1,05;-3.1182861328125
1,051;-3.11920166015625
1,052;-3.11798095703125
1,053;-3.1182861328125
1,054;-3.1182861328125
1,055;-3.11859130859375
1,056;-3.118896484375
1,057;-3.11859130859375
1,058;-3.11859130859375
1,059;-3.118896484375
1,06;-3.11859130859375
1,061;-3.118896484375
1,062;-3.11859130859375
1,063;-3.11859130859375
1,064;-3.1182861328125
1,065;-3.11798095703125
1,066;-3.1182861328125
1,067;-3.11767578125
1,068;-3.118896484375
1,069;-3.118896484375
1,07;-3.1182861328125
1,071;-3.11798095703125
1,072;-3.1182861328125
1,073;-3.1182861328125
1,074;-3.11859130859375
1,075;-3.1182861328125
1,076;-3.11859130859375
1,077;-3.1182861328125
1,078;-3.1182861328125
1,079;-3.118896484375
1,08;-3.11859130859375
1,081;-3.1182861328125
1,082;-3.1182861328125
1,083;-3.1182861328125
1,084;-3.11767578125
1,085;-3.118896484375
1,086;-3.11859130859375
1,087;-3.11859130859375
1,088;-3.11920166015625
1,089;-3.118896484375
1,09;-3.11859130859375
1,091;-3.11798095703125
1,092;-3.118896484375
1,093;-3.1182861328125
1,094;-3.11859130859375
1,095;-3.11859130859375
1,096;-3.11798095703125
1,097;-3.11859130859375
1,098;-3.11859130859375
1,099;-3.118896484375
1,1;-3.118896484375
1,101;-3.11859130859375
1,102;-3.11859130859375
1,103;-3.11859130859375
1,104;-3.1182861328125
1,105;-3.1182861328125
1,106;-3.11859130859375
1,107;-3.11859130859375
1,108;-3.11920166015625
1,109;-3.11798095703125
1,11;-3.118896484375
1,111;-3.11859130859375
1,112;-3.11859130859375
1,113;-3.1182861328125
1,114;-3.11920166015625
1,115;-3.11859130859375
1,116;-3.1182861328125
1,117;-3.118896484375
1,118;-3.118896484375
1,119;-3.11798095703125
1,12;-3.118896484375
1,121;-3.1182861328125
1,122;-3.11859130859375
1,123;-3.118896484375
1,124;-3.118896484375
1,125;-3.11859130859375
1,126;-3.11859130859375
1,127;-3.11859130859375
1,128;-3.11859130859375
1,129;-3.11859130859375
1,13;-3.11859130859375
1,131;-3.11798095703125
1,132;-3.118896484375
1,133;-3.118896484375
1,134;-3.11859130859375
1,135;-3.11859130859375
1,136;-3.11859130859375
1,137;-3.11859130859375
1,138;-3.11859130859375
1,139;-3.11859130859375
1,14;-3.1182861328125
1,141;-3.11859130859375
1,142;-3.1182861328125
1,143;-3.11859130859375
1,144;-3.11920166015625
1,145;-3.11859130859375
1,146;-3.118896484375
1,147;-3.11859130859375
1,148;-3.118896484375
1,149;-3.118896484375
1,15;-3.1182861328125
1,151;-3.11859130859375
1,152;-3.118896484375
1,153;-3.11859130859375
1,154;-3.118896484375
1,155;-3.11859130859375
1,156;-3.11859130859375
1,157;-3.11920166015625
1,158;-3.11859130859375
1,159;-3.11767578125
1,16;-3.11798095703125
1,161;-3.11859130859375
1,162;-3.11920166015625
1,163;-3.1182861328125
1,164;-3.1182861328125
1,165;-3.11859130859375
1,166;-3.11859130859375
1,167;-3.11859130859375
1,168;-3.11798095703125
1,169;-3.11859130859375
1,17;-3.1182861328125
1,171;-3.11859130859375
1,172;-3.1182861328125
1,173;-3.1182861328125
1,174;-3.118896484375
1,175;-3.11920166015625
1,176;-3.11859130859375
1,177;-3.118896484375
1,178;-3.1182861328125
1,179;-3.118896484375
1,18;-3.118896484375
1,181;-3.11798095703125
1,182;-3.11920166015625
1,183;-3.11798095703125
1,184;-3.11798095703125
1,185;-3.1182861328125
1,186;-3.118896484375
1,187;-3.11859130859375
1,188;-3.1182861328125
1,189;-3.11859130859375
1,19;-3.1182861328125
1,191;-3.11798095703125
1,192;-3.11859130859375
1,193;-3.1182861328125
1,194;-3.1182861328125
1,195;-3.11859130859375
1,196;-3.118896484375
1,197;-3.11859130859375
1,198;-3.11859130859375
1,199;-3.11798095703125
1,2;-3.11859130859375
1,201;-3.1182861328125
1,202;-3.1182861328125
1,203;-3.1182861328125
1,204;-3.1182861328125
1,205;-3.11859130859375
1,206;-3.11859130859375
1,207;-3.1182861328125
1,208;-3.11859130859375
1,209;-3.1182861328125
1,21;-3.11798095703125
1,211;-3.11859130859375
1,212;-3.1182861328125
1,213;-3.1182861328125
1,214;-3.1182861328125
1,215;-3.118896484375
1,216;-3.11859130859375
1,217;-3.1182861328125
1,218;-3.11798095703125
1,219;-3.1182861328125
1,22;-3.1182861328125
1,221;-3.118896484375
1,222;-3.11798095703125
1,223;-3.11859130859375
1,224;-3.1182861328125
1,225;-3.1182861328125
1,226;-3.118896484375
1,227;-3.118896484375
1,228;-3.1182861328125
1,229;-3.11859130859375
1,23;-3.1182861328125
1,231;-3.11859130859375
1,232;-3.1182861328125
1,233;-3.1182861328125
1,234;-3.1195068359375
1,235;-3.11798095703125
1,236;-3.11859130859375
1,237;-3.11798095703125
1,238;-3.11859130859375
1,239;-3.11859130859375
1,24;-3.118896484375
1,241;-3.11859130859375
1,242;-3.1182861328125
1,243;-3.1182861328125
1,244;-3.11859130859375
1,245;-3.118896484375
1,246;-3.11767578125
1,247;-3.11859130859375
1,248;-3.1182861328125
1,249;-3.118896484375
1,25;-3.1182861328125
1,251;-3.11859130859375
1,252;-3.11859130859375
1,253;-3.11859130859375
1,254;-3.1182861328125
1,255;-3.11859130859375
1,256;-3.118896484375
1,257;-3.118896484375
1,258;-3.1182861328125
1,259;-3.1182861328125
1,26;-3.118896484375
1,261;-3.11859130859375
1,262;-3.11859130859375
1,263;-3.11859130859375
1,264;-3.11859130859375
1,265;-3.1182861328125
1,266;-3.11798095703125
1,267;-3.1182861328125
1,268;-3.11920166015625
1,269;-3.11798095703125
1,27;-3.11798095703125
1,271;-3.1182861328125
1,272;-3.11859130859375
1,273;-3.118896484375
1,274;-3.1182861328125
1,275;-3.1182861328125
1,276;-3.11798095703125
1,277;-3.11859130859375
1,278;-3.11798095703125
1,279;-3.11798095703125
1,28;-3.1182861328125
1,281;-3.11798095703125
1,282;-3.11798095703125
1,283;-3.11859130859375
1,284;-3.11798095703125
1,285;-3.11859130859375
1,286;-3.11798095703125
1,287;-3.11798095703125
1,288;-3.11737060546875
1,289;-3.11798095703125
1,29;-3.11798095703125
1,291;-3.11859130859375
1,292;-3.1182861328125
1,293;-3.11798095703125
1,294;-3.11767578125
1,295;-3.1182861328125
1,296;-3.1182861328125
1,297;-3.11798095703125
1,298;-3.11798095703125
1,299;-3.11798095703125
1,3;-3.1182861328125
1,301;-3.11798095703125
1,302;-3.1182861328125
1,303;-3.1182861328125
1,304;-3.1182861328125
1,305;-3.1182861328125
1,306;-3.11798095703125
1,307;-3.118896484375
1,308;-3.11859130859375
1,309;-3.11798095703125
1,31;-3.11798095703125
1,311;-3.11859130859375
1,312;-3.11798095703125
1,313;-3.11859130859375
1,314;-3.1182861328125
1,315;-3.11798095703125
1,316;-3.11798095703125
1,317;-3.11859130859375
1,318;-3.118896484375
1,319;-3.1182861328125
1,32;-3.11798095703125
1,321;-3.11798095703125
1,322;-3.11798095703125
1,323;-3.11859130859375
1,324;-3.1182861328125
1,325;-3.1182861328125
1,326;-3.11798095703125
1,327;-3.11798095703125
1,328;-3.11798095703125
1,329;-3.11798095703125
1,33;-3.1182861328125
1,331;-3.118896484375
1,332;-3.1182861328125
1,333;-3.11798095703125
1,334;-3.1182861328125
1,335;-3.1182861328125
1,336;-3.11859130859375
1,337;-3.11798095703125
1,338;-3.11859130859375
1,339;-3.1182861328125
1,34;-3.1182861328125
1,341;-3.1182861328125
1,342;-3.11859130859375
1,343;-3.11798095703125
1,344;-3.1182861328125
1,345;-3.118896484375
1,346;-3.11859130859375
1,347;-3.11859130859375
1,348;-3.11859130859375
1,349;-3.11859130859375
1,35;-3.1182861328125
1,351;-3.11798095703125
1,352;-3.11859130859375
1,353;-3.1182861328125
1,354;-3.1182861328125
1,355;-3.11920166015625
1,356;-3.1182861328125
1,357;-3.11798095703125
1,358;-3.11859130859375
1,359;-3.1182861328125
1,36;-3.1182861328125
1,361;-3.118896484375
1,362;-3.1182861328125
1,363;-3.11798095703125
1,364;-3.1182861328125
1,365;-3.1182861328125
1,366;-3.11767578125
1,367;-3.1182861328125
1,368;-3.1182861328125
1,369;-3.11798095703125
1,37;-3.1182861328125
1,371;-3.11859130859375
1,372;-3.11798095703125
1,373;-3.1182861328125
1,374;-3.1182861328125
1,375;-3.11859130859375
1,376;-3.118896484375
1,377;-3.1182861328125
1,378;-3.118896484375
1,379;-3.11859130859375
1,38;-3.1182861328125
1,381;-3.1182861328125
1,382;-3.1182861328125
1,383;-3.11859130859375
1,384;-3.1182861328125
1,385;-3.1182861328125
1,386;-3.1182861328125
1,387;-3.11767578125
1,388;-3.1182861328125
1,389;-3.11798095703125
1,39;-3.11798095703125
1,391;-3.1182861328125
1,392;-3.11798095703125
1,393;-3.11798095703125
1,394;-3.11798095703125
1,395;-3.1182861328125
1,396;-3.1182861328125
1,397;-3.11859130859375
1,398;-3.11859130859375
1,399;-3.11798095703125
1,4;-3.1182861328125
1,401;-3.1182861328125
1,402;-3.11798095703125
1,403;-3.11859130859375
1,404;-3.1182861328125
1,405;-3.1182861328125
1,406;-3.11798095703125
1,407;-3.1182861328125
1,408;-3.1182861328125
1,409;-3.11798095703125
1,41;-3.1182861328125
1,411;-3.1182861328125
1,412;-3.1182861328125
1,413;-3.11767578125
1,414;-3.11859130859375
1,415;-3.1182861328125
1,416;-3.1182861328125
1,417;-3.1182861328125
1,418;-3.118896484375
1,419;-3.1182861328125
1,42;-3.1182861328125
1,421;-3.11859130859375
1,422;-3.11798095703125
1,423;-3.1182861328125
1,424;-3.11859130859375
1,425;-3.11798095703125
1,426;-3.11859130859375
1,427;-3.11767578125
1,428;-3.1182861328125
1,429;-3.11767578125
1,43;-3.11767578125
1,431;-3.1182861328125
1,432;-3.11798095703125
1,433;-3.11767578125
1,434;-3.1182861328125
1,435;-3.11798095703125
1,436;-3.1182861328125
1,437;-3.1182861328125
1,438;-3.11859130859375
1,439;-3.11767578125
1,44;-3.11859130859375
1,441;-3.11798095703125
1,442;-3.1182861328125
1,443;-3.11798095703125
1,444;-3.11859130859375
1,445;-3.11737060546875
1,446;-3.11798095703125
1,447;-3.11859130859375
1,448;-3.11798095703125
1,449;-3.1182861328125
1,45;-3.11798095703125
1,451;-3.11798095703125
1,452;-3.1182861328125
1,453;-3.11767578125
1,454;-3.11798095703125
1,455;-3.11798095703125
1,456;-3.11859130859375
1,457;-3.11859130859375
1,458;-3.1182861328125
1,459;-3.11767578125
1,46;-3.1182861328125
1,461;-3.11859130859375
1,462;-3.11859130859375
1,463;-3.1182861328125
1,464;-3.11798095703125
1,465;-3.1182861328125
1,466;-3.11859130859375
1,467;-3.11859130859375
1,468;-3.11798095703125
1,469;-3.11859130859375
1,47;-3.118896484375
1,471;-3.11798095703125
1,472;-3.11798095703125
1,473;-3.1182861328125
1,474;-3.1182861328125
1,475;-3.11859130859375
1,476;-3.1182861328125
1,477;-3.11798095703125
1,478;-3.11767578125
1,479;-3.1182861328125
1,48;-3.11798095703125
1,481;-3.11798095703125
1,482;-3.1182861328125
1,483;-3.11798095703125
1,484;-3.11798095703125
1,485;-3.11798095703125
1,486;-3.11767578125
1,487;-3.11798095703125
1,488;-3.1182861328125
1,489;-3.11798095703125
1,49;-3.11859130859375
1,491;-3.1182861328125
1,492;-3.11859130859375
1,493;-3.11798095703125
1,494;-3.11859130859375
1,495;-3.1182861328125
1,496;-3.11767578125
1,497;-3.11859130859375
1,498;-3.11798095703125
1,499;-3.11798095703125
1,5;-3.1182861328125
1,501;-3.11798095703125
1,502;-3.1182861328125
1,503;-3.1182861328125
1,504;-3.11859130859375
1,505;-3.11767578125
1,506;-3.11798095703125
1,507;-3.118896484375
1,508;-3.11798095703125
1,509;-3.1182861328125
1,51;-3.1182861328125
1,511;-3.11767578125
1,512;-3.11767578125
1,513;-3.1182861328125
1,514;-3.1182861328125
1,515;-3.11798095703125
1,516;-3.11798095703125
1,517;-3.1182861328125
1,518;-3.11767578125
1,519;-3.11859130859375
1,52;-3.11859130859375
1,521;-3.11798095703125
1,522;-3.11798095703125
1,523;-3.1182861328125
1,524;-3.1182861328125
1,525;-3.11767578125
1,526;-3.1182861328125
1,527;-3.11767578125
1,528;-3.11859130859375
1,529;-3.11798095703125
1,53;-3.11859130859375
1,531;-3.11859130859375
1,532;-3.1182861328125
1,533;-3.1182861328125
1,534;-3.11798095703125
1,535;-3.11767578125
1,536;-3.11859130859375
1,537;-3.11859130859375
1,538;-3.11859130859375
1,539;-3.11767578125
1,54;-3.1182861328125
1,541;-3.11767578125
1,542;-3.11798095703125
1,543;-3.11798095703125
1,544;-3.11798095703125
1,545;-3.11798095703125
1,546;-3.11798095703125
1,547;-3.11859130859375
1,548;-3.1182861328125
1,549;-3.11798095703125
1,55;-3.1182861328125
1,551;-3.11859130859375
1,552;-3.11798095703125
1,553;-3.1182861328125
1,554;-3.1182861328125
1,555;-3.1182861328125
1,556;-3.11798095703125
1,557;-3.11859130859375
1,558;-3.11798095703125
1,559;-3.11798095703125
1,56;-3.11859130859375
1,561;-3.11767578125
1,562;-3.1182861328125
1,563;-3.1182861328125
1,564;-3.1182861328125
1,565;-3.1182861328125
1,566;-3.11859130859375
1,567;-3.11798095703125
1,568;-3.1182861328125
1,569;-3.11737060546875
1,57;-3.11859130859375
1,571;-3.11798095703125
1,572;-3.1182861328125
1,573;-3.11798095703125
1,574;-3.11859130859375
1,575;-3.11798095703125
1,576;-3.1182861328125
1,577;-3.1182861328125
1,578;-3.11859130859375
1,579;-3.11798095703125
1,58;-3.11767578125
1,581;-3.11859130859375
1,582;-3.1182861328125
1,583;-3.1182861328125
1,584;-3.11798095703125
1,585;-3.11798095703125
1,586;-3.11767578125
1,587;-3.11767578125
1,588;-3.11798095703125
1,589;-3.11798095703125
1,59;-3.11859130859375
1,591;-3.1182861328125
1,592;-3.11798095703125
1,593;-3.1182861328125
1,594;-3.11798095703125
1,595;-3.11767578125
1,596;-3.11767578125
1,597;-3.11798095703125
1,598;-3.11798095703125
1,599;-3.1182861328125
1,6;-3.1182861328125
1,601;-3.1182861328125
1,602;-3.11767578125
1,603;-3.11798095703125
1,604;-3.1182861328125
1,605;-3.11767578125
1,606;-3.11798095703125
1,607;-3.1182861328125
1,608;-3.11798095703125
1,609;-3.11798095703125
1,61;-3.11798095703125
1,611;-3.1182861328125
1,612;-3.11767578125
1,613;-3.118896484375
1,614;-3.1182861328125
1,615;-3.1182861328125
1,616;-3.1182861328125
1,617;-3.11920166015625
1,618;-3.11767578125
1,619;-3.11859130859375
1,62;-3.11767578125
1,621;-3.118896484375
1,622;-3.11767578125
1,623;-3.11859130859375
1,624;-3.11767578125
1,625;-3.1182861328125
1,626;-3.11798095703125
1,627;-3.1182861328125
1,628;-3.11767578125
1,629;-3.11859130859375
1,63;-3.11798095703125
1,631;-3.1182861328125
1,632;-3.11859130859375
1,633;-3.1182861328125
1,634;-3.11798095703125
1,635;-3.11859130859375
1,636;-3.11859130859375
1,637;-3.1182861328125
1,638;-3.11798095703125
1,639;-3.1182861328125
1,64;-3.11798095703125
1,641;-3.1182861328125
1,642;-3.11798095703125
1,643;-3.11767578125
1,644;-3.11798095703125
1,645;-3.11859130859375
1,646;-3.11767578125
1,647;-3.11859130859375
1,648;-3.11767578125
1,649;-3.1182861328125
1,65;-3.11767578125
1,651;-3.11798095703125
1,652;-3.1182861328125
1,653;-3.11798095703125
1,654;-3.11798095703125
1,655;-3.11798095703125
1,656;-3.11767578125
1,657;-3.1182861328125
1,658;-3.11767578125
1,659;-3.11798095703125
1,66;-3.11767578125
1,661;-3.1182861328125
1,662;-3.1182861328125
1,663;-3.1182861328125
1,664;-3.11798095703125
1,665;-3.11859130859375
1,666;-3.1182861328125
1,667;-3.11798095703125
1,668;-3.11798095703125
1,669;-3.1182861328125
1,67;-3.11859130859375
1,671;-3.11798095703125
1,672;-3.11767578125
1,673;-3.11798095703125
1,674;-3.11767578125
1,675;-3.11767578125
1,676;-3.1182861328125
1,677;-3.1182861328125
1,678;-3.11859130859375
1,679;-3.1182861328125
1,68;-3.11798095703125
1,681;-3.11859130859375
1,682;-3.11798095703125
1,683;-3.11767578125
1,684;-3.11767578125
1,685;-3.1182861328125
1,686;-3.11798095703125
1,687;-3.11767578125
1,688;-3.11798095703125
1,689;-3.11798095703125
1,69;-3.11767578125
1,691;-3.11767578125
1,692;-3.11798095703125
1,693;-3.11798095703125
1,694;-3.11798095703125
1,695;-3.11798095703125
1,696;-3.1170654296875
1,697;-3.11798095703125
1,698;-3.11798095703125
1,699;-3.11859130859375
1,7;-3.118896484375
1,701;-3.11767578125
1,702;-3.11767578125
1,703;-3.1182861328125
1,704;-3.1182861328125
1,705;-3.11859130859375
1,706;-3.11798095703125
1,707;-3.11767578125
1,708;-3.11798095703125
1,709;-3.1182861328125
1,71;-3.11798095703125
1,711;-3.11798095703125
1,712;-3.11767578125
1,713;-3.1182861328125
1,714;-3.11798095703125
1,715;-3.11798095703125
1,716;-3.11859130859375
1,717;-3.11859130859375
1,718;-3.11798095703125
1,719;-3.11767578125
1,72;-3.11737060546875
1,721;-3.11767578125
1,722;-3.11859130859375
1,723;-3.11859130859375
1,724;-3.1182861328125
1,725;-3.11859130859375
1,726;-3.1182861328125
1,727;-3.11859130859375
1,728;-3.11767578125
1,729;-3.1182861328125
1,73;-3.11798095703125
1,731;-3.11798095703125
1,732;-3.11767578125
1,733;-3.11859130859375
1,734;-3.11767578125
1,735;-3.1182861328125
1,736;-3.11798095703125
1,737;-3.11798095703125
1,738;-3.11767578125
1,739;-3.11798095703125
1,74;-3.11859130859375
1,741;-3.1182861328125
1,742;-3.11798095703125
1,743;-3.11767578125
1,744;-3.11798095703125
1,745;-3.11859130859375
1,746;-3.11767578125
1,747;-3.1182861328125
1,748;-3.11798095703125
1,749;-3.11798095703125
1,75;-3.11859130859375
1,751;-3.1182861328125
1,752;-3.11798095703125
1,753;-3.11737060546875
1,754;-3.1182861328125
1,755;-3.11767578125
1,756;-3.11798095703125
1,757;-3.11798095703125
1,758;-3.11737060546875
1,759;-3.1182861328125
1,76;-3.1182861328125
1,761;-3.11767578125
1,762;-3.11798095703125
1,763;-3.1182861328125
1,764;-3.1182861328125
1,765;-3.11798095703125
1,766;-3.1182861328125
1,767;-3.11767578125
1,768;-3.1182861328125
1,769;-3.11859130859375
1,77;-3.1182861328125
1,771;-3.11767578125
1,772;-3.11798095703125
1,773;-3.11798095703125
1,774;-3.11798095703125
1,775;-3.11798095703125
1,776;-3.1170654296875
1,777;-3.1182861328125
1,778;-3.1182861328125
1,779;-3.1182861328125
1,78;-3.1182861328125
1,781;-3.11798095703125
1,782;-3.1182861328125
1,783;-3.11798095703125
1,784;-3.1182861328125
1,785;-3.11798095703125
1,786;-3.11798095703125
1,787;-3.1182861328125
1,788;-3.1182861328125
1,789;-3.11767578125
1,79;-3.11859130859375
1,791;-3.11798095703125
1,792;-3.11798095703125
1,793;-3.11798095703125
1,794;-3.11767578125
1,795;-3.11767578125
1,796;-3.11798095703125
1,797;-3.1182861328125
1,798;-3.11767578125
1,799;-3.11859130859375
1,8;-3.1182861328125
1,801;-3.11767578125
1,802;-3.1182861328125
1,803;-3.11798095703125
1,804;-3.11767578125
1,805;-3.11767578125
1,806;-3.1182861328125
1,807;-3.11798095703125
1,808;-3.1182861328125
1,809;-3.11798095703125
1,81;-3.11798095703125
1,811;-3.11767578125
1,812;-3.11737060546875
1,813;-3.11737060546875
1,814;-3.11767578125
1,815;-3.11767578125
1,816;-3.11859130859375
1,817;-3.11767578125
1,818;-3.11767578125
1,819;-3.11798095703125
1,82;-3.1182861328125
1,821;-3.11798095703125
1,822;-3.11767578125
1,823;-3.11767578125
1,824;-3.11798095703125
1,825;-3.11798095703125
1,826;-3.11737060546875
1,827;-3.1182861328125
1,828;-3.11798095703125
1,829;-3.1182861328125
1,83;-3.11798095703125
1,831;-3.1182861328125
1,832;-3.11798095703125
1,833;-3.11798095703125
1,834;-3.11767578125
1,835;-3.11798095703125
1,836;-3.11767578125
1,837;-3.11859130859375
1,838;-3.11859130859375
1,839;-3.11767578125
1,84;-3.11798095703125
1,841;-3.11798095703125
1,842;-3.11798095703125
1,843;-3.11767578125
1,844;-3.11798095703125
1,845;-3.1182861328125
1,846;-3.11859130859375
1,847;-3.11798095703125
1,848;-3.11798095703125
1,849;-3.11767578125
1,85;-3.11859130859375
1,851;-3.1182861328125
1,852;-3.11859130859375
1,853;-3.11798095703125
1,854;-3.11767578125
1,855;-3.1182861328125
1,856;-3.11798095703125
1,857;-3.1182861328125
1,858;-3.11798095703125
1,859;-3.11798095703125
1,86;-3.11798095703125
1,861;-3.1182861328125
1,862;-3.11798095703125
1,863;-3.1182861328125
1,864;-3.1182861328125
1,865;-3.11798095703125
1,866;-3.11798095703125
1,867;-3.11859130859375
1,868;-3.1182861328125
1,869;-3.11737060546875
1,87;-3.11798095703125
1,871;-3.1182861328125
1,872;-3.11767578125
1,873;-3.11767578125
1,874;-3.11859130859375
1,875;-3.11767578125
1,876;-3.11767578125
1,877;-3.11767578125
1,878;-3.1182861328125
1,879;-3.1182861328125
1,88;-3.11798095703125
1,881;-3.1182861328125
1,882;-3.1182861328125
1,883;-3.1182861328125
1,884;-3.11798095703125
1,885;-3.11767578125
1,886;-3.11798095703125
1,887;-3.11798095703125
1,888;-3.1182861328125
1,889;-3.11767578125
1,89;-3.11767578125
1,891;-3.1182861328125
1,892;-3.1182861328125
1,893;-3.11798095703125
1,894;-3.11767578125
1,895;-3.11767578125
1,896;-3.11798095703125
1,897;-3.11737060546875
1,898;-3.11767578125
1,899;-3.11767578125
1,9;-3.11767578125
1,901;-3.11798095703125
1,902;-3.11798095703125
1,903;-3.11767578125
1,904;-3.11798095703125
1,905;-3.1182861328125
1,906;-3.11798095703125
1,907;-3.11767578125
1,908;-3.1182861328125
1,909;-3.11737060546875
1,91;-3.11859130859375
1,911;-3.1182861328125
1,912;-3.11798095703125
1,913;-3.11798095703125
1,914;-3.1182861328125
1,915;-3.11767578125
1,916;-3.11767578125
1,917;-3.11798095703125
1,918;-3.1182861328125
1,919;-3.1182861328125
1,92;-3.11798095703125
1,921;-3.1182861328125
1,922;-3.11767578125
1,923;-3.1182861328125
1,924;-3.11798095703125
1,925;-3.11767578125
1,926;-3.1182861328125
1,927;-3.11767578125
1,928;-3.1182861328125
1,929;-3.11767578125
1,93;-3.11798095703125
1,931;-3.1182861328125
1,932;-3.11798095703125
1,933;-3.11737060546875
1,934;-3.1182861328125
1,935;-3.11798095703125
1,936;-3.1182861328125
1,937;-3.11798095703125
1,938;-3.1182861328125
1,939;-3.11767578125
1,94;-3.11798095703125
1,941;-3.11767578125
1,942;-3.11767578125
1,943;-3.1182861328125
1,944;-3.11767578125
1,945;-3.11767578125
1,946;-3.11798095703125
1,947;-3.11798095703125
1,948;-3.11798095703125
1,949;-3.11737060546875
1,95;-3.11767578125
1,951;-3.11798095703125
1,952;-3.11737060546875
1,953;-3.1182861328125
1,954;-3.11767578125
1,955;-3.11767578125
1,956;-3.11798095703125
1,957;-3.11767578125
1,958;-3.11798095703125
1,959;-3.11798095703125
1,96;-3.11798095703125
1,961;-3.11767578125
1,962;-3.11798095703125
1,963;-3.11798095703125
1,964;-3.11798095703125
1,965;-3.11798095703125
1,966;-3.11798095703125
1,967;-3.11798095703125
1,968;-3.11798095703125
1,969;-3.11767578125
1,97;-3.11737060546875
1,971;-3.11767578125
1,972;-3.11767578125
1,973;-3.1182861328125
1,974;-3.1182861328125
1,975;-3.11737060546875
1,976;-3.11767578125
1,977;-3.11767578125
1,978;-3.11798095703125
1,979;-3.11798095703125
1,98;-3.11798095703125
1,981;-3.11767578125
1,982;-3.11798095703125
1,983;-3.1182861328125
1,984;-3.11798095703125
1,985;-3.11767578125
1,986;-3.11767578125
1,987;-3.11767578125
1,988;-3.11859130859375
1,989;-3.11767578125
1,99;-3.11767578125
1,991;-3.11798095703125
1,992;-3.11798095703125
1,993;-3.11767578125
1,994;-3.11798095703125
1,995;-3.11767578125
1,996;-3.11767578125
1,997;-3.11737060546875
1,998;-3.11767578125
1,999;-3.11767578125
2;-3.11798095703125
2,001;-3.11767578125
2,002;-3.11798095703125
2,003;-3.11798095703125
2,004;-3.11737060546875
2,005;-3.11737060546875
2,006;-3.11737060546875
2,007;-3.11798095703125
2,008;-3.11767578125
2,009;-3.11737060546875
2,01;-3.11767578125
2,011;-3.11767578125
2,012;-3.11737060546875
2,013;-3.11798095703125
2,014;-3.11737060546875
2,015;-3.11737060546875
2,016;-3.11798095703125
2,017;-3.11737060546875
2,018;-3.11798095703125
2,019;-3.11798095703125
2,02;-3.11798095703125
2,021;-3.11737060546875
2,022;-3.11798095703125
2,023;-3.11767578125
2,024;-3.11798095703125
2,025;-3.1182861328125
2,026;-3.11737060546875
2,027;-3.11798095703125
2,028;-3.11798095703125
2,029;-3.11798095703125
2,03;-3.11798095703125
2,031;-3.1170654296875
2,032;-3.11767578125
2,033;-3.11798095703125
2,034;-3.11767578125
2,035;-3.11767578125
2,036;-3.11798095703125
2,037;-3.11737060546875
2,038;-3.1170654296875
2,039;-3.11859130859375
2,04;-3.11737060546875
2,041;-3.11798095703125
2,042;-3.11767578125
2,043;-3.11798095703125
2,044;-3.11798095703125
2,045;-3.11737060546875
2,046;-3.11767578125
2,047;-3.11737060546875
2,048;-3.11798095703125
2,049;-3.11737060546875
2,05;-3.11767578125
2,051;-3.11798095703125
2,052;-3.11767578125
2,053;-3.11767578125
2,054;-3.1182861328125
2,055;-3.11737060546875
2,056;-3.11767578125
2,057;-3.11737060546875
2,058;-3.11798095703125
2,059;-3.11767578125
2,06;-3.11737060546875
2,061;-3.11767578125
2,062;-3.11767578125
2,063;-3.11737060546875
2,064;-3.11737060546875
2,065;-3.11737060546875
2,066;-3.11767578125
2,067;-3.1182861328125
2,068;-3.11737060546875
2,069;-3.11798095703125
2,07;-3.11737060546875
2,071;-3.11767578125
2,072;-3.1170654296875
2,073;-3.11767578125
2,074;-3.11767578125
2,075;-3.11737060546875
2,076;-3.11767578125
2,077;-3.11767578125
2,078;-3.11798095703125
2,079;-3.11798095703125
2,08;-3.11798095703125
2,081;-3.11798095703125
2,082;-3.11737060546875
2,083;-3.11767578125
2,084;-3.11767578125
2,085;-3.11798095703125
2,086;-3.11737060546875
2,087;-3.11737060546875
2,088;-3.11737060546875
2,089;-3.11767578125
2,09;-3.11767578125
2,091;-3.11798095703125
2,092;-3.11737060546875
2,093;-3.11767578125
2,094;-3.11767578125
2,095;-3.11737060546875
2,096;-3.11767578125
2,097;-3.11737060546875
2,098;-3.11767578125
2,099;-3.11767578125
2,1;-3.11767578125
2,101;-3.11767578125
2,102;-3.11798095703125
2,103;-3.11737060546875
2,104;-3.11767578125
2,105;-3.11767578125
2,106;-3.11798095703125
2,107;-3.11798095703125
2,108;-3.11798095703125
2,109;-3.11767578125
2,11;-3.11737060546875
2,111;-3.11737060546875
2,112;-3.11767578125
2,113;-3.11798095703125
2,114;-3.11737060546875
2,115;-3.11767578125
2,116;-3.11737060546875
2,117;-3.1182861328125
2,118;-3.11767578125
2,119;-3.1182861328125
2,12;-3.11737060546875
2,121;-3.1170654296875
2,122;-3.11767578125
2,123;-3.1170654296875
2,124;-3.11767578125
2,125;-3.11767578125
2,126;-3.1170654296875
2,127;-3.11767578125
2,128;-3.1170654296875
2,129;-3.11767578125
2,13;-3.11767578125
2,131;-3.11798095703125
2,132;-3.11737060546875
2,133;-3.11737060546875
2,134;-3.11767578125
2,135;-3.11737060546875
2,136;-3.11798095703125
2,137;-3.11737060546875
2,138;-3.11798095703125
2,139;-3.11767578125
2,14;-3.11767578125
2,141;-3.11767578125
2,142;-3.11737060546875
2,143;-3.11767578125
2,144;-3.11737060546875
2,145;-3.11767578125
2,146;-3.1182861328125
2,147;-3.1170654296875
2,148;-3.11737060546875
2,149;-3.11737060546875
2,15;-3.11737060546875
2,151;-3.11767578125
2,152;-3.11767578125
2,153;-3.11798095703125
2,154;-3.11767578125
2,155;-3.11737060546875
2,156;-3.11737060546875
2,157;-3.11798095703125
2,158;-3.11737060546875
2,159;-3.11859130859375
2,16;-3.11737060546875
2,161;-3.11798095703125
2,162;-3.11737060546875
2,163;-3.11737060546875
2,164;-3.11737060546875
2,165;-3.11737060546875
2,166;-3.11737060546875
2,167;-3.11737060546875
2,168;-3.11737060546875
2,169;-3.11737060546875
2,17;-3.1170654296875
2,171;-3.11737060546875
2,172;-3.11737060546875
2,173;-3.11767578125
2,174;-3.11767578125
2,175;-3.11737060546875
2,176;-3.11767578125
2,177;-3.1170654296875
2,178;-3.1170654296875
2,179;-3.11737060546875
2,18;-3.11767578125
2,181;-3.11737060546875
2,182;-3.11737060546875
2,183;-3.1170654296875
2,184;-3.11798095703125
2,185;-3.1170654296875
2,186;-3.11737060546875
2,187;-3.1170654296875
2,188;-3.1170654296875
2,189;-3.11798095703125
2,19;-3.11767578125
2,191;-3.11737060546875
2,192;-3.11767578125
2,193;-3.11737060546875
2,194;-3.11767578125
2,195;-3.11737060546875
2,196;-3.11676025390625
2,197;-3.11737060546875
2,198;-3.11767578125
2,199;-3.11767578125
2,2;-3.11798095703125
2,201;-3.11737060546875
2,202;-3.11737060546875
2,203;-3.1170654296875
2,204;-3.11676025390625
2,205;-3.1170654296875
2,206;-3.11737060546875
2,207;-3.11737060546875
2,208;-3.1170654296875
2,209;-3.1170654296875
2,21;-3.11737060546875
2,211;-3.11737060546875
2,212;-3.11737060546875
2,213;-3.11737060546875
2,214;-3.11737060546875
2,215;-3.11767578125
2,216;-3.11767578125
2,217;-3.11767578125
2,218;-3.11767578125
2,219;-3.11767578125
2,22;-3.11737060546875
2,221;-3.11737060546875
2,222;-3.11798095703125
2,223;-3.11676025390625
2,224;-3.1170654296875
2,225;-3.1170654296875
2,226;-3.11798095703125
2,227;-3.1170654296875
2,228;-3.11737060546875
2,229;-3.11767578125
2,23;-3.11737060546875
2,231;-3.11737060546875
2,232;-3.1170654296875
2,233;-3.11767578125
2,234;-3.11767578125
2,235;-3.11737060546875
2,236;-3.11767578125
2,237;-3.11737060546875
2,238;-3.11798095703125
2,239;-3.1170654296875
2,24;-3.11737060546875
2,241;-3.11737060546875
2,242;-3.11737060546875
2,243;-3.11737060546875
2,244;-3.11737060546875
2,245;-3.11737060546875
2,246;-3.11737060546875
2,247;-3.11737060546875
2,248;-3.11767578125
2,249;-3.11767578125
2,25;-3.11737060546875
2,251;-3.11767578125
2,252;-3.11798095703125
2,253;-3.1170654296875
2,254;-3.11737060546875
2,255;-3.11737060546875
2,256;-3.11737060546875
2,257;-3.11767578125
2,258;-3.1170654296875
2,259;-3.11767578125
2,26;-3.11767578125
2,261;-3.11737060546875
2,262;-3.11767578125
2,263;-3.11798095703125
2,264;-3.11737060546875
2,265;-3.11798095703125
2,266;-3.11737060546875
2,267;-3.11737060546875
2,268;-3.11737060546875
2,269;-3.11767578125
2,27;-3.11767578125
2,271;-3.11767578125
2,272;-3.11737060546875
2,273;-3.1170654296875
2,274;-3.11737060546875
2,275;-3.11767578125
2,276;-3.11767578125
2,277;-3.11798095703125
2,278;-3.11767578125
2,279;-3.1182861328125
2,28;-3.11767578125
2,281;-3.11767578125
2,282;-3.11737060546875
2,283;-3.11737060546875
2,284;-3.11767578125
2,285;-3.1170654296875
2,286;-3.11737060546875
2,287;-3.11767578125
2,288;-3.11737060546875
2,289;-3.11737060546875
2,29;-3.11737060546875
2,291;-3.11767578125
2,292;-3.11767578125
2,293;-3.11767578125
2,294;-3.11737060546875
2,295;-3.11767578125
2,296;-3.1170654296875
2,297;-3.11798095703125
2,298;-3.11737060546875
2,299;-3.11767578125
2,3;-3.11798095703125
2,301;-3.11737060546875
2,302;-3.11798095703125
2,303;-3.11737060546875
2,304;-3.11737060546875
2,305;-3.11798095703125
2,306;-3.11737060546875
2,307;-3.1170654296875
2,308;-3.11737060546875
2,309;-3.11737060546875
2,31;-3.11767578125
2,311;-3.11737060546875
2,312;-3.11767578125
2,313;-3.11737060546875
2,314;-3.11767578125
2,315;-3.11737060546875
2,316;-3.11737060546875
2,317;-3.11737060546875
2,318;-3.1170654296875
2,319;-3.1170654296875
2,32;-3.1170654296875
2,321;-3.11798095703125
2,322;-3.1170654296875
2,323;-3.11767578125
2,324;-3.11737060546875
2,325;-3.1170654296875
2,326;-3.11737060546875
2,327;-3.11737060546875
2,328;-3.11737060546875
2,329;-3.11737060546875
2,33;-3.11737060546875
2,331;-3.11767578125
2,332;-3.11767578125
2,333;-3.11737060546875
2,334;-3.11737060546875
2,335;-3.11767578125
2,336;-3.11767578125
2,337;-3.11767578125
2,338;-3.11767578125
2,339;-3.11737060546875
2,34;-3.11798095703125
2,341;-3.11737060546875
2,342;-3.11767578125
2,343;-3.11737060546875
2,344;-3.11767578125
2,345;-3.11737060546875
2,346;-3.1170654296875
2,347;-3.11737060546875
2,348;-3.11798095703125
2,349;-3.11737060546875
2,35;-3.11767578125
2,351;-3.11767578125
2,352;-3.11798095703125
2,353;-3.11798095703125
2,354;-3.11767578125
2,355;-3.11767578125
2,356;-3.11798095703125
2,357;-3.11767578125
2,358;-3.11767578125
2,359;-3.11767578125
2,36;-3.11767578125
2,361;-3.11767578125
2,362;-3.11767578125
2,363;-3.11767578125
2,364;-3.11737060546875
2,365;-3.11767578125
2,366;-3.11767578125
2,367;-3.11737060546875
2,368;-3.11767578125
2,369;-3.11798095703125
2,37;-3.11767578125
2,371;-3.11767578125
2,372;-3.11737060546875
2,373;-3.11737060546875
2,374;-3.11767578125
2,375;-3.11767578125
2,376;-3.11767578125
2,377;-3.11737060546875
2,378;-3.11737060546875
2,379;-3.11798095703125
2,38;-3.11737060546875
2,381;-3.11767578125
2,382;-3.11737060546875
2,383;-3.11737060546875
2,384;-3.1182861328125
2,385;-3.11767578125
2,386;-3.11737060546875
2,387;-3.11767578125
2,388;-3.11767578125
2,389;-3.11798095703125
2,39;-3.11737060546875
2,391;-3.11767578125
2,392;-3.11798095703125
2,393;-3.11737060546875
2,394;-3.11767578125
2,395;-3.11767578125
2,396;-3.11767578125
2,397;-3.11767578125
2,398;-3.11737060546875
2,399;-3.11767578125
2,4;-3.11798095703125
2,401;-3.11798095703125
2,402;-3.11767578125
2,403;-3.11767578125
2,404;-3.1182861328125
2,405;-3.11798095703125
2,406;-3.11737060546875
2,407;-3.11798095703125
2,408;-3.11767578125
2,409;-3.11737060546875
2,41;-3.1182861328125
2,411;-3.11737060546875
2,412;-3.11767578125
2,413;-3.11767578125
2,414;-3.1170654296875
2,415;-3.11767578125
2,416;-3.11737060546875
2,417;-3.11798095703125
2,418;-3.11767578125
2,419;-3.11767578125
2,42;-3.11798095703125
2,421;-3.1182861328125
2,422;-3.11767578125
2,423;-3.11767578125
2,424;-3.11767578125
2,425;-3.11767578125
2,426;-3.11798095703125
2,427;-3.11767578125
2,428;-3.11798095703125
2,429;-3.11767578125
2,43;-3.11767578125
2,431;-3.11767578125
2,432;-3.11798095703125
2,433;-3.11737060546875
2,434;-3.11767578125
2,435;-3.11798095703125
2,436;-3.11798095703125
2,437;-3.11767578125
2,438;-3.11767578125
2,439;-3.11737060546875
2,44;-3.11767578125
2,441;-3.11767578125
2,442;-3.11798095703125
2,443;-3.1170654296875
2,444;-3.11737060546875
2,445;-3.11767578125
2,446;-3.11798095703125
2,447;-3.11798095703125
2,448;-3.11798095703125
2,449;-3.11798095703125
2,45;-3.11767578125
2,451;-3.11798095703125
2,452;-3.11737060546875
2,453;-3.11798095703125
2,454;-3.11737060546875
2,455;-3.11767578125
2,456;-3.1182861328125
2,457;-3.11767578125
2,458;-3.11737060546875
2,459;-3.11798095703125
2,46;-3.11767578125
2,461;-3.1170654296875
2,462;-3.11798095703125
2,463;-3.11737060546875
2,464;-3.11798095703125
2,465;-3.1170654296875
2,466;-3.11767578125
2,467;-3.11737060546875
2,468;-3.11798095703125
2,469;-3.11798095703125
2,47;-3.11767578125
2,471;-3.11798095703125
2,472;-3.11767578125
2,473;-3.11737060546875
2,474;-3.11859130859375
2,475;-3.11767578125
2,476;-3.11798095703125
2,477;-3.11737060546875
2,478;-3.11767578125
2,479;-3.11767578125
2,48;-3.11798095703125
2,481;-3.11767578125
2,482;-3.11798095703125
2,483;-3.11737060546875
2,484;-3.11798095703125
2,485;-3.11798095703125
2,486;-3.11767578125
2,487;-3.11767578125
2,488;-3.11798095703125
2,489;-3.1182861328125
2,49;-3.11798095703125
2,491;-3.11798095703125
2,492;-3.11767578125
2,493;-3.11737060546875
2,494;-3.11737060546875
2,495;-3.11798095703125
2,496;-3.11798095703125
2,497;-3.1182861328125
2,498;-3.1182861328125
2,499;-3.1182861328125
2,5;-3.11798095703125
2,501;-3.11767578125
2,502;-3.11767578125
2,503;-3.11798095703125
2,504;-3.11798095703125
2,505;-3.11798095703125
2,506;-3.11798095703125
2,507;-3.11767578125
2,508;-3.11798095703125
2,509;-3.11859130859375
2,51;-3.11859130859375
2,511;-3.11767578125
2,512;-3.11767578125
2,513;-3.11798095703125
2,514;-3.1182861328125
2,515;-3.1182861328125
2,516;-3.11798095703125
2,517;-3.11798095703125
2,518;-3.11798095703125
2,519;-3.118896484375
2,52;-3.11798095703125
2,521;-3.11798095703125
2,522;-3.11859130859375
2,523;-3.11767578125
2,524;-3.11798095703125
2,525;-3.11798095703125
2,526;-3.1182861328125
2,527;-3.1182861328125
2,528;-3.1182861328125
2,529;-3.11767578125
2,53;-3.11798095703125
2,531;-3.1182861328125
2,532;-3.11798095703125
2,533;-3.11859130859375
2,534;-3.11767578125
2,535;-3.11798095703125
2,536;-3.11798095703125
2,537;-3.1182861328125
2,538;-3.11798095703125
2,539;-3.11767578125
2,54;-3.11798095703125
2,541;-3.11767578125
2,542;-3.11767578125
2,543;-3.1182861328125
2,544;-3.11798095703125
2,545;-3.11798095703125
2,546;-3.11798095703125
2,547;-3.11798095703125
2,548;-3.11767578125
2,549;-3.11767578125
2,55;-3.11767578125
2,551;-3.11737060546875
2,552;-3.11767578125
2,553;-3.11798095703125
2,554;-3.11767578125
2,555;-3.11798095703125
2,556;-3.11798095703125
2,557;-3.11767578125
2,558;-3.11767578125
2,559;-3.11767578125
2,56;-3.11798095703125
2,561;-3.11767578125
2,562;-3.11798095703125
2,563;-3.11767578125
2,564;-3.11767578125
2,565;-3.11798095703125
2,566;-3.1182861328125
2,567;-3.11798095703125
2,568;-3.11737060546875
2,569;-3.1182861328125
2,57;-3.11737060546875
2,571;-3.11767578125
2,572;-3.11798095703125
2,573;-3.11767578125
2,574;-3.11798095703125
2,575;-3.11767578125
2,576;-3.11798095703125
2,577;-3.11798095703125
2,578;-3.11767578125
2,579;-3.11798095703125
2,58;-3.11798095703125
2,581;-3.11767578125
2,582;-3.11798095703125
2,583;-3.11737060546875
2,584;-3.11767578125
2,585;-3.11737060546875
2,586;-3.11767578125
2,587;-3.11798095703125
2,588;-3.11737060546875
2,589;-3.11798095703125
2,59;-3.11798095703125
2,591;-3.11767578125
2,592;-3.11798095703125
2,593;-3.11798095703125
2,594;-3.1182861328125
2,595;-3.11798095703125
2,596;-3.11798095703125
2,597;-3.11767578125
2,598;-3.1170654296875
2,599;-3.1182861328125
2,6;-3.11798095703125
2,601;-3.11798095703125
2,602;-3.1182861328125
2,603;-3.11798095703125
2,604;-3.11767578125
2,605;-3.11767578125
2,606;-3.11767578125
2,607;-3.11798095703125
2,608;-3.11737060546875
2,609;-3.11798095703125
2,61;-3.11798095703125
2,611;-3.11798095703125
2,612;-3.1182861328125
2,613;-3.11798095703125
2,614;-3.11798095703125
2,615;-3.1182861328125
2,616;-3.11798095703125
2,617;-3.11767578125
2,618;-3.11767578125
2,619;-3.11767578125
2,62;-3.11798095703125
2,621;-3.11737060546875
2,622;-3.1182861328125
2,623;-3.11798095703125
2,624;-3.11737060546875
2,625;-3.1182861328125
2,626;-3.11798095703125
2,627;-3.11767578125
2,628;-3.1182861328125
2,629;-3.11737060546875
2,63;-3.11767578125
2,631;-3.11767578125
2,632;-3.11767578125
2,633;-3.11798095703125
2,634;-3.11767578125
2,635;-3.11798095703125
2,636;-3.11798095703125
2,637;-3.11767578125
2,638;-3.11798095703125
2,639;-3.11767578125
2,64;-3.11798095703125
2,641;-3.11798095703125
2,642;-3.11798095703125
2,643;-3.11767578125
2,644;-3.1182861328125
2,645;-3.11859130859375
2,646;-3.1182861328125
2,647;-3.11798095703125
2,648;-3.11737060546875
2,649;-3.11798095703125
2,65;-3.11798095703125
2,651;-3.11798095703125
2,652;-3.11767578125
2,653;-3.11798095703125
2,654;-3.11798095703125
2,655;-3.11798095703125
2,656;-3.11767578125
2,657;-3.1182861328125
2,658;-3.11798095703125
2,659;-3.11798095703125
2,66;-3.11859130859375
2,661;-3.11798095703125
2,662;-3.11737060546875
2,663;-3.1182861328125
2,664;-3.1170654296875
2,665;-3.11737060546875
2,666;-3.11798095703125
2,667;-3.11767578125
2,668;-3.11737060546875
2,669;-3.11737060546875
2,67;-3.1170654296875
2,671;-3.11798095703125
2,672;-3.11798095703125
2,673;-3.11767578125
2,674;-3.11798095703125
2,675;-3.11767578125
2,676;-3.11767578125
2,677;-3.11737060546875
2,678;-3.1182861328125
2,679;-3.11767578125
2,68;-3.11798095703125
2,681;-3.11767578125
2,682;-3.11737060546875
2,683;-3.11737060546875
2,684;-3.1182861328125
2,685;-3.11737060546875
2,686;-3.11767578125
2,687;-3.11767578125
2,688;-3.11737060546875
2,689;-3.11737060546875
2,69;-3.11767578125
2,691;-3.11798095703125
2,692;-3.11798095703125
2,693;-3.11737060546875
2,694;-3.11767578125
2,695;-3.1182861328125
2,696;-3.11767578125
2,697;-3.11767578125
2,698;-3.11737060546875
2,699;-3.1170654296875
2,7;-3.11767578125
2,701;-3.11737060546875
2,702;-3.1170654296875
2,703;-3.11798095703125
2,704;-3.11798095703125
2,705;-3.11767578125
2,706;-3.11737060546875
2,707;-3.11767578125
2,708;-3.11737060546875
2,709;-3.11767578125
2,71;-3.11767578125
2,711;-3.11737060546875
2,712;-3.11737060546875
2,713;-3.11798095703125
2,714;-3.1182861328125
2,715;-3.11737060546875
2,716;-3.11798095703125
2,717;-3.11767578125
2,718;-3.11767578125
2,719;-3.11798095703125
2,72;-3.11767578125
2,721;-3.11767578125
2,722;-3.11798095703125
2,723;-3.11767578125
2,724;-3.11798095703125
2,725;-3.11767578125
2,726;-3.11767578125
2,727;-3.11767578125
2,728;-3.1170654296875
2,729;-3.11737060546875
2,73;-3.11767578125
2,731;-3.1170654296875
2,732;-3.1170654296875
2,733;-3.11767578125
2,734;-3.11737060546875
2,735;-3.11737060546875
2,736;-3.11767578125
2,737;-3.11767578125
2,738;-3.11767578125
2,739;-3.11767578125
2,74;-3.11798095703125
2,741;-3.11798095703125
2,742;-3.1170654296875
2,743;-3.11798095703125
2,744;-3.11737060546875
2,745;-3.11767578125
2,746;-3.11798095703125
2,747;-3.11737060546875
2,748;-3.11737060546875
2,749;-3.11798095703125
2,75;-3.11767578125
2,751;-3.11737060546875
2,752;-3.11767578125
2,753;-3.11767578125
2,754;-3.11737060546875
2,755;-3.11767578125
2,756;-3.11767578125
2,757;-3.11737060546875
2,758;-3.11767578125
2,759;-3.1170654296875
2,76;-3.11767578125
2,761;-3.11737060546875
2,762;-3.11737060546875
2,763;-3.11767578125
2,764;-3.11737060546875
2,765;-3.11767578125
2,766;-3.11767578125
2,767;-3.11798095703125
2,768;-3.1182861328125
2,769;-3.11767578125
2,77;-3.11767578125
2,771;-3.11737060546875
2,772;-3.11737060546875
2,773;-3.11737060546875
2,774;-3.11737060546875
2,775;-3.11767578125
2,776;-3.11737060546875
2,777;-3.11767578125
2,778;-3.11737060546875
2,779;-3.11767578125
2,78;-3.11737060546875
2,781;-3.1170654296875
2,782;-3.1170654296875
2,783;-3.11737060546875
2,784;-3.11767578125
2,785;-3.11767578125
2,786;-3.11737060546875
2,787;-3.1170654296875
2,788;-3.11798095703125
2,789;-3.11798095703125
2,79;-3.11737060546875
2,791;-3.11737060546875
2,792;-3.11737060546875
2,793;-3.11737060546875
2,794;-3.11737060546875
2,795;-3.11737060546875
2,796;-3.11767578125
2,797;-3.11767578125
2,798;-3.11767578125
2,799;-3.11737060546875
2,8;-3.11737060546875
2,801;-3.1170654296875
2,802;-3.11737060546875
2,803;-3.1170654296875
2,804;-3.11798095703125
2,805;-3.11767578125
2,806;-3.1170654296875
2,807;-3.11737060546875
2,808;-3.1170654296875
2,809;-3.11737060546875
2,81;-3.11737060546875
2,811;-3.11798095703125
2,812;-3.1170654296875
2,813;-3.1170654296875
2,814;-3.11767578125
2,815;-3.11737060546875
2,816;-3.11676025390625
2,817;-3.1170654296875
2,818;-3.11737060546875
2,819;-3.11676025390625
2,82;-3.1170654296875
2,821;-3.11737060546875
2,822;-3.11767578125
2,823;-3.11737060546875
2,824;-3.1170654296875
2,825;-3.11737060546875
2,826;-3.1170654296875
2,827;-3.11737060546875
2,828;-3.11767578125
2,829;-3.1170654296875
2,83;-3.1170654296875
2,831;-3.11737060546875
2,832;-3.11737060546875
2,833;-3.11737060546875
2,834;-3.11737060546875
2,835;-3.11737060546875
2,836;-3.1170654296875
2,837;-3.11767578125
2,838;-3.1170654296875
2,839;-3.1170654296875
2,84;-3.11737060546875
2,841;-3.11737060546875
2,842;-3.11737060546875
2,843;-3.11737060546875
2,844;-3.1170654296875
2,845;-3.11798095703125
2,846;-3.11737060546875
2,847;-3.1170654296875
2,848;-3.11676025390625
2,849;-3.1170654296875
2,85;-3.11737060546875
2,851;-3.1170654296875
2,852;-3.11798095703125
2,853;-3.1170654296875
2,854;-3.1170654296875
2,855;-3.1170654296875
2,856;-3.11737060546875
2,857;-3.11767578125
2,858;-3.11737060546875
2,859;-3.11737060546875
2,86;-3.11767578125
2,861;-3.1170654296875
2,862;-3.11737060546875
2,863;-3.1170654296875
2,864;-3.11737060546875
2,865;-3.11737060546875
2,866;-3.11767578125
2,867;-3.1170654296875
2,868;-3.11737060546875
2,869;-3.1170654296875
2,87;-3.11737060546875
2,871;-3.11737060546875
2,872;-3.1170654296875
2,873;-3.1170654296875
2,874;-3.11737060546875
2,875;-3.11737060546875
2,876;-3.11737060546875
2,877;-3.1170654296875
2,878;-3.11737060546875
2,879;-3.11737060546875
2,88;-3.1170654296875
2,881;-3.1170654296875
2,882;-3.1170654296875
2,883;-3.11737060546875
2,884;-3.1170654296875
2,885;-3.1170654296875
2,886;-3.1170654296875
2,887;-3.11737060546875
2,888;-3.11737060546875
2,889;-3.1170654296875
2,89;-3.1170654296875
2,891;-3.1170654296875
2,892;-3.11737060546875
2,893;-3.11737060546875
2,894;-3.11737060546875
2,895;-3.1170654296875
2,896;-3.1170654296875
2,897;-3.1170654296875
2,898;-3.1170654296875
2,899;-3.11737060546875
2,9;-3.1170654296875
2,901;-3.11737060546875
2,902;-3.11737060546875
2,903;-3.11737060546875
2,904;-3.1170654296875
2,905;-3.11737060546875
2,906;-3.1170654296875
2,907;-3.1170654296875
2,908;-3.11767578125
2,909;-3.1170654296875
2,91;-3.11798095703125
2,911;-3.11767578125
2,912;-3.1170654296875
2,913;-3.1170654296875
2,914;-3.1170654296875
2,915;-3.11767578125
2,916;-3.1170654296875
2,917;-3.1170654296875
2,918;-3.1170654296875
2,919;-3.1170654296875
2,92;-3.11767578125
2,921;-3.11767578125
2,922;-3.11767578125
2,923;-3.11737060546875
2,924;-3.11767578125
2,925;-3.11737060546875
2,926;-3.11676025390625
2,927;-3.1170654296875
2,928;-3.11737060546875
2,929;-3.11737060546875
2,93;-3.1170654296875
2,931;-3.11767578125
2,932;-3.11737060546875
2,933;-3.11737060546875
2,934;-3.11737060546875
2,935;-3.11737060546875
2,936;-3.11737060546875
2,937;-3.11737060546875
2,938;-3.11767578125
2,939;-3.11676025390625
2,94;-3.11737060546875
2,941;-3.11737060546875
2,942;-3.11767578125
2,943;-3.11676025390625
2,944;-3.11767578125
2,945;-3.11737060546875
2,946;-3.1170654296875
2,947;-3.1170654296875
2,948;-3.1170654296875
2,949;-3.1170654296875
2,95;-3.11767578125
2,951;-3.11767578125
2,952;-3.1170654296875
2,953;-3.11767578125
2,954;-3.11737060546875
2,955;-3.11767578125
2,956;-3.11737060546875
2,957;-3.116455078125
2,958;-3.11767578125
2,959;-3.11767578125
2,96;-3.11737060546875
2,961;-3.11737060546875
2,962;-3.11737060546875
2,963;-3.11737060546875
2,964;-3.1170654296875
2,965;-3.11737060546875
2,966;-3.1170654296875
2,967;-3.11676025390625
2,968;-3.11767578125
2,969;-3.11767578125
2,97;-3.11676025390625
2,971;-3.11737060546875
2,972;-3.1170654296875
2,973;-3.11767578125
2,974;-3.1170654296875
2,975;-3.11737060546875
2,976;-3.1170654296875
2,977;-3.11737060546875
2,978;-3.11737060546875
2,979;-3.1170654296875
2,98;-3.11767578125
2,981;-3.11737060546875
2,982;-3.11737060546875
2,983;-3.11767578125
2,984;-3.11737060546875
2,985;-3.11737060546875
2,986;-3.11737060546875
2,987;-3.1170654296875
2,988;-3.11737060546875
2,989;-3.11737060546875
2,99;-3.11737060546875
2,991;-3.11737060546875
2,992;-3.11676025390625
2,993;-3.11737060546875
2,994;-3.11676025390625
2,995;-3.11676025390625
2,996;-3.11767578125
2,997;-3.11737060546875
2,998;-3.11767578125
2,999;-3.11767578125
3;-3.11737060546875
3,001;-3.11767578125
3,002;-3.1170654296875
3,003;-3.11676025390625
3,004;-3.1170654296875
3,005;-3.11737060546875
3,006;-3.1170654296875
3,007;-3.11737060546875
3,008;-3.11737060546875
3,009;-3.11767578125
3,01;-3.11737060546875
3,011;-3.11767578125
3,012;-3.11737060546875
3,013;-3.1170654296875
3,014;-3.11737060546875
3,015;-3.11737060546875
3,016;-3.11737060546875
3,017;-3.11737060546875
3,018;-3.1170654296875
3,019;-3.11737060546875
3,02;-3.1170654296875
3,021;-3.11737060546875
3,022;-3.11737060546875
3,023;-3.11798095703125
3,024;-3.11767578125
3,025;-3.11676025390625
3,026;-3.11737060546875
3,027;-3.11767578125
3,028;-3.11737060546875
3,029;-3.11767578125
3,03;-3.11767578125
3,031;-3.1170654296875
3,032;-3.11767578125
3,033;-3.11737060546875
3,034;-3.11767578125
3,035;-3.11767578125
3,036;-3.11737060546875
3,037;-3.11737060546875
3,038;-3.11767578125
3,039;-3.11798095703125
3,04;-3.11767578125
3,041;-3.11798095703125
3,042;-3.11767578125
3,043;-3.11767578125
3,044;-3.11767578125
3,045;-3.11767578125
3,046;-3.11767578125
3,047;-3.11798095703125
3,048;-3.11767578125
3,049;-3.11737060546875
3,05;-3.1170654296875
3,051;-3.11737060546875
3,052;-3.1182861328125
3,053;-3.11737060546875
3,054;-3.11737060546875
3,055;-3.11798095703125
3,056;-3.11767578125
3,057;-3.11798095703125
3,058;-3.11737060546875
3,059;-3.1170654296875
3,06;-3.11798095703125
3,061;-3.1182861328125
3,062;-3.11798095703125
3,063;-3.11737060546875
3,064;-3.11767578125
3,065;-3.11767578125
3,066;-3.11798095703125
3,067;-3.11767578125
3,068;-3.1170654296875
3,069;-3.11737060546875
3,07;-3.11767578125
3,071;-3.11737060546875
3,072;-3.1170654296875
3,073;-3.11798095703125
3,074;-3.11798095703125
3,075;-3.11767578125
3,076;-3.11798095703125
3,077;-3.11798095703125
3,078;-3.11798095703125
3,079;-3.1182861328125
3,08;-3.11798095703125
3,081;-3.11767578125
3,082;-3.11737060546875
3,083;-3.11798095703125
3,084;-3.11737060546875
3,085;-3.11798095703125
3,086;-3.1182861328125
3,087;-3.11767578125
3,088;-3.11767578125
3,089;-3.11737060546875
3,09;-3.11798095703125
3,091;-3.11737060546875
3,092;-3.11798095703125
3,093;-3.11737060546875
3,094;-3.11767578125
3,095;-3.11737060546875
3,096;-3.11798095703125
3,097;-3.11767578125
3,098;-3.11798095703125
3,099;-3.11737060546875
3,1;-3.11798095703125
3,101;-3.11767578125
3,102;-3.11798095703125
3,103;-3.1170654296875
3,104;-3.11737060546875
3,105;-3.11737060546875
3,106;-3.11798095703125
3,107;-3.11798095703125
3,108;-3.1170654296875
3,109;-3.11798095703125
3,11;-3.11737060546875
3,111;-3.11798095703125
3,112;-3.1170654296875
3,113;-3.11737060546875
3,114;-3.11767578125
3,115;-3.11798095703125
3,116;-3.11737060546875
3,117;-3.11737060546875
3,118;-3.11798095703125
3,119;-3.11767578125
3,12;-3.11737060546875
3,121;-3.11767578125
3,122;-3.11767578125
3,123;-3.11737060546875
3,124;-3.11737060546875
3,125;-3.11737060546875
3,126;-3.11737060546875
3,127;-3.1170654296875
3,128;-3.1170654296875
3,129;-3.11737060546875
3,13;-3.11798095703125
3,131;-3.1170654296875
3,132;-3.1170654296875
3,133;-3.11767578125
3,134;-3.11737060546875
3,135;-3.11767578125
3,136;-3.11767578125
3,137;-3.11798095703125
3,138;-3.11767578125
3,139;-3.11767578125
3,14;-3.1170654296875
3,141;-3.11737060546875
3,142;-3.11767578125
3,143;-3.11767578125
3,144;-3.11767578125
3,145;-3.11798095703125
3,146;-3.11767578125
3,147;-3.11737060546875
3,148;-3.11737060546875
3,149;-3.11767578125
3,15;-3.11767578125
3,151;-3.11737060546875
3,152;-3.11767578125
3,153;-3.11798095703125
3,154;-3.11798095703125
3,155;-3.11798095703125
3,156;-3.11737060546875
3,157;-3.11767578125
3,158;-3.1170654296875
3,159;-3.11767578125
3,16;-3.11767578125
3,161;-3.11767578125
3,162;-3.11737060546875
3,163;-3.11767578125
3,164;-3.11767578125
3,165;-3.11798095703125
3,166;-3.11798095703125
3,167;-3.11798095703125
3,168;-3.11737060546875
3,169;-3.11737060546875
3,17;-3.11767578125
3,171;-3.11859130859375
3,172;-3.11767578125
3,173;-3.11767578125
3,174;-3.11798095703125
3,175;-3.11798095703125
3,176;-3.11798095703125
3,177;-3.11737060546875
3,178;-3.11767578125
3,179;-3.11798095703125
3,18;-3.1170654296875
3,181;-3.11767578125
3,182;-3.11767578125
3,183;-3.11798095703125
3,184;-3.11798095703125
3,185;-3.11798095703125
3,186;-3.11798095703125
3,187;-3.11767578125
3,188;-3.1182861328125
3,189;-3.11859130859375
3,19;-3.11798095703125
3,191;-3.11767578125
3,192;-3.11767578125
3,193;-3.11767578125
3,194;-3.11798095703125
3,195;-3.11798095703125
3,196;-3.11767578125
3,197;-3.11859130859375
3,198;-3.11767578125
3,199;-3.11737060546875
3,2;-3.1182861328125
3,201;-3.11737060546875
3,202;-3.11798095703125
3,203;-3.11767578125
3,204;-3.11767578125
3,205;-3.11767578125
3,206;-3.1182861328125
3,207;-3.1182861328125
3,208;-3.11798095703125
3,209;-3.11767578125
3,21;-3.1182861328125
3,211;-3.11767578125
3,212;-3.11767578125
3,213;-3.11798095703125
3,214;-3.1182861328125
3,215;-3.11737060546875
3,216;-3.11737060546875
3,217;-3.11767578125
3,218;-3.11767578125
3,219;-3.11737060546875
3,22;-3.1170654296875
3,221;-3.11767578125
3,222;-3.11767578125
3,223;-3.11737060546875
3,224;-3.11767578125
3,225;-3.11798095703125
3,226;-3.11767578125
3,227;-3.11737060546875
3,228;-3.11798095703125
3,229;-3.11737060546875
3,23;-3.11798095703125
3,231;-3.11737060546875
3,232;-3.11798095703125
3,233;-3.11798095703125
3,234;-3.11798095703125
3,235;-3.11737060546875
3,236;-3.11767578125
3,237;-3.11737060546875
3,238;-3.11737060546875
3,239;-3.1170654296875
3,24;-3.11737060546875
3,241;-3.11767578125
3,242;-3.11737060546875
3,243;-3.1170654296875
3,244;-3.11737060546875
3,245;-3.11737060546875
3,246;-3.11798095703125
3,247;-3.11737060546875
3,248;-3.11737060546875
3,249;-3.11767578125
3,25;-3.11798095703125
3,251;-3.11798095703125
3,252;-3.11737060546875
3,253;-3.11798095703125
3,254;-3.11737060546875
3,255;-3.11737060546875
3,256;-3.11767578125
3,257;-3.11767578125
3,258;-3.11737060546875
3,259;-3.11737060546875
3,26;-3.11737060546875
3,261;-3.11767578125
3,262;-3.11737060546875
3,263;-3.11767578125
3,264;-3.11767578125
3,265;-3.11767578125
3,266;-3.11767578125
3,267;-3.11798095703125
3,268;-3.1170654296875
3,269;-3.11767578125
3,27;-3.11737060546875
3,271;-3.11767578125
3,272;-3.11798095703125
3,273;-3.11767578125
3,274;-3.11798095703125
3,275;-3.11767578125
3,276;-3.11798095703125
3,277;-3.11737060546875
3,278;-3.11798095703125
3,279;-3.1170654296875
3,28;-3.11767578125
3,281;-3.11767578125
3,282;-3.11737060546875
3,283;-3.11798095703125
3,284;-3.11798095703125
3,285;-3.11767578125
3,286;-3.11767578125
3,287;-3.11737060546875
3,288;-3.11798095703125
3,289;-3.11798095703125
3,29;-3.11767578125
3,291;-3.11767578125
3,292;-3.1182861328125
3,293;-3.11737060546875
3,294;-3.11798095703125
3,295;-3.11767578125
3,296;-3.1182861328125
3,297;-3.11767578125
3,298;-3.11798095703125
3,299;-3.11767578125
3,3;-3.11767578125
3,301;-3.11737060546875
3,302;-3.11798095703125
3,303;-3.11767578125
3,304;-3.11798095703125
3,305;-3.11767578125
3,306;-3.11798095703125
3,307;-3.11767578125
3,308;-3.11767578125
3,309;-3.11798095703125
3,31;-3.11798095703125
3,311;-3.11798095703125
3,312;-3.11767578125
3,313;-3.1182861328125
3,314;-3.11798095703125
3,315;-3.11767578125
3,316;-3.11767578125
3,317;-3.11767578125
3,318;-3.11767578125
3,319;-3.11798095703125
3,32;-3.11767578125
3,321;-3.11767578125
3,322;-3.11798095703125
3,323;-3.11798095703125
3,324;-3.11798095703125
3,325;-3.11737060546875
3,326;-3.11798095703125
3,327;-3.11798095703125
3,328;-3.11767578125
3,329;-3.11767578125
3,33;-3.11767578125
3,331;-3.11767578125
3,332;-3.11737060546875
3,333;-3.11798095703125
3,334;-3.11737060546875
3,335;-3.11767578125
3,336;-3.11737060546875
3,337;-3.11767578125
3,338;-3.11767578125
3,339;-3.11798095703125
3,34;-3.1182861328125
3,341;-3.11767578125
3,342;-3.11767578125
3,343;-3.11737060546875
3,344;-3.11798095703125
3,345;-3.11767578125
3,346;-3.11737060546875
3,347;-3.11798095703125
3,348;-3.11737060546875
3,349;-3.11737060546875
3,35;-3.11798095703125
3,351;-3.11767578125
3,352;-3.11798095703125
3,353;-3.11767578125
3,354;-3.11767578125
3,355;-3.11737060546875
3,356;-3.11737060546875
3,357;-3.11737060546875
3,358;-3.11767578125
3,359;-3.11767578125
3,36;-3.11737060546875
3,361;-3.11798095703125
3,362;-3.1170654296875
3,363;-3.11767578125
3,364;-3.11767578125
3,365;-3.11767578125
3,366;-3.1170654296875
3,367;-3.11737060546875
3,368;-3.11798095703125
3,369;-3.11798095703125
3,37;-3.11737060546875
3,371;-3.11767578125
3,372;-3.11767578125
3,373;-3.11737060546875
3,374;-3.11737060546875
3,375;-3.11767578125
3,376;-3.11767578125
3,377;-3.11737060546875
3,378;-3.11737060546875
3,379;-3.11767578125
3,38;-3.11737060546875
3,381;-3.11767578125
3,382;-3.11767578125
3,383;-3.11767578125
3,384;-3.1170654296875
3,385;-3.11767578125
3,386;-3.11767578125
3,387;-3.11737060546875
3,388;-3.11798095703125
3,389;-3.11767578125
3,39;-3.11798095703125
3,391;-3.11798095703125
3,392;-3.11798095703125
3,393;-3.11737060546875
3,394;-3.11737060546875
3,395;-3.11737060546875
3,396;-3.11798095703125
3,397;-3.11798095703125
3,398;-3.11798095703125
3,399;-3.11737060546875
3,4;-3.11767578125
3,401;-3.11737060546875
3,402;-3.11767578125
3,403;-3.11767578125
3,404;-3.11798095703125
3,405;-3.11737060546875
3,406;-3.11737060546875
3,407;-3.11737060546875
3,408;-3.11737060546875
3,409;-3.11737060546875
3,41;-3.11767578125
3,411;-3.11767578125
3,412;-3.11798095703125
3,413;-3.11767578125
3,414;-3.11737060546875
3,415;-3.11737060546875
3,416;-3.11798095703125
3,417;-3.1182861328125
3,418;-3.11737060546875
3,419;-3.11767578125
3,42;-3.11767578125
3,421;-3.11798095703125
3,422;-3.11767578125
3,423;-3.11798095703125
3,424;-3.11767578125
3,425;-3.11767578125
3,426;-3.11798095703125
3,427;-3.11767578125
3,428;-3.11767578125
3,429;-3.11767578125
3,43;-3.11767578125
3,431;-3.11798095703125
3,432;-3.11767578125
3,433;-3.11767578125
3,434;-3.11737060546875
3,435;-3.11859130859375
3,436;-3.11737060546875
3,437;-3.11767578125
3,438;-3.11737060546875
3,439;-3.11767578125
3,44;-3.11798095703125
3,441;-3.11767578125
3,442;-3.11767578125
3,443;-3.11767578125
3,444;-3.11767578125
3,445;-3.11767578125
3,446;-3.11737060546875
3,447;-3.11767578125
3,448;-3.11737060546875
3,449;-3.11737060546875
3,45;-3.11798095703125
3,451;-3.1170654296875
3,452;-3.11767578125
3,453;-3.11767578125
3,454;-3.11737060546875
3,455;-3.11767578125
3,456;-3.11767578125
3,457;-3.11737060546875
3,458;-3.1182861328125
3,459;-3.11767578125
3,46;-3.1170654296875
3,461;-3.11737060546875
3,462;-3.11737060546875
3,463;-3.11767578125
3,464;-3.11737060546875
3,465;-3.11798095703125
3,466;-3.11767578125
3,467;-3.11767578125
3,468;-3.11767578125
3,469;-3.11737060546875
3,47;-3.11767578125
3,471;-3.11767578125
3,472;-3.1170654296875
3,473;-3.11737060546875
3,474;-3.11767578125
3,475;-3.11767578125
3,476;-3.1170654296875
3,477;-3.11737060546875
3,478;-3.11737060546875
3,479;-3.11676025390625
3,48;-3.11767578125
3,481;-3.11767578125
3,482;-3.1170654296875
3,483;-3.1170654296875
3,484;-3.11767578125
3,485;-3.11737060546875
3,486;-3.11767578125
3,487;-3.1170654296875
3,488;-3.1170654296875
3,489;-3.1170654296875
3,49;-3.11767578125
3,491;-3.1170654296875
3,492;-3.11737060546875
3,493;-3.11737060546875
3,494;-3.1170654296875
3,495;-3.11737060546875
3,496;-3.1170654296875
3,497;-3.1170654296875
3,498;-3.11737060546875
3,499;-3.1170654296875
3,5;-3.11767578125
3,501;-3.1170654296875
3,502;-3.1170654296875
3,503;-3.11737060546875
3,504;-3.1170654296875
3,505;-3.11737060546875
3,506;-3.11737060546875
3,507;-3.1170654296875
3,508;-3.11767578125
3,509;-3.11737060546875
3,51;-3.11737060546875
3,511;-3.1170654296875
3,512;-3.1170654296875
3,513;-3.1170654296875
3,514;-3.11737060546875
3,515;-3.1170654296875
3,516;-3.1170654296875
3,517;-3.1170654296875
3,518;-3.1170654296875
3,519;-3.11737060546875
3,52;-3.1170654296875
3,521;-3.11737060546875
3,522;-3.11737060546875
3,523;-3.11737060546875
3,524;-3.1170654296875
3,525;-3.11737060546875
3,526;-3.11767578125
3,527;-3.11737060546875
3,528;-3.11737060546875
3,529;-3.11767578125
3,53;-3.1170654296875
3,531;-3.1170654296875
3,532;-3.11798095703125
3,533;-3.11737060546875
3,534;-3.11737060546875
3,535;-3.11737060546875
3,536;-3.1170654296875
3,537;-3.11767578125
3,538;-3.11767578125
3,539;-3.11737060546875
3,54;-3.11737060546875
3,541;-3.11737060546875
3,542;-3.11767578125
3,543;-3.11737060546875
3,544;-3.11737060546875
3,545;-3.11737060546875
3,546;-3.1170654296875
3,547;-3.11737060546875
3,548;-3.11737060546875
3,549;-3.11798095703125
3,55;-3.11767578125
3,551;-3.11737060546875
3,552;-3.11767578125
3,553;-3.1170654296875
3,554;-3.11767578125
3,555;-3.11767578125
3,556;-3.1170654296875
3,557;-3.11737060546875
3,558;-3.11676025390625
3,559;-3.11737060546875
3,56;-3.11737060546875
3,561;-3.11737060546875
3,562;-3.11798095703125
3,563;-3.11737060546875
3,564;-3.11737060546875
3,565;-3.11767578125
3,566;-3.11767578125
3,567;-3.11798095703125
3,568;-3.11767578125
3,569;-3.11798095703125
3,57;-3.11737060546875
3,571;-3.11737060546875
3,572;-3.11767578125
3,573;-3.11737060546875
3,574;-3.11737060546875
3,575;-3.1170654296875
3,576;-3.11737060546875
3,577;-3.11798095703125
3,578;-3.11676025390625
3,579;-3.11767578125
3,58;-3.11737060546875
3,581;-3.11737060546875
3,582;-3.11767578125
3,583;-3.11737060546875
3,584;-3.11737060546875
3,585;-3.11767578125
3,586;-3.11767578125
3,587;-3.11737060546875
3,588;-3.1170654296875
3,589;-3.11767578125
3,59;-3.11676025390625
3,591;-3.11737060546875
3,592;-3.1170654296875
3,593;-3.11737060546875
3,594;-3.11737060546875
3,595;-3.1170654296875
3,596;-3.11737060546875
3,597;-3.11676025390625
3,598;-3.1170654296875
3,599;-3.1170654296875
3,6;-3.11767578125
3,601;-3.11737060546875
3,602;-3.11676025390625
3,603;-3.11737060546875
3,604;-3.11767578125
3,605;-3.11676025390625
3,606;-3.11798095703125
3,607;-3.11737060546875
3,608;-3.1170654296875
3,609;-3.11737060546875
3,61;-3.1170654296875
3,611;-3.11737060546875
3,612;-3.11676025390625
3,613;-3.11737060546875
3,614;-3.11737060546875
3,615;-3.11737060546875
3,616;-3.1170654296875
3,617;-3.11737060546875
3,618;-3.11737060546875
3,619;-3.11676025390625
3,62;-3.11737060546875
3,621;-3.1170654296875
3,622;-3.11676025390625
3,623;-3.11767578125
3,624;-3.11767578125
3,625;-3.11737060546875
3,626;-3.1170654296875
3,627;-3.11767578125
3,628;-3.1170654296875
3,629;-3.1170654296875
3,63;-3.11767578125
3,631;-3.11737060546875
3,632;-3.1170654296875
3,633;-3.11737060546875
3,634;-3.11737060546875
3,635;-3.11767578125
3,636;-3.1170654296875
3,637;-3.11737060546875
3,638;-3.1170654296875
3,639;-3.11676025390625
3,64;-3.11737060546875
3,641;-3.11737060546875
3,642;-3.11767578125
3,643;-3.11798095703125
3,644;-3.11737060546875
3,645;-3.11767578125
3,646;-3.11737060546875
3,647;-3.1170654296875
3,648;-3.11737060546875
3,649;-3.1170654296875
3,65;-3.1170654296875
3,651;-3.11798095703125
3,652;-3.1170654296875
3,653;-3.11737060546875
3,654;-3.11767578125
3,655;-3.1170654296875
3,656;-3.11767578125
3,657;-3.11737060546875
3,658;-3.1170654296875
3,659;-3.11737060546875
3,66;-3.11737060546875
3,661;-3.11676025390625
3,662;-3.11767578125
3,663;-3.11737060546875
3,664;-3.1170654296875
3,665;-3.11737060546875
3,666;-3.11737060546875
3,667;-3.1170654296875
3,668;-3.1170654296875
3,669;-3.11737060546875
3,67;-3.11676025390625
3,671;-3.1170654296875
3,672;-3.1170654296875
3,673;-3.11767578125
3,674;-3.11737060546875
3,675;-3.11737060546875
3,676;-3.1170654296875
3,677;-3.11737060546875
3,678;-3.11737060546875
3,679;-3.11737060546875
3,68;-3.11676025390625
3,681;-3.11737060546875
3,682;-3.11737060546875
3,683;-3.11737060546875
3,684;-3.11737060546875
3,685;-3.11767578125
3,686;-3.11767578125
3,687;-3.1170654296875
3,688;-3.11737060546875
3,689;-3.11737060546875
3,69;-3.1170654296875
3,691;-3.1170654296875
3,692;-3.1170654296875
3,693;-3.1170654296875
3,694;-3.11737060546875
3,695;-3.11798095703125
3,696;-3.11767578125
3,697;-3.11767578125
3,698;-3.1170654296875
3,699;-3.11737060546875
3,7;-3.1170654296875
3,701;-3.11737060546875
3,702;-3.11767578125
3,703;-3.11737060546875
3,704;-3.11737060546875
3,705;-3.11737060546875
3,706;-3.11767578125
3,707;-3.11737060546875
3,708;-3.11737060546875
3,709;-3.1170654296875
3,71;-3.11767578125
3,711;-3.11737060546875
3,712;-3.1170654296875
3,713;-3.1170654296875
3,714;-3.11737060546875
3,715;-3.11767578125
3,716;-3.11798095703125
3,717;-3.11767578125
3,718;-3.11767578125
3,719;-3.11767578125
3,72;-3.11737060546875
3,721;-3.1170654296875
3,722;-3.11737060546875
3,723;-3.11676025390625
3,724;-3.11737060546875
3,725;-3.11767578125
3,726;-3.11737060546875
3,727;-3.1170654296875
3,728;-3.11737060546875
3,729;-3.1170654296875
3,73;-3.1170654296875
3,731;-3.11737060546875
3,732;-3.11737060546875
3,733;-3.11737060546875
3,734;-3.11676025390625
3,735;-3.1170654296875
3,736;-3.11737060546875
3,737;-3.1170654296875
3,738;-3.1170654296875
3,739;-3.1170654296875
3,74;-3.1170654296875
3,741;-3.11737060546875
3,742;-3.1170654296875
3,743;-3.11676025390625
3,744;-3.11737060546875
3,745;-3.1170654296875
3,746;-3.11737060546875
3,747;-3.1170654296875
3,748;-3.11767578125
3,749;-3.11737060546875
3,75;-3.1170654296875
3,751;-3.1170654296875
3,752;-3.11737060546875
3,753;-3.11767578125
3,754;-3.1170654296875
3,755;-3.1170654296875
3,756;-3.11676025390625
3,757;-3.11676025390625
3,758;-3.1170654296875
3,759;-3.1170654296875
3,76;-3.11737060546875
3,761;-3.11737060546875
3,762;-3.11737060546875
3,763;-3.11676025390625
3,764;-3.11737060546875
3,765;-3.11767578125
3,766;-3.11737060546875
3,767;-3.11676025390625
3,768;-3.11676025390625
3,769;-3.11676025390625
3,77;-3.1170654296875
3,771;-3.1170654296875
3,772;-3.1170654296875
3,773;-3.1170654296875
3,774;-3.11737060546875
3,775;-3.11737060546875
3,776;-3.11798095703125
3,777;-3.11676025390625
3,778;-3.11676025390625
3,779;-3.1170654296875
3,78;-3.11737060546875
3,781;-3.1170654296875
3,782;-3.11767578125
3,783;-3.1170654296875
3,784;-3.11737060546875
3,785;-3.11767578125
3,786;-3.11767578125
3,787;-3.11737060546875
3,788;-3.1170654296875
3,789;-3.11767578125
3,79;-3.11767578125
3,791;-3.1170654296875
3,792;-3.1170654296875
3,793;-3.11767578125
3,794;-3.1170654296875
3,795;-3.11737060546875
3,796;-3.1170654296875
3,797;-3.11737060546875
3,798;-3.11737060546875
3,799;-3.11737060546875
3,8;-3.1170654296875
3,801;-3.1170654296875
3,802;-3.11737060546875
3,803;-3.11737060546875
3,804;-3.1170654296875
3,805;-3.1170654296875
3,806;-3.11767578125
3,807;-3.11737060546875
3,808;-3.11676025390625
3,809;-3.11737060546875
3,81;-3.11737060546875
3,811;-3.11737060546875
3,812;-3.11767578125
3,813;-3.11767578125
3,814;-3.1170654296875
3,815;-3.11767578125
3,816;-3.11767578125
3,817;-3.11737060546875
3,818;-3.11737060546875
3,819;-3.11737060546875
3,82;-3.1170654296875
3,821;-3.1170654296875
3,822;-3.11737060546875
3,823;-3.1170654296875
3,824;-3.1170654296875
3,825;-3.11737060546875
3,826;-3.11737060546875
3,827;-3.11737060546875
3,828;-3.11737060546875
3,829;-3.11737060546875
3,83;-3.11737060546875
3,831;-3.11676025390625
3,832;-3.11676025390625
3,833;-3.11676025390625
3,834;-3.1170654296875
3,835;-3.11737060546875
3,836;-3.1170654296875
3,837;-3.11737060546875
3,838;-3.11798095703125
3,839;-3.11737060546875
3,84;-3.11676025390625
3,841;-3.11737060546875
3,842;-3.1170654296875
3,843;-3.11737060546875
3,844;-3.1170654296875
3,845;-3.11767578125
3,846;-3.1170654296875
3,847;-3.1170654296875
3,848;-3.11737060546875
3,849;-3.1170654296875
3,85;-3.1170654296875
3,851;-3.11737060546875
3,852;-3.11676025390625
3,853;-3.11737060546875
3,854;-3.11737060546875
3,855;-3.11737060546875
3,856;-3.11737060546875
3,857;-3.11767578125
3,858;-3.1170654296875
3,859;-3.1170654296875
3,86;-3.11676025390625
3,861;-3.11767578125
3,862;-3.11767578125
3,863;-3.11676025390625
3,864;-3.11737060546875
3,865;-3.116455078125
3,866;-3.1170654296875
3,867;-3.11737060546875
3,868;-3.11737060546875
3,869;-3.11737060546875
3,87;-3.11737060546875
3,871;-3.11767578125
3,872;-3.1170654296875
3,873;-3.11676025390625
3,874;-3.11737060546875
3,875;-3.11737060546875
3,876;-3.1170654296875
3,877;-3.11737060546875
3,878;-3.1170654296875
3,879;-3.1170654296875
3,88;-3.11737060546875
3,881;-3.11767578125
3,882;-3.1170654296875
3,883;-3.11676025390625
3,884;-3.1170654296875
3,885;-3.11767578125
3,886;-3.1170654296875
3,887;-3.116455078125
3,888;-3.11767578125
3,889;-3.11737060546875
3,89;-3.1170654296875
3,891;-3.1170654296875
3,892;-3.11767578125
3,893;-3.11737060546875
3,894;-3.11737060546875
3,895;-3.1170654296875
3,896;-3.1170654296875
3,897;-3.11737060546875
3,898;-3.1170654296875
3,899;-3.11767578125
3,9;-3.1170654296875
3,901;-3.11676025390625
3,902;-3.11737060546875
3,903;-3.11737060546875
3,904;-3.11737060546875
3,905;-3.11737060546875
3,906;-3.11737060546875
3,907;-3.1170654296875
3,908;-3.11676025390625
3,909;-3.11676025390625
3,91;-3.1170654296875
3,911;-3.11737060546875
3,912;-3.11737060546875
3,913;-3.1170654296875
3,914;-3.1170654296875
3,915;-3.11737060546875
3,916;-3.11737060546875
3,917;-3.1170654296875
3,918;-3.1170654296875
3,919;-3.11737060546875
3,92;-3.11767578125
3,921;-3.11737060546875
3,922;-3.11676025390625
3,923;-3.1170654296875
3,924;-3.1170654296875
3,925;-3.11737060546875
3,926;-3.11737060546875
3,927;-3.11676025390625
3,928;-3.1170654296875
3,929;-3.11676025390625
3,93;-3.1170654296875
3,931;-3.1170654296875
3,932;-3.11767578125
3,933;-3.11737060546875
3,934;-3.11737060546875
3,935;-3.11737060546875
3,936;-3.1170654296875
3,937;-3.1170654296875
3,938;-3.116455078125
3,939;-3.1170654296875
3,94;-3.11737060546875
3,941;-3.1170654296875
3,942;-3.11676025390625
3,943;-3.1170654296875
3,944;-3.11737060546875
3,945;-3.11767578125
3,946;-3.11737060546875
3,947;-3.1170654296875
3,948;-3.11676025390625
3,949;-3.1170654296875
3,95;-3.1170654296875
3,951;-3.11676025390625
3,952;-3.11676025390625
3,953;-3.11676025390625
3,954;-3.1170654296875
3,955;-3.11737060546875
3,956;-3.1170654296875
3,957;-3.1170654296875
3,958;-3.1170654296875
3,959;-3.11676025390625
3,96;-3.11676025390625
3,961;-3.11737060546875
3,962;-3.116455078125
3,963;-3.11676025390625
3,964;-3.11676025390625
3,965;-3.11676025390625
3,966;-3.11676025390625
3,967;-3.1170654296875
3,968;-3.1170654296875
3,969;-3.11737060546875
3,97;-3.11676025390625
3,971;-3.11737060546875
3,972;-3.11614990234375
3,973;-3.1170654296875
3,974;-3.11737060546875
3,975;-3.11737060546875
3,976;-3.11737060546875
3,977;-3.11737060546875
3,978;-3.11767578125
3,979;-3.11737060546875
3,98;-3.11737060546875
3,981;-3.11676025390625
3,982;-3.11737060546875
3,983;-3.1170654296875
3,984;-3.11737060546875
3,985;-3.1170654296875
3,986;-3.11737060546875
3,987;-3.11676025390625
3,988;-3.11737060546875
3,989;-3.11676025390625
3,99;-3.1170654296875
3,991;-3.1170654296875
3,992;-3.1170654296875
3,993;-3.11737060546875
3,994;-3.1170654296875
3,995;-3.1170654296875
3,996;-3.1170654296875
3,997;-3.1170654296875
3,998;-3.1170654296875
3,999;-3.1170654296875
4;-3.11737060546875
4,001;-3.11737060546875
4,002;-3.11676025390625
4,003;-3.1170654296875
4,004;-3.11737060546875
4,005;-3.11737060546875
4,006;-3.1170654296875
4,007;-3.11767578125
4,008;-3.11737060546875
4,009;-3.1170654296875
4,01;-3.11737060546875
4,011;-3.11737060546875
4,012;-3.11676025390625
4,013;-3.11737060546875
4,014;-3.11737060546875
4,015;-3.11676025390625
4,016;-3.11737060546875
4,017;-3.11676025390625
4,018;-3.11737060546875
4,019;-3.11737060546875
4,02;-3.11737060546875
4,021;-3.11676025390625
4,022;-3.11737060546875
4,023;-3.11737060546875
4,024;-3.11737060546875
4,025;-3.11676025390625
4,026;-3.11676025390625
4,027;-3.1170654296875
4,028;-3.11676025390625
4,029;-3.11767578125
4,03;-3.11737060546875
4,031;-3.11767578125
4,032;-3.11767578125
4,033;-3.11737060546875
4,034;-3.1170654296875
4,035;-3.11737060546875
4,036;-3.1170654296875
4,037;-3.11767578125
4,038;-3.116455078125
4,039;-3.11676025390625
4,04;-3.11676025390625
4,041;-3.11798095703125
4,042;-3.11737060546875
4,043;-3.1170654296875
4,044;-3.11737060546875
4,045;-3.1170654296875
4,046;-3.11767578125
4,047;-3.1170654296875
4,048;-3.11737060546875
4,049;-3.1170654296875
4,05;-3.1170654296875
4,051;-3.11737060546875
4,052;-3.1170654296875
4,053;-3.11737060546875
4,054;-3.11798095703125
4,055;-3.1170654296875
4,056;-3.1170654296875
4,057;-3.11737060546875
4,058;-3.1170654296875
4,059;-3.1170654296875
4,06;-3.1170654296875
4,061;-3.11737060546875
4,062;-3.1170654296875
4,063;-3.11676025390625
4,064;-3.1170654296875
4,065;-3.11767578125
4,066;-3.11676025390625
4,067;-3.11676025390625
4,068;-3.11767578125
4,069;-3.11676025390625
4,07;-3.11676025390625
4,071;-3.1170654296875
4,072;-3.11767578125
4,073;-3.11737060546875
4,074;-3.11676025390625
4,075;-3.11737060546875
4,076;-3.11737060546875
4,077;-3.1170654296875
4,078;-3.1170654296875
4,079;-3.1170654296875
4,08;-3.11737060546875
4,081;-3.1170654296875
4,082;-3.11767578125
4,083;-3.11676025390625
4,084;-3.1170654296875
4,085;-3.1170654296875
4,086;-3.1170654296875
4,087;-3.1170654296875
4,088;-3.1170654296875
4,089;-3.11676025390625
4,09;-3.1170654296875
4,091;-3.1170654296875
4,092;-3.11737060546875
4,093;-3.11767578125
4,094;-3.11737060546875
4,095;-3.11767578125
4,096;-3.11737060546875
4,097;-3.11737060546875
4,098;-3.1170654296875
4,099;-3.1170654296875
4,1;-3.11767578125
4,101;-3.1170654296875
4,102;-3.11767578125
4,103;-3.11737060546875
4,104;-3.11737060546875
4,105;-3.11737060546875
4,106;-3.1170654296875
4,107;-3.11737060546875
4,108;-3.1170654296875
4,109;-3.1170654296875
4,11;-3.1170654296875
4,111;-3.11767578125
4,112;-3.11737060546875
4,113;-3.11767578125
4,114;-3.11737060546875
4,115;-3.11767578125
4,116;-3.11767578125
4,117;-3.11737060546875
4,118;-3.11737060546875
4,119;-3.11767578125
4,12;-3.11767578125
4,121;-3.11737060546875
4,122;-3.11767578125
4,123;-3.11737060546875
4,124;-3.11737060546875
4,125;-3.11798095703125
4,126;-3.11767578125
4,127;-3.11737060546875
4,128;-3.11737060546875
4,129;-3.1170654296875
4,13;-3.11737060546875
4,131;-3.1170654296875
4,132;-3.1170654296875
4,133;-3.11737060546875
4,134;-3.11737060546875
4,135;-3.1170654296875
4,136;-3.1170654296875
4,137;-3.1170654296875
4,138;-3.1170654296875
4,139;-3.1170654296875
4,14;-3.11676025390625
4,141;-3.11737060546875
4,142;-3.1170654296875
4,143;-3.1170654296875
4,144;-3.11737060546875
4,145;-3.11737060546875
4,146;-3.11737060546875
4,147;-3.11737060546875
4,148;-3.11767578125
4,149;-3.11676025390625
4,15;-3.1170654296875
4,151;-3.1170654296875
4,152;-3.1170654296875
4,153;-3.1170654296875
4,154;-3.116455078125
4,155;-3.1170654296875
4,156;-3.11737060546875
4,157;-3.1170654296875
4,158;-3.1170654296875
4,159;-3.11676025390625
4,16;-3.1170654296875
4,161;-3.1170654296875
4,162;-3.11676025390625
4,163;-3.1170654296875
4,164;-3.1170654296875
4,165;-3.1170654296875
4,166;-3.1170654296875
4,167;-3.1170654296875
4,168;-3.1170654296875
4,169;-3.1170654296875
4,17;-3.11614990234375
4,171;-3.1170654296875
4,172;-3.11676025390625
4,173;-3.116455078125
4,174;-3.1170654296875
4,175;-3.1170654296875
4,176;-3.1170654296875
4,177;-3.11676025390625
4,178;-3.1170654296875
4,179;-3.1170654296875
4,18;-3.1170654296875
4,181;-3.1170654296875
4,182;-3.1170654296875
4,183;-3.11676025390625
4,184;-3.116455078125
4,185;-3.116455078125
4,186;-3.11614990234375
4,187;-3.1170654296875
4,188;-3.11676025390625
4,189;-3.1170654296875
4,19;-3.11676025390625
4,191;-3.11676025390625
4,192;-3.11676025390625
4,193;-3.11676025390625
4,194;-3.11676025390625
4,195;-3.11676025390625
4,196;-3.11676025390625
4,197;-3.11676025390625
4,198;-3.11614990234375
4,199;-3.11676025390625
4,2;-3.11676025390625
4,201;-3.116455078125
4,202;-3.11676025390625
4,203;-3.116455078125
4,204;-3.11614990234375
4,205;-3.1170654296875
4,206;-3.116455078125
4,207;-3.11676025390625
4,208;-3.11676025390625
4,209;-3.116455078125
4,21;-3.11676025390625
4,211;-3.11676025390625
4,212;-3.11676025390625
4,213;-3.116455078125
4,214;-3.11676025390625
4,215;-3.11676025390625
4,216;-3.11676025390625
4,217;-3.11676025390625
4,218;-3.116455078125
4,219;-3.11614990234375
4,22;-3.11676025390625
4,221;-3.1170654296875
4,222;-3.11614990234375
4,223;-3.1170654296875
4,224;-3.11676025390625
4,225;-3.116455078125
4,226;-3.116455078125
4,227;-3.11737060546875
4,228;-3.11676025390625
4,229;-3.11737060546875
4,23;-3.1170654296875
4,231;-3.11676025390625
4,232;-3.1170654296875
4,233;-3.11676025390625
4,234;-3.11737060546875
4,235;-3.11676025390625
4,236;-3.11737060546875
4,237;-3.11676025390625
4,238;-3.11676025390625
4,239;-3.1170654296875
4,24;-3.11676025390625
4,241;-3.1170654296875
4,242;-3.1170654296875
4,243;-3.1170654296875
4,244;-3.11676025390625
4,245;-3.11737060546875
4,246;-3.11676025390625
4,247;-3.11737060546875
4,248;-3.11737060546875
4,249;-3.116455078125
4,25;-3.11676025390625
4,251;-3.11676025390625
4,252;-3.11676025390625
4,253;-3.1170654296875
4,254;-3.1170654296875
4,255;-3.11737060546875
4,256;-3.1170654296875
4,257;-3.1170654296875
4,258;-3.11676025390625
4,259;-3.11676025390625
4,26;-3.11676025390625
4,261;-3.1170654296875
4,262;-3.1170654296875
4,263;-3.1170654296875
4,264;-3.1170654296875
4,265;-3.11676025390625
4,266;-3.11676025390625
4,267;-3.116455078125
4,268;-3.116455078125
4,269;-3.1170654296875
4,27;-3.116455078125
4,271;-3.11676025390625
4,272;-3.116455078125
4,273;-3.11676025390625
4,274;-3.116455078125
4,275;-3.11676025390625
4,276;-3.11676025390625
4,277;-3.1170654296875
4,278;-3.11676025390625
4,279;-3.11676025390625
4,28;-3.11676025390625
4,281;-3.11676025390625
4,282;-3.116455078125
4,283;-3.116455078125
4,284;-3.11614990234375
4,285;-3.1170654296875
4,286;-3.116455078125
4,287;-3.116455078125
4,288;-3.1170654296875
4,289;-3.1170654296875
4,29;-3.11676025390625
4,291;-3.116455078125
4,292;-3.1170654296875
4,293;-3.1158447265625
4,294;-3.116455078125
4,295;-3.11676025390625
4,296;-3.116455078125
4,297;-3.11676025390625
4,298;-3.11614990234375
4,299;-3.116455078125
4,3;-3.11614990234375
4,301;-3.116455078125
4,302;-3.11737060546875
4,303;-3.11676025390625
4,304;-3.116455078125
4,305;-3.11614990234375
4,306;-3.11676025390625
4,307;-3.11676025390625
4,308;-3.11676025390625
4,309;-3.11676025390625
4,31;-3.11676025390625
4,311;-3.1170654296875
4,312;-3.11676025390625
4,313;-3.116455078125
4,314;-3.116455078125
4,315;-3.116455078125
4,316;-3.116455078125
4,317;-3.11676025390625
4,318;-3.1170654296875
4,319;-3.116455078125
4,32;-3.116455078125
4,321;-3.116455078125
4,322;-3.1170654296875
4,323;-3.11676025390625
4,324;-3.1170654296875
4,325;-3.1170654296875
4,326;-3.1170654296875
4,327;-3.11614990234375
4,328;-3.11614990234375
4,329;-3.11676025390625
4,33;-3.1170654296875
4,331;-3.11676025390625
4,332;-3.11676025390625
4,333;-3.1170654296875
4,334;-3.1170654296875
4,335;-3.11676025390625
